tree
version=v3
num_class=1
num_tree_per_iteration=1
label_index=0
max_feature_idx=9
objective=binary sigmoid:1
feature_names=Column_0 Column_1 Column_2 Column_3 Column_4 Column_5 Column_6 Column_7 Column_8 Column_9
feature_infos=[-39.599748861351209:3.202605887883931] [-1.662425519084197:32.507701955788043] [-1.7885478797273402:23.521722816805894] [-0.2159488219222388:5.8101459794246386] [-5.506754672041156:11.398726200744017] [-34.352181421132713:24.445706336197716] [-1.2682927843421465:15.523717361941239] [-0.29598397758150563:20.207531766523946] [-0.92135003479692401:11.378828062449848] [-0.42558784639417108:15.766073447244642]
tree_sizes=1520 1687 1693 1697 1694 1693 1701 1690 1696 1690 1694 1693 1693 1697 1694 1706 1692 1697 1693 1708 1703 1693 1703 1699 1696 1704 1702

Tree=0
num_leaves=15
num_cat=0
split_feature=0 6 8 7 3 4 4 3 5 4 9 9 6 0
split_gain=244.487 60.2111 45.6481 78.2687 28.7163 19.8698 17.1102 16.2974 13.074 11.8217 12.1934 11.2663 10.2011 10.1905
threshold=0.05742611026926784 0.46797409356650027 -0.64127108723410242 -0.073944482756925792 1.5918796184818247 0.0041490588724807887 -0.053939444202867635 2.7970985787512004 -0.014032278767465227 -0.042928049985448441 -0.2539658094543239 0.39282798832968324 -1.2567205091798874 -0.10173233337969979
decision_type=2 2 2 2 2 2 2 2 2 2 2 2 2 2
left_child=2 7 8 4 5 9 -3 12 -1 13 -11 -5 -2 -4
right_child=1 6 3 11 -6 -7 -8 -9 -10 10 -12 -13 -14 -15
leaf_value=0.17264957264957267 0.12 -0.11764705882352938 0.11999999999999984 0.081132075471698123 0.20000000000000001 -0.12808988764044946 0.048888888888888891 0.20000000000000001 0.088557213930348266 -0.053968253968253971 0.058585858585858588 0.16962025316455698 -0.16772334293948127 -0.092473118279569888
leaf_weight=29.25 1.2499999999999989 8.5000000000000018 2.5000000000000027 53 4.9999999999999991 22.25 22.5 1.2499999999999989 50.25 15.749999999999998 24.75 19.75 86.75 23.25
leaf_count=117 5 34 10 212 20 89 90 5 201 63 99 79 347 93
internal_value=0 -0.11684 0.0571719 0.0273684 -0.0331551 -0.0463277 0.00322581 -0.158543 0.119497 -0.0188679 0.0148148 0.105155 -0.163636 -0.0718447
internal_weight=0 120.25 245.75 166.25 93.5 88.5 31 89.25 79.5 66.25 40.5 72.75 88 25.75
internal_count=1464 481 983 665 374 354 124 357 318 265 162 291 352 103
is_linear=0
shrinkage=0.1


Tree=1
num_leaves=15
num_cat=0
split_feature=2 0 7 0 7 4 1 4 6 8 7 0 4 9
split_gain=229.275 65.306 45.1182 42.5135 23.1943 21.158 13.3956 13.3387 12.979 11.6288 10.8754 10.4113 9.23276 8.78639
threshold=-0.34921776192110027 0.052951561730301563 -0.29484907593518239 0.070956717205823236 1.0000000180025095e-35 0.0041490588724807887 -0.17939054777316679 -0.040671393886569936 0.82053051533717813 -0.61572695749372564 0.66110077856361638 -0.096241652303996159 -0.04958926377129462 -0.16606871970310452
decision_type=2 2 2 2 2 2 2 2 2 2 2 2 2 2
left_child=1 5 -3 4 6 7 -2 11 -5 -7 -11 -1 -13 -6
right_child=3 2 -4 8 13 9 -8 -9 -10 10 -12 12 -14 -15
leaf_value=0.16777615829041939 0.04125385226940604 -0.10063383458070968 0.11345903513082155 -0.16483774401354659 -0.021631088475850314 0.074398255697323307 -0.09639415375224647 0.12113194600184735 -0.016453413286015298 -0.12163847536834138 0.13809264209910116 0.024039599632316395 -0.19693061284423441 0.1072275609647778
leaf_weight=4.2341997176408794 8.2246616929769498 33.289559602737427 13.976046144962309 64.08842097222805 10.231543198227884 11.21316681802273 50.362091869115829 126.80969220399857 6.4918351471424094 8.4681335389614087 1.9911978244781483 11.971487313508987 2.2455649673938725 10.959702849388121
leaf_count=17 33 134 56 258 41 45 202 509 26 34 8 48 9 44
internal_value=0 0.0664405 -0.0373284 -0.0946569 -0.044642 0.0958216 -0.0770705 0.109573 -0.15119 0.00365251 -0.0721921 0.0301317 -0.0108624 0.0450121
internal_weight=0 214.199 47.2656 150.358 79.778 166.933 58.5868 145.261 70.5803 21.6725 10.4593 18.4513 14.2171 21.1912
internal_count=1464 860 190 604 320 670 235 583 284 87 42 74 57 85
is_linear=0
shrinkage=0.1


Tree=2
num_leaves=15
num_cat=0
split_feature=2 0 7 7 0 4 4 4 6 1 6 0 5 5
split_gain=187.711 53.4461 36.8361 35.7598 21.1558 17.3438 11.4664 10.9989 10.8541 10.7306 10.2102 8.5828 8.40696 7.67448
threshold=-0.34921776192110027 0.052951561730301563 -0.29484907593518239 1.0000000180025095e-35 0.075948245456462907 0.0041490588724807887 -0.16004306379170322 -0.040671393886569936 -1.196901943043257 -0.17939054777316679 1.1179288024962033 -0.096241652303996159 0.046732890824192165 -0.0045768494301111932
decision_type=2 2 2 2 2 2 2 2 2 2 2 2 2 2
left_child=1 5 -3 4 9 7 -5 11 -7 -2 -10 -1 -9 -8
right_child=3 2 -4 6 -6 8 13 12 10 -11 -12 -13 -14 -15
leaf_value=0.15335047422672476 0.037155070162891365 -0.091455062710410762 0.10251601448959209 -0.17811244107730095 -0.1535665593611214 0.15894233419192932 0.10271253310074693 0.11319787127718849 -0.055819016352709819 -0.086035023636197458 0.18554534499948985 -0.0098133554434673281 -0.1088555529987618 -0.0080329238158265426
leaf_weight=4.172130852937701 8.2190215885639173 32.982938721776009 13.923222512006758 2.9493533819913891 59.008386418223381 3.708744332194331 9.4227684736251884 123.84839130938053 15.835398629307749 50.617014244198799 1.9707281291484822 14.184831023216246 1.7287984639406193 18.627634674310681
leaf_count=17 33 134 56 12 242 15 38 502 64 204 8 57 7 75
internal_value=0 0.0603418 -0.0338784 -0.0861188 -0.111258 0.087054 0.00944799 0.0995718 0.00331025 -0.0688261 -0.0291055 0.0272702 0.110141 0.029169
internal_weight=0 212.355 46.9062 148.844 117.844 165.449 30.9998 143.934 21.5149 58.836 17.8061 18.357 125.577 28.0504
internal_count=1464 860 190 604 479 670 125 583 87 237 72 74 509 113
is_linear=0
shrinkage=0.1


Tree=3
num_leaves=15
num_cat=0
split_feature=2 4 4 7 3 6 5 9 5 3 8 4 2 8
split_gain=154.731 33.3645 42.8028 30.3413 14.3066 13.4628 11.5415 14.6602 11.1012 10.7144 10.5618 10.3139 8.24456 7.78999
threshold=-0.31163930748042351 0.0093284924488224088 -0.09809377558333375 0.079035742145959084 2.7970985787512004 0.74076907473890341 -0.012457116528655306 -0.29416470837075964 -0.0087208406100071616 1.0000000180025095e-35 -0.61572695749372564 -0.16004306379170322 -0.34973716004743999 -0.4053539654280745
decision_type=2 2 2 2 2 2 2 2 2 2 2 2 2 2
left_child=1 2 -1 4 8 10 -4 9 13 -8 -3 -5 -9 -2
right_child=3 5 6 11 -6 -7 7 12 -10 -11 -12 -13 -14 -15
leaf_value=-0.073586007995974534 0.024756542082796942 -0.0062023002523471779 0.13396684143003895 -0.16540148802868612 0.19932883812682692 0.081025059476809311 0.010137199325263949 0.10485190434750531 -0.12902186253190184 0.17447790544455616 -0.12215500705836534 0.036107918442691823 -0.031579389777162875 -0.096144259830058865
leaf_weight=18.833648040890694 8.6073457002639788 16.388195171952248 37.915083736181259 2.862696215510371 1.4934111833572377 8.3531213849782926 41.389305040240288 75.372981160879135 84.310158312320709 4.3876878172159186 15.087763652205469 22.531978294253349 4.7058914154767981 13.994126871228216
leaf_count=77 35 67 157 12 6 34 169 309 351 18 62 91 19 57
internal_value=0 0.0510944 0.0691822 -0.0849961 -0.108044 -0.031833 0.0856005 0.0710298 -0.112338 0.0258891 -0.0617834 0.0133921 0.0968344 -0.0501015
internal_weight=0 222.434 182.605 133.8 108.405 39.8291 163.771 125.856 106.912 45.777 31.476 25.3947 80.0789 22.6015
internal_count=1464 912 749 552 449 163 672 515 443 187 129 103 328 92
is_linear=0
shrinkage=0.1


Tree=4
num_leaves=15
num_cat=0
split_feature=1 0 7 7 3 3 4 4 0 4 8 0 8 5
split_gain=126 42.0845 30.0395 27.5308 14.7128 12.836 11.8843 13.9627 11.2644 11.0134 9.17266 6.77077 6.72486 11.3844
threshold=-0.17939054777316679 0.052951561730301563 -0.18033026232085242 -0.29484907593518239 2.7970985787512004 1.0000000180025095e-35 0.0041490588724807887 -0.040671393886569936 0.075948245456462907 -0.16004306379170322 -0.61572695749372564 -0.10337240694776711 -0.4053539654280745 -0.013889689823640848
decision_type=2 2 2 2 2 2 2 2 2 2 2 2 2 2
left_child=1 5 4 -3 8 6 7 11 12 -4 -8 -1 13 -2
right_child=2 3 9 -5 -6 -7 10 -9 -10 -11 -12 -13 -14 -15
leaf_value=0.16769311540886928 0.21761291388514309 -0.081808326764922445 -0.15593518187785704 0.082275461207752504 0.18393663321374337 0.16173422675486754 0.057511579091690551 0.085436013837320121 -0.14354575829301516 0.022337100623074452 -0.076108927327424913 -0.032040928857683046 -0.10648500166621476 -0.0533042015518084
leaf_weight=1.9042544513940836 1.7108134478330637 35.305561140179634 3.9009271264076224 14.394690886139868 1.723093345761298 14.104649320244787 10.363187164068224 116.61677694320679 50.168296709656715 31.038951858878136 10.188177019357679 15.609175175428389 27.025621578097343 16.613333657383919
leaf_count=8 7 147 17 59 7 60 42 487 219 126 42 63 112 68
internal_value=0 0.0465947 -0.0770955 -0.0342847 -0.105671 0.0704102 0.0620828 0.0729326 -0.110896 0.00243356 -0.00872974 -0.0103236 -0.0747763 -0.0280103
internal_weight=0 218.486 132.181 49.7003 97.2412 168.786 154.682 134.13 95.5181 34.9399 20.5514 17.5134 45.3498 18.3241
internal_count=1464 908 556 206 413 702 642 558 406 143 84 71 187 75
is_linear=0
shrinkage=0.1


Tree=5
num_leaves=15
num_cat=0
split_feature=2 0 6 0 7 3 5 6 6 6 6 0 6 6
split_gain=107.599 33.5238 25.0615 22.4102 12.2728 11.7888 9.40601 8.91456 11.154 8.32897 7.63687 7.5533 6.74116 6.47468
threshold=-0.31163930748042351 0.052951561730301563 0.28714408710752093 0.070956717205823236 0.079035742145959084 1.0000000180025095e-35 0.05987780908300197 0.90511148066679903 -1.196901943043257 0.66843707215531178 -0.28219586818965708 -0.10347936826742367 -0.51264119860247914 -1.2567205091798874
decision_type=2 2 2 2 2 2 2 2 2 2 2 2 2 2
left_child=1 5 13 4 11 6 7 8 -1 -5 12 -2 -10 -3
right_child=3 2 -4 9 -6 -7 -8 -9 10 -11 -12 -13 -14 -15
leaf_value=0.095322696349433758 0.036977338071541674 0.14030792752665769 0.066192057549546102 -0.13365650408623952 0.042164808022759966 0.15306773193731882 -0.21933926486444918 0.10728704053709093 -0.0020110303737536617 -0.034953303900986492 0.045494349106484047 -0.072898167022943758 -0.17164724615019711 -0.093075884989902546
leaf_weight=33.882116511464119 7.2983378618955603 1.2379207760095621 17.343797937035561 50.213207393884659 16.416720256209373 13.731002643704413 1.2276325225830067 30.13335008919239 20.745428577065471 10.303534701466559 64.821832999587059 43.830663204193115 2.6407999545335761 29.90436863899231
leaf_count=145 30 5 72 229 67 61 5 128 86 43 272 183 11 127
internal_value=0 0.0430639 -0.030146 -0.0726564 -0.0330605 0.0642962 0.0563528 0.0585762 0.0465538 -0.116851 0.0278208 -0.0572141 -0.0211665 -0.0837988
internal_weight=0 215.668 48.4861 128.062 67.5457 167.182 153.451 152.224 122.09 60.5167 88.2081 51.129 23.3862 31.1423
internal_count=1464 912 204 552 280 708 647 642 514 272 369 213 97 132
is_linear=0
shrinkage=0.1


Tree=6
num_leaves=15
num_cat=0
split_feature=2 0 0 6 9 5 4 7 6 3 4 9 5 9
split_gain=90.1392 26.5389 21.73 14.1309 11.627 15.152 9.90893 9.59774 8.43154 7.74908 8.85199 8.54316 7.87963 7.0491
threshold=-0.34921776192110027 0.080868466160664856 0.070956717205823236 0.30471043059210751 0.19743816072211581 -0.014032278767465227 0.0093284924488224088 1.0000000180025095e-35 0.82053051533717813 1.0000000180025095e-35 -0.038346766218448104 -0.29416470837075964 0.012658589154660442 -0.16606871970310452
decision_type=2 2 2 2 2 2 2 2 2 2 2 2 2 2
left_child=1 4 7 -3 5 -1 9 -2 -4 10 12 -12 -7 -9
right_child=2 3 8 -5 -6 6 -8 13 -10 -11 11 -13 -14 -15
leaf_value=0.11222745027603963 -0.048575237129717314 -0.075617916194253523 -0.11979318090527168 0.047383011812512983 0.1228272398600989 0.0075028219428172147 -0.04127987384721999 -0.028791284415325087 0.0021454460041238953 0.14635419514253753 0.01082575337710604 0.083304629352938281 -0.16051032596922754 0.087785128688926073
leaf_weight=29.758036538958549 55.880676314234734 25.176486447453499 54.409318789839745 14.848902195692061 25.60319747030735 11.722955182194708 15.924951761960982 10.104683309793474 6.3302781581878653 6.8766406923532477 28.832171991467469 37.304383084177978 3.6637693494558325 10.657865718007086
leaf_count=134 235 109 258 62 112 48 66 41 26 32 121 161 15 44
internal_value=0 0.0428264 -0.0624097 -0.0299862 0.0610768 0.0492856 0.0313318 -0.0270049 -0.107085 0.0444125 0.0358136 0.0517075 -0.0325032 0.0310499
internal_weight=0 199.711 137.383 40.0254 159.686 134.083 104.325 76.6432 60.7396 88.3999 81.5233 66.1366 15.3867 20.7625
internal_count=1464 860 604 171 689 577 443 320 284 377 345 282 63 85
is_linear=0
shrinkage=0.1


Tree=7
num_leaves=15
num_cat=0
split_feature=2 0 7 3 9 5 3 6 9 0 1 0 6 6
split_gain=75.459 25.3076 17.453 14.0537 11.7542 14.6763 11.2042 9.50912 9.08287 7.84337 7.30309 7.19237 6.35863 7.72778
threshold=-0.2789204717593125 0.17310477747784211 -0.27472394870849065 1.0000000180025095e-35 0.33550235967990105 -0.014032278767465227 2.7970985787512004 0.01124916296724948 -0.27079824480334674 -0.10634949701154149 -0.18868151565980221 0.0691740285448805 1.085730174346802 -1.196901943043257
decision_type=2 2 2 2 2 2 2 2 2 2 2 2 2 2
left_child=1 3 6 4 5 -1 11 -3 12 -4 -10 -2 13 -7
right_child=2 7 9 -5 -6 8 -8 -9 10 -11 -12 -13 -14 -15
leaf_value=0.096273271339774244 -0.063908909012503276 -0.11994248367986793 0.15625045205071061 0.14508384890727291 0.10109887938221812 0.038156016828090555 0.18097725746488585 0.024181628948257254 0.05556722194804059 -0.021998149651446013 -0.063844354594353531 -0.12569487851939562 0.13719969439593932 -0.036726734477617505
leaf_weight=26.392119809985161 34.345560625195503 13.481024876236917 2.6576799750328055 13.344128206372259 25.908268168568611 19.178555503487587 1.4694910496473301 6.9318342208862296 52.146689593791962 34.697799921035767 5.6795248985290518 41.733950331807137 2.8347522169351569 48.970762550830841
leaf_count=121 148 61 11 65 116 81 6 29 226 147 24 211 12 206
internal_value=0 0.0349241 -0.0654701 0.0460435 0.0387463 0.0283376 -0.0925194 -0.0710006 0.0144182 -0.00931654 0.043839 -0.097802 -0.00954907 -0.0156533
internal_weight=0 214.868 114.904 194.455 181.111 155.202 77.549 20.4129 128.81 37.3555 57.8262 76.0795 70.9841 68.1493
internal_count=1464 941 523 851 786 670 365 90 549 158 250 359 299 287
is_linear=0
shrinkage=0.1


Tree=8
num_leaves=15
num_cat=0
split_feature=1 0 7 3 4 4 0 6 5 8 5 0 3 5
split_gain=63.7757 21.2408 15.9811 10.2397 12.2663 13.4316 10.0534 8.88795 7.89831 7.41171 7.06325 6.56956 6.43708 6.41795
threshold=-0.17424904585037512 0.11272511253171158 0.045065858539844947 1.0000000180025095e-35 -0.040671393886569936 0.0041490588724807887 0.1045960522378127 1.2625928076633868 0.031137225093400871 -0.64612888806734958 0.046287300374740985 -0.10337240694776711 2.7970985787512004 -0.0056551783177830476
decision_type=2 2 2 2 2 2 2 2 2 2 2 2 2 2
left_child=1 3 6 4 11 10 12 8 -3 -7 -6 -1 -2 -4
right_child=2 7 13 -5 5 9 -8 -9 -10 -11 -12 -13 -14 -15
leaf_value=0.15381454938463601 -0.055869310442169189 -0.064095891525376814 0.090230107748254601 0.13781327765978618 0.069579418022418696 0.043401207359742872 -0.11715602244884388 0.166983754329524 0.072322906287119723 -0.074425868938011661 -0.095931717957910112 -0.048262958799908155 0.16289439547310336 -0.021662643372807489
leaf_weight=1.7607436478137994 50.496184676885605 31.387453958392143 7.3923583179712322 11.874761298298834 112.84527435898781 9.8759016990661639 39.173411980271339 2.0783597379922858 4.9077069610357276 11.620053917169569 2.6386888921260825 18.642081469297409 1.3818586468696583 16.721587896347046
leaf_count=8 221 141 31 62 508 41 208 9 22 49 11 77 6 70
internal_value=0 0.0330401 -0.0597463 0.0482695 0.0415133 0.0522877 -0.0789168 -0.0341333 -0.0456498 -0.0202925 0.0657977 -0.0308239 -0.0500422 0.0126391
internal_weight=0 207.631 115.165 169.258 157.383 136.98 91.0515 38.3735 36.2952 21.496 115.484 20.4028 51.878 24.1139
internal_count=1464 928 536 756 694 609 435 172 163 90 519 85 227 101
is_linear=0
shrinkage=0.1


Tree=9
num_leaves=15
num_cat=0
split_feature=1 0 9 4 6 6 4 8 8 0 2 5 9 0
split_gain=53.3014 16.5225 15.9491 10.2758 10.1116 8.33372 8.1599 9.6648 8.14162 6.03654 5.84222 5.59958 5.38534 5.38862
threshold=-0.18674239154399699 0.12978544301693359 0.39282798832968324 -0.09809377558333375 0.37908277740452023 0.35442643759360382 0.0041490588724807887 -0.61572695749372564 -0.62789354048972212 0.0691740285448805 2.6549030911087326 0.046287300374740985 -0.36299097500222738 -0.10347936826742367
decision_type=2 2 2 2 2 2 2 2 2 2 2 2 2 2
left_child=1 3 4 -1 9 -3 11 -8 -6 10 12 -5 -2 -14
right_child=2 5 -4 6 8 -7 7 -9 -10 -11 -12 -13 13 -15
leaf_value=-0.059793052252448124 -0.016666110355515656 -0.085121846600421047 0.034502559183056641 0.063797007983984105 0.21341772978065046 0.04365279019401197 0.062037024682760233 -0.067965889730290982 -0.032838600538551824 -0.11388723795552734 0.11859134349323448 -0.090854395024444479 0.066267685277828045 -0.12219965067795642
leaf_weight=8.7848741263151151 12.786581099033361 15.973460152745249 19.262603342533112 129.03723940253258 1.3904098421335209 7.3323600888252249 11.305460765957834 11.571882054209707 39.01765176653862 38.279824241995811 1.8326250165700901 2.3845137804746619 1.6889592111110747 14.906457379460329
leaf_count=38 56 75 86 599 6 31 48 50 170 214 8 10 7 66
internal_value=0 0.0341517 -0.0494323 0.0454069 -0.0641436 -0.0446074 0.0513963 -0.00372142 -0.0243651 -0.0872731 -0.054635 0.060991 -0.0654395 -0.103019
internal_weight=0 186.39 129.165 163.084 109.903 23.3058 154.299 22.8773 40.4081 69.4944 31.2146 131.422 29.382 16.5954
internal_count=1464 851 613 745 527 106 707 98 176 351 137 609 129 73
is_linear=0
shrinkage=0.1


Tree=10
num_leaves=15
num_cat=0
split_feature=1 0 6 7 0 3 9 0 0 6 6 3 5 5
split_gain=44.9569 14.4865 13.3321 12.2963 8.26086 8.12498 8.64652 9.10419 9.86795 8.36733 8.167 7.93527 6.30636 6.09844
threshold=-0.17424904585037512 0.052951561730301563 0.26121439922340811 -0.29484907593518239 -0.10634949701154149 1.0000000180025095e-35 0.072808318070173503 -0.10437071259789503 -0.059892630507373736 1.1179288024962033 0.160326611703446 2.7970985787512004 -0.00021006302548963232 0.045396119475838624
decision_type=2 2 2 2 2 2 2 2 2 2 2 2 2 2
left_child=1 5 11 -3 -4 6 7 -1 9 -9 -8 12 -2 -6
right_child=2 3 4 -5 13 -7 10 8 -10 -11 -12 -13 -14 -15
leaf_value=0.069324821465287303 -0.039447235482590659 -0.054645047999484581 0.11185191247556357 0.057160347098408185 -0.03332907365926626 0.12876739635266593 -0.15534070671531786 -0.050141631251590595 0.036193381170181491 0.11555847468202241 0.10104525343242142 0.15906671720730764 -0.11134714676354047 0.18175694844369802
leaf_weight=33.207063928246498 17.532107502222061 32.430583536624908 4.7360640466213217 14.119345575571058 44.195468321442604 10.295268967747687 1.30698758363724 30.86810390651226 48.961466357111931 3.3813070654869071 25.156145393848419 1.31386438012123 40.102396905422211 1.3587686270475376
leaf_count=159 80 152 20 62 196 60 6 136 215 16 122 6 228 6
internal_value=0 0.0281214 -0.0516683 -0.0207327 -0.0138454 0.0429681 0.0367858 0.0250573 0.00739137 -0.0337827 0.0883826 -0.083936 -0.0894756 -0.0269136
internal_weight=0 199.726 109.239 46.5499 50.2903 153.176 142.881 116.418 83.2109 34.2494 26.4631 58.9484 57.6345 45.5542
internal_count=1464 928 536 214 222 714 654 526 367 152 128 314 308 202
is_linear=0
shrinkage=0.1


Tree=11
num_leaves=15
num_cat=0
split_feature=2 0 7 3 4 4 0 9 7 0 5 9 0 5
split_gain=37.729 14.1831 12.451 10.7702 9.6733 8.0239 7.5086 6.67022 6.22783 5.759 7.73729 7.19055 8.85596 5.61171
threshold=-0.2789204717593125 0.17310477747784211 0.079035742145959084 1.0000000180025095e-35 -0.098365661860307055 1.0000000180025095e-35 0.075948245456462907 -0.20562669869333375 -0.2081581812506226 0.040098376484904434 0.012756619053539702 0.67301930802952459 -0.081445336418171435 -0.013702541834871353
decision_type=2 2 2 2 2 2 2 2 2 2 2 2 2 2
left_child=1 3 6 4 -1 13 9 -4 -3 11 -11 -2 -13 -6
right_child=2 8 7 -5 5 -7 -8 -9 -10 10 -12 12 -14 -15
leaf_value=-0.063819927304034796 -0.073446413139306402 -0.091263810634100578 -0.035324571650574968 0.13142188534235102 0.089603119066652637 -0.01411893686636901 -0.10099124440327495 0.072355105774324358 0.041997578716291638 0.13096379893633112 -0.077942338240076278 0.22917407919819219 -0.050246083395034682 0.034947998182619212
leaf_weight=10.800264149904249 31.17098805308342 13.948125064373018 12.18247312307358 10.651381537318228 22.735167950391769 28.49084047973156 36.863215565681458 10.899662211537359 4.6848290860652915 4.1528427153825751 3.0936192274093628 1.8552997559309004 2.9186841100454322 108.14930093288422
leaf_count=47 141 70 52 65 118 125 229 46 20 19 15 8 13 496
internal_value=0 0.0253125 -0.0491839 0.0338724 0.0277667 0.0339732 -0.0678409 0.0155231 -0.0577583 -0.0395475 0.0417788 -0.0559428 0.0583442 0.0444418
internal_weight=0 199.46 103.137 180.827 170.176 159.375 80.0546 23.0821 18.633 43.1914 7.24646 35.945 4.77398 130.884
internal_count=1464 941 523 851 786 739 425 98 90 196 34 162 21 614
is_linear=0
shrinkage=0.1


Tree=12
num_leaves=15
num_cat=0
split_feature=1 7 3 9 4 4 6 8 9 4 2 2 6 4
split_gain=31.9771 11.2551 11.0784 12.4903 11.9497 13.6068 9.8176 7.46249 9.44917 6.31033 6.2497 6.21716 5.68268 5.57147
threshold=-0.17424904585037512 -0.18033026232085242 1.0000000180025095e-35 0.13696958109764532 -0.038346766218448104 0.0093284924488224088 -0.25431261794679444 -0.4053539654280745 -0.25656320355299228 -0.16004306379170322 1.0499628807190817 0.67339923912280419 1.159261375401113 -0.017832946620811606
decision_type=2 2 2 2 2 2 2 2 2 2 2 2 2 2
left_child=2 7 3 4 -1 -6 -5 8 -2 -3 11 -11 -7 -10
right_child=1 9 -4 6 5 12 -8 -9 13 10 -12 -13 -14 -15
leaf_value=-0.051061791866864104 -0.07631038985665696 -0.13451823024654067 0.12798046907159763 -0.21088738854691114 0.039710758134610412 -0.044640705947124722 0.091931120101555047 -0.089077014419217046 0.16676467094429473 0.013694645629334076 0.10685674573911096 -0.1486199402469667 0.16351177803782024 0.0042715196333516312
leaf_weight=28.564438953995705 13.076028227806093 2.9506098926067379 9.7292220890521985 1.1149774044752145 94.188362017273903 30.662618413567543 26.919125840067863 48.631966292858124 2.9971819967031479 19.717470675706871 6.3218965679407111 2.6806314438581458 1.370173692703246 7.1291861385107023
leaf_count=128 72 16 64 5 448 141 136 280 14 83 27 11 6 33
internal_value=0 -0.0449186 0.0240027 0.0184693 0.00734551 0.0205634 0.0798874 -0.0668141 -0.0201514 0.0047443 0.0190517 -0.00573136 -0.0357372 0.0523659
internal_weight=0 103.505 192.549 182.82 154.786 126.221 28.0341 71.8344 23.2024 31.6706 28.72 22.3981 32.0328 10.1264
internal_count=1464 536 928 864 723 595 141 399 119 137 121 94 147 47
is_linear=0
shrinkage=0.1


Tree=13
num_leaves=15
num_cat=0
split_feature=1 0 5 9 8 9 6 6 6 6 5 2 2 8
split_gain=27.1597 11.2468 9.35303 14.3259 8.50989 6.63192 6.42588 6.28026 5.2996 6.15869 4.77612 5.39863 4.17644 5.13626
threshold=-0.18674239154399699 0.070956717205823236 -0.014032278767465227 -0.27079824480334674 -0.56131493954811851 0.39282798832968324 0.66843707215531178 0.93048625602674828 -0.063149468261587793 -0.81643560945356464 0.026792718211251867 0.40590920405786218 1.0499628807190817 1.0315323863008568
decision_type=2 2 2 2 2 2 2 2 2 2 2 2 2 2
left_child=2 5 -1 4 8 12 -3 -6 9 -4 -8 -12 13 -2
right_child=1 6 3 -5 7 -7 10 -9 -10 -11 11 -13 -14 -15
leaf_value=0.080986593587433042 -0.044856455775340698 -0.095569955712331692 0.02362176188340262 0.048395612952619599 -0.06833258160691276 0.049984383883972187 -0.081170359208683374 0.048080275872560863 0.10319679191702798 -0.075941727997538871 0.13210706436426053 -0.06867797029371657 0.039257921380835642 0.12278497297750744
leaf_weight=25.526916518807411 46.891435354948044 35.971641570329666 28.314864508807659 69.505165800452232 29.896241642534733 13.801076993346213 4.6544207483530027 5.48433694243431 6.0050423741340628 7.9592128023505202 3.5096162557601929 2.1653228253126144 8.089509040117262 1.9017327874898899
leaf_count=144 214 244 134 343 139 63 21 25 29 37 16 10 37 8
internal_value=0 -0.0372966 0.0251083 0.0154158 -0.0141011 -0.0122017 -0.0756069 -0.0502874 0.0161808 0.00177567 -0.00608614 0.0554958 -0.0272895 -0.0383226
internal_weight=0 116.985 172.692 147.165 77.6597 70.6838 46.301 35.3806 42.2791 36.2741 10.3294 5.67494 56.8827 48.7932
internal_count=1464 613 851 707 364 322 291 164 200 171 47 26 259 222
is_linear=0
shrinkage=0.1


Tree=14
num_leaves=15
num_cat=0
split_feature=0 6 1 6 3 9 6 6 6 3 4 9 9 9
split_gain=23.2241 10.8318 9.09473 7.90426 6.19597 6.36929 7.08573 8.90846 6.53823 5.91458 5.84079 5.081 4.89543 4.89465
threshold=0.075948245456462907 0.35442643759360382 -0.18674239154399699 -1.2580534846560707 1.0000000180025095e-35 0.072808318070173503 -1.161769256074084 -1.1501200475605631 0.160326611703446 4.0023175390205763 0.02218871334966014 0.39282798832968324 -0.31302908780901734 -0.32065406567477184
decision_type=2 2 2 2 2 2 2 2 2 2 2 2 2 2
left_child=2 3 4 -2 5 6 -1 -8 -7 -5 12 -4 13 -9
right_child=1 -3 11 9 -6 8 7 10 -10 -11 -12 -13 -14 -15
leaf_value=0.058201808783627774 0.20554203166346197 0.0046716462387540007 -0.024735782382579369 -0.083877828379049918 0.11935454608145356 -0.13772531532035437 -0.32014176647720927 -0.007354908273709649 0.090702162315150062 0.19997188812545622 -0.077144268580893696 0.042488458722546064 0.031339894415337334 -0.14897050792344133
leaf_weight=30.192896038293839 0.99145984649658103 26.709193408489227 57.322213768959045 48.901201128959656 7.7544073164463034 1.3351438641548181 0.85438109934329887 16.716033682227138 20.375165328383446 0.7452734112739553 7.832136556506156 13.986815072596071 47.808762550354004 2.8578808903694144
leaf_count=157 4 126 263 319 59 6 4 73 112 3 34 64 228 12
internal_value=0 -0.0468554 0.0173655 -0.0740336 0.0325573 0.0272979 0.017214 0.000945313 0.0766543 -0.0796168 0.00459261 -0.0115502 0.0140932 -0.0280314
internal_weight=0 77.3471 207.036 50.6379 135.727 127.972 106.262 76.0692 21.7103 49.6465 75.2148 71.309 67.3827 19.5739
internal_count=1464 452 1012 326 685 626 508 351 118 322 347 327 313 85
is_linear=0
shrinkage=0.1


Tree=15
num_leaves=15
num_cat=0
split_feature=2 0 9 5 6 3 9 6 3 7 8 2 0 2
split_gain=19.6438 8.98341 8.93062 11.1467 7.69417 6.53279 5.56601 5.53606 6.04114 5.26138 6.12666 6.38091 5.12717 4.95157
threshold=-0.34921776192110027 0.070956717205823236 0.13696958109764532 -0.014032278767465227 -0.25431261794679444 1.0000000180025095e-35 -0.27079824480334674 0.59454569492745002 2.7970985787512004 0.94070104827777967 -0.56131493954811851 -0.3693236633917098 -0.10347936826742367 -0.34984103967270791
decision_type=2 2 2 2 2 2 2 2 2 2 2 2 2 2
left_child=2 12 3 -1 -4 6 9 8 -3 10 11 -5 -2 -12
right_child=1 7 4 5 -6 -7 -8 -9 -10 -11 13 -13 -14 -15
leaf_value=0.075478170663070859 0.053925078576626387 -0.098884573212015048 -0.18625560765241134 0.013881598159716003 0.086035838270899612 0.1202763701060869 0.022445461833868821 -0.0081798499281355262 0.18955586066829166 0.14461175083456029 -0.068626437108434968 -0.1167587944976112 -0.022232760518245583 0.14928665481802664
leaf_weight=22.858887366950512 10.374350130558012 29.508213527500633 1.0820885300636316 33.785384088754654 25.328066639602184 4.2963244169950476 44.243030443787575 10.728416800498961 0.74443547427654166 1.8272735476493824 29.23623509705067 4.2039797008037558 59.767120271921158 1.0813070833683003
leaf_count=139 46 231 5 156 142 34 213 50 3 9 137 20 274 5
internal_value=0 -0.0327018 0.0214964 0.011535 0.0748794 -0.000781671 -0.00532895 -0.0698994 -0.0917868 -0.02285 -0.0273297 -0.000575331 -0.0109686 -0.0608543
internal_weight=0 111.123 167.943 141.532 26.4102 118.674 114.377 40.9811 30.2526 70.1342 68.3069 37.9894 70.1415 30.3175
internal_count=1464 604 860 713 147 574 540 284 234 327 318 176 320 142
is_linear=0
shrinkage=0.1


Tree=16
num_leaves=15
num_cat=0
split_feature=0 6 8 7 3 2 0 0 9 0 5 7 6 8
split_gain=16.6238 8.56853 7.8217 10.4763 7.76148 7.38402 5.45074 5.10999 6.95136 4.86722 4.38487 4.7509 4.28883 3.79954
threshold=0.075948245456462907 0.35442643759360382 -0.67882490927370831 -0.073944482756925792 1.5918796184818247 -0.18192828119686069 -0.12116363978397562 -0.10387155977283108 0.39282798832968324 -0.10693778426965259 0.056462358287958675 0.44397771319734441 0.83696716417232797 0.9641274943562772
decision_type=2 2 2 2 2 2 2 2 2 2 2 2 2 2
left_child=2 5 9 4 13 -2 -5 -8 -9 -1 11 -3 -13 -4
right_child=1 10 3 6 -6 -7 7 8 -10 -11 -12 12 -14 -15
leaf_value=0.09693128188195585 -0.034068594728844846 -0.032076962604589428 -0.024535700760766485 -0.16505651087517453 0.12428323369807022 -0.1155253491725174 0.10914151730576378 0.0084889948883543186 0.097678293068999028 0.027094572532576584 0.16762323477374463 -0.054467961665435029 0.12075789009767966 0.11250782241003227
leaf_weight=15.670977294445036 27.448705859482288 18.255920842289932 91.730871394276619 1.3042862713336933 3.7992177531123152 18.716990672051907 9.4202264174818975 38.355004481971264 11.31708364933729 27.478405438363552 1.5483403205871571 2.0138326734304419 4.5590638369321823 2.0687088072299948
leaf_count=100 161 89 436 7 29 165 50 179 65 136 7 9 21 10
internal_value=0 -0.0411154 0.014724 0.00441867 -0.0158379 -0.0670937 0.0371525 0.0416157 0.0288095 0.0524578 0.00435213 -0.00582955 0.0670714 -0.0215133
internal_weight=0 72.5429 201.145 157.995 97.5988 46.1657 60.3966 59.0923 49.6721 43.1494 26.3772 24.8288 6.5729 93.7996
internal_count=1464 452 1012 776 475 326 301 294 244 236 126 119 30 446
is_linear=0
shrinkage=0.1


Tree=17
num_leaves=15
num_cat=0
split_feature=1 3 6 4 4 7 1 0 2 5 6 6 6 0
split_gain=15.0682 7.81632 7.21921 6.31961 8.05059 6.43041 5.92975 6.44355 5.10692 5.04918 4.84148 4.60107 4.50875 4.50419
threshold=-0.17424904585037512 1.0000000180025095e-35 0.26121439922340811 -0.040671393886569936 1.0000000180025095e-35 0.34638198898969796 -0.14435832880261129 -0.076649903920235463 -0.1714889216284749 0.012756619053539702 -1.114753454394749 0.91747440041626971 1.159261375401113 0.12978544301693359
decision_type=2 2 2 2 2 2 2 2 2 2 2 2 2 2
left_child=1 3 9 -1 -5 10 11 -8 -9 -2 13 -4 -12 -6
right_child=2 -3 6 4 5 -7 7 8 -10 -11 12 -13 -14 -15
leaf_value=-0.029369401680490917 -0.028701713811083659 0.11917576668895734 -0.12004055529806353 0.035137267629585585 0.07878030069897167 0.12499948212751447 0.08606018492100026 0.16149044476905977 -0.021740767862641369 -0.095537427678951542 -0.066931635305846476 0.011546439098594789 0.14652190092271042 -0.087413001104487076
leaf_weight=29.464628376066685 23.160387352108955 7.1902600303292266 6.8478333204984647 106.09325771033764 5.8587641417980212 2.7752333581447592 9.2975667864084226 1.6194340288639058 25.05258180201054 22.078526936471462 21.952266991138462 4.3422208875417709 1.0362916141748417 2.2597480341792107
leaf_count=140 128 64 33 559 27 13 42 7 122 186 107 18 5 13
internal_value=0 0.0170573 -0.0327812 0.0127239 0.0215844 -0.0208526 -0.0054044 0.0143736 -0.0106156 -0.0613204 -0.0338649 -0.0689792 -0.0573095 0.0325212
internal_weight=0 176.63 92.3986 169.44 139.976 33.8823 47.1596 35.9696 26.672 45.2389 31.1071 11.1901 22.9886 8.11851
internal_count=1464 928 536 864 724 165 222 171 129 314 152 51 112 40
is_linear=0
shrinkage=0.1


Tree=18
num_leaves=15
num_cat=0
split_feature=1 3 7 3 6 0 6 6 6 4 4 4 4 6
split_gain=12.5245 7.09669 6.60366 5.65186 5.30335 5.23184 5.05957 8.73965 4.37119 4.20086 4.12498 3.53565 5.24159 4.92621
threshold=-0.17424904585037512 1.0000000180025095e-35 0.045065858539844947 2.7970985787512004 1.1179288024962033 0.097429643820822878 -1.196901943043257 -0.19021294480644932 -0.57567337228246618 -0.30251147292571945 -0.16004306379170322 0.25452913133720523 0.031473629708298805 1.1799276618535677
decision_type=2 2 2 2 2 2 2 2 2 2 2 2 2 2
left_child=1 4 3 5 6 -2 -1 8 9 -8 -4 12 -12 -14
right_child=2 -3 10 -5 -6 -7 7 -9 -10 -11 11 -13 13 -15
leaf_value=0.042609168342234792 -0.030038872088322368 0.11730281310118638 -0.12894116573952671 0.15258867746541749 0.0770121136461729 -0.089440056770424978 0.26158094257771736 0.015626912402257408 -0.099338776415677343 -0.027205957458577842 0.049915141935517132 0.19387892645538668 -0.0074556286809983434 -0.22373997249934885
leaf_weight=31.431323111057281 43.757548362016678 6.6045620143413535 1.799953475594523 1.4039805531501759 11.544751673936842 22.426717549562454 0.5127262026071574 85.270336225628853 9.7952011674642545 28.653215996921062 14.40732473134995 1.2219399362802494 3.8759380877017966 1.4459419399499891
leaf_count=176 217 64 11 7 67 211 3 428 49 141 62 5 17 6
internal_value=0 0.0156326 -0.0302691 -0.0459554 0.0116167 -0.0501671 0.00676663 -0.00230175 -0.0415404 -0.0221292 0.0163311 0.0288118 0.0185882 -0.0662196
internal_weight=0 173.812 90.3393 67.5882 167.208 66.1843 155.663 124.231 38.9611 29.1659 22.7511 20.9511 19.7292 5.32188
internal_count=1464 928 536 435 864 428 797 621 193 144 101 90 85 23
is_linear=0
shrinkage=0.1


Tree=19
num_leaves=15
num_cat=0
split_feature=0 7 2 1 5 8 7 0 0 9 5 5 0 8
split_gain=10.602 5.74467 7.54633 7.59206 6.74907 5.74185 6.98818 4.38785 4.53918 5.89703 4.22916 3.83166 3.50764 4.69798
threshold=0.075948245456462907 -0.29484907593518239 -0.18192828119686069 -0.0034054507065867335 0.061660170880806685 -0.67882490927370831 -0.073944482756925792 -0.12116363978397562 -0.10387155977283108 0.39282798832968324 0.0017059759071504411 0.0071711427696691619 0.17934418779114172 -0.61988746634133929
decision_type=2 2 2 2 2 2 2 2 2 2 2 2 2 2
left_child=5 2 3 4 12 10 -7 -8 -9 -10 -1 -12 13 -2
right_child=1 -3 -4 -5 -6 6 7 8 9 -11 11 -13 -14 -15
leaf_value=0.066545489158912827 0.068494092090031142 0.0094235688375647296 -0.10867629387595668 0.2437816120231614 0.22349396286352119 -0.013780735735190914 -0.14681537124995089 0.10106111998065609 0.0040597580020353737 0.089413764118869726 -0.092558629308554408 0.031382988346152711 -0.080659775484395124 -0.050491882783870179
leaf_weight=28.243667297065258 5.0775887817144385 20.578405626118183 16.352632619440556 1.0218482539057721 0.98576715588569541 94.999420501291752 1.365653172135352 8.6917632818222028 37.469836063683033 10.324828095734118 3.4809547215700141 8.8002905249595624 12.974151864647864 9.5773855671286672
leaf_count=176 24 103 171 9 5 475 7 50 179 65 16 44 87 53
internal_value=0 -0.0344925 -0.0541432 -0.0240535 -0.033618 0.0117776 0.00290503 0.0303049 0.0345871 0.0224983 0.0452432 -0.00374661 -0.0427913 -0.00926616
internal_weight=0 66.5678 45.9894 29.6367 28.6149 193.376 152.852 57.8521 56.4864 47.7947 40.5249 12.2812 27.6291 14.655
internal_count=1464 452 349 178 169 1012 776 301 294 244 236 60 164 77
is_linear=0
shrinkage=0.1


Tree=20
num_leaves=15
num_cat=0
split_feature=3 1 7 5 9 9 4 4 0 9 1 4 2 2
split_gain=9.57992 9.02644 6.13496 7.23909 5.9152 5.76113 5.23718 5.18025 4.87984 4.86605 6.27725 4.64029 5.12697 4.6315
threshold=1.5918796184818247 -0.18674239154399699 -0.18033026232085242 0.23922796498710183 -0.013512199831841862 -0.033934734927967371 -0.038346766218448104 0.0093284924488224088 0.075948245456462907 -0.29416470837075964 -0.1927367994443335 -0.16004306379170322 1.0499628807190817 0.67339923912280419
decision_type=2 2 2 2 2 2 2 2 2 2 2 2 2 2
left_child=1 4 3 8 5 6 -1 9 -3 10 -8 -4 13 -13
right_child=-2 2 11 -5 -6 -7 7 -9 -10 -11 -12 12 -14 -15
leaf_value=-0.039503001466874188 0.11185509346854337 -0.027748921761361036 -0.12434091128087217 0.28314987940054043 0.055533164179160245 -0.20187409984746663 -0.012046730185738297 -0.023561447030100574 -0.085165774317871284 0.060595716767162022 0.075935790546603252 0.01254851038832216 0.09996517125951776 -0.12911118071037839
leaf_weight=21.521672114729881 7.424139402806758 41.86370911449194 2.4673312157392493 0.6667311042547216 25.92772438377142 1.3575554490089405 35.440942905843258 26.03261461853981 22.898836046457291 28.647582828998566 10.515113286674021 22.754825577139862 6.1507269740104666 2.5684791058301917
leaf_count=103 70 207 17 3 155 6 186 131 234 153 58 103 27 11
internal_value=0 -0.00342181 -0.0267795 -0.0446755 0.0121096 0.0029944 0.00527113 0.0148463 -0.0480505 0.0282486 0.00808437 0.00771884 0.0180714 -0.00181968
internal_weight=0 248.814 99.3706 65.4293 149.443 123.515 122.158 100.636 64.7625 74.6036 45.9561 33.9414 31.474 25.3233
internal_count=1464 1394 602 444 792 637 631 528 441 397 244 158 141 114
is_linear=0
shrinkage=0.1


Tree=21
num_leaves=15
num_cat=0
split_feature=3 1 0 5 7 5 6 5 4 0 2 1 0 0
split_gain=8.40336 7.5098 6.07588 5.36101 5.36115 4.09204 4.96197 3.90647 3.75408 3.89627 3.62483 5.03873 3.60978 5.71128
threshold=1.5918796184818247 -0.18674239154399699 -0.10306934987540685 0.23922796498710183 -0.18033026232085242 0.05987780908300197 1.0694630954919375 -0.014032278767465227 0.25452913133720523 0.21776112843445769 0.26047772868274816 0.37943812720478404 0.037263901514005472 0.087892259484779259
decision_type=2 2 2 2 2 2 2 2 2 2 2 2 2 2
left_child=1 5 -3 4 10 6 7 12 9 -6 11 -4 -1 -14
right_child=-2 2 3 -5 8 -7 -8 -9 -10 -11 -12 -13 13 -15
leaf_value=0.070742462713853635 0.10877516565734156 0.045951013070086394 -0.046043254490930254 0.2421777183558409 0.0025646967766420753 -0.16199605778581797 0.072531035748876038 0.00033586661503514563 0.17199533140081361 -0.12208492607826496 -0.09322700964791783 0.11544890751321833 -0.18594625822150279 0.097101204709647393
leaf_weight=14.783269852399828 6.8981459215283385 10.815891325473784 36.480044215917587 0.69945517182350059 26.541470155119903 1.3534297049045552 12.655721716582773 115.81371559947729 1.1896801143884648 2.769295245409011 16.738593146204948 2.0400973111391059 1.5063665956258767 1.3533317446708677
leaf_count=103 70 50 246 3 119 6 78 591 5 18 145 16 8 6
internal_value=0 -0.00314184 -0.0247097 -0.0335493 -0.0357982 0.0110852 0.0126885 0.00701358 -0.0021442 -0.00921226 -0.0543737 -0.0374903 0.0508481 -0.0519961
internal_weight=0 244.74 97.2745 86.4586 85.7592 147.466 146.112 133.457 30.5004 29.3108 55.2587 38.5201 17.643 2.8597
internal_count=1464 1394 602 552 549 792 786 708 142 137 407 262 117 14
is_linear=0
shrinkage=0.1


Tree=22
num_leaves=15
num_cat=0
split_feature=8 7 4 9 0 0 6 4 5 9 9 0 9 6
split_gain=7.14245 9.78243 7.69943 5.54619 5.27278 5.07924 4.67103 6.58327 4.85218 4.41528 4.69806 4.39923 5.56693 4.69852
threshold=-0.64612888806734958 -0.19357905132737896 -0.0026480980518520498 -0.25656320355299228 -0.12116363978397562 0.18597578960984867 -0.87194735972613324 -0.10449669740605527 -0.00072249204235848828 -0.36584581286869411 -0.42443180189228141 0.0691740285448805 -0.42293792056556229 -1.011732016429262
decision_type=2 2 2 2 2 2 2 2 2 2 2 2 2 2
left_child=5 2 3 9 -3 -1 -5 -8 -9 10 -2 13 -13 -12
right_child=1 4 -4 6 -6 -7 7 8 -10 -11 11 12 -14 -15
leaf_value=0.036032362242162601 -0.05089785419033073 -0.16448056284565285 -0.070050513099455203 0.23847478150330237 0.019673749266083576 -0.092761118424759398 -0.12704660565214512 -0.0067073808243007047 0.080000055112878277 -0.079071054771782959 -0.0038997336667392375 0.14669055627090447 -0.10503724961019674 0.15306284754653721
leaf_weight=58.7924944460392 13.867375612258909 1.5856091082096089 33.011513158679008 0.95361712574959057 80.027751468122005 3.2302795946598044 2.9905650913715389 15.473772786557682 11.071868687868111 14.91621260344982 3.5452753528952599 1.1698821634054182 3.5274947956204414 4.1271815001964587
leaf_count=340 104 8 241 7 423 22 23 78 60 85 18 7 28 20
internal_value=0 -0.00985499 -0.0300924 -0.0116807 0.0160959 0.0293245 0.0206441 0.0136111 0.0294573 -0.0356295 -0.0109324 0.0338715 -0.0423444 0.0805339
internal_weight=0 186.268 104.655 71.6432 81.6134 62.0228 30.4898 29.5362 26.5456 41.1534 26.2372 12.3698 4.69738 7.67246
internal_count=1464 1102 671 430 431 362 168 161 138 262 177 73 35 38
is_linear=0
shrinkage=0.1


Tree=23
num_leaves=15
num_cat=0
split_feature=3 0 9 1 4 6 0 8 0 6 0 9 9 4
split_gain=7.14541 6.20913 6.50676 5.99886 4.43253 3.6729 7.32751 6.23646 5.41387 5.40212 7.03438 4.18186 4.15238 3.8364
threshold=1.5918796184818247 -0.10437071259789503 1.9596823791874096 -0.18934121957250258 0.034015766397999282 0.83696716417232797 -0.060962243703939378 1.2941790342228385 0.024624638907921468 0.72696812864595406 -0.08912872454683464 -0.12180930587096868 -0.29416470837075964 -0.093362954363998094
decision_type=2 2 2 2 2 2 2 2 2 2 2 2 2 2
left_child=1 -1 3 5 -4 6 9 -7 13 -3 -11 -9 -10 -8
right_child=-2 2 4 -5 -6 7 8 11 12 10 -12 -13 -14 -15
leaf_value=0.034715656725828707 0.10517207135389398 -0.032657508215361009 0.10913557053419394 -0.03282960809924295 -0.13593548547312981 0.057662714950629246 -0.10155287625318653 -0.020450689811818256 -0.032902293464379083 0.021627856840129508 -0.24863691199970228 -0.25907984013719942 0.047932202375210183 0.05735668550510991
leaf_weight=37.121548883616924 6.2825002409517756 17.577686622738842 6.6301958113908759 86.941980801522732 0.83045867085456837 21.092080019414428 1.6281953006982828 2.9910047501325612 27.705016456544399 1.4523948878049848 2.8583342880010596 0.97337571531534095 8.2463119328021985 22.701204590499401
leaf_count=220 70 85 42 569 4 122 7 14 149 7 14 5 40 116
internal_value=0 -0.00286865 -0.00978826 -0.0133096 0.0818563 0.00251788 -0.00770235 0.0360337 0.0102922 -0.0572595 -0.157578 -0.0790414 -0.0143609 0.046722
internal_weight=0 238.75 201.628 194.168 7.46065 107.226 82.1691 25.0565 60.2807 21.8884 4.31073 3.96438 35.9513 24.3294
internal_count=1464 1394 1174 1128 46 559 418 141 312 106 21 19 189 123
is_linear=0
shrinkage=0.1


Tree=24
num_leaves=15
num_cat=0
split_feature=3 5 9 9 4 4 4 8 0 8 5 2 0 9
split_gain=6.42594 5.62807 5.78353 5.18865 4.38338 4.43606 3.96168 6.32794 5.31892 4.3288 5.44039 4.68927 4.59939 3.7235
threshold=2.7970985787512004 -0.013702541834871353 -0.4251979883872799 -0.42397595557207762 -0.10449669740605527 -0.098800679903464347 0.02218871334966014 1.0315323863008568 0.18469225377396994 -0.50948290194935575 0.025166313070755061 1.2187672717794815 -0.098755243315925417 1.7871442552486281
decision_type=2 2 2 2 2 2 2 2 2 2 2 2 2 2
left_child=1 -1 -3 -4 -5 -6 13 9 -9 10 12 -11 -8 -7
right_child=-2 2 3 4 5 6 7 8 -10 11 -12 -13 -14 -15
leaf_value=0.040728031248703819 0.11943817246616784 -0.045245796441849777 0.13258871738528963 -0.050783247198804761 0.32748186844071131 0.0054697285171796855 -0.060627278246472766 0.21158892246429178 -0.045899445178634465 -0.094488055991594849 -0.1281926217495952 0.051418249555260545 0.10379199864045663 0.079719183091952583
leaf_weight=26.968166273087263 4.4180873073637477 34.476649407297373 2.8833803087472907 17.067298162728548 0.41915054619312186 116.83283865079284 2.5639504492282867 1.8768839500844472 1.4011493921279905 15.738753758370878 2.2599427103996277 2.5611527897417536 5.0570488125085884 7.1684575751423827
leaf_count=182 51 257 14 113 2 612 11 10 8 98 17 16 25 48
internal_value=0 -0.00228052 -0.00779562 -0.000452414 -0.00267049 0.0025974 0.00172145 -0.0299722 0.101529 -0.0452686 0.00806885 -0.0740678 0.048476 0.00976206
internal_weight=0 237.275 210.307 175.83 172.947 155.879 155.46 31.4589 3.27803 28.1808 9.88094 18.2999 7.621 124.001
internal_count=1464 1413 1231 974 960 847 845 185 18 167 53 114 36 660
is_linear=0
shrinkage=0.1


Tree=25
num_leaves=15
num_cat=0
split_feature=3 0 2 9 5 5 7 8 5 9 5 9 6 5
split_gain=5.71358 5.05214 5.36248 5.36879 4.14908 3.99699 3.75182 6.03931 5.90188 5.71626 8.09905 3.9886 3.55243 3.97742
threshold=2.7970985787512004 -0.10437071259789503 -0.36025497210581875 0.072808318070173503 0.046732890824192165 0.052525566667057509 0.079035742145959084 -0.4053539654280745 -0.012258828778649531 -0.25656320355299228 -0.0090483495903537822 -0.22712353592920995 -1.196901943043257 0.030459927610235072
decision_type=2 2 2 2 2 2 2 2 2 2 2 2 2 2
left_child=1 4 3 12 -1 6 7 8 -4 -10 -11 -12 -3 -14
right_child=-2 2 5 -5 -6 -7 -8 -9 9 10 11 -13 13 -15
leaf_value=0.037863093558941824 0.11760435528340157 0.038668738183740621 0.14028604844023365 0.058283917484775384 -0.15843504705428083 0.095049299893578604 0.0045139410097739929 -0.064464122058496706 -0.059343714288643018 -0.11799378619364143 0.36021173096204706 0.085000994972705871 -0.018771854561293572 0.07415883134257692
leaf_weight=35.680969294160604 4.0567942410707465 16.68483018130064 2.6265772283077267 17.034638036042452 1.1102651059627522 2.641137156635522 23.465225592255592 42.402201004326344 12.872701484709982 2.0578871518373489 0.5916043072938918 4.7934381812810871 68.012707985937595 4.9400948137044898
leaf_count=224 51 93 13 116 5 18 110 331 91 9 3 27 347 26
internal_value=0 -0.00209196 -0.00841153 0.0068214 0.0319393 -0.0261799 -0.0297852 -0.042102 -0.000771933 -0.0190091 0.0507504 0.115236 -0.00295849 -0.0124789
internal_weight=0 234.914 198.123 106.672 36.7912 91.4508 88.8096 65.3444 22.9422 20.3156 7.44293 5.38504 89.6376 72.9528
internal_count=1464 1413 1184 582 229 602 584 474 143 130 39 30 466 373
is_linear=0
shrinkage=0.1


Tree=26
num_leaves=15
num_cat=0
split_feature=3 9 8 7 4 0 4 6 4 9 9 0 4 6
split_gain=5.08778 4.48764 6.2594 5.17113 6.5245 5.33676 5.25139 5.12229 5.64289 4.96488 4.8561 4.30663 4.05688 4.02865
threshold=2.7970985787512004 0.35569048036432499 -0.64612888806734958 -0.27472394870849065 1.0000000180025095e-35 0.3574347850193213 0.10212327877981431 0.26121439922340811 -0.017832946620811606 0.18054759585034055 -0.25656320355299228 -0.12116363978397562 0.070842762614034605 -0.87194735972613324
decision_type=2 2 2 2 2 2 2 2 2 2 2 2 2 2
left_child=1 2 -1 4 5 10 9 8 -3 11 -4 -5 -13 -12
right_child=-2 7 3 6 -6 -7 -8 -9 -10 -11 13 12 -14 -15
leaf_value=0.021330725923327964 0.11594498661514017 0.11369599035871206 -0.040665133964268012 -0.19817520142923545 -0.076945802606326705 0.24252302620636643 0.085324497267935409 0.055210863775229692 -0.11330625581984213 -0.12803179397021289 0.24773912655933061 0.0081104247344359181 -0.15653845375338932 0.013106490464071408
leaf_weight=55.831711862236261 3.7205853275954714 1.5030233934521673 35.859923221170902 1.0780616402626026 25.483354289084673 0.78907869011163612 6.8634955510497084 23.515307832509279 4.0345443636178997 3.2082566618919364 0.76448900252580898 54.659291811287403 1.5386165678501118 17.105697005987167
leaf_count=326 51 9 238 5 216 6 32 151 23 17 5 282 7 96
internal_value=0 -0.00192679 -0.0071833 -0.0179874 -0.0351755 -0.0156512 0.00243034 0.0348347 -0.0516926 -0.00697614 -0.0194427 -0.000195329 0.00360258 0.0231441
internal_weight=0 232.235 203.182 147.35 80.0025 54.5192 67.3477 29.0529 5.53757 60.4842 53.7301 57.276 56.1979 17.8702
internal_count=1464 1413 1230 904 561 345 343 183 32 311 339 294 289 101
is_linear=0
shrinkage=0.1


end of trees

feature_importances:
Column_0=65
Column_6=56
Column_4=49
Column_9=45
Column_5=38
Column_3=30
Column_7=29
Column_2=24
Column_8=23
Column_1=19

parameters:
[boosting: gbdt]
[objective: binary]
[metric: binary_logloss]
[tree_learner: serial]
[device_type: cpu]
[linear_tree: 0]
[data: ]
[valid: ]
[num_iterations: 10000]
[learning_rate: 0.1]
[num_leaves: 15]
[num_threads: 0]
[deterministic: 0]
[force_col_wise: 0]
[force_row_wise: 0]
[histogram_pool_size: -1]
[max_depth: -1]
[min_data_in_leaf: 5]
[min_sum_hessian_in_leaf: 0.001]
[bagging_fraction: 0.5]
[pos_bagging_fraction: 1]
[neg_bagging_fraction: 1]
[bagging_freq: 0]
[bagging_seed: 21897]
[feature_fraction: 0.8]
[feature_fraction_bynode: 1]
[feature_fraction_seed: 12646]
[extra_trees: 0]
[extra_seed: 20733]
[early_stopping_round: 50]
[first_metric_only: 0]
[max_delta_step: 0]
[lambda_l1: 0]
[lambda_l2: 0]
[linear_lambda: 0]
[min_gain_to_split: 0]
[drop_rate: 0.1]
[max_drop: 50]
[skip_drop: 0.5]
[xgboost_dart_mode: 0]
[uniform_drop: 0]
[drop_seed: 20829]
[top_rate: 0.2]
[other_rate: 0.1]
[min_data_per_group: 100]
[max_cat_threshold: 32]
[cat_l2: 10]
[cat_smooth: 10]
[max_cat_to_onehot: 4]
[top_k: 20]
[monotone_constraints: ]
[monotone_constraints_method: basic]
[monotone_penalty: 0]
[feature_contri: ]
[forcedsplits_filename: ]
[refit_decay_rate: 0.9]
[cegb_tradeoff: 1]
[cegb_penalty_split: 0]
[cegb_penalty_feature_lazy: ]
[cegb_penalty_feature_coupled: ]
[path_smooth: 0]
[interaction_constraints: ]
[verbosity: -1]
[saved_feature_importance_type: 0]
[max_bin: 255]
[max_bin_by_feature: ]
[min_data_in_bin: 3]
[bin_construct_sample_cnt: 200000]
[data_random_seed: 182]
[is_enable_sparse: 1]
[enable_bundle: 1]
[use_missing: 1]
[zero_as_missing: 0]
[feature_pre_filter: 1]
[pre_partition: 0]
[two_round: 0]
[header: 0]
[label_column: ]
[weight_column: ]
[group_column: ]
[ignore_column: ]
[categorical_feature: ]
[forcedbins_filename: ]
[objective_seed: 3944]
[num_class: 1]
[is_unbalance: 0]
[scale_pos_weight: 1]
[sigmoid: 1]
[boost_from_average: 1]
[reg_sqrt: 0]
[alpha: 0.9]
[fair_c: 1]
[poisson_max_delta_step: 0.7]
[tweedie_variance_power: 1.5]
[lambdarank_truncation_level: 30]
[lambdarank_norm: 1]
[label_gain: ]
[eval_at: ]
[multi_error_top_k: 1]
[auc_mu_weights: ]
[num_machines: 1]
[local_listen_port: 12400]
[time_out: 120]
[machine_list_filename: ]
[machines: ]
[gpu_platform_id: -1]
[gpu_device_id: -1]
[gpu_use_dp: 0]
[num_gpu: 1]

end of parameters

pandas_categorical:null
