tree
version=v3
num_class=1
num_tree_per_iteration=1
label_index=0
max_feature_idx=9
objective=binary sigmoid:1
feature_names=Column_0 Column_1 Column_2 Column_3 Column_4 Column_5 Column_6 Column_7 Column_8 Column_9
feature_infos=[-39.599748861351209:8.9000788482569213] [-1.662425519084197:32.507701955788043] [-1.7885478797273402:23.521722816805894] [-0.2159488219222388:5.8101459794246386] [-27.341941575767965:27.171256957381392] [-34.352181421132713:24.445706336197716] [-1.2682927843421465:15.523717361941239] [-0.29598397758150563:20.207531766523946] [-0.90089613655167222:15.542178607335664] [-0.42558784639417108:15.766073447244642]
tree_sizes=1577 1687 1695 1684 1686 1703 1693 1695 1697 1700 1692 1689 1691 1698 1687 1696 1702 1695 1711 1698 1696 1698 1683 1688 1687 1707 1707 1703 1695 1697 1695 1689 1708 1703 1687 1712

Tree=0
num_leaves=15
num_cat=0
split_feature=0 6 8 7 3 0 3 9 6 5 7 4 4 0
split_gain=236.622 51.109 43.0608 85.0656 22.9796 16.8976 16.2822 11.9002 11.4079 8.87629 9.27564 8.82352 10.8808 14.2588
threshold=0.057604379135362115 0.35017626078750813 -0.6664665709816624 -0.07596906409082177 1.5918796184818247 -0.10989704744681753 4.0023175390205763 0.32315778605484297 -0.28841199059334494 0.035593129587912671 -0.26874941785712086 1.0000000180025095e-35 -0.044205915487223017 0.040098376484904434
decision_type=2 2 2 2 2 2 2 2 2 2 2 2 2 2
left_child=2 6 -1 4 5 8 -2 11 -4 10 -3 12 13 -7
right_child=1 9 3 -5 -6 7 -8 -9 -10 -11 -12 -13 -14 -15
leaf_value=0.12656249999999999 -0.16363636363636366 -0.1157894736842105 -0.074999999999999969 0.11025641025641027 0.20000000000000001 -0.14626865671641795 0.20000000000000001 0.025806451612903226 0.12631578947368424 0.125 0.0022471910112359553 -0.12820512820512822 -0.011382113821138209 0.058823529411764712
leaf_weight=64 82.5 9.5000000000000018 4.0000000000000009 78 4.2499999999999991 16.749999999999996 1.2499999999999989 15.499999999999998 9.4999999999999964 3.9999999999999991 22.25 19.5 30.750000000000007 4.2499999999999991
leaf_count=256 330 38 16 312 17 67 5 62 38 16 89 78 123 17
internal_value=0 -0.115481 0.0559838 0.0312329 -0.0277512 -0.0374065 -0.158209 -0.0536023 0.0666667 -0.0153846 -0.0330709 -0.0708772 -0.0492754 -0.104762
internal_weight=0 119.5 246.5 182.5 104.5 100.25 83.75 86.75 13.5 35.75 31.75 71.25 51.75 21
internal_count=1464 478 986 730 418 401 335 347 54 143 127 285 207 84
is_linear=0
shrinkage=0.1


Tree=1
num_leaves=15
num_cat=0
split_feature=2 0 7 6 0 4 4 0 8 6 6 7 9 9
split_gain=231.381 66.5991 40.2577 28.8282 21.4406 14.0401 15.418 13.4312 12.1012 9.8297 14.7476 9.65942 7.59556 7.53399
threshold=-0.34921776192110027 0.074700363393802968 0.083673586051505433 0.35017626078750813 0.081831118037573938 -0.09809377558333375 0.0019331857151482824 0.050241874965668613 -0.66188768694266864 -1.1979352573658797 0.74372142218887127 0.13593498492998068 -0.29537718664709051 2.0173988687059876
decision_type=2 2 2 2 2 2 2 2 2 2 2 2 2 2
left_child=1 5 4 -3 8 -1 -7 12 -2 -8 -11 -9 -4 -10
right_child=2 3 7 -5 -6 6 9 11 13 10 -12 -13 -14 -15
leaf_value=-0.066512992897527809 0.070520246622914631 -0.10962259060686992 -0.091291370474493053 0.063249265796019513 -0.16281597711549645 0.11144666647116837 0.16602844032511549 0.19747754938133966 -0.097691605950196506 -0.07347572722777955 0.13126785274156699 -0.095347181189870067 0.097974032069044606 0.12943055203854739
leaf_weight=5.2263617366552344 4.981653928756713 26.321757316589355 2.4924175441265133 15.22687156498432 59.138133347034454 145.29735913872719 3.7334600239992168 1.2490247189998616 56.839387133717537 11.954780086874964 4.9850449711084357 11.484795853495596 14.206059336662294 1.4990336596965779
leaf_count=21 20 106 10 61 238 583 15 5 228 48 20 46 57 6
internal_value=0 0.0673046 -0.0942793 -0.046268 -0.119519 0.0948681 0.0999499 0.0107331 -0.0790808 0.0191479 -0.0132239 -0.0666248 0.0697242 -0.0918556
internal_weight=0 212.746 151.891 41.5486 122.458 171.197 165.971 29.4323 63.3201 20.6733 16.9398 12.7338 16.6985 58.3384
internal_count=1464 854 610 167 492 687 666 118 254 83 68 51 67 234
is_linear=0
shrinkage=0.1


Tree=2
num_leaves=15
num_cat=0
split_feature=2 0 7 6 0 4 5 7 3 4 5 1 0 5
split_gain=189.303 54.4096 33.9087 23.6152 15.952 13.7808 12.929 16.9215 12.1345 9.90741 7.93139 6.63915 5.8884 5.75017
threshold=-0.34921776192110027 0.074700363393802968 -0.18179624110959006 0.35017626078750813 0.081831118037573938 -0.16432527265403291 -0.014083521669152112 -0.14256633732224724 1.5918796184818247 -0.044205915487223017 -0.0047550856098916633 -0.15842705209375749 0.040098376484904434 0.02827430645567704
decision_type=2 2 2 2 2 2 2 2 2 2 2 2 2 2
left_child=1 6 4 -3 11 -4 -1 8 9 -8 -7 -2 -13 -12
right_child=2 3 5 -5 -6 10 7 -9 -10 -11 13 12 -14 -15
leaf_value=0.14831591379862272 -0.020093663478408824 -0.099864366761955509 -0.16628581355748234 0.056966832390171432 -0.1516781410500968 0.080079246166593565 -0.054791483866625891 0.11431220341940884 0.17681148537378383 0.048093209153667812 -0.035849812988311906 -0.11728993974327862 -0.023224036540783428 0.1424866598623851
leaf_weight=27.881503060460091 15.383832320570944 26.019599050283432 4.7096857726573935 15.215845078229902 55.834064811468124 12.402058869600294 10.936278760433195 59.800637781620026 6.3841632753610602 64.922255054116249 20.127230525016788 31.493430912494659 8.4377031624317151 1.9864472746849049
leaf_count=113 62 106 19 61 229 50 44 242 26 262 81 127 34 8
internal_value=0 0.0610507 -0.085761 -0.0419938 -0.113971 -0.00582585 0.0860563 0.0738355 0.0444039 0.0332607 0.016069 -0.0759096 -0.0974132 -0.01983
internal_weight=0 211.16 150.374 41.2354 111.149 39.2254 169.925 142.043 82.2427 75.8585 34.5157 55.315 39.9311 22.1137
internal_count=1464 854 610 167 452 158 687 574 332 306 139 223 161 89
is_linear=0
shrinkage=0.1


Tree=3
num_leaves=15
num_cat=0
split_feature=2 4 4 7 8 3 6 9 8 9 4 3 6 5
split_gain=155.686 33.0436 32.963 28.5829 17.4678 12.9644 12.8248 11.4894 10.6654 9.92026 9.56312 9.35364 9.81513 11.1587
threshold=-0.34977611490691546 -0.09809377558333375 0.0019331857151482824 0.083673586051505433 -0.6482498178569851 2.7970985787512004 0.74076907473890341 0.6032328649430323 -0.44347259397604349 0.14755909168836037 -0.16432527265403291 1.5918796184818247 0.93048625602674828 -0.014083521669152112
decision_type=2 2 2 2 2 2 2 2 2 2 2 2 2 2
left_child=1 9 11 4 -2 7 8 -6 -4 -1 -5 12 13 -3
right_child=3 2 6 10 5 -7 -8 -9 -10 -11 -12 -13 -14 -15
leaf_value=-0.094587891464238238 0.046275809207004366 0.13425731589789544 -0.0039156338501085269 -0.14652160439162928 -0.1241863889646677 0.21220385373918918 0.097616971376986328 -0.016995150734534364 -0.13296089358510874 0.19893100270421946 0.031496880922825439 0.16822059329043479 0.12679871822691455 0.050384606222758616
leaf_weight=16.627787783741955 7.6593874394893637 19.327822297811508 17.611762151122093 3.4186202436685589 99.555511370301247 1.2363604009151448 7.367723435163497 11.11599265038967 10.064694806933405 1.2371368408203114 25.728320315480232 13.211700558662413 34.359009355306625 88.475542008876801
leaf_count=68 31 80 72 14 413 5 30 45 41 5 104 55 141 360
internal_value=0 0.0557761 0.0679762 -0.0781774 -0.0998229 -0.109822 -0.0196311 -0.11342 -0.0508436 -0.0742619 0.0106172 0.0877358 0.080256 0.065422
internal_weight=0 208.283 190.418 148.714 119.567 111.908 35.0442 110.672 27.6765 17.8649 29.1469 155.374 142.162 107.803
internal_count=1464 852 779 612 494 463 143 458 113 73 118 636 581 440
is_linear=0
shrinkage=0.1


Tree=4
num_leaves=15
num_cat=0
split_feature=1 0 7 7 9 3 4 4 4 8 5 0 8 8
split_gain=126.081 38.0071 29.4039 16.7536 12.1823 11.1683 13.9406 11.2081 10.4554 8.97432 7.87152 7.75885 7.2361 7.22429
threshold=-0.17939054777316679 0.074700363393802968 -0.18179624110959006 0.35200033387661228 0.30587242180206559 1.5918796184818247 -0.031100996937109302 0.0019331857151482824 -0.16432527265403291 -0.67931766227688939 0.027855451433192926 -0.10355067581386139 -0.47485073332955469 -0.65435693349782587
decision_type=2 2 2 2 2 2 2 2 2 2 2 2 2 2
left_child=1 5 4 10 -2 6 11 -8 -4 -9 -3 -1 -6 -12
right_child=2 3 8 -5 12 -7 7 9 -10 -11 13 -13 -14 -15
leaf_value=0.18093508760236551 -0.11923671854727047 -0.087637272400631253 -0.14231021915762285 0.11988367310143994 0.15803340177713104 0.15741782827439413 0.08270269524041364 0.1002904293870911 0.020366322332764742 -0.043371611771080676 -0.130669343934464 -0.042729151855568359 -0.047808605045591888 0.069629126525921931
leaf_weight=1.7123106569051767 83.710469216108322 28.14724300801754 4.5056110471487036 5.9162658601999274 1.9870595932006825 12.934399172663687 122.45944873988628 6.3634757399559048 32.088345542550087 13.730781465768812 2.4259951412677765 16.460906684398651 12.151705637574194 6.986184895038603
leaf_count=7 357 117 19 24 8 56 508 26 130 56 10 67 50 29
internal_value=0 0.0470897 -0.076136 -0.0365272 -0.104736 0.068023 0.060829 0.0713443 0.000336861 0.00212347 -0.0611646 -0.0216551 -0.0188796 0.0180021
internal_weight=0 217.137 134.443 43.4757 97.8492 173.661 160.727 142.554 36.594 20.0943 37.5594 18.1732 14.1388 9.41218
internal_count=1464 900 564 180 415 720 664 590 149 82 156 74 58 39
is_linear=0
shrinkage=0.1


Tree=5
num_leaves=15
num_cat=0
split_feature=2 0 7 7 5 3 5 0 5 7 3 8 0 5
split_gain=108.426 32.6379 22.1464 21.3964 11.5564 11.3278 10.3813 10.2857 9.41852 11.4267 8.18599 7.51779 8.14832 7.08422
threshold=-0.28203361427906098 0.057604379135362115 -0.29484907593518239 -0.18179624110959006 -0.0056551783177830476 2.7970985787512004 0.072577136892360603 0.074700363393802968 -0.012445976767419025 -0.078259784272698155 1.0000000180025095e-35 -0.65633259412378775 0.040098376484904434 -0.011325316787049308
decision_type=2 2 2 2 2 2 2 2 2 2 2 2 2 2
left_child=1 6 -3 5 -5 7 8 11 -1 10 -10 -2 -13 -11
right_child=3 2 -4 4 -6 -7 -8 -9 9 13 -12 12 -14 -15
leaf_value=0.10950431591430498 0.134811371397732 -0.073084333357013101 0.078923616305555486 0.080652082115250018 -0.045673255635909571 0.19945468943545319 -0.23078606073697261 -0.13691283485302849 0.021239394565125021 -0.017055958656806446 0.14985466539364031 -0.098036646006768702 0.022632761458910515 0.10182628016840332
leaf_weight=36.164343044161797 1.7421737611293782 34.710566312074661 13.240618214011191 10.299508988857268 24.391956314444542 1.2400652021169651 1.2017936557531346 46.957091480493546 78.830552786588669 5.6206846237182608 5.2801067382097235 32.793965771794319 6.7473099231719962 46.327790573239326
leaf_count=156 7 147 54 42 100 5 5 212 324 24 24 139 28 197
internal_value=0 0.0419109 -0.0311108 -0.0748358 -0.00816867 -0.100682 0.062101 -0.1049 0.0641448 0.0520883 0.0293133 -0.0684883 -0.0774457 0.0889635
internal_weight=0 221.376 47.9512 124.172 34.6915 89.4806 173.425 88.2405 172.223 136.059 84.1107 41.2834 39.5413 51.9485
internal_count=1464 931 201 533 142 391 730 386 725 569 348 174 167 221
is_linear=0
shrinkage=0.1


Tree=6
num_leaves=15
num_cat=0
split_feature=2 0 0 6 7 9 5 6 5 3 7 6 4 4
split_gain=91.0222 27.3913 19.9487 13.68 12.1233 11.272 12.3768 9.03041 9.00445 7.88934 8.54906 7.14646 5.78241 5.39268
threshold=-0.34921776192110027 0.074700363393802968 0.064539038026429366 0.35017626078750813 0.045027403972528336 0.20133333106055165 -0.014083521669152112 0.59661232357269556 0.01352303462659573 1.5918796184818247 -0.15820746523562815 -1.242161110374133 0.020910847847885567 -0.044613744902682974
decision_type=2 2 2 2 2 2 2 2 2 2 2 2 2 2
left_child=1 5 4 -3 -2 6 -1 -4 -6 10 11 -8 -12 -13
right_child=2 3 7 -5 8 -7 9 -9 -10 -11 12 13 -14 -15
leaf_value=0.11359899494710504 -0.050720861026740893 -0.077310944598187117 -0.1226781300566011 0.044226816505069169 0.078544603551924136 0.11735535642222267 0.088982131198571762 -0.031088895533715397 -0.083733267607728035 0.14180580278060559 0.0718737751267325 -0.084159042608326018 -0.15111005319695472 0.0043703848083698708
leaf_weight=24.167183816432953 56.048573136329651 24.537059158086777 50.352850556373596 14.87570485472679 14.851901769638063 29.584147900342941 8.6344937086105329 13.692482754588125 4.4419750273227683 6.4177981168031684 36.752916768193245 8.1120995879173261 1.2009538859128941 45.32556140422821
leaf_count=109 237 106 236 61 61 127 36 58 18 31 159 33 5 187
internal_value=0 0.0432449 -0.0620651 -0.0314385 -0.0271857 0.0616192 0.0489947 -0.103097 0.0411838 0.0343268 0.0274308 0.00457048 0.064818 -0.00906882
internal_weight=0 199.608 139.388 39.4128 75.3424 160.195 130.611 64.0453 19.2939 106.444 100.026 62.0722 37.9539 53.4377
internal_count=1464 854 610 167 316 687 560 294 79 451 420 256 164 220
is_linear=0
shrinkage=0.1


Tree=7
num_leaves=15
num_cat=0
split_feature=2 0 6 0 7 5 6 6 0 9 5 9 5 5
split_gain=76.616 22.7697 18.7452 16.1256 10.1911 9.79824 9.02864 8.6551 7.16241 7.09385 6.72403 6.64395 6.63776 6.64764
threshold=-0.28203361427906098 -0.027447696878215907 0.25811445625553991 0.070243641741446136 0.045027403972528336 -0.012445976767419025 0.82053051533717813 0.93048625602674828 0.040098376484904434 0.64861240258702579 0.01352303462659573 -0.42198662399685544 0.047178481273643345 -0.01183997375616542
decision_type=2 2 2 2 2 2 2 2 2 2 2 2 2 2
left_child=1 5 -3 4 8 -1 -5 12 9 -2 -6 -4 13 -7
right_child=3 2 11 6 10 7 -8 -9 -10 -11 -12 -13 -14 -15
leaf_value=0.11173400411004719 -0.091812976552028622 -0.041818214614949722 -0.063091546357934888 -0.11888404718817146 0.067285434341004216 -0.056689961900090881 0.001529271504544542 0.098349850040790485 0.038288736526627787 0.022582074662264973 -0.088289564517327668 0.071995287201301189 -0.202039231465825 0.043719266616918717
leaf_weight=30.375526934862137 31.191739305853844 52.173247426748276 4.1735571175813666 48.960446313023567 13.73477838933468 7.3286666870117179 7.1342784613370887 24.485362201929092 6.98673091828823 6.5611199289560309 3.4825197458267203 28.523552119731903 1.2148204892873753 65.735469222068787
leaf_count=140 137 226 17 239 57 31 30 110 29 27 14 122 5 280
internal_value=0 0.0356224 -0.00461347 -0.0647272 -0.0295601 0.0620654 -0.10357 0.0467895 -0.0547195 -0.0719321 0.0358175 0.0547524 0.0297931 0.0336478
internal_weight=0 214.01 84.8704 118.052 61.9569 129.14 56.0947 98.7643 44.7396 37.7529 17.2173 32.6971 74.279 73.0641
internal_count=1464 931 365 533 264 566 269 426 193 164 71 139 316 311
is_linear=0
shrinkage=0.1


Tree=8
num_leaves=15
num_cat=0
split_feature=1 0 7 7 8 4 3 4 4 4 5 0 5 8
split_gain=61.8966 18.4386 16.9488 10.2088 9.71624 8.98685 8.79092 9.20976 8.00451 7.3966 6.44389 6.29081 6.13409 6.03936
threshold=-0.17939054777316679 0.074700363393802968 -0.18179624110959006 0.35200033387661228 -0.35538137312433454 0.087441419823255387 1.5918796184818247 -0.031100996937109302 -0.012639918730621319 -0.16432527265403291 0.027855451433192926 -0.10355067581386139 -0.011929091846055657 -0.67931766227688939
decision_type=2 2 2 2 2 2 2 2 2 2 2 2 2 2
left_child=1 6 4 10 5 12 7 11 -9 -4 -3 -1 -2 -10
right_child=2 3 9 -5 -6 -7 -8 8 13 -11 -12 -13 -14 -15
leaf_value=0.16399308064209314 0.092441514790928117 -0.070900087985720825 -0.1243611449267569 0.098550344084270852 -0.10555198543087115 -0.13976099288401356 0.13594040625014772 0.0625068094023285 0.081559608612446377 0.01823432101701573 0.027032793621873885 -0.043735205909255337 -0.032827557668304329 -0.035532223520090681
leaf_weight=1.6023508161306406 4.866414323449141 26.451093062758446 4.1136109083890906 5.6644215434789649 55.134852007031441 6.5693996697664252 10.819011569023131 111.65494430065155 6.0739216804504421 31.439081415534019 9.0065267086029035 16.166972026228905 19.868138715624809 16.030590176582336
leaf_count=7 21 117 19 24 270 33 56 497 26 130 39 67 91 67
internal_value=0 0.033704 -0.0563843 -0.0261097 -0.0802892 -0.0357945 0.0488545 0.0426367 0.0516224 0.00173537 -0.0460243 -0.0250033 -0.00818142 -0.0033575
internal_weight=0 203.47 121.991 41.122 86.4388 31.304 162.348 151.529 133.759 35.5527 35.4576 17.7693 24.7346 22.1045
internal_count=1464 900 564 180 415 145 720 664 590 149 156 74 112 93
is_linear=0
shrinkage=0.1


Tree=9
num_leaves=15
num_cat=0
split_feature=2 4 4 0 6 6 8 0 9 5 5 0 6 1
split_gain=53.9513 16.8049 16.6593 13.3131 8.00706 7.98231 9.10856 6.86286 6.11143 7.7309 6.42592 6.0169 8.21111 5.66784
threshold=-0.28203361427906098 -0.098365661860307055 0.0019331857151482824 0.070243641741446136 0.59661232357269556 0.69196650003226223 -0.42238974998128342 0.22638934155342055 0.34269975369730438 -0.014083521669152112 0.072577136892360603 -0.10595730550613407 0.39150883369241768 -0.13034233038557955
decision_type=2 2 2 2 2 2 2 2 2 2 2 2 2 2
left_child=1 7 8 11 -5 6 -4 -1 9 -3 -11 12 -2 -6
right_child=3 2 5 4 13 -7 -8 -9 -10 10 -12 -13 -14 -15
leaf_value=-0.084754564930213272 -0.089113149036517972 0.099715283835906374 -0.0069278748760294665 -0.11543583911405174 -0.13040602398773268 0.061179859473869759 -0.12786871049273255 0.086046089186960106 0.097566195208827228 0.036047458605559739 -0.19869650338003178 -0.035991106224281137 0.13464134265505753 0.020226639580317726
leaf_weight=16.118855327367786 2.4556179642677298 21.148629203438759 18.632922053337097 39.259407356381416 3.4968584626913062 8.9427158832550031 9.3533790111541766 2.7544853985309592 26.396626502275467 102.59814728796482 1.1795348525047291 52.803695097565651 4.9381200075149536 8.7442271858453733
leaf_count=71 11 106 81 215 16 38 42 12 121 455 5 232 21 38
internal_value=0 0.0301324 0.0391513 -0.0560933 -0.0934183 -0.0210668 -0.0473478 -0.0598269 0.053847 0.0446093 0.0333794 -0.0241608 0.0603277 -0.0228039
internal_weight=0 207.125 188.252 111.698 51.5005 36.929 27.9863 18.8733 151.323 124.926 103.778 60.1974 7.39374 12.2411
internal_count=1464 931 848 533 269 161 123 83 687 566 460 264 32 54
is_linear=0
shrinkage=0.1


Tree=10
num_leaves=15
num_cat=0
split_feature=1 0 0 9 3 3 9 8 7 7 6 7 6 1
split_gain=43.4594 14.1618 13.3926 12.0151 12.1964 8.13803 9.12716 7.74582 10.8139 7.74078 6.92998 6.09567 6.09527 5.7463
threshold=-0.17939054777316679 -0.063351046509602646 0.074700363393802968 1.3243454581383485 2.7970985787512004 1.5918796184818247 0.20133333106055165 -0.65633259412378775 -0.15820746523562815 0.35200033387661228 0.75316884661037642 0.051466512193893373 0.27371100091342532 -0.18934121957250258
decision_type=2 2 2 2 2 2 2 2 2 2 2 2 2 2
left_child=2 -2 5 4 11 6 7 -1 10 -4 -9 -3 -8 -10
right_child=1 3 9 -5 -6 -7 12 8 13 -11 -12 -13 -14 -15
leaf_value=0.055109441139488971 0.015046618615848892 -0.096664184273385634 -0.040572582781338212 0.071519630571224027 0.20881596629512106 0.12990197035441439 -0.099013713632691111 -0.02241493748990302 0.051573279144389764 0.087549397313872818 -0.1841262569336117 -0.029738784082415932 0.10358663430930948 -0.1184768388665398
leaf_weight=49.277381226420403 26.842082485556602 64.685945346951485 34.55390889942646 5.788066938519477 1.4619592577218998 9.8132549971342069 1.5851591825485254 32.823995009064674 34.621349260210991 5.4608561098575583 2.8827726989984503 17.235662490129471 23.490249812602997 2.1081685721874228
leaf_count=225 118 342 156 25 6 56 7 138 161 24 12 73 112 9
internal_value=0 -0.0486344 0.0285434 -0.0678034 -0.0774745 0.041736 0.0358419 0.0245237 0.00371672 -0.0230876 -0.0354706 -0.0825836 0.0907791 0.0418129
internal_weight=0 116.014 196.617 89.1716 83.3836 156.602 146.789 121.714 72.4363 40.0148 35.7068 81.9216 25.0754 36.7295
internal_count=1464 564 900 446 421 720 664 545 320 180 150 415 119 170
is_linear=0
shrinkage=0.1


Tree=11
num_leaves=15
num_cat=0
split_feature=2 0 0 3 9 7 9 3 5 5 4 4 4 0
split_gain=38.103 12.6081 11.4629 7.8118 7.70221 7.6154 7.45801 8.11339 6.40307 5.46549 5.03656 5.10955 5.39859 4.97035
threshold=-0.34977611490691546 0.074700363393802968 0.061151929570638162 2.7970985787512004 -0.29348622670776831 0.1551591521367833 0.20133333106055165 1.5918796184818247 -0.014083521669152112 0.01382826408446979 -0.09809377558333375 -0.012639918730621319 0.24812620951448366 0.050241874965668613
decision_type=2 2 2 2 2 2 2 2 2 2 2 2 2 2
left_child=1 6 5 -4 -3 13 7 8 -1 -7 -10 -12 -13 -2
right_child=2 4 3 -5 -6 9 -8 -9 10 -11 11 12 -14 -15
leaf_value=0.081882229909176457 -0.038998440167418276 -0.05301680600970643 -0.083325020690487916 0.20195309556710739 0.046630645149050062 0.080399637007245492 0.0914570456748309 0.12627165850236372 -0.095783817961214102 -0.056256989071381137 0.030365872650346234 -0.059689722622636637 0.091396964042469567 0.13730883316869305
leaf_weight=16.641329422593117 54.188739642500877 25.86124911904335 51.949559599161148 0.97794289886951347 11.080202654004095 11.491495862603186 25.456100419163704 8.4582519084215146 3.9592043608427039 3.9266658574342719 74.834079518914223 12.963338926434515 2.8927170932292929 1.6476113349199284
leaf_count=88 243 119 293 4 48 49 126 52 17 16 335 55 12 7
internal_value=0 0.0290326 -0.042802 -0.0780539 -0.0231286 -0.016617 0.0423029 0.0318537 0.0246778 0.0455962 0.0146201 0.0194399 -0.0321261 -0.033796
internal_weight=0 182.146 124.182 52.9275 36.9415 71.2545 145.205 119.749 111.291 15.4182 94.6493 90.6901 15.8561 55.8364
internal_count=1464 852 612 297 167 315 685 559 507 65 419 402 67 250
is_linear=0
shrinkage=0.1


Tree=12
num_leaves=15
num_cat=0
split_feature=2 3 9 8 6 7 8 6 6 9 2 1 4 4
split_gain=32.2137 10.8063 11.4794 14.1943 10.4651 8.64668 7.67871 7.63585 8.31865 7.55798 5.97254 5.6453 6.29341 4.74048
threshold=-0.28203361427906098 1.5918796184818247 -0.26996820335581412 -0.59896870677233183 0.34294517882351022 -0.19085037397468416 -0.50932066534736498 -0.28841199059334494 -0.58402544322273264 1.766022068986401 1.0837237589311617 -0.18661955054809273 -0.044205915487223017 -0.045674101382878904
decision_type=2 2 2 2 2 2 2 2 2 2 2 2 2 2
left_child=1 2 3 11 9 -5 -6 8 -4 -2 -8 12 -1 -12
right_child=4 -3 7 5 6 -7 10 -9 -10 -11 13 -13 -14 -15
leaf_value=-0.049676991516458283 -0.078848835463098899 0.12963791274096245 0.080912562185139827 -0.076954379040892001 0.16432826456679883 0.016823275096402943 -0.035017992611394995 0.052728841413703313 -0.2154334484096673 0.18015534244844197 -0.052539790278585255 -0.075632763260764818 0.050982202450597605 0.12630746949250693
leaf_weight=7.156809762120246 56.321545645594597 9.1818132549524289 1.6347358971834185 30.036262363195419 2.4026781767606726 14.616993799805639 37.035320058465004 79.828382954001427 2.252290502190589 1.1496562510728825 2.2082971185445786 4.7848386168479911 47.0119509100914 4.5063011944293967
leaf_count=32 320 59 7 137 10 67 168 374 10 5 11 22 223 19
internal_value=0 0.0237169 0.018525 -0.00372719 -0.0451893 -0.0462568 -0.00972683 0.0460645 -0.0908016 -0.0736677 -0.0192857 0.028486 0.037683 0.0674882
internal_weight=0 196.504 187.322 103.607 103.624 44.6533 46.1526 83.7154 3.88703 57.4712 43.7499 58.9536 54.1688 6.7146
internal_count=1464 931 872 481 533 204 208 391 17 325 198 277 255 30
is_linear=0
shrinkage=0.1


Tree=13
num_leaves=15
num_cat=0
split_feature=0 2 6 2 5 8 9 5 8 2 9 9 5 1
split_gain=27.3824 11.9788 11.2618 7.67505 8.88067 8.70979 6.32432 6.73155 6.29485 7.14066 5.08972 4.5592 4.51586 5.05349
threshold=0.074700363393802968 -0.34977611490691546 0.35017626078750813 -0.18192828119686069 0.027855451433192926 -0.42511057168769256 0.20133333106055165 -0.014083521669152112 -0.68104160049603735 -0.33335014916142275 0.73252214987386421 -0.4237061127843697 0.035593129587912671 0.77018651707891705
decision_type=2 2 2 2 2 2 2 2 2 2 2 2 2 2
left_child=1 6 3 4 -2 11 7 -1 -3 -10 -11 -6 13 -4
right_child=2 8 12 -5 5 -7 -8 -9 9 10 -12 -13 -14 -15
leaf_value=0.081609930198639755 -0.07411532314106721 0.13322266736696375 -0.025922152385961857 -0.11842957794075748 0.050656365768943216 0.20227464946432186 0.082906325757028665 0.015847808495455827 -0.15590948605305452 -0.023454906425127924 0.057487257804014195 -0.14726442897136624 0.10528873442790299 0.15078002848458205
leaf_weight=18.53589341044426 21.993923693895344 2.7900446504354468 23.624316021800048 23.875127390027046 3.0196823328733444 2.5457254201173773 23.885574579238892 97.132168233394623 3.6605790555477133 56.984740242362022 8.9948794245719892 1.8938012570142744 3.6402189433574668 1.7375160604715336
leaf_count=109 118 12 110 164 14 13 126 450 16 262 38 9 16 7
internal_value=0 0.0189345 -0.0490188 -0.0762934 -0.0421373 0.0521519 0.03606 0.0263862 -0.0140618 -0.0199626 -0.0124202 -0.0256281 0.00113315 -0.0138164
internal_weight=0 211.984 82.3303 53.3283 29.4531 7.45921 139.554 115.668 72.4302 69.6402 65.9796 4.91348 29.0021 25.3618
internal_count=1464 1013 451 318 154 36 685 559 328 316 300 23 133 117
is_linear=0
shrinkage=0.1


Tree=14
num_leaves=15
num_cat=0
split_feature=0 3 6 3 1 5 6 9 0 0 6 0 5 6
split_gain=22.9404 10.4842 9.89426 7.79511 7.35988 6.56979 6.17982 6.16144 4.87015 4.88684 4.02335 5.67726 3.99782 5.92554
threshold=0.074700363393802968 1.5918796184818247 0.35017626078750813 4.0023175390205763 -0.18975824209598621 0.027855451433192926 0.93048625602674828 1.8274799262949777 -0.10989704744681753 -0.10693778426965259 -1.203618486140305 0.12978544301693359 0.012756619053539702 -1.1430662668346123
decision_type=2 2 2 2 2 2 2 2 2 2 2 2 2 2
left_child=1 4 3 5 6 10 8 12 -1 -10 11 -2 13 -6
right_child=2 -3 -4 -5 7 -7 -8 -9 9 -11 -12 -13 -14 -15
leaf_value=0.056924564045024807 0.12189657838810573 0.12475091225536342 0.0010319362026781781 0.20580149570251485 0.097004119928528545 -0.008026669596190741 0.071270561669038585 0.09850522435168875 -0.20345361518325 0.007214707588318949 -0.10869036185675361 -0.098802627782620098 -0.063293141572020262 -0.016799543036795785
leaf_weight=22.670553177595139 1.9262984991073597 8.7007650434970838 28.868152350187302 0.9886256754398336 5.0308314114809027 10.631289660930632 25.722021669149399 4.7453295588493338 1.1175174564123143 74.97973695397377 34.402387976646423 2.9514043629169464 15.949575886130331 50.523895397782326
leaf_count=118 10 61 133 4 22 60 136 21 5 344 227 17 74 232
internal_value=0 0.0172838 -0.0457336 -0.0722569 0.0126258 -0.0777646 0.0276113 -0.0118404 0.0162412 0.00412096 -0.0966394 -0.0116443 -0.0191634 -0.0064939
internal_weight=0 209.44 79.7682 50.9 200.739 49.9114 124.49 76.2496 98.7678 76.0973 39.2801 4.8777 71.5043 55.5547
internal_count=1464 1013 451 318 952 314 603 349 467 349 254 27 328 254
is_linear=0
shrinkage=0.1


Tree=15
num_leaves=15
num_cat=0
split_feature=2 3 9 7 5 5 2 0 0 8 7 5 5 9
split_gain=20.5349 10.191 10.5939 10.1337 9.19258 9.44778 9.62651 8.53799 7.20119 6.97843 8.62773 6.38943 8.86875 6.09904
threshold=-0.11058003307526527 1.5918796184818247 0.34269975369730438 -0.18179624110959006 0.0054934947274854701 0.027855451433192926 -0.28722759554245797 -0.096045556551292446 -0.10504813428905328 -0.67390435216175393 -0.15820746523562815 -0.011325316787049308 -0.012247689017413252 0.044906311253702529
decision_type=2 2 2 2 2 2 2 2 2 2 2 2 2 2
left_child=1 2 4 -2 9 7 -7 -6 -5 -1 13 12 -12 -11
right_child=3 -3 -4 8 5 6 -8 -9 -10 10 11 -13 -14 -15
leaf_value=0.064775284419141307 -0.0750036131213868 0.12554605719419817 0.068632858634709096 0.16455358729682784 0.1011082544367523 0.013625320958269876 0.24346392320383992 -0.052854097011021776 -0.014153894123897705 -0.031210342716703317 0.047319716322264178 0.076490128290517406 -0.17674080833085437 0.1620356958072679
leaf_weight=27.891677930951118 45.272510401904583 8.1168704777955991 27.803868561983109 2.477762937545779 3.8522382825613013 15.644405886530878 2.062566637992858 55.416221916675568 25.064299196004868 40.093233793973923 5.1717401444911957 21.023223534226418 2.6830585896968868 1.7025570273399342
leaf_count=145 281 61 145 11 18 71 11 276 110 183 26 106 12 8
internal_value=0 0.015667 0.011281 -0.0459061 0.00219704 -0.023698 0.0403977 -0.0428471 0.00192314 0.0224199 0.00570423 0.0477383 -0.0292153 -0.0233384
internal_weight=0 211.462 203.345 72.8146 175.541 76.9754 17.707 59.2685 27.5421 98.5655 70.6738 28.878 7.8548 41.7958
internal_count=1464 1062 1001 402 856 376 82 294 121 480 335 144 38 191
is_linear=0
shrinkage=0.1


Tree=16
num_leaves=15
num_cat=0
split_feature=2 0 3 6 6 5 9 8 3 7 8 9 8 9
split_gain=17.1588 8.41941 7.82785 8.08489 6.43603 6.16696 6.46987 6.24497 5.3706 4.91927 4.75586 6.36753 6.00429 4.57858
threshold=-0.28203361427906098 0.070243641741446136 1.5918796184818247 0.97022358071404924 0.82053051533717813 -0.014083521669152112 -0.25868876024254417 -0.48298580649527972 2.7970985787512004 0.32746826190564643 -0.0097569789119566694 -0.24586934062265622 -0.22591749445836648 -0.28684956013192126
decision_type=2 2 2 2 2 2 2 2 2 2 2 2 2 2
left_child=2 -2 3 5 8 -1 7 13 -3 -6 11 -8 -13 -7
right_child=1 4 -4 -5 9 6 10 -9 -10 -11 -12 12 -14 -15
leaf_value=0.061762872352776971 -0.009846789629525194 -0.095109028947475013 0.12115337683378838 0.065444733206954819 0.10944717503277397 0.0072818887138368926 0.16134988618725166 -0.05715763207453859 0.18028899348712712 -0.062793058618865027 0.068146334250885163 0.015740479217621561 -0.082101223300070234 -0.1457130044318343
leaf_weight=16.892737880349159 56.161391481757164 31.457847066223621 7.0374136790633193 25.725396901369095 3.1635558605194083 47.444313436746597 2.4265158325433722 29.494912058115005 0.72441694140434165 3.484666645526886 16.849373340606689 28.273986414074898 8.0601074248552305 2.0401467829942694
leaf_count=100 264 236 59 140 15 218 11 141 3 15 80 135 38 9
internal_value=0 -0.0346019 0.0177206 0.013613 -0.0704058 0.0048107 -0.00233754 -0.0207352 -0.0889099 0.0191674 0.0237915 0.00451024 -0.00596406 0.000974211
internal_weight=0 94.9919 184.245 177.207 38.8305 151.482 134.589 78.9794 32.1823 6.64822 55.61 38.7606 36.3341 49.4845
internal_count=1464 533 931 872 269 732 632 368 239 30 264 184 173 227
is_linear=0
shrinkage=0.1


Tree=17
num_leaves=15
num_cat=0
split_feature=0 3 6 2 5 2 6 6 6 6 2 6 2 6
split_gain=14.8104 7.93902 7.7318 6.93667 5.71219 5.24647 5.11643 4.85324 8.11297 8.26311 4.76876 4.70636 4.35016 4.2954
threshold=0.074700363393802968 1.5918796184818247 0.35017626078750813 -0.18192828119686069 0.027855451433192926 -0.34977611490691546 0.93048625602674828 -1.1979352573658797 -0.31941142027202701 -0.69829257632549935 -0.28722759554245797 -0.22537981691335776 -0.33335014916142275 -0.76063663603193665
decision_type=2 2 2 2 2 2 2 2 2 2 2 2 2 2
left_child=1 5 3 4 -2 6 7 -1 9 13 -6 -10 -7 -9
right_child=2 -3 -4 -5 10 12 -8 8 11 -11 -12 -13 -14 -15
leaf_value=0.052629394603844297 -0.060426733246255394 0.11961895840316993 0.0027269272216103391 -0.11114417805124562 0.0057433552331405662 -0.1124108844489006 0.063259292770881007 -0.038269319342262346 0.20444117899634959 -0.15859403653038245 0.21561857170895618 0.014528981101523942 -0.0055733548680757155 0.11755737185057191
leaf_weight=23.119018539786339 19.429473586380485 6.872084528207778 28.212389752268791 18.468719974160194 6.3157188445329666 4.0475322455167762 24.701098024845123 11.220038533210754 1.3355814367532719 5.5868147462606421 1.3066177070140828 56.815438732504845 65.262132778763771 2.1000661253929147
leaf_count=127 118 61 133 164 29 18 143 51 6 24 7 269 305 9
internal_value=0 0.0139889 -0.0384064 -0.0638996 -0.031645 0.0102508 0.0224963 0.0124452 0.000389029 -0.0565158 0.0417201 0.0188908 -0.0118124 -0.0137015
internal_weight=0 201.06 73.7329 45.5205 27.0518 194.188 124.878 100.177 77.0579 18.9069 7.62234 58.151 69.3097 13.3201
internal_count=1464 1013 451 318 154 952 629 486 359 84 36 275 323 60
is_linear=0
shrinkage=0.1


Tree=18
num_leaves=15
num_cat=0
split_feature=2 7 3 6 6 0 5 5 5 4 5 7 1 2
split_gain=12.9849 8.09011 7.60382 6.39687 8.70629 5.95932 5.85725 10.2379 5.45303 5.18134 5.10969 5.06641 5.01368 4.63344
threshold=-0.11058003307526527 -0.18179624110959006 1.5918796184818247 0.22411191342753375 -1.203618486140305 -0.10504813428905328 0.027855451433192926 0.012756619053539702 0.027773017200044461 -0.031100996937109302 -0.00038829920527010353 -0.15820746523562815 -0.13586184699816045 1.0000000180025095e-35
decision_type=2 2 2 2 2 2 2 2 2 2 2 2 2 2
left_child=2 -2 3 4 8 -3 7 10 -1 11 12 -5 -6 -7
right_child=1 5 -4 9 6 13 -8 -9 -10 -11 -12 -13 -14 -15
leaf_value=0.056575783795046047 -0.065964095000770259 0.1561223761945249 0.12012333351901752 -0.073831162770129549 -0.045468094902707187 -0.092588617899667658 0.047746978575180343 -0.097136999881550432 -0.036555398510514002 0.037282769944828369 0.054207546454778932 0.037891028684399461 0.11350883975097939 0.012663121420343766
leaf_weight=24.54426971077919 40.895097516477108 2.3654472082853344 6.3722533062100402 9.1375371962785739 23.477083258330822 5.3313135504722622 8.3406942039728147 21.076255910098553 8.4520701169967634 82.384240262210369 9.3838267773389834 7.3032169342041007 2.1668479070067397 19.411651402711868
leaf_count=137 281 11 61 41 110 23 39 122 42 421 44 34 11 87
internal_value=0 -0.0378821 0.0126177 0.00912729 -0.00905395 0.00448172 -0.0304427 -0.0420667 0.0327201 0.0270539 -0.00893085 -0.0242026 -0.0320349 -0.0100152
internal_weight=0 68.0035 202.638 196.266 97.441 27.1084 64.4447 56.104 32.9963 98.825 35.0278 16.4408 25.6439 24.743
internal_count=1464 402 1062 1001 505 121 326 287 179 496 165 75 121 110
is_linear=0
shrinkage=0.1


Tree=19
num_leaves=15
num_cat=0
split_feature=0 2 8 8 7 9 5 9 7 7 7 5 9 9
split_gain=11.0477 6.65783 6.47682 5.68051 8.35063 7.29252 5.05104 7.74271 5.54301 6.53033 5.63065 4.93946 4.55375 4.4569
threshold=0.074700363393802968 -0.18192828119686069 2.62135811354542 -0.29421336983204216 -0.036813774874306787 0.73252214987386421 0.027855451433192926 -0.32393995182162327 0.35200033387661228 -0.057904094630715844 -0.29484907593518239 0.026806085924735403 -0.41860933154587671 -0.26824989976873231
decision_type=2 2 2 2 2 2 2 2 2 2 2 2 2 2
left_child=3 6 -3 -1 -5 -6 8 12 9 10 11 -2 -8 -4
right_child=1 2 13 4 5 -7 7 -9 -10 -11 -12 -13 -14 -15
leaf_value=0.026672866077554716 0.001567537958213322 -0.090072801844216233 -0.043763512372920449 -0.03861977696983046 0.0056701919411726543 0.11915312015933309 0.048948186306946834 0.15476203613050465 0.072415878517108817 -0.21203968053890671 0.11464240709482709 -0.094759740475951246 -0.11620159655298914 0.17528936646255988
leaf_weight=113.20923049002886 10.239951685070999 24.695112861692909 2.162687480449677 42.641590259969234 33.458908654749393 6.8161880970001212 4.2313618361949921 4.2647039145231229 4.5136893242597571 2.210782557725909 2.3482433259487143 11.086870886385441 2.7577479928731918 1.6280298233032215
leaf_count=593 57 205 14 209 168 43 19 20 21 10 10 75 13 7
internal_value=0 -0.0341349 -0.0713909 0.012108 -0.00777793 0.0248761 -0.00865628 0.048577 -0.0298439 -0.0476748 -0.0323264 -0.0485087 -0.0162163 0.0503149
internal_weight=0 70.1392 28.4858 196.126 82.9167 40.2751 41.6534 11.2538 30.3995 25.8858 23.6751 21.3268 6.98911 3.79072
internal_count=1464 451 226 1013 420 211 225 52 173 152 142 132 32 21
is_linear=0
shrinkage=0.1


Tree=20
num_leaves=15
num_cat=0
split_feature=3 2 9 7 9 5 5 0 0 0 2 2 4 4
split_gain=11.7723 9.42908 7.24804 6.73811 5.31815 5.08868 5.59528 6.11714 4.91143 4.73926 4.3124 5.63439 5.1374 4.10629
threshold=1.5918796184818247 -0.11058003307526527 0.34269975369730438 -0.18179624110959006 1.8274799262949777 0.0054934947274854701 0.029354863295596154 -0.096045556551292446 -0.10504813428905328 0.2786042924324334 1.0084110306119063 0.67339923912280419 -0.10695726821266376 -0.053395671648921013
decision_type=2 2 2 2 2 2 2 2 2 2 2 2 2 2
left_child=1 2 5 4 -3 -1 7 -7 -5 13 11 -10 -12 -9
right_child=-2 3 -4 8 -6 6 -8 9 10 -11 12 -13 -14 -15
leaf_value=0.015347914931267108 0.12713177456157498 -0.073511473919894363 0.057325732068751661 0.1498778852149403 0.087167528352231419 0.09228649195046007 0.034926657193773261 -0.10066870115232654 -0.014079495171330787 0.12185649441581053 -0.086622751454540903 -0.17394884755612125 0.099617098546721072 -0.032869561798010025
leaf_weight=93.410343408584595 7.0775074511766425 35.310099899768829 25.295230895280838 2.0683504641056087 2.1874943673610678 3.609042599797248 14.856182858347891 11.37111511826515 13.757874041795736 1.7074559554457653 2.0030945688486099 2.6251891180872908 5.684259667992591 41.664106823503971
leaf_count=480 67 269 145 10 9 18 69 64 59 10 12 12 25 215
internal_value=0 -0.00361222 0.00744884 -0.03697 -0.064138 -0.000123246 -0.0198638 -0.0338133 0.00200405 -0.0421268 -0.0107026 -0.0396966 0.0510886 -0.0474062
internal_weight=0 255.55 191.913 63.6364 37.4976 166.618 73.2079 58.3517 26.1388 54.7427 24.0704 16.3831 7.68735 53.0352
internal_count=1464 1397 1001 396 278 856 376 307 118 289 108 71 37 279
is_linear=0
shrinkage=0.1


Tree=21
num_leaves=15
num_cat=0
split_feature=3 0 6 2 1 6 4 7 7 6 6 0 0 0
split_gain=10.4245 8.35599 6.35598 6.58377 3.95717 4.05475 3.91586 7.39298 5.16221 4.34481 3.82044 4.54834 2.81376 3.97243
threshold=1.5918796184818247 0.074700363393802968 0.39150883369241768 -0.18192828119686069 -0.0034054507065867335 -1.2578054892186412 -0.012639918730621319 0.17817881280636863 0.69127322212299369 1.159261375401113 -1.203618486140305 -0.10857785783771991 -0.10173233337969979 -0.063351046509602646
decision_type=2 2 2 2 2 2 2 2 2 2 2 2 2 2
left_child=1 6 3 4 5 -3 -1 10 -9 -10 -8 -12 -13 -14
right_child=-2 2 -4 -5 -6 -7 7 8 9 -11 11 12 13 -15
leaf_value=0.015144508242493188 0.12475139148029959 0.16277117557749332 0.0044062928754348158 -0.11227424786664884 0.16392982648320387 -0.044827370118396971 0.069538207510654967 0.12498030732380419 -0.20080645632850969 0.057591697393950717 0.055081509924745337 -0.13762168120142723 -0.0039394108138323175 -0.088212833939842306
leaf_weight=145.56913374364376 6.5199299380183211 0.98179718852043762 25.789684250950813 14.755242854356764 1.0316569581627835 22.553386896848679 2.8956708759069434 5.2394601851701728 1.0779564529657366 1.6418064683675764 3.592570722103118 4.4232487082481411 10.143161639571195 12.46980272233486
leaf_count=754 67 5 127 166 8 139 14 25 5 8 17 20 48 61
internal_value=0 -0.00331937 -0.0341732 -0.0594759 -0.0277643 -0.0361672 0.00742063 -0.019683 0.0669567 -0.0448224 -0.0402526 -0.0506323 -0.0646795 -0.0504116
internal_weight=0 252.165 65.1118 39.3221 24.5668 23.5352 187.053 41.4837 7.95922 2.71976 33.5245 30.6288 27.0362 22.613
internal_count=1464 1397 445 318 152 144 952 198 38 13 160 146 129 109
is_linear=0
shrinkage=0.1


Tree=22
num_leaves=15
num_cat=0
split_feature=2 8 9 5 7 5 6 5 8 0 5 8 6 5
split_gain=7.05873 5.6365 5.14253 6.94486 5.28331 6.46755 4.44742 4.59166 4.3859 5.58634 4.02902 3.9054 3.87302 3.84779
threshold=-0.28203361427906098 -0.65633259412378775 0.43443001868741188 0.07814701751050035 -0.18179624110959006 -0.0056551783177830476 0.97022358071404924 -0.014083521669152112 1.4940694034377986 -0.10504813428905328 -0.013214620292722312 -0.22591749445836648 -1.2650422564780424 -0.011325316787049308
decision_type=2 2 2 2 2 2 2 2 2 2 2 2 2 2
left_child=6 -2 3 4 -3 13 7 12 9 -4 -11 -8 -1 -6
right_child=1 2 8 -5 5 -7 11 -9 -10 10 -12 -13 -14 -15
leaf_value=-0.10966955745746165 0.14076088304361026 -0.063225689131184606 0.16448610797913615 0.2736108825571037 0.01699679782413055 -0.038725109131111907 0.10217744723014673 -0.00107765004989812 0.18637370042084067 0.2664539059624022 -0.038380040583589153 0.018477683768809702 0.068896205046787715 0.1639373747489955
leaf_weight=1.319442711770537 2.030864179134368 43.060393176972866 1.9039599746465672 0.70508433133363624 4.8467948585748672 17.929045900702477 9.3568903282284754 131.55054850131273 1.5792147517204274 0.45586737990379056 8.8698936402797699 13.791088975965975 15.294378679245709 2.8183342516422298
leaf_count=11 9 340 9 4 22 84 59 667 7 2 44 84 110 12
internal_value=0 -0.0238136 -0.0278812 -0.0386319 -0.0418387 -0.00585656 0.011547 0.00517841 0.0303335 0.00838986 -0.023479 0.0523109 0.0547148 0.0710243
internal_weight=0 84.1995 82.1686 69.3597 68.6546 25.5942 171.312 148.164 12.8089 11.2297 9.32576 23.148 16.6138 7.66513
internal_count=1464 533 524 462 458 118 931 788 62 55 46 143 121 34
is_linear=0
shrinkage=0.1


Tree=23
num_leaves=15
num_cat=0
split_feature=3 9 8 6 6 9 6 9 0 1 6 2 4 8
split_gain=9.27811 6.71606 7.97304 7.69115 6.19373 6.37577 5.41725 4.21861 4.00665 3.75294 3.60005 4.81164 4.4269 4.52076
threshold=1.5918796184818247 1.8274799262949777 -0.29421336983204216 0.38536672346040202 0.058781621807895534 1.4654763723322313 -1.203618486140305 0.7527493274710032 -0.1034258876075954 -0.16431092759249516 0.57957204040975629 -0.27710257831712354 -0.090915977871238271 0.16731857760972701
decision_type=2 2 2 2 2 2 2 2 2 2 2 2 2 2
left_child=1 2 4 -4 6 -6 9 10 -3 -1 11 -5 -12 -14
right_child=-2 8 3 7 5 -7 -8 -9 -10 -11 12 -13 13 -15
leaf_value=0.034906656262441396 0.1233353491890566 -0.091366866254439696 -0.061281522110479741 0.11919184455165491 0.045203603781839304 -0.20728856004380691 -0.02854967093728026 0.08084911607391769 0.097540886556732653 -0.098584305203126943 -0.1061521892950649 -0.023134348375154254 -0.044603693528676616 0.014414064260279453
leaf_weight=29.348903968930248 5.9464212767779818 1.2764504924416531 39.673595771193504 4.48140749335289 45.65755420178175 1.0224806964397419 45.546386241912842 5.1360236406326285 9.3240502402186376 2.2688588052988043 5.7101888209581366 5.0543282628059369 24.55031706392765 27.537607587873936
leaf_count=167 67 9 295 20 235 5 250 30 53 14 30 30 124 135
internal_value=0 -0.00307314 -0.0065709 -0.0258869 0.0109202 0.039673 -0.00647368 -0.0065102 0.0747937 0.0253275 -0.0131737 0.0437532 -0.0225657 -0.0134025
internal_weight=0 246.588 235.988 112.143 123.844 46.68 77.1641 72.4699 10.6005 31.6178 67.3338 9.53574 57.7981 52.0879
internal_count=1464 1397 1335 664 671 240 431 369 62 181 339 50 289 259
is_linear=0
shrinkage=0.1


Tree=24
num_leaves=15
num_cat=0
split_feature=3 0 2 8 5 9 8 0 2 9 0 9 8 0
split_gain=8.23385 5.89451 4.52785 6.131 4.24183 3.72241 4.6875 4.36922 4.70637 4.00399 3.81519 3.8816 3.42629 5.09855
threshold=1.5918796184818247 0.074700363393802968 -0.18192828119686069 2.62135811354542 0.041831395880229189 1.8274799262949777 -0.29421336983204216 0.048673108944038999 -0.11686501010303872 1.4654763723322313 -0.097739110779188051 2.4753099904017781 -0.060891724525085802 -0.10412113618536305
decision_type=2 2 2 2 2 2 2 2 2 2 2 2 2 2
left_child=1 5 4 -4 -3 6 7 9 -9 -1 11 -7 13 -8
right_child=-2 2 3 -5 -6 10 12 8 -10 -11 -12 -13 -14 -15
leaf_value=0.015549566834492271 0.12130905925895907 -0.021809126686512911 -0.08657321145108203 0.058414903997553606 0.075134933029810239 0.066508145730249477 0.077997910535179432 0.011408809090307606 0.26758162311514694 -0.18014449175419567 0.1132519240612867 -0.21775532276742343 -0.00036925558817465419 -0.062263089488921931
leaf_weight=98.119528405368328 5.4658250249922267 33.294041812419891 19.449664622545246 3.4310221225023261 5.2212969064712516 1.2121927142143252 2.9317520931363132 1.4438930004835131 1.4248967692255963 1.0567949712276448 5.9575494751334181 0.79566243290901173 47.225639380514622 22.339099064469337
leaf_count=511 67 197 203 21 24 8 16 7 7 5 38 5 240 115
internal_value=0 -0.00279506 -0.0295982 -0.0648318 -0.00866699 0.0062216 0.00317071 0.0169836 0.138647 0.0134643 0.0730741 -0.0461383 -0.0162721 -0.045991
internal_weight=0 243.903 61.396 22.8807 38.5153 182.507 174.542 102.045 2.86879 99.1763 7.9654 2.00786 72.4965 25.2709
internal_count=1464 1397 445 224 221 952 901 530 14 516 51 13 371 131
is_linear=0
shrinkage=0.1


Tree=25
num_leaves=15
num_cat=0
split_feature=3 5 6 5 6 2 5 0 5 0 8 7 8 0
split_gain=7.31769 5.56306 6.62647 4.84218 4.93463 3.9439 4.15421 4.03104 5.4344 4.57346 3.88668 5.63226 6.74442 4.51251
threshold=1.5918796184818247 0.012756619053539702 0.058781621807895534 0.027855451433192926 -1.203618486140305 0.03973352498837867 0.031137225093400871 -0.096045556551292446 0.012979414278265291 -0.068092998347710335 -0.6664665709816624 -0.15926604437348402 -0.61221725449936992 -0.10989704744681753
decision_type=2 2 2 2 2 2 2 2 2 2 2 2 2 2
left_child=1 10 3 4 -3 6 7 -4 -9 -10 -1 13 -13 -12
right_child=-2 2 5 -5 -6 -7 -8 8 9 -11 11 12 -14 -15
leaf_value=0.039770504877859408 0.11944836627973368 0.0045576393374366806 0.14608956111090546 -0.0022472771243892478 -0.092387944755677839 -0.046099466550014373 0.10516086712779654 -0.12569603807765584 -0.17834878152374872 0.025163454769925667 0.049612273540070105 -0.27827649709162378 0.029342163258425119 -0.028273134941525054
leaf_weight=32.434538647532463 5.0187882930040351 6.7002575062215319 1.9505877196788777 15.038193367421625 24.265451926738027 10.99040627479553 5.1954344362020484 3.1636736840009752 1.1657111495733286 20.940508890897036 8.5155957937240583 0.72256927192211051 52.290761433541775 58.831547036767006
leaf_count=185 67 37 11 87 211 69 25 16 6 110 41 4 284 311
internal_value=0 -0.00254636 -0.0223583 -0.0488022 -0.0714112 0.00566821 0.0232197 0.00758001 -0.00311156 0.0144318 0.00904685 0.000767493 0.0251493 -0.018425
internal_weight=0 242.205 89.4102 46.0039 30.9657 43.4063 32.4159 27.2205 25.2699 22.1062 152.795 120.36 53.0133 67.3471
internal_count=1464 1397 572 335 248 237 168 143 132 116 825 640 288 352
is_linear=0
shrinkage=0.1


Tree=26
num_leaves=15
num_cat=0
split_feature=3 9 8 7 6 4 4 7 7 6 9 6 6 4
split_gain=6.51119 5.28788 6.03262 7.31766 5.06956 4.13409 3.91746 4.42849 5.26313 3.90967 3.69463 3.50244 5.26918 7.50707
threshold=1.5918796184818247 0.43443001868741188 -0.29421336983204216 -0.27796747810836225 0.97022358071404924 1.0000000180025095e-35 0.1037545964416542 -0.24600969780873896 -0.16611293721915227 -0.31941142027202701 -0.42198662399685544 0.69196650003226223 0.35017626078750813 -0.017832946620811606
decision_type=2 2 2 2 2 2 2 2 2 2 2 2 2 2
left_child=1 2 4 5 -1 11 7 -5 -9 -3 -10 12 -4 -14
right_child=-2 9 3 6 -6 -7 -8 8 10 -11 -12 -13 13 -15
leaf_value=0.0017335793650705589 0.11773983137778053 -0.11695103907973717 -0.048379875479514507 0.14715622131249761 0.084994797979999495 -0.10372753394883423 0.065760502121600672 -0.16365476535110526 -0.12792563985293451 0.044440098226805932 -0.0039100528719236555 -0.13348426062190447 -0.067063245512342259 0.17234742602202299
leaf_weight=105.43367942050099 4.6037204042077056 1.5817046388983751 17.846794012933977 1.6593407429754723 7.8578258752822867 13.693658847361801 7.213724933564662 2.3887743949890128 2.5521614775061598 29.417672142386436 40.897178374230862 3.234073117375373 2.370828814804554 2.9263786375522605
leaf_count=582 67 10 140 8 49 128 34 14 13 170 207 16 13 13
internal_value=0 -0.00232544 -0.00806583 -0.0266814 0.00750852 -0.0591483 -0.00290198 -0.0133302 -0.0191398 0.0362053 -0.0111946 -0.0360059 -0.0223845 0.0651963
internal_weight=0 239.074 208.074 94.7829 113.292 40.0717 54.7112 47.4975 45.8381 30.9994 43.4493 26.3781 23.144 5.29721
internal_count=1464 1397 1217 586 631 310 276 242 234 180 220 182 166 26
is_linear=0
shrinkage=0.1


Tree=27
num_leaves=15
num_cat=0
split_feature=5 6 5 8 1 0 9 9 7 5 0 4 9 6
split_gain=4.51876 4.94161 5.34618 7.64718 7.05307 5.78152 5.15997 5.63305 5.55487 8.76904 4.49674 4.38393 4.15802 3.89362
threshold=-0.012445976767419025 -0.1644142718786161 -0.011325316787049308 -0.47763990127208894 0.66003868250615327 -0.11381896250089156 0.34269975369730438 0.22475763240907196 -0.15820746523562815 -0.0066844922560152726 -0.066310309686767585 0.010225717162834344 -0.11964642448471852 -1.2555425308520973
decision_type=2 2 2 2 2 2 2 2 2 2 2 2 2 2
left_child=-1 13 4 -4 5 12 7 8 10 -10 -5 -8 -3 -2
right_child=1 2 3 6 -6 -7 11 -9 9 -11 -12 -13 -14 -15
leaf_value=0.036879257582202014 0.051349921474877686 0.11826598243980049 0.066978709238223966 -0.096769685392546975 0.1519610407393861 -0.096681806244419369 0.066738667462416523 -0.13354444234618912 0.11099792911117359 -0.0034856491885424676 -0.011456755701349748 -0.055472996505212084 -0.1061216502888843 -0.032480971742385061
leaf_weight=29.111618019640446 6.0238099358975878 2.5194590389728551 22.083795104175806 9.094652861356737 1.6594119518995274 12.657455757260323 17.230532757937912 3.537687685340642 8.23183326423168 35.735145218670368 19.266952712088823 3.5378782600164405 1.2285054028034252 69.047625791281462
leaf_count=204 32 13 123 45 7 64 108 19 49 179 131 18 7 465
internal_value=0 -0.00513877 0.00617575 0.0138877 -0.0445055 -0.0643781 0.00175486 -0.0103354 -0.00430905 0.0179488 -0.0388139 0.04592 0.0447163 -0.0257543
internal_weight=0 211.855 136.783 118.718 18.0648 16.4054 96.6347 75.8663 72.3286 43.967 28.3616 20.7684 3.74796 75.0714
internal_count=1464 1260 763 672 91 84 549 423 404 228 176 126 20 497
is_linear=0
shrinkage=0.1


Tree=28
num_leaves=15
num_cat=0
split_feature=2 9 6 8 7 2 4 2 2 4 8 5 6 1
split_gain=4.20456 3.81143 3.38008 4.12408 4.26255 3.93478 4.18672 3.31493 4.29174 3.79467 3.50632 3.10004 3.65048 3.60633
threshold=-0.11058003307526527 0.34269975369730438 -0.91707381126535459 -0.29030078779853369 -0.24935834939541299 -0.024931541740913114 -0.045266271967418927 0.96399874594937141 0.77727886439074267 -0.10695726821266376 2.62135811354542 -0.014083521669152112 -1.2641087065866399 -0.19271120246712115
decision_type=2 2 2 2 2 2 2 2 2 2 2 2 2 2
left_child=1 11 -2 5 -5 -4 -7 8 10 -9 -6 12 13 -1
right_child=2 -3 3 4 7 6 -8 9 -10 -11 -12 -13 -14 -15
leaf_value=-0.24190174287304833 -0.11408420479193684 0.045366729709447544 -0.092458358813262698 -0.070459878594486144 -0.027504823559449155 0.1752399853368547 0.022545072919275596 -0.075702773453931005 -0.16535853811386808 0.08838300526771177 0.13651399151544119 -0.0028777281558900218 0.060524435944683319 0.032760043365204959
leaf_weight=0.83820648491382588 3.8837344273924819 22.986845914274454 1.9051471948623664 16.816793508827683 12.932660661637792 2.5104798302054396 6.3064902201294872 1.8533870875835416 2.0583657771348944 5.883306272327899 1.4494341313838948 143.5593451410532 14.376833975315092 1.1125597953796411
leaf_count=8 49 150 11 175 61 13 34 13 11 28 7 782 114 8
internal_value=0 0.00729217 -0.0241106 -0.0173538 -0.031796 0.0378629 0.0660223 -0.00490269 -0.0303039 0.0490749 -0.0109749 0.00181822 0.043107 -0.0852568
internal_weight=0 182.874 55.5998 51.7161 40.9939 10.7221 8.81697 24.1772 16.4405 7.73669 14.3821 159.887 16.3276 1.95077
internal_count=1464 1062 402 353 295 58 47 120 79 41 68 912 130 16
is_linear=0
shrinkage=0.1


Tree=29
num_leaves=15
num_cat=0
split_feature=3 9 9 4 6 9 8 8 2 4 4 6 6 6
split_gain=5.83005 3.77843 7.18332 4.44183 5.38922 3.60741 3.90356 4.14771 5.43255 3.68312 4.09328 4.3639 6.84407 6.48737
threshold=1.5918796184818247 -0.42444316158258083 -0.42375744108002472 -0.0038715862982319593 1.159261375401113 1.766022068986401 -0.22591749445836648 -0.19570150841424469 -0.3522302710538705 -0.048773604940374672 -0.043594171364033055 -0.24397947472056708 0.71803615964120315 0.22411191342753375
decision_type=2 2 2 2 2 2 2 2 2 2 2 2 2 2
left_child=1 -1 -3 5 -5 6 -4 -8 9 -9 -11 -12 13 -13
right_child=-2 2 3 4 -6 -7 7 8 -10 10 11 12 -14 -15
leaf_value=-0.027818333990601758 0.11707769250317868 0.15993067107256173 0.022461477078893431 -0.034883549300366225 0.1042853303896536 0.074740512905499434 -0.12155898101388879 0.091252943015507626 -0.042182410171973592 -0.18569734465754045 -0.1801854634862361 -0.037408439069600084 -0.020302969208622269 0.14342953404122769
leaf_weight=45.962719634175301 4.1756799183785906 2.9154391288757315 70.47282238304615 41.864465679973364 2.9806509763002387 8.2409429103136045 3.2824830561876288 6.0167298465967134 23.87050574272871 1.0840804427862156 1.1213953495025659 2.8479770570993512 15.016753397881983 6.5373711585998535
leaf_count=342 67 16 385 243 15 56 17 31 150 5 5 12 86 34
internal_value=0 -0.00214049 0.00419623 0.00171971 -0.0256336 0.0105771 0.00651743 -0.0122794 -0.00592996 0.0205952 0.00461745 0.0127008 0.0215649 0.0885544
internal_weight=0 232.214 186.252 183.336 44.8451 138.491 130.25 59.7773 56.4948 32.6243 26.6076 25.5235 24.4021 9.38535
internal_count=1464 1397 1055 1039 258 781 725 340 323 173 142 137 132 46
is_linear=0
shrinkage=0.1


Tree=30
num_leaves=15
num_cat=0
split_feature=5 9 1 2 5 6 8 7 5 0 0 8 8 9
split_gain=3.54131 4.70523 3.86026 3.63403 3.57117 3.06078 2.98022 3.26287 5.46121 5.5678 6.61034 5.40078 4.16981 4.9957
threshold=0.012756619053539702 0.30587242180206559 -0.17424904585037512 0.30722356005332058 0.027855451433192926 0.66947038647793444 -0.6664665709816624 -0.15926604437348402 0.0033101015251746891 -0.10989704744681753 -0.095546403726228496 -0.61221725449936992 -0.42882946227773827 -0.42198662399685544
decision_type=2 2 2 2 2 2 2 2 2 2 2 2 2 2
left_child=6 2 -2 4 -3 -4 -1 8 9 -8 -11 -9 13 -10
right_child=1 3 5 -5 -6 -7 7 11 12 10 -12 -13 -14 -15
leaf_value=0.036245294776656271 -0.0094431989301887228 0.03674622692623792 -0.082600027836747331 -0.067130484236635105 0.18347802389806822 -0.0075135635807999802 0.049616793805092201 -0.24204692126186594 -0.033214775701958833 -0.11677252990277072 -0.021445745039581975 0.024738942511066269 0.0009936412798834881 0.18573015830366527
leaf_weight=32.182425545528531 48.414574131369591 7.6088339425623399 16.601346101611856 2.4681105203926554 2.121053084731102 8.066805996000765 7.9869623035192481 0.77035851776599784 1.50715135037899 9.1585499793291074 35.358280586078763 50.600219674408436 8.0251874029636365 3.3776926323771468
leaf_count=215 263 51 200 18 12 42 41 4 8 45 202 293 54 16
internal_value=0 -0.0162521 -0.0258484 0.0412426 0.0687328 -0.0580458 0.00930129 0.0018763 -0.0129363 -0.027264 -0.0410575 0.0207382 0.0453333 0.118178
internal_weight=0 85.2807 73.0827 12.198 9.72989 24.6682 148.967 116.784 65.4138 52.5038 44.5168 51.3706 12.91 4.88484
internal_count=1464 586 505 81 63 242 878 663 366 288 247 297 78 24
is_linear=0
shrinkage=0.1


Tree=31
num_leaves=15
num_cat=0
split_feature=3 4 4 7 1 8 9 8 9 8 7 9 0 9
split_gain=5.12787 3.18803 3.68724 4.94499 5.57873 3.90655 3.29697 4.53029 3.82444 3.29272 4.56539 2.80652 3.18135 2.62484
threshold=1.5918796184818247 -0.098365661860307055 -0.012639918730621319 0.1551591521367833 1.9333442086598402 -0.6482498178569851 -0.42444316158258083 -0.64580348514072072 -0.42375744108002472 1.062794310323429 -0.21000626237694101 -0.41041254005605859 -1.0000000180025095e-35 1.766022068986401
decision_type=2 2 2 2 2 2 2 2 2 2 2 2 2 2
left_child=1 -1 6 5 -5 11 7 -3 -8 -7 -11 -4 -13 -10
right_child=-2 2 3 4 -6 9 8 -9 13 10 -12 12 -14 -15
leaf_value=-0.032447380662461438 0.11576471163677278 0.0016155940840840454 0.073912081130351734 0.060304482685360684 -0.17572423020348496 -0.057400161954740583 0.14831585703175598 -0.10913191011610412 0.011528254134155421 -0.085417299840518407 0.16134326862006232 0.011544651421603169 -0.16316000173344947 0.073042977504123738
leaf_weight=29.739254113286734 3.7638612426817408 14.589155375957491 5.0961441770195961 11.04772663861513 1.1012120246887196 33.530491042882204 2.2071097269654265 4.9458575285971156 109.09341792017221 1.3525351844727995 1.6823817864060391 4.7741697803139687 1.333450049161909 7.4075715169310561
leaf_count=223 67 93 28 56 5 249 13 30 593 16 9 22 7 53
internal_value=0 -0.00191695 0.00266493 -0.0180548 0.0389102 -0.0325425 0.0116454 -0.0264234 0.0179101 -0.0483721 0.0513724 0.0191201 -0.0265979 0.0154396
internal_weight=0 227.9 198.161 59.9181 12.1489 47.7692 138.243 19.535 118.708 36.5654 3.03492 11.2038 6.10762 116.501
internal_count=1464 1397 1174 392 61 331 782 123 659 274 25 57 29 646
is_linear=0
shrinkage=0.1


Tree=32
num_leaves=15
num_cat=0
split_feature=5 0 9 5 5 5 8 0 4 4 5 4 2 5
split_gain=2.76398 3.08717 2.80121 4.4825 3.78425 4.64664 3.63327 3.37967 3.36402 4.47168 4.26845 3.70998 4.04241 3.64586
threshold=-0.012445976767419025 -0.072727988866161455 -0.42477891974819015 -0.012401417722473907 0.027855451433192926 0.024119175514544785 2.62135811354542 0.16472614077141126 0.079420774652542644 0.060524678402897353 -0.01166173757638495 -0.031100996937109302 -0.2880066927319675 0.012979414278265291
decision_type=2 2 2 2 2 2 2 2 2 2 2 2 2 2
left_child=1 -1 -2 -4 5 7 -7 8 9 10 -5 -12 13 -13
right_child=2 -3 3 4 -6 6 -8 -9 -10 -11 11 12 -14 -15
leaf_value=0.059439339708715136 -0.029853642133817346 -0.0082706324288455112 -0.22182006462929171 -0.047297565911627738 0.051104561505655434 -0.055821371560300016 0.11047457837929685 0.12939604518414699 -0.051616242727731958 0.15517093084932609 -0.022618665999419345 0.026646326211897553 -0.016400485891715649 0.10306042503517257
leaf_weight=15.393108325079085 34.809633027762175 11.970013391226528 0.89531413838267226 13.670132454484699 14.628955535590647 20.253371477127079 1.4049526080489148 2.1480149887502185 10.392925828695295 2.0219736993312827 23.478264719247818 51.096843451261513 19.722263831645257 7.1130451187491408
leaf_count=123 273 81 5 72 85 145 8 17 66 9 130 299 109 42
internal_value=0 0.0298196 -0.00405059 0.00133343 0.00253751 -0.00215831 -0.0450339 0.00500452 0.0029088 0.00774793 0.0051577 0.0122287 0.022727 0.0359839
internal_weight=0 27.3631 201.636 166.826 165.931 151.302 21.6583 129.643 127.495 117.103 115.081 101.41 77.9322 58.2099
internal_count=1464 204 1260 987 982 897 153 744 727 661 652 580 450 341
is_linear=0
shrinkage=0.1


Tree=33
num_leaves=15
num_cat=0
split_feature=3 5 5 9 5 6 6 0 5 5 8 0 8 8
split_gain=4.57818 2.66081 3.85686 4.22237 4.41275 4.02109 4.35249 3.5429 3.67975 3.45051 3.38539 3.16768 2.2223 2.21461
threshold=1.5918796184818247 0.012756619053539702 0.027855451433192926 -0.32393995182162327 0.05987780908300197 0.058781621807895534 -1.203618486140305 -0.096045556551292446 0.014850894165960244 0.027773017200044461 -0.47763990127208894 -0.068092998347710335 -0.58479043639778239 -0.47182913472514248
decision_type=2 2 2 2 2 2 2 2 2 2 2 2 2 2
left_child=1 13 5 -4 -5 6 9 -7 12 -3 -10 -12 -9 -1
right_child=-2 2 3 4 -6 7 -8 8 10 -11 11 -13 -14 -15
leaf_value=0.02085562267070255 0.11479943795395696 0.084457371726434971 -0.011628455664932808 0.1246123871845783 -0.056354053028289677 0.13211072813869859 -0.081347067689788721 0.14017790299682392 0.14351051760439112 -0.061228372895313382 -0.19781597645289037 0.00051963479546875265 -0.10199195165763397 -0.0043084797792405224
leaf_weight=61.115179091691971 3.4218800328671923 3.3030660673975971 14.643530283123257 5.6076504513621321 1.7736345455050466 1.7598579302430142 20.120400886982679 0.4072999209165572 1.6055227294564272 3.2014528997242451 0.83557496964932099 22.200843419879671 5.4406920447945621 81.760723870247602
leaf_count=348 67 17 88 34 10 12 211 2 9 20 4 134 31 477
internal_value=0 -0.00174982 -0.0162411 0.0194576 0.0811283 -0.0295959 -0.0583584 -0.00584998 -0.013813 0.0127524 0.00311078 -0.00667438 -0.0851253 0.00645547
internal_weight=0 223.775 80.8995 22.0248 7.38128 58.8747 26.6249 32.2498 30.4899 6.50452 24.6419 23.0364 5.84799 142.876
internal_count=1464 1397 572 132 44 440 248 192 180 37 147 138 33 825
is_linear=0
shrinkage=0.1


Tree=34
num_leaves=15
num_cat=0
split_feature=3 9 8 5 8 8 7 2 1 1 5 5 7 7
split_gain=4.08865 2.43949 3.21687 3.33354 2.96193 5.249 5.13721 2.54544 3.44879 4.48983 3.88262 2.71606 5.61612 2.98861
threshold=1.5918796184818247 0.43443001868741188 1.431313124730776 -0.013214620292722312 -0.22892282291644725 -0.18640428193913028 0.28201968567803914 0.28644763499973286 0.66003868250615327 0.17534252774245088 -0.0056551783177830476 -0.0096766321240799435 0.35546726224968722 -0.18505516944631817
decision_type=2 2 2 2 2 2 2 2 2 2 2 2 2 2
left_child=1 4 3 -3 6 -6 -1 8 9 10 11 -5 13 -13
right_child=-2 2 -4 7 5 -7 -8 -9 -10 -11 -12 12 -14 -15
leaf_value=-0.0013548621562182726 0.11350570833996317 0.16681079211086128 0.14369487994039723 0.019713127265179736 -0.12359540618318506 -0.013942884151474844 0.078025163299422384 -0.06364800768002353 0.16358033487269036 -0.13226676908651522 0.068960375749390262 -0.11951744365378054 -0.3721760480921954 0.1270856268417713
leaf_weight=104.87432347983122 3.129737338051199 1.3912239521741927 2.1444270461797705 4.4743209704756737 4.6322311013936988 75.830055575817823 8.8399626463651639 4.1540740057826033 1.5916182994842518 1.9771250337362278 9.5324391797184926 1.3455236554145817 0.61737132072448719 0.77421783655883225
leaf_count=623 67 10 15 27 28 508 58 26 7 11 66 7 6 5
internal_value=0 -0.00159388 0.0259991 0.0162385 -0.00557309 -0.0202556 0.00481601 0.00767664 0.022263 0.0102486 0.0270768 -0.028287 -0.106752 -0.0294477
internal_weight=0 222.179 28.0023 25.8579 194.177 80.4623 113.714 24.4667 20.3126 18.721 16.7439 7.21143 2.73711 2.11974
internal_count=1464 1397 180 165 1217 536 681 155 129 122 111 45 18 12
is_linear=0
shrinkage=0.1


Tree=35
num_leaves=15
num_cat=0
split_feature=3 4 5 4 4 0 4 5 1 9 0 0 1 0
split_gain=3.65199 2.29479 4.1155 3.62365 4.49816 2.98864 2.76628 4.57248 3.06043 4.14164 3.10788 4.32776 3.31806 3.37132
threshold=1.5918796184818247 -0.098365661860307055 0.05987780908300197 -0.07052450709823975 -0.063999236450880223 -0.0046292820181488724 -0.050812752017674524 0.014472142283926744 -0.18191105395034554 -0.31602908537768976 -0.054188026792356972 -0.03006824920980174 -0.18668078733568208 0.22155825528226575
decision_type=2 2 2 2 2 2 2 2 2 2 2 2 2 2
left_child=1 2 -1 5 -5 -3 7 -6 10 -10 -8 -12 13 -13
right_child=-2 3 -4 4 6 -7 8 -9 9 -11 11 12 -14 -15
leaf_value=-0.034833444880192826 0.11231565840627225 0.12967044681560427 0.1803982843620151 -0.11190271536029053 0.13807469738485126 -0.029710009821927064 -0.0059270157462250695 -0.095917463403152589 -0.06355533226685374 -0.0025157405610367746 0.074310201565270489 0.010237528933804235 0.11417904899828191 -0.11500621964713649
leaf_weight=27.568030092865232 2.8603801839053622 3.9162966012954712 0.91798535734414954 3.5158767923712722 3.3623973727226248 1.6817637309432019 64.152855180203915 1.1110795661807058 15.180852454155682 41.514717992395163 14.056925550103186 38.909598473459482 2.8892404660582534 2.2749158889055243
leaf_count=218 67 20 5 17 16 9 383 6 155 244 84 213 14 13
internal_value=0 -0.00140644 -0.0278974 0.00251232 0.00013867 0.0817895 0.00228595 0.079958 0.000344582 -0.0188598 0.00924848 0.0259961 0.0105868 0.00331942
internal_weight=0 221.053 28.486 192.567 186.968 5.59806 183.453 4.47348 178.979 56.6956 122.284 58.1307 44.0738 41.1845
internal_count=1464 1397 223 1174 1145 29 1128 22 1106 399 707 324 240 226
is_linear=0
shrinkage=0.1


end of trees

feature_importances:
Column_5=74
Column_0=69
Column_6=65
Column_9=57
Column_8=51
Column_4=48
Column_7=47
Column_2=40
Column_3=33
Column_1=20

parameters:
[boosting: gbdt]
[objective: binary]
[metric: binary_logloss]
[tree_learner: serial]
[device_type: cpu]
[linear_tree: 0]
[data: ]
[valid: ]
[num_iterations: 10000]
[learning_rate: 0.1]
[num_leaves: 15]
[num_threads: 0]
[deterministic: 0]
[force_col_wise: 0]
[force_row_wise: 0]
[histogram_pool_size: -1]
[max_depth: -1]
[min_data_in_leaf: 5]
[min_sum_hessian_in_leaf: 0.001]
[bagging_fraction: 0.5]
[pos_bagging_fraction: 1]
[neg_bagging_fraction: 1]
[bagging_freq: 0]
[bagging_seed: 21897]
[feature_fraction: 0.8]
[feature_fraction_bynode: 1]
[feature_fraction_seed: 12646]
[extra_trees: 0]
[extra_seed: 20733]
[early_stopping_round: 50]
[first_metric_only: 0]
[max_delta_step: 0]
[lambda_l1: 0]
[lambda_l2: 0]
[linear_lambda: 0]
[min_gain_to_split: 0]
[drop_rate: 0.1]
[max_drop: 50]
[skip_drop: 0.5]
[xgboost_dart_mode: 0]
[uniform_drop: 0]
[drop_seed: 20829]
[top_rate: 0.2]
[other_rate: 0.1]
[min_data_per_group: 100]
[max_cat_threshold: 32]
[cat_l2: 10]
[cat_smooth: 10]
[max_cat_to_onehot: 4]
[top_k: 20]
[monotone_constraints: ]
[monotone_constraints_method: basic]
[monotone_penalty: 0]
[feature_contri: ]
[forcedsplits_filename: ]
[refit_decay_rate: 0.9]
[cegb_tradeoff: 1]
[cegb_penalty_split: 0]
[cegb_penalty_feature_lazy: ]
[cegb_penalty_feature_coupled: ]
[path_smooth: 0]
[interaction_constraints: ]
[verbosity: -1]
[saved_feature_importance_type: 0]
[max_bin: 255]
[max_bin_by_feature: ]
[min_data_in_bin: 3]
[bin_construct_sample_cnt: 200000]
[data_random_seed: 182]
[is_enable_sparse: 1]
[enable_bundle: 1]
[use_missing: 1]
[zero_as_missing: 0]
[feature_pre_filter: 1]
[pre_partition: 0]
[two_round: 0]
[header: 0]
[label_column: ]
[weight_column: ]
[group_column: ]
[ignore_column: ]
[categorical_feature: ]
[forcedbins_filename: ]
[objective_seed: 3944]
[num_class: 1]
[is_unbalance: 0]
[scale_pos_weight: 1]
[sigmoid: 1]
[boost_from_average: 1]
[reg_sqrt: 0]
[alpha: 0.9]
[fair_c: 1]
[poisson_max_delta_step: 0.7]
[tweedie_variance_power: 1.5]
[lambdarank_truncation_level: 30]
[lambdarank_norm: 1]
[label_gain: ]
[eval_at: ]
[multi_error_top_k: 1]
[auc_mu_weights: ]
[num_machines: 1]
[local_listen_port: 12400]
[time_out: 120]
[machine_list_filename: ]
[machines: ]
[gpu_platform_id: -1]
[gpu_device_id: -1]
[gpu_use_dp: 0]
[num_gpu: 1]

end of parameters

pandas_categorical:null
