tree
version=v3
num_class=1
num_tree_per_iteration=1
label_index=0
max_feature_idx=9
objective=binary sigmoid:1
feature_names=Column_0 Column_1 Column_2 Column_3 Column_4 Column_5 Column_6 Column_7 Column_8 Column_9
feature_infos=[-5.9461523200741997:8.9000788482569213] [-0.32907603672658686:32.507701955788043] [-0.66664792683360363:23.521722816805894] [-0.2159488219222388:5.8101459794246386] [-27.341941575767965:27.171256957381392] [-4.9677192320746597:24.445706336197716] [-1.2682927843421465:6.8321570065999513] [-0.29598397758150563:20.207531766523946] [-0.92135003479692401:15.542178607335664] [-0.42558784639417108:15.766073447244642]
tree_sizes=2261 2309 2532 2420 2538 2433 2338 2431 2537 2325 2653 2545 2445 2434 2647 2344 2340 2452 2341 2340 2554 2449 2442 2233 2558 2654 2452 2455 2559 2662 2669 2765 2554

Tree=0
num_leaves=22
num_cat=0
split_feature=2 7 7 3 6 9 6 9 9 9 2 7 6 2 6 9 6 6 6 6 6
split_gain=276.475 40.3209 38.6473 37.0141 29.7164 25.2086 9.31058 6.93731 6.73829 6.58689 6.0577 3.891 2.47507 2.0986 1.99962 1.69009 1.66814 5.29301 0.595731 0.813107 0.449818
threshold=-0.28203361427906098 -0.037661462010856246 -0.20312651041775406 1.5918796184818247 -1.1811078193870572 -0.18562244818062723 0.20757888426556992 -0.42451219494931253 -0.2016527398769139 0.33531320169086926 -0.3704234889242341 0.16305576362092575 0.47417397950223666 -0.15296317988364735 -1.241747784645084 -0.11821271487226635 0.071181393679368418 -0.61699198097761998 -0.44857571059986939 -0.90220069823125193 0.99098389876986281
decision_type=2 2 2 2 2 2 2 2 2 2 2 2 2 2 2 2 2 2 2 2 2
left_child=2 6 3 4 10 7 13 -6 -3 11 14 -4 -7 -2 -1 -8 17 -9 19 -15 -13
right_child=1 8 9 -5 5 12 15 16 -10 -11 -12 20 -14 18 -16 -17 -18 -19 -20 -21 -22
leaf_value=0.13086419753086423 -0.13220338983050847 -0.060317460317460304 0.068354430379746839 0.20000000000000001 -0.095652173913043481 0.044444444444444432 -0.11898734177215189 -0.0045454545454545461 0.033333333333333333 0.16666666666666669 0.030769230769230771 0.11351351351351352 0.10588235294117648 -0.18490566037735856 0.079999999999999988 -0.071999999999999995 0.0028985507246376812 -0.08363636363636362 -0.18695652173913047 -0.1526315789473684 0.13650793650793652
leaf_weight=20.249999999999996 14.749999999999998 15.750000000000002 19.75 12.749999999999998 17.25 13.500000000000002 19.75 21.999999999999996 14.999999999999998 24 12.999999999999998 18.5 12.749999999999998 13.249999999999995 12.500000000000002 12.499999999999998 17.25 13.750000000000002 23 19.000000000000004 15.749999999999998
leaf_count=81 59 63 79 51 69 54 79 88 60 96 52 74 51 53 50 50 69 55 92 76 63
internal_value=0 -0.115038 0.0656652 0.0367742 0.0221441 -0.00932642 -0.145232 -0.0405694 -0.0146341 0.123077 0.0885246 0.103704 0.0742857 -0.165714 0.11145 -0.100775 -0.0226415 -0.034965 -0.174661 -0.165891 0.124088
internal_weight=0 133 233 155 142.25 96.5 102.25 70.25 30.75 78 45.75 54 26.25 70 32.75 32.25 53 35.75 55.25 32.25 34.25
internal_count=1464 532 932 620 569 386 409 281 123 312 183 216 105 280 131 129 212 143 221 129 137
is_linear=0
shrinkage=0.1


Tree=1
num_leaves=21
num_cat=0
split_feature=1 7 7 6 6 6 7 6 6 6 7 6 2 6 6 2 6 6 6 1
split_gain=233.88 36.3365 26.7345 36.1436 16.0025 7.95775 4.50208 3.44287 3.30888 3.29733 2.71075 2.38466 2.28884 2.0216 1.07475 1.02749 0.961632 0.675328 0.501766 0.794775
threshold=-0.17939054777316679 -0.037661462010856246 -0.27924747195973315 -1.1811078193870572 0.083581165550841302 0.20757888426556992 0.45957281539945433 -0.58910645847656185 1.138595088948658 0.6953032445435029 0.16305576362092575 -1.2563381828805171 -0.15296317988364735 0.5547724966668105 -1.2370978701932818 0.083449533089639261 -0.89186755500502446 0.95625446271509318 -0.44857571059986939 -0.032537015298605039
decision_type=2 2 2 2 2 2 2 2 2 2 2 2 2 2 2 2 2 2 2 2
left_child=2 5 3 11 7 12 -3 16 9 -4 -11 -1 -2 -6 -13 -7 -5 -12 19 -14
right_child=1 6 8 4 13 15 -8 -9 -10 10 17 14 18 -15 -16 -17 -18 -19 -20 -21
leaf_value=0.14068353539994988 -0.11923944675332797 0.025639899724976736 0.1418236483847698 -0.027447717616028607 0.069958813416149415 -0.068508617715354186 -0.051016869657118213 -0.065125190856782408 0.1518235944516306 0.061921362994417688 0.12356427623473927 0.075798680842149024 -0.13151631640670045 0.023307039118859122 0.11110245163829209 -0.10455179634882264 0.0056527279159183513 0.093423006929627295 -0.1697901955076247 -0.16353537979369578
leaf_weight=14.443113848567007 20.433060556650162 17.736126959323887 14.205679103732107 21.715728506445885 22.710851654410362 14.46322436630726 13.48778063058853 20.714561834931374 14.419984012842177 23.184736222028732 13.942055165767671 18.432498484849926 13.158293277025221 15.717119127511976 16.203446835279468 17.453858882188797 14.730601996183394 15.923282533884047 22.800186216831207 18.868865013122559
leaf_count=58 82 71 57 87 91 58 54 83 58 93 56 74 53 63 65 70 59 64 92 76
internal_value=0 -0.102405 0.0626154 0.0367921 0.000976315 -0.130061 -0.0074735 -0.0325716 0.108355 0.099035 0.0875771 0.106549 -0.147806 0.0508781 0.0923146 -0.0882188 -0.0140694 0.107494 -0.158452 -0.15038
internal_weight=0 138.401 226.344 144.668 95.5889 107.177 31.2239 57.1609 81.6757 67.2558 53.0501 49.0791 75.2604 38.428 34.6359 31.9171 36.4463 29.8653 54.8273 32.0272
internal_count=1464 556 908 580 383 431 125 229 328 270 213 197 303 154 139 128 146 120 221 129
is_linear=0
shrinkage=0.1


Tree=2
num_leaves=23
num_cat=0
split_feature=1 0 0 6 4 4 6 0 0 6 6 6 4 0 0 0 6 0 4 0 0 4
split_gain=191.379 72.0378 35.3388 34.8154 15.2264 11.5657 10.1835 9.13615 6.7779 6.49788 2.7334 5.09505 2.71577 2.26765 2.14211 4.62931 1.80928 0.693221 0.674262 0.651884 0.457883 0.0782282
threshold=-0.17939054777316679 0.05259502399811302 0.071224120504964641 0.27474431523604803 -0.01276226755525931 -0.025839997477675684 0.66223718621957539 -0.060962243703939378 0.039492262340183895 0.25717797175146145 -1.1693124506292298 0.27474431523604803 0.16887135977676279 -0.070945300205218706 -0.053653220194074154 -0.091303604713184772 0.60850484144319295 0.1317464005439706 0.040133207629898839 -0.085135501946322897 -0.11132319837557172 -1.0000000180025095e-35
decision_type=2 2 2 2 2 2 2 2 2 2 2 2 2 2 2 2 2 2 2 2 2 2
left_child=1 4 7 12 5 -1 17 16 9 -9 19 13 -3 -12 15 20 -2 -4 -6 -7 -13 -19
right_child=2 3 6 -5 18 10 -8 8 -10 -11 11 14 -14 -15 -16 -17 -18 21 -20 -21 -22 -23
leaf_value=0.026659859041669533 -0.025400428081438893 -0.090574970303144514 -0.14414305937892583 0.055431759435140573 -0.0021677410255083376 0.14373590041808124 -0.064162571263826851 -0.14450170164291914 -0.012916163717074892 -0.049240587882955968 0.033287136959372583 0.11007988743972806 -0.15104885590677086 0.090026085619367258 0.14245875727567298 0.056585136005190488 0.024342520392920522 -0.16649547833719477 0.030779187004952441 0.11601835439855535 0.13473475521687112 -0.17522192311806004
leaf_weight=19.362332627177238 15.077955633401873 17.430584788322452 12.722642078995703 19.297968253493309 12.423285797238352 21.954341530799866 12.444174706935881 15.662270128726961 12.549462288618086 13.191166087985037 12.464498728513719 12.369691967964171 12.938120156526564 16.197271883487701 20.722620621323586 14.332255423068998 14.19706669449806 20.558841526508328 12.422835782170294 13.830581754446028 19.263327911496166 20.532334223389629
leaf_count=78 61 70 52 78 50 89 50 64 51 53 50 50 52 65 84 58 57 84 50 56 78 84
internal_value=0 0.0567167 -0.0932206 -0.0495975 0.0868306 0.0988041 -0.145688 -0.0440343 -0.0742667 -0.10095 0.109456 0.100612 -0.116339 0.0653513 0.115766 0.103732 -0.00127734 -0.16454 0.0143054 0.133023 0.125094 -0.170856
internal_weight=0 225.01 136.936 49.6667 175.343 150.497 66.258 70.6779 41.4029 28.8534 131.135 95.3497 30.3687 28.6618 66.6879 45.9653 29.275 53.8138 24.8461 35.7849 31.633 41.0912
internal_count=1464 908 556 200 708 608 270 286 168 117 530 385 122 115 270 186 118 220 100 145 128 168
is_linear=0
shrinkage=0.1


Tree=3
num_leaves=22
num_cat=0
split_feature=1 4 4 6 8 5 5 6 8 6 8 6 6 6 6 8 5 4 6 8 8
split_gain=157.388 34.1222 37.4669 24.8968 12.9981 12.8303 7.71041 6.37377 13.7824 6.26437 3.74157 3.24292 3.97144 5.01787 2.10018 1.77554 1.33314 1.00266 0.715106 0.617588 0.557559
threshold=-0.17939054777316679 -0.0021179198117540891 -0.09809377558333375 0.19414579807147428 -0.64615213113353753 -0.012740066464056806 0.0059591367471619533 0.20757888426556992 -0.61221725449936992 0.81625605771112941 0.65356686461112812 1.066713227016802 0.6953032445435029 0.81625605771112941 -1.1518494385769056 -0.22429047982522146 -0.0038639047109893057 0.0098042934335257088 0.52768785993121592 -0.10737785690065786 -0.68095402991986831
decision_type=2 2 2 2 2 2 2 2 2 2 2 2 2 2 2 2 2 2 2 2 2
left_child=1 2 -1 6 -3 20 16 8 14 10 -5 12 18 -14 -7 -15 -2 19 -9 -8 -4
right_child=3 4 5 9 -6 7 17 11 -10 -11 -12 -13 13 15 -16 -17 -18 -19 -20 -21 -22
leaf_value=-0.066457926218657426 -0.10180854630610599 0.033314154769010618 0.15117416279050272 -0.040743751159711218 -0.080816501743143865 0.05349040196120522 -0.11810253509679708 0.092038375445377851 -0.037077910086996686 0.00094031870228414999 -0.10800698095944128 0.12473037037386595 0.0072198516871837528 0.10996871162870253 0.10589238696451736 0.059348987364729135 -0.056054614553759555 -0.16348851499461317 0.12541381679497382 -0.14877708645216678 0.12479279198868475
leaf_weight=18.117585852742195 13.242527633905413 17.619883194565773 19.83739210665226 23.518136963248253 23.010101705789566 15.399572134017943 12.208698257803919 13.546687036752703 15.163399726152418 24.645047903060913 12.754989951848982 18.087159872055054 13.294294103980063 12.450575396418571 15.194732308387758 15.625823438167572 12.26764741539955 22.028262734413147 12.202393516898153 14.195191040635107 13.438024684786795
leaf_count=73 55 71 82 95 93 63 51 55 61 99 52 75 54 51 61 64 51 93 50 60 55
internal_value=0 0.0515519 0.0700165 -0.0853007 -0.0313218 0.0850712 -0.1243 0.0709827 0.0408786 -0.0379636 -0.064396 0.0871492 0.077022 0.0578316 0.079516 0.0817965 -0.0798058 -0.147736 0.107855 -0.134594 0.14052
internal_weight=0 222.988 182.358 134.861 40.63 164.24 73.9423 130.965 45.7577 60.9182 36.2731 85.2069 67.1198 41.3707 30.5943 28.0764 25.5102 48.4322 25.7491 26.4039 33.2754
internal_count=1464 908 744 556 164 671 310 534 185 246 147 349 274 169 124 115 106 204 105 111 137
is_linear=0
shrinkage=0.1


Tree=4
num_leaves=23
num_cat=0
split_feature=0 1 6 1 9 3 9 6 6 1 6 0 0 0 9 0 0 0 0 9 1 1
split_gain=135.842 53.9043 33.5895 13.7832 13.1214 12.4439 10.8874 9.30047 4.85706 4.51668 4.09218 3.23053 7.12885 2.94295 2.70742 2.33922 1.92736 1.69869 1.55573 1.22661 0.908826 0.00562053
threshold=0.05259502399811302 -0.17939054777316679 0.47417397950223666 -0.18654606640298546 0.61000542842385852 1.5918796184818247 0.21265163051415573 -1.1811078193870572 0.9805567239402766 -0.17424904585037512 0.76258588332428179 -0.10387155977283108 -0.065418965356296224 -0.031013074200101392 -0.19407108564543157 0.12926846330526023 -0.080750087840403759 0.16595619594746178 -0.049196498541717308 -0.2984726384352136 -0.13363662461073769 -0.046941989790404502
decision_type=2 2 2 2 2 2 2 2 2 2 2 2 2 2 2 2 2 2 2 2 2 2
left_child=1 5 9 -4 10 6 7 18 11 17 14 -9 19 -14 20 -11 -8 -2 -1 -13 -3 -17
right_child=2 4 3 -5 -6 -7 16 8 -10 15 -12 12 13 -15 -16 21 -18 -19 -20 -21 -22 -23
leaf_value=0.11499328403212883 -0.070757191687587886 -0.071412130815700942 0.066380384711018967 -0.062043192550215245 0.059321335466717709 0.16429358513320685 0.096500377203980761 0.063163246846908536 0.08557873559725214 -0.10512598902699435 -0.0079206994348162193 -0.0029850851912379163 0.084051084109149105 0.023616771106220343 -0.1083990235199899 -0.15670197291121932 0.15168456718190015 -0.11574157453527321 0.072688075984927047 -0.047338811490331083 -0.034061017826405998 -0.15414696022492214
leaf_weight=20.602529227733612 15.792440727353094 13.242880955338473 15.146610066294668 18.644058674573898 12.24599353969097 13.713312372565268 12.245528101921083 18.813076451420784 17.191130608320236 12.60094393789768 13.448349073529242 12.395653158426287 12.271228790283201 23.467374622821808 13.363079458475115 14.048082917928694 13.099095016717909 17.91950748860836 15.036735504865645 12.545877754688261 12.821493461728098 22.240403905510902
leaf_count=87 64 55 62 76 50 58 51 77 72 54 54 50 50 95 55 61 55 73 62 51 54 98
internal_value=0 0.0434961 -0.0884691 -0.00447754 -0.0339523 0.072925 0.0649781 0.0534777 0.0373816 -0.122828 -0.0555543 0.0269585 0.0157337 0.0443675 -0.0718018 -0.142246 0.125022 -0.0946685 0.0971441 -0.0252955 -0.0530385 -0.155136
internal_weight=0 236.503 116.392 33.7907 65.1218 171.382 157.668 132.324 96.6843 82.6014 52.8758 79.4932 60.6801 35.7386 39.4275 48.8894 25.3446 33.7119 35.6393 24.9415 26.0644 36.2885
internal_count=1464 976 488 138 268 708 650 544 395 350 218 323 246 145 164 213 106 137 149 101 109 159
is_linear=0
shrinkage=0.1


Tree=5
num_leaves=22
num_cat=0
split_feature=1 4 4 9 8 9 9 1 3 9 8 8 4 9 9 8 4 9 1 9 9
split_gain=107.645 25.0781 28.2578 20.202 10.2718 8.60996 7.79036 7.11354 4.91069 4.13971 14.197 2.79771 2.20437 1.18234 2.51885 1.43626 0.887095 0.611204 0.515331 0.414066 0.200619
threshold=-0.17939054777316679 -0.0021179198117540891 -0.044912819807353628 0.74412949236218306 -0.64615213113353753 -0.31702423436240029 -0.32288288067277632 -0.11216112815029362 1.0000000180025095e-35 -0.29448144862789 -0.66377441959739591 0.53877938311979334 0.086761704130822112 0.33531320169086926 -0.047436702360022898 -0.39187298703915857 0.0017156766935696316 -0.42407168329932038 -0.055434491203662041 -0.33272611613575931 -0.42397595557207762
decision_type=2 2 2 2 2 2 2 2 2 2 2 2 2 2 2 2 2 2 2 2 2
left_child=1 2 5 6 -3 -1 12 -8 9 10 20 16 17 14 15 -11 -9 -2 -14 -12 -4
right_child=3 4 8 -5 -6 -7 7 11 -10 13 19 -13 18 -15 -16 -17 -18 -19 -20 -21 -22
leaf_value=-0.07226101088861607 -0.109045982950045 0.029371429250430965 0.099369527807431524 0.038489223182384708 -0.072559170928214053 0.036280327650458556 -0.019342464582850473 -0.090027987314976368 0.13805567206940769 0.11727771491618194 -0.014514806658148766 -0.048477819478980888 -0.15351104489428335 0.10709172664793359 0.044566715067635203 0.076213980461654424 -0.12684207703071615 -0.08051342967702034 -0.12301084016146153 0.010646878020815502 0.08412057385606915
leaf_weight=18.172106593847278 17.963081732392315 17.473767980933189 22.370460912585258 14.632578164339064 22.768588796257973 12.224474400281904 23.84341599047184 14.098574966192247 12.206273436546324 15.130349874496455 14.181687146425249 11.776119798421858 11.225749164819719 22.678537204861641 14.542965218424795 19.488626092672352 12.217800945043562 12.898665457963942 10.936533361673353 12.13779194653034 14.043958425521849
leaf_count=74 80 71 96 60 93 50 98 60 54 63 58 50 50 98 61 82 52 56 50 50 58
internal_value=0 0.0429629 0.0591487 -0.0721784 -0.0282995 -0.0286094 -0.0862646 -0.0621783 0.0773224 0.0718137 0.0530449 -0.0889907 -0.114399 0.0882034 0.0794902 0.094161 -0.10712 -0.0971208 -0.13846 -0.00291096 0.0934885
internal_weight=0 217.42 177.177 129.593 40.2424 30.3966 114.96 61.9359 146.781 134.574 62.7339 38.0925 53.024 71.8405 49.1619 34.619 26.3164 30.8617 22.1623 26.3195 36.4144
internal_count=1464 908 744 556 164 124 496 260 620 566 262 162 236 304 206 145 112 136 100 108 154
is_linear=0
shrinkage=0.1


Tree=6
num_leaves=21
num_cat=0
split_feature=0 2 7 2 7 9 8 7 8 2 0 2 0 0 9 0 0 8 0 2
split_gain=99.7505 36.6813 25.7977 14.8546 11.0948 7.91153 10.5648 9.87698 6.98215 6.88804 4.44693 4.26021 4.09038 2.24691 1.95244 1.77916 1.60351 1.37521 1.28301 0.0432983
threshold=0.05259502399811302 -0.34977611490691546 -0.27924747195973315 -0.2996931505746106 -0.037661462010856246 0.21265163051415573 -0.67902247533630444 -0.068269312445416105 -0.61221725449936992 -0.16673242421291262 -0.12077144827856823 -0.25892039765694469 -0.065418965356296224 0.16595619594746178 -0.28607996390644758 -0.059892630507373736 -0.080750087840403759 -0.2800738386759079 0.13049851848131069 1.0000000180025095e-35
decision_type=2 2 2 2 2 2 2 2 2 2 2 2 2 2 2 2 2 2 2 2
left_child=1 5 11 -4 9 6 10 8 -8 -3 -1 13 -10 -2 -11 -12 -7 -9 -13 -20
right_child=2 4 3 -5 -6 16 7 17 12 14 15 18 -14 -15 -16 -17 -18 -19 19 -21
leaf_value=0.12979930862802805 -0.056067066267354915 -0.00015470007470857512 0.076646727904582101 -0.062448842291102494 0.043812305071062305 0.090117658096605935 0.046506696411626816 0.099981856427041993 -0.069433927828772044 -0.039732080678655655 0.040390896848312555 -0.10166180140059494 0.0087687059207356057 -0.10560290225498468 -0.091186552142943494 0.08938754419217454 0.13950822303622612 0.058340878153697387 -0.1347020822490903 -0.14252508695341295
leaf_weight=18.770370453596115 17.032793432474136 21.433947056531906 13.863685950636865 17.207042530179024 19.543466165661812 13.05955930054188 21.268616929650307 13.009667083621023 13.350891172885897 11.334869056940077 13.266324490308763 12.339880779385565 13.402760490775107 19.802981540560722 21.106275156140327 16.791423439979553 13.234864756464956 20.316243663430214 10.902879372239115 20.151242941617966
leaf_count=85 70 89 58 72 79 57 89 56 55 50 55 56 55 83 89 71 59 87 52 97
internal_value=0 0.0375835 -0.0777479 -0.000384726 -0.020731 0.0649456 0.0548396 0.0327684 0.00374104 -0.0441444 0.0916104 -0.107708 -0.0302568 -0.0826976 -0.0732085 0.0677623 0.114978 0.0745966 -0.128939 -0.139778
internal_weight=0 229.889 111.301 31.0707 73.4186 156.471 130.176 81.3482 48.0223 53.8751 48.8281 80.2298 26.7537 36.8358 32.4411 30.0577 26.2944 33.3259 43.394 31.0541
internal_count=1464 976 488 130 307 669 553 342 199 228 211 358 110 153 139 126 116 143 205 149
is_linear=0
shrinkage=0.1


Tree=7
num_leaves=22
num_cat=0
split_feature=2 3 6 8 6 6 1 6 6 8 1 8 8 8 8 8 8 8 6 6 6
split_gain=76.1909 18.2616 16.8195 26.2471 15.155 6.92482 5.04406 4.34331 3.23051 2.66206 1.98041 1.93207 1.70437 10.022 4.68686 1.51037 1.12391 2.86488 0.666516 1.45834 0.108583
threshold=-0.28203361427906098 1.5918796184818247 0.22411191342753375 -0.65068452904015572 0.19414579807147428 -1.1811078193870572 0.12597251103608148 0.81625605771112941 1.138595088948658 -0.68095402991986831 -0.15152015482155168 0.38219742167610343 -0.0097569789119566694 -0.25543618851685468 0.75726420528498173 -0.45834815633622655 -0.14456676280111544 -0.49561872674973501 -0.43514262440577373 -0.91041890536765113 -0.76786983629029582
decision_type=2 2 2 2 2 2 2 2 2 2 2 2 2 2 2 2 2 2 2 2 2
left_child=1 2 3 5 10 9 7 11 12 -1 -2 -6 13 15 -14 -4 17 -5 19 -12 -7
right_child=4 -3 8 16 6 20 -8 -9 -10 -11 18 -13 14 -15 -16 -17 -18 -19 -20 -21 -22
leaf_value=0.093147705506038347 -0.062817526631021345 0.14904482980302133 0.048245797427536867 -0.042277414382235645 -0.045421001421457163 -0.0047779273780522817 0.019055083721003452 -0.0064398004688608519 0.10241165382833153 0.037196183705248589 -0.12491092097703188 -0.099796605591000148 0.095841169861939621 -0.03687647849417864 0.019904030952133972 0.088922660592029898 -0.036452782777531473 -0.10503619115085019 -0.12317245997600562 -0.079087530990449545 0.0084353128087222024
leaf_weight=21.186694294214245 11.442307204008101 13.237051159143446 23.006818890571591 15.933778956532477 13.39275796711445 12.413826495409014 16.122913002967834 16.507536545395851 13.629200190305708 14.204464077949526 12.395742505788801 12.760682493448256 21.520419359207153 13.14174711704254 13.060493513941763 15.13214483857155 13.960128605365751 13.383079722523691 19.807390108704571 15.795001745223997 12.463666096329687
leaf_count=97 53 62 98 66 56 51 67 67 62 61 61 55 93 56 55 66 58 56 96 77 51
internal_value=0 0.0352405 0.027821 -0.000391768 -0.0645969 0.0422718 -0.028594 -0.0466021 0.0571836 0.0706912 -0.100202 -0.0719517 0.0500043 0.0384346 0.0671613 0.0643849 -0.0598062 -0.0709267 -0.109114 -0.0992365 0.00184193
internal_weight=0 216.274 203.036 103.546 118.224 60.2687 58.7839 42.661 99.4908 35.3912 59.4404 26.1534 85.8616 51.2807 34.5809 38.139 43.277 29.3169 47.9981 28.1907 24.8775
internal_count=1464 932 870 440 532 260 245 178 430 158 287 111 368 220 148 164 180 122 234 138 102
is_linear=0
shrinkage=0.1


Tree=8
num_leaves=23
num_cat=0
split_feature=2 7 5 9 8 9 7 8 5 8 5 8 9 9 5 9 8 9 5 2 9 9
split_gain=63.3286 17.6187 17.6024 23.085 7.79762 6.98968 6.65222 6.43752 5.8187 4.35464 3.32582 3.30598 3.29252 3.12824 2.63026 2.6299 2.06237 1.90854 1.85103 0.661336 0.308824 0.189118
threshold=-0.28203361427906098 0.086911228977437679 -0.01309653882361775 -0.31305233597134768 -0.56968244337572149 0.30318367610082836 -0.20312651041775406 0.38219742167610343 0.013001693800737851 -0.6315089994352322 0.010595505373701479 -0.67390435216175393 0.70147817671075663 -0.23205606662160713 0.0013049445026443801 -0.42407168329932038 -0.39187298703915857 -0.29448144862789 0.0046468728735282287 0.34422911836064468 -0.42260360287432486 -0.41987257286842544
decision_type=2 2 2 2 2 2 2 2 2 2 2 2 2 2 2 2 2 2 2 2 2 2
left_child=2 5 11 4 8 10 9 -3 20 -5 16 -1 13 -8 -11 -6 -2 -18 -15 21 -4 -12
right_child=1 7 3 6 15 -7 12 -9 -10 14 19 -13 -14 18 -16 -17 17 -19 -20 -21 -22 -23
leaf_value=0.12202549433342441 -0.03483499760126841 0.062981302176210494 0.046913531393924061 0.063817890318052781 -0.097509506286956732 -0.012034878258314882 0.096945167796611054 -0.034791795177644198 -0.03587551721956958 -0.035197313750835228 -0.11035754383391916 0.05740080129310008 0.11543235448430518 0.059705208402757087 0.026258300598501302 -0.036822764082967419 -0.056360112712289981 -0.11478912553401895 0.0091662532968389571 -0.12620779221212164 0.024924607384578273 -0.092619611782458797
leaf_weight=21.489430844783783 11.413647159934042 12.640062972903253 11.952283099293711 15.104105859994887 12.429154247045519 12.490828290581701 15.030336707830427 14.41250157356262 20.932656392455101 13.22269628942013 11.163922861218451 12.532462403178213 13.558266714215277 20.093941450119022 14.714021936058996 16.783414915204048 10.641859680414198 11.777334198355677 11.335147693753241 17.790221258997917 13.717486858367918 13.021677628159525
leaf_count=104 51 51 52 64 53 55 66 60 89 55 58 55 65 90 62 70 50 52 50 92 57 63
internal_value=0 -0.0597155 0.0322881 0.0197478 -0.022137 -0.0813477 0.0505603 0.0108918 0.00325427 0.0205589 -0.0927682 0.09822 0.0720753 0.0594224 -0.00282919 -0.0626433 -0.0694379 -0.0870543 0.0414779 -0.111573 0.035163 -0.100807
internal_weight=0 115.352 212.895 178.874 75.815 88.2995 103.059 27.0526 46.6024 43.0408 75.8087 34.0219 60.0177 46.4594 27.9367 29.2126 33.8328 22.4192 31.4291 41.9758 25.6698 24.1856
internal_count=1464 532 932 773 321 421 452 111 198 181 366 159 271 206 117 123 153 102 140 213 109 121
is_linear=0
shrinkage=0.1


Tree=9
num_leaves=21
num_cat=0
split_feature=1 7 7 8 2 6 6 6 6 8 6 7 8 8 8 6 6 6 6 2
split_gain=53.3458 14.9347 9.5954 22.1275 6.40224 6.34136 4.48203 4.97986 3.73919 3.69832 2.56941 2.95923 2.35562 1.53632 1.03795 1.25078 0.912473 0.84715 0.77689 0.625885
threshold=-0.18661955054809273 -0.18179624110959006 -0.27924747195973315 -0.65068452904015572 -0.168804822737008 0.083581165550841302 -1.1811078193870572 -0.29527421551016769 -0.85053498210011491 0.38219742167610343 0.6953032445435029 0.16305576362092575 -0.22429047982522146 -0.40612261362690455 0.24126813591613236 0.02841726917852587 -0.61699198097761998 1.066713227016802 -1.2514816055641902 0.10050310577012275
decision_type=2 2 2 2 2 2 2 2 2 2 2 2 2 2 2 2 2 2 2 2
left_child=2 4 3 6 8 16 18 -8 -2 -3 -4 -12 -13 -6 19 -16 -5 -14 -1 -15
right_child=1 9 10 5 13 -7 7 -9 -10 -11 11 12 17 14 15 -17 -18 -19 -20 -21
leaf_value=0.09777798638888556 -0.076059564452186701 0.034055633848468866 0.10847366639798933 -0.045853639446295502 -0.055411629867473444 0.012319316004884149 -0.0044262309654216859 0.072147007486620104 -0.0056854962045166796 -0.026855015333253598 0.024668626749895041 0.10625832326887696 0.035020212444095151 -0.12990086755255748 -0.10412056270662384 -0.056665871118185662 -0.080680286509302673 0.074235578760895413 0.067491259227496603 -0.098634676094162849
leaf_weight=14.306702315807341 12.604984790086748 19.253928691148758 11.162633419036863 20.848248764872551 10.935738310217856 20.722821623086929 19.407058194279671 15.102142825722693 18.827115908265114 20.669185861945152 19.598573863506317 13.350782200694082 11.955088168382646 9.7915618568658846 11.1948259472847 11.023315265774725 11.770472049713133 10.216051384806631 20.757993325591087 18.497242882847786
leaf_count=70 59 80 51 88 53 87 81 65 82 88 85 64 54 50 63 52 50 50 99 93
internal_value=0 -0.0486285 0.0340554 0.0175179 -0.0706155 -0.0309388 0.054669 0.0290843 -0.0339071 0.00252068 0.0647226 0.0558624 0.0730731 -0.0893943 -0.0967522 -0.0805764 -0.0584208 0.0530899 0.0798485 -0.109457
internal_weight=0 132.798 189.199 122.915 92.8748 53.3415 69.5739 34.5092 31.4321 39.9231 66.2831 55.1205 35.5219 61.4427 50.5069 22.2181 32.6187 22.1711 35.0647 28.2888
internal_count=1464 620 844 540 452 225 315 146 141 168 304 253 168 311 258 115 138 104 169 143
is_linear=0
shrinkage=0.1


Tree=10
num_leaves=24
num_cat=0
split_feature=2 3 5 9 9 9 9 5 1 2 1 9 5 5 5 2 9 5 9 5 9 5 9
split_gain=44.2876 15.6709 12.0835 18.4599 10.5501 5.23827 5.54674 4.11601 4.0468 3.31853 4.53044 3.06707 2.95447 2.77886 2.21117 1.47462 1.25453 1.07216 2.09348 1.09788 0.549192 0.420222 0.359909
threshold=-0.28203361427906098 1.5918796184818247 -0.01309653882361775 -0.26996820335581412 0.74412949236218306 -0.42476207166819541 -0.41615777180196789 0.013580961385024385 -0.18934121957250258 0.57731058574996086 -0.10889555397851491 -0.35671426291466607 -0.003373755216593007 0.027797524674764276 -0.010904233812317943 0.083449533089639261 -0.30200820072856699 -0.0065240796942128481 0.33531320169086926 0.014472142283926744 -0.39875578382662963 0.013001693800737851 -0.42271709037420274
decision_type=2 2 2 2 2 2 2 2 2 2 2 2 2 2 2 2 2 2 2 2 2 2 2
left_child=1 2 22 5 7 21 -7 9 14 10 16 -8 -13 15 -5 -9 -2 -16 19 -19 -17 -4 -1
right_child=4 -3 3 8 -6 6 11 13 -10 -11 -12 12 -14 -15 17 20 -18 18 -20 -21 -22 -23 -24
leaf_value=0.09192201814536885 -0.059818543317778944 0.13922218086075597 -0.041419686035468868 0.013956091979987607 0.038116914952673692 0.049700341715080726 -0.057708270328061653 -0.12080984614782742 -0.0075005677028578219 0.0013015281368491062 -0.10565855432766454 -0.03869211767962176 0.02417288899832052 -0.035866506024449754 0.089944932963952229 -0.098847571995631267 -0.015411442619265534 0.056555054534834462 0.090005039567018011 0.017345981952809484 -0.06631815262558792 -0.066159400164396781 0.068744493639960255
leaf_weight=15.701685994863512 10.734971120953558 11.784285500645636 11.530103996396067 10.741081148386 11.75340063869953 14.530908286571501 15.321832284331316 14.888264864683149 12.058081254363058 12.792884960770605 12.991299852728845 13.119011312723158 17.379722237586982 9.4905655235052091 12.030276179313658 8.8723772168159432 15.616081744432448 19.174572408199314 12.891528472304342 11.379587948322294 12.505139276385313 16.972048178315163 11.686099380254744
leaf_count=80 51 62 50 49 50 62 64 79 52 60 62 56 75 50 55 51 67 85 64 50 62 75 53
internal_value=0 0.0272468 0.020463 0.0103735 -0.0514039 -0.0208199 -0.00413394 -0.0621522 0.0457826 -0.0429423 -0.057329 -0.0212062 -0.00286845 -0.0840402 0.0554854 -0.096647 -0.0335021 0.0635261 0.0562107 0.041952 -0.0798189 -0.0561513 0.0820324
internal_weight=0 206.301 194.517 167.129 109.645 88.8536 60.3515 97.8916 78.2751 52.1352 39.3424 45.8206 30.4987 45.7563 66.217 36.2658 26.3511 55.476 43.4457 30.5542 21.3775 28.5022 27.3878
internal_count=1464 932 870 737 532 382 257 482 355 240 180 195 131 242 303 192 118 254 199 135 113 125 133
is_linear=0
shrinkage=0.1


Tree=11
num_leaves=23
num_cat=0
split_feature=2 4 4 7 7 4 2 8 7 4 2 2 8 7 8 8 8 8 2 8 4 8
split_gain=36.7737 15.6504 14.0714 13.0849 6.0527 5.92671 5.48681 5.26047 2.78791 2.80399 1.9644 2.13195 1.06484 1.84466 2.74439 2.51646 1.10079 1.02175 0.856503 0.755462 0.402918 0.0635897
threshold=-0.28203361427906098 -0.0021179198117540891 -0.10449669740605527 0.086911228977437679 0.40857737543089762 0.082737787231617066 -0.168804822737008 -0.67283517111711577 0.77933131147618184 -0.025839997477675684 -0.024239010040129984 0.22671685047066814 -0.66377441959739591 -0.078259784272698155 -0.14747214607458867 -0.23733913718304453 -0.68147794257758065 -0.49391004760353918 0.74871196744205959 0.21105214987201051 0.25440678251256726 0.39467237275552008
decision_type=2 2 2 2 2 2 2 2 2 2 2 2 2 2 2 2 2 2 2 2 2 2
left_child=1 2 -1 5 -5 6 -2 -3 9 -4 -8 -12 16 14 17 -15 -11 -14 -13 -7 -9 -17
right_child=3 7 8 4 -6 19 10 20 -10 12 11 18 13 15 -16 21 -18 -19 -20 -21 -22 -23
leaf_value=-0.045967957624001812 0.010380623179943019 0.023202437903594803 0.0043115362752305002 0.064881379506161546 -0.030640356425560358 -0.12580996721157126 -0.10140842416088953 -0.066870363733879043 0.098223940479962107 0.052108828200644323 -0.017484166027277113 -0.092544882932213884 0.026865754831174184 0.091777624194182131 0.064395149702800039 0.043000791880648426 0.086401744564902794 -0.01291358559973188 -0.054175470656996808 -0.088176940220171834 -0.042852812192565495 0.032002004523835802
leaf_weight=17.484061762690544 11.739889934659002 12.499822989106177 14.985018357634543 12.264291122555735 14.448390677571295 13.726272299885752 11.786816269159315 13.949282437562944 10.65683503448963 30.913045719265938 10.875939533114432 10.353711485862734 14.542677432298655 14.397715061902998 13.743503466248514 10.535316318273546 13.425760224461554 11.613315016031267 13.279732316732405 8.7249014824628812 13.990293830633162 10.490798234939573
leaf_count=75 54 54 65 51 60 79 59 58 56 154 54 54 62 72 59 50 64 51 71 50 62 50
internal_value=0 0.0249578 0.0387891 -0.0474292 0.0132155 -0.0675564 -0.0506786 -0.0307198 0.0489877 0.0450908 -0.0661622 -0.0541237 0.0501975 0.04296 0.0282145 0.0595684 0.0624927 0.00920364 -0.0709849 -0.111185 -0.054844 0.037513
internal_weight=0 203.227 162.788 107.2 26.7127 80.4873 58.0361 40.4394 145.304 134.647 46.2962 34.5094 119.662 75.3233 39.8995 35.4238 44.3388 26.156 23.6334 22.4512 27.9396 21.0261
internal_count=1464 932 758 532 111 421 292 174 683 627 238 179 562 344 172 172 218 113 125 129 120 100
is_linear=0
shrinkage=0.1


Tree=12
num_leaves=22
num_cat=0
split_feature=0 5 1 9 5 9 9 1 4 4 9 0 4 0 0 5 9 0 0 1 1
split_gain=50.269 10.6261 10.3721 7.6539 5.77376 5.98832 5.57431 5.49841 4.68879 4.39416 3.35457 2.96099 2.65206 2.57879 3.8885 2.78818 1.1891 1.01722 0.955565 1.05079 0.330935
threshold=0.073809019063331607 0.030691634643949691 -0.18674239154399699 0.38990502878912531 -0.01309653882361775 -0.15790341807708605 -0.30324456535207661 -0.17772803022690278 -0.01276226755525931 -0.078817038545925797 -0.069980983270463357 -0.060962243703939378 -0.04375730313021705 -0.053653220194074154 -0.026556352547744546 -0.0069384788122024447 0.21265163051415573 -0.10347936826742367 0.12926846330526023 -0.18412690710926713 -0.058319050083059633
decision_type=2 2 2 2 2 2 2 2 2 2 2 2 2 2 2 2 2 2 2 2 2
left_child=2 6 4 9 17 8 18 -8 12 -4 11 -11 -6 15 -15 -14 -7 -1 -2 -20 -21
right_child=1 -3 3 -5 5 16 7 -9 -10 10 -12 -13 13 14 -16 -17 -18 -19 19 20 -22
leaf_value=0.09922163333540622 -0.073407066518981698 0.02723009355747745 0.034370346815645124 0.057194813400129454 -0.017149417294431795 0.046716575743502048 0.0091490952636462449 -0.080798916322145739 -0.038848698757016992 0.014883447671643405 -0.083243393474425026 -0.044040352497721348 0.052813148121659353 0.1042163974943414 0.024399876521372255 -0.011343244576495271 0.081745178784076389 0.060438324616050712 -0.085631823789404371 -0.13271926274497206 -0.10767467124815802
leaf_weight=15.741945743560793 12.593088164925573 11.19777439534664 11.290042504668234 15.682340294122694 11.33696463704109 19.974951595067978 12.185949087142946 15.364892080426214 13.145919382572172 14.340757250785819 11.064899951219557 21.04064832627774 11.591568142175673 10.935809805989267 13.813872665166857 16.298494547605515 18.823652297258377 11.856261178851126 15.581327378749842 10.280105680227276 10.839153841137893
leaf_count=91 62 55 54 68 48 93 54 79 55 62 51 97 54 51 61 74 98 57 69 61 70
internal_value=0 -0.0637785 0.0258141 -0.00475746 0.0414533 0.0316666 -0.0770403 -0.0410142 0.0155458 -0.0215849 -0.0351864 -0.0201574 0.0267228 0.0361715 0.0596673 0.0153212 0.0637112 0.0825602 -0.0971757 -0.105331 -0.119865
internal_weight=0 88.0423 216.938 73.4187 143.519 115.921 76.8445 27.5508 77.1226 57.7363 46.4463 35.3814 63.9767 52.6397 24.7497 27.8901 38.7986 27.5982 49.2937 36.7006 21.1193
internal_count=1464 450 1014 332 682 534 395 133 343 264 210 159 288 240 112 128 191 148 262 200 131
is_linear=0
shrinkage=0.1


Tree=13
num_leaves=22
num_cat=0
split_feature=0 6 8 7 0 2 6 6 2 2 8 7 0 2 6 2 7 0 0 6 6
split_gain=42.1081 11.9746 10.9269 16.5816 5.6793 4.43255 3.8674 3.78332 3.2986 2.90391 2.4802 3.87928 1.84891 4.16697 1.79293 1.7069 1.62342 1.50759 1.5289 0.157951 0.0205738
threshold=0.10554087722811235 0.47417397950223666 -0.66377441959739591 -0.16804191070937499 -0.031815284097525612 -0.25892039765694469 0.6953032445435029 0.20757888426556992 -0.34262140571658622 -0.11058003307526527 -0.066315105860800375 0.16305576362092575 0.040098376484904434 -0.27710257831712354 -0.9517997857171433 -0.29603940030603326 0.5424908718430409 -0.054188026792356972 -0.12217977232071299 -0.90220069823125193 -0.22537981691335776
decision_type=2 2 2 2 2 2 2 2 2 2 2 2 2 2 2 2 2 2 2 2 2
left_child=2 5 4 6 17 14 7 12 -9 10 11 -5 13 -4 -2 -3 -12 18 -1 -7 -21
right_child=1 15 3 9 -6 19 -8 8 -10 -11 16 -13 -14 -15 -16 -17 -18 -19 -20 20 -22
leaf_value=0.087123903257912513 -0.034200407978363399 0.021244211786835804 -0.012777138908471259 -0.0062644995863330739 -0.0020541598349492845 -0.10740613302351001 -0.074009142071733744 0.052195286395603592 -0.017165387273024791 0.010635011691837698 0.10278796264914275 0.067060186614145631 0.00045002719163260321 -0.082125765326596073 -0.08610340129636844 -0.033123686419304743 0.050896581783233343 0.1080597641254651 0.045981776272073109 -0.12188625825206099 -0.12862493129313252
leaf_weight=16.770333439111706 12.482203260064127 12.271998167037966 21.760405063629147 12.383757770061495 12.185462251305578 7.4361886158585575 11.536267206072806 13.910759687423708 13.520793929696081 19.241965010762215 13.439305365085604 17.287744969129562 15.986029595136641 14.39713576436043 14.257590651512144 10.906801253557203 10.933932557702063 10.452032104134558 19.576154753565792 11.144239500164989 7.6345229521393749
leaf_count=97 57 54 92 58 54 53 50 63 62 80 66 90 76 75 65 51 56 52 89 77 47
internal_value=0 -0.0642831 0.0218322 0.0085844 0.0587559 -0.0905214 -0.0198989 -0.0120544 0.018008 0.0439954 0.055873 0.0364572 -0.0278695 -0.0403902 -0.061875 -0.00433864 0.0795093 0.0745897 0.0649648 -0.119741 -0.124626
internal_weight=0 76.1335 223.382 164.398 58.984 52.9547 91.1114 79.5751 27.4316 73.2867 54.0447 29.6715 52.1436 36.1575 26.7398 23.1788 24.3732 46.7985 36.3465 26.215 18.7788
internal_count=1464 404 1060 768 292 299 418 368 125 350 270 148 243 167 122 105 122 238 186 177 124
is_linear=0
shrinkage=0.1


Tree=14
num_leaves=24
num_cat=0
split_feature=0 6 8 9 1 0 8 9 6 0 6 1 6 1 6 1 8 0 0 0 6 8 6
split_gain=35.724 16.7321 8.55857 10.2646 5.88968 5.37527 5.10129 3.77383 5.36216 2.46131 2.45873 4.04389 2.36393 2.71597 2.18291 1.99701 1.78763 1.2117 3.65912 1.0842 1.02661 0.557224 0.0358491
threshold=0.05259502399811302 0.16934625432852854 -0.65068452904015572 0.33531320169086926 -0.18934121957250258 -0.10433505882467618 0.19456952240239139 -0.36584581286869411 0.86075955401135673 -0.031815284097525612 0.58785569044215014 -0.17064226029814841 -0.9517997857171433 -0.16863767405641014 0.74636305098871192 -0.16027732163077049 0.51088770369445013 -0.1008944697090567 -0.12077144827856823 0.13049851848131069 -1.1518494385769056 -0.0051083656743994635 -1.241747784645084
decision_type=2 2 2 2 2 2 2 2 2 2 2 2 2 2 2 2 2 2 2 2 2 2 2
left_child=2 12 9 5 -3 -4 7 -7 10 17 11 -9 13 -2 -6 -5 -8 18 22 -14 -19 -21 -1
right_child=1 4 3 15 14 6 16 8 -10 -11 -12 -13 19 -15 -16 -17 -18 20 -20 21 -22 -23 -24
leaf_value=0.081640656201780626 -0.033487763377876165 0.044328853079567049 0.044577889902520117 0.083510701418066755 -0.069878119665064006 0.017762038626148689 0.056508781878380904 0.00049806814613836048 0.010091615459602556 0.016451399498347206 -0.090794779207296061 -0.084216831540495946 -0.078055398291609984 -0.10944123322921769 -0.0056853891183313845 0.031883048666055652 0.00061169665500295737 0.058599578787797181 0.00070850173861896335 -0.13519335888095849 0.10186797184969199 -0.1033672683099691 0.072665907249181719
leaf_weight=8.8591854423284548 12.967065274715425 16.311700940132141 18.261020928621292 17.051466017961506 9.8985153734684008 13.790645614266394 10.335992887616159 11.949691534042353 14.863569825887678 13.768584325909613 15.872303649783133 10.662828490138059 10.663808248937128 7.3915818929672232 11.396540969610212 13.364670112729071 12.814866513013838 10.263425782322885 9.6668064743280393 9.4906745031476021 11.774551719427111 13.087353967130184 8.9442451745271665
leaf_count=57 58 73 87 95 51 64 49 51 70 61 70 55 57 52 50 57 60 53 44 55 54 92 49
internal_value=0 -0.0520226 0.0233643 0.009483 -0.000888256 -0.00490334 -0.0149109 -0.0288686 -0.0409227 0.05385 -0.0606255 -0.0394488 -0.087899 -0.0610641 -0.0355239 0.0608258 0.0255677 0.0642508 0.0502384 -0.104334 0.0817172 -0.116745 0.0771318
internal_weight=0 91.2072 202.244 138.967 37.6068 108.551 90.2899 67.139 53.3484 63.2768 38.4848 22.6125 53.6005 20.3586 21.2951 30.4161 23.1509 49.5082 27.4702 33.2418 22.038 22.578 17.8034
internal_count=1464 488 976 658 174 506 419 310 246 318 176 106 314 110 101 152 109 257 150 204 107 147 106
is_linear=0
shrinkage=0.1


Tree=15
num_leaves=21
num_cat=0
split_feature=0 3 7 7 1 4 1 4 4 4 1 0 1 7 4 0 0 0 0 4
split_gain=30.0317 20.4504 8.25908 7.95158 7.38753 6.45308 4.98092 4.48513 4.04992 3.35906 1.86062 1.85812 2.47012 1.38077 1.207 1.19742 1.18366 0.989719 0.506485 0.136286
threshold=0.10554087722811235 1.5918796184818247 -0.25212498730813632 -0.16804191070937499 -0.17939054777316679 -0.025839997477675684 -0.17424904585037512 0.1037545964416542 0.0037412294570208179 -0.0030967104088580172 -0.19273918767904949 -0.081819701036969408 -0.171860872371177 0.16010789380869878 -0.070252620821266445 -0.019247329037879322 -0.047128579695023737 -0.076649903920235463 -0.12217977232071299 0.031840676182212778
decision_type=2 2 2 2 2 2 2 2 2 2 2 2 2 2 2 2 2 2 2 2
left_child=1 3 6 4 5 -1 7 -2 10 14 15 13 16 -5 -6 17 -13 18 -7 -8
right_child=2 -3 -4 11 9 8 19 -9 -10 -11 -12 12 -14 -15 -16 -17 -18 -19 -20 -21
leaf_value=-0.050135432246298621 -0.012796228760125844 0.14891790377230563 -0.0035173620415932722 0.028882648984688265 0.0089173404884018963 0.039194049550905941 -0.10378866235218809 -0.096204294314040997 -0.018198394327793972 -0.077917178152277319 0.063764974219706588 0.017387945249169007 -0.0060717996516815639 0.073963205747208119 -0.034703227412211372 -0.0036281424677606245 0.061514073833884658 0.058023174031036698 0.0087011056872508871 -0.11889746096562742
leaf_weight=14.05386810004711 15.074015229940416 11.374593041837214 20.790983736515045 10.681096628308298 10.40581329166889 9.6042901128530449 11.664544463157656 11.264912769198416 18.138875633478165 14.179079532623289 16.952247768640518 10.058456107974054 16.026298195123672 18.670896291732788 16.248904526233677 11.093561843037604 15.36568672955036 11.523714691400533 12.584503889083861 12.229807838797567
leaf_count=59 69 69 98 51 53 58 86 54 78 74 82 51 67 95 79 49 82 55 58 97
internal_value=0 0.0183941 -0.0565228 0.0111726 -0.00308123 0.0123531 -0.0784612 -0.0484691 0.0233448 -0.0385928 0.0355464 0.0383073 0.0246751 0.0575585 -0.0176741 0.0248699 0.0440566 0.0342476 0.0218998 -0.111522
internal_weight=0 216.962 71.0243 205.587 134.785 93.9511 50.2333 26.3389 79.8972 40.8338 61.7583 70.8024 41.4504 29.352 26.6547 44.8061 25.4241 33.7125 22.1888 23.8944
internal_count=1464 1060 404 991 645 439 306 123 380 206 302 346 200 146 132 220 133 171 116 183
is_linear=0
shrinkage=0.1


Tree=16
num_leaves=21
num_cat=0
split_feature=0 7 5 5 7 8 0 1 0 0 5 0 8 5 8 5 0 0 1 1
split_gain=25.1921 10.7722 8.13243 6.98202 6.18066 7.90075 6.29662 4.82899 3.90223 3.53964 3.48328 4.1922 4.58476 3.32085 2.96 1.8838 1.60204 3.75451 0.472518 0.0262146
threshold=0.05259502399811302 -0.27924747195973315 0.02796239314106121 -0.01309653882361775 -0.078259784272698155 -0.61221725449936992 0.027459113878820413 -0.18654606640298546 -0.10285542723609371 0.13049851848131069 -0.01086858657636185 -0.081819701036969408 0.063956745947680957 0.0028957024071850925 -0.67390435216175393 -0.0089436358347327518 -0.098398705583736867 -0.0092642725365999785 -0.18607993197585512 -0.10496641797641774
decision_type=2 2 2 2 2 2 2 2 2 2 2 2 2 2 2 2 2 2 2 2
left_child=3 2 9 14 5 16 8 -3 -7 -2 -6 -12 -13 15 -1 -10 -5 -18 -11 -20
right_child=1 7 -4 4 10 6 -8 -9 13 18 11 12 -14 -15 -16 -17 17 -19 19 -21
leaf_value=0.094349124851712193 -0.052765792765402844 0.056189624110888542 0.011261008330703617 0.0043740272615157569 -0.012632843319676052 0.016685993054318626 0.044783515536879301 -0.028640709914432051 -0.045428884151249238 -0.093696737594163637 0.094341559370335129 -0.015844908300637325 0.064071710143984148 -0.015938913451389709 0.031675201711535303 -0.098396015033755127 0.069047537300856263 -0.0034643826147672248 -0.12414639394958714 -0.11614704693994822
leaf_weight=15.52194117754698 18.538310490548611 11.337082281708719 10.221970878541468 17.240466549992561 10.497746780514715 10.12224432826042 10.756362617015837 16.443494856357574 12.58935303986072 12.377730354666708 15.037137448787684 12.691125258803373 16.527033999562263 15.790845513343809 14.645940005779265 14.389185696840292 19.4718820899725 11.275468990206717 6.8678347170352962 10.15304069966078
leaf_count=104 98 53 59 80 51 46 52 77 58 60 81 61 84 75 73 68 93 50 51 90
internal_value=0 -0.0452484 -0.0697175 0.0196596 0.0116344 -0.00186326 -0.0249629 0.00597803 -0.039147 -0.0869852 0.0391546 0.0514391 0.0293593 -0.052361 0.0639221 -0.0736793 0.0287747 0.0424564 -0.108564 -0.119375
internal_weight=0 85.9395 58.1589 196.557 166.389 111.636 63.648 27.7806 52.8916 47.9369 54.753 44.2553 29.2182 42.7694 30.1679 26.9785 47.9878 30.7474 29.3986 17.0209
internal_count=1464 488 358 976 799 522 299 130 247 299 277 226 145 201 177 126 223 143 201 141
is_linear=0
shrinkage=0.1


Tree=17
num_leaves=22
num_cat=0
split_feature=4 4 9 1 1 5 9 9 5 1 5 2 9 9 2 9 5 5 5 5 5
split_gain=13.5538 10.9253 7.35583 7.0126 3.6056 2.90187 4.27539 2.72533 2.44468 1.84982 1.56226 2.61393 1.46024 4.27811 3.59305 1.22106 0.825391 0.513871 2.97769 1.19696 0.503624
threshold=0.079420774652542644 -0.10449669740605527 1.8807453682384103 -0.18661955054809273 -0.18361166077849012 -0.014092433478141136 -0.42476207166819541 -0.22767053327960168 -0.010280407183086293 -0.014157160924379146 0.021868943744816332 -0.08336383095412854 0.35528732987873674 -0.069980983270463357 -0.02501810722963951 -0.21764198717052943 0.0028957024071850925 0.0072402092893340949 0.0011289362751111642 0.024876679278611796 -0.0050447194020349318
decision_type=2 2 2 2 2 2 2 2 2 2 2 2 2 2 2 2 2 2 2 2 2
left_child=1 10 3 5 -2 -3 -7 9 15 -6 16 -12 13 14 -5 -8 -1 18 20 -19 -10
right_child=4 2 -4 12 7 6 8 -9 17 -11 11 -13 -14 -15 -16 -17 -18 19 -20 -21 -22
leaf_value=-0.039456304746602361 -0.020645387331048266 0.067065722575031891 0.096802931467581649 -0.03353862258546552 -0.12633654233123962 -0.039314043327327304 -0.018318364425212501 -0.025655645903939917 0.036029678606381024 -0.056513677826957577 -0.025417988771766677 -0.10350576477457318 0.018269893829783425 -0.080012123465338592 0.029813352053483011 0.02590460395064835 -0.00056691968988418899 0.063626724620457875 -0.016735061536701849 0.027275959125046201 0.064247354260156528
leaf_weight=11.492158681154253 20.521534889936447 16.186705097556114 11.483289666473864 20.910013817250725 10.266074016690258 10.393335767090319 14.083831496536733 6.9299985915422431 17.123262435197827 6.0189052298665056 9.3496977686882037 7.9162923097610465 10.947848305106161 10.074312597513197 15.655115433037283 11.215936526656149 10.393226549029349 18.473550207912922 10.281788080930708 17.773732900619507 10.029939278960233
leaf_count=55 97 111 63 98 74 51 66 38 85 50 50 55 50 50 79 58 58 91 50 85 50
internal_value=0 0.00946876 0.0191643 0.0142965 -0.0511838 0.0275482 0.0216999 -0.078179 0.0281065 -0.10053 -0.0387308 -0.0612205 -0.0145972 -0.0223122 -0.0064149 0.00128664 -0.020988 0.0373154 0.0290978 0.0458022 0.0464528
internal_weight=0 233.784 194.633 183.149 43.7365 125.562 109.375 23.215 98.982 16.285 39.1514 17.266 57.5873 46.6394 36.5651 25.2998 21.8854 73.6823 37.435 36.2473 27.1532
internal_count=1464 1205 987 924 259 647 536 162 485 124 218 105 277 227 177 124 113 361 185 176 135
is_linear=0
shrinkage=0.1


Tree=18
num_leaves=21
num_cat=0
split_feature=0 0 7 9 8 7 0 4 0 9 4 4 7 9 8 9 9 8 7 8
split_gain=19.0932 6.1445 5.93907 5.59025 6.77735 5.77183 7.19355 4.42608 4.17309 3.59926 3.44878 3.67272 3.3555 2.09255 1.63435 2.99219 1.37533 1.31262 0.864904 1.76805
threshold=0.10554087722811235 -0.10433505882467618 -0.25212498730813632 0.35528732987873674 -0.62523337156453007 -0.16804191070937499 -0.076649903920235463 0.0037412294570208179 0.010167033867675849 -0.41009125956957898 0.059301190156517435 -0.018838925845612867 -0.21127992555427097 -0.36584581286869411 0.19456952240239139 -0.18935759822681872 -0.42348635839032589 0.041377766701172602 -0.12815723842358434 -0.68095402991986831
decision_type=2 2 2 2 2 2 2 2 2 2 2 2 2 2 2 2 2 2 2 2
left_child=1 18 10 4 8 6 -6 13 9 -3 11 17 -5 -8 15 -7 -12 -2 19 -1
right_child=2 3 -4 12 5 14 7 -9 -10 -11 16 -13 -14 -15 -16 -17 -18 -19 -20 -21
leaf_value=0.064595114470057391 -0.045969356712474679 0.089081759815594894 -0.0023549073438015929 0.0091413339139990082 -0.1065809267767544 0.027860560263358643 0.02783059546899826 -0.076036656855849469 -0.019939761685358853 0.020509925490319481 -0.07705434504222243 0.01299277059869948 0.079934925779055421 -0.023511088739185636 0.03463642750469742 -0.041772310640397263 -0.13040677889299504 -0.1029289451756656 0.069711124906860905 0.015121165365980746
leaf_weight=13.941818565130232 9.8725454509258288 13.464852578938006 20.207147367298603 12.305813908576967 12.012035995721815 12.908160820603372 14.309771299362177 10.279433526098726 11.695408582687376 17.73891551792622 12.096931897103788 8.0218253731727618 14.685104720294474 17.829425908625129 17.30525391548872 11.823644518852232 8.0449243038892728 6.8550231605768195 13.377276316285132 14.989677995443346
leaf_count=96 63 74 98 57 55 61 71 57 52 81 94 43 84 85 84 56 56 50 74 73
internal_value=0 0.0146575 -0.0473746 0.00600362 -0.00206358 -0.0167692 -0.0382653 -0.0189198 0.0310051 0.0500996 -0.0676395 -0.0426349 0.0476584 -0.000651533 0.0110645 -0.00542914 -0.098364 -0.0693116 0.0486845 0.0389622
internal_weight=0 208.667 65.0984 166.358 139.367 96.4677 54.4307 42.4186 42.8992 31.2038 44.8913 24.7494 26.9909 32.1392 42.0371 24.7318 20.1419 16.7276 42.3088 28.9315
internal_count=1464 1060 404 817 676 469 268 213 207 155 306 156 141 156 201 117 150 113 243 169
is_linear=0
shrinkage=0.1


Tree=19
num_leaves=21
num_cat=0
split_feature=3 0 6 7 7 1 0 1 0 6 0 6 0 7 1 0 0 6 6 6
split_gain=23.7728 15.0623 11.5718 4.07634 4.8182 4.03942 3.95281 4.78691 3.63944 2.7037 2.26495 1.86044 1.66176 1.57348 1.52278 1.45852 0.758297 0.741541 0.477626 0.174891
threshold=1.5918796184818247 0.05259502399811302 0.16934625432852854 0.16305576362092575 0.57870945853189448 -0.18934121957250258 -0.10857785783771991 -0.16027732163077049 -0.067879075708397199 -0.68551036242345198 -0.031815284097525612 0.016415734580363186 -0.019247329037879322 0.87900383896787315 -0.17424904585037512 0.0021449348934335266 -0.075491156290622682 0.62090461331466584 -0.24397947472056708 -1.1051792805384884
decision_type=2 2 2 2 2 2 2 2 2 2 2 2 2 2 2 2 2 2 2 2
left_child=1 3 9 6 16 -4 11 8 17 14 19 -1 -9 -6 -3 -12 -5 -8 -11 -10
right_child=-2 2 5 4 13 -7 7 12 10 18 15 -13 -14 -15 -16 -17 -18 -19 -20 -21
leaf_value=0.011102050807849692 0.14629845598557278 -0.036676139323241354 0.038685744801194279 0.092517731984405216 -0.026034642070758993 -0.029939708253693693 -0.0081337357171910214 -0.06166847414494378 0.03910824683552995 -0.1221036156183998 -0.022904864562572742 0.062873650363404657 -0.01459085102187279 0.031512818317360719 -0.086446269483488977 0.022266073292389145 0.053293622785577914 -0.039206671673746488 -0.089599822547072494 0.057967103768311545
leaf_weight=14.594343625009062 10.653595186769961 15.878151156008245 15.431222751736639 10.010819949209692 9.5329508706927317 19.31109469383955 19.949292853474617 16.582745961844925 9.1640283837914485 9.3089883998036402 11.210075184702875 13.236623510718344 13.686016514897345 9.4723204746842367 10.031359598040579 19.727538332343102 9.7086461707949621 12.487749770283697 8.789331588894127 10.611577749252318
leaf_count=94 72 79 72 54 48 99 90 84 50 76 51 64 72 56 95 88 50 57 61 52
internal_value=0 -0.00612594 -0.0426019 0.00983457 0.0385774 0.000541121 0.00195451 -0.00633216 0.00606295 -0.0766615 0.0227949 0.035725 -0.0403823 0.00264729 -0.0559456 0.00589863 0.0732062 -0.0200963 -0.106318 0.0492279
internal_weight=0 258.725 78.7501 179.975 38.7247 34.7423 141.25 113.419 83.1503 44.0078 50.7132 27.831 30.2688 19.0053 25.9095 30.9376 19.7195 32.437 18.0983 19.7756
internal_count=1464 1392 482 910 208 171 702 544 388 311 241 158 156 104 174 139 104 147 137 102
is_linear=0
shrinkage=0.1


Tree=20
num_leaves=23
num_cat=0
split_feature=0 4 8 7 9 0 7 4 4 8 8 4 9 9 9 9 7 9 9 8 7 8
split_gain=13.4559 4.78741 7.06348 10.0956 5.27987 5.22792 4.62197 3.22967 3.26861 3.11851 4.37145 3.65128 1.93301 2.14973 3.70474 2.31464 1.86609 1.53986 1.37281 1.27438 1.06241 1.11641
threshold=0.10554087722811235 -0.01276226755525931 -0.64615213113353753 -0.23368260764370338 0.35528732987873674 -0.10433505882467618 -0.25212498730813632 0.059301190156517435 -0.018838925845612867 -0.26961445889140417 -0.14456676280111544 -0.04375730313021705 -0.42476207166819541 -0.41282766856205672 -0.32288288067277632 -0.23356896585680509 -0.21127992555427097 -0.21493819854072543 -0.42348635839032589 0.041377766701172602 -0.12815723842358434 -0.68095402991986831
decision_type=2 2 2 2 2 2 2 2 2 2 2 2 2 2 2 2 2 2 2 2 2 2
left_child=1 4 -3 -4 5 20 7 8 19 12 -11 -12 -7 -14 -15 -16 -6 -13 -9 -2 21 -1
right_child=6 2 3 -5 16 9 -8 18 -10 10 11 17 13 14 15 -17 -18 -19 -20 -21 -22 -23
leaf_value=0.060166781721971978 -0.038795082297126693 0.051348504426062258 -0.089191177451554915 0.019300321474172141 0.033806647989058095 -0.018084859983299569 -0.0015339055686016609 -0.069698042027546897 0.017055029348863587 -0.077686975192975072 -0.041932910137243817 4.9954744634524522e-05 0.068644906863092076 -0.029920772675543397 0.072797710956910358 0.008785919336751831 0.090193244645866089 0.051514349755383194 -0.12605057366575206 -0.097360329985651681 0.079257247786569687 0.015179889305768838
leaf_weight=11.019680902361872 9.3077052086591738 11.629580818116663 18.457310423254967 16.023038908839226 10.894579648971559 11.680502615869043 19.916680440306664 11.021485008299353 7.8435108512639991 9.4361296668648702 14.068032711744303 13.389114506542681 9.9233144894242269 11.688184335827822 10.828793533146376 11.809231176972398 12.724076628684996 10.275960892438894 7.1129002161324015 6.1841478273272505 8.4995733425021154 11.045782044529917
leaf_count=85 63 53 99 71 51 62 98 94 43 46 67 67 52 54 52 59 84 53 56 50 49 56
internal_value=0 0.0122905 -0.0160447 -0.0387751 0.0205974 0.0128956 -0.0411284 -0.0601444 -0.0355432 0.00212748 -0.0168107 -0.00158707 0.0180993 0.0276507 0.0157998 0.0394057 0.0641838 0.0223971 -0.0918014 -0.0621736 0.0492178 0.0376467
internal_weight=0 203.393 46.1099 34.4803 157.283 133.664 61.3864 41.4697 23.3354 103.099 47.1692 37.7331 55.93 44.2495 34.3262 22.638 23.6187 23.6651 18.1344 15.4919 30.565 22.0655
internal_count=1464 1060 223 170 837 702 404 306 156 512 233 187 279 217 165 111 135 120 150 113 190 141
is_linear=0
shrinkage=0.1


Tree=21
num_leaves=22
num_cat=0
split_feature=0 6 5 5 7 5 5 5 0 8 8 6 8 6 5 5 0 5 6 6 8
split_gain=11.2992 9.25097 7.69237 4.64934 2.94678 4.11839 5.54902 3.10772 3.23665 3.39485 3.05831 5.96657 4.92235 2.89879 2.26414 1.88314 1.72329 1.64508 0.805446 0.554761 0.132897
threshold=0.05259502399811302 0.16934625432852854 0.02796239314106121 -0.01309653882361775 -0.078259784272698155 -0.004331774682913043 -0.0089436358347327518 -0.01086858657636185 -0.081819701036969408 0.063956745947680957 -0.46681607020976074 -1.1317128528124567 -0.020211807704100759 -1.1210566717627481 0.014472142283926744 -0.011860025326390725 0.17310477747784211 0.011856526345648316 -1.2378211902191174 -0.68551036242345198 -0.53156381482775239
decision_type=2 2 2 2 2 2 2 2 2 2 2 2 2 2 2 2 2 2 2 2 2
left_child=3 2 17 13 5 6 15 -6 -9 -10 11 -7 -12 18 -3 -5 -16 -2 -1 20 -19
right_child=1 14 -4 4 7 10 -8 8 9 -11 12 -13 -14 -15 16 -17 -18 19 -20 -21 -22
leaf_value=0.060113821154595827 -0.043430293301729907 -0.033003043857760629 0.023280866769298792 -0.037336395586842507 -0.023349904266238876 -0.012848948776597076 -0.079755453833271095 0.079627555225110211 -0.019749935387849821 0.050757304106760652 -0.057173046845551759 0.069128963425975784 0.02677628207132959 0.015169881178532355 0.048331106363393897 0.016103036499928079 -0.0051931524610166349 -0.075638151723912916 0.10695842105666109 -0.11455432808173881 -0.094380699651159458
leaf_weight=8.0817124322056753 7.2096198797225943 10.586702555418013 8.0399026945233327 10.043965607881544 10.018185682594774 15.990224391221998 13.503760933876036 13.160584531724448 12.305329650640493 15.344499684870241 12.791037917137148 19.961833335459232 15.386130630969999 11.943218454718588 12.455451250076296 19.198667578399185 11.633825555443762 7.576401270925996 6.7244417220354107 10.941218949854376 7.5564340464770803
leaf_count=67 49 52 54 47 51 80 67 81 61 84 65 96 74 62 62 93 60 46 48 95 70
internal_value=0 -0.0325446 -0.0645044 0.0132737 0.0067351 -0.00269176 -0.0267355 0.0265567 0.0388078 0.0193786 0.013335 0.032668 -0.0113326 0.0518231 0.00554205 -0.0022518 0.0224818 -0.0857095 0.081389 -0.0973999 -0.0849971
internal_weight=0 75.9996 41.3236 184.454 157.704 106.876 42.7464 50.8286 40.8104 27.6498 64.1292 35.9521 28.1772 26.7494 34.676 29.2426 24.0893 33.2837 14.8062 26.0741 15.1328
internal_count=1464 488 314 976 799 522 207 277 226 145 315 176 139 177 174 140 122 260 115 211 116
is_linear=0
shrinkage=0.1


Tree=22
num_leaves=22
num_cat=0
split_feature=3 0 6 9 0 9 9 6 4 9 0 6 6 0 9 4 0 0 4 0 6
split_gain=20.2892 8.85125 8.27071 3.93469 2.70715 2.9646 7.02673 2.68611 2.36255 2.42002 2.06638 2.06041 2.03492 1.91341 2.37853 1.72534 2.02719 1.66083 1.38236 0.707729 0.159631
threshold=1.5918796184818247 0.05259502399811302 0.16934625432852854 0.33531320169086926 -0.10433505882467618 -0.38999945009568771 -0.42476207166819541 -0.98051111339186947 -0.05611453441865414 -0.12957723714273908 -0.097507361253265493 -0.50107025538238237 0.68989324474226577 -0.10003877915180419 -0.11476724604563798 0.013488352486514109 -0.081819701036969408 -0.018908618192300195 0.0098042934335257088 0.17132208881689939 -1.1561893587319212
decision_type=2 2 2 2 2 2 2 2 2 2 2 2 2 2 2 2 2 2 2 2 2
left_child=1 3 7 4 11 6 -6 20 -4 -10 -5 -1 -12 -7 15 16 -15 -18 19 -9 -3
right_child=-2 2 8 10 5 13 -8 18 9 -11 12 -13 -14 14 -16 -17 17 -19 -20 -21 -22
leaf_value=-0.0052311248851089447 0.14243603548268999 -0.043471378027381102 -0.0392792540621913 0.0027557080280957791 -0.029470915089832919 -0.054900960941887379 0.063410823038034539 -0.046715757562973276 0.046782947561857774 -0.017311578710301558 0.027702711719601682 0.047637963701732788 0.094656544123788156 0.0080288382383656865 0.021485002614626006 0.011642767309890022 -0.062252903195721368 -0.016098789556688507 -0.11665398762169686 -0.090945510702741247 -0.022894954902637463
leaf_weight=12.270720995962622 9.6135750934481603 7.5074266344308853 10.111304782330988 9.1659872829914111 15.699159435927866 11.398730143904684 16.927196472883224 7.6684819981455821 13.299565434455872 10.574756376445293 9.1277217194437998 18.462236545979977 9.0302857533097249 10.264697700738898 17.326730467379093 12.49001821130514 18.71787649393081 13.362434849143041 9.4952501207590085 6.8487816527485847 7.5740778818726522
leaf_count=87 72 46 51 50 80 53 84 46 68 52 46 97 58 51 90 60 90 64 98 65 56
internal_value=0 -0.00563523 -0.0348465 0.00661627 0.000135768 -0.00684558 0.018718 -0.0662129 0.00123472 0.0183933 0.0414616 0.026529 0.061 -0.0168269 -0.0108127 -0.0210181 -0.0306517 -0.0430283 -0.0869865 -0.0675819 -0.0331377
internal_weight=0 247.323 73.0796 174.244 146.92 116.187 32.6264 39.094 33.9856 23.8743 27.324 30.733 18.158 83.5605 72.1618 54.835 42.345 32.0803 24.0125 14.5173 15.0815
internal_count=1464 1392 482 910 756 572 164 311 171 120 154 184 104 408 355 265 205 154 209 111 102
is_linear=0
shrinkage=0.1


Tree=23
num_leaves=20
num_cat=0
split_feature=2 9 5 7 5 7 8 9 5 2 8 8 8 8 8 8 5 9 2
split_gain=6.23739 5.17706 4.34662 4.16412 3.74846 3.79318 4.77048 4.93556 3.26083 2.84487 2.6805 2.1972 2.29764 1.88776 1.8331 2.2606 1.9731 1.71514 0.761148
threshold=-0.11058003307526527 0.33531320169086926 -0.013874094157910058 0.086911228977437679 0.02796239314106121 0.16305576362092575 -0.62918469281645362 -0.35671426291466607 0.012950450899050966 -0.31293780279627276 -0.65365964151219236 -0.080327227825319647 -0.45114280581801286 -0.0097569789119566694 -0.40612261362690455 -0.16071045755527763 0.025166313070755061 -0.21493819854072543 0.74871196744205959
decision_type=2 2 2 2 2 2 2 2 2 2 2 2 2 2 2 2 2 2 2
left_child=1 2 10 14 5 6 7 8 -4 11 -1 12 -8 -3 -2 -16 18 -7 -17
right_child=3 13 4 -5 -6 17 9 -9 -10 -11 -12 -13 -14 -15 15 16 -18 -19 -20
leaf_value=0.071762173784399225 0.0013198427513484005 0.0275616705497744 0.0090330102961450158 0.0092347630329703261 0.043061508820025754 0.0017537068078790415 -0.012173497474110855 0.05078714074324997 -0.062447007989033125 -0.078425833541376 -0.0067326918795570442 0.0016180893919195997 -0.066261945861382718 0.083862678468912502 -0.0985639496968235 -0.039315308425355418 -0.076704957308151245 0.055495742916892243 0.0033741953519220652
leaf_weight=13.500610351562502 6.9688490927219382 13.662611577659847 16.894682973623279 20.739039868116379 15.585628911852835 12.486551485955717 14.906375378370283 16.963114701211452 10.256463654339312 11.894296448677776 6.418841339647769 20.139956638216976 16.599333547055721 10.557336546480654 8.8407061956822854 9.017379775643354 9.4275143519043905 11.323955230414866 7.7802843637764445
leaf_count=112 42 82 85 91 79 68 72 84 55 82 33 96 82 67 65 60 93 64 52
internal_value=0 0.00889719 0.00262994 -0.0274328 -0.00330837 -0.00880569 -0.0167942 0.00846965 -0.0179689 -0.0343343 0.046468 -0.0241797 -0.0406709 0.052103 -0.0455239 -0.0548334 -0.0400915 0.0273127 -0.0195425
internal_weight=0 191.19 166.97 62.7738 147.05 131.465 107.654 44.1143 27.1511 63.54 19.9195 51.6457 31.5057 24.2199 42.0347 35.0659 26.2252 23.8105 16.7977
internal_count=1464 1061 912 403 767 688 556 224 140 332 145 250 154 149 312 270 205 132 112
is_linear=0
shrinkage=0.1


Tree=24
num_leaves=23
num_cat=0
split_feature=0 1 7 8 7 0 2 1 7 0 0 0 0 7 8 8 0 1 8 2 0 0
split_gain=7.41106 4.70338 3.77757 2.56046 3.35179 2.43606 3.51503 3.01675 2.29403 1.80098 2.78617 2.41108 1.73944 1.56558 3.67244 2.03465 0.979838 0.840414 3.25796 0.695108 0.346308 0.00930803
threshold=0.10554087722811235 -0.17424904585037512 -0.25212498730813632 -0.67942458038135312 -0.16804191070937499 0.040098376484904434 -0.21217456628637235 -0.18444595077260778 0.64548426561748329 -0.080750087840403759 -0.047128579695023737 -0.10355067581386139 -0.060962243703939378 0.16305576362092575 -0.088783403950429038 -0.09343201718798623 -0.12217977232071299 -0.19265829388264391 -0.0097569789119566694 -0.088298113154355609 -0.059892630507373736 0.17310477747784211
decision_type=2 2 2 2 2 2 2 2 2 2 2 2 2 2 2 2 2 2 2 2 2 2
left_child=3 17 19 16 5 6 9 -7 13 11 -11 -5 -8 15 -15 -6 -1 18 -2 -3 -18 -21
right_child=1 2 -4 4 8 7 12 -9 -10 10 -12 -13 -14 14 -16 -17 20 -19 -20 21 -22 -23
leaf_value=0.061922306242885021 -0.052188916271519829 -0.062205808497211301 -0.016094667903576748 0.010082737430441765 -0.011576379094598632 -0.01605028822534478 -0.020850435308696125 0.060967097322558145 -0.011058336350834454 0.047186512820466833 -0.014576675830939937 -0.05410089170034324 -0.078829565951695546 0.094359283413180783 0.015660343100993027 0.047552372992725134 0.012724158460257963 0.018277650856842832 0.023365855216963518 -0.1151868823471115 0.035180923431248193 -0.10904307657249455
leaf_weight=8.8900269195437414 12.427206985652447 3.9629969559609899 9.2629315629601461 11.082565039396288 13.40365441888571 10.223693981766703 9.7317794635891932 10.120179608464239 16.346024550497532 13.312674656510355 16.181505337357521 12.402830608189104 11.049747690558432 10.594077680259945 13.466872639954088 10.285214401781557 14.013433158397673 9.1983219385147077 10.554215952754021 3.9587564580142498 13.46556167304516 6.539375077933073
leaf_count=82 69 47 49 55 68 46 52 59 96 66 75 56 67 65 71 53 73 51 52 40 76 96
internal_value=0 -0.0321714 -0.0659531 0.00913928 0.00363903 -0.00837373 -0.0168234 0.0222625 0.021276 -0.00315132 0.0133011 -0.0238132 -0.0516785 0.032345 0.0503116 0.0140961 0.0330647 -0.00726639 -0.0174904 -0.0978894 0.0237287 -0.11136
internal_weight=0 55.9038 23.7241 194.57 158.201 94.105 73.7611 20.3439 64.0958 52.9796 29.4942 23.4854 20.7815 47.7498 24.061 23.6889 36.369 32.1797 22.9814 14.4611 27.479 10.4981
internal_count=1464 404 232 1060 829 476 371 105 353 252 141 111 119 257 136 121 231 172 121 183 149 136
is_linear=0
shrinkage=0.1


Tree=25
num_leaves=24
num_cat=0
split_feature=3 0 7 2 2 7 8 8 0 8 7 2 7 8 0 0 0 7 0 0 8 0 0
split_gain=17.1378 5.92013 4.14474 3.71582 2.81876 1.97434 4.55771 3.22235 3.56283 4.88933 2.21879 2.0852 1.61366 2.19706 1.47654 1.37495 1.90978 1.12754 1.00011 0.427239 0.156806 0.0409664 0.00231838
threshold=1.5918796184818247 0.05259502399811302 -0.27924747195973315 -0.18192828119686069 -0.29603940030603326 -0.073944482756925792 -0.65068452904015572 0.22498096868731282 0.01355414232346706 -0.25543618851685468 0.57870945853189448 -0.36574241331059765 0.16305576362092575 -0.099197266838417217 -0.0046292820181488724 -0.10003877915180419 -0.12217977232071299 0.87900383896787315 0.12821667699530398 0.16595619594746178 -0.41321302718281966 -0.049196498541717308 0.21820680059969341
decision_type=2 2 2 2 2 2 2 2 2 2 2 2 2 2 2 2 2 2 2 2 2 2 2
left_child=1 5 3 19 -4 6 14 8 9 11 12 -8 -7 -14 15 16 -1 -12 -5 -3 -21 -17 -20
right_child=-2 2 4 18 -6 10 7 -9 -10 -11 17 -13 13 -15 -16 21 -18 -19 22 20 -22 -23 -24
leaf_value=0.039841739212212027 0.13746461873273702 -0.016329995136964471 0.037825979747374047 -0.051539789617935095 -0.028698032825802491 0.012819509822238135 0.011222802152694493 0.026814633550386338 0.024007202597952786 -0.082748763308634538 -0.031042646345947267 -0.041345456873996413 0.092419122679666302 0.022081740446624025 -0.013307477937506 0.054164870634000196 -0.023671454054424796 0.019024407129946821 -0.11109852183892088 -0.031004566607285306 -0.051579016931683611 0.044919735166847399 -0.10795912654718287
leaf_weight=10.607692725956438 8.7373696491122228 14.524649858474733 11.847485132515432 4.3599039539694777 13.775317586958407 15.092703856527804 14.63996490836143 12.969060093164442 10.624369993805884 17.130575001239784 9.293432332575323 15.571603655815123 8.8916505575180036 8.8719452098011988 9.652388930320738 9.2223802357912081 8.5504364371299726 8.7173563390970212 4.1743385158479196 8.0928641520440561 6.8310509063303462 9.9791691079735774 5.3891707472503185
leaf_count=83 72 76 59 35 69 79 66 63 55 86 48 82 55 49 44 46 41 56 55 54 48 57 86
internal_value=0 -0.00512569 -0.029827 -0.0486656 0.00206138 0.0049103 -0.00214091 -0.0182451 -0.0283265 -0.040071 0.0213989 -0.0158719 0.036862 0.0572894 0.0216523 0.0304491 0.0114953 -0.00680982 -0.0912335 -0.0285393 -0.040422 0.0493601 -0.109329
internal_weight=0 238.81 68.9948 43.372 25.6228 169.815 118.948 70.9356 57.9665 47.3421 50.8671 30.2116 32.8563 17.7636 48.0121 38.3597 19.1581 18.0108 13.9234 29.4486 14.9239 19.2015 9.56351
internal_count=1464 1392 482 354 128 910 623 352 289 234 287 148 183 104 271 227 124 104 176 178 102 103 141
is_linear=0
shrinkage=0.1


Tree=26
num_leaves=22
num_cat=0
split_feature=3 6 6 4 4 8 4 6 4 6 6 8 6 8 4 6 6 8 8 8 8
split_gain=10.9957 4.92019 7.08039 4.3253 3.73988 2.57376 2.55739 2.28464 1.87842 5.10752 4.64984 2.61508 1.82734 1.53194 1.28253 1.92213 2.16398 1.32924 0.894592 0.591182 0.407234
threshold=1.0000000180025095e-35 0.083581165550841302 -1.2563381828805171 0.0037412294570208179 -0.025839997477675684 0.10878265864575209 -0.069708848267319809 -0.50107025538238237 -0.01276226755525931 0.71830290250038809 0.90511148066679903 0.57131967578269383 0.38117569046619032 -0.65238127287186409 -0.10449669740605527 -1.0509979606889261 -0.56120697176574785 -0.66506617624384823 -0.51025038799487643 -0.38885138843474637 -0.066315105860800375
decision_type=2 2 2 2 2 2 2 2 2 2 2 2 2 2 2 2 2 2 2 2 2
left_child=1 2 -1 5 6 14 -3 13 9 12 -11 19 -6 -5 -4 17 -17 -16 -15 -10 -12
right_child=-2 4 3 7 8 -7 -8 -9 11 10 20 -13 -14 18 15 16 -18 -19 -20 -21 -22
leaf_value=0.07202961714783139 0.10738159495209146 0.0012339888853395834 -0.033471918076141902 -0.013932875906933409 0.02765624391218522 -0.062042844251287255 -0.058978961924988464 -0.11275368153343213 -6.4889944271127688e-05 -0.031505483804699135 0.023312977523243489 0.039503608265550341 0.082461067747362546 -0.10602112833148332 0.00082216796024766096 0.0497582155119735 -0.011021037456850189 -0.051043833037014541 -0.047238827139770102 -0.031154604205686671 0.05011155785074653
leaf_weight=7.5863291025161734 9.1633044704794866 17.338935714215044 13.809788007289162 8.6135804876685178 9.734590485692026 9.9252138435840589 11.891165688633917 6.7988422326743594 10.21028947085142 18.76076202839613 12.265680931508541 11.083821646869181 16.222765609622002 4.276047088205817 11.693525724112984 12.356517568230631 11.138303503394139 8.5572773739695513 6.5621665306389305 15.253751190379264 10.545926988124847
leaf_count=53 78 90 95 43 45 74 57 62 49 101 78 56 89 34 81 62 53 44 74 79 67
internal_value=0 -0.00428035 -0.0208911 -0.0284118 0.00834427 -0.0150136 -0.0232614 -0.0628536 0.0172207 0.027104 0.00537269 -0.00104072 0.061908 -0.0454124 -0.0069036 0.00148359 0.0209443 -0.0210946 -0.0704305 -0.0186886 0.0357021
internal_weight=0 234.625 101.318 93.7313 133.308 67.4806 29.2301 26.2506 104.078 67.5297 41.5724 36.5479 25.9574 19.4518 57.5554 43.7456 23.4948 20.2508 10.8382 25.464 22.8116
internal_count=1464 1386 675 622 711 409 147 213 564 380 246 184 134 151 335 240 115 125 108 128 145
is_linear=0
shrinkage=0.1


Tree=27
num_leaves=22
num_cat=0
split_feature=3 5 6 5 0 4 5 5 0 6 4 6 5 6 4 5 0 5 6 4 4
split_gain=9.42964 4.75101 6.4296 3.7597 5.27796 3.2344 3.74782 2.52349 3.33293 2.42622 1.72147 1.4921 1.35017 1.10375 3.99413 2.40461 2.54143 1.61468 0.884884 0.481495 0.117775
threshold=1.0000000180025095e-35 -0.01309653882361775 0.083581165550841302 0.030691634643949691 0.05259502399811302 -0.025839997477675684 -0.01166173757638495 -0.003373755216593007 -0.049000402789013603 -1.1210566717627481 -0.069708848267319809 -0.99623230158992115 0.012712060008594582 0.72633943851246985 0.017158817225653843 0.0022406844464918584 -0.019247329037879322 0.0078395284438459324 0.96294534551756727 -0.28924342260942176 0.024091917288473336
decision_type=2 2 2 2 2 2 2 2 2 2 2 2 2 2 2 2 2 2 2 2 2
left_child=1 9 3 4 7 10 -7 -3 -9 -1 -4 -6 -10 14 17 18 -17 -8 -15 -13 -21
right_child=-2 2 5 -5 11 6 13 8 12 -11 -12 19 -14 15 -16 16 -18 -19 -20 20 -22
leaf_value=0.073058223211914949 0.10219748449838628 -0.050723481786607842 -0.0031432612461245097 0.029834766387376577 -0.0431001765419858 -0.039975859757081074 0.035800962424533851 0.04265412033441409 -0.00034328888484557374 0.0075648857293769958 -0.05302840229207955 -0.068328918984562559 -0.05125315020186777 0.018922682192006792 -0.015206310053899911 -0.049977452819996306 0.013619522027189111 0.087828059454539462 0.058980969423447473 -0.092439988013404806 -0.11346532817352031
leaf_weight=11.080276355147364 8.6902467831969243 15.478497654199598 16.517827596515421 9.2986732050776464 10.252187866717575 11.258164606988428 14.470138847827913 11.128478251397611 10.703987814486029 11.555107291787861 11.902246996760367 5.7710629478096989 10.148279227316378 12.66441508382559 11.011028798297046 9.3966050297021848 18.966698534786705 10.149160131812094 9.7674669176340085 4.7980077750980872 5.9905984289944172
leaf_count=93 78 77 86 56 82 56 72 57 53 65 57 63 51 70 64 53 99 55 62 34 81
internal_value=0 -0.00390028 -0.00859903 -0.03011 -0.037615 0.00565642 0.0142948 -0.0175783 -0.00153625 0.0396246 -0.024035 -0.0730816 -0.0251199 0.0213644 0.0348576 0.0118995 -0.0074498 0.0572488 0.0363652 -0.0916433 -0.104115
internal_weight=0 232.309 209.674 83.5698 74.2711 126.104 97.6837 47.4592 31.9807 22.6354 28.4201 26.8119 20.8523 86.4255 35.6303 50.7952 28.3633 24.6193 22.4319 16.5597 10.7886
internal_count=1464 1386 1228 554 498 674 531 238 161 158 143 260 104 475 191 284 152 127 132 178 115
is_linear=0
shrinkage=0.1


Tree=28
num_leaves=23
num_cat=0
split_feature=3 5 6 5 5 8 4 5 8 6 5 8 6 6 6 6 6 4 6 5 5 4
split_gain=8.07885 3.93787 5.33515 3.28754 4.05944 2.929 3.92286 3.24523 2.71874 2.13174 2.06248 2.5866 1.85922 1.90783 2.58896 1.60071 2.82253 1.6389 4.03572 1.14556 2.31427 0.605316
threshold=1.0000000180025095e-35 -0.01309653882361775 0.083581165550841302 0.02796239314106121 0.014472142283926744 -0.29421336983204216 -0.031563203607963934 -0.011082469992098417 -0.18640428193913028 -1.1210566717627481 -0.003373755216593007 -0.47763990127208894 -1.2226314696765632 -1.0127653307518849 -0.68551036242345198 0.72633943851246985 0.47417397950223666 0.010225717162834344 0.99098389876986281 0.0028957024071850925 -0.008676281565062045 -0.10449669740605527
decision_type=2 2 2 2 2 2 2 2 2 2 2 2 2 2 2 2 2 2 2 2 2 2
left_child=1 9 3 4 10 7 21 -4 -8 -1 -3 -12 -6 -14 -15 16 -10 18 -17 20 -9 -7
right_child=-2 2 5 -5 12 6 8 19 15 -11 11 -13 13 14 -16 17 -18 -19 -20 -21 -22 -23
leaf_value=0.068924469038289873 0.097169743235137995 -0.046429325695831372 -0.02016544292571178 0.019236667903132318 -0.015952058022259043 -0.060939912401678287 -0.043340806598363382 0.065956886228486708 0.001182285403299576 0.0068129580106234327 0.019819057542131799 -0.043442070945016502 -0.13685174877683631 -0.0089848433525974557 -0.097557609678262686 -0.048863780637393682 0.073939667779844939 0.032850055402044942 0.037419749201332952 0.069606233218646507 -0.0038477070648022735 -0.026515309553120925
leaf_weight=10.596103198826315 8.2491838820278627 16.641395326703787 10.693167530000208 12.653032112866638 5.1735033057630089 10.159191410988571 9.3006236609071475 9.0003037825226802 10.971186589449646 11.547776725143192 18.628163419663906 9.8973722755908984 4.9664774015545889 5.2348946928978011 8.9287798702716739 13.415644049644472 10.37330652028322 11.172822535037993 9.0963546559214574 11.037008360028265 10.056129910051824 10.273123644292353
leaf_count=93 78 86 54 80 34 54 52 48 59 65 94 75 44 50 91 72 56 51 60 60 58 50
internal_value=0 -0.0035529 -0.00782732 -0.0276452 -0.036184 0.00513586 -0.00545939 0.0271548 0.00666479 0.036534 -0.018452 -0.00213036 -0.0691379 -0.0835214 -0.0648211 0.0151163 0.036542 0.00153992 -0.0139995 0.0439692 0.0291208 -0.0436316
internal_weight=0 229.816 207.672 82.1236 69.4706 125.549 84.7623 40.7866 64.3299 22.1439 45.1669 28.5255 24.3037 19.1302 14.1637 55.0293 21.3445 33.6848 22.512 30.0934 19.0564 20.4323
internal_count=1464 1386 1228 554 474 674 454 220 350 158 255 169 219 185 141 298 115 183 132 166 106 104
is_linear=0
shrinkage=0.1


Tree=29
num_leaves=24
num_cat=0
split_feature=9 0 2 6 6 8 8 9 9 9 2 9 8 0 2 8 0 0 9 9 9 2 6
split_gain=4.28708 3.9631 3.21279 6.38076 1.70415 2.30021 1.61929 2.01973 2.99023 4.3176 3.30568 2.76091 2.33084 4.3237 2.32041 1.11571 0.963956 0.950928 0.944669 1.61087 0.580113 0.149163 0.0410383
threshold=0.74412949236218306 0.10554087722811235 -0.18192828119686069 0.77383513306283114 -0.9517997857171433 1.0000000180025095e-35 -0.67902247533630444 -0.42476207166819541 -0.38999945009568771 -0.32963950776624812 -0.20683630661144078 0.18382693604403386 -0.28425759058970934 -0.067879075708397199 0.25474703515647007 -0.49391004760353918 -0.066310309686767585 -0.031013074200101392 -0.29161213308229367 -0.42534436975762374 1.8807453682384103 1.3330348595742143 -0.029050095615037384
decision_type=2 2 2 2 2 2 2 2 2 2 2 2 2 2 2 2 2 2 2 2 2 2 2
left_child=1 6 4 21 -3 -6 17 -8 -9 -10 11 12 15 -14 16 -11 -12 18 19 -1 -2 22 -4
right_child=20 2 3 -5 5 -7 7 8 9 10 14 -13 13 -15 -16 -17 -18 -19 -20 -21 -22 -23 -24
leaf_value=0.011992415667436938 0.026285581455693003 0.021855787063869495 -0.10640863523970504 0.037819702742494458 -0.073091714955233297 -0.0030831590611406765 -0.038740918245316974 0.045667318696347027 -0.062492998869523891 0.011841189123843616 -0.021701698076872208 0.067870217675383579 -0.055839781871673592 0.020449310353587227 0.011337562993537421 0.054440443943788663 -0.067193891524935059 -0.0081580988614805682 0.0010437151206239698 0.071702310744854864 0.058372191206041681 -0.088079260164216661 -0.12079343639942193
leaf_weight=8.4107825979590434 12.019935831427576 10.283574640750887 4.5498744994401914 4.2680239379405966 7.2940453588962582 13.161744762212036 13.544223345816134 13.866337198764084 11.178868509829043 14.097942635416986 8.7819295451045054 8.8485574796795827 12.553720392286772 18.198382735252395 11.445740438997744 10.903071224689475 9.918466582894327 7.6980264112353316 7.0957903265953091 9.7627232857048494 10.606823720037935 3.5497566275298587 3.5157821960747242
leaf_count=86 69 70 90 21 52 71 73 73 56 73 46 55 67 96 56 63 56 37 39 67 69 48 31
internal_value=0 -0.00445552 -0.030222 -0.0667408 -0.0113522 -0.0280465 0.002768 -0.00213856 0.00199984 -0.00371646 0.00321832 0.015978 0.0077422 -0.0106937 -0.024125 0.0304189 -0.0458302 0.0226127 0.0319867 0.0440683 0.0413269 -0.105161 -0.112679
internal_weight=0 212.927 46.6228 15.8834 30.7394 20.4558 166.305 133.337 119.793 105.927 94.7478 64.6017 55.7531 30.7521 30.1461 25.001 18.7004 32.9673 25.2693 18.1735 22.6268 11.6154 8.06566
internal_count=1464 1326 383 190 193 123 943 714 641 568 512 354 299 163 158 136 102 229 192 153 138 169 121
is_linear=0
shrinkage=0.1


Tree=30
num_leaves=24
num_cat=0
split_feature=9 0 5 6 6 8 5 0 0 8 5 0 6 5 8 9 9 0 8 0 6 6 5
split_gain=3.51951 3.31371 7.30055 2.37952 1.33683 1.3308 2.78161 1.91329 1.91677 1.6884 2.65528 2.60403 4.21042 3.45828 2.17054 1.62046 1.4392 1.34749 0.962981 0.834832 2.32914 0.924645 0.691029
threshold=0.74412949236218306 0.10554087722811235 0.027833171910720371 0.77383513306283114 -1.1493694842026112 -0.67902247533630444 0.0018396530419857954 0.039795319412544168 0.05259502399811302 0.19456952240239139 -0.0010566848794468732 -0.10433505882467618 0.65955540695841475 0.0028957024071850925 -0.25543618851685468 -0.30935268723657372 -0.30826693423725954 -0.10258802393695231 -0.084134790712871818 0.21820680059969341 1.0000000180025095e-35 -0.37898607049617367 -0.00074477156483104758
decision_type=2 2 2 2 2 2 2 2 2 2 2 2 2 2 2 2 2 2 2 2 2 2 2
left_child=1 5 3 4 -3 6 17 9 -9 11 -11 12 -7 14 15 -13 -15 -1 -16 21 -21 -6 -2
right_child=22 2 -4 -5 19 7 -8 8 -10 10 -12 13 -14 16 18 -17 -18 -19 -20 20 -22 -23 -24
leaf_value=0.014426556030395804 0.02054413025805189 -0.017352179997233121 0.04672006209200423 -0.0025952121724097791 -0.060810227522952488 -0.029124869772226749 -0.019155517503915278 0.051885252275752518 -0.0032015582318644501 0.057820725834628973 -0.013037603786600334 -0.05140151468831225 0.06965291251736358 0.040191573114946783 -0.08609340943500382 -0.00048966338550084456 -0.012064063889422851 0.065096978400216485 -0.042084260655652773 -0.094166056419676736 0.0043282125684180692 -0.11623120422120668 0.055704233625284094
leaf_weight=9.6162869408726674 11.496820703148844 5.0587531030178061 10.178818080574272 8.3242791667580587 5.3811007905751467 8.573842294514181 11.418827373534439 11.950851418077947 13.397604677826164 9.2201797813177127 12.401812024414538 9.996106509119274 8.6879547387361509 9.1962097920477408 9.5506814569234866 16.689796820282936 12.346674934029577 11.554195936769249 10.371143229305742 5.7007829379290325 4.147710096091032 6.8332018535584265 10.879408463835714
leaf_count=96 68 40 71 39 58 47 61 58 76 51 66 52 54 49 51 92 66 72 52 91 29 55 70
internal_value=0 -0.00407422 -0.0279269 -0.0493629 -0.0637171 0.00252246 0.0206245 -0.00193382 0.0227698 -0.00778426 0.0171782 -0.0141035 0.0205905 -0.0228911 -0.0382061 -0.0195604 0.0102428 0.0420809 -0.0631826 -0.074348 -0.052685 -0.0918151 0.0376391
internal_weight=0 210.597 45.6246 35.4458 27.1215 164.972 32.5893 132.383 25.3485 107.034 21.622 85.4124 17.2618 68.1506 46.6077 26.6859 21.5429 21.1705 19.9218 22.0628 9.84849 12.2143 22.3762
internal_count=1464 1326 383 312 273 943 229 714 134 580 117 463 101 362 247 144 115 168 103 233 120 113 138
is_linear=0
shrinkage=0.1


Tree=31
num_leaves=25
num_cat=0
split_feature=9 2 2 9 7 6 7 8 9 8 6 8 9 6 6 8 8 8 8 2 9 9 6 9
split_gain=2.88227 2.75424 2.32229 3.07851 2.07463 1.98691 1.9478 1.78282 1.67691 2.3917 2.74611 1.85446 1.54254 1.89805 1.45807 1.16503 5.17872 1.62953 1.37305 0.982025 0.805273 2.24303 0.727802 0.417669
threshold=0.74412949236218306 -0.11058003307526527 1.0499628807190817 -0.22767053327960168 -0.21127992555427097 0.50104015189042805 0.71842013234314972 0.66766485808367826 -0.26996820335581412 -0.64615213113353753 -1.241747784645084 -0.68029154675015746 -0.30639420815074547 -1.1561893587319212 -1.1518494385769056 -0.0051083656743994635 -0.25357674322183182 -0.45834815633622655 -0.62918469281645362 0.25474703515647007 -0.36584581286869411 -0.42476207166819541 0.6953032445435029 -0.41282766856205672
decision_type=2 2 2 2 2 2 2 2 2 2 2 2 2 2 2 2 2 2 2 2 2 2 2 2
left_child=1 6 3 5 -2 19 8 -4 9 10 11 -1 13 -11 -12 16 17 18 -10 -3 21 -15 -17 -16
right_child=4 2 7 -5 -6 -7 -8 -9 15 12 14 -13 -14 20 23 22 -18 -19 -20 -21 -22 -23 -24 -25
leaf_value=0.011757588763622269 0.00090753952116734936 -0.068473604083572448 0.046498374929168473 -0.070825265202731233 0.062311528551734469 0.027321359866918728 0.046590013172365587 -0.027133997066486937 0.034482645169867099 -0.066158504517204342 -0.03504404053496761 0.083882359213303143 -0.062636069289306345 -0.0237660750347779 0.026412902838061837 0.054796179729723241 -0.058481842474918069 0.060727589147890983 -0.018252791848229227 -0.0070900482240507726 -0.022741546403153987 0.047157260371925115 0.015155649235047497 -0.003441718148329389
leaf_weight=7.9452577643096447 10.144418999552729 5.4738060645759088 6.7783447839319688 15.906960252672436 12.024426981806753 7.854122281074523 9.4372174665331823 6.3864944614470005 10.256886683404447 6.2848239094018927 12.539132956415413 6.4661606177687592 8.4723614118993265 9.9107605665922129 7.8986765630543223 8.7739279866218585 10.017481245100496 8.8483771830797213 9.5194160640239698 4.9750533662736416 15.882392283529045 8.1066473592072725 9.810415565967558 11.52145218104125
leaf_count=77 51 67 51 97 87 40 59 54 56 40 85 38 46 71 45 49 52 55 52 52 81 47 52 60
internal_value=0 -0.00370792 -0.0249125 -0.0386471 0.0342132 -0.0106813 0.00250491 0.010778 -0.000227632 -0.00837174 0.00787923 0.0441188 -0.0238591 -0.0156835 -0.00846229 0.0132961 0.00340117 0.0250577 0.0090982 -0.0392468 -0.00632578 0.00814476 0.0338705 0.00870094
internal_weight=0 209.066 47.3748 34.2099 22.1688 18.303 161.691 13.1648 152.254 95.0277 46.3707 14.4114 48.657 40.1846 31.9593 57.2265 38.6422 28.6247 19.7763 10.4489 33.8998 18.0174 18.5843 19.4201
internal_count=1464 1326 361 256 138 159 965 105 906 590 305 115 285 239 190 316 215 163 108 119 199 118 101 105
is_linear=0
shrinkage=0.1


Tree=32
num_leaves=23
num_cat=0
split_feature=4 8 8 8 2 5 5 4 8 8 5 5 5 8 8 1 4 4 5 5 2 8
split_gain=3.21451 3.79428 4.28551 3.30018 3.0695 1.97273 1.67352 1.76745 1.74797 1.3739 1.36538 1.74782 1.83408 1.71477 2.66766 3.32111 1.17314 2.1595 1.50791 0.950876 0.82308 0.401385
threshold=-0.01276226755525931 1.0408296127759713 -0.64870886841419384 0.75726420528498173 0.42408813847975141 -0.012452660624160793 0.02796239314106121 -0.21040999660100954 0.39467237275552008 -0.33748421215973928 -0.01166173757638495 -0.0087653996549522818 -0.004331774682913043 -0.67800393163566308 -0.46681607020976074 -0.19125750236653694 0.027449712809093762 0.079420774652542644 0.018593853941350161 0.01574207506486261 -0.36082631004479243 -0.67283517111711577
decision_type=2 2 2 2 2 2 2 2 2 2 2 2 2 2 2 2 2 2 2 2 2 2
left_child=3 2 -2 5 16 9 7 20 10 21 -9 -12 -13 -14 -15 -16 -4 -18 -19 -5 -7 -1
right_child=1 -3 4 19 -6 6 -8 8 -10 -11 11 12 13 14 15 -17 17 18 -20 -21 -22 -23
leaf_value=0.044047188016936051 0.016672745487016531 0.04478459737969788 -0.089384797862664706 -0.05281989690038557 0.013351644332560567 -0.060358814063472523 0.042918573762432216 -0.031046996829506093 0.050020707575943492 0.0033979473488884417 0.03739075651780252 -0.031864924966487768 -0.025553580931276312 0.053857527784259729 0.029909020947555487 -0.042431683895536809 -0.010168128518271542 -0.10327483161887636 -0.032167139787387992 -0.011325217300230235 -0.0089605697978086731 0.077866147474685357
leaf_weight=8.4275143481791019 14.478686816990374 7.8858421705663195 9.7365786097943801 9.3771717660129088 6.8451779801398507 5.4960434138774872 12.205443009734152 9.8060521408915502 9.1638657003641111 6.7207470983266822 16.612103134393692 13.433516211807719 10.911538656800976 14.296523664146649 15.43066321685909 10.779667422175445 8.9805212281644362 7.3878984972834569 5.0009306948632002 13.434704348444937 7.193534202873705 6.0137828961014757
leaf_count=98 78 48 54 53 58 33 68 52 55 36 95 77 62 79 88 64 47 57 67 83 76 36
internal_value=0 -0.0198872 -0.0296143 0.00699805 -0.0472733 0.0125075 0.00773904 0.00394335 0.0083864 0.0407482 0.00420615 0.00844967 0.00103629 0.00963202 0.0191101 0.00015706 -0.0606144 -0.0475056 -0.0745712 -0.0283822 -0.0312219 0.0581304
internal_weight=0 60.3156 52.4298 169.303 37.9511 146.491 125.329 113.124 100.434 21.162 91.2701 81.464 64.8519 51.4184 40.5069 26.2103 31.1059 21.3694 12.3888 22.8119 12.6896 14.4413
internal_count=1464 409 361 1055 283 919 749 681 572 170 517 465 370 293 231 152 225 171 124 136 109 134
is_linear=0
shrinkage=0.1


end of trees

feature_importances:
Column_6=119
Column_8=111
Column_0=109
Column_9=88
Column_5=70
Column_4=55
Column_7=52
Column_2=47
Column_1=42
Column_3=12

parameters:
[boosting: gbdt]
[objective: binary]
[metric: binary_logloss]
[tree_learner: serial]
[device_type: cpu]
[linear_tree: 0]
[data: ]
[valid: ]
[num_iterations: 10000]
[learning_rate: 0.1]
[num_leaves: 63]
[num_threads: 0]
[deterministic: 0]
[force_col_wise: 0]
[force_row_wise: 0]
[histogram_pool_size: -1]
[max_depth: -1]
[min_data_in_leaf: 50]
[min_sum_hessian_in_leaf: 0.001]
[bagging_fraction: 0.8]
[pos_bagging_fraction: 1]
[neg_bagging_fraction: 1]
[bagging_freq: 0]
[bagging_seed: 11149]
[feature_fraction: 0.5]
[feature_fraction_bynode: 1]
[feature_fraction_seed: 21351]
[extra_trees: 0]
[extra_seed: 16806]
[early_stopping_round: 50]
[first_metric_only: 0]
[max_delta_step: 0]
[lambda_l1: 0]
[lambda_l2: 0]
[linear_lambda: 0]
[min_gain_to_split: 0]
[drop_rate: 0.1]
[max_drop: 50]
[skip_drop: 0.5]
[xgboost_dart_mode: 0]
[uniform_drop: 0]
[drop_seed: 2965]
[top_rate: 0.2]
[other_rate: 0.1]
[min_data_per_group: 100]
[max_cat_threshold: 32]
[cat_l2: 10]
[cat_smooth: 10]
[max_cat_to_onehot: 4]
[top_k: 20]
[monotone_constraints: ]
[monotone_constraints_method: basic]
[monotone_penalty: 0]
[feature_contri: ]
[forcedsplits_filename: ]
[refit_decay_rate: 0.9]
[cegb_tradeoff: 1]
[cegb_penalty_split: 0]
[cegb_penalty_feature_lazy: ]
[cegb_penalty_feature_coupled: ]
[path_smooth: 0]
[interaction_constraints: ]
[verbosity: -1]
[saved_feature_importance_type: 0]
[max_bin: 255]
[max_bin_by_feature: ]
[min_data_in_bin: 3]
[bin_construct_sample_cnt: 200000]
[data_random_seed: 179]
[is_enable_sparse: 1]
[enable_bundle: 1]
[use_missing: 1]
[zero_as_missing: 0]
[feature_pre_filter: 1]
[pre_partition: 0]
[two_round: 0]
[header: 0]
[label_column: ]
[weight_column: ]
[group_column: ]
[ignore_column: ]
[categorical_feature: ]
[forcedbins_filename: ]
[objective_seed: 26397]
[num_class: 1]
[is_unbalance: 0]
[scale_pos_weight: 1]
[sigmoid: 1]
[boost_from_average: 1]
[reg_sqrt: 0]
[alpha: 0.9]
[fair_c: 1]
[poisson_max_delta_step: 0.7]
[tweedie_variance_power: 1.5]
[lambdarank_truncation_level: 30]
[lambdarank_norm: 1]
[label_gain: ]
[eval_at: ]
[multi_error_top_k: 1]
[auc_mu_weights: ]
[num_machines: 1]
[local_listen_port: 12400]
[time_out: 120]
[machine_list_filename: ]
[machines: ]
[gpu_platform_id: -1]
[gpu_device_id: -1]
[gpu_use_dp: 0]
[num_gpu: 1]

end of parameters

pandas_categorical:null
