tree
version=v3
num_class=1
num_tree_per_iteration=1
label_index=0
max_feature_idx=9
objective=binary sigmoid:1
feature_names=Column_0 Column_1 Column_2 Column_3 Column_4 Column_5 Column_6 Column_7 Column_8 Column_9
feature_infos=[-5.9461523200741997:8.9000788482569213] [-0.32907603672658686:32.507701955788043] [-0.66664792683360363:23.521722816805894] [-0.2159488219222388:5.8101459794246386] [-27.341941575767965:27.171256957381392] [-4.9677192320746597:24.445706336197716] [-1.2682927843421465:6.8321570065999513] [-0.29598397758150563:20.207531766523946] [-0.92135003479692401:15.542178607335664] [-0.42558784639417108:15.766073447244642]
tree_sizes=1530 1701 1702 1700 1699 1699 1706 1692 1698 1701 1706 1705 1698 1697 1693 1699 1700 1709 1699 1706 1690 1695 1707 1704 1708 1703 1699 1698 1706 1712 1706 1706 1699 1702 1701 1716 1712 1699 1700 1706 1696 1706 1699 1696 1720 1702 1705 1707 1713 1707 1710 1714 1717 1706 1711 1715 1719 1710 1711 1702 1704 1708 1722 1714 1718 1709 1715 1694 1703 1706 1717 1705 1702 1717 1706 1703 1715 1713 1720 1696 1717 1711 1707 1697 1709

Tree=0
num_leaves=15
num_cat=0
split_feature=0 6 8 7 4 3 5 4 0 6 9 7 0 0
split_gain=234.148 58.4335 48.5988 88.0233 29.5195 17.5481 14.1586 12.8434 13.1868 13.1807 11.9421 11.7553 7.92033 7.80611
threshold=0.05259502399811302 0.47417397950223666 -0.65068452904015572 -0.16804191070937499 -0.0030967104088580172 1.5918796184818247 -0.01309653882361775 -0.044532179019590987 -0.10306934987540685 0.20757888426556992 0.35528732987873674 -0.19912544895931372 0.040098376484904434 -0.080750087840403759
decision_type=2 2 2 2 2 2 2 2 2 2 2 2 2 2
left_child=2 -2 6 4 5 7 -1 8 -4 -9 13 -3 -10 -5
right_child=1 11 3 10 -6 -7 -8 9 12 -11 -12 -13 -14 -15
leaf_value=0.088034188034188041 -0.078285714285714292 -0.046341463414634153 0.09999999999999977 0.05849056603773585 -0.071428571428571438 0.10000000000000001 0.044278606965174133 -0.020481927710843374 -0.068749999999999992 0.039393939393939398 0.081818181818181832 0.017525773195876289 0.014285714285714285 0.021600000000000001
leaf_weight=29.25 87.5 10.249999999999998 1.5000000000000024 26.5 22.75 3.7499999999999991 50.25 20.75 16.000000000000004 16.5 22 24.25 3.4999999999999991 31.25
leaf_count=117 350 41 6 106 91 15 201 83 64 66 88 97 14 125
internal_value=0 -0.0565574 0.0282787 0.012766 -0.0227139 -0.00483871 0.0603774 -0.011588 -0.0428571 0.00604027 0.0504702 -0.00144928 -0.0538462 0.0385281
internal_weight=0 122 244 164.5 84.75 62 79.5 58.25 21 37.25 79.75 34.5 19.5 57.75
internal_count=1464 488 976 658 339 248 318 233 84 149 319 138 78 231
is_linear=0
shrinkage=0.05


Tree=1
num_leaves=15
num_cat=0
split_feature=1 0 7 7 0 4 8 8 9 4 7 9 6 9
split_gain=265.447 71.3851 41.1732 38.9093 18.5123 16.0085 14.8345 12.7868 12.7262 12.236 11.2107 9.7453 8.94824 7.65107
threshold=-0.17939054777316679 0.05259502399811302 -0.27924747195973315 -0.037661462010856246 0.10554087722811235 -0.01276226755525931 -0.67942458038135312 -0.060891724525085802 0.10423633264112643 -0.025839997477675684 0.2874164227536587 0.38990502878912531 0.77383513306283114 -0.18562244818062723
decision_type=2 2 2 2 2 2 2 2 2 2 2 2 2 2
left_child=1 5 13 4 11 9 -7 -5 -8 -1 12 -2 -9 -3
right_child=3 2 -4 7 -6 6 8 10 -10 -11 -12 -13 -14 -15
leaf_value=0.017348710328168107 -0.059070123359385919 -0.057590246324775551 0.049855473398610094 0.045998625044582596 -0.090582922993428169 0.060366569270639207 -0.042362861146943237 -0.029269663474844679 0.069002732527767049 0.059788517868985251 -0.048981585016889685 -0.0061666045417546863 0.083823247106674006 0.015933089000671124
leaf_weight=19.483354106545448 45.955711871385574 30.955036550760266 14.995959326624869 8.742680951952936 50.928363382816315 9.4913711696863192 12.239232063293455 3.4983314126729992 3.2455517202615729 132.38292138278484 15.493933320045469 10.739165157079695 3.4979418963193893 3.9951200336217907
leaf_count=78 184 124 60 35 204 38 49 14 13 530 62 43 14 16
internal_value=0 0.033335 -0.0194494 -0.054445 -0.0687033 0.048243 0.0111476 -0.00531338 -0.0190211 0.0543438 -0.02526 -0.0490491 0.0272736 -0.0491859
internal_weight=0 226.789 49.9461 138.856 107.623 176.842 24.9762 31.2329 15.4848 151.866 22.4902 56.6949 6.99627 34.9502
internal_count=1464 908 200 556 431 708 100 125 62 608 90 227 28 140
is_linear=0
shrinkage=0.05


Tree=2
num_leaves=15
num_cat=0
split_feature=1 0 7 7 3 3 0 4 4 0 5 7 5 2
split_gain=240.209 64.5657 37.2373 35.3214 22.0278 14.7422 14.2028 13.5983 14.1653 11.919 9.62416 7.33163 7.21973 7.20982
threshold=-0.17939054777316679 0.05259502399811302 -0.27924747195973315 -0.037661462010856246 2.7970985787512004 1.5918796184818247 0.080868466160664856 -0.0021179198117540891 -0.039923706624893328 -0.012116574394108374 0.030691634643949691 0.2874164227536587 0.047178481273643345 -0.23191169508728068
decision_type=2 2 2 2 2 2 2 2 2 2 2 2 2 2
left_child=1 5 10 4 6 7 -2 8 -1 -5 -3 -11 13 -10
right_child=3 2 -4 9 -6 -7 -8 -9 12 11 -12 -13 -14 -15
leaf_value=0.0023310761141470868 -0.049444252040165247 -0.056619791192307124 0.047396478843777956 0.027123624909023061 0.099036656704404299 0.094335837421262045 -0.086210330330927509 0.0054919625401207497 0.055718754512398452 0.019602441659446621 0.023810931520674448 -0.05551843704855848 -0.047928136430294664 -0.065130836651550506
leaf_weight=15.486150339245794 50.374287635087967 30.625763490796089 14.985466361045836 14.971581026911737 1.9964168220758427 14.44025346636772 54.889273449778557 22.446845844388008 121.1180017888546 4.4904864430427578 4.2333969622850409 11.738959118723868 1.7453415095806111 1.2468726783990849
leaf_count=62 202 123 60 60 8 58 221 90 486 18 17 47 7 5
internal_value=0 0.0317341 -0.0185168 -0.0518748 -0.0654953 0.0459266 -0.0686158 0.0416127 0.0474209 -0.00505178 -0.0468521 -0.0347334 0.0530471 0.0544873
internal_weight=0 226.328 49.8446 138.461 107.26 176.483 105.264 162.043 139.596 31.201 34.8592 16.2294 124.11 122.365
internal_count=1464 908 200 556 431 708 423 650 560 125 140 65 498 491
is_linear=0
shrinkage=0.05


Tree=3
num_leaves=15
num_cat=0
split_feature=2 4 4 7 3 5 7 8 3 8 6 8 7 5
split_gain=215.603 39.5463 39.9899 29.8264 17.6974 14.241 16.573 13.9265 13.6731 13.3303 12.3375 11.0133 11.8078 8.68163
threshold=-0.28203361427906098 -0.0021179198117540891 -0.10449669740605527 0.086911228977437679 2.7970985787512004 -0.012740066464056806 -0.078259784272698155 -0.67942458038135312 1.0000000180025095e-35 -0.6558212466676564 0.47417397950223666 -0.060891724525085802 0.2874164227536587 -0.011975878843248031
decision_type=2 2 2 2 2 2 2 2 2 2 2 2 2 2
left_child=1 2 -1 4 9 -4 8 -3 -7 -2 -9 -5 -13 -12
right_child=3 7 5 11 -6 6 -8 10 -10 -11 13 12 -14 -15
leaf_value=-0.030558039140398032 0.070981523182087849 0.033975935967840716 0.075322405419221528 0.04469295657011732 0.094774967454424236 0.018408608245308239 0.060386581898730529 -0.053153277970040491 0.091877990236156226 -0.068356270264887317 -0.099592551439184329 0.039369090740839108 -0.048247509424560658 0.029900182593350283
leaf_weight=18.63613161444664 1.7462652325630177 11.194415509700773 34.410216957330704 7.9708914607763317 1.7411432117223729 73.146217375993729 55.155840307474136 21.107122242450714 6.9330150485038748 100.69381935894489 1.4991656094789494 5.237391963601115 14.467555686831473 9.4738765656948072
leaf_count=75 7 45 139 32 7 294 222 85 28 407 6 21 58 38
internal_value=0 0.0290597 0.0389659 -0.0510376 -0.0632944 0.0466034 0.0392959 -0.0140407 0.0247694 -0.065981 -0.0307962 -0.0048992 -0.0249598 0.0122085
internal_weight=0 231.556 188.281 131.857 104.181 169.645 135.235 43.2746 80.0792 102.44 32.0802 27.6758 19.7049 10.973
internal_count=1464 932 758 532 421 683 544 174 322 414 129 111 79 44
is_linear=0
shrinkage=0.05


Tree=4
num_leaves=15
num_cat=0
split_feature=1 0 7 0 7 3 9 5 4 8 3 5 4 7
split_gain=198.355 54.6597 31.7215 30.0248 18.5355 12.7292 12.5212 12.7208 10.7749 12.4515 10.1896 8.57671 8.03873 8.00032
threshold=-0.17939054777316679 0.05259502399811302 -0.27924747195973315 0.071224120504964641 -0.037661462010856246 1.5918796184818247 0.21265163051415573 -0.013874094157910058 -0.01276226755525931 -0.62523337156453007 2.7970985787512004 0.030691634643949691 -0.031563203607963934 0.6697764671112959
decision_type=2 2 2 2 2 2 2 2 2 2 2 2 2 2
left_child=1 5 11 4 10 6 7 -1 12 -10 -2 -3 -9 -11
right_child=3 2 -4 -5 -6 -7 -8 8 9 13 -12 -13 -14 -15
leaf_value=0.062184066628538641 -0.044826205880092153 -0.052984568679050152 0.04350339512276033 -0.071678976501178576 0.015727932511204034 0.087426110412641922 0.069660616102519043 -0.0034054663371505113 0.029174924892357287 -0.080142647841026066 0.088559585255367293 0.022956473016978923 0.037561595731710549 0.040008810415614104
leaf_weight=27.543102651834488 49.247808188199997 30.410963982343674 14.919211968779562 66.079181790351868 20.159432992339134 14.185706377029417 26.181746885180473 14.228393316268919 8.9674732983112353 6.7204554229974729 1.4746617078781117 4.2358512580394736 75.593270927667618 1.745230972766876
leaf_count=112 199 123 60 270 81 58 106 57 36 27 6 17 305 7
internal_value=0 0.0289036 -0.0174522 -0.0474326 -0.0248291 0.0420208 0.0380196 0.031874 0.0240903 -0.0118822 -0.0409483 -0.0437002 0.0310721 -0.055373
internal_weight=0 224.731 49.566 136.961 70.8819 175.165 160.98 134.798 107.255 17.4332 50.7225 34.6468 89.8217 8.46569
internal_count=1464 908 200 556 286 708 650 544 432 70 205 140 362 34
is_linear=0
shrinkage=0.05


Tree=5
num_leaves=15
num_cat=0
split_feature=1 0 6 6 3 3 7 8 0 5 2 6 2 7
split_gain=180.264 49.6406 30.0505 29.1197 14.2091 11.8494 10.038 24.1715 9.07899 8.25539 8.15714 7.5717 6.93094 10.8731
threshold=-0.17939054777316679 0.05259502399811302 0.27474431523604803 0.19414579807147428 2.7970985787512004 1.5918796184818247 -0.073944482756925792 -0.65068452904015572 -0.10536901824802299 -0.013963212247800295 -0.27710257831712354 -1.2576194926405693 -0.20360449720176746 0.086911228977437679
decision_type=2 2 2 2 2 2 2 2 2 2 2 2 2 2
left_child=1 5 11 4 -2 6 7 9 -5 -1 -4 -3 -10 -14
right_child=3 2 10 8 -6 -7 -8 -9 12 -11 -12 -13 13 -15
leaf_value=0.072283278012879135 -0.069226848173029834 0.073608233142421375 0.040484238451725912 0.04045276281520821 0.088095335052095311 0.084298313332425878 0.054397356592379723 -0.00057861106735930176 0.021894756494766156 0.03438847004233582 -0.092437032030178209 -0.053142173951812137 -0.053566334519959707 -0.0058049443385402464
leaf_weight=21.891225174069405 73.830478712916374 1.2285091727972055 18.07771119475365 5.698322504758834 1.4637007117271412 13.981529980897902 51.837469413876534 44.621881529688835 6.6782962083816519 41.842483997344971 1.2329416424036015 28.796161040663719 26.951071560382843 21.360829949378967
leaf_count=90 304 5 73 23 6 58 211 180 27 169 5 117 110 86
internal_value=0 0.0276136 -0.0166609 -0.0453958 -0.0661685 0.0401545 0.0363016 0.0276446 -0.0196237 0.0474046 0.0319975 -0.047956 -0.0258491 -0.0324489
internal_weight=0 223.51 49.3353 135.983 75.2942 174.175 160.193 108.356 60.6885 63.7337 19.3107 30.0247 54.9902 48.3119
internal_count=1464 908 200 556 310 708 650 439 246 259 78 122 223 196
is_linear=0
shrinkage=0.05


Tree=6
num_leaves=15
num_cat=0
split_feature=2 0 0 6 5 7 3 7 6 5 3 9 2 6
split_gain=163.443 46.5684 26.087 16.6352 12.7834 20.6444 11.9475 11.8405 11.5797 8.54002 7.03909 6.86517 6.84205 6.8029
threshold=-0.28203361427906098 0.10334817017515278 0.071224120504964641 0.30471043059210751 -0.01309653882361775 -0.078259784272698155 1.0000000180025095e-35 -0.037661462010856246 0.77383513306283114 0.030691634643949691 4.0023175390205763 -0.25842325711180469 -0.34984103967270791 -1.2563381828805171
decision_type=2 2 2 2 2 2 2 2 2 2 2 2 2 2
left_child=1 4 7 9 -1 6 11 10 -4 -3 -2 13 -13 -6
right_child=2 3 8 -5 5 -7 -8 -9 -10 -11 -12 12 -14 -15
leaf_value=0.062259465541337412 -0.040114433022897703 -0.055365594279243716 -0.076271102595225723 0.020641385073465517 0.057759613011663748 0.055107888912557218 0.081894677645276581 0.0092160168355529207 -0.012305639564161162 0.031313836882619982 0.08280241467329498 0.036112613435178915 -0.033520158534712477 -0.0052593989443918202
leaf_weight=37.54325145483017 44.962870135903358 24.10596834123135 54.82445140182972 14.819197475910185 4.6839696466922751 51.688641771674156 6.4152617603540412 19.890806332230568 8.123685881495474 3.2213605046272269 1.1957272738218296 31.658467680215836 3.9701611697673789 49.955696493387222
leaf_count=156 184 99 230 60 19 212 27 80 33 13 5 128 16 202
internal_value=0 0.0254377 -0.044984 -0.0220156 0.0361952 0.0296001 0.0159631 -0.0230333 -0.0680161 -0.0451478 -0.0369303 0.0112775 0.0283533 0.000142888
internal_weight=0 228.062 128.998 42.1465 185.915 148.372 96.6836 66.0494 62.9481 27.3273 46.1586 90.2683 35.6286 54.6397
internal_count=1464 932 532 172 760 604 392 269 263 112 189 365 144 221
is_linear=0
shrinkage=0.05


Tree=7
num_leaves=15
num_cat=0
split_feature=1 0 6 6 9 3 3 9 6 7 6 0 0 6
split_gain=149.736 41.1358 25.7501 25.6152 16.3619 12.2129 10.667 11.2208 11.2494 10.8473 7.1157 6.81005 6.53398 6.30019
threshold=-0.17939054777316679 0.05259502399811302 0.19414579807147428 0.16934625432852854 0.74412949236218306 2.7970985787512004 1.5918796184818247 0.21265163051415573 -1.1811078193870572 -0.13379296414756162 -1.2576194926405693 0.10554087722811235 0.080868466160664856 0.35235980894835833
decision_type=2 2 2 2 2 2 2 2 2 2 2 2 2 2
left_child=1 6 5 10 -4 12 7 8 -1 -10 -3 -5 -2 -9
right_child=2 3 4 11 -6 -7 -8 13 9 -11 -12 -13 -14 -15
leaf_value=0.051191588194395447 -0.046259257796827685 0.071652348678417868 -0.029608855354701192 0.082310183352874322 0.038825766134355441 0.083485290762425446 0.079422104631716464 -0.029179718341124379 0.0047485913360151601 0.038871210190354465 -0.051238406284730087 0.012285538881423166 -0.076960031104048143 0.070101738045734871
leaf_weight=35.93861922621727 29.097258254885674 1.2312686890363718 49.588722690939903 4.4359082132577923 10.601432353258131 1.4208527654409397 13.508807390928267 1.7125526517629648 58.04470930993557 38.898223266005516 27.191082581877708 15.979654133319853 42.857482239603996 23.874220564961433
leaf_count=149 120 5 203 18 43 6 58 7 235 160 112 65 184 99
internal_value=0 0.0252718 -0.0417949 -0.0152252 -0.0175553 -0.0616787 0.0367721 0.0331363 0.027298 0.0184402 -0.0459147 0.0275005 -0.0645452 0.0634567
internal_weight=0 220.815 133.566 48.8379 60.1902 73.3756 171.977 158.468 132.882 96.9429 28.4224 20.4156 71.9547 25.5868
internal_count=1464 908 556 200 246 310 708 650 544 395 117 83 304 106
is_linear=0
shrinkage=0.05


Tree=8
num_leaves=15
num_cat=0
split_feature=1 0 6 7 3 4 8 4 0 5 5 7 4 0
split_gain=136.424 37.425 24.0844 23.3608 11.2162 10.517 11.6498 8.31102 8.13367 7.21197 6.8776 6.43909 6.47114 6.32799
threshold=-0.17939054777316679 0.05259502399811302 0.19414579807147428 -0.27924747195973315 2.7970985787512004 -0.01276226755525931 -0.67942458038135312 -0.025839997477675684 -0.086775575514390219 0.030691634643949691 0.047178481273643345 0.17817881280636863 0.24812620951448366 0.080868466160664856
decision_type=2 2 2 2 2 2 2 2 2 2 2 2 2 2
left_child=1 5 4 9 13 7 -7 -1 -4 -3 -9 12 -8 -2
right_child=2 3 8 -5 -6 6 11 10 -10 -11 -12 -13 -14 -15
leaf_value=0.0095828956440498578 -0.0443203766567997 -0.046127436238547835 0.016239422553789441 0.038058911463396072 0.080860878038195375 0.04920306030000049 -0.057690587911095603 0.046273941822026057 -0.026994237648409226 0.023711254132063955 -0.054335558692849464 0.048805011399166966 0.024365422275382798 -0.074739869724043811
leaf_weight=19.159358218312263 28.857792973518372 29.625815227627754 14.27020427584648 14.708280205726622 1.3942878395318974 9.2541688829660433 9.414319694042204 125.31367558240891 45.775922179222107 4.2235952019691458 1.7219723016023625 2.6625941842794409 3.2260461598634711 41.947066530585289
leaf_count=78 120 123 58 60 6 38 38 523 188 17 7 11 13 184
internal_value=0 0.0241801 -0.0401172 -0.0145525 -0.0595764 0.0351947 0.00491783 0.0402804 -0.0167196 -0.0374132 0.0449102 -0.0218628 -0.0367484 -0.0623419
internal_weight=0 219.31 132.245 48.5577 72.1991 170.752 24.5571 146.195 60.0461 33.8494 127.036 15.303 12.6404 70.8049
internal_count=1464 908 556 200 310 708 100 608 246 140 530 62 51 304
is_linear=0
shrinkage=0.05


Tree=9
num_leaves=15
num_cat=0
split_feature=2 0 0 5 6 8 6 6 0 1 9 0 1 6
split_gain=125.3 35.8938 22.1075 13.0969 20.0367 14.3578 10.7492 10.2192 8.49395 8.34503 7.54127 6.15165 7.65355 5.88862
threshold=-0.28203361427906098 0.16595619594746178 0.071224120504964641 -0.01309653882361775 0.20757888426556992 -0.61221725449936992 0.35235980894835833 0.77383513306283114 -0.10306934987540685 -0.18215600110070304 0.33531320169086926 0.040098376484904434 0.070407291002870007 0.25717797175146145
decision_type=2 2 2 2 2 2 2 2 2 2 2 2 2 2
left_child=1 3 8 -1 5 9 -3 -4 -2 -5 -6 13 -13 -10
right_child=2 6 7 4 10 -7 -8 -9 11 -11 -12 12 -14 -15
leaf_value=0.0563021149176402 0.025643183615335175 -0.056296970001576567 -0.070098170501653734 0.026239594337047395 0.029514493071489612 -0.026945993142679175 0.019522892356334583 -0.0096206595154233309 -0.056564412104266631 -0.068789596325242869 0.061314142423647647 0.036669128211425824 -0.052595931482590452 -0.020030291986965564
leaf_weight=36.733572006225586 8.8485572785139066 17.270298913121227 51.922954559326172 38.839476779103279 70.509964153170586 25.819755285978317 6.409594163298606 8.0707424432039243 18.776441127061844 2.4563278257846823 25.345929935574532 7.1940961331129056 3.6043244004249573 26.73253333568573
leaf_count=158 36 73 230 160 292 106 26 33 79 10 107 30 15 109
internal_value=0 0.0224303 -0.0400621 0.0293319 0.0232529 0.00230086 -0.0357743 -0.0619623 -0.019897 0.0205871 0.0379229 -0.0270535 0.00687401 -0.0351038
internal_weight=0 223.385 125.15 199.705 162.971 67.1156 23.6799 59.9937 65.156 41.2958 95.8559 56.3074 10.7984 45.509
internal_count=1464 932 532 833 675 276 99 263 269 170 399 233 45 188
is_linear=0
shrinkage=0.05


Tree=10
num_leaves=15
num_cat=0
split_feature=1 0 7 6 3 3 0 9 6 7 8 5 8 7
split_gain=113.491 31.3254 21.8357 20.1132 13.4462 10.1641 10.0959 9.97839 9.80277 9.46483 9.74721 10.0945 8.22515 8.43133
threshold=-0.17939054777316679 0.05259502399811302 -0.037661462010856246 0.16934625432852854 2.7970985787512004 1.5918796184818247 0.080868466160664856 0.21265163051415573 -1.1811078193870572 -0.13379296414756162 -0.61221725449936992 0.0093456241629909197 -0.060891724525085802 0.2874164227536587
decision_type=2 2 2 2 2 2 2 2 2 2 2 2 2 2
left_child=1 5 4 -3 6 7 -2 8 -1 10 -10 -12 -4 -14
right_child=2 3 12 -5 -6 -7 -8 -9 9 -11 11 -13 13 -15
leaf_value=0.045951350710829161 -0.034877271960028051 -0.041131474386075437 0.04104896052212411 0.024482084892931064 0.084449420305050052 0.075027208579641957 -0.067177335079839445 0.057921734241272609 0.021296090854496096 0.034330701660259713 -0.041300191548994558 0.024433176792828772 0.029207038065034937 -0.037342292118868657
leaf_weight=34.912848964333534 48.230501383543015 27.737348288297653 8.6574686318635958 20.175261497497559 1.8653925508260716 12.868804708123205 48.539818972349167 24.711782187223434 30.937634602189064 38.100443765521049 17.993159070611004 8.6474400609731656 6.9376599341630962 15.15806996822357
leaf_count=149 202 117 35 83 8 58 221 106 127 160 73 35 28 62
internal_value=0 0.0221637 -0.0370466 -0.0135026 -0.0485158 0.0323251 -0.0510789 0.0287867 0.0232735 0.0149984 0.00220594 -0.0199634 -0.000261062 -0.016447
internal_weight=0 216.085 129.389 47.9126 98.6357 168.172 96.7703 155.303 130.592 95.6787 57.5782 26.6406 30.7532 22.0957
internal_count=1464 908 556 200 431 708 423 650 544 395 235 108 125 90
is_linear=0
shrinkage=0.05


Tree=11
num_leaves=15
num_cat=0
split_feature=2 0 0 3 7 5 7 9 7 2 0 4 0 0
split_gain=105.226 30.3523 19.8001 13.5484 12.6449 13.2933 9.22484 9.02274 8.83953 8.52294 6.91673 6.11087 5.93062 6.58956
threshold=-0.28203361427906098 0.16595619594746178 0.071224120504964641 1.5918796184818247 0.16305576362092575 -0.012452660624160793 -0.037661462010856246 -0.25842325711180469 -0.21127992555427097 -0.34984103967270791 -0.0254867393511789 -0.3011520415408529 0.040098376484904434 -0.10306934987540685
decision_type=2 2 2 2 2 2 2 2 2 2 2 2 2 2
left_child=1 3 6 4 5 10 12 -7 11 -9 -1 -3 13 -2
right_child=2 8 -4 -5 -6 7 -8 9 -10 -11 -12 -13 -14 -15
leaf_value=0.055704753101367278 0.011628754948574193 0.049811661395125051 -0.058504122036651132 0.075457038383940772 0.048103878931037347 -0.0038868477790419452 0.010244203778210561 0.032093451680620416 0.028317052941048568 -0.035002917667362451 -0.011223274893081697 -0.057101052958254406 0.0074779555978411036 -0.048282039639283424
leaf_weight=25.953858599066738 5.3852993398904792 1.4494797736406386 57.671765521168709 13.463558435440062 40.607477560639381 63.532101333141327 19.784043118357658 43.218403980135918 4.6477231085300437 5.3150044232606879 4.5348359346389762 17.154632225632668 8.2656843364238721 31.06784899532795
leaf_count=114 22 6 263 62 174 262 80 180 19 22 19 74 35 132
internal_value=0 0.0206591 -0.0372168 0.0270474 0.023489 0.0164773 -0.0181839 0.0085133 -0.0333624 0.0247456 0.04575 -0.0487713 -0.0307607 -0.0394313
internal_weight=0 219.877 122.175 196.625 183.162 142.554 64.5029 112.066 23.2518 48.5334 30.4887 18.6041 44.7188 36.4531
internal_count=1464 932 532 833 771 597 269 464 99 202 133 80 189 154
is_linear=0
shrinkage=0.05


Tree=12
num_leaves=15
num_cat=0
split_feature=2 4 4 7 3 8 7 8 9 8 8 3 9 7
split_gain=96.0765 22.086 20.7237 18.0378 11.1334 10.3205 8.70568 8.32012 8.03788 9.18825 9.32267 8.03152 7.17373 6.72829
threshold=-0.28203361427906098 -0.0021179198117540891 -0.10449669740605527 0.086911228977437679 2.7970985787512004 -0.6558212466676564 0.2874164227536587 0.032080540226058191 0.12284715212223397 -0.64615213113353753 0.84982004028938563 1.5918796184818247 0.74412949236218306 -0.073944482756925792
decision_type=2 2 2 2 2 2 2 2 2 2 2 2 2 2
left_child=1 2 -1 4 5 -2 -5 -8 9 -3 -11 13 -7 -4
right_child=3 8 11 6 -6 12 7 -9 -10 10 -12 -13 -14 -15
leaf_value=-0.023525230992887138 0.072864518725985178 0.0057479733478655228 0.022030998586146353 0.047317004909882353 0.083933177434238532 -0.055058988835068837 0.027449497344554881 -0.04044089523948504 0.046414496893979709 -0.059853230905558941 0.034357161173443652 0.072549294934236119 -0.0040773355450185967 0.044356287653532341
leaf_weight=17.901343569159508 1.7190869599580754 16.816039934754372 94.441573858261108 7.1796394735574749 1.614974096417426 82.726192906498909 6.90835873782635 13.014672085642813 4.9805630445480338 16.337020397186283 3.1288414746522895 12.001244828104971 7.5280347764492026 52.513641893863678
leaf_count=75 7 71 398 29 7 375 28 54 21 69 13 57 32 228
internal_value=0 0.0197919 0.0274769 -0.0358078 -0.0462099 -0.0484951 0.000111613 -0.0168997 -0.0131475 -0.0213238 -0.0447103 0.0332206 -0.0508066 0.0300088
internal_weight=0 218.12 176.858 120.691 93.5883 91.9733 27.1027 19.923 41.2625 36.2819 19.4659 158.956 90.2542 146.955
internal_count=1464 932 758 532 421 414 111 82 174 153 82 683 407 626
is_linear=0
shrinkage=0.05


Tree=13
num_leaves=15
num_cat=0
split_feature=2 0 0 5 6 8 6 6 0 1 9 0 1 9
split_gain=87.801 26.118 18.2599 11.0834 15.3544 10.3318 9.75609 8.41991 6.96677 6.70766 6.45908 5.16969 7.10598 5.69342
threshold=-0.28203361427906098 0.16595619594746178 0.071224120504964641 -0.01309653882361775 0.083581165550841302 -0.61221725449936992 0.821088157877782 0.35235980894835833 -0.10355067581386139 -0.18215600110070304 0.33531320169086926 0.040098376484904434 0.070407291002870007 1.8807453682384103
decision_type=2 2 2 2 2 2 2 2 2 2 2 2 2 2
left_child=1 3 8 -1 5 9 -4 -3 -2 -5 -6 13 -13 -10
right_child=2 7 6 4 10 -7 -8 -9 11 -11 -12 12 -14 -15
leaf_value=0.050488965252242647 0.028083925143056396 -0.050432247737431317 -0.063397446269795141 0.020648766756702547 0.024161800962884703 -0.027427150836009575 3.745183688870801e-05 0.017312707785604217 -0.034212607441683751 -0.065299674386224374 0.053792069044984694 0.037738542513761519 -0.049205899240716083 0.041420510012382103
leaf_weight=34.762315943837166 7.7872794121503821 16.501423716545109 48.538950458168983 36.287747219204903 73.266940891742706 22.344594165682793 6.926094025373458 6.352261707186698 42.506666228175163 2.4215330332517615 24.55712254345417 7.1070720106363279 3.5110553056001663 2.6429308354854575
leaf_count=158 32 73 234 152 311 93 29 26 181 10 109 30 15 11
internal_value=0 0.0189495 -0.0345121 0.0249157 0.0193203 -0.000355041 -0.0554761 -0.0316023 -0.0162166 0.0152721 0.0316 -0.0224027 0.00898896 -0.0297853
internal_weight=0 216.494 119.02 193.64 158.878 61.0539 55.465 22.8537 63.555 38.7093 97.8241 55.7677 10.6181 45.1496
internal_count=1464 932 532 833 675 255 263 99 269 162 420 237 45 192
is_linear=0
shrinkage=0.05


Tree=14
num_leaves=15
num_cat=0
split_feature=1 0 6 6 9 3 3 9 6 4 7 6 6 9
split_gain=79.5508 23.1317 18.8653 15.3134 12.5351 8.77218 8.75067 8.26462 8.80446 8.09147 7.17474 10.3689 6.95538 6.81498
threshold=-0.17939054777316679 0.05259502399811302 0.19414579807147428 0.16934625432852854 0.74412949236218306 1.5918796184818247 2.7970985787512004 0.21265163051415573 -1.1811078193870572 -0.01276226755525931 -0.13379296414756162 0.75213553228775354 1.138595088948658 -0.3086279098213025
decision_type=2 2 2 2 2 2 2 2 2 2 2 2 2 2
left_child=1 5 6 -3 -4 7 -2 8 -1 10 11 -10 13 -11
right_child=2 3 4 -5 -6 -7 -8 -9 9 12 -12 -13 -14 -15
leaf_value=0.041359913453012459 -0.05307387029142107 -0.036834000681664612 -0.022088059173992182 0.021119712161396915 0.038415557497755638 0.06945706749118534 0.076827778161676033 0.051742539779628387 0.013002120808542787 0.0078502535180518026 0.035725261444481786 -0.067630631331390134 0.083487933606588932 -0.062337627609537899
leaf_weight=33.638189524412155 63.661445662379265 26.901916086673737 47.589535608887672 19.778989538550377 10.438297152519224 11.650254905223845 1.3233892172574986 23.39598560333252 40.675839677453041 6.0783474445343009 33.201079204678535 4.4202926456928244 1.4342085272073735 8.0238054543733579
leaf_count=149 304 117 203 83 43 58 6 106 168 25 145 18 6 33
internal_value=0 0.0187437 -0.0319256 -0.0122787 -0.0112044 0.0276544 -0.0504285 0.0244264 0.0194128 0.011545 0.0180855 0.00509855 -0.0214162 -0.0320851
internal_weight=0 209.199 123.013 46.6809 58.0278 162.518 64.9848 150.868 127.472 93.8336 78.2972 45.0961 15.5364 14.1022
internal_count=1464 908 556 200 246 708 310 650 544 395 331 186 64 58
is_linear=0
shrinkage=0.05


Tree=15
num_leaves=15
num_cat=0
split_feature=2 0 0 3 7 8 9 6 5 7 6 8 7 8
split_gain=73.9201 22.2329 17.1351 11.8438 10.0423 13.1365 16.153 9.16762 8.64916 7.39339 7.22101 6.88808 5.86513 5.53044
threshold=-0.28203361427906098 0.16595619594746178 0.071224120504964641 1.5918796184818247 0.16305576362092575 -0.65068452904015572 -0.25302379391669633 0.77383513306283114 -0.013963212247800295 -0.037661462010856246 0.35235980894835833 0.19456952240239139 0.64548426561748329 -0.6558212466676564
decision_type=2 2 2 2 2 2 2 2 2 2 2 2 2 2
left_child=1 3 9 4 5 8 -7 -4 -1 13 -3 -8 -11 -2
right_child=2 10 7 -5 -6 6 11 -9 -10 12 -12 -13 -14 -15
leaf_value=0.057741836339652165 0.069114774628123557 -0.047470516726567283 -0.061597712314885068 0.070720267663996292 0.042298448199209672 -0.026683886367513121 0.0092447444246989644 -0.003053100263095155 0.0179570269858241 0.028340541371337333 0.01557238280808569 0.05844704239354135 -0.032006312724309781 -0.029361799851619848
leaf_weight=19.603831127285957 1.4761759340763081 16.052629023790363 45.405470833182335 12.19220347702503 38.742645040154457 33.304933458566666 32.245996713638306 7.8417233228683463 45.063033565878868 14.007327765226366 6.3346129655838004 9.1264677047729474 5.6505272686481467 41.709971860051155
leaf_count=92 6 73 230 62 174 139 138 33 189 57 26 39 23 183
internal_value=0 0.0174996 -0.0321071 0.0230449 0.019781 0.0135203 -0.000765747 -0.0529758 0.0300178 -0.0144251 -0.0296321 0.0200984 0.0109942 -0.0259957
internal_weight=0 212.666 116.091 190.279 178.087 139.344 74.6774 53.2472 64.6669 62.844 22.3872 41.3725 19.6579 43.1861
internal_count=1464 932 532 833 771 597 316 263 281 269 99 177 80 189
is_linear=0
shrinkage=0.05


Tree=16
num_leaves=15
num_cat=0
split_feature=2 0 0 5 6 6 3 7 8 9 5 2 6 7
split_gain=67.6125 20.4029 16.2337 9.5155 10.2562 8.75395 8.66334 9.38387 14.8598 8.73626 6.98864 6.9008 6.87816 6.72979
threshold=-0.28203361427906098 0.10334817017515278 0.071224120504964641 0.030691634643949691 1.2906695511797321 0.77383513306283114 1.5918796184818247 -0.073944482756925792 -0.65068452904015572 -0.25302379391669633 -0.013963212247800295 -0.35239167402163057 -0.31011159136842231 -0.037661462010856246
decision_type=2 2 2 2 2 2 2 2 2 2 2 2 2 2
left_child=1 6 13 4 -3 -4 7 8 10 -10 -1 12 -11 -2
right_child=2 3 5 -5 -6 -7 -8 -9 9 11 -12 -13 -14 -15
leaf_value=0.055422765937830049 -0.024888654660260596 -0.033093773670849896 -0.060244880535911684 0.043713167485738745 0.081401011488246369 -0.0029020693425104924 0.066935472605426469 0.039800162398808903 -0.027136629974316873 -0.060436494917890708 0.018763754104600516 -0.047724942549027163 0.033307728710014681 0.01045019503569676
leaf_weight=18.922460675239563 42.861240327358246 31.38147334754467 44.13614247739315 5.7416302114725104 2.0859569907188407 7.8374450802803031 11.103384330868719 47.905180588364601 25.465958938002586 2.162711098790175 41.544024497270584 3.8865045905113211 20.541130483150482 19.647852137684822
leaf_count=91 189 139 230 24 9 33 59 218 105 9 175 16 87 80
internal_value=0 0.016785 -0.0309493 -0.0157552 -0.0259575 -0.0515978 0.0242231 0.021267 0.0133767 -0.0062062 0.0302359 0.0138392 0.0243779 -0.013781
internal_weight=0 210.74 114.483 39.2091 33.4674 51.9736 171.531 160.428 112.523 52.0563 60.4665 26.5903 22.7038 62.5091
internal_count=1464 932 532 172 148 263 760 701 483 217 266 112 96 269
is_linear=0
shrinkage=0.05


Tree=17
num_leaves=15
num_cat=0
split_feature=2 0 0 3 7 5 6 7 7 0 6 6 7 0
split_gain=61.8487 18.8903 15.4046 10.8735 8.67875 9.54422 8.37045 6.56291 6.11949 5.62563 5.34858 5.65423 5.29697 5.2951
threshold=-0.28203361427906098 0.16595619594746178 0.071224120504964641 1.5918796184818247 0.16305576362092575 -0.014092433478141136 0.77383513306283114 -0.21127992555427097 -0.037661462010856246 0.22638934155342055 0.20757888426556992 -1.2563381828805171 0.64548426561748329 -0.059892630507373736
decision_type=2 2 2 2 2 2 2 2 2 2 2 2 2 2
left_child=1 3 8 4 5 -1 -4 9 -2 -3 11 -7 -10 -12
right_child=2 7 6 -5 -6 10 -8 -9 12 -11 13 -13 -14 -15
leaf_value=0.043046886413056311 -0.023806463900140261 -0.058651539315153815 -0.058968327262494596 0.068516896920039178 0.039438396794347755 0.044100007735218105 -0.0027584466317760199 0.025563219641802051 0.026431161621169475 0.0062000711767590888 0.0058414916798571852 -0.0077875832854963833 -0.030925605107724154 0.038329859653700532
leaf_weight=21.40264680981636 42.576540440320969 12.860640838742261 42.869287297129631 11.429928183555601 37.704358518123627 5.7759394794702521 7.8333497792482367 4.5674150437116614 13.991852626204492 4.5190802365541449 32.250302717089653 57.69615250825882 5.6510448753833762 20.522837564349174
leaf_count=103 189 60 230 62 174 25 33 19 57 20 139 242 23 88
internal_value=0 0.0161088 -0.0298266 0.0212648 0.0181848 0.0123631 -0.0502841 -0.0277722 -0.0131557 -0.0417888 0.00671368 -0.00306583 0.00993025 0.0184758
internal_weight=0 208.729 112.922 186.782 175.352 137.648 50.7026 21.9471 62.2194 17.3797 116.245 63.4721 19.6429 52.7731
internal_count=1464 932 532 833 771 597 263 99 269 80 494 267 80 227
is_linear=0
shrinkage=0.05


Tree=18
num_leaves=15
num_cat=0
split_feature=2 0 0 5 6 5 4 4 6 0 0 7 5 5
split_gain=56.5609 17.4611 14.6229 8.6055 9.07211 8.09618 9.16877 8.58432 8.02719 6.121 5.73018 5.67484 7.97143 6.00698
threshold=-0.28203361427906098 0.10334817017515278 0.071224120504964641 0.030691634643949691 1.2906695511797321 0.046287300374740985 -0.10449669740605527 -0.01276226755525931 0.66637044351006647 -0.10355067581386139 -0.044561508023266187 -0.073944482756925792 -0.012452660624160793 -0.004331774682913043
decision_type=2 2 2 2 2 2 2 2 2 2 2 2 2 2
left_child=1 5 9 4 -3 6 10 11 -4 -2 -1 12 -8 -14
right_child=2 3 8 -5 -6 -7 7 -9 -10 -11 -12 -13 13 -15
leaf_value=0.061479451373664 0.029166778657793654 -0.031429957867854269 -0.05946421685008553 0.04177693388692566 0.077974018629476366 -0.054800294161185162 0.047862508210408404 -0.0008158826590641858 -0.010135660227673388 -0.018483213044175006 -0.058807929824780808 0.046367838390659714 -0.005717352645466277 0.026044068348952277
leaf_weight=1.2311114519834516 7.6962168514728537 30.880494892597198 38.979583457112312 5.7103785127401343 2.0187553614377967 3.3289392292499533 25.733011707663536 24.64721705019474 10.460382312536238 54.224438145756721 5.0568923801183692 42.583109959959984 22.783282414078712 42.950566336512566
leaf_count=5 32 139 217 24 9 14 129 106 46 237 21 202 98 185
internal_value=0 0.0154436 -0.0287506 -0.0148823 -0.0247167 0.0224001 0.0239578 0.026304 -0.0490274 -0.0125607 -0.0352572 0.0312904 0.024271 0.0150356
internal_weight=0 206.924 111.361 38.6096 32.8993 168.314 164.985 158.697 49.44 61.9207 6.288 134.05 91.4669 65.7338
internal_count=1464 932 532 172 148 760 746 720 263 269 26 614 412 283
is_linear=0
shrinkage=0.05


Tree=19
num_leaves=15
num_cat=0
split_feature=2 0 0 9 5 5 5 7 9 7 8 0 1 7
split_gain=51.698 16.0402 13.9047 8.41715 10.3362 6.09432 7.66017 7.16492 6.00532 5.93688 5.71592 6.74894 8.41064 7.84272
threshold=-0.28203361427906098 0.16595619594746178 0.071224120504964641 0.33531320169086926 -0.014092433478141136 0.046287300374740985 0.028211923792753873 0.77933131147618184 0.74412949236218306 -0.21127992555427097 -0.6558212466676564 0.040098376484904434 0.070407291002870007 -0.16804191070937499
decision_type=2 2 2 2 2 2 2 2 2 2 2 2 2 2
left_child=1 3 8 4 -1 6 7 -6 10 -3 -2 13 -13 -12
right_child=2 9 -4 -5 5 -7 -8 -9 -10 -11 11 12 -14 -15
leaf_value=0.044619354081985578 0.071238291708327184 -0.039673641337881045 -0.047813331687384643 0.045400102492143754 0.0052542465429780043 -0.054597661132702459 0.063131094982127212 0.054369605799006529 0.025858486839517848 0.024715375159201594 -0.047594937607789239 0.047032655705001133 -0.054569012530837763 -0.0029634599910237174
leaf_weight=25.005625680088997 1.7202948033809651 16.946678489446644 48.1984603703022 26.947842508554459 113.4059773683548 3.6008931100368491 6.7668981254100791 7.9455913603305808 8.9656067937612516 4.5387247800827017 25.259353250265114 6.7213646322488767 2.9225644916296005 16.127344995737083
leaf_count=128 7 80 263 129 495 15 29 37 38 19 116 29 13 66
internal_value=0 0.0148055 -0.0276897 0.0195872 0.0151488 0.00955412 0.0113572 0.00847011 -0.0119738 -0.0260717 -0.0184038 -0.0214257 0.0162426 -0.0302032
internal_weight=0 205.158 109.915 183.673 156.725 131.719 128.118 121.352 61.7165 21.4854 52.7509 51.0306 9.64393 41.3867
internal_count=1464 932 532 833 704 576 561 532 269 99 231 224 42 182
is_linear=0
shrinkage=0.05


Tree=20
num_leaves=15
num_cat=0
split_feature=1 0 9 3 7 5 7 9 3 4 4 5 7 0
split_gain=47.4282 14.343 14.1647 11.9221 10.2127 9.08596 8.74274 7.99748 8.49909 7.20493 10.0833 7.454 5.92733 5.72037
threshold=-0.17939054777316679 0.10334817017515278 0.74412949236218306 2.7970985787512004 -0.18179624110959006 0.027797524674764276 0.35200033387661228 0.21265163051415573 1.5918796184818247 -0.031563203607963934 -0.01276226755525931 0.047178481273643345 -0.06009989747680184 0.18544098301156586
decision_type=2 2 2 2 2 2 2 2 2 2 2 2 2 2
left_child=1 7 3 4 -2 6 12 8 9 -1 11 -11 -3 -6
right_child=2 5 -4 -5 13 -7 -8 -9 -10 10 -12 -13 -14 -15
leaf_value=-0.017124701832869935 -0.045161236511406327 -0.030969576536707205 0.02168647622978884 0.087036952406823048 -0.0001039666829611265 0.032075574452158521 0.042671896234837609 0.047871158306385553 0.064274393752480161 0.02691973890688773 -0.013936504606375737 -0.07901249031676888 -0.12390457364541373 -0.062718621111937267
leaf_weight=16.91308319568634 69.432155594229698 22.650841966271404 13.816059336066244 2.0489770323038092 24.114100113511089 8.4608284682035428 3.8908178508281699 23.882688939571381 8.7286529541015607 89.901651188731194 20.362904399633408 1.6918831318616856 1.856302455067637 4.297740012407302
leaf_count=70 365 104 60 9 101 37 17 118 51 410 86 7 8 21
internal_value=0 0.0147387 -0.0257652 -0.0323282 -0.0348279 -0.0134046 -0.0269548 0.0211626 0.0165268 0.0132927 0.0178879 0.024963 -0.038009 -0.00957542
internal_weight=0 198.34 113.709 99.893 97.844 36.8588 28.398 161.481 137.598 128.87 111.956 91.5935 24.5071 28.4118
internal_count=1464 908 556 496 487 166 129 742 624 573 503 417 112 122
is_linear=0
shrinkage=0.05


Tree=21
num_leaves=15
num_cat=0
split_feature=2 0 6 3 6 5 3 0 6 6 6 2 1 5
split_gain=43.4405 13.7908 13.0671 10.1778 7.26801 7.57872 6.80587 6.29208 5.58657 5.58466 5.10437 5.98516 5.06724 5.2188
threshold=-0.28203361427906098 0.16595619594746178 0.19414579807147428 1.5918796184818247 0.9805567239402766 -0.014092433478141136 4.0023175390205763 -0.10536901824802299 0.20757888426556992 0.16934625432852854 -1.241747784645084 -0.33306448019193585 0.47135001385415692 0.038266672284619753
decision_type=2 2 2 2 2 2 2 2 2 2 2 2 2 2
left_child=1 3 6 4 5 -1 -2 -4 10 -3 -7 -12 13 -9
right_child=2 9 7 -5 -6 8 -8 12 -10 -11 11 -13 -14 -15
leaf_value=0.039087720216884801 -0.046527853312504017 -0.042614117998104661 0.043086401418815257 0.066192529069199521 0.040249770829060054 0.027133393838082016 0.078823856781087692 -0.024540277329403233 0.016978163309868215 0.012285169975679739 -0.016591312495041272 0.036949736538460752 0.021459038847198367 0.079213923329981784
leaf_weight=20.511195182800293 50.606680631637573 14.170309796929361 5.2706273198127738 10.367013573646544 24.693548798561096 10.813272863626478 1.1065131574869145 40.468812495470047 61.910440251231194 6.8822220414876929 46.593842566013336 5.8781530559062949 8.2471140474081022 1.2494096904993046
leaf_count=105 282 70 22 62 119 47 5 181 278 29 197 25 36 6
internal_value=0 0.0136321 -0.0257831 0.0180925 0.0151661 0.0109151 -0.0438457 -0.00887244 0.00629949 -0.0246672 -0.00414719 -0.0105934 -0.0143534 -0.021433
internal_weight=0 201.82 106.949 180.767 170.4 145.707 51.7132 55.236 125.196 21.0525 63.2853 52.472 49.9653 41.7182
internal_count=1464 932 532 833 771 652 287 245 547 99 269 222 223 187
is_linear=0
shrinkage=0.05


Tree=22
num_leaves=15
num_cat=0
split_feature=2 0 0 6 5 6 9 8 4 9 0 5 9 0
split_gain=39.6977 12.7978 12.6088 7.97331 7.16653 7.41749 7.03686 8.71521 12.386 8.5216 7.4321 5.42889 5.21028 5.54157
threshold=-0.28203361427906098 0.071224120504964641 0.10334817017515278 0.77383513306283114 0.030691634643949691 1.2906695511797321 0.21265163051415573 -0.66377441959739591 -0.0021179198117540891 -0.31305233597134768 0.038155245844476847 0.061660170880806685 0.069757356882902313 -0.10925527952887815
decision_type=2 2 2 2 2 2 2 2 2 2 2 2 2 2
left_child=2 -2 6 11 5 -4 7 10 9 -9 -1 -3 13 -11
right_child=1 3 4 -5 -6 -7 -8 8 -10 12 -12 -13 -14 -15
leaf_value=0.034831921016453361 -0.0097459142337004145 -0.058129753706694313 -0.028331912757478778 0.0015105771447255936 0.038914593246983022 0.073818728247047716 0.042774408028444302 -0.014270823757378577 -0.050504105555386786 0.067015685644182227 -0.029942753694929866 0.042568593400720917 -0.035713273617872104 0.019688721166753416
leaf_weight=52.485499337315559 60.304002001881599 36.197726637125015 29.95926266908646 7.6773283630609503 5.6317258030176154 1.8891722708940495 26.292229607701302 22.593464627861977 9.2813908755779249 7.459131345152854 4.8363987654447547 1.3898548781871785 3.4902077019214621 36.216503754258156
leaf_count=254 269 222 139 33 24 9 132 98 39 35 21 8 16 165
internal_value=0 -0.0248285 0.0130657 -0.0449223 -0.0130787 -0.0222726 0.0190901 0.0145235 0.00375899 0.0109786 0.0293667 -0.0544063 0.0230737 0.0277714
internal_weight=0 105.569 200.135 45.2649 37.4802 31.8484 162.655 136.363 79.0407 69.7593 57.3219 37.5876 47.1658 43.6756
internal_count=1464 532 932 263 172 148 760 628 353 314 275 230 216 200
is_linear=0
shrinkage=0.05


Tree=23
num_leaves=15
num_cat=0
split_feature=1 6 3 0 9 9 8 4 9 4 3 6 6 0
split_gain=36.8068 13.6224 11.1305 10.4901 8.66988 7.67019 7.0569 14.3332 9.16312 6.75201 6.65985 5.90503 5.07457 4.86095
threshold=-0.17939054777316679 0.19414579807147428 1.5918796184818247 0.10334817017515278 0.74412949236218306 0.21265163051415573 -0.65068452904015572 -0.0021179198117540891 -0.28262796736051388 -0.031563203607963934 2.7970985787512004 0.35235980894835833 1.5143530400622316 0.080868466160664856
decision_type=2 2 2 2 2 2 2 2 2 2 2 2 2 2
left_child=2 10 3 5 -3 6 -1 8 -8 -10 13 -7 -5 -2
right_child=1 4 -4 12 -6 11 7 -9 9 -11 -12 -13 -14 -15
leaf_value=0.024984454986068935 -0.02767508738909993 -0.015156261359354113 0.065268953196919763 -0.018299227176194238 0.035791831799767332 -0.049332569723744973 -0.011731059052070357 -0.060480876302023735 -0.030051065430406899 0.035070288865695215 0.075135668142059908 0.051037360889755537 0.071667398143624078 -0.057968219264664292
leaf_weight=54.818298578262329 25.19429674744606 44.899515390396118 9.7115766108036023 33.734065636992455 10.257936671376227 1.580955103039744 28.547880202531815 8.3359790593385679 4.5844532251357988 30.208884015679363 1.2078843265771855 20.047836378216743 1.6437629163265217 27.915430471301079
leaf_count=255 120 203 61 155 43 7 123 35 19 141 6 104 8 184
internal_value=0 -0.023184 0.0131034 0.0103427 -0.00568116 0.0161851 0.0114803 0.00115242 0.00926363 0.0264897 -0.0409574 0.0437008 -0.0141191 -0.0435977
internal_weight=0 109.475 193.214 183.502 55.1575 148.124 126.495 71.6772 63.3412 34.7933 54.3176 21.6288 35.3778 53.1097
internal_count=1464 556 908 847 246 684 573 318 283 160 310 111 163 304
is_linear=0
shrinkage=0.05


Tree=24
num_leaves=15
num_cat=0
split_feature=1 0 3 0 9 3 5 9 8 4 9 4 5 5
split_gain=33.6678 12.3383 10.5837 9.55026 8.39163 8.6608 7.95498 7.17303 6.4308 13.0511 8.35422 6.16719 5.40069 4.91967
threshold=-0.17939054777316679 -0.060962243703939378 1.5918796184818247 0.10334817017515278 1.2712701041104408 2.7970985787512004 0.027797524674764276 0.21265163051415573 -0.65068452904015572 -0.0021179198117540891 -0.28262796736051388 -0.031563203607963934 0.0033747121403451099 -0.013963212247800295
decision_type=2 2 2 2 2 2 2 2 2 2 2 2 2 2
left_child=2 12 3 7 5 -3 -5 8 13 10 -10 -12 -2 -1
right_child=1 4 -4 6 -6 -7 -8 -9 9 -11 11 -13 -14 -15
leaf_value=0.047038696012983987 -0.0011994445635365373 -0.038731317764004555 0.064449240563872343 -0.026504413817181178 0.027069622369919884 0.088296717443441738 0.029872731040442288 0.042442301289137799 -0.011126172193788851 -0.057984041021273691 -0.028442837052995863 0.033748864626142107 0.06808235421647979 0.014144026584615332
leaf_weight=16.182510450482368 23.665557637810711 74.194516271352768 9.3524413704872114 27.074477031826973 5.5868771374225608 1.3665488958358754 8.137797072529791 21.171684518456459 28.593705862760544 8.2620573639869672 4.6010394543409303 29.831865981221203 3.1923170536756507 38.192563384771347
leaf_count=90 104 407 61 127 25 6 36 111 123 35 19 141 14 165
internal_value=0 -0.0223395 0.0125755 0.00991059 -0.0320619 -0.036434 -0.0134753 0.0155187 0.0109826 0.00110423 0.00885002 0.0254386 0.00703536 0.0239338
internal_weight=0 108.006 191.4 182.048 81.1479 75.5611 35.2123 146.835 125.664 71.2887 63.0266 34.4329 26.8579 54.3751
internal_count=1464 556 908 847 438 413 163 684 573 318 283 160 118 255
is_linear=0
shrinkage=0.05


Tree=25
num_leaves=15
num_cat=0
split_feature=2 0 3 7 8 0 6 9 5 9 8 7 0 7
split_gain=30.4809 11.4881 10.3413 9.3012 13.4447 9.02631 7.75799 6.66531 4.89735 5.31914 4.86647 5.11058 6.91435 6.20127
threshold=-0.28203361427906098 0.071224120504964641 1.5918796184818247 -0.20312651041775406 -0.64615213113353753 0.18290956511302717 0.66637044351006647 -0.18562244818062723 -0.013963212247800295 0.038737999421085655 -0.6558212466676564 0.09928061749412237 0.040098376484904434 0.64548426561748329
decision_type=2 2 2 2 2 2 2 2 2 2 2 2 2 2
left_child=2 10 3 4 5 8 -3 -6 -1 -10 -2 12 -12 -13
right_child=1 6 -4 -5 7 -7 -8 -9 9 -11 11 13 -14 -15
leaf_value=0.045119624175991614 0.070415211626809068 -0.054110784978088015 0.063565753173394329 0.024916958252367033 -0.026770303750312474 -0.048951570246079552 -0.0036853798813380281 0.011054535857305335 0.007349257687149096 0.064345332228682911 -0.030174002282926222 0.032236472451365933 0.023569520604284869 -0.032514766298839683
leaf_weight=16.520305305719376 1.9125833362340916 32.194940760731697 9.1159885674715024 61.494527578353882 42.234115853905678 4.856053113937377 9.9958708733320218 16.081565082073212 39.7329081594944 4.5636353939771643 32.953178182244301 11.89395394921303 7.3127290904521933 5.3657651394605628
leaf_count=93 8 217 62 301 188 25 46 71 171 21 156 49 34 22
internal_value=0 -0.0222109 0.0115736 0.00901832 0.00113308 0.0166482 -0.042164 -0.0163394 0.0218861 0.0132213 -0.00804776 -0.0106565 -0.0204136 0.0121064
internal_weight=0 101.629 194.599 185.483 123.989 65.6729 42.1908 58.3157 60.8168 44.2965 59.4382 57.5256 40.2659 17.2597
internal_count=1464 532 932 870 569 310 263 259 285 192 269 261 190 71
is_linear=0
shrinkage=0.05


Tree=26
num_leaves=15
num_cat=0
split_feature=2 6 3 7 8 0 9 9 3 8 6 7 2 9
split_gain=27.8969 10.8618 9.84011 8.48716 12.2269 8.38435 6.9761 6.04414 5.40404 5.11641 4.84387 5.3371 4.72505 5.25155
threshold=-0.28203361427906098 0.19414579807147428 1.5918796184818247 -0.20312651041775406 -0.64615213113353753 0.038155245844476847 0.74412949236218306 -0.18562244818062723 4.0023175390205763 -0.6558212466676564 0.78830153357954946 -0.27924747195973315 -0.36433224739758535 0.026749277667431456
decision_type=2 2 2 2 2 2 2 2 2 2 2 2 2 2
left_child=2 8 3 4 5 -1 9 10 -2 -3 11 -6 13 -9
right_child=1 6 -4 -5 7 -7 -8 12 -10 -11 -12 -13 -14 -15
leaf_value=0.025831795906473828 -0.041743710785590221 0.087945850372814507 0.062859760105708068 0.023905700806117283 -0.024739974060934582 -0.016749069272052008 0.035177704224623102 0.07174999335177687 0.074287426936852072 -0.016757180589969761 -0.097487258725190817 0.083127801277018687 -0.030424392731612505 0.0012873805840416645
leaf_weight=49.978828832507133 45.296141177415848 1.1984875947237004 8.7663113921880704 60.906359791755676 38.657624393701553 15.039350256323813 8.5825746655464155 4.307362452149393 1.0262156426906575 44.092629417777061 2.2162704020738593 1.1817883253097523 4.8966205269098273 6.8487500101327896
leaf_count=241 282 5 62 301 174 69 36 19 5 204 9 5 21 31
internal_value=0 -0.0214195 0.0111043 0.0086389 0.00108696 0.0159824 -0.00615423 -0.0155797 -0.0391732 -0.0139865 -0.0255425 -0.0215402 0.0105212 0.0284929
internal_weight=0 100.196 192.799 184.033 123.127 65.0182 53.8737 58.1084 46.3224 45.2911 42.0557 39.8394 16.0527 11.1561
internal_count=1464 532 932 870 569 310 245 259 287 209 188 179 71 50
is_linear=0
shrinkage=0.05


Tree=27
num_leaves=15
num_cat=0
split_feature=0 1 5 9 7 6 9 7 4 5 4 8 8 5
split_gain=26.1633 11.1073 9.52276 7.12635 6.70276 6.51116 6.2646 5.31008 5.10855 6.23048 5.5906 8.97318 5.28395 4.71175
threshold=0.10554087722811235 -0.18674239154399699 0.027797524674764276 -0.32421902093885202 0.81218438107608992 -0.96936612920172982 0.38990502878912531 0.16010789380869878 -0.09809377558333375 0.047178481273643345 -0.01276226755525931 -0.64615213113353753 -0.19570150841424469 -0.010815115722427708
decision_type=2 2 2 2 2 2 2 2 2 2 2 2 2 2
left_child=1 8 4 5 -2 -4 7 -3 12 10 -10 -12 -1 -13
right_child=2 6 3 -5 -6 -7 -8 -9 9 -11 11 13 -14 -15
leaf_value=0.010098664365656304 -0.03935840742695404 -0.022284054205168768 0.043635792373616568 0.049899580479838182 0.051490684677361544 -0.048439552469148807 0.020756968873407323 0.012276009250865869 0.024454411964911497 -0.072438983975908824 0.028742444952028785 -0.091151882207567078 -0.092506788868406131 -0.015936776246745953
leaf_weight=3.0732821226119995 53.748631238937378 46.545983731746674 2.7872582525014868 6.2116563320159903 2.1099649369716635 6.1711087375879279 16.414703398942947 14.601107493042944 112.7318572178483 1.8484950810670842 10.876193329691889 2.8215716630220413 2.1205099225044242 7.9453007429838163
leaf_count=13 313 226 14 31 10 36 74 61 571 8 49 12 9 37
internal_value=0 0.00853637 -0.026386 0.00874471 -0.0359267 -0.0197917 -0.00666914 -0.0140316 0.016876 0.0187316 0.0199858 -0.00329 -0.0317929 -0.0356477
internal_weight=0 218.979 71.0286 15.17 55.8586 8.95837 77.5618 61.1471 141.417 136.223 134.375 21.6431 5.19379 10.7669
internal_count=1464 1060 404 81 323 50 361 287 699 677 669 98 22 49
is_linear=0
shrinkage=0.05


Tree=28
num_leaves=15
num_cat=0
split_feature=1 9 7 4 4 5 9 8 8 4 7 5 6 6
split_gain=24.332 10.1025 7.02594 6.24303 7.06217 7.57747 4.86995 5.7226 8.02958 4.83359 5.49833 5.28694 4.45003 4.54583
threshold=-0.18661955054809273 0.74412949236218306 0.086911228977437679 -0.09809377558333375 -0.01276226755525931 0.046287300374740985 0.10423633264112643 -0.64615213113353753 0.84982004028938563 -0.0030967104088580172 -0.23368260764370338 0.061660170880806685 -1.1811078193870572 0.19414579807147428
decision_type=2 2 2 2 2 2 2 2 2 2 2 2 2 2
left_child=3 2 9 -1 5 -5 7 12 -9 11 -11 -2 -6 -14
right_child=1 -3 -4 4 6 -7 -8 8 -10 10 -12 -13 13 -15
leaf_value=-0.01920632178515902 -0.023093581997174595 0.020580802907405559 0.00032770536427564808 0.02247386542361611 0.052268752139954792 -0.05797344238515887 0.046247117769585816 -0.048657207413059157 0.046024773276409969 -0.054196986308076449 0.0033383213120693647 0.076886407052490058 -0.032462422056815092 0.044251317563235637
leaf_weight=14.638897597789763 44.125385239720345 15.085420072078703 24.083053931593895 119.55402107536793 4.4782329648733148 3.0005913376808158 4.0168331116437903 13.281556084752081 2.6933116763830194 27.243198961019516 4.8991610109806052 1.3631104975938786 6.23223629593849 2.7981341183185577
leaf_count=67 246 68 105 607 22 13 20 63 12 171 23 7 28 12
internal_value=0 -0.0176028 -0.0232659 0.0120144 0.0149431 0.0205042 -0.00540109 -0.0124376 -0.0326941 -0.0305852 -0.0454274 -0.0200976 0.0115171 -0.00869204
internal_weight=0 116.799 101.714 170.694 156.055 122.555 33.5003 29.4835 15.9749 77.6309 32.1424 45.4885 13.5086 9.03037
internal_count=1464 620 552 844 777 620 157 137 75 447 194 253 62 40
is_linear=0
shrinkage=0.05


Tree=29
num_leaves=15
num_cat=0
split_feature=1 6 3 9 6 8 6 9 5 6 4 9 5 6
split_gain=22.3788 10.7895 9.08795 6.27498 6.17458 6.58299 6.22505 5.76323 5.33296 5.25027 5.37582 4.83043 9.60949 6.31201
threshold=-0.17939054777316679 0.19414579807147428 1.5918796184818247 0.33531320169086926 -1.241747784645084 -0.64615213113353753 0.083581165550841302 0.74412949236218306 0.0059591367471619533 -0.68551036242345198 -0.044763282355018301 -0.42451219494931253 -0.0020147043457669086 -1.1642492104483786
decision_type=2 2 2 2 2 2 2 2 2 2 2 2 2 2
left_child=2 8 3 4 5 -1 9 -3 -2 10 -6 12 13 -12
right_child=1 7 -4 -5 6 -7 -8 -9 -10 -11 11 -13 -14 -15
leaf_value=0.039222112276971956 -0.015516771033968292 -0.011299154382883547 0.062234236389849977 0.033609200486732126 -0.038673501710416953 -0.065101329315942022 0.010317856857897632 0.030486470920046561 -0.049445070101469958 -0.033346374628633657 0.065880821948309631 0.022663616703798517 -0.056365311934113593 -0.044793659046847067
leaf_weight=18.202188417315487 19.248149707913399 43.349222600460052 8.0924871489405614 21.096288040280342 7.8059347718954077 1.6491732150316227 74.431790754199028 10.191994234919546 29.080218985676765 18.661774486303329 4.0133874267339706 20.261715456843376 6.9515049606561643 1.8973245173692701
leaf_count=97 106 203 61 116 37 8 346 43 204 85 23 93 33 9
internal_value=0 -0.0188048 0.0104325 0.00803666 0.00453065 0.0305553 0.000675914 -0.00334493 -0.0359322 -0.0113672 -0.00134586 0.00745072 -0.016514 0.0303546
internal_weight=0 101.87 183.064 174.971 153.875 19.8514 134.023 53.5412 48.3284 59.5916 40.9299 33.1239 12.8622 5.91071
internal_count=1464 556 908 847 731 105 626 246 310 280 195 158 65 32
is_linear=0
shrinkage=0.05


Tree=30
num_leaves=15
num_cat=0
split_feature=0 5 0 2 9 6 9 1 1 6 2 2 7 8
split_gain=21.263 8.84408 8.70897 7.33928 8.44568 6.03175 5.88692 6.22868 5.36194 5.33795 4.72527 4.28241 4.12317 5.29328
threshold=0.10554087722811235 0.027797524674764276 -0.10433505882467618 -0.21217456628637235 0.080016251254499945 0.72216941693169423 -0.32421902093885202 -0.16863767405641014 -0.18607993197585512 -0.9517997857171433 -0.36721231000813898 2.4453623049995108 0.7687934767866903 -0.62523337156453007
decision_type=2 2 2 2 2 2 2 2 2 2 2 2 2 2
left_child=2 5 -1 4 12 8 7 9 10 -3 -2 -7 13 -4
right_child=1 6 3 -5 -6 11 -8 -9 -10 -11 -12 -13 -14 -15
leaf_value=0.027169614778216691 -0.031410249665681345 0.084037221029128806 0.013709909603765967 -0.013717933740593656 0.036257950936478787 -0.013321924950152201 0.047346965796076723 -0.061875694942346127 -0.058449674894163264 -0.024845840521179399 0.050314738134536234 0.086935587006562218 0.044057267031196605 -0.01064475566571018
leaf_weight=45.357316873967648 14.222015231847765 2.018285259604454 39.849779151380062 49.396906763315201 23.225193060934544 11.939324185252188 6.1340878307819358 4.0503697693347922 23.990890279412273 2.5450130701065055 2.0199184864759401 1.1694360226392735 5.6618209630250922 50.687863238155842
leaf_count=243 73 9 190 238 125 54 31 29 181 12 10 5 29 235
internal_value=0 -0.0243584 0.00771802 0.00249195 0.00919675 -0.0338335 0.00991263 -0.0167456 -0.0434308 0.0233117 -0.0212466 -0.00437793 0.00266344 7.48523e-05
internal_weight=0 68.0893 214.179 168.822 119.425 53.3416 14.7478 8.61367 40.2328 4.5633 16.2419 13.1088 96.1995 90.5376
internal_count=1464 404 1060 817 579 323 81 50 264 21 83 59 454 425
is_linear=0
shrinkage=0.05


Tree=31
num_leaves=15
num_cat=0
split_feature=0 3 1 7 8 4 9 1 1 7 1 9 7 0
split_gain=19.5188 10.5179 8.05912 7.42323 15.9184 9.05204 6.94147 5.23045 9.25364 5.049 4.81919 4.22549 4.15944 4.03552
threshold=0.10554087722811235 1.5918796184818247 -0.17424904585037512 -0.16804191070937499 -0.65068452904015572 -0.0030967104088580172 1.7739228338758788 -0.028873157060345048 -0.067432676232836206 -0.25212498730813632 3.6103106361923314 -0.3936576897507344 0.81218438107608992 0.010167033867675849
decision_type=2 2 2 2 2 2 2 2 2 2 2 2 2 2
left_child=1 3 12 4 13 6 7 8 -6 -4 -11 -5 -2 -1
right_child=2 -3 9 11 5 -7 -8 -9 -10 10 -12 -13 -14 -15
leaf_value=0.025049220741395085 -0.010783722157331735 0.059327178393993887 -0.054526127415400444 -0.078989339919010762 -0.0086941991046706954 -0.044969531677720026 0.06825590678204263 -0.049174333461300575 0.10309479703542866 -0.023969811925218742 0.08728010160820962 0.019748212833512531 0.071645419400331964 -0.010795133044089871
leaf_weight=45.20217476785183 33.363649807870388 9.3172524794936162 22.593645922839645 1.1008785218000401 46.19264689087867 20.382818840444088 2.9652790427207938 7.47342874854803 1.9284903109073699 8.2214411124587041 1.1041924208402623 68.874599024653435 1.6040060520172108 9.5031630992889387
leaf_count=229 164 69 183 5 209 103 13 40 9 44 5 341 8 42
internal_value=0 0.00737835 -0.0235846 0.00500131 -0.00190656 -0.0162713 -0.00628236 -0.010258 -0.00421417 -0.0417502 -0.0107974 0.0181948 -0.0070026 0.0188225
internal_weight=0 212.941 66.8869 203.623 133.648 78.9427 58.5598 55.5946 48.1211 31.9193 9.32563 69.9755 34.9677 54.7053
internal_count=1464 1060 404 991 645 374 271 258 218 232 49 346 172 271
is_linear=0
shrinkage=0.05


Tree=32
num_leaves=15
num_cat=0
split_feature=0 5 0 2 9 7 9 1 8 8 8 2 0 2
split_gain=17.8849 8.22172 7.68767 6.31993 7.61843 5.74176 5.27196 5.77623 4.17514 4.24768 3.97532 4.6319 3.95031 6.48568
threshold=0.10554087722811235 0.027797524674764276 -0.10433505882467618 -0.21217456628637235 0.080016251254499945 -0.25212498730813632 -0.32421902093885202 -0.16863767405641014 -0.65365964151219236 -0.17710705546401587 2.3540628523858813 3.366478524194112 -0.067879075708397199 -0.2417053570839354
decision_type=2 2 2 2 2 2 2 2 2 2 2 2 2 2
left_child=2 5 -1 4 12 -2 7 8 -3 -10 11 -5 13 -4
right_child=1 6 3 10 -6 -7 -8 -9 9 -11 -12 -13 -14 -15
leaf_value=0.025554080204476783 -0.042778513448920377 -0.052561877709173137 -0.01735155899324951 -0.017564785727625449 0.034443311476203511 -0.0058919844054027082 0.046003371529054649 -0.060862868847439924 0.10057588915168021 -0.015734453479403439 0.077172551324624222 0.089224273148377373 0.009413221367696234 0.08588375192461245
leaf_weight=44.403506629168987 36.583703562617302 1.313173711299896 30.255746193230156 46.612894855439663 22.689659602940083 14.825193129479883 6.076960712671279 3.7866758033633223 1.9224464297294617 1.3266849070787421 1.1928956806659687 1.0380321294069279 63.539639547467232 1.6019360870122898
leaf_count=243 251 6 145 228 125 72 31 29 9 6 5 5 302 7
internal_value=0 -0.0227812 0.00706387 0.00214548 0.00840241 -0.0321413 0.0105745 -0.0152131 0.0226759 0.0530841 -0.0129816 -0.0152385 0.00220875 -0.0121605
internal_weight=0 65.8348 211.334 166.931 118.087 51.4089 14.4259 8.34898 4.56231 3.24913 48.8438 47.6509 95.3973 31.8577
internal_count=1464 404 1060 817 579 323 81 50 21 15 238 233 454 152
is_linear=0
shrinkage=0.05


Tree=33
num_leaves=15
num_cat=0
split_feature=0 3 2 6 6 6 8 9 8 0 6 8 2 0
split_gain=16.7014 12.5668 8.71449 6.87245 5.16874 5.14948 5.06891 4.97913 6.99126 4.62931 4.51007 3.85656 7.08855 5.65409
threshold=0.16595619594746178 1.5918796184818247 -0.28203361427906098 0.35235980894835833 0.9805567239402766 -1.241747784645084 -0.64615213113353753 -0.18562244818062723 0.14862648286274996 -0.10355067581386139 0.9805567239402766 -0.67942458038135312 -0.33249314225296217 0.010167033867675849
decision_type=2 2 2 2 2 2 2 2 2 2 2 2 2 2
left_child=1 2 4 -2 5 6 -1 11 -9 -4 -5 13 -13 -7
right_child=3 -3 9 10 -6 7 -8 8 -10 -11 -12 12 -14 -15
leaf_value=0.037352501916360845 -0.04394534355422533 0.061206846298813622 0.026126166651600065 0.019542379798957142 0.031838225944538459 0.02561970867365175 -0.063534204738320263 0.0031897898144314161 0.050661782984488049 -0.016415250168206136 -0.051274731486869465 -0.017772993279132433 0.046391821972301059 -0.040019482083591476
leaf_weight=17.166077852249149 27.44506724178791 9.5433227196335775 7.1224218159914008 8.8643511533737165 21.686056062579155 16.702494516968731 1.3424158245325077 28.240736022591591 10.692024677991865 62.603744640946388 3.0122583955526343 51.934931233525276 4.693282112479209 4.0827186107635489
leaf_count=95 204 72 31 45 119 84 6 139 54 327 14 235 21 18
internal_value=0 0.00500347 0.00263296 -0.0301947 0.00918181 0.00553841 0.0300352 0.00164143 0.0162269 -0.0120697 0.00158107 -0.0056939 -0.0124551 0.0127266
internal_weight=0 235.81 226.267 39.3217 156.541 134.855 18.5085 116.346 38.9328 69.7262 11.8766 77.4134 56.6282 20.7852
internal_count=1464 1201 1129 263 771 652 101 551 193 358 59 358 256 102
is_linear=0
shrinkage=0.05


Tree=34
num_leaves=15
num_cat=0
split_feature=1 3 7 3 5 5 7 8 9 6 5 9 1 2
split_gain=15.7558 8.76654 8.44691 6.63962 5.96247 6.26877 4.8529 8.00222 7.0122 5.2571 4.96973 4.9114 4.37592 4.1704
threshold=-0.18661955054809273 2.7970985787512004 -0.18179624110959006 1.5918796184818247 0.18241518268207643 -0.014595950686020969 -0.27924747195973315 -0.65068452904015572 -0.18562244818062723 -0.31011159136842231 -0.013963212247800295 0.90118645531584818 -0.18751317898938449 0.34422911836064468
decision_type=2 2 2 2 2 2 2 2 2 2 2 2 2 2
left_child=3 2 4 6 5 -2 7 10 -9 -10 -1 -11 -12 -7
right_child=1 -3 -4 -5 -6 13 -8 8 9 11 12 -13 -14 -15
leaf_value=0.040515679445039053 0.031052013669012321 0.080876162830486903 0.0028146623736454734 0.058929532234295048 0.1119209026320279 -0.024795859679960314 0.019612255150958081 -0.024555195846966617 -0.083413879013487124 0.050452177631583189 0.0018998658381386925 -0.041163134907492148 0.079459102209155558 -0.053768399720394724
leaf_weight=13.542655557394026 4.1825032979249945 2.3495672196149817 36.441217809915543 6.6079114302992812 0.76628012955188651 49.478389099240303 55.657421112060547 35.912059485912323 1.0724878907203681 7.8128359317779505 38.728409215807915 1.7998956888914106 1.9082308262586583 16.583719879388809
leaf_count=89 23 12 166 59 4 293 291 167 5 36 179 9 9 122
internal_value=0 -0.0146656 -0.0167547 0.00983588 -0.0267973 -0.0283106 0.00776212 0.00121747 -0.0139751 0.0215835 0.014284 0.0332981 0.00554192 -0.0320689
internal_weight=0 109.802 107.452 163.042 71.0109 70.2446 156.434 100.777 46.5973 10.6852 54.1793 9.61273 40.6366 66.0621
internal_count=1464 620 608 844 442 438 785 494 217 50 277 45 188 415
is_linear=0
shrinkage=0.05


Tree=35
num_leaves=15
num_cat=0
split_feature=0 3 2 9 5 5 0 5 0 0 4 8 9 0
split_gain=14.6264 11.0457 7.16045 4.68723 4.93617 6.30899 5.6919 4.63012 4.46711 8.35947 5.11934 4.4019 4.29774 4.14712
threshold=0.16595619594746178 1.5918796184818247 -0.28203361427906098 0.33531320169086926 0.046287300374740985 0.028211923792753873 -0.10433505882467618 0.042573303978565409 -0.067879075708397199 -0.031013074200101392 -0.09567398771827125 0.51088770369445013 0.090816691054499701 -0.10355067581386139
decision_type=2 2 2 2 2 2 2 2 2 2 2 2 2 2
left_child=1 2 3 4 5 6 12 -2 -8 -10 -11 -9 -1 -4
right_child=7 -3 13 -5 -6 -7 8 11 9 10 -12 -13 -14 -15
leaf_value=0.029095314153122883 -0.034555955861430475 0.059401850301137517 0.025260155007700326 0.030424140846368131 -0.05369206620181214 0.056439508810529296 -0.017870090375799633 0.11381003853687727 0.031102661121916134 -0.048403481837935025 8.3181565307917856e-05 -0.0084793080707922085 -0.047750699608945096 -0.015064112964900789
leaf_weight=26.474707230925564 34.273681551218033 8.8709240630269033 7.1103232204914084 21.032088413834572 3.4853429198265067 6.0549581795930854 29.444521382451057 0.9974591508507723 21.562877789139748 6.3461256176233283 38.291403144598007 2.8059620931744576 1.9537023454904545 61.745667345821857
leaf_count=149 242 72 31 122 15 28 139 5 105 28 176 16 9 327
internal_value=0 0.00468384 0.00251205 0.0084838 0.00503018 0.00660299 0.00417089 -0.0287478 -0.00166766 0.00553884 -0.00681018 0.0235915 0.0238142 -0.0109001
internal_weight=0 232.373 223.502 154.646 133.614 130.128 124.073 38.0771 95.6449 66.2004 44.6375 3.80342 28.4284 68.856
internal_count=1464 1201 1129 771 649 634 606 263 448 309 204 21 158 358
is_linear=0
shrinkage=0.05


Tree=36
num_leaves=15
num_cat=0
split_feature=1 3 6 5 3 7 8 8 8 8 4 6 5 5
split_gain=13.4212 7.62074 7.91289 7.17576 6.02729 4.37909 5.06582 7.71681 6.55663 6.04627 5.28531 6.4421 4.21138 5.27412
threshold=-0.18661955054809273 2.7970985787512004 0.19414579807147428 0.23922796498710183 1.5918796184818247 0.16305576362092575 -0.65068452904015572 -0.020211807704100759 -0.25543618851685468 -0.15386398927622982 -0.01276226755525931 0.016415734580363186 0.0059591367471619533 0.0033747121403451099
decision_type=2 2 2 2 2 2 2 2 2 2 2 2 2 2
left_child=4 2 3 12 5 6 -1 8 10 -10 11 -8 13 -2
right_child=1 -3 -4 -5 -6 -7 7 -9 9 -11 -12 -13 -14 -15
leaf_value=0.014352004238426187 -0.026091536885708297 0.077555009717225079 -0.0032234475280097292 0.13201652721717463 0.058057746767250056 0.023822637367784762 -0.020458465290187963 0.017594186269912965 -0.096527232129365703 -0.0213921442497771 -0.040200974003118471 0.029924624029979786 -0.045711435144205378 0.04735159482480223
leaf_weight=54.338500842452049 16.628740087151531 2.2424639388918868 58.14671166986227 0.66777819395065208 6.0618071034550658 31.620500341057777 12.820002689957617 22.872033476829529 4.4445922076702118 6.7349278479814512 8.9557160735130328 12.560670122504233 27.341059878468513 2.8657630011439315
leaf_count=282 95 12 277 3 59 176 59 107 21 32 46 62 217 16
internal_value=0 -0.0136555 -0.0155915 -0.0307307 0.00915142 0.00723068 0.00295576 -0.00609927 -0.0180054 -0.0512633 -0.00717701 0.00447568 -0.0330512 -0.0152951
internal_weight=0 107.893 105.65 47.5033 160.409 154.347 122.726 68.3879 45.5159 11.1795 34.3364 25.3807 46.8356 19.4945
internal_count=1464 620 608 331 844 785 609 327 220 53 167 121 328 111
is_linear=0
shrinkage=0.05


Tree=37
num_leaves=15
num_cat=0
split_feature=1 3 9 3 6 6 6 9 5 9 9 8 8 4
split_gain=12.2305 7.04343 7.59274 5.76213 4.62428 4.20004 4.01527 4.89946 8.92004 4.30907 8.1479 5.04864 10.3028 5.95598
threshold=-0.18661955054809273 2.7970985787512004 0.74412949236218306 1.5918796184818247 0.38841331330985024 1.066713227016802 -1.2563381828805171 -0.42476207166819541 -0.0092109901044034621 -0.41615777180196789 -0.40188183201976474 0.063956745947680957 -0.28425759058970934 0.052368090093697937
decision_type=2 2 2 2 2 2 2 2 2 2 2 2 2 2
left_child=3 2 4 5 -2 6 -1 8 -8 -9 -11 12 13 -12
right_child=1 -3 -4 -5 -6 -7 7 9 -10 10 11 -13 -14 -15
leaf_value=0.037576721283066418 -0.030409010969916245 0.075863570964694885 0.018712072058064841 0.057661991561389098 -0.0076250803193588269 0.03285557288006518 0.026578575056257648 0.033262033337162558 -0.037234436618293169 -0.060053416927516881 0.015736647222003745 0.025515561841669199 -0.03574712427674348 -0.056166054841455315
leaf_weight=8.4989872574806196 50.373635038733482 2.1794388443231574 14.439955420792101 5.8047422617673865 39.918390423059464 14.160933449864386 7.9296161979436901 13.499258026480673 17.700633272528648 4.8517088443040839 42.812837064266198 24.947718143463135 15.950748711824422 3.0877880901098242
leaf_count=50 351 12 67 59 190 81 50 68 88 24 208 123 77 16
internal_value=0 -0.013101 -0.0149524 0.00876223 -0.0203362 0.00691233 0.0042746 0.0021104 -0.0174916 0.00688839 0.00300381 0.00652845 -0.00113 0.0108997
internal_weight=0 106.911 104.732 159.245 90.292 153.44 139.279 130.78 25.6302 105.15 91.6508 86.7991 61.8514 45.9006
internal_count=1464 620 608 844 541 785 704 654 138 516 448 424 301 224
is_linear=0
shrinkage=0.05


Tree=38
num_leaves=15
num_cat=0
split_feature=0 5 3 7 8 7 9 9 6 1 0 5 6 1
split_gain=12.1877 7.16756 7.146 5.59381 10.4102 4.71965 4.50059 4.05302 5.59257 3.85242 3.80111 3.58934 3.96092 3.39391
threshold=0.10554087722811235 0.027797524674764276 1.5918796184818247 -0.16804191070937499 -0.65068452904015572 0.81218438107608992 1.8807453682384103 -0.32421902093885202 -0.96936612920172982 0.029385563074985153 -0.12483597842551768 -0.013963212247800295 0.054648364517404575 -0.16863767405641014
decision_type=2 2 2 2 2 2 2 2 2 2 2 2 2 2
left_child=2 5 3 4 11 -2 9 8 13 -6 -5 -1 -13 -3
right_child=1 7 -4 10 6 -7 -8 -9 -10 -11 -12 12 -14 -15
leaf_value=0.037941553399611694 -0.032153855249402542 0.078715697063489673 0.054397867018094286 -0.06360228029602398 -0.012017679131927786 0.046520771401089074 0.044942266006381411 0.043835824612895841 -0.041519899061400356 -0.04676013395955398 0.017501085796924852 -0.0025315147045910837 0.032557745741197831 -0.05816219359106211
leaf_weight=12.976695105433462 45.288895197212696 2.0336839705705647 7.3114938586950293 1.4770727455615986 64.051960699260235 1.990012690424918 3.1233091801404944 5.8343691527843458 5.1554481387138367 9.1144842132925969 65.8795335739851 27.855023235082626 11.307082161307333 0.58260734379291523
leaf_count=91 313 9 69 8 308 10 14 31 36 52 338 127 53 5
internal_value=0 -0.0196393 0.00586489 0.00405245 -0.00206814 -0.0288424 -0.0138365 0.0123399 -0.0113046 -0.0163456 0.0157226 0.0151514 0.00759963 0.0482351
internal_weight=0 60.885 203.097 195.785 128.429 47.2789 76.2898 13.6061 7.77174 73.1664 67.3566 52.1388 39.1621 2.61629
internal_count=1464 404 1060 991 645 323 374 81 50 360 346 271 180 14
is_linear=0
shrinkage=0.05


Tree=39
num_leaves=15
num_cat=0
split_feature=1 7 7 3 9 3 6 7 8 7 8 8 9 7
split_gain=10.7247 6.96314 7.17658 6.50511 5.71223 5.01689 4.44864 4.76112 3.98653 5.10613 3.95922 8.45508 5.26835 4.38086
threshold=-0.16027732163077049 0.086911228977437679 0.24901322800138623 1.5918796184818247 0.33531320169086926 2.7970985787512004 -1.2563381828805171 0.77933131147618184 -0.060891724525085802 0.62059051539458321 -0.29421336983204216 -0.14456676280111544 -0.18935759822681872 -0.076062205096258675
decision_type=2 2 2 2 2 2 2 2 2 2 2 2 2 2
left_child=3 5 -3 4 6 -2 -1 10 9 -4 -8 12 13 -12
right_child=1 2 8 -5 -6 -7 7 -9 -10 -11 11 -13 -14 -15
leaf_value=0.035770556140461152 -0.027146904690964837 0.060087055418692442 0.072309390164907339 0.059059181743452427 0.030074745823195533 0.071857756957033503 0.003873986581778309 0.034856177954984191 -0.024584926246908889 -0.030969167805557713 -0.062821341232035699 -0.0032150162864569261 -0.1100588954267267 0.012119437170576099
leaf_weight=9.0299051553010923 54.911192677915096 5.1629557907581356 2.8906120061874416 5.7115600034594527 19.945931047201157 1.3100974857807148 88.021801576018333 9.0171822458505613 10.949248716235155 2.0423456281423569 4.6868618726730338 41.889419063925743 2.9212389588356009 3.3397337496280661
leaf_count=54 374 22 12 61 121 8 446 48 51 9 24 203 14 17
internal_value=0 -0.0156565 0.00887658 0.00653081 0.00485334 -0.0248398 0.00168755 -0.000365922 -0.00777082 0.0295499 -0.00262069 -0.0134402 -0.0525645 -0.0316397
internal_weight=0 77.2665 21.0452 184.564 178.852 56.2213 158.906 149.876 15.8822 4.93296 140.859 52.8373 10.9478 8.0266
internal_count=1464 476 94 988 927 382 806 752 72 21 704 258 55 41
is_linear=0
shrinkage=0.05


Tree=40
num_leaves=15
num_cat=0
split_feature=0 3 6 4 7 4 0 6 2 2 0 2 1 1
split_gain=11.0137 8.14268 5.9395 4.93591 6.6768 5.65334 7.37909 4.47658 4.29037 5.44582 5.3802 4.05245 7.32571 4.00897
threshold=0.16595619594746178 1.5918796184818247 0.35235980894835833 -0.01276226755525931 0.1057658754737498 -0.025839997477675684 -0.10536901824802299 0.9805567239402766 1.5356001288466945 -0.16673242421291262 0.096360030624257242 0.27336993291782002 0.41033361746331437 -0.14277443929161207
decision_type=2 2 2 2 2 2 2 2 2 2 2 2 2 2
left_child=1 3 -2 5 8 6 -1 -4 9 -5 -10 12 13 -7
right_child=2 -3 7 4 -6 11 -8 -9 10 -11 -12 -13 -14 -15
leaf_value=0.089730084298232302 -0.040070153140850537 0.055785819068876086 0.021752119754898228 -0.0095128362294130218 0.025468592229842782 0.015029079086803107 -0.013549286771784836 -0.05009349104608124 0.13398669998271981 -0.047914244664960776 -0.056483781489708541 -0.031245468004344606 0.12153850685719653 -0.021495787790228975
leaf_weight=1.8063308298587788 23.977818734943867 7.3636587709188452 8.6002435684204084 26.378947921097275 10.088402867317198 107.61805530637503 40.6506582275033 2.8989678323268881 0.97106371819972881 14.203210413455965 0.59972760081291199 5.1834973543882361 1.5605732053518284 8.0765029639005643
leaf_count=8 204 72 45 130 45 573 201 14 5 84 6 29 7 41
internal_value=0 0.00407695 -0.0259024 0.00232338 -0.0110698 0.00656654 -0.00915527 0.00363974 -0.0198145 -0.0229528 0.0612651 0.0120183 0.0139308 0.0124793
internal_weight=0 224.501 35.477 217.137 52.2414 164.896 42.457 11.4992 42.1529 40.5822 1.57079 122.439 117.255 115.695
internal_count=1464 1201 263 1129 270 859 209 59 225 214 11 650 621 614
is_linear=0
shrinkage=0.05


Tree=41
num_leaves=15
num_cat=0
split_feature=1 4 4 9 3 5 8 3 2 5 9 8 5 6
split_gain=9.13644 5.98238 8.07843 7.03289 5.69324 5.20209 4.84681 4.79797 4.11758 4.83497 3.73188 5.7647 4.30668 4.24769
threshold=-0.18661955054809273 0.079420774652542644 0.054271294032511137 1.5636450107488971 2.7970985787512004 0.049061100922574576 -0.37630013269334195 1.5918796184818247 1.5849429508489654 0.027728458155099344 -0.26996820335581412 -0.52645034026643944 0.032473996441754416 -0.32973559019667675
decision_type=2 2 2 2 2 2 2 2 2 2 2 2 2 2
left_child=7 2 3 4 5 -2 -7 10 -3 -10 11 13 -13 -1
right_child=1 8 -4 -5 -6 6 -8 -9 9 -11 -12 12 -14 -15
leaf_value=0.0038194727494158271 -0.018396870214012265 -0.044876601994071369 0.071125854485366471 0.037656292801730183 0.072294499047519584 -0.068875999580194677 0.098760799286924855 0.056462599583191497 0.063038414634765547 -0.046292564101234904 0.015322281410854677 -0.021848978262386812 0.053100062590324348 0.044679882235467032
leaf_weight=46.785164520144463 65.947653710842133 18.01713148504496 3.3188861384987822 7.4503338187932959 1.8844919949769963 0.57133430242538485 1.7576752454042424 4.8767595365643492 2.1204010918736449 1.9331428781151769 63.132359102368355 30.77936364710331 2.0439649522304526 7.3612040877342215
leaf_count=254 377 138 17 35 11 3 10 59 13 16 337 151 9 34
internal_value=0 -0.0115583 -0.00526555 -0.00853227 -0.013437 -0.0158032 0.0576375 0.0076547 -0.0346329 0.0108983 0.00606895 -0.000648164 -0.0171818 0.00937445
internal_weight=0 103.001 80.9304 77.6115 70.1612 68.2767 2.32901 154.979 22.0707 4.05354 150.102 86.9697 32.8233 54.1464
internal_count=1464 620 453 436 401 390 13 844 167 29 785 448 160 288
is_linear=0
shrinkage=0.05


Tree=42
num_leaves=15
num_cat=0
split_feature=0 6 4 7 8 8 6 9 8 8 5 9 5 6
split_gain=9.75274 5.50762 5.2905 6.03681 8.4323 8.51394 6.75676 5.41106 5.46563 5.4279 5.21618 5.19344 6.59176 4.06103
threshold=0.16595619594746178 0.35235980894835833 -0.01276226755525931 0.1057658754737498 -0.64870886841419384 0.22498096868731282 0.48967369434157776 1.7739228338758788 -0.29421336983204216 -0.31126855072398479 -0.012452660624160793 -0.42476207166819541 -0.011719664334813603 0.9805567239402766
decision_type=2 2 2 2 2 2 2 2 2 2 2 2 2 2
left_child=2 -2 7 4 -4 -6 -7 8 9 10 -1 -12 -13 -3
right_child=1 13 3 -5 5 6 -8 -9 -10 -11 11 12 -14 -15
leaf_value=0.036204345383935362 -0.038849439305678149 0.020728957003084816 0.016564586949617401 0.024541388505422999 -0.047442007382851828 -0.034733393278346548 0.064761635903861983 0.044402502610285291 -0.0043998812792679712 0.10461009513126451 -0.022633719684707856 -0.034628733028537736 0.018918021304190166 -0.047882494967226678
leaf_weight=18.322228834033012 23.02801851183176 8.6078607365488988 12.173081547021864 10.117855802178381 22.91280256211758 3.3356685489416114 3.4935003593564034 9.6796654537320119 71.355462342500687 1.6289855688810337 12.740050233900545 6.4992049857974044 49.688712298870087 2.8776554465293875
leaf_count=133 204 45 58 46 130 23 17 58 375 8 66 34 253 14
internal_value=0 -0.0247434 0.00382749 -0.0101224 -0.0184898 -0.0328372 0.0161639 0.00809936 0.00590631 0.0141805 0.0124921 0.00618904 0.0127243 0.0035386
internal_weight=0 34.5135 221.947 52.0329 41.9151 29.742 6.82917 169.914 160.235 88.8792 87.2502 68.928 56.1879 11.4855
internal_count=1464 263 1201 274 228 170 40 927 869 494 486 353 287 59
is_linear=0
shrinkage=0.05


Tree=43
num_leaves=15
num_cat=0
split_feature=0 5 3 7 8 7 0 1 2 2 1 1 2 2
split_gain=9.00379 6.41528 5.53317 4.34445 7.51991 4.1967 4.39762 4.28928 4.85896 4.05594 4.0193 4.07504 3.96909 4.53001
threshold=0.10554087722811235 0.027797524674764276 1.5918796184818247 -0.16804191070937499 -0.65068452904015572 -0.25212498730813632 0.1370944665267988 -0.18607993197585512 -0.36721231000813898 -0.35861886800784876 -0.18412690710926713 0.41033361746331437 -0.15296317988364735 -0.28722759554245797
decision_type=2 2 2 2 2 2 2 2 2 2 2 2 2 2
left_child=2 5 3 4 -1 7 -7 8 -2 -10 -8 -12 13 -3
right_child=1 12 -4 -5 -6 6 10 -9 9 -11 11 -13 -14 -15
leaf_value=0.01292368343113131 -0.02850142491186812 0.020018045768246413 0.051631127450226758 0.013945905750803131 -0.012049270135922111 -0.043413074706494463 0.057572519242207347 -0.054723999513910986 0.12795049008008463 -0.017833979826208254 -0.032294777454050093 0.067456296089413212 -0.024681544433399837 0.1329170248214265
leaf_weight=50.717916205525398 12.384250454604624 7.6072577387094489 6.1788142472505561 65.889346860349178 74.314781107008457 4.7124743014574042 3.5683722496032706 16.030529625713829 0.9827595055103302 0.92725120484828838 4.5305208861827841 1.3227889016270635 4.5129228457808486 1.0060005038976658
leaf_count=271 73 39 69 346 374 23 16 168 5 5 26 7 36 6
internal_value=0 -0.0174112 0.00506304 0.00355595 -0.00191931 -0.0264793 -0.00397792 -0.036967 -0.0170531 0.0571766 0.0157465 -0.00975204 0.0133025 0.0332043
internal_weight=0 57.5851 197.101 190.922 125.033 44.4589 14.1342 30.3248 14.2943 1.91001 9.42168 5.85331 13.1262 8.61326
internal_count=1464 404 1060 991 645 323 72 251 83 10 49 33 81 45
is_linear=0
shrinkage=0.05


Tree=44
num_leaves=15
num_cat=0
split_feature=0 3 0 0 4 1 5 7 7 7 8 0 0 0
split_gain=8.50033 6.80409 4.4741 5.00146 6.84578 4.90428 4.67799 4.15127 4.77889 4.65988 4.92556 4.80272 4.72116 5.49334
threshold=0.16595619594746178 2.7970985787512004 -0.10433505882467618 -0.099468318780302503 -1.0000000180025095e-35 -0.11428530983819392 0.028211923792753873 0.77933131147618184 0.67879054059473198 0.35782145775510588 -0.62523337156453007 -0.031013074200101392 0.10334817017515278 0.01355414232346706
decision_type=2 2 2 2 2 2 2 2 2 2 2 2 2 2
left_child=1 2 -1 4 -4 6 7 8 9 10 11 -5 13 -12
right_child=-2 -3 3 5 -6 -7 -8 -9 -10 -11 12 -13 -14 -15
leaf_value=0.017724472228526199 -0.023531846518304644 0.061415778610151989 -0.0070860785441384331 0.032915626906076884 -0.082273475858862688 -0.015387437072875088 0.039626859372656184 0.043423751371929956 -0.057901135842131218 0.032927905214327285 -0.013497481900206909 -0.0048122192765557717 -0.042620586958968157 0.021731010838125231
leaf_weight=38.210630059242249 33.373338773846626 4.9655686616897574 10.29847080260515 17.428869478404522 4.2879407554864875 34.345546081662178 9.5143047422170621 6.0775566399097434 3.3416234701871863 11.480948403477667 38.770648702979095 16.347169689834111 8.9593597352504712 15.485962830483912
leaf_count=224 263 53 52 92 20 200 46 38 16 60 196 76 51 77
internal_value=0 0.00355262 0.00221343 -0.00114765 -0.0291888 0.00138103 0.00590138 0.00317962 0.000992197 0.00280647 -0.000759008 0.0146558 -0.0089951 -0.00344254
internal_weight=0 219.515 214.549 176.338 14.5864 161.752 127.406 117.892 111.815 108.473 96.992 33.776 63.216 54.2566
internal_count=1464 1201 1148 924 72 852 652 606 568 552 492 168 324 273
is_linear=0
shrinkage=0.05


Tree=45
num_leaves=15
num_cat=0
split_feature=0 3 1 5 7 2 9 4 5 4 0 7 5 4
split_gain=7.77545 6.45137 4.81656 4.21567 5.81505 4.89247 4.59741 3.81719 3.60323 4.902 3.85107 3.72961 3.58593 3.54017
threshold=0.17310477747784211 2.7970985787512004 -0.17424904585037512 -0.01309653882361775 -0.1723359042518067 -0.15296317988364735 -0.3936576897507344 -0.2960541738476033 -0.01166173757638495 -0.044912819807353628 -0.10387155977283108 0.34753536936024892 0.013001693800737851 -0.2960541738476033
decision_type=2 2 2 2 2 2 2 2 2 2 2 2 2 2
left_child=1 3 12 -1 5 -5 -6 -7 9 -8 -11 -12 -2 -14
right_child=2 -3 -4 4 6 7 8 -9 -10 10 11 -13 13 -15
leaf_value=0.021101972874791139 0.07719760538598873 0.060908279878316263 -0.042241740649090108 -0.0019019699886669772 -0.061247978394906748 0.095750053063528906 0.086027279735503406 -0.029466184130677194 0.016952488833285345 0.013288598093540528 -0.029911259446303091 -0.13184498139252263 0.069528490869427695 -0.018027549824924022
leaf_weight=25.613088756799698 1.2674811482429493 4.7617558799684039 16.159354127943516 91.829209841787815 2.1476891264319411 0.62359008938074367 0.9407246708869933 25.392484739422798 61.618936896324158 2.4058176353573799 2.44691190123558 1.4170354902744291 1.2635759860277165 13.373320594429968
leaf_count=172 7 53 164 440 10 4 4 166 326 13 12 7 6 80
internal_value=0 0.0033453 -0.0230162 0.00206706 -0.000514959 -0.00732458 0.0107912 -0.0264648 0.0130391 -0.0204038 -0.0363729 -0.0672937 -0.00348251 -0.010469
internal_weight=0 219.197 32.0637 214.435 188.822 117.845 70.9771 26.0161 68.8294 7.21049 6.26977 3.86395 15.9044 14.6369
internal_count=1464 1207 257 1154 982 610 372 170 362 36 32 19 93 86
is_linear=0
shrinkage=0.05


Tree=46
num_leaves=15
num_cat=0
split_feature=0 6 5 2 8 0 6 7 8 8 4 7 6 0
split_gain=7.16124 8.35504 4.77505 5.0689 4.72242 4.28304 4.20167 4.10166 5.65502 7.08216 6.999 5.52358 5.11224 4.94387
threshold=0.05259502399811302 0.16934625432852854 0.02796239314106121 -0.15296317988364735 -0.65365964151219236 0.049207915542321824 -1.2576194926405693 0.16305576362092575 -0.65068452904015572 0.22498096868731282 -0.01276226755525931 0.29997156094617478 0.48967369434157776 0.040098376484904434
decision_type=2 2 2 2 2 2 2 2 2 2 2 2 2 2
left_child=5 2 6 4 -4 7 -2 8 -1 10 13 -9 -11 -10
right_child=1 -3 3 -5 -6 -7 -8 11 9 12 -12 -13 -14 -15
leaf_value=0.013536072888270268 0.060257143506675818 0.0048388689489819725 -0.052678579716443186 -0.057288743668384878 0.056128566650522106 0.081885009152900867 -0.042196585754939765 0.057828730256604989 -0.0096868850378269786 -0.00093434827786851291 -0.041139891019146467 0.0097189640309825482 0.054644729274548054 0.046260450720286672
leaf_weight=52.247745633125305 1.0366208329796816 33.248699106276035 1.2994989082217214 2.3063416853547087 4.2870135009288788 1.8080938905477513 28.883715063333511 7.4049130678176871 46.880725145339966 10.290931373834612 18.110891908407211 30.706075716763735 6.9192470833659163 4.311818115413188
leaf_count=309 5 174 7 25 22 10 255 43 238 50 97 171 36 22
internal_value=0 -0.0134447 -0.0295212 0.00507304 0.0308185 0.00532054 -0.038647 0.00453785 0.000547506 -0.00729662 -0.0144256 0.0190666 0.0214109 -0.00497458
internal_weight=0 71.0619 37.8132 7.89285 5.58651 178.68 29.9203 176.872 138.761 86.5136 69.3034 38.111 17.2102 51.1925
internal_count=1464 488 314 54 29 976 260 966 752 443 357 214 86 260
is_linear=0
shrinkage=0.05


Tree=47
num_leaves=15
num_cat=0
split_feature=3 0 6 5 6 0 7 7 9 9 5 7 5 5
split_gain=6.86018 6.6775 8.10817 5.06132 4.31676 3.9739 3.97254 5.27577 4.05227 6.62235 8.2493 3.82232 7.33 3.68527
threshold=1.5918796184818247 0.05259502399811302 0.16934625432852854 0.02796239314106121 -1.2514816055641902 0.049207915542321824 0.16305576362092575 0.29997156094617478 -0.41494846621602566 -0.42451219494931253 0.0054934947274854701 0.35782145775510588 -0.0075266582054780038 0.0072402092893340949
decision_type=2 2 2 2 2 2 2 2 2 2 2 2 2 2
left_child=1 5 3 4 -3 6 8 -8 9 10 -1 12 -9 -10
right_child=-2 2 -4 -5 -6 -7 7 11 13 -11 -12 -13 -14 -15
leaf_value=0.020262248702297578 0.052536829166894394 0.033752588003523314 0.0035574481153717429 0.0048172062253419691 -0.04564662179528739 0.079397114733512325 0.056488879055429479 0.026886895345059031 -0.011702558766125569 0.041748782459067796 -0.040612845062645585 0.013588128542464443 -0.15344555827370682 0.011092985548296011
leaf_weight=14.886530295014383 6.0569649264216414 1.8293914198875452 32.763137266039848 7.8429836109280577 26.642795965075493 1.7262224555015553 7.0685824677348128 1.2600284069776537 73.729684263467789 13.127584166824816 8.8877402693033201 27.809364847838879 1.0193891227245355 23.343546167016029
leaf_count=97 72 11 171 54 246 9 41 7 368 72 44 152 5 115
internal_value=0 -0.00133722 -0.0144774 -0.0307482 -0.0405451 0.00391389 0.00315249 0.0176178 -0.000859395 0.0132443 -0.00249521 0.00848604 -0.0537604 -0.00622083
internal_weight=0 241.937 69.0783 36.3152 28.4722 172.859 171.132 37.1574 133.975 36.9019 23.7743 30.0888 2.27942 97.0732
internal_count=1464 1392 482 311 257 910 901 205 696 213 141 164 12 483
is_linear=0
shrinkage=0.05


Tree=48
num_leaves=15
num_cat=0
split_feature=3 1 6 0 6 6 1 4 8 0 5 6 5 5
split_gain=6.4562 6.2693 5.23481 4.83692 4.30999 3.80729 4.12977 3.80559 3.7997 3.57921 3.4387 4.65883 3.99689 3.81584
threshold=2.7970985787512004 -0.16027732163077049 0.19414579807147428 -0.11153712101488485 1.138595088948658 1.1959907913273187 0.47135001385415692 -0.053939444202867635 2.5911421275012985 0.080868466160664856 -0.01309653882361775 0.083581165550841302 0.0087463050084790831 0.0053598175926501167
decision_type=2 2 2 2 2 2 2 2 2 2 2 2 2 2
left_child=1 4 9 -4 8 6 -5 -8 10 -3 -1 -12 13 -13
right_child=-2 2 3 5 -6 -7 7 -9 -10 -11 11 12 -14 -15
leaf_value=0.02154371636967228 0.060204807473682814 -0.014947134106684083 0.090187833918904836 -0.0096152196548055097 0.03516987544328997 -0.061273822056134679 -0.044188869103352749 0.049026865322837218 -0.066765331812692633 -0.050612574111844694 -0.010218603851196167 0.0041075959112370272 0.024090803873097946 -0.045991773595696894
leaf_weight=21.318371776491404 4.3710784800350657 16.546865850687031 1.3677366971969593 29.065163619816303 10.419443219900129 2.8351711481809607 1.3359259366989134 6.0693941041827193 1.9845732748508442 12.236522555351256 62.009740836918354 46.532495889812708 26.128848187625408 4.1387707218527785
leaf_count=150 53 99 6 150 65 13 7 28 10 163 324 242 133 21
internal_value=0 -0.00110803 -0.0137921 -0.00224486 0.00399824 -0.00546129 -0.00112249 0.0322107 0.00199476 -0.0301094 0.00284694 -2.44992e-05 0.0082064 1.55371e-05
internal_weight=0 241.989 69.4568 40.6734 172.532 39.3057 36.4705 7.40532 162.113 28.7834 160.128 138.81 76.8001 50.6713
internal_count=1464 1411 466 204 945 198 185 35 880 262 870 720 396 263
is_linear=0
shrinkage=0.05


Tree=49
num_leaves=15
num_cat=0
split_feature=3 0 7 5 5 1 7 8 0 7 7 8 8 4
split_gain=6.09019 5.92049 5.55171 4.867 4.46991 4.55822 3.91289 3.69481 3.65882 3.69575 5.01347 4.45369 5.2587 5.84003
threshold=2.7970985787512004 0.05259502399811302 -0.27924747195973315 0.02796239314106121 0.028211923792753873 -0.12562642413653408 -0.063759060276701932 -0.65365964151219236 0.047068689149190532 0.16305576362092575 0.29997156094617478 -0.65068452904015572 0.22498096868731282 -0.01276226755525931
decision_type=2 2 2 2 2 2 2 2 2 2 2 2 2 2
left_child=1 8 3 -3 -5 7 -4 -6 9 11 -11 -1 13 -13
right_child=-2 2 6 4 5 -7 -8 -9 -10 10 -12 12 -14 -15
leaf_value=0.01091532265725341 0.059754495116904206 -0.033130618703346874 0.040017576699624004 0.28359936812866865 -0.050547934267070674 -0.056720609855913443 -0.0061261840784325424 0.044371884072597297 0.061434133770769797 0.055034644980243977 0.0080149314372564544 -0.0054560802029836666 0.017620915452625837 -0.039065620503553937
leaf_weight=49.648392889648676 4.1884406916797152 33.936659920960665 6.0943374261260059 0.14522157609462638 1.2801687419414509 2.287196233868598 18.664377838373184 5.1480054706335068 2.7143787667155257 6.9948550760745993 29.912555903196335 50.17708383500576 16.179552540183067 17.409437343478203
leaf_count=282 53 295 34 1 7 26 94 25 14 43 166 249 80 95
internal_value=0 -0.00105999 -0.0136129 -0.0245149 0.00848368 0.00389951 0.00523206 0.0254686 0.00384086 0.00292301 0.0169263 -0.000950826 -0.00798393 -0.0141135
internal_weight=0 240.592 67.556 42.7973 8.86059 8.71537 24.7587 6.42817 173.036 170.322 36.9074 133.414 83.7661 67.5865
internal_count=1464 1411 482 354 59 58 128 32 929 915 209 706 424 344
is_linear=0
shrinkage=0.05


Tree=50
num_leaves=15
num_cat=0
split_feature=3 2 9 7 7 8 0 0 8 8 5 5 5 0
split_gain=5.74708 5.489 4.35872 4.17807 5.02998 5.32643 4.78844 4.76728 4.46397 5.84439 4.1715 3.56145 5.7117 3.96906
threshold=2.7970985787512004 -0.11058003307526527 -0.26996820335581412 0.086911228977437679 0.24901322800138623 -0.060891724525085802 0.096360030624257242 0.040098376484904434 -0.51025038799487643 0.27845704181658987 -0.01309653882361775 0.030691634643949691 0.046287300374740985 0.05259502399811302
decision_type=2 2 2 2 2 2 2 2 2 2 2 2 2 2
left_child=1 2 10 6 -5 -6 7 8 -3 -10 -1 13 -13 -12
right_child=-2 3 -4 4 5 -7 -8 -9 9 -11 11 12 -14 -15
leaf_value=0.019876563988267565 0.059323021644060364 0.053687442893640781 0.012068401175202201 0.051918827503684165 0.040567730537629069 -0.026845435378778888 -0.048597875408105472 0.029462751301059704 -0.04599968216254248 0.019073459221812018 -0.0041725245644865924 0.052634308810220271 -0.02713231188723746 -0.029227661846141669
leaf_weight=15.976464074105023 4.0124138966202727 1.7489138394594252 79.299009326845407 4.3519223928451565 3.9777815937995937 11.125239416956896 12.988893657922743 5.5962459444999686 13.930287383496763 4.5865000337362281 53.765208594501019 5.6768246591091138 3.7114417627453804 22.388424690812826
leaf_count=122 53 8 438 19 17 53 161 33 83 23 255 27 17 155
internal_value=0 -0.00101681 0.0032849 -0.0143573 0.00455691 -0.00909039 -0.0238287 -0.0113887 -0.0226695 -0.0298814 -0.00357615 -0.00795636 0.0211004 -0.0115385
internal_weight=0 239.123 180.817 58.3058 19.4549 15.103 38.8508 25.8619 20.2657 18.5168 101.518 85.5419 9.38827 76.1536
internal_count=1464 1411 1014 397 89 70 308 147 114 106 576 454 44 410
is_linear=0
shrinkage=0.05


Tree=51
num_leaves=15
num_cat=0
split_feature=3 1 0 9 8 0 8 8 8 7 0 1 8 5
split_gain=5.42501 5.10114 4.49564 4.19063 3.3124 3.22617 3.19957 8.95733 5.87883 5.41625 4.50444 5.81667 4.50165 3.94789
threshold=2.7970985787512004 -0.16027732163077049 0.17934418779114172 0.33531320169086926 -0.57758508587956869 -0.10355067581386139 -0.29421336983204216 -0.18640428193913028 -0.23733913718304453 -0.076062205096258675 -0.0046292820181488724 -0.18751317898938449 -0.41036068923500013 0.046732890824192165
decision_type=2 2 2 2 2 2 2 2 2 2 2 2 2 2
left_child=1 3 5 6 -5 -3 10 8 9 -8 13 -12 -13 -1
right_child=-2 2 -4 4 -6 -7 7 -9 -10 -11 11 12 -14 -15
leaf_value=0.015699033835913572 0.058909550313245074 0.028948983149926978 -0.040253283765158292 -0.033811645298256643 0.033636417575287181 -0.01069270083022655 -0.08772081721041089 -0.00060667930632117475 -0.1047938074635285 0.029208577174125186 -0.020314770713504522 0.016667879469482873 0.13912361762889078 -0.069137598428681724
leaf_weight=63.74441247060895 3.8428380191326132 5.7258042991161338 12.082887712866066 2.0477929562330273 16.385978776961565 49.525134358555079 1.6503044590353964 49.817709919065237 3.6289245262742034 2.4765369594097137 23.789096519351009 4.3390971571207047 0.90746292471885581 1.401468589901923
leaf_count=360 53 27 142 13 110 297 9 256 18 14 127 28 4 6
internal_value=0 -0.000976995 -0.0126263 0.00363196 0.0261437 -0.00658453 0.000897449 -0.00838827 -0.0583719 -0.0175509 0.00657384 -0.00980508 0.0378482 0.013874
internal_weight=0 237.523 67.3338 170.189 18.4338 55.2509 151.755 57.5735 7.75577 4.12684 94.1815 29.0357 5.24656 65.1459
internal_count=1464 1411 466 945 123 324 822 297 41 23 525 159 32 366
is_linear=0
shrinkage=0.05


Tree=52
num_leaves=15
num_cat=0
split_feature=3 1 0 6 5 0 5 5 6 0 0 0 9 6
split_gain=5.12156 4.73945 5.32333 6.19847 4.90857 3.84625 3.59184 4.78849 4.34503 3.26039 4.22496 9.59707 3.32287 6.59472
threshold=2.7970985787512004 -0.18661955054809273 0.071224120504964641 0.66637044351006647 0.02796239314106121 0.1747091972726906 0.046287300374740985 0.032473996441754416 1.066713227016802 -0.10387155977283108 -0.065418965356296224 -0.031013074200101392 -0.42476207166819541 -1.2563381828805171
decision_type=2 2 2 2 2 2 2 2 2 2 2 2 2 2
left_child=1 6 -3 4 -4 -6 7 8 9 -1 -11 -12 13 -13
right_child=-2 2 3 -5 5 -7 -8 -9 -10 10 11 12 -14 -15
leaf_value=0.017155615746501374 0.058513311427588303 -0.0014633888605263749 -0.056156757338063246 0.0040009519946302601 0.065914621042178864 -0.035271312079355861 -0.041908158841314339 0.058823158193228975 0.034177383038545804 -0.019202152647699432 0.035892499206773863 0.099660441632199531 0.00056788661855275055 -0.038234120783077967
leaf_weight=26.954124111682177 3.6795489788055411 62.775282554328442 15.665369845926767 10.454350523650644 1.6059041135013097 2.2620035521686077 4.008024960756301 4.1776373982429496 11.284107528626917 27.241229087114334 17.644904688000672 0.93312190473079581 39.042310606688275 12.244438596069804
leaf_count=175 53 320 198 53 11 26 18 21 75 139 101 4 200 70
internal_value=0 -0.000933567 -0.00974188 -0.0270718 -0.0437022 0.00673975 0.00475922 0.00609982 0.00447243 0.00177056 -0.00249994 0.00401248 -0.00675966 -0.0284696
internal_weight=0 236.293 92.7629 29.9876 19.5333 3.86791 143.53 139.522 135.344 124.06 97.106 69.8648 52.2199 13.1776
internal_count=1464 1411 608 288 235 37 803 785 764 689 514 375 274 74
is_linear=0
shrinkage=0.05


Tree=53
num_leaves=15
num_cat=0
split_feature=3 2 2 7 0 0 9 6 9 0 7 0 5 0
split_gain=4.83665 4.38262 4.04872 4.80048 7.05605 6.3557 3.71081 3.99259 3.67883 3.47546 3.03935 3.13762 5.43585 5.09583
threshold=2.7970985787512004 -0.11058003307526527 -0.02501810722963951 -0.18179624110959006 0.0691740285448805 0.040098376484904434 -0.26996820335581412 -1.2563381828805171 1.8807453682384103 -0.10536901824802299 0.92122681944635754 0.05259502399811302 0.030691634643949691 0.28790992724255449
decision_type=2 2 2 2 2 2 2 2 2 2 2 2 2 2
left_child=1 6 -3 4 5 8 7 -1 -4 -5 11 -9 13 -13
right_child=-2 2 3 9 -6 -7 -8 10 -10 -11 -12 12 -14 -15
leaf_value=0.029689420809980511 0.058133587356609145 -0.043321683992952324 -0.02769116624684731 0.077565663876330945 -0.055058680650838521 0.058881702810043582 0.011107240552827993 -0.0020158531931693613 0.048431875175239503 0.0046111302848595749 0.049380311341780572 -0.039762730013796918 0.025575668071970842 0.070351039932788281
leaf_weight=8.3404102101922017 3.5223801694810382 9.2248218022286874 11.526234135031705 1.7858166694641138 9.7433166541159135 3.4533547163009635 78.276507079601288 63.828912541270256 1.8405949622392643 19.012147970497608 2.3749091178178778 19.568358376622207 4.7280163541436186 1.1102978140115727
leaf_count=58 53 63 71 9 136 18 438 330 8 92 13 144 23 8
internal_value=0 -0.000894292 -0.0130172 -0.00711466 -0.0212 -0.0015869 0.00295467 -0.00343001 -0.0172091 0.0108754 -0.00644527 -0.00793101 -0.0227916 -0.0338504
internal_weight=0 234.814 56.5863 47.3615 26.5635 16.8202 178.227 99.9509 13.3668 20.798 91.6105 89.2356 25.4067 20.6787
internal_count=1464 1411 397 334 233 97 1014 576 79 101 518 505 175 152
is_linear=0
shrinkage=0.05


Tree=54
num_leaves=15
num_cat=0
split_feature=3 6 6 0 1 8 2 0 0 4 4 4 8 7
split_gain=4.58786 4.31768 5.8175 4.08173 3.6485 4.14896 3.995 3.27439 4.21457 5.74089 5.36527 4.00352 6.4422 5.03158
threshold=1.5918796184818247 0.083581165550841302 -1.1210566717627481 0.13049851848131069 -0.16899345979230443 -0.48438039046654685 -0.28722759554245797 -0.10433505882467618 -0.099468318780302503 -0.039923706624893328 -1.0000000180025095e-35 -0.069708848267319809 -0.25543618851685468 -0.15627226217549525
decision_type=2 2 2 2 2 2 2 2 2 2 2 2 2 2
left_child=1 2 4 -4 6 -6 -1 -3 10 11 -9 12 -10 -13
right_child=-2 7 3 -5 5 -7 -8 8 9 -11 -12 13 -14 -15
leaf_value=0.0082124004690344952 0.048550549208640548 0.02268976926218836 -0.011328370328452861 -0.041859331059607742 -0.06446511065110283 0.064477921471111796 0.095470569917690373 -0.0058046181574812885 0.062996354436437266 0.01141487581541983 -0.081936667428058094 -0.079388783580137567 -0.017948040348150476 -0.0011315757860545484
leaf_weight=32.81354645639658 4.7630495615303508 21.618758223950863 47.106340825557709 14.26148349791765 3.1688028611242776 0.77678397670388122 1.3663497492671002 8.1627084240317327 3.0795233659446248 75.873685732483864 3.2298608124256125 4.6366006731987 12.181544158607721 3.6875217556953412
leaf_count=201 72 119 263 172 28 8 8 42 16 411 16 22 68 18
internal_value=0 -0.00102256 -0.00889388 -0.0184236 0.00644536 -0.0390796 0.0117006 0.00488929 0.00141776 0.00471738 -0.0273885 -0.0168285 -0.00161431 -0.0447214
internal_weight=0 231.964 99.4933 61.3678 38.1255 3.94559 34.1799 132.47 110.851 99.4589 11.3926 23.5852 15.2611 8.32412
internal_count=1464 1392 680 435 245 36 209 712 593 535 58 124 84 40
is_linear=0
shrinkage=0.05


Tree=55
num_leaves=15
num_cat=0
split_feature=3 9 1 8 8 1 8 8 7 1 4 6 6 1
split_gain=4.35684 3.98865 5.67992 3.48401 4.92858 3.21853 2.95758 6.61657 5.44828 4.82184 6.31296 4.13894 4.14719 4.06566
threshold=2.7970985787512004 0.74412949236218306 -0.11428530983819392 -0.56294195418126358 -0.6315089994352322 -0.077642747064400594 -0.29421336983204216 -0.18640428193913028 -0.078259784272698155 -0.13363662461073769 0.12618521429195256 0.016415734580363186 -1.241747784645084 -0.17672919698453246
decision_type=2 2 2 2 2 2 2 2 2 2 2 2 2 2
left_child=1 2 6 4 -3 -4 11 8 -8 13 -11 12 -1 -9
right_child=-2 3 5 -5 -6 -7 7 9 -10 10 -12 -13 -14 -15
leaf_value=0.020561659088580604 0.057475829213078755 0.020135412764636568 -0.057269035293332493 0.025765946175272048 -0.12758905474955828 -0.014886303795806062 -0.077897789646732343 0.0029483693920961075 -0.0043176292842511364 0.099136889782231979 -0.065257516421159942 0.02035400288935689 -0.0082511983374268603 -0.028505520389228933
leaf_weight=16.688630063086748 3.2486170977354041 1.4244805499911311 5.242162697017192 20.318238791078329 0.93537615239620464 30.78531913086772 5.5234638415277004 46.105477094650269 4.6202132776379568 2.40316404774785 0.77144699543714512 34.494642544537783 49.626268088817596 13.219187442213295
leaf_count=114 53 9 41 121 5 255 34 242 26 12 6 186 284 76
internal_value=0 -0.00083159 -0.00298796 0.019087 -0.0384181 -0.0210532 0.000764333 -0.00692701 -0.0443837 -0.000847759 0.0591882 0.00630668 -0.00100023 -0.00406043
internal_weight=0 232.158 209.48 22.6781 2.35986 36.0275 173.452 72.643 10.1437 62.4993 3.17461 100.81 66.3149 59.3247
internal_count=1464 1411 1276 135 14 296 980 396 60 336 18 584 398 318
is_linear=0
shrinkage=0.05


Tree=56
num_leaves=15
num_cat=0
split_feature=3 2 5 6 2 9 8 7 7 5 5 9 9 5
split_gain=4.11727 3.63346 3.96113 3.49208 3.51487 3.37873 3.13903 3.98623 2.87892 3.61446 2.89649 5.43916 3.89039 3.47577
threshold=2.7970985787512004 -0.11058003307526527 0.077924222285774766 0.19414579807147428 -0.0080511026348730821 0.33531320169086926 0.19456952240239139 -0.051593042012828806 0.77933131147618184 -0.013874094157910058 -0.011860025326390725 -0.41790289738653047 -0.42476207166819541 -0.012310071680336416
decision_type=2 2 2 2 2 2 2 2 2 2 2 2 2 2
left_child=1 5 3 -3 6 8 -5 -8 9 -1 11 -11 -12 -13
right_child=-2 2 -4 4 -6 -7 7 -9 -10 10 12 13 -14 -15
leaf_value=0.020125100454040989 0.0571394778213207 -0.031018623151093536 0.10889439983895897 -0.062960237094233748 0.0040596559034311126 0.021050684530141528 0.08955554199132125 -0.029921497477884414 0.02992654229977966 0.054155051679880731 -0.020383939028457608 -0.02022335546041451 0.0023259842766466207 -0.085752264553707491
leaf_weight=17.107647210359573 3.1079111583530894 18.664019655436277 0.6693265438079824 4.2507466524839392 27.789954513311386 21.981330368667841 0.93036051094532046 2.7967612892389297 7.6840651035308829 1.6107863001525391 23.492097906768322 5.1285073757171622 95.606234721839428 3.3424775451421729
leaf_count=132 53 206 4 21 148 143 5 13 46 8 146 26 497 16
internal_value=0 -0.000795656 -0.0120001 -0.0134867 -0.00433839 0.00271312 -0.033592 -9.77553e-05 9.52076e-05 -0.00147174 -0.00433187 -0.030065 -0.00215354 -0.0460797
internal_weight=0 231.054 55.1012 54.4318 35.7678 175.953 7.97787 3.72712 153.972 146.288 129.18 10.0818 119.098 8.47098
internal_count=1464 1411 397 393 187 1014 39 18 871 825 693 50 643 42
is_linear=0
shrinkage=0.05


Tree=57
num_leaves=15
num_cat=0
split_feature=3 9 2 5 5 5 7 0 0 6 7 2 9 8
split_gain=3.89161 3.45156 4.08241 4.88341 5.79052 4.61305 4.18912 3.89411 3.86268 5.98153 3.86754 3.80759 3.7201 4.44203
threshold=2.7970985787512004 0.74412949236218306 -0.28203361427906098 0.046287300374740985 0.030691634643949691 0.077924222285774766 0.77933131147618184 -0.12098537091788136 0.071224120504964641 0.77383513306283114 0.32746826190564643 -0.33349854899708981 0.18382693604403386 0.51088770369445013
decision_type=2 2 2 2 2 2 2 2 2 2 2 2 2 2
left_child=1 2 3 4 6 8 7 11 12 -10 -11 -1 -4 -14
right_child=-2 -3 5 -5 -6 -7 -8 -9 9 10 -12 -13 13 -15
leaf_value=0.030885466650207551 0.056817266740326777 0.017901697490246612 -0.00020608159647108725 -0.04946059894772762 0.051322781710591639 0.081205641922167074 0.040936984762657017 -0.0035856471510920572 -0.049155992792824697 0.047591621726411466 -0.035194200111373822 -0.10082025587347065 -0.06280147702119758 0.049438223512408425
leaf_weight=12.582860264927147 2.9726786203682414 22.369310822337866 35.330169439315796 4.4870764762163153 6.0631540343165389 1.2647303938865651 6.3687896504998198 114.1273181438446 15.200576290488245 3.1784487068653098 2.5367627888917923 0.57378097623586555 4.9365980997681609 1.0731393843889234
leaf_count=96 53 135 190 20 30 7 42 611 216 16 12 4 27 5
internal_value=0 -0.00075965 -0.00276925 0.00188292 0.00353185 -0.0133305 0.00136381 -0.000616272 -0.015251 -0.0327605 0.0108462 0.0251416 -0.00639219 -0.0427592
internal_weight=0 230.093 207.723 144.203 139.716 63.5204 133.653 127.284 62.2557 20.9158 5.71521 13.1566 41.3399 6.00974
internal_count=1464 1411 1276 803 783 473 753 711 466 244 28 100 222 32
is_linear=0
shrinkage=0.05


Tree=58
num_leaves=15
num_cat=0
split_feature=0 9 2 2 7 1 9 7 5 7 8 8 0 5
split_gain=3.03088 4.74273 4.05987 4.9438 4.44702 4.0734 4.27807 3.65581 3.31714 4.10645 3.30555 3.81966 3.23193 3.20646
