tree
version=v3
num_class=1
num_tree_per_iteration=1
label_index=0
max_feature_idx=9
objective=binary sigmoid:1
feature_names=Column_0 Column_1 Column_2 Column_3 Column_4 Column_5 Column_6 Column_7 Column_8 Column_9
feature_infos=[-39.599748861351209:8.9000788482569213] [-1.662425519084197:32.507701955788043] [-1.7885478797273402:23.521722816805894] [-0.2159488219222388:5.8101459794246386] [-27.341941575767965:27.171256957381392] [-34.352181421132713:24.445706336197716] [-1.2680167013547996:15.523717361941239] [-0.29598397758150563:20.207531766523946] [-0.92135003479692401:15.542178607335664] [-0.42558784639417108:15.766073447244642]
tree_sizes=2154 2521 2422 2428 2427 2224 2217 2426 2445 2641 2555 2541 2451 2547 2550 2559 2563 2560 2556 2660 2555 2451 2440 2562 2660 2548 2660 2463 2446 2655 2672 2452 2467 2462

Tree=0
num_leaves=21
num_cat=0
split_feature=2 7 9 3 6 9 2 7 6 9 9 6 6 6 6 7 9 9 7 2
split_gain=237.65 48.8469 33.0152 30.5837 27.5468 35.4999 20.448 11.2315 4.55562 3.73149 3.20938 2.98426 6.46544 2.10191 2.03064 1.68697 1.02913 0.73986 0.428966 0.37769
threshold=-0.34977611490691546 -0.16172081822908507 0.34026558904897458 1.5918796184818247 -1.1994583905769123 -0.31305233597134768 -0.15296317988364735 -0.15240541803153271 0.19988033090201765 -0.30844950980542757 -0.18993282158135746 0.056714993162650058 -0.81953555242143283 -1.2454116589045234 0.76258588332428179 0.38526672327423034 -0.23460025433778134 -0.36449441086781792 0.11653055310983405 0.53575873564278542
decision_type=2 2 2 2 2 2 2 2 2 2 2 2 2 2 2 2 2 2 2 2
left_child=2 6 3 4 13 11 9 16 17 -2 -9 12 -6 -1 -3 -16 -7 19 -4 -8
right_child=1 14 18 -5 5 7 8 10 -10 -11 -12 -13 -14 -15 15 -17 -18 -19 -20 -21
leaf_value=0.13478260869565217 -0.091304347826086957 -0.032000000000000001 0.17538461538461536 0.20000000000000001 -0.024719101123595513 0 -0.17260273972602741 0.12087912087912089 -0.11910112359550562 -0.025454545454545452 0.066666666666666652 -0.0039215686274509803 -0.10769230769230767 0.08666666666666667 0.04313725490196077 -0.0071428571428571426 0.034146341463414637 -0.18666666666666668 0.15172413793103448 -0.15087719298245617
leaf_weight=23 23 12.499999999999998 16.250000000000004 12.999999999999998 22.249999999999996 15.499999999999998 18.25 22.749999999999996 22.25 13.749999999999998 21.000000000000004 12.749999999999998 16.250000000000004 14.999999999999998 12.750000000000002 13.999999999999998 20.5 22.5 14.499999999999998 14.249999999999998
leaf_count=92 92 50 65 52 89 62 73 91 89 55 84 51 65 60 51 56 82 90 58 57
internal_value=0 -0.0949429 0.0683901 0.0521978 0.0408284 0.019084 -0.12807 0.060815 -0.157282 -0.0666667 0.0948571 -0.0458537 -0.0597403 0.115789 0.00127389 0.0168224 0.0194444 -0.172727 0.164228 -0.163077
internal_weight=0 153.25 212.75 182 169 131 114 79.75 77.25 36.75 43.75 51.25 38.5 38 39.25 26.75 36 55 30.75 32.5
internal_count=1464 613 851 728 676 524 456 319 309 147 175 205 154 152 157 107 144 220 123 130
is_linear=0
shrinkage=0.1


Tree=1
num_leaves=23
num_cat=0
split_feature=1 7 3 7 6 6 2 6 6 6 7 2 6 7 7 6 6 6 2 1 6 2
split_gain=195.554 44.4831 24.3598 21.4033 36.6061 10.6554 7.08289 6.2211 4.93832 4.72829 3.07678 2.75418 2.14617 1.51798 1.67095 1.00481 0.919711 1.80852 0.580664 0.793329 0.153022 0.137669
threshold=-0.17979697633239747 -0.036813774874306787 1.5918796184818247 -0.2081581812506226 -1.1994583905769123 0.083581165550841302 -0.15296317988364735 0.38117569046619032 1.1179288024962033 -0.75030349280570918 0.38526672327423034 -0.37001965688100502 0.56820558286090617 0.048427574780090084 0.42073213196253767 -0.94973315707189787 -1.2565758451747202 -1.2387511731094778 0.97724714303152449 -0.11841952784192793 -0.57877331525033437 0.10699558234936889
decision_type=2 2 2 2 2 2 2 2 2 2 2 2 2 2 2 2 2 2 2 2 2 2
left_child=2 6 3 4 16 11 9 18 13 -2 -3 15 -7 -5 -15 -6 -1 -18 19 -8 -17 -21
right_child=1 10 -4 8 5 12 7 -9 -10 -11 -12 -13 -14 14 -16 20 17 -19 -20 21 -22 -23
leaf_value=0.12758279634008127 -0.11906619856806894 0.040777405041976161 0.18316289211378384 0.10412333168469777 -0.0038801270638342809 0.053238116470015563 -0.13833913255508534 -0.08628950749699113 0.15029930205612055 -0.037499121955044311 -0.020535964348299809 -0.076205099192786799 0.0044956785434605625 0.051876759116985971 0.092072482214182572 -0.026765212867080126 0.070812726151745539 0.12272681720572785 -0.13811508416204296 -0.15979301306221491 -0.041648174145013983 -0.17346689374549254
leaf_weight=13.191229090094565 14.724165543913843 16.491837337613106 14.61265482008457 19.681472897529602 16.497524604201313 22.225296065211296 12.910214304924009 18.194092899560928 12.459313973784445 13.737259253859518 16.247511491179466 12.730845764279364 15.219100520014761 22.420049592852592 19.197521105408669 12.483292639255522 14.196442157030104 12.725831374526026 18.883300185203552 12.40404859185219 15.469047144055372 18.117389351129532
leaf_count=53 59 66 59 79 66 89 52 73 50 55 65 51 61 90 77 50 57 51 76 50 62 73
internal_value=0 -0.091866 0.0583491 0.0496014 0.0258959 -0.0080411 -0.122576 -0.137734 0.0929057 -0.0796968 0.0103495 -0.0351962 0.033427 0.0812401 0.0704184 -0.0234509 0.105951 0.0953519 -0.152755 -0.15912 -0.0350016 -0.16791
internal_weight=0 141.71 223.11 208.497 134.739 94.6251 108.97 80.509 73.7584 28.4614 32.7393 57.1807 37.4444 61.299 41.6176 44.4499 40.1135 26.9223 62.315 43.4317 27.9523 30.5214
internal_count=1464 569 895 836 540 379 438 324 296 114 131 229 150 246 167 178 161 108 251 175 112 123
is_linear=0
shrinkage=0.1


Tree=2
num_leaves=22
num_cat=0
split_feature=0 2 6 4 4 0 1 2 0 0 0 6 6 1 0 0 0 0 0 4 2
split_gain=187.178 77.5188 28.4624 23.2316 14.3712 11.3817 10.1993 7.17882 4.97043 5.33794 4.67253 3.85912 3.73371 1.65831 1.26325 5.35106 1.37667 1.25769 0.4224 0.0581563 0.00549871
threshold=0.081724156717917371 -0.34977611490691546 0.39667540530553141 0.0041490588724807887 -0.031100996937109302 -0.1029802154423597 -0.16204614624028965 -0.18055222415880515 0.039795319412544168 -0.065418965356296224 0.177561499130199 -1.169002456332443 -0.43514262440577373 -0.10946413755128227 -0.090911413207777375 -0.062744932364882114 -0.10918397198244044 -0.019247329037879322 -0.061675319168316478 -0.28912107378478374 0.40779981323773867
decision_type=2 2 2 2 2 2 2 2 2 2 2 2 2 2 2 2 2 2 2 2 2
left_child=1 3 7 4 -1 -3 -4 10 9 -7 -2 18 -13 -11 16 -16 -14 -17 -6 -9 -21
right_child=2 5 6 -5 11 8 -8 19 -10 13 -12 12 14 -15 15 17 -18 -19 -20 20 -22
leaf_value=0.020262215597757805 -0.070923819499404642 0.054997479011047581 0.039532111701459982 -0.010386246637311462 0.14988523140911469 -0.021734319816465498 -0.084894337480986126 -0.16622141135888993 0.0032528534328341283 -0.059758505397295818 -0.14039944254214276 0.056796123928781563 0.10432928527502805 -0.10363343569207834 0.044607851615046767 0.14548811174479187 0.14207501813127649 0.10291601571979508 0.12685833584461106 -0.17268360181657022 -0.17561329922852398
leaf_weight=19.835540190339088 16.648556619882584 12.921804547309874 13.41883920133114 22.109695985913277 20.42714349925518 21.840115457773209 12.941229388117788 14.390034049749373 15.539926975965498 15.156216606497759 23.127912119030952 15.656007170677183 19.346117094159126 19.958978801965717 12.871487006545065 12.873238280415533 19.304212972521782 15.0549493432045 13.059028789401053 12.666876807808878 12.962217047810553
leaf_count=80 67 52 54 89 83 88 52 59 63 61 93 63 78 81 52 52 78 61 53 52 53
internal_value=0 0.0462963 -0.111645 0.0852442 0.0994893 -0.0314644 -0.0215539 -0.141406 -0.0468756 -0.0605529 -0.11132 0.11171 0.101431 -0.0846964 0.110226 0.0979534 0.123182 0.122539 0.140905 -0.171309 -0.174165
internal_weight=0 255.954 106.156 170.537 148.428 85.417 26.3601 79.7956 72.4952 56.9553 39.7765 128.592 95.106 35.1152 79.45 40.7997 38.6503 27.9282 33.4862 40.0191 25.6291
internal_count=1464 1034 430 689 600 345 106 324 293 230 160 520 384 142 321 165 156 113 136 164 105
is_linear=0
shrinkage=0.1


Tree=3
num_leaves=22
num_cat=0
split_feature=1 4 4 6 5 5 5 6 1 8 1 6 6 6 6 8 4 8 8 6 5
split_gain=132.056 39.8186 40.0704 31.2679 12.4594 11.5265 8.15076 6.78745 5.68365 5.28067 4.85948 4.97655 5.98204 3.92356 3.4233 2.65248 1.76553 2.07559 1.01951 0.981819 0.22467
threshold=-0.17979697633239747 -0.090915977871238271 0.0019331857151482824 0.38117569046619032 0.00565613524153515 -0.012385822056743117 -0.0057799436436293773 0.1559131681344329 -0.18937183796629725 -0.40409766607909153 -0.19273092071272493 0.81549974395897207 0.6436375284123661 -0.32044473459464973 0.81549974395897207 -0.29417463293793361 0.096413666963374736 -0.14747214607458867 -0.67457840108119971 1.066713227016802 -0.0061586955256628809
decision_type=2 2 2 2 2 2 2 2 2 2 2 2 2 2 2 2 2 2 2 2 2
left_child=1 -1 5 4 9 18 -5 -4 10 -2 11 12 13 -7 -8 -15 17 -6 -3 20 -13
right_child=3 2 7 6 16 8 14 -9 -10 -11 -12 19 -14 15 -16 -17 -18 -19 -20 -21 -22
leaf_value=-0.081781520260239021 -0.019639025198435047 0.14823116370270159 -0.062858028625378468 0.040134543273185247 -0.098447677194121008 0.03833925223607524 -0.078251241304668984 0.025909946166222487 0.0066904382858084368 -0.099421746436165387 0.13503444012034471 0.076408173072754118 -0.0095230338051264327 0.12691442938078676 -0.013662395450486446 0.063148564989158829 -0.16491119196497533 -0.14967844323611984 0.11295507268499259 0.11953325729740057 0.095486808351792477
leaf_weight=21.296607121825218 14.530502513051031 21.49248443543911 24.041414991021156 17.91850833594799 13.760861322283743 23.860976085066788 15.316227510571478 13.423168957233427 12.844364851713179 19.335421442985535 12.752061128616331 12.216246441006659 12.571971654891966 12.809819474816319 17.676456436514854 13.292797133326541 21.402225613594055 18.594133272767067 13.23968358337879 13.567549705505369 12.475874692201616
leaf_count=86 59 89 97 72 57 97 62 54 52 80 52 50 51 52 71 54 90 78 54 56 51
internal_value=0 0.0481657 0.0621012 -0.0764859 -0.112699 0.0837616 -0.0141593 -0.0310534 0.0697407 -0.0651902 0.0768728 0.0695146 0.0521345 0.0676489 -0.0436465 0.0944416 -0.142629 -0.12789 0.134784 0.0979223 0.0860478
internal_weight=0 219.885 198.588 138.534 87.6231 161.124 50.9112 37.4646 126.392 33.8659 113.547 100.795 62.5356 49.9636 32.9927 26.1026 53.7572 32.355 34.7322 38.2597 24.6921
internal_count=1464 895 809 569 364 658 205 151 515 139 463 411 254 203 133 106 225 135 143 157 101
is_linear=0
shrinkage=0.1


Tree=4
num_leaves=22
num_cat=0
split_feature=0 1 6 9 9 9 1 9 6 1 6 0 0 0 9 9 0 0 1 9 6
split_gain=134.261 48.3482 21.1578 14.8452 15.5921 8.95408 7.26893 6.65669 5.63971 5.41707 5.05971 4.98605 4.72609 4.49119 4.06155 2.42682 2.19755 2.74109 0.679432 0.509594 0.0427136
threshold=0.081724156717917371 -0.17979697633239747 0.39667540530553141 0.34026558904897458 -0.41625147557154901 0.39585066881124903 -0.16204614624028965 -0.31305233597134768 0.3419097462065262 -0.17376221338903958 -0.81953555242143283 -0.01990692384242812 -0.065418965356296224 -0.10469159655686473 -0.28652430466552942 -0.42534436975762374 -0.065418965356296224 -0.093888503271551751 -0.0034054507065867335 1.1389089802308725 -0.47027531137494688
decision_type=2 2 2 2 2 2 2 2 2 2 2 2 2 2 2 2 2 2 2 2 2
left_child=1 3 9 4 11 8 -4 -6 14 10 -2 15 -10 -9 -3 -1 17 -15 -11 -5 -20
right_child=2 5 6 19 7 -7 -8 13 12 18 -12 -13 -14 16 -16 -17 -18 -19 20 -21 -22
leaf_value=0.10197544612658921 -0.05598631856989969 -0.042757486399396076 0.033037589927233511 0.15305818917354932 -0.012673139201274343 0.039461990777432718 -0.072509186501304557 0.088868832825274968 0.032091822027126501 -0.15799569731848923 -0.13682915790390227 0.05178689906834813 -0.049552572237964221 0.044311234389103303 -0.11462371492347244 0.15595704986607145 0.055876155327108483 -0.01565036394642131 -0.12910709314270627 0.12469864566939511 -0.13767824029764456
leaf_weight=23.403388977050778 17.781796857714657 18.788434267044067 13.305455729365351 12.98570801317692 23.952500700950623 16.183720856904984 12.804161369800566 19.707718759775162 13.180835425853731 21.697246447205544 13.711488842964171 14.478653401136397 15.343298837542532 15.800951644778253 13.524884328246115 12.928845509886743 23.8809704631567 14.732025668025015 11.627098873257639 12.373685121536253 11.629624605178831
leaf_count=99 72 78 54 54 97 66 52 81 53 94 56 59 62 65 56 54 98 60 51 52 51
internal_value=0 0.0393321 -0.0964427 0.0684963 0.0564499 -0.0266457 -0.0187226 0.0331568 -0.0442313 -0.122987 -0.0911835 0.10141 -0.0118252 0.0479668 -0.0728374 0.121185 0.0331528 0.01538 -0.145268 0.139221 -0.133393
internal_weight=0 251.266 102.557 174.244 148.885 77.0212 26.1096 98.0742 60.8375 76.4473 31.4933 50.8109 28.5241 74.1217 32.3133 36.3322 54.4139 30.533 44.954 25.3594 23.2567
internal_count=1464 1034 430 719 613 315 106 401 249 324 128 212 115 304 134 153 223 125 196 106 102
is_linear=0
shrinkage=0.1


Tree=5
num_leaves=20
num_cat=0
split_feature=1 4 4 9 4 8 8 9 4 8 8 4 9 9 9 9 1 9 8
split_gain=89.9982 31.9703 27.2366 24.2319 10.0477 7.17391 6.66002 9.86857 6.33709 4.41761 4.00419 3.5889 3.43803 5.01554 3.01312 4.06103 1.82367 0.911141 0.305238
threshold=-0.18428232607616898 -0.1194640369534362 0.0019331857151482824 0.39585066881124903 0.079420774652542644 -0.63636680026847958 -0.67190335194503426 -0.29392077588789217 -0.10449669740605527 -0.50932066534736498 -0.14456676280111544 -0.044545773333439655 0.34026558904897458 -0.12276094888287893 -0.30188220480566269 -0.20286292068779094 0.10661280682363795 -0.41464842816806752 -0.34980303723926592
decision_type=2 2 2 2 2 2 2 2 2 2 2 2 2 2 2 2 2 2 2
left_child=1 -1 6 4 8 -4 17 9 10 -8 -2 -10 13 18 -13 -16 -6 -3 -9
right_child=3 2 5 -5 16 -7 7 12 11 -11 -12 14 -14 -15 15 -17 -18 -19 -20
leaf_value=-0.0846297505002086 -0.050164645248700394 0.11370265368754451 0.033515701731492591 0.034585728531350328 -0.14464441134581904 -0.058717816258025329 0.060088193138060075 0.078098032065339856 0.0056998376893133695 -0.014766823239656482 -0.12336807034800211 -0.097032677357079392 0.11441830653503844 0.025491693529813821 0.0046708912743775163 -0.068705321377141082 -0.095109458923281889 0.084066684084695628 0.098310861434565036
leaf_weight=18.105553090572357 11.759595453739164 32.065680593252182 13.556409001350401 22.332513257861137 20.49792617559433 22.312958151102066 12.806638672947882 12.20949310064316 12.706447601318358 20.510738998651505 20.495361685752869 12.127311378717417 20.575028166174889 19.088817477226257 12.892059311270712 18.177919611334808 11.660097718238829 15.335389316081999 19.25086472928524
leaf_count=74 51 139 55 92 90 91 53 51 52 84 90 51 89 79 53 75 52 63 80
internal_value=0 0.0422733 0.0545136 -0.0610793 -0.0788362 -0.0238592 0.0730274 0.0589183 -0.0613826 0.0140062 -0.0966794 -0.0410174 0.0799569 0.0659301 -0.0547592 -0.0382589 -0.126684 0.104115 0.0904664
internal_weight=0 205.818 187.712 142.649 120.317 35.8694 151.843 104.442 88.1587 33.3174 32.255 55.9037 71.1242 50.5492 43.1973 31.07 32.158 47.4011 31.4604
internal_count=1464 858 784 606 514 146 638 436 372 137 141 231 299 210 179 128 142 202 131
is_linear=0
shrinkage=0.1


Tree=6
num_leaves=20
num_cat=0
split_feature=0 2 7 9 9 7 2 8 7 8 8 0 0 2 8 0 9 0 9
split_gain=98.0102 36.3644 15.5296 13.5461 13.7273 10.2304 9.31234 8.72888 8.47457 4.87188 4.72444 4.67049 4.2514 3.72427 3.09432 2.76117 1.07149 0.959509 0.0520052
threshold=0.081724156717917371 -0.34977611490691546 -0.2081581812506226 0.18382693604403386 -0.41368092170421417 0.078526293984956932 -0.18055222415880515 -0.45788329501247088 -0.14079717057673519 -0.67069680902783946 -0.59989842941984339 0.023893736556934938 0.177561499130199 0.28644763499973286 -0.17710705546401587 -0.08912872454683464 -0.42534436975762374 -0.067362095996723811 -0.41213877536911198
decision_type=2 2 2 2 2 2 2 2 2 2 2 2 2 2 2 2 2 2 2
left_child=1 3 6 4 9 7 12 -3 10 16 -6 13 -2 -9 -12 -10 -1 -5 -8
right_child=2 5 -4 17 8 -7 18 11 15 -11 14 -13 -14 -15 -16 -17 -18 -19 -20
leaf_value=0.098406759992871448 -0.036058303236101159 0.012760569908507822 -0.0055440552904431409 0.10909452103954409 0.029382989148497841 0.041290792181603683 -0.13777756879314426 -0.11544431157199263 0.086345953869787037 0.037689443841584472 -0.06659465600174802 -0.01279223673276616 -0.10066761251957404 -0.043509961432804195 0.0031220934190116889 0.032641217720997574 0.13538666329554858 0.14669401919636424 -0.14531773830802344
leaf_weight=21.68103605508804 18.268515020608902 20.934678420424461 19.80703067779541 16.487447470426563 24.140348702669144 20.564739659428596 19.840837851166725 18.294061124324802 19.730279639363289 12.02024684846401 12.963221460580828 11.736215069890021 23.015476539731026 11.865401327610014 12.510231077671049 18.596974611282349 12.269298091530802 11.535900533199309 16.971355780959129
leaf_count=97 75 86 82 72 99 83 95 76 84 50 53 50 98 50 51 78 54 51 80
internal_value=0 0.0337191 -0.0846276 0.061348 0.0481172 -0.01993 -0.104685 -0.039968 0.0249684 0.0924003 -0.00231604 -0.0663157 -0.0720774 -0.0871437 -0.0323562 0.0602876 0.111771 0.124572 -0.141254
internal_weight=0 245.33 97.9032 161.935 133.912 83.3951 78.0962 62.8304 87.9411 45.9706 49.6138 41.8957 41.284 30.1595 25.4735 38.3273 33.9503 28.0233 36.8122
internal_count=1464 1034 430 689 566 345 348 262 365 201 203 176 173 126 104 162 151 123 175
is_linear=0
shrinkage=0.1


Tree=7
num_leaves=22
num_cat=0
split_feature=1 3 6 6 8 1 2 6 8 8 8 8 6 6 6 2 8 1 6 2 6
split_gain=62.7621 18.9712 18.2643 10.0381 34.4688 5.64452 5.19093 4.18886 3.58002 6.56826 5.46677 3.3148 2.86627 2.55521 2.18527 1.3946 1.25566 1.02557 0.786859 0.774666 0.134525
threshold=-0.17376221338903958 1.5918796184818247 0.38117569046619032 0.37032795670729673 -0.59989842941984339 0.089511576574278232 -0.15296317988364735 -1.1246732718919275 0.77556811990786334 -0.065540337762642994 -0.26380369234445766 -0.68095402991986831 0.75626878957824462 0.77213372936491664 -0.32044473459464973 0.97724714303152449 -0.45788329501247088 0.03054416309617616 -0.91041890536765113 0.088556948864309801 -0.53227417073231131
decision_type=2 2 2 2 2 2 2 2 2 2 2 2 2 2 2 2 2 2 2 2 2
left_child=1 3 6 4 7 12 -2 11 9 10 13 -1 -4 -5 18 17 -15 19 -6 -8 -9
right_child=2 -3 5 8 14 -7 15 20 -10 -11 -12 -13 -14 16 -16 -17 -18 -19 -20 -21 -22
leaf_value=0.096360736107670791 -0.044743638567513504 0.1510055032154573 -0.066630311685564311 0.024183171736287978 -0.066948277134350184 0.040007456520347193 -0.11880064188802514 0.011274062293603766 0.0049602328350889548 0.10320890214420826 -0.019311726268806378 0.039491014079624825 -0.0071413560186420009 0.055464039491109576 -0.039432748234686198 -0.079632240652899755 0.099977910596515507 -0.13400930761955179 -0.10310528009849024 -0.08150505638919131 0.025753863169695038
leaf_weight=21.836018681526181 20.586151584982872 12.781568333506582 14.136443108320234 14.953364282846449 12.093006938695909 15.860155969858168 11.38114306330681 13.383787408471109 14.771573334932325 23.117251500487328 12.231140300631521 19.315611481666568 18.964898556470871 13.560887679457659 18.779912441968918 16.730994820594788 11.895819053053861 15.554447963833807 11.982823520898817 10.90614293515682 12.324648573994635
leaf_count=100 89 59 59 64 50 65 55 55 62 100 52 82 77 58 78 80 52 74 50 52 51
internal_value=0 0.0328865 -0.0565716 0.025347 0.00500915 -0.00904438 -0.0875327 0.0498837 0.049995 0.058776 0.0392635 0.0696674 -0.032547 0.0569927 -0.0650004 -0.103674 0.0762652 -0.114303 -0.084944 -0.10055 0.0182157
internal_weight=0 213.027 124.12 200.246 109.716 48.9615 75.1589 66.8601 90.53 75.7585 52.6412 41.1516 33.1013 40.4101 42.8557 54.5727 25.4567 37.8417 24.0758 22.2873 25.7084
internal_count=1464 913 551 854 466 201 350 288 388 326 226 182 136 174 178 261 110 181 100 107 106
is_linear=0
shrinkage=0.1


Tree=8
num_leaves=22
num_cat=0
split_feature=2 7 5 7 5 5 9 5 8 7 9 9 2 5 5 9 8 8 2 8 9
split_gain=52.4002 22.3197 20.2626 12.2215 10.3208 10.0227 6.88484 5.0573 4.82077 4.39102 7.36242 4.30427 2.40585 2.45148 1.90296 1.51454 0.986257 0.845046 0.779381 0.48905 0.167099
threshold=-0.28177391521589118 0.078526293984956932 0.012097145188351954 -0.24932862089231506 -0.0088099586998974001 -0.014070153955668576 0.34026558904897458 0.0029781366403335598 -0.49298032495602773 0.16010789380869878 -0.41213877536911198 -0.25557137312949291 -0.15296317988364735 0.023450789840368018 -0.0064483293178061478 -0.42534436975762374 0.54110368973857204 -0.59989842941984339 0.26047772868274816 -0.68095402991986831 -0.39711821973978229
decision_type=2 2 2 2 2 2 2 2 2 2 2 2 2 2 2 2 2 2 2 2 2
left_child=2 4 5 8 -2 19 9 -3 15 10 -7 17 -6 18 -13 -4 -5 -12 -14 -1 -15
right_child=1 7 3 16 12 6 -8 -9 -10 -11 11 14 13 20 -16 -17 -18 -19 -20 -21 -22
leaf_value=0.1164757244507566 -0.014318859192552023 0.07291075856110453 -0.042313696390457615 0.066140266614385879 -0.057719978593078328 0.071527789022371446 0.092369699495671059 -0.014569177797574391 -0.07786524796435397 0.067163101525247612 -0.014623912090236047 0.0019225641176249669 -0.07081699440336045 -0.12192296471832365 0.054357486006820714 0.0025267879207450969 0.025562965225762371 -0.050882925124448676 -0.10205070901950791 0.089931061581639479 -0.13859174378777128
leaf_weight=15.853793591260912 19.621014565229416 12.343839079141619 12.545261904597284 12.309750661253931 13.027422815561293 17.464827328920364 19.368633612990379 14.223041549324988 20.36076557636261 20.883125320076942 12.822793662548067 16.730434805154804 15.220084279775618 13.607792004942896 11.804959058761595 18.851345807313919 11.667306229472159 12.887750357389448 16.816181823611259 12.345246836543081 10.777038335800169
leaf_count=78 83 50 54 54 58 76 89 58 86 91 53 70 72 71 50 80 50 53 79 54 55
internal_value=0 -0.0543667 0.0290513 -0.0126254 -0.0783607 0.0515708 0.0381506 0.0260769 -0.0399672 0.0268091 0.0150575 -0.00312342 -0.0964541 -0.105398 0.0236146 -0.0153903 0.0463952 -0.0327992 -0.0872119 0.104855 -0.12929
internal_weight=0 115.636 215.896 75.7344 89.0695 140.162 111.963 26.5669 51.7574 92.5939 71.7108 54.2459 69.4485 56.4211 28.5354 31.3966 23.9771 25.7105 32.0363 28.199 24.3848
internal_count=1464 526 938 324 418 614 482 108 220 393 302 226 335 277 120 134 104 106 151 132 126
is_linear=0
shrinkage=0.1


Tree=9
num_leaves=24
num_cat=0
split_feature=1 7 8 6 8 8 6 8 6 6 7 6 2 6 7 7 8 6 2 1 8 6 8
split_gain=44.1145 20.5158 8.44166 16.0922 7.36733 6.14326 6.39385 4.55643 4.33274 3.53353 3.28063 2.46937 2.44202 2.28604 2.81382 2.18759 2.02628 1.03488 0.817864 0.594881 0.362374 0.0420272 0.0194777
threshold=-0.18661955054809273 -0.2132057092647163 -0.66681521697447921 0.23857831394425211 -0.50932066534736498 -0.40409766607909153 -0.68447704810082921 0.33888901390483356 -1.114753454394749 -0.18732612291762202 -0.2081581812506226 1.1038745972626651 -0.12959199639111255 0.83955181808704793 0.40749190880779151 0.048427574780090084 -0.14456676280111544 -1.2322691923636655 0.097127017948914721 -0.030488338569802449 0.43919562819153346 -1.2565758451747202 -0.26380369234445766
decision_type=2 2 2 2 2 2 2 2 2 2 2 2 2 2 2 2 2 2 2 2 2 2 2
left_child=2 5 8 4 -4 6 -2 -3 17 -10 22 13 -7 15 -15 -12 -6 21 -14 -20 -21 -1 -5
right_child=1 7 3 10 16 12 -8 -9 9 -11 11 -13 18 14 -16 -17 -18 -19 19 20 -22 -23 -24
leaf_value=0.070201515999304284 -0.072513187632302731 0.043730846922348382 0.013830147425037116 0.0094405483826094615 -0.092963585899882142 -0.047818327809210165 0.015142074320243032 -0.021725173215666142 -0.002063692874305475 0.072902619893631046 0.09940346108327712 0.097189558635695422 -0.12355904604976652 -0.0074792461590235601 0.059889965670208947 0.03906981937037992 -0.037794044709961651 0.11302258713089837 -0.072209253111847824 -0.091638512536597938 -0.11631807880083576 0.079245072426704713 0.015156071614008827
leaf_weight=9.9620107561349887 20.445840582251549 23.025232002139091 22.662488847970963 11.891438513994219 12.539860248565676 11.032120749354361 14.033178403973578 19.762441173195839 13.653797671198847 11.654105409979818 11.598744317889215 11.776219561696051 11.291545629501341 12.900405436754228 11.93601995706558 12.471342027187346 14.191626131534575 10.860050722956656 10.155078992247576 15.961830586194997 9.4848330467939359 10.61335711181164 11.958645850419996
leaf_count=50 95 95 95 51 53 49 60 82 57 50 51 55 58 58 54 55 60 52 51 81 50 52 50
internal_value=0 -0.0437489 0.0309288 0.0172327 -0.0281144 -0.0702572 -0.0368369 0.0134985 0.0632545 0.0324577 0.0437298 0.0560801 -0.09015 0.0461814 0.0248974 0.068143 -0.0636743 0.0880483 -0.100109 -0.0926715 -0.100837 0.0748664 0.0123064
internal_weight=0 135.192 190.67 133.927 49.394 92.4044 34.479 42.7877 56.7433 25.3079 84.5328 60.6827 57.9254 48.9065 24.8364 24.0701 26.7315 31.4354 46.8933 35.6017 25.4467 20.5754 23.8501
internal_count=1464 621 843 582 208 444 155 177 261 107 374 273 289 218 112 106 113 154 240 182 131 102 101
is_linear=0
shrinkage=0.1


Tree=10
num_leaves=23
num_cat=0
split_feature=1 3 9 5 5 9 5 9 5 9 5 5 9 5 2 5 5 9 5 9 1 9
split_gain=36.6272 16.4616 16.4677 13.7386 13.2382 8.10342 6.80247 4.9478 4.77651 4.72195 4.53587 4.33224 2.41721 1.86762 1.28793 1.31852 1.07612 0.671842 0.5501 0.50951 0.497723 9.28607e-05
threshold=-0.17376221338903958 1.5918796184818247 0.34026558904897458 -0.014070153955668576 0.0039116486319337824 -0.40629621131691268 0.019839279247566208 -0.31305233597134768 0.028211923792753873 -0.41041254005605859 -0.011242882553900841 -0.012044945362912965 -0.27675059488330389 0.0023075230139095347 0.6269996723041279 0.018125983969426423 -0.0053789122391233153 -0.21717997780807646 -0.0070699279947905426 -0.42347202658201871 -0.023802567337581879 -0.42534436975762374
decision_type=2 2 2 2 2 2 2 2 2 2 2 2 2 2 2 2 2 2 2 2 2 2
left_child=1 2 3 21 11 20 7 9 19 -5 -9 -2 -13 17 15 -7 -4 -12 -14 -8 -6 -1
right_child=4 -3 16 6 5 14 8 10 -10 -11 13 12 18 -15 -16 -17 -18 -19 -20 -21 -22 -23
leaf_value=0.080676466292127325 0.042151955571889013 0.14154570665496016 0.072608377194087081 0.014852951051724845 -0.13785275107697401 -0.0097062774667648552 -0.042065409366464968 -0.024599229840087566 0.012587308611965491 -0.053745386889166608 0.068948451985027248 0.015525558920460696 -0.025126821399595767 0.015431147062061662 -0.074428449542661756 -0.054756833227250272 0.11583217075236406 0.039976765427217925 -0.052551393412999386 -0.068954339781977972 -0.10859966215532964 0.080269459060138645
leaf_weight=11.598546177148821 12.927054405212401 11.520547419786451 10.187485978007318 21.712529852986336 11.297866985201837 11.165363773703577 11.282011464238165 13.001094356179236 13.58658993244171 18.656654313206673 17.85121966898441 11.032420262694357 14.061761140823362 17.531138777732849 12.871040731668471 15.536577105522154 13.252992182970045 14.510553896427156 15.24224638938904 18.773258060216907 11.98764732480049 10.849169284105299
leaf_count=60 55 59 50 94 60 51 50 56 58 77 77 51 59 75 64 76 64 63 67 80 68 50
internal_value=0 0.0254286 0.01849 0.00761676 -0.0449055 -0.0759862 -0.00351702 0.0104722 -0.0366176 -0.0168498 0.0280091 -0.00822596 -0.0243711 0.0417178 -0.0484442 -0.035919 0.0970466 0.055958 -0.0393915 -0.0588609 -0.122793 0.0804798
internal_weight=0 204.314 192.793 169.353 116.122 62.8585 146.905 103.263 43.6419 40.3692 62.894 53.2635 40.3364 49.8929 39.573 26.7019 23.4405 32.3618 29.304 30.0553 23.2855 22.4477
internal_count=1464 913 854 740 551 319 630 442 188 171 271 232 177 215 191 127 114 140 126 130 128 110
is_linear=0
shrinkage=0.1


Tree=11
num_leaves=23
num_cat=0
split_feature=2 4 4 7 8 4 7 8 8 1 1 8 4 8 8 4 1 2 4 8 8 8
split_gain=30.8233 17.4764 23.5468 16.8152 6.41948 3.862 3.62854 3.62758 3.59291 3.89945 4.36628 1.95586 1.94527 1.86909 5.55472 1.70052 1.38136 1.56364 1.1468 0.292246 0.350879 0.526724
threshold=-0.28177391521589118 -0.1194640369534362 0.0019331857151482824 0.078526293984956932 -0.35538137312433454 -0.0026888809933980468 0.48541864766833137 -0.66681521697447921 0.77556811990786334 -0.18937183796629725 -0.19273918767904949 -0.17710705546401587 -0.031100996937109302 -0.057750191699144686 -0.29030078779853369 0.12305852210675945 0.1268323980074115 0.17844827364319935 0.22025786612471907 -0.45184009780364648 -0.61872531303195 -0.68147794257758065
decision_type=2 2 2 2 2 2 2 2 2 2 2 2 2 2 2 2 2 2 2 2 2 2
left_child=1 -1 8 4 5 -2 -5 -4 9 10 12 -6 -3 14 19 16 17 -13 -9 20 21 -14
right_child=3 2 7 6 11 -7 -8 18 -10 -11 -12 15 13 -15 -16 -17 -18 -19 -20 -21 -22 -23
leaf_value=-0.069287509558045773 0.0017490774394932484 0.016072900474567046 0.0093544815200184463 0.062728485357088262 -0.1260422014180938 -0.074323808680233625 -0.011537428239242656 -0.077752289672681954 -0.0040207352619424886 0.01251181737252847 0.10828411451861991 -0.053970585234256963 0.055140459842066947 0.085422597766025107 -0.014306417201655153 -0.11122347912019209 -0.038949648512375569 -0.10924270660080695 -0.036914460559994554 0.078017683038060046 0.045298873700612821 0.080301281345452821
leaf_weight=18.841779559850693 17.548148468136791 12.336660131812094 11.735320419073103 13.375850066542627 9.9577957242727262 10.768818154931067 12.946744844317434 13.565598949790003 11.427027598023413 19.188265487551689 16.829945370554924 10.305265173316004 21.718228161334981 19.936187356710434 11.056430727243422 10.850114136934279 12.232448399066923 10.168848425149916 13.945272445678709 10.601212516427045 12.539107069373129 13.48704367876053
leaf_count=81 82 53 50 55 50 54 53 57 51 82 80 50 110 94 50 65 63 54 61 50 57 62
internal_value=0 0.0225381 0.0317231 -0.0433216 -0.0656848 -0.0271811 0.0262009 -0.037195 0.0498613 0.054333 0.0611046 -0.0860588 0.0532952 0.0584352 0.0506828 -0.076918 -0.0655374 -0.0814225 -0.0570516 0.0629982 0.0596633 0.0647795
internal_weight=0 207.208 188.366 108.154 81.8314 28.317 26.3226 39.2462 149.12 137.693 118.505 53.5145 101.675 89.3382 69.402 43.5567 32.7066 20.4741 27.5109 58.3456 47.7444 35.2053
internal_count=1464 938 857 526 418 136 108 168 689 638 556 282 476 423 329 232 167 104 118 279 229 172
is_linear=0
shrinkage=0.1


Tree=12
num_leaves=22
num_cat=0
split_feature=0 0 1 9 4 4 9 0 1 1 0 0 0 9 5 9 0 1 4 0 9
split_gain=49.8849 12.7175 8.88033 9.00965 6.96834 7.79594 6.70243 5.75652 4.20889 3.72466 3.64352 3.13045 3.80985 1.8028 2.62678 1.57128 0.975302 0.871406 0.809261 0.448121 0.303286
threshold=0.081724156717917371 -0.10510161494888155 -0.17979697633239747 0.08625199187480137 -0.012082551862826028 -0.044205915487223017 -0.30333564344685332 0.039795319412544168 -0.17376221338903958 -0.18668078733568208 -0.0092642725365999785 -0.065418965356296224 -0.031815284097525612 -0.05464337740850559 -0.014070153955668576 -0.25463652349601895 0.177561499130199 -0.023802567337581879 0.011381233839970929 -0.065418965356296224 -0.26657431809878002
decision_type=2 2 2 2 2 2 2 2 2 2 2 2 2 2 2 2 2 2 2 2 2
left_child=1 13 3 4 5 -3 8 10 16 -8 18 20 -13 14 -1 -16 -2 -10 -4 -5 -7
right_child=6 2 7 19 -6 11 9 -9 17 -11 -12 12 -14 -15 15 -17 -18 -19 -20 -21 -22
leaf_value=0.090971038437675192 -0.038055683689721446 -0.033884902384503056 -0.030506575551651344 0.073103873344217862 -0.046325496012359246 0.0052058508873886926 0.017125148248196397 0.039726043670384653 -0.13061457637580606 -0.055736931335941112 -0.080746436520639189 0.10101130127235858 0.034913939310624087 0.10084288426329897 0.0091900492685064502 0.061234331922148388 -0.075421977258620626 -0.094673764120510359 -0.00037364517720375799 0.10254381442895669 0.027738081895379615
leaf_weight=14.516442134976382 12.507067278027536 16.22669193148613 22.00396092236042 10.077778443694116 15.348696827888487 12.134606420993807 11.649658471345903 13.438085928559302 14.616877138614656 17.638524577021599 12.502465501427649 15.191687464714049 20.472012579441071 12.928422704339026 10.945780605077742 12.342179939150816 15.821561112999914 12.52778948843479 14.980376765131949 10.617776885628698 11.765899792313574
leaf_count=82 53 67 95 50 64 53 50 60 87 89 59 75 91 60 50 55 71 80 65 55 53
internal_value=0 0.0245311 0.0117356 0.0286445 0.0151191 0.0275625 -0.0654555 -0.0183163 -0.085888 -0.0267553 -0.0340776 0.0443022 0.0630695 0.0686079 0.0575841 0.0367725 -0.0589248 -0.114027 -0.0183013 0.0882079 0.0162982
internal_weight=0 225.493 174.76 111.835 91.1396 75.7909 84.7615 62.9249 55.4733 29.2882 49.4868 59.5642 35.6637 50.7328 37.8044 23.288 28.3286 27.1447 36.9843 20.6956 23.9005
internal_count=1464 1034 787 508 403 339 430 279 291 139 219 272 166 247 187 105 124 167 160 105 106
is_linear=0
shrinkage=0.1


Tree=13
num_leaves=23
num_cat=0
split_feature=0 6 0 2 0 7 0 2 0 0 8 7 6 7 6 6 8 8 0 8 2 0
split_gain=41.6627 11.7422 10.6808 8.73718 7.17297 7.19798 4.57441 4.36455 4.31275 5.30832 3.61071 4.88769 3.37982 1.70243 1.57735 1.61491 1.53425 1.03321 0.909595 0.810117 0.0880167 0.00596293
threshold=0.081724156717917371 0.39667540530553141 -0.10510161494888155 -0.27710257831712354 0.039795319412544168 -0.2132057092647163 -0.065418965356296224 -0.18055222415880515 -0.067362095996723811 -0.031013074200101392 -0.22638235578212221 -0.23856497790375294 -0.81953555242143283 0.093488927630511129 0.097917110134328564 -1.2443310704516408 -0.34980303723926592 -0.42238974998128342 0.0092756895372044807 -0.5255206176189281 1.1070966746164477 0.21820680059969341
decision_type=2 2 2 2 2 2 2 2 2 2 2 2 2 2 2 2 2 2 2 2 2 2
left_child=2 7 14 8 5 6 -5 12 10 19 11 -4 -2 -3 15 -1 -11 -16 -18 -10 21 -9
right_child=1 13 3 4 -6 -7 -8 20 9 16 -12 -13 -14 -15 17 -17 18 -19 -20 -21 -22 -23
leaf_value=0.075470413314773888 -0.037291511294757176 -0.030685319804078012 -0.010629241820961869 -0.029805540085577415 0.047046485852604486 0.0051867183190010451 -0.11617801449784451 -0.12430845696337159 0.093757480982354757 0.00080542542429033878 -0.046392499986549436 0.068049223804828515 -0.10126811949971613 0.022817371860646276 0.062148032797853386 0.020721788362087018 0.016913411398370739 0.10128740116524648 0.056061662403887116 0.058916698722165428 -0.109009541114507 -0.12047488333042188
leaf_weight=9.2456839084625262 21.012933373451233 11.046248823404314 21.285158306360245 11.407623991370199 11.920708388090132 19.397486686706543 13.258185669779779 7.3910062015056672 13.746632486581804 20.977366074919701 11.457904294133185 12.55180302262306 13.603326559066771 12.883945137262343 15.242201402783396 12.911554642021654 11.082695707678797 12.09813232719898 12.777885079383848 12.971006035804747 7.3115298748016349 8.995941258966921
leaf_count=55 96 51 92 50 53 80 68 49 69 91 52 60 64 55 71 65 50 56 59 63 50 65
internal_value=0 -0.0608639 0.0224403 0.0107108 -0.021772 -0.0403899 -0.0762318 -0.0850688 0.0262736 0.0415586 0.00212683 0.0185565 -0.0624327 -0.00187963 0.0633968 0.0435671 0.0205338 0.0794673 0.0378782 0.0768428 -0.118133 -0.122204
internal_weight=0 82.2449 222.332 172.834 55.984 44.0633 24.6658 58.3147 116.85 71.5556 45.2949 33.837 34.6163 23.9302 49.4976 22.1572 44.8379 27.3403 23.8606 26.7176 23.6985 16.3869
internal_count=1464 430 1034 787 251 198 118 324 536 332 204 152 160 106 247 120 200 127 109 132 164 114
is_linear=0
shrinkage=0.1


Tree=14
num_leaves=23
num_cat=0
split_feature=0 6 8 9 6 9 1 6 0 8 1 1 0 9 9 1 9 6 0 0 6 9
split_gain=34.8043 10.2921 9.93287 13.217 5.31206 5.72364 5.25448 3.97415 3.46765 3.6842 3.29838 2.49367 2.08969 2.68527 5.47847 1.84812 1.80457 1.68174 0.862918 0.712961 0.458449 0.319976
threshold=0.081724156717917371 0.39667540530553141 -0.62918469281645362 0.34026558904897458 0.9805567239402766 -0.06224034807634677 -0.16027732163077049 -0.96213292894337077 0.039795319412544168 0.26690886383958562 -0.18937183796629725 -0.17151096536689131 -0.12077144827856823 -0.41464842816806752 -0.30188220480566269 -0.18661955054809273 -0.27187705070474105 0.14558002490820574 -0.067362095996723811 0.20679759316965987 -1.2454116589045234 -0.42275047655869452
decision_type=2 2 2 2 2 2 2 2 2 2 2 2 2 2 2 2 2 2 2 2 2 2
left_child=2 7 12 4 5 8 18 11 9 10 16 -2 20 -14 -15 -3 -4 -12 -5 -9 -1 -21
right_child=1 15 3 6 -6 -7 -8 19 -10 -11 17 -13 13 14 -16 -17 -18 -19 -20 21 -22 -23
leaf_value=0.06585620519004802 -0.023302175392131502 0.026629518867417351 -0.029955287330206155 0.078032836459966948 0.036653786702783596 -0.072689870952431304 0.019580412886047917 -0.086463377437215272 0.034747202854316338 0.028975830060836878 -0.085924702347221077 -0.090809844586208208 0.071008473847842493 -0.028874137995337598 0.060925039133819851 -0.02903166279107347 0.017596397784933999 -0.031566689331699718 0.12203583431284493 -0.10402736184391717 0.098412707797350646 -0.13096626799860803
leaf_weight=8.1716005504131335 14.57101145386696 11.720480993390085 17.535383284091946 9.0452847480773908 21.522793933749199 16.118995398283005 15.123829096555708 14.736360661685465 15.696853831410406 13.735967501997946 11.095165118575098 8.7623152434825879 19.447968274354935 11.863135755062105 15.898820936679838 12.147931918501852 14.646690592169763 11.686508178710936 8.7849757820367831 9.7571303695440275 9.189207196235655 8.0443594232201594
leaf_count=51 63 50 75 50 98 73 65 85 69 63 54 58 99 50 71 56 66 51 50 68 49 50
internal_value=0 -0.0566658 0.0204699 0.00674147 -0.00843312 -0.0180873 0.0629373 -0.0801477 -0.00765871 -0.0173478 -0.0289245 -0.0486532 0.0534229 0.0425137 0.0225524 -0.00169948 -0.00831359 -0.0580402 0.0997131 -0.102733 0.0830886 -0.116201
internal_weight=0 79.7396 219.563 154.992 122.038 100.516 32.9541 55.8712 84.3966 68.6997 54.9637 23.3333 64.5707 47.2099 27.762 23.8684 32.1821 22.7817 17.8303 32.5379 17.3608 17.8015
internal_count=1464 430 1034 714 549 451 165 324 378 309 246 121 320 220 121 106 141 105 100 203 100 118
is_linear=0
shrinkage=0.1


Tree=15
num_leaves=23
num_cat=0
split_feature=3 0 7 0 1 4 4 4 7 1 1 1 4 4 7 0 0 0 4 0 0 0
split_gain=30.3447 27.668 9.6398 7.00471 6.02338 4.53084 4.24837 6.52502 3.76508 3.20611 2.54701 1.98716 2.03216 1.85632 1.28028 1.23307 3.7393 2.83421 0.743735 0.654526 0.646701 0.0397176
threshold=1.5918796184818247 0.05259502399811302 -0.29471410246306123 -0.10510161494888155 -0.12822659937436659 -0.031100996937109302 -0.012082551862826028 0.047881966523638277 -0.2132057092647163 -0.19125750236653694 -0.16204614624028965 -0.17376221338903958 -0.017832946620811606 -0.070252620821266445 -0.12755610955518662 -0.067362095996723811 -0.027447696878215907 -0.090911413207777375 0.096413666963374736 0.14511656550104113 -0.12833004820096541 -0.031815284097525612
decision_type=2 2 2 2 2 2 2 2 2 2 2 2 2 2 2 2 2 2 2 2 2 2
left_child=1 3 11 14 5 13 9 -8 21 15 -4 12 -3 -5 20 17 -17 -7 19 -13 -1 -6
right_child=-2 2 10 4 8 6 7 -9 -10 -11 -12 18 -14 -15 -16 16 -18 -19 -20 -21 -22 -23
leaf_value=0.05129454271655326 0.1523532218000222 -0.092334021574444203 0.033601988760566207 0.0028256836271469098 -0.065668750351688426 0.063593538165204855 -0.062532235263638339 0.041233317682076637 0.008100517122514788 -0.0039859427895267098 -0.032853919530698765 -0.059229331187507152 -0.039239116749896795 -0.053000976786724732 0.073962003370096743 0.096878303694986664 0.029105898652155307 -0.0053390911998415364 -0.11233731745177833 -0.09860172066625579 0.021567902519288615 -0.0567666889006916
leaf_weight=15.489493995904921 12.503343284130095 11.163461223244669 11.508330240845682 11.897291138768198 10.348163381218908 12.037554308772089 12.613480165600778 11.663832023739813 12.770986855030058 15.950836747884749 11.560481607913969 7.8584601506590905 20.347920671105385 11.927620232105253 14.041611120104788 14.676831051707262 18.282019615173343 11.822828128933905 12.754359625279902 9.1249695643782598 13.872827246785166 9.7191196829080599
leaf_count=88 71 53 50 51 49 59 55 50 53 71 53 47 91 50 70 81 87 54 98 68 63 52
internal_value=0 -0.00685566 -0.054796 0.0136514 0.0036341 0.0139521 0.023545 -0.0126789 -0.0343447 0.0356299 0.000298917 -0.0755468 -0.0580489 -0.0251232 0.0491264 0.0467512 0.0592855 0.0294374 -0.0940884 -0.0803836 0.0372496 -0.0613572
internal_weight=0 281.432 84.318 197.114 153.711 120.872 97.0474 24.2773 32.8383 72.7701 23.0688 61.2492 31.5114 23.8249 43.4039 56.8192 32.9589 23.8604 29.7378 16.9834 29.3623 20.0673
internal_count=1464 1393 460 933 712 558 457 105 154 352 103 357 144 101 221 281 168 113 213 115 151 101
is_linear=0
shrinkage=0.1


Tree=16
num_leaves=23
num_cat=0
split_feature=0 7 5 7 8 5 5 5 0 5 5 5 0 1 8 1 5 5 5 1 8 8
split_gain=24.4687 7.64658 7.54321 5.85355 8.80191 6.42504 5.6511 4.43295 3.63529 3.26544 2.39511 2.20809 1.94168 1.93504 1.71294 1.46616 1.27679 2.36661 1.16313 0.878711 0.742228 0.0342494
threshold=0.05259502399811302 -0.29471410246306123 -0.014384295222531658 -0.16172081822908507 -0.62918469281645362 -0.00074477156483104758 0.028089386419154799 0.0017059759071504411 0.13049851848131069 -0.0088099586998974001 -0.011394383306714242 0.012712060008594582 -0.019247329037879322 -0.16204614624028965 -0.25357674322183182 -0.18814985786995123 0.013101951651864365 -0.0038639047109893057 0.027755193582066417 -0.17510703448128986 -0.67378813683081507 -0.13181510069442667
decision_type=2 2 2 2 2 2 2 2 2 2 2 2 2 2 2 2 2 2 2 2 2 2
left_child=2 6 20 4 16 9 8 10 19 15 -5 -7 -9 -3 -12 -6 17 -4 -10 -2 -1 -20
right_child=1 13 3 7 5 11 -8 12 18 -11 14 -13 -14 -15 -16 -17 -18 -19 21 -21 -22 -23
leaf_value=0.087017453446277704 -0.028262669915694972 0.031823616076015721 0.016249410779267656 0.01686025948208086 -0.004153294072471508 0.038274523745379568 -0.0030269779994845751 -0.027233839591148692 -0.080153013530853523 -0.090712249401023348 0.094286660340870743 -0.016718294266296976 0.028611800336312356 -0.025794933430649414 0.047588040776126148 -0.054283139552355544 0.0034568699067668712 0.070438304569884425 -0.1165324317441102 -0.071193149893320345 0.051632756095873103 -0.12591397691658371
leaf_weight=13.272788621485235 11.213873788714411 11.613499850034716 16.803774699568748 13.188607186079023 11.333262175321577 13.959444463253023 11.960364401340483 12.661123260855677 12.876841105520725 14.241941824555395 13.67944500595331 15.308251589536665 12.249137565493582 11.701302461326121 18.447305679321289 12.024436146020891 11.516032636165617 15.487695112824438 8.899416118860243 8.2941573485732061 10.712418705224989 6.915095381438733
leaf_count=90 49 51 78 62 51 65 71 62 85 67 71 73 58 54 86 54 54 74 53 53 51 52
internal_value=0 -0.0457118 0.0185186 0.0115319 -0.00279704 -0.0256231 -0.0645535 0.0341141 -0.0798209 -0.0529716 0.052742 0.00951094 0.000227171 0.00290585 0.0674721 -0.0299599 0.0320445 0.0422396 -0.102466 -0.0465153 0.0712137 -0.120635
internal_weight=0 83.4746 204.886 180.9 110.675 66.8673 60.1597 70.2256 48.1994 37.5996 45.3154 29.2677 24.9103 23.3148 32.1268 23.3577 43.8075 32.2915 28.6914 19.508 23.9852 15.8145
internal_count=1464 468 996 855 516 310 363 339 292 172 219 138 120 105 157 105 206 152 190 102 141 105
is_linear=0
shrinkage=0.1


Tree=17
num_leaves=23
num_cat=0
split_feature=9 5 9 9 4 1 4 4 9 9 1 9 2 1 5 1 2 5 9 4 9 1
split_gain=12.9419 13.695 10.7274 8.59267 5.65043 5.62973 5.29911 6.01876 4.96826 4.36294 4.20053 3.57674 3.55141 2.75156 4.409 2.48673 2.4507 2.12536 1.48339 0.853644 0.478103 0.466078
threshold=0.41739033736737158 0.00565613524153515 -0.41368092170421417 -0.42477468949433866 -0.012082551862826028 -0.18937183796629725 0.1260492711534659 -0.031100996937109302 -0.25557137312949291 -0.06224034807634677 -0.18685212786735717 -0.42453454965285531 -0.33251911215927915 0.16472688566668206 -0.0053789122391233153 -0.18190370553583482 -0.025537505355979217 -0.0095719183684589166 -0.18993282158135746 -0.28912107378478374 -0.31505417596959628 -0.023802567337581879
decision_type=2 2 2 2 2 2 2 2 2 2 2 2 2 2 2 2 2 2 2 2 2 2
left_child=1 2 11 15 5 8 7 19 -4 10 20 17 -6 14 -2 -3 -7 -1 -10 -5 -9 -17
right_child=13 3 4 6 12 16 -8 9 18 -11 -12 -13 -14 -15 -16 21 -18 -19 -20 -21 -22 -23
leaf_value=0.061798167121155594 0.022622944564148421 -0.04862653602481376 -0.0056260133792561465 -0.031537235599241917 -0.084160289790401674 -0.053549981461442402 -0.085075223989049709 0.068789468935506179 0.083192856036502519 -0.042026243036976836 -0.01718117510933095 0.10414801268897922 -0.008457021001129458 0.014917393058092766 0.10905944459064904 -0.11893780870492764 0.0059548921274865671 -0.00036415135078080642 0.037001308592556882 -0.074189410475781217 0.040537906125066844 -0.085982684981390167
leaf_weight=13.877409406006334 9.7837123721837997 15.893210455775259 22.436382174491882 8.9026370197534579 12.022288933396341 15.200326815247537 9.7406842187046987 11.40823763608932 12.469805940985681 11.16066215187311 12.68385721743107 12.201237328350542 12.788794688880442 11.162442229688166 14.871193811297417 9.1435531377792341 12.707421980798243 9.1114523634314555 15.712536007165907 9.9221500977873784 12.612669602036478 8.0873441770672816
leaf_count=91 53 77 100 52 51 68 60 52 61 53 61 66 60 53 81 64 60 48 79 48 59 67
internal_value=0 -0.00819439 0.0127001 -0.0346146 -0.00353893 0.00960504 -0.0161778 -0.00611468 0.0294862 0.0127251 0.0293731 0.0603867 -0.0451393 0.0561095 0.0747592 -0.0771558 -0.0264552 0.0371606 0.0574396 -0.0540183 0.0539554 -0.10347
internal_weight=0 248.083 138.528 109.555 103.338 78.5265 76.4309 66.6902 50.6187 47.8654 36.7048 35.1901 24.8111 35.8173 24.6549 33.1241 27.9077 22.9889 28.1823 18.8248 24.0209 17.2309
internal_count=1464 1277 684 593 479 368 385 325 240 225 172 205 111 187 134 208 128 139 140 100 111 131
is_linear=0
shrinkage=0.1


Tree=18
num_leaves=23
num_cat=0
split_feature=0 9 8 7 4 8 4 4 9 9 0 9 7 0 4 0 9 9 8 9 4 0
split_gain=18.469 8.01287 10.1141 5.32194 7.95725 6.70279 5.76365 2.34561 4.44808 3.33215 2.447 2.23982 2.23486 1.99264 1.87194 1.81356 1.72853 1.17419 0.854385 0.401017 0.653106 0.122554
threshold=0.17310477747784211 0.39585066881124903 -0.67190335194503426 0.16010789380869878 -0.011321270287300749 0.10878265864575209 0.04040509390687215 -0.017832946620811606 -0.36866631639032305 -0.27187705070474105 -0.016751564912559479 -0.083588542944130914 -0.2132057092647163 0.22729851277050137 0.22025786612471907 -0.12077144827856823 -0.21766910090965516 -0.35340115362557206 -0.0051083656743994635 -0.2973551402981604 0.035429575038260518 -0.036361140182929595
decision_type=2 2 2 2 2 2 2 2 2 2 2 2 2 2 2 2 2 2 2 2 2 2
left_child=1 2 15 4 7 16 -6 8 -4 10 -9 -11 -3 19 -8 -1 -5 21 -14 20 -2 -17
right_child=13 12 3 5 6 -7 14 9 -10 11 -12 -13 18 -15 -16 17 -18 -19 -20 -21 -22 -23
leaf_value=0.077336873253220459 -0.10698966259397413 0.025314964312397849 0.017064880103761587 0.089730933228988868 -0.11944234052305117 -0.0212973712599684 -0.059210754722137174 -0.04182412879983563 -0.05524696582247493 0.058531184438308681 0.015593598196906651 -0.00078384856022875008 0.055378266202151465 -0.026624615124498097 0.00046517210282294756 0.024923390105114986 0.033512059326767492 0.055687397338232109 0.097319793075552302 -0.058055910468247984 -0.071262456765462404 0.0091035801283165518
leaf_weight=12.317946225404738 9.0519333779811877 14.613061912357805 14.789894446730612 10.317474722862245 11.310227632522581 18.907170653343201 11.102895297110082 15.555828854441645 20.022986359894276 15.642381496727468 14.195815324783323 10.735463730990885 9.3920780196785927 9.3770649209618551 9.9825219959020597 9.5972041636705381 11.638273715972899 12.916875123977663 10.058626428246498 6.3320031240582493 11.769285976886747 9.9987457543611509
leaf_count=86 64 72 74 50 52 86 55 72 94 76 69 51 53 59 54 57 55 57 57 38 85 48
internal_value=0 0.0098918 0.00256278 -0.00893086 -0.0192933 0.0223466 -0.0618505 -0.00413355 -0.024526 0.00851437 -0.0144276 0.0343907 0.0548662 -0.066368 -0.0309582 0.0446603 0.0599305 0.0322804 0.0770677 -0.080093 -0.0867947 0.0168514
internal_weight=0 243.095 209.032 164.201 123.338 40.8629 32.3956 90.9424 34.8129 56.1295 29.7516 26.3778 34.0638 36.5303 21.0854 44.8308 21.9557 32.5128 19.4507 27.1532 20.8212 19.5959
internal_count=1464 1218 1036 788 597 191 161 436 168 268 141 127 182 246 109 248 105 162 110 187 149 105
is_linear=0
shrinkage=0.1


Tree=19
num_leaves=24
num_cat=0
split_feature=3 0 6 0 1 6 6 0 7 7 1 0 0 6 1 0 6 0 1 6 0 0 6
split_gain=24.8057 14.8358 9.7846 4.76422 3.99216 2.9284 2.78523 2.50747 4.94577 2.44897 1.88169 1.72674 3.30023 2.09065 1.4478 1.32623 0.996565 0.739794 0.794374 0.712491 0.65532 0.361205 0.267381
threshold=1.5918796184818247 0.05259502399811302 0.39667540530553141 -0.10510161494888155 -0.12822659937436659 -0.96213292894337077 0.097917110134328564 -0.078058227962380225 0.17512296938921421 -0.2132057092647163 -0.18190370553583482 -0.031815284097525612 -0.013186187590674006 0.58267198337762449 -0.18661955054809273 0.039795319412544168 -0.10525357357199809 0.20679759316965987 -0.14358999082872739 -1.2207715038958424 -0.11253542666501277 -0.092961505167861516 -0.3380110780792363
decision_type=2 2 2 2 2 2 2 2 2 2 2 2 2 2 2 2 2 2 2 2 2 2 2
left_child=1 3 5 6 7 10 19 8 21 16 -3 13 -13 -9 -4 -14 -6 18 -7 -1 -8 -5 -19
right_child=-2 2 14 4 9 17 20 11 -10 -11 -12 12 15 -15 -16 -17 -18 22 -20 -21 -22 -23 -24
leaf_value=0.028363617777485563 0.14631153128189239 -0.013629563140702872 0.032618338237777898 -0.024527590376210794 -0.029674606771853858 -0.055941109105240854 0.044920151250593343 0.058738628892038507 0.043792072449895296 0.0032368663816304136 -0.075615253045416941 -0.041312737314741624 0.0055395644522745237 0.0067560659290231626 -0.015384856868815043 0.045811504434934459 -0.075402030307016588 -0.11739324991070232 -0.099351715382632447 -0.013128789342538798 0.078175279896592523 -0.047616352103894762 -0.089180622735699489
leaf_weight=8.393141448497774 11.110904701054094 12.028165310621263 12.112527042627336 17.144724443554878 9.1643141806125676 10.12206254899502 11.989191800355913 18.925001040101051 11.628969386219977 12.67920561134815 8.2609112933278066 10.716647505760191 19.506330505013466 13.08713725209236 13.054736465215681 14.079959981143473 9.9303276091814041 7.7265317738056201 7.223643176257613 8.1639941632747632 11.716561272740362 11.203257873654367 5.9431490674614871
leaf_count=60 71 55 54 78 50 51 59 97 59 53 65 49 90 68 63 66 51 71 54 42 60 51 47
internal_value=0 -0.00620824 -0.0433536 0.00887479 0.000580816 -0.0684067 0.0393757 0.00916376 -0.0111244 -0.0308327 -0.0388677 0.0197915 0.0070051 0.0374872 0.00771817 0.0224223 -0.0534555 -0.0877299 -0.0740195 0.00790454 0.0613565 -0.0336524 -0.105127
internal_weight=0 264.8 76.4717 188.329 148.066 51.3045 40.2629 116.292 39.977 31.7738 20.2891 76.3151 44.3029 32.0121 25.1673 33.5863 19.0946 31.0154 17.3457 16.5571 23.7058 28.348 13.6697
internal_count=1464 1393 460 933 712 343 221 558 188 154 120 370 205 165 117 156 101 223 105 102 119 129 118
is_linear=0
shrinkage=0.1


Tree=20
num_leaves=23
num_cat=0
split_feature=0 9 8 7 4 4 8 0 0 8 7 8 9 9 0 0 8 9 0 9 4 0
split_gain=13.4731 6.85007 7.83162 3.98683 6.01764 4.55637 2.28427 2.13822 3.61198 2.68269 3.66102 3.03793 1.95325 2.17345 1.81832 1.58922 1.55379 1.12114 0.953613 0.367967 0.665683 0.099421
threshold=0.17310477747784211 0.39585066881124903 -0.67190335194503426 0.093488927630511129 -0.011321270287300749 0.04040509390687215 0.10878265864575209 0.081724156717917371 0.039795319412544168 -0.60268759736237765 -0.16172081822908507 -0.17710705546401587 1.9844868373226847 1.0170100764155656 0.22729851277050137 -0.12077144827856823 -0.35538137312433454 -0.35340115362557206 -0.089841800011211725 -0.2973551402981604 0.035429575038260518 -0.035095431233660254
decision_type=2 2 2 2 2 2 2 2 2 2 2 2 2 2 2 2 2 2 2 2 2 2
left_child=1 2 15 4 7 -6 18 8 9 -4 11 -11 13 -3 19 -1 -7 21 -5 20 -2 -17
right_child=14 12 3 6 5 16 -8 -9 -10 10 -12 -13 -14 -15 -16 17 -18 -19 -20 -21 -22 -23
leaf_value=0.071246159872667067 -0.10137717540357807 0.061500780040866621 0.033728369539771118 0.056280460093536336 -0.10906828264469784 -0.0011660298866492302 -0.0076146287586954832 -0.040157736717611948 0.047844752160918075 -0.061112324529330832 0.030618367645930851 -0.0009364649730550323 0.088423679036375824 -9.9169150585249848e-05 -0.020406696688307 0.019870125948429296 -0.056840498155059586 0.050835601889043049 0.016591237039510345 -0.051360294752516203 -0.063494661537207772 0.0054436416680040149
leaf_weight=11.453372053802012 8.1252396702766436 13.298097707331182 11.761220179498194 12.763528779149057 10.691764160990717 10.306010238826277 20.946820512413979 14.213702343404291 14.001516371965407 19.98840016126632 10.9090245962143 14.457497760653494 9.6632218658924085 10.061585523188112 8.9689566493034345 9.3575466573238391 9.7600750029087049 12.700867071747782 11.515739351511 6.0157974138855961 10.809913873672484 9.7589558437466604
leaf_count=86 64 72 56 68 51 49 95 79 64 93 52 72 57 53 59 58 58 57 51 38 85 47
internal_value=0 0.00834877 0.00152718 -0.00860604 -0.0184184 -0.0563406 0.016581 -0.0047493 0.00232749 -0.00883066 -0.0198669 -0.0358555 0.0506104 0.0349682 -0.0590239 0.0393043 -0.0282459 0.0278061 0.0374557 -0.0729054 -0.0797504 0.0125054
internal_weight=0 237.609 204.586 161.315 116.089 30.7578 45.2261 85.3314 71.1177 57.1161 45.3549 34.4459 33.0229 23.3597 33.9199 43.2707 20.0661 31.8174 24.2793 24.951 18.9352 19.1165
internal_count=1464 1218 1036 788 574 158 214 416 337 273 217 165 182 125 246 248 107 162 119 187 149 105
is_linear=0
shrinkage=0.1


Tree=21
num_leaves=22
num_cat=0
split_feature=0 5 5 0 7 5 8 0 0 6 5 8 5 8 5 5 5 6 6 6 6
split_gain=11.3028 6.09832 3.98362 3.75245 3.73672 4.04024 4.17359 4.38254 3.54601 3.36781 3.28621 2.20786 2.19634 2.29323 1.89992 4.87023 3.38091 1.40391 1.27406 1.10439 0.122475
threshold=0.17310477747784211 -0.013214620292722312 0.027797524674764276 -0.1096831248075044 -0.17365379659777444 -0.0038639047109893057 -0.46322920023566166 -0.0030248622233004104 -0.12004054592758172 -0.083815754714042609 0.027790840818022508 -0.014767138044064831 -0.0088099586998974001 -0.55585383239167452 0.0017059759071504411 0.014472142283926744 -0.01086858657636185 -1.1246732718919275 0.94526847666640434 -1.2387511731094778 -1.0261984169459806
decision_type=2 2 2 2 2 2 2 2 2 2 2 2 2 2 2 2 2 2 2 2 2
left_child=1 17 9 8 5 12 7 -7 -3 20 11 -8 13 -5 16 -16 -6 19 -18 -1 -2
right_child=2 3 -4 4 14 6 10 -9 -10 -11 -12 -13 -14 -15 15 -17 18 -19 -20 -21 -22
leaf_value=0.046046407300412012 -0.096102830840833695 0.0016702728991860255 0.0021354795689050182 0.011966921101256313 -0.016353412654940995 0.05905330380364613 -0.072395598251727075 -0.0096133895026651803 0.081758983838494878 -0.03025733565988141 0.021933142916705426 -0.015453100662302875 -0.073185553109134618 -0.049765549036746598 -0.042637539038770017 0.033428244686795554 0.033540922068958756 0.028851493658491323 0.080343201463025565 0.10130299956388403 -0.11478286033833821
leaf_weight=7.762379378080368 6.0906728208065006 11.474015161395075 8.8829009309411031 10.591297954320906 10.37934324890375 17.572451539337635 13.132273003458977 19.731073498725891 10.668754570186136 9.5509996637701988 10.973746865987776 14.142025925219059 13.622044533491133 13.93465130031109 15.675762094557284 18.178238958120346 14.942864052951338 15.98513740301132 9.5232706815004331 6.7731861397624034 8.2832519859075564
leaf_count=63 43 61 62 49 50 86 72 92 56 55 62 79 68 66 75 89 74 77 52 47 86
internal_value=0 0.00760599 -0.0550516 0.00138414 -0.00333508 -0.0144609 -0.00106602 0.0227332 0.0402583 -0.0762842 -0.0242775 -0.0428703 -0.0409892 -0.023107 0.0150784 -0.00179327 0.0314701 0.0493032 0.0517584 0.0717945 -0.106868
internal_weight=0 235.063 32.8078 204.542 182.399 113.7 75.5516 37.3035 22.1428 23.9249 38.248 27.2743 38.148 24.5259 68.6995 33.854 34.8455 30.5207 24.4661 14.5356 14.3739
internal_count=1464 1218 246 1031 914 574 391 178 117 184 213 151 183 115 340 164 176 187 126 110 129
is_linear=0
shrinkage=0.1


Tree=22
num_leaves=22
num_cat=0
split_feature=3 4 9 4 6 9 0 0 6 4 9 6 9 9 9 0 0 4 9 6 0
split_gain=21.1177 10.9804 6.91373 5.4057 7.79235 3.78427 4.51346 2.41464 4.44272 4.48431 5.05304 5.35495 4.1174 2.3021 2.287 2.18811 2.43512 1.71133 1.26636 0.980733 0.720008
threshold=1.5918796184818247 -0.10449669740605527 0.41739033736737158 -0.012082551862826028 0.56097238260254689 -0.41464842816806752 0.12926846330526023 -0.098220436717642592 -0.59117308712180738 -0.044205915487223017 -0.30659961250262929 0.69430449458497179 -0.42453454965285531 1.9844868373226847 -0.18993282158135746 0.084861688761176585 0.21820680059969341 0.079420774652542644 1.0170100764155656 0.74076907473890341 -0.12833004820096541
decision_type=2 2 2 2 2 2 2 2 2 2 2 2 2 2 2 2 2 2 2 2 2
left_child=1 15 3 7 5 6 -5 19 12 -10 -11 -12 -9 18 -13 -1 -17 -7 -4 20 -3
right_child=-2 2 13 4 -6 17 -8 8 9 10 11 14 -14 -15 -16 16 -18 -19 -20 -21 -22
leaf_value=-0.028635048755507615 0.14143984070310361 0.034531384052839807 0.051686444442589331 0.037803634227211329 0.021853592948380744 -0.055352661342500192 -0.064561473300853753 -0.024497583728277598 -0.065176087492307383 -0.065264384921633181 0.063495255402989281 0.018186222132559802 0.056295008293595607 0.089070550196863274 -0.04577937822969444 -0.11729350459495724 -0.047404283999510327 -0.11044814736490244 0.001852546159229527 0.04978804348636371 0.0013718042401960728
leaf_weight=14.796635590493677 10.141854938119648 12.009169295430182 11.114463038742548 7.6600673869252232 19.922217413783073 11.787980921566488 9.8408977426588518 9.3008188009262103 14.813500024378298 9.9217775464057905 14.09975842386484 10.718042448163027 19.60179028660059 9.1761692315340024 11.681425459682947 9.1725931316614169 10.921201072633265 10.805501505732535 9.4219962880015355 13.252831012010573 14.399899214506151
leaf_count=71 71 84 61 39 88 58 83 53 67 45 68 52 98 55 57 59 89 75 50 73 68
internal_value=0 -0.00570743 0.00257471 -0.00444655 -0.0292641 -0.0546636 -0.0197569 0.00702864 -0.00201881 -0.0172714 -0.00198442 0.0152173 0.0302961 0.0474293 -0.0151721 -0.0578181 -0.0793079 -0.0817025 0.028823 0.0275902 0.0164507
internal_weight=0 254.419 219.528 189.816 60.0167 40.0944 17.501 129.799 90.1371 61.2345 46.421 36.4992 28.9026 29.7126 22.3995 34.8904 20.0938 22.5935 20.5365 39.6619 26.4091
internal_count=1464 1393 1174 1008 343 255 122 665 440 289 222 177 151 166 109 219 148 133 111 225 152
is_linear=0
shrinkage=0.1


Tree=23
num_leaves=23
num_cat=0
split_feature=9 5 8 7 9 9 9 8 2 7 5 8 5 7 2 9 9 2 5 5 9 8
split_gain=6.16361 6.71273 6.78824 5.57964 5.99418 5.4733 4.00098 3.83332 2.94939 3.17539 2.88626 3.36067 2.5271 3.08309 2.89035 2.10374 6.29995 2.06307 1.33163 0.545795 0.692493 0.532501
threshold=0.41739033736737158 0.0053464498791665812 -0.67931766227688939 0.16010789380869878 -0.41735210739475465 -0.42477468949433866 -0.39019699565701121 -0.079834823468131436 -0.16673242421291262 0.093488927630511129 0.016633255963764967 -0.50932066534736498 -0.011860025326390725 -0.16172081822908507 -0.26697106861520992 -0.29392077588789217 -0.1689266390906958 -0.34262140571658622 -0.0021105062923989135 -0.010191289093196056 -0.42275047655869452 0.56952113894261591
decision_type=2 2 2 2 2 2 2 2 2 2 2 2 2 2 2 2 2 2 2 2 2 2
left_child=1 2 19 4 -4 10 -7 -5 15 -10 -3 -12 -6 14 -14 -8 -17 18 -2 20 -1 -13
right_child=17 5 3 7 12 6 8 -9 9 -11 11 21 13 -15 -16 16 -18 -19 -20 -21 -22 -23
leaf_value=0.061785532780902201 0.036414617980965368 -0.11454710619350045 0.043773543127311632 0.080756191681585876 -0.064358095774814147 0.035102435295172443 -0.037847451221152691 0.00072897511513263268 -0.093254798827273638 -0.009701875327837544 0.0045657968535669372 -0.093078190762693663 -0.0092281553775434063 0.029421986887195106 -0.068940913243517352 0.070602223392998154 -0.029375714603669553 0.01580578892574178 0.09394353936069777 0.073468816177224949 0.018817270643707702 -0.052245995415917769
leaf_weight=8.9159842468798143 7.81964232772589 7.5311025194823769 13.80972860008478 11.705992311239244 15.308706194162367 15.448084104806183 14.407290868461127 12.248207807540892 10.025479935109617 8.3261157572269422 8.8978253751993233 7.303647872060532 21.304375462234013 10.743156157433985 13.084926940500742 10.335259199142454 16.153697982430465 16.634102389216423 8.2882001549005491 10.279168650507925 6.4744186550378826 5.6759029440581799
leaf_count=82 53 49 74 65 71 84 72 58 85 36 51 74 95 52 75 50 76 77 57 52 35 41
internal_value=0 -0.00589141 0.0098392 -0.00212902 -0.0156677 -0.0246094 -0.0102221 0.0398369 -0.0220399 -0.0553469 -0.0611522 -0.0427715 -0.029249 -0.0173401 -0.0319485 -0.00709389 0.00963291 0.0405073 0.0660158 0.0556265 0.0437097 -0.0752224
internal_weight=0 227.979 123.875 98.2051 74.2509 104.104 74.6959 23.9542 59.2478 18.3516 29.4085 21.8774 60.4412 45.1325 34.3893 40.8962 26.489 32.7419 16.1078 25.6696 15.3904 12.9796
internal_count=1464 1277 659 490 367 618 403 123 319 121 215 166 293 222 170 198 126 187 110 169 117 115
is_linear=0
shrinkage=0.1


Tree=24
num_leaves=24
num_cat=0
split_feature=0 0 2 8 0 7 2 0 0 0 8 8 8 1 0 1 8 7 8 0 2 8 0
split_gain=7.27952 3.54484 3.44376 2.71558 3.94982 2.6532 2.8662 4.25031 5.51636 2.05172 1.55761 2.64438 1.8915 1.28105 1.22471 1.19208 0.956809 0.872101 0.857641 1.79291 0.641904 0.26233 0.156971
threshold=0.17310477747784211 -0.10510161494888155 -0.19702545513379485 -0.66681521697447921 -0.096972554654982682 -0.02981583495693731 -0.28177391521589118 0.070243641741446136 0.036247768977268113 0.21842072323900652 -0.62360635693138511 0.061319199498809381 -0.29417463293793361 -0.18312176647777509 -0.0092642725365999785 -0.041172382137308595 -0.68147794257758065 0.42073213196253767 -0.68095402991986831 -0.12004054592758172 -0.34984103967270791 -0.34980303723926592 -0.061675319168316478
decision_type=2 2 2 2 2 2 2 2 2 2 2 2 2 2 2 2 2 2 2 2 2 2 2
left_child=1 13 21 16 -5 6 10 8 15 -4 -6 12 -12 18 17 -8 22 -7 -1 -20 -16 -2 -3
right_child=2 3 9 4 5 14 7 -9 -10 -11 11 -13 -14 -15 20 -17 -18 -19 19 -21 -22 -23 -24
leaf_value=0.044838234713975869 -0.0069027152484817614 0.025012433492244447 -0.11814519978180674 -0.05022657267063612 0.039221886025286312 0.015999956835520902 -0.067226152521396979 -0.094265901655369272 0.051035765771381553 -0.032501297129957578 0.0015370988021959691 0.030664110747009168 -0.049222720048381879 0.068004953901687801 -0.019179983550816744 -0.016758391202336378 0.053552444002624801 0.051558257943751809 -0.022559712774751429 0.03904525901535677 0.01635980038048079 -0.031304564815560224 0.0074467414570402171
leaf_weight=12.025573115795849 9.410991735756399 9.3874168172478694 7.80341564491391 17.172080360352993 10.658180013298987 14.143587201833727 10.016664206981661 8.270276200026272 9.147456616163252 4.3601561523973942 16.854364559054375 15.201345130801199 13.006217233836653 8.375725716352461 8.8630528748035449 8.785326153039934 9.7471640408039075 13.462759472429751 8.74526020511985 10.274426668882372 11.91292257606983 8.2831903249025363 11.10594327747822
leaf_count=95 61 45 91 86 50 71 56 74 46 45 78 71 60 39 50 50 52 69 51 62 51 49 62
internal_value=0 0.00603766 -0.0464841 0.000313292 -0.00495684 0.000583093 -0.00939193 -0.0312914 -0.0126572 -0.0874453 0.00484341 -0.00328789 -0.0205721 0.0332988 0.0195384 -0.0436448 0.0277604 0.0333406 0.0239355 0.0107193 0.00119849 -0.018326 0.0154931
internal_weight=0 227.156 29.8578 187.735 157.494 140.322 91.9398 36.2197 27.9494 12.1636 55.7201 45.0619 29.8606 39.421 48.3823 18.802 30.2405 27.6063 31.0453 19.0197 20.776 17.6942 20.4934
internal_count=1464 1218 246 971 812 726 485 226 152 136 259 209 138 247 241 106 159 140 208 113 101 110 107
is_linear=0
shrinkage=0.1


Tree=25
num_leaves=23
num_cat=0
split_feature=3 0 8 2 0 0 2 2 8 8 8 0 0 8 8 0 0 0 8 0 8 8
split_gain=17.7666 5.77468 5.76862 4.52264 1.94719 2.38946 1.97317 3.18062 1.41232 1.39655 3.24818 2.7217 1.18858 3.39917 2.56741 1.11116 1.06098 0.795039 0.704263 0.848324 0.696303 0.503977
threshold=1.5918796184818247 0.05259502399811302 2.1117721331851693 -0.098982213119872695 -0.10510161494888155 -0.097382573046999515 -0.26489347610985114 -0.010583168500779094 -0.11417854563654216 -0.065540337762642994 -0.29417463293793361 -0.031815284097525612 -0.12034360299994197 -0.68095402991986831 -0.49483977025105058 -0.0066258933184047469 -0.027447696878215907 0.16169557004780863 -0.42511057168769256 0.14511656550104113 -0.66188768694266864 0.32494317419216195
decision_type=2 2 2 2 2 2 2 2 2 2 2 2 2 2 2 2 2 2 2 2 2 2
left_child=1 4 3 18 12 -6 9 -8 -5 10 11 20 13 -1 -14 -9 -11 -10 19 -3 -7 -20
right_child=-2 2 -4 8 5 6 7 15 17 16 -12 -13 14 -15 -16 -17 -18 -19 21 -21 -22 -23
leaf_value=0.055170489192244279 0.13623088004499798 -0.059961799307148234 0.049904306882411265 -0.03707479076911363 -0.032638839247439946 0.021046792897181473 -0.04910363671437247 0.02843124956430601 -0.1255713076873157 0.053901993380883619 -0.04757702276637673 -0.013081863941264272 0.0047029549197210316 -0.034654141591646599 0.077330692614207899 -0.015254144420459099 0.014331708998089696 -0.075598205655491191 0.0018784226269681393 -0.017498911352135139 0.0543800070321315 -0.028034947156833058
leaf_weight=7.6229272857308414 9.2157961204648 8.8177036270499247 7.9337105527520171 4.7539843358099487 20.51951676607132 13.033447436988352 15.659884199500082 13.111052490770817 6.4607920125126821 11.920870222151281 10.03398012369871 19.013517990708355 9.5572346001863497 9.417767755687235 9.9187622219324094 10.473551094532013 15.699932731688021 6.2762095890939236 12.860555663704874 10.086765538901089 12.070562481880186 10.02077294886112
leaf_count=64 71 42 43 54 99 75 77 65 48 65 48 87 50 51 56 56 77 75 78 69 63 51
internal_value=0 -0.00520037 -0.0301753 -0.0408932 0.00422701 -0.00108478 0.0042655 -0.0141665 -0.0835867 0.0131115 0.00377811 0.0154582 0.0248152 0.00552771 0.0416909 0.00903125 0.0314099 -0.100947 -0.0230223 -0.0373051 0.0370741 -0.011222
internal_weight=0 245.264 67.2105 59.2768 178.053 141.536 121.017 39.2445 17.491 81.7723 54.1515 44.1175 36.5167 17.0407 19.476 23.5846 27.6208 12.737 41.7858 18.9045 25.104 22.8813
internal_count=1464 1393 460 417 933 712 613 198 177 415 273 225 221 115 106 121 142 123 240 111 138 129
is_linear=0
shrinkage=0.1


Tree=26
num_leaves=24
num_cat=0
split_feature=3 4 4 6 8 4 8 8 4 1 1 6 8 1 6 6 6 6 6 1 6 8 8
split_gain=15.5157 7.53733 4.58897 5.41529 3.85149 3.81134 3.51547 2.98517 2.04976 1.9947 6.56615 3.98582 2.38822 1.98602 1.94342 4.02238 2.90091 1.83484 1.63496 1.42492 0.628874 0.301439 0.132122
threshold=1.5918796184818247 -0.10449669740605527 -0.0038715862982319593 0.4572057441804423 -0.065540337762642994 0.035429575038260518 -0.41566050345794053 0.046026379938729808 -0.069708848267319809 -0.18937183796629725 -0.19273918767904949 0.38117569046619032 0.65589117122990681 -0.07546118650652904 0.82053051533717813 0.60850484144319295 -0.32044473459464973 -0.81953555242143283 0.83955181808704793 -0.18685212786735717 -1.1890487541913244 -0.22638235578212221 -0.6648163132823296
decision_type=2 2 2 2 2 2 2 2 2 2 2 2 2 2 2 2 2 2 2 2 2 2 2
left_child=1 7 8 5 -5 -4 22 19 -3 10 12 17 14 -8 15 16 20 -11 -13 -1 -10 -16 -7
right_child=-2 2 3 4 -6 6 13 -9 9 11 -12 18 -14 -15 21 -17 -18 -19 -20 -21 -22 -23 -24
leaf_value=-0.049596096337114502 0.13201120413934297 0.06025263842636467 -0.10935204845710166 -0.024347180289639725 0.051570209661785528 0.0099568025643428648 -0.11143712380754214 -0.085464930840132403 0.014090623812901604 -0.0025288472212277964 0.085055635905594784 0.049367692520585323 -0.039423841526248879 -0.031115237346844411 0.052358204194678938 -0.049329328887603226 0.051944366036454463 -0.060061339973997652 -0.0049775355892237262 0.0056383227937643436 -0.01779463771302087 0.02731001828599109 -0.0076051065579180038
leaf_weight=10.02933683991432 8.5916468016803247 8.2778394743800146 7.3320755064487448 13.152400538325312 13.585056051611899 7.2094079479575184 5.964547500014306 13.549625579267738 11.457299321889868 9.1976414434611815 12.428971812129019 11.049736648797991 9.7516652792692167 6.3615764379501352 10.118567265570166 11.354053549468516 15.533474080264574 13.952263884246348 11.093785941600798 8.7414200901985186 13.443672254681589 9.1482466608285886 10.556402411311863
leaf_count=54 71 39 38 62 64 35 48 97 85 48 74 51 49 67 66 58 80 74 51 68 62 55 68
internal_value=0 -0.00472503 0.00216429 -0.020145 0.0142257 -0.044701 -0.0289484 -0.0496945 0.0119145 0.00902601 0.0173896 -0.00819039 0.00698188 -0.0699826 0.0133506 0.00326335 0.0180314 -0.0372032 0.022141 -0.0238738 -0.00312376 0.0404649 -0.000478442
internal_weight=0 243.289 210.969 64.1615 26.7375 37.424 30.0919 32.3204 146.807 138.529 93.236 45.2934 80.807 12.3261 71.0553 51.7885 40.4344 23.1499 22.1435 18.7708 24.901 19.2668 17.7658
internal_count=1464 1393 1174 382 126 256 218 219 792 753 529 224 455 115 406 285 227 122 102 122 147 121 103
is_linear=0
shrinkage=0.1


Tree=27
num_leaves=22
num_cat=0
split_feature=3 4 5 6 4 0 5 4 5 5 6 6 0 5 5 6 0 5 6 5 6
split_gain=9.93109 6.39096 4.88101 3.8741 4.16846 2.92512 6.03464 4.27356 2.56425 1.75711 1.74944 2.04966 1.42161 2.57702 1.56375 1.40533 1.1512 0.900219 0.891097 1.89888 0.761639
threshold=1.0000000180025095e-35 -0.10449669740605527 -0.013214620292722312 0.083581165550841302 0.0093284924488224088 -0.1096831248075044 -0.011325316787049308 -0.031100996937109302 0.012979414278265291 -0.0019189023991349069 -0.59117308712180738 -1.0468647033984353 1.0000000180025095e-35 -0.0095719183684589166 0.027728458155099344 -0.97842823071232909 0.21820680059969341 -0.016489710096188482 0.79860634642699357 0.0053464498791665812 -1.206332340511354
decision_type=2 2 2 2 2 2 2 2 2 2 2 2 2 2 2 2 2 2 2 2 2
left_child=1 9 17 4 10 -5 -7 -8 -6 -1 11 -4 13 -9 -14 -10 -11 20 -15 -20 -3
right_child=-2 2 3 5 8 6 7 12 15 16 -12 -13 14 18 -16 -17 -18 -19 19 -21 -22
leaf_value=-0.0042468863136054967 0.10406587124419793 0.051368583176693766 -0.0096235011948724546 0.05225003025218064 -0.022057569450122234 -0.065028049468400975 -0.041706374206805626 0.059836907842675202 -0.053416495422204793 -0.076909859748148013 -0.028217385714017548 0.04582911322193689 0.015949144863229681 -0.016827102760371533 0.062951378388226648 -0.11852993386212583 -0.032088486555522558 0.069958633934260009 0.039537697089786834 -0.021345216723357017 0.0039498601638530027
leaf_weight=7.7151599302887943 8.8358298763632757 7.3857265040278435 16.099760770797733 13.4733729660511 14.155697375535967 11.655589111149309 12.917178720235823 8.521710515022269 7.261650450527668 14.440185438841583 16.052221920341253 11.375043589621781 14.937086280435325 18.458479583263404 13.45374448224902 6.0982292443513852 9.5003960616886598 9.3070780858397466 11.899072825908663 8.9955928996205312 6.2567660138010996
leaf_count=40 76 67 88 76 78 56 61 44 53 90 78 55 79 94 70 71 89 47 70 46 36
internal_value=0 -0.00388518 0.00247678 -0.00290953 -0.0212483 0.00848766 0.00264042 0.0114842 -0.0517145 -0.0457488 -0.0019891 0.0133348 0.0204932 0.00997933 0.0382224 -0.0831381 -0.0591233 0.0459799 -0.000817055 0.0133263 0.0296212
internal_weight=0 239.96 208.304 185.354 71.0426 114.312 100.838 89.1829 27.5156 31.6557 43.527 27.4748 76.2657 47.8749 28.3908 13.3599 23.9406 22.9496 39.3531 20.8947 13.6425
internal_count=1464 1388 1169 1019 423 596 520 464 202 219 221 143 403 254 149 124 179 150 210 116 103
is_linear=0
shrinkage=0.1


Tree=28
num_leaves=22
num_cat=0
split_feature=5 6 4 8 4 5 4 5 6 4 5 5 5 6 6 8 8 6 8 6 5
split_gain=3.69494 2.71889 3.50964 3.44537 3.00919 2.37097 2.65529 2.34233 1.69578 2.8295 1.65323 4.67461 1.77722 1.41369 1.31506 2.66521 4.27587 1.29582 3.51618 1.94186 1.09623
threshold=-0.013214620292722312 0.083581165550841302 0.0093284924488224088 -0.0487014336015777 -0.10449669740605527 -0.01166173757638495 -0.031100996937109302 0.012979414278265291 0.59920501253958836 -0.0021179198117540891 0.0054934947274854701 0.027797524674764276 -0.004801872607084038 -0.97842823071232909 1.138595088948658 0.36910499994895546 -0.29030078779853369 0.37032795670729673 -0.62546580222640791 -1.2322691923636655 0.021601589475145622
decision_type=2 2 2 2 2 2 2 2 2 2 2 2 2 2 2 2 2 2 2 2 2
left_child=17 2 3 10 -3 -6 -7 -4 9 -8 12 20 -2 -9 15 16 -10 18 19 -1 -12
right_child=1 4 7 -5 5 6 8 13 14 -11 11 -13 -14 -15 -16 -17 -18 -19 -20 -21 -22
leaf_value=0.019141046795212967 0.00039583262401401032 -0.043453193659246062 -0.019972960011243483 -0.052504912410455608 -0.02900415135044887 -0.023816176987130469 0.068140611970065101 -0.049511097319033782 0.027526958847517519 -0.00087310434918433724 -0.014255491237905758 0.053763593953769631 0.059962523303845085 -0.11680510398507585 0.046375240417279966 0.035680239642640173 -0.045337650054199222 0.070904048354780383 -0.031302100577041761 0.098874063651004263 -0.059128195131024353
leaf_weight=6.8611402995884454 10.49257577583194 11.638282477855681 14.074315167963507 12.298888094723223 13.814168386161326 14.94671470671892 16.518165893852714 7.0617816559970379 15.164998944848767 9.277261693030594 14.00924120470882 8.8821705467998964 9.5838082097470743 5.595215540379284 9.7971947304904443 19.443973004817963 17.174317337572582 7.2347202673554412 7.7409441620111474 5.5055048577487469 8.904846251010893
leaf_count=68 56 67 78 93 71 73 89 53 87 55 77 46 52 71 60 95 89 38 39 44 63
internal_value=0 -0.00438045 -0.0176003 -0.00491851 0.00502454 0.00988259 0.0151325 -0.0480445 0.0217952 0.04332 0.00636412 -0.00782163 0.028831 -0.0792594 0.0127787 0.00642232 -0.011169 0.034611 0.0215527 0.0546374 -0.0316939
internal_weight=0 218.678 90.9028 64.1715 127.775 116.137 102.323 26.7313 87.3759 25.7954 51.8726 31.7963 20.0764 12.657 61.5805 51.7833 32.3393 27.3423 20.1076 12.3666 22.9141
internal_count=1464 1275 589 387 686 619 548 202 475 144 294 186 108 124 331 271 176 189 151 112 140
is_linear=0
shrinkage=0.1


Tree=29
num_leaves=24
num_cat=0
split_feature=9 0 2 8 8 8 8 8 8 9 9 9 6 9 9 8 9 0 6 9 6 8 6
split_gain=4.98656 3.2462 4.61182 2.6572 2.45914 2.36918 2.31205 2.49715 4.67181 1.86326 4.66101 3.98269 2.66126 1.45641 2.20392 1.21847 1.22593 1.1615 2.02831 1.00286 0.642076 0.308982 0.00509155
threshold=0.41739033736737158 0.17310477747784211 -0.19702545513379485 -0.61872531303195 -0.50553158069743209 1.2430442886097093 0.56952113894261591 -0.29417463293793361 -0.18640428193913028 -0.41464842816806752 -0.3117870524572845 -0.42477468949433866 -1.2387511731094778 1.9844868373226847 1.0666902870505954 0.32494317419216195 -0.19291885201877884 -0.012116574394108374 0.66637044351006647 -0.31505417596959628 -0.43514262440577373 1.2430442886097093 -0.64387211757556717
decision_type=2 2 2 2 2 2 2 2 2 2 2 2 2 2 2 2 2 2 2 2 2 2 2
left_child=1 3 20 9 -5 6 7 17 -9 11 -11 12 -1 14 -2 16 19 18 -6 -10 -3 22 -4
right_child=13 2 21 4 5 -7 -8 8 15 10 -12 -13 -14 -15 -16 -17 -18 -19 -20 -21 -22 -23 -24
leaf_value=-0.029433799677560227 0.050400643596238241 -0.023960291325597006 -0.10663185963217406 -0.044147633935978259 -0.030150345885920866 -0.050908875972256712 0.036407457375288187 -0.073772314164958275 -0.0028368009891084826 -0.047445080726100902 0.033719395192724273 0.079271617593709404 0.050683950396362268 0.071589793170547311 -0.013907081337807306 -0.030974948810177483 -0.018681535274455388 0.045386626330958427 0.033457320813865842 0.040467235992633001 0.017061651495937805 -0.071555517145174885 -0.11254449498851256
leaf_weight=9.9824035242199916 12.820708960294729 8.8675530105829221 2.9828307535499334 17.206401526927948 9.3639149963855797 9.6661956533789617 15.546312659978865 11.799791075289248 9.7961632497608573 12.401397265493872 16.474566526710987 11.863748151808975 7.0911994017660644 8.920777600258587 9.1205121055245382 11.729090608656405 12.372836638242012 10.148388754576443 10.789772421121596 11.777392454445364 6.6971804648637798 3.3912101499736309 2.8460750095546228
leaf_count=76 75 66 56 89 48 51 81 65 55 56 83 79 52 60 52 66 63 56 63 58 40 28 46
internal_value=0 -0.0054919 -0.0395096 -0.00100744 -0.00892947 -0.00356635 0.000862665 -0.0054327 -0.0176796 0.0168331 -0.00113842 0.0347664 0.0038416 0.0375209 0.0236693 -0.00318864 0.00641203 0.0177966 0.00390358 0.0208037 -0.0063094 -0.0955557 -0.109519
internal_weight=0 212.794 24.7848 188.01 130.196 112.99 103.324 87.7774 57.4753 57.8133 28.876 28.9374 17.0736 30.862 21.9412 45.6755 33.9464 30.3021 20.1537 21.5736 15.5647 9.22012 5.82891
internal_count=1464 1277 236 1041 695 606 555 474 307 346 139 207 128 187 127 242 176 167 111 113 106 130 102
is_linear=0
shrinkage=0.1


Tree=30
num_leaves=24
num_cat=0
split_feature=9 5 9 6 9 5 9 5 5 8 6 8 8 9 9 5 8 5 8 9 6 0 5
split_gain=4.09836 3.06527 4.74932 4.90391 3.68546 3.87837 2.73747 2.67853 4.65065 4.35955 3.64081 2.2186 2.20053 1.68327 2.48867 1.51185 1.38402 3.03515 2.19889 0.792166 0.6479 0.601351 0.503139
threshold=0.41739033736737158 0.00565613524153515 -0.41368092170421417 0.9805567239402766 -0.42477468949433866 0.018994885345856218 -0.42453454965285531 0.028089386419154799 0.022492770374047979 -0.46322920023566166 0.30471043059210751 -0.028351431862185427 -0.50932066534736498 -0.31305233597134768 -0.28652430466552942 -0.0052897941492330803 -0.39373243233418148 -0.011082469992098417 -0.14747214607458867 1.2808108034876311 0.025715563483967845 -0.075491156290622682 -0.0095719183684589166
decision_type=2 2 2 2 2 2 2 2 2 2 2 2 2 2 2 2 2 2 2 2 2 2 2
left_child=1 2 6 13 5 -3 22 8 9 -6 -10 -11 -7 21 -15 -2 17 -16 -18 -17 -14 -4 -1
right_child=15 4 3 -5 7 12 -8 -9 10 11 -12 -13 20 14 16 19 18 -19 -20 -21 -22 -23 -24
leaf_value=0.033650790814433888 0.0098600197424246749 -0.11892783637796145 -0.056452540537964405 0.050027018155359454 0.061669340190944479 0.011066803201006892 0.084908740769827976 0.035252117616448579 -0.087590959989852113 -0.057481742157339477 -0.0079982473368617919 0.0096169633229117538 -0.081256163311967791 0.041307725845521392 -0.034855308863535626 0.03204353627548872 -0.065761262672486734 0.042871625336295842 -0.0084084626534736331 0.075742807684911151 -0.029950669848843616 -0.022495878487889118 -2.1239411697631575e-06
leaf_weight=10.10780141502619 13.859125316143038 6.4045141506940153 10.314261600375177 13.633232131600378 10.442341398447754 7.9336311221122786 9.623391214758156 12.405617747455834 12.24575722590089 8.3283206000924128 10.829674504697321 12.068618033081291 5.7687020376324618 9.2779591828584653 9.8017737865448016 8.0389849208295363 10.477867629379032 10.306329794228072 18.466614909470088 8.571177024394272 4.2932219281792641 10.549545519053934 7.926634073257449
leaf_count=91 79 46 48 76 55 49 66 70 93 48 52 67 85 45 49 48 58 56 93 60 28 54 48
internal_value=0 -0.00498561 0.005468 -0.00536925 -0.018869 -0.0520983 0.0418409 -0.00664355 -0.0162836 0.00912179 -0.0502368 -0.0177803 -0.0283141 -0.0149057 -0.00618642 0.0342461 -0.0151696 0.00498333 -0.0291701 0.0545932 -0.0593651 -0.0392827 0.0188594
internal_weight=0 211.206 120.485 92.8276 90.7204 24.4001 27.6578 66.3203 53.9147 30.8393 23.0754 20.3969 17.9956 79.1944 58.3305 30.4693 49.0526 20.1081 28.9445 16.6102 10.0619 20.8638 18.0344
internal_count=1464 1277 684 479 593 208 205 385 315 170 145 115 162 403 301 187 256 105 151 108 113 102 139
is_linear=0
shrinkage=0.1


Tree=31
num_leaves=22
num_cat=0
split_feature=9 8 8 9 6 6 9 7 9 8 7 7 8 8 6 9 9 6 2 9 9
split_gain=3.40161 2.19493 3.72587 2.83017 2.70264 4.74343 2.09679 2.59076 2.04766 2.26001 2.03711 1.64455 1.42181 2.36169 1.82321 3.48064 3.43287 2.10331 1.21837 0.800783 0.121755
threshold=1.9844868373226847 -0.28428946148206602 -0.18640428193913028 0.28488480137356265 0.35442643759360382 0.71230707754371181 -0.030299597564428609 -0.1309407388431432 -0.072715915320863675 0.14630217624397135 0.043894133880229232 0.6697764671112959 -0.59989842941984339 -0.42511057168769256 1.0000000180025095e-35 -0.41464842816806752 -0.42477468949433866 -1.2347212472512494 0.40779981323773867 -0.36866631639032305 -0.15790341807708605
decision_type=2 2 2 2 2 2 2 2 2 2 2 2 2 2 2 2 2 2 2 2 2
left_child=1 3 -3 6 8 -6 7 12 9 -4 -7 20 14 19 15 16 17 -1 -11 -14 -12
right_child=-2 2 4 -5 5 10 -8 -9 -10 18 11 -13 13 -15 -16 -17 -18 -19 -20 -21 -22
leaf_value=-0.029898518785137548 0.062062464184853221 -0.06250190805362095 0.014423092919781031 0.056902695473987734 0.049066079461618263 -0.05223853573668983 -0.041607623518413475 0.050848756513019892 -0.078886351673884747 -0.068292999619614395 0.0099864232287830493 -0.027709201389594759 -0.016919697412847764 0.022681163140532052 0.051277939707258316 -0.033316867942000679 0.064414315322642524 0.036687362302979219 -0.0087366306019632089 -0.054851859223196353 0.025586410908013859
leaf_weight=11.894576638936991 8.5066730752587301 13.216160006821154 12.566712263971569 10.318211494013665 18.44064424186945 9.58376946300268 9.9661039635539037 11.646408475935457 6.5382481142878524 8.3561794348061067 9.6532549560069985 12.896260563284157 12.192983619868754 10.801375921815639 9.10831121355295 17.446855552494529 12.020300842821596 7.8912002854049197 5.8325770590454331 10.238983016461136 10.385940138250595
leaf_count=89 60 80 97 62 99 47 54 70 42 55 45 64 79 69 44 83 84 60 70 56 55
internal_value=0 -0.00232713 -0.0127778 0.00676517 -0.00580551 0.00670873 0.00219541 0.00642382 -0.0287187 -0.0164592 -0.0116617 0.000145598 0.000775115 -0.0157354 0.0101769 0.00257613 0.0222648 -0.00334194 -0.0438111 -0.0342337 0.0180716
internal_weight=0 230.995 107.47 123.525 94.2536 60.9599 113.207 103.241 33.2937 26.7555 42.5192 32.9355 91.5946 33.2333 58.3612 49.2529 31.8061 19.7858 14.1888 22.432 20.0392
internal_count=1464 1404 654 750 574 310 688 634 264 222 211 164 564 204 360 316 233 149 125 135 100
is_linear=0
shrinkage=0.1


Tree=32
num_leaves=22
num_cat=0
split_feature=5 4 4 8 2 1 1 5 4 1 5 8 2 1 2 8 8 8 5 8 8
split_gain=2.60191 1.84367 3.21424 2.41808 4.09493 2.10838 4.63168 1.53544 2.59532 2.57498 3.38112 4.92664 2.23336 1.98014 1.36794 1.22508 1.93805 1.41024 1.80593 1.65446 1.0876
threshold=-0.013214620292722312 -0.10449669740605527 -0.069708848267319809 0.046026379938729808 -0.33376566766249444 0.45428001436646781 -0.01996755227800957 -0.011860025326390725 -0.031100996937109302 -0.18190370553583482 -0.0088099586998974001 0.52483354340712174 -0.37032610177554542 -0.14518986314128743 -0.34834344087609831 -0.67529893613302117 -0.50932066534736498 -0.070188951000200214 -0.0057799436436293773 0.77556811990786334 -0.62546580222640791
decision_type=2 2 2 2 2 2 2 2 2 2 2 2 2 2 2 2 2 2 2 2 2
left_child=14 3 -3 4 -2 6 7 -4 -9 12 -11 13 15 -12 20 -10 -17 18 -18 -19 -1
right_child=1 2 5 -5 -6 -7 -8 8 9 10 11 -13 -14 -15 -16 16 17 19 -20 -21 -22
leaf_value=0.066241524025340989 -0.047745647807020855 0.062349138276326689 -0.036424013814109465 -0.061060399931446074 0.050995960798444179 0.039306813354400789 -0.07095663386655153 -0.043547997251942139 -0.019024269003029427 0.045182805214163152 -0.030703410916591314 0.03326267345539529 0.044841359940799214 -0.096109384241791676 -0.0040922395596794583 0.040275685901189406 0.013304394374601717 0.036876216780469949 -0.045870250217451114 -0.016345612652106205 0.016096874811329358
leaf_weight=10.400824271142485 9.1901973709464091 7.9186109006404868 11.526723802089689 12.172258995473383 7.7348090037703541 11.141756817698477 10.184500943869351 11.722412064671515 15.330683302134267 6.6017817556858054 9.4729547463357466 7.5307089630514374 18.631077200174332 9.051488973200323 8.1423564404249174 17.987067557871335 9.8108762502670306 15.988942433148649 10.873173262923943 9.2026500031352025 7.4047226682305363
leaf_count=107 53 41 63 98 64 76 81 56 86 31 58 39 99 68 40 96 59 96 63 48 42
internal_value=0 -0.00368617 3.19967e-05 -0.0270675 -0.00262026 -0.00278689 -0.00564811 -0.00132149 0.00152384 0.00557309 -0.0187405 -0.0349372 0.0136897 -0.0626623 0.0298613 0.00636098 0.0124549 0.00154682 -0.0178025 0.0174339 0.0453881
internal_weight=0 212.073 182.975 29.0973 16.925 175.057 163.915 153.731 142.204 130.481 32.6569 26.0552 97.8245 18.5244 25.9479 79.1934 63.8627 45.8756 20.684 25.1916 17.8055
internal_count=1464 1275 1060 215 117 1019 943 862 799 743 196 165 547 126 189 448 362 266 122 144 149
is_linear=0
shrinkage=0.1


Tree=33
num_leaves=22
num_cat=0
split_feature=9 0 5 5 8 8 8 5 9 5 0 0 0 5 9 9 0 0 0 9 9
split_gain=2.88851 2.23184 3.39371 2.16811 1.90666 1.69033 1.76972 2.00391 1.61252 1.41015 1.18055 2.62935 2.80615 2.29862 1.57188 3.80492 1.30844 0.859656 1.92636 0.515089 0.403975
threshold=0.41739033736737158 0.17310477747784211 0.028211923792753873 0.027037792958450015 1.2430442886097093 0.56952113894261591 -0.67190335194503426 0.0053464498791665812 0.054835774606615297 -0.00074477156483104758 -0.018908618192300195 0.05259502399811302 0.039581396773231033 0.0011712673678090258 -0.24482574429103446 -0.18993282158135746 -0.093888503271551751 -0.10053793197686815 -0.12077144827856823 -0.39711821973978229 -0.42359092953618066
decision_type=2 2 2 2 2 2 2 2 2 2 2 2 2 2 2 2 2 2 2 2 2
left_child=1 4 3 -3 5 6 7 17 10 -2 13 12 -12 14 16 -16 -8 18 -1 -13 -5
right_child=9 2 -4 20 -6 -7 8 -9 -10 -11 11 19 -14 -15 15 -17 -18 -19 -20 -21 -22
leaf_value=0.053361837908207733 0.0093952368998927588 -0.0047766882344971798 0.02642687032943249 -0.06300461541466934 -0.04407271834819261 0.033522379888113123 -0.043147322807317479 -0.015293109529624347 -0.038692302600626685 0.053184458837806925 0.0030179528446099106 -0.038205854582682636 0.070532602165533448 -0.042429427237903904 0.061167686188672181 -0.01822031451393177 0.0041267255315173548 0.053622678763644439 -0.025884323040414464 -0.003833447016506457 -0.10102888927660963
leaf_weight=6.5147222578525525 16.324493896216158 5.2214524522423789 6.708235189318656 5.3647896181792056 9.5377565063536149 15.360435113310812 11.206420324742796 12.000793293118475 14.170902460813521 13.383189011365173 15.103646378964187 8.1298777908086794 10.39199189096689 17.395567812025547 11.055912621319289 13.299594603478921 12.259927190840235 12.047196034342052 5.7970160860568285 9.4013767093420011 5.830756321549412
leaf_count=77 99 53 56 74 51 81 60 65 77 88 78 51 52 86 62 71 61 76 30 63 53
internal_value=0 -0.00422438 -0.0335021 -0.0579901 -0.000538186 0.00184629 -0.00121816 0.0181536 -0.00697195 0.0291221 -0.00281925 0.0100381 0.0305368 -0.0113018 2.10807e-05 0.017817 -0.0184491 0.0346316 0.0160486 -0.0197732 -0.0828081
internal_weight=0 206.798 23.1252 16.417 183.673 174.135 158.775 36.3597 122.415 29.7077 108.244 43.0269 25.4956 65.2174 47.8219 24.3555 23.4663 24.3589 12.3117 17.5313 11.1955
internal_count=1464 1277 236 180 1041 990 909 248 661 187 584 244 130 340 254 133 121 183 107 114 127
is_linear=0
shrinkage=0.1


end of trees

feature_importances:
Column_8=118
Column_0=114
Column_9=111
Column_6=102
Column_5=78
Column_1=57
Column_4=56
Column_7=44
Column_2=43
Column_3=10

parameters:
[boosting: gbdt]
[objective: binary]
[metric: binary_logloss]
[tree_learner: serial]
[device_type: cpu]
[linear_tree: 0]
[data: ]
[valid: ]
[num_iterations: 10000]
[learning_rate: 0.1]
[num_leaves: 95]
[num_threads: 0]
[deterministic: 0]
[force_col_wise: 0]
[force_row_wise: 0]
[histogram_pool_size: -1]
[max_depth: -1]
[min_data_in_leaf: 50]
[min_sum_hessian_in_leaf: 0.001]
[bagging_fraction: 0.8]
[pos_bagging_fraction: 1]
[neg_bagging_fraction: 1]
[bagging_freq: 0]
[bagging_seed: 11149]
[feature_fraction: 0.5]
[feature_fraction_bynode: 1]
[feature_fraction_seed: 21351]
[extra_trees: 0]
[extra_seed: 16806]
[early_stopping_round: 50]
[first_metric_only: 0]
[max_delta_step: 0]
[lambda_l1: 0]
[lambda_l2: 0]
[linear_lambda: 0]
[min_gain_to_split: 0]
[drop_rate: 0.1]
[max_drop: 50]
[skip_drop: 0.5]
[xgboost_dart_mode: 0]
[uniform_drop: 0]
[drop_seed: 2965]
[top_rate: 0.2]
[other_rate: 0.1]
[min_data_per_group: 100]
[max_cat_threshold: 32]
[cat_l2: 10]
[cat_smooth: 10]
[max_cat_to_onehot: 4]
[top_k: 20]
[monotone_constraints: ]
[monotone_constraints_method: basic]
[monotone_penalty: 0]
[feature_contri: ]
[forcedsplits_filename: ]
[refit_decay_rate: 0.9]
[cegb_tradeoff: 1]
[cegb_penalty_split: 0]
[cegb_penalty_feature_lazy: ]
[cegb_penalty_feature_coupled: ]
[path_smooth: 0]
[interaction_constraints: ]
[verbosity: -1]
[saved_feature_importance_type: 0]
[max_bin: 255]
[max_bin_by_feature: ]
[min_data_in_bin: 3]
[bin_construct_sample_cnt: 200000]
[data_random_seed: 179]
[is_enable_sparse: 1]
[enable_bundle: 1]
[use_missing: 1]
[zero_as_missing: 0]
[feature_pre_filter: 1]
[pre_partition: 0]
[two_round: 0]
[header: 0]
[label_column: ]
[weight_column: ]
[group_column: ]
[ignore_column: ]
[categorical_feature: ]
[forcedbins_filename: ]
[objective_seed: 26397]
[num_class: 1]
[is_unbalance: 0]
[scale_pos_weight: 1]
[sigmoid: 1]
[boost_from_average: 1]
[reg_sqrt: 0]
[alpha: 0.9]
[fair_c: 1]
[poisson_max_delta_step: 0.7]
[tweedie_variance_power: 1.5]
[lambdarank_truncation_level: 30]
[lambdarank_norm: 1]
[label_gain: ]
[eval_at: ]
[multi_error_top_k: 1]
[auc_mu_weights: ]
[num_machines: 1]
[local_listen_port: 12400]
[time_out: 120]
[machine_list_filename: ]
[machines: ]
[gpu_platform_id: -1]
[gpu_device_id: -1]
[gpu_use_dp: 0]
[num_gpu: 1]

end of parameters

pandas_categorical:null
