tree
version=v3
num_class=1
num_tree_per_iteration=1
label_index=0
max_feature_idx=9
objective=binary sigmoid:1
feature_names=Column_0 Column_1 Column_2 Column_3 Column_4 Column_5 Column_6 Column_7 Column_8 Column_9
feature_infos=[-39.599748861351209:8.9000788482569213] [-1.662425519084197:32.507701955788043] [-1.7885478797273402:23.521722816805894] [-0.2159488219222388:5.8101459794246386] [-27.341941575767965:27.171256957381392] [-34.352181421132713:24.445706336197716] [-1.2682927843421465:15.523717361941239] [-0.29598397758150563:20.207531766523946] [-0.90089613655167222:15.542178607335664] [-0.42558784639417108:15.766073447244642]
tree_sizes=2187 2396 2201 2627 2518 2314 2634 2424 2319 2527 2544 2326 2536 2529 2635

Tree=0
num_leaves=22
num_cat=0
split_feature=2 7 7 6 9 2 9 9 9 9 6 9 6 9 6 2 6 9 9 6 2
split_gain=259.717 50.6578 35.4659 28.7005 19.8404 13.2259 7.79424 7.55083 6.34066 4.95099 4.05751 4.06099 3.93016 3.04728 3.00151 2.43254 1.29293 0.56641 1.44 0.0658689 0.0556322
threshold=-0.34921776192110027 -0.036813774874306787 -0.27796747810836225 -1.1979352573658797 -0.25557137312949291 -0.15244378175730769 0.34269975369730438 0.080891239149204722 -0.42477891974819015 -0.2016527398769139 0.97022358071404924 -0.17003843003182006 -1.2451577219097392 -0.013512199831841862 0.37032795670729673 -0.27710257831712354 -0.31941142027202701 -0.40629621131691268 -0.29692434729171496 -1.2578054892186412 0.72525223695694629
decision_type=2 2 2 2 2 2 2 2 2 2 2 2 2 2 2 2 2 2 2 2 2
left_child=2 5 3 12 8 15 10 14 -5 -3 11 -4 19 -6 17 -2 -10 20 -19 -1 -7
right_child=1 9 6 4 13 7 -8 -9 16 -11 -12 -13 -14 -15 -16 -17 -18 18 -20 -21 -22
leaf_value=0.27199999999999996 -0.10461538461538462 -0.0625 0.21739130434782608 -0.15652173913043479 0.079999999999999988 -0.38620689655172419 0.34166666666666667 -0.1806451612903226 -0.044444444444444446 0.091428571428571428 0.27619047619047621 0.080000000000000016 0.1373134328358209 0.20645161290322581 -0.25185185185185188 -0.20689655172413796 0.026666666666666668 -0.28799999999999992 -0.3839999999999999 0.25185185185185188 -0.36800000000000005
leaf_weight=12.500000000000002 16.25 15.999999999999998 23 17.25 15.000000000000002 14.499999999999998 24 15.499999999999998 22.5 17.5 21 13.749999999999998 16.75 15.499999999999998 13.499999999999998 21.75 18.75 12.500000000000002 12.500000000000002 13.499999999999998 12.499999999999998
leaf_count=50 65 64 92 69 60 58 96 62 90 70 84 55 67 62 54 87 75 50 50 54 50
internal_value=0 -0.199344 0.142389 0.0781784 0.0134831 -0.260504 0.245872 -0.306173 -0.0547009 0.0179104 0.206061 0.165986 0.212865 0.144262 -0.335878 -0.163158 -0.0121212 -0.357692 -0.336 0.261538 -0.377778
internal_weight=0 152.5 213.5 131.75 89 119 81.75 81 58.5 33.5 57.75 36.75 42.75 30.5 65.5 38 41.25 52 25 26 27
internal_count=1464 610 854 527 356 476 327 324 234 134 231 147 171 122 262 152 165 208 100 104 108
is_linear=0
shrinkage=0.2


Tree=1
num_leaves=22
num_cat=0
split_feature=2 7 3 6 6 2 6 6 6 6 6 6 6 6 1 2 2 7 6 6 6
split_gain=169.079 34.6095 27.4359 31.1226 30.6365 12.0049 7.0987 3.57218 3.47598 2.97693 2.6712 2.66724 2.66409 2.4673 1.82246 1.86209 0.941893 0.462921 0.354412 0.315457 0.25717
threshold=-0.34977611490691546 -0.18179624110959006 1.5918796184818247 0.22411191342753375 -1.1979352573658797 -0.15244378175730769 0.93048625602674828 -0.31941142027202701 -0.82573543835716923 -1.2451577219097392 0.69943650183399386 0.82053051533717813 0.81625605771112941 0.22411191342753375 -0.17705748740279911 -0.24398770152467855 0.12049993363420093 0.86481525854830521 -0.6583385180922855 0.55683912531205593 1.0611156827326373
decision_type=2 2 2 2 2 2 2 2 2 2 2 2 2 2 2 2 2 2 2 2 2
left_child=2 5 3 4 9 14 10 8 -6 -1 19 -12 -3 16 -2 -16 -7 20 -18 -5 -8
right_child=1 12 -4 6 7 13 17 -9 -10 -11 11 -13 -14 -15 15 -17 18 -19 -20 -21 -22
leaf_value=0.19469794249340178 -0.066198493269083614 -0.063753019214411774 0.37989222816155405 0.1887104289842215 -0.068994415051985489 -0.25146925984255675 0.24109366563105328 -0.016099930496803187 -0.19627913106248282 0.079621191197389612 0.038071316042438554 0.15058179131370805 0.042287213109878381 -0.20950263169941824 -0.21349640378857804 -0.1038713706357397 -0.28426686237508075 0.26872419544068893 -0.3255284136513556 0.14822036809910444 0.20220134147351115
leaf_weight=22.609442353248596 12.933200791478155 15.909283891320227 14.622652575373648 18.116653010249141 19.693171069025993 17.251675024628639 13.995677977800371 18.681251794099808 15.210262700915335 14.929515123367308 18.055138468742371 15.807020515203474 23.439548045396805 21.875401511788368 12.424426257610319 12.3671792447567 14.056467354297636 12.471165418624876 20.427830576896667 13.381834760308264 13.228669032454489
leaf_count=92 52 64 59 73 79 71 57 75 61 60 73 64 94 89 50 50 58 51 84 54 54
internal_value=0 -0.161816 0.115611 0.0959125 0.010379 -0.218798 0.170103 -0.0866841 -0.124463 0.148931 0.129587 0.0905918 -0.000586338 -0.265813 -0.12706 -0.15881 -0.289622 0.236813 -0.308709 0.171509 0.222195
internal_weight=0 150.685 210.802 196.18 91.1236 111.336 105.056 53.5847 34.9034 37.539 65.3606 33.8622 39.3488 73.6114 37.7248 24.7916 51.736 39.6955 34.4843 31.4985 27.2243
internal_count=1464 612 852 793 367 454 426 215 140 152 264 137 158 302 152 100 213 162 142 127 111
is_linear=0
shrinkage=0.2


Tree=2
num_leaves=20
num_cat=0
split_feature=0 2 6 2 4 4 0 0 2 0 0 0 6 4 0 6 6 0 6
split_gain=159.198 47.7635 28.1537 13.1338 12.0726 14.7293 6.32439 6.22176 2.31707 2.28818 3.87422 4.48826 2.19411 1.5408 1.4897 1.16771 3.01164 0.522603 0.00564089
threshold=0.057604379135362115 -0.34977611490691546 0.35017626078750813 -0.29865435432193121 -0.031100996937109302 -0.012639918730621319 -0.063351046509602646 0.026924307280537598 -0.18192828119686069 -0.027447696878215907 -0.054188026792356972 -0.090911413207777375 0.38536672346040202 0.096644770298802044 -0.017767697449296856 -1.1691057877647053 0.74076907473890341 0.13873454009486616 -0.4290060155392118
decision_type=2 2 2 2 2 2 2 2 2 2 2 2 2 2 2 2 2 2 2
left_child=1 4 8 -4 -1 9 12 14 13 10 11 15 -3 -2 -8 -6 -17 -10 -19
right_child=2 6 3 -5 5 -7 7 -9 17 -11 -12 -13 -14 -15 -16 16 -18 18 -20
leaf_value=-0.0026447494266628631 -0.19378397273864181 -0.032107300546461978 0.087356033233890587 -0.15890064777245153 0.26691049976175185 0.024243422572616111 -0.18621471679237778 0.018054536433486475 -0.26031723971284099 0.14378668053880134 0.29438488323324757 0.11785911818269459 0.07205268026022596 -0.2728672139801071 -0.094039005738118298 0.14661555151401792 0.25601837841012992 -0.30821750621496452 -0.31408399132318943
leaf_weight=17.518633186817169 23.587142139673233 14.165917694568632 16.178865507245064 18.648671582341194 17.433491542935371 22.455163955688477 15.224092170596121 14.331876799464224 11.875390738248823 23.113819792866707 19.183659583330154 22.19726587831974 18.858547165989876 16.926279723644257 13.004007413983347 18.863141372799873 21.578397706151009 15.439986929297445 11.394634664058687
leaf_count=72 96 59 67 76 73 92 63 60 52 96 80 92 77 69 54 77 91 68 50
internal_value=0 0.0930249 -0.194374 -0.044504 0.154169 0.173138 -0.0383028 -0.0892641 -0.260258 0.20046 0.213658 0.194317 0.027373 -0.226825 -0.143752 0.223642 0.20499 -0.29525 -0.310709
internal_weight=0 237.928 114.051 34.8275 162.344 144.825 75.5844 42.56 79.2234 122.37 99.256 80.0723 33.0245 40.5134 28.2281 57.875 40.4415 38.71 26.8346
internal_count=1464 986 478 143 673 601 313 177 335 509 413 333 136 165 117 241 168 170 118
is_linear=0
shrinkage=0.2


Tree=3
num_leaves=24
num_cat=0
split_feature=1 4 6 4 8 5 5 4 6 8 4 4 8 8 5 6 6 6 6 8 6 8 5
split_gain=76.8181 34.4448 22.7676 22.4839 10.7894 10.6145 9.09192 5.54576 5.28153 5.03956 5.58893 8.45438 3.99472 3.85109 3.64461 3.4297 4.22555 4.7697 3.25475 2.03621 0.864575 0.788193 0.474861
threshold=-0.18661955054809273 -0.09809377558333375 0.34294517882351022 0.0019331857151482824 -0.64580348514072072 -0.0087653996549522818 -0.012869287694397649 1.0000000180025095e-35 0.93048625602674828 -0.29030078779853369 -0.045674101382878904 0.022705297275909433 -0.66741953669536169 0.041377766701172602 0.0050479042780342898 -0.1644142718786161 0.69196650003226223 0.82053051533717813 -0.97466902907337027 -0.22591749445836648 -1.248183643406106 0.10878265864575209 0.0040007667218240192
decision_type=2 2 2 2 2 2 2 2 2 2 2 2 2 2 2 2 2 2 2 2 2 2 2
left_child=1 -1 5 6 -5 -2 20 13 12 -4 -11 -12 14 18 -8 -14 22 -18 -7 -10 -3 -9 -17
right_child=2 3 9 4 -6 7 8 21 19 10 11 -13 15 -15 -16 16 17 -19 -20 -21 -22 -23 -24
leaf_value=-0.1771119863784282 -0.015743424757440252 0.19756231397022572 0.095172185923503239 0.10531709809644992 -0.13042370331485362 -0.19502548968929026 0.22019607144487977 -0.31003844859053614 0.24565694480223735 -0.15982385612478012 0.093712128214703649 -0.10735316344692834 -0.031678937243926217 -0.24355845316158575 0.075762828661891574 0.11680078966561387 -0.058695434885722979 0.11899993274543008 -0.051336891974221865 0.14051492559027753 0.26827238242717882 -0.24193439037306713 0.17281511592139259
leaf_weight=18.923673734068871 13.025958761572836 11.41867543756962 12.365029484033583 12.402838870882986 20.771510019898415 11.712306395173071 15.102689430117609 16.172452971339229 13.53368327021599 12.993770331144331 16.990892872214317 16.477118715643883 12.395146757364271 15.754825338721274 13.007052898406981 11.908072844147684 12.512777745723726 11.684596881270407 13.659991741180422 16.171115443110466 17.54341085255146 11.726040929555891 12.313951477408407
leaf_count=78 56 52 51 51 86 52 63 73 61 54 70 68 51 74 55 50 52 50 61 73 75 56 52
internal_value=0 0.0796139 -0.113256 0.10649 -0.0422877 -0.181334 0.139931 -0.212583 0.115403 -0.0182999 -0.0484986 -0.00527722 0.0910131 -0.165892 0.153363 0.0621935 0.0862244 0.0271113 -0.117666 0.188418 0.240394 -0.281414 0.145277
internal_weight=0 199.689 140.878 180.766 33.1743 82.0516 147.591 69.0256 118.629 58.8268 46.4618 33.468 88.9243 41.1271 28.1097 60.8145 48.4194 24.1974 25.3723 29.7048 28.9621 27.8985 24.222
internal_count=1464 849 615 771 137 372 634 316 507 243 192 138 373 187 118 255 204 102 113 134 127 129 102
is_linear=0
shrinkage=0.2


Tree=4
num_leaves=23
num_cat=0
split_feature=0 1 6 3 9 9 0 6 6 9 1 6 6 0 0 1 1 0 0 1 6 9
split_gain=82.3166 20.8905 16.5194 10.8503 10.6618 7.62823 6.28779 4.59126 7.42243 4.59027 4.42561 2.86957 2.26489 2.01898 2.30248 1.82227 1.77943 1.38691 0.915665 0.634558 0.479121 0.338816
threshold=0.074700363393802968 -0.18661955054809273 0.35017626078750813 1.5918796184818247 0.73252214987386421 0.20133333106055165 -0.10989704744681753 -0.87430121152043794 0.93048625602674828 -0.42438143999082528 -0.18585029402239497 0.53720615318222398 -1.0821007217998708 -0.065240696490201935 -0.091553181125716754 -0.15168077891539863 -0.10946413755128227 -0.081284894438686583 0.1690045935576738 -0.061600239635673619 -1.1778442686625452 -0.42361729568734124
decision_type=2 2 2 2 2 2 2 2 2 2 2 2 2 2 2 2 2 2 2 2 2 2
left_child=1 3 12 5 11 6 20 9 13 -8 -4 15 -2 14 -9 -3 -13 -7 -14 -17 -1 -20
right_child=2 4 10 -5 -6 17 7 8 -10 -11 -12 16 18 -15 -16 19 -18 -19 21 -21 -22 -23
leaf_value=0.18210945904134715 -0.14841558984594577 -0.027645794416711618 0.047371515525917188 0.29192011489150221 0.15216169599972726 0.1437808655763641 0.027453161135017418 -0.0040300311445210539 0.12748422169300819 0.19845260956182068 -0.10338577669771053 0.044504505757620966 -0.19647684032660626 0.022125800245082206 -0.1225642760404516 -0.1555257442949857 -0.058343181362479471 0.24014373354505469 -0.23657618601978692 -0.0910624442941282 0.12915957777056253 -0.27888531219064056
leaf_weight=13.487005829811098 16.96034237742424 12.63477139174938 14.218692630529405 11.723227962851523 11.987678244709967 11.300903365015985 11.768898755311968 13.925424635410307 18.181612849235535 13.461759850382803 17.224252730607986 14.353098616003992 17.450812920928001 22.146289810538292 12.384593918919565 11.447011306881903 12.66801744699478 12.675073534250258 18.826935246586803 13.096208408474924 13.860404327511786 12.663537487387655
leaf_count=63 76 54 60 56 51 52 52 58 86 57 73 59 84 93 51 51 52 58 97 60 60 61
internal_value=0 0.0647649 -0.15449 0.106934 -0.0209803 0.0917891 0.0710876 0.0460273 0.0185157 0.11869 -0.0352124 -0.0533106 -0.211399 -0.0223712 -0.0598262 -0.0893587 -0.00371246 0.194724 -0.233226 -0.121128 0.155273 -0.25359
internal_weight=0 231.102 97.3446 154.915 76.1868 143.192 119.216 91.8686 66.6379 25.2307 31.4429 64.1991 65.9016 48.4563 26.31 37.178 27.0211 23.976 48.9413 24.5432 27.3474 31.4905
internal_count=1464 1013 451 686 327 630 520 397 288 109 133 276 318 202 109 165 111 110 242 111 123 158
is_linear=0
shrinkage=0.2


Tree=5
num_leaves=21
num_cat=0
split_feature=1 4 4 9 9 8 9 8 8 9 9 9 4 9 4 8 9 8 8 1
split_gain=36.5076 18.9318 16.5027 14.3514 6.82815 6.3841 6.0447 3.49053 3.12412 5.37303 2.23448 2.15617 2.13486 2.05909 1.78705 1.93056 1.44798 1.34607 0.909226 0.900723
threshold=-0.17939054777316679 -0.031100996937109302 0.0019331857151482824 -0.31711866748609369 -0.3147515304806866 -0.46903996678260812 0.38990502878912531 -0.29030078779853369 -0.22591749445836648 0.34269975369730438 -0.42444316158258083 -0.28026573526151216 -0.044545773333439655 -0.17003843003182006 -0.017832946620811606 0.25056536239124677 0.17929122869030048 -0.68104160049603735 -0.57758508587956869 -0.023810160699242962
decision_type=2 2 2 2 2 2 2 2 2 2 2 2 2 2 2 2 2 2 2 2
left_child=1 4 8 12 -1 -4 7 -5 10 11 -3 -10 -2 17 -9 -16 -15 -12 -19 -14
right_child=3 2 5 6 -6 -7 -8 14 9 -11 13 -13 19 16 15 -17 -18 18 -20 -21
leaf_value=-0.15999739184278192 -0.12483860814949521 0.08477354929029525 0.035134519641910104 0.0095071146921439659 0.021559847429124507 -0.13713865301602007 0.061250383589357443 -0.16537324443507984 -0.045381782191281604 0.18331578592234873 0.23557400252052876 0.065001809574131403 -0.24126391948597659 0.053872680393826713 -0.12680894229603201 -0.014834498149233225 0.15684060219009174 0.11606043245755678 0.18958292489347567 -0.16500512244966103
leaf_weight=19.709939867258072 18.524105802178383 25.391974523663521 19.225578755140305 15.94529367983341 14.295465186238287 15.575203269720076 19.67966391146183 12.13059478998184 11.289016753435133 11.722108125686644 12.826014205813406 18.97759506106377 16.856094479560856 10.825828447937967 12.491174906492235 12.149269759654997 11.027377247810362 12.080580145120619 15.185263499617578 9.7958825528621656
leaf_count=85 98 123 81 72 62 67 84 57 50 59 58 87 86 49 57 53 55 54 70 57
internal_value=0 0.0521473 0.0802879 -0.0885327 -0.0836729 -0.0419669 -0.0333349 -0.0686448 0.113186 0.0683543 0.134739 0.0238303 -0.176989 0.155221 -0.102534 -0.0715986 0.105831 0.182142 0.157008 -0.213235
internal_weight=0 198.132 164.127 117.572 34.0054 34.8008 72.396 52.7163 129.326 41.9887 87.337 30.2666 45.1761 61.9451 36.771 24.6404 21.8532 40.0919 27.2658 26.652
internal_count=1464 900 753 564 147 148 323 239 605 196 409 137 241 286 167 110 104 182 124 143
is_linear=0
shrinkage=0.2


Tree=6
num_leaves=24
num_cat=0
split_feature=0 8 7 7 0 0 2 2 9 0 0 2 9 8 2 0 2 9 9 9 9 2 9
split_gain=45.611 13.6268 22.4451 12.6171 8.04013 8.98412 6.69556 5.32553 3.86961 3.86831 3.14508 2.08126 1.84556 1.55484 1.07389 1.40799 0.907813 0.898724 0.881944 0.749129 0.587503 0.446433 0.0282516
threshold=0.074700363393802968 -0.6664665709816624 -0.15926604437348402 -0.24935834939541299 -0.10989704744681753 0.040098376484904434 -0.29216187774268504 -0.18192828119686069 0.73252214987386421 -0.083602389697912158 -0.079323936911649573 -0.18192828119686069 -0.23514499069042488 0.064620832888958632 -0.37058463219293097 -0.12175192704208675 -0.34080351227439731 -0.14584493360258788 -0.42444316158258083 -0.17003843003182006 -0.36090507694253326 1.1128016787113972 -0.38144294115767036
decision_type=2 2 2 2 2 2 2 2 2 2 2 2 2 2 2 2 2 2 2 2 2 2 2
left_child=1 14 4 7 -3 6 10 16 9 19 -6 -5 -11 -14 15 -1 18 -8 -2 -4 -17 22 -9
right_child=3 2 8 11 5 -7 17 21 -10 12 -12 -13 13 -15 -16 20 -18 -19 -20 -21 -22 -23 -24
leaf_value=0.17874714235754907 -0.17638211123233805 0.10689512430538793 0.17229298447742508 0.064754568133977272 -0.12200250088794327 0.067012847993280542 -0.20819491077352878 -0.2455993186407413 0.2035924458884546 0.10140138189635316 0.0015293593067947895 -0.054964511050031709 -0.048824167505464672 0.053892572139086471 0.17989509889677135 0.068307599034392222 -0.066159743728253839 -0.13531385641805946 -0.10497310952224426 0.10503803917562793 0.12795163762721587 -0.19560062699597588 -0.26107249954374717
leaf_weight=10.845444858074183 12.731312647461889 11.742628604173659 13.302272751927378 11.438480719923975 13.368102371692652 15.252182677388189 16.050937175750736 10.356991887092594 12.309556633234022 12.134720772504805 21.506903558969501 11.800884783267973 11.153528377413751 12.502293497323988 15.811258405447004 15.658747404813765 9.56022961437702 11.702265262603758 15.151706963777544 13.197056367993353 11.426423788070684 7.7093351483345023 8.6722597032785416
leaf_count=59 58 52 65 50 57 69 77 70 65 54 95 53 50 56 75 72 50 52 67 63 52 52 51
internal_value=0 0.0486895 0.0200824 -0.122307 -0.0473754 -0.070636 -0.104158 -0.168027 0.101126 0.0808764 -0.0458222 0.00396155 0.0379904 0.00546246 0.136106 0.117853 -0.119343 -0.177464 -0.137578 0.138799 0.0934696 -0.236202 -0.252651
internal_weight=0 217.964 164.222 87.4212 89.623 77.8804 62.6282 64.1818 74.5994 62.2899 34.875 23.2394 35.7905 23.6558 53.7419 37.9306 37.4432 27.7532 27.883 26.4993 27.0852 26.7386 19.0293
internal_count=1464 1013 755 451 402 350 281 348 353 288 152 103 160 106 258 183 175 129 125 128 124 173 121
is_linear=0
shrinkage=0.2


Tree=7
num_leaves=22
num_cat=0
split_feature=3 2 6 6 8 6 8 6 1 8 8 8 8 6 8 8 8 6 6 8 6
split_gain=30.1678 17.9158 7.7504 7.72824 5.01786 10.2542 5.00838 4.00911 3.03375 2.90298 2.88921 2.56921 3.37029 2.08302 1.90662 1.51175 1.44535 0.905671 0.678073 0.385938 0.291506
threshold=1.5918796184818247 -0.28203361427906098 0.97022358071404924 0.37032795670729673 -0.6664665709816624 0.24194760785665551 -0.49631601873536851 0.58607368202718513 -0.037589295221878989 -0.25727626536482329 -0.22591749445836648 0.14364725792743102 -0.28263057595656432 -0.69829257632549935 0.12970141821475942 -0.060891724525085802 -0.4911015948889888 -0.1644142718786161 -1.2302779956639716 0.35283485361750516 -1.184812165468571
decision_type=2 2 2 2 2 2 2 2 2 2 2 2 2 2 2 2 2 2 2 2 2
left_child=1 2 4 9 13 6 20 -7 14 16 -4 12 -9 18 -5 -8 -3 19 -1 -11 -6
right_child=-2 3 10 8 5 7 15 11 -10 17 -12 -13 -14 -15 -16 -17 -18 -19 -20 -21 -22
leaf_value=0.063282603979115198 0.31309031495646156 -0.13767299348002629 0.2090326239664777 -0.015206222695091105 -0.042275475902094468 0.13125032756579855 -0.19399270967930393 0.031335707134531134 0.034586965436270038 -0.21983567210700336 0.071311883070792892 0.077187576302278557 -0.10358836520979671 -0.00090522683957225023 -0.12714998132654917 -0.094060413647008026 -0.034076129872548294 -0.13007785299883687 0.12099188646739614 -0.15991396545540154 0.001138368461052986
leaf_weight=18.187105119228359 11.786030001938341 9.3320601657032984 10.104238674044611 12.610501050949098 12.60218830406666 14.288309767842291 13.334256112575533 18.278526708483692 20.925079852342606 12.717969089746481 15.349012225866316 15.20506529510021 12.449027225375181 14.943880766630171 11.76256003975868 11.092277675867079 12.742579333484171 12.30182623118162 14.748453870415689 6.4951567128300658 12.152299076318739
leaf_count=99 67 50 59 54 56 65 62 86 90 86 81 70 56 68 53 50 73 72 67 47 53
internal_value=0 -0.0135133 0.0235953 -0.0820865 0.00702565 -0.016607 -0.0843623 0.0387271 -0.0212731 -0.133491 0.125983 0.00994584 -0.0233277 0.061025 -0.0692308 -0.148613 -0.0778717 -0.172449 0.0891247 -0.199579 -0.0209631
internal_weight=0 281.622 182.735 98.8877 157.281 109.402 49.181 60.2209 45.2981 53.5896 25.4533 45.9326 30.7276 47.8794 24.3731 24.4265 22.0746 31.515 32.9356 19.2131 24.7545
internal_count=1464 1397 872 525 732 498 221 277 197 328 140 212 142 234 107 112 123 205 166 133 109
is_linear=0
shrinkage=0.2


Tree=8
num_leaves=21
num_cat=0
split_feature=5 5 8 7 9 9 5 5 5 2 9 8 5 5 5 8 8 9 5 2
split_gain=20.8351 12.1118 9.93664 14.8348 9.92487 8.38964 5.89739 6.19269 4.14117 5.16512 3.13855 2.63643 2.31019 3.44083 2.54781 1.44624 0.86207 0.813923 0.64689 0.499954
threshold=0.012756619053539702 0.027855451433192926 -0.66741953669536169 -0.15926604437348402 0.3702996620404499 -0.32902254712263151 -0.014083521669152112 0.0033101015251746891 0.027260588183175602 -0.3626442034869814 0.22475763240907196 -0.52784492423770668 0.0014096582582654069 -0.011325316787049308 -0.0057799436436293773 0.95715457449994135 -0.17710705546401587 -0.41264618702505723 0.015185087003048629 -0.32971436227704487
decision_type=2 2 2 2 2 2 2 2 2 2 2 2 2 2 2 2 2 2 2 2
left_child=2 4 17 6 8 -3 -4 10 9 -2 11 -8 13 -5 -15 19 -13 -1 -11 -10
right_child=1 5 3 12 -6 -7 7 -9 15 18 -12 16 -14 14 -16 -17 -18 -19 -20 -21
leaf_value=0.15403406359679928 -0.004623448155943048 -0.039392653665866612 0.10999392785371608 0.035534524990740994 0.072286245218331741 0.19575717293543482 -0.050993299291920306 0.050115336501186672 -0.17901641686480363 -0.19852799023957368 -0.0011226421650634359 -0.19171924766103826 0.017971642746396618 0.20184814073995747 0.085391611848744123 -0.10946042581474878 -0.11973675412886282 0.095764936730514741 -0.12290616684007671 -0.23291025059353521
leaf_weight=23.529878705739975 16.876077383756638 15.846254207193853 9.0476728677749616 15.316499076783652 10.785940803587435 9.8360821455717069 14.25369392335414 15.257051073014734 15.73350704461336 8.5014984682202357 11.239221364259718 14.011796660721297 13.187297791242598 17.426305763423443 13.211480714380746 8.7553394362330419 12.675179153680814 16.184176973998547 9.673091843724249 12.242616325616838
leaf_count=135 78 86 45 76 57 49 64 78 77 48 50 66 61 93 67 44 66 77 55 92
internal_value=0 -0.0692848 0.0423034 0.0165396 -0.106595 0.0506674 -0.041625 -0.061967 -0.133474 -0.0842978 -0.0947391 -0.120439 0.0917608 0.112936 0.15163 -0.1804 -0.157531 0.130288 -0.15828 -0.202601
internal_weight=0 108.25 175.34 135.626 82.5681 25.6823 76.4846 67.4369 71.7821 35.0507 52.1799 40.9407 59.1416 45.9543 30.6378 36.7315 26.687 39.7141 18.1746 27.9761
internal_count=1464 586 878 666 451 135 369 324 394 181 246 196 297 236 160 213 132 212 103 169
is_linear=0
shrinkage=0.2


Tree=9
num_leaves=23
num_cat=0
split_feature=7 8 2 6 6 1 1 8 8 7 6 1 8 6 1 6 8 8 8 7 8 6
split_gain=11.199 18.1052 6.76917 4.54894 6.91615 4.23944 2.90332 2.69028 2.58502 2.31802 2.25775 2.11738 2.70111 2.03942 1.37485 1.35828 1.14719 1.07079 1.95292 0.977962 0.560535 0.25703
threshold=-0.19085037397468416 -0.4053539654280745 -0.16802572554749848 -0.31941142027202701 -0.87430121152043794 -0.18191105395034554 -0.19273918767904949 0.87152479435751906 -0.66565306366509003 0.09928061749412237 0.43284140659732712 -0.19231402066281644 -0.060891724525085802 0.44730780711404544 -0.16767846101561015 0.030483897823771349 0.041377766701172602 -0.22591749445836648 0.12970141821475942 -0.057904094630715844 1.6567708667523007 -1.2469143562581977
decision_type=2 2 2 2 2 2 2 2 2 2 2 2 2 2 2 2 2 2 2 2 2 2
left_child=1 3 11 4 5 6 8 9 21 19 15 12 -3 -5 17 16 -4 -11 -19 -2 -9 -1
right_child=7 2 10 13 -6 -7 -8 20 -10 14 -12 -13 -14 -15 -16 -17 -18 18 -20 -21 -22 -23
leaf_value=0.042440414709824514 0.060850722461896295 -0.15805461367987542 -0.11682514734554091 0.12743764337432253 -0.12322514927669395 -0.076190929245025893 0.13493091485038264 -0.035063269184061871 -0.045136107191017273 0.12315491855472108 -0.25860507668382082 0.011265409006566238 -0.026055959344604158 0.025435961815998304 0.15884880643174346 -0.068924490167532271 -0.21506698002905189 -0.010336198858588601 0.11510612461882186 -0.021609767572453042 0.027153063037632288 0.088297805921140352
leaf_weight=8.4217118546366638 13.037527374923231 10.983548663556576 9.0500683709979111 19.406320825219154 15.303303912281988 12.391079813241957 13.176229692995546 11.156503364443781 13.103637889027601 14.081845037639139 8.4082812219858152 15.046605259180067 14.241256073117256 13.156054496765135 12.369865775108336 7.7030860334634772 10.016852430999277 10.142769530415537 9.7231644093990308 10.296285346150396 12.047025352716444 11.655336253345011
leaf_count=56 62 53 67 93 71 73 70 51 60 89 44 77 65 61 52 49 92 51 55 52 58 63
internal_value=0 -0.0291305 -0.104102 0.0239265 -0.00346847 0.027727 0.055504 0.0562201 0.0239632 0.075869 -0.168198 -0.0481126 -0.0835317 0.0862263 0.101766 -0.139802 -0.168437 0.0809657 0.0510602 0.0244642 -0.00276121 0.069062
internal_weight=0 182.063 75.4497 106.614 74.0513 58.748 46.3569 92.855 33.1807 69.6515 35.1783 40.2714 25.2248 32.5624 46.3176 26.77 19.0669 33.9478 19.8659 23.3338 23.2035 20.077
internal_count=1464 994 447 547 393 322 249 470 179 361 252 195 118 154 247 208 159 195 106 114 109 119
is_linear=0
shrinkage=0.2


Tree=10
num_leaves=23
num_cat=0
split_feature=3 5 5 9 5 5 9 1 5 5 9 2 9 9 1 9 2 9 2 9 5 5
split_gain=21.2584 12.1517 8.53311 6.21517 4.96088 4.90021 3.61861 3.49083 3.62959 3.23597 2.46202 3.02232 1.9931 1.89023 1.66019 1.45347 0.983956 1.57168 1.76246 0.682227 0.550763 0.38195
threshold=1.5918796184818247 0.012756619053539702 0.027855451433192926 0.41222175121651999 -0.012445976767419025 -0.011325316787049308 -0.35597976685584809 -0.18524111045945582 0.02710463152586769 -0.010356157559492993 -0.39492085813787192 -0.11058003307526527 0.021597503128869048 -0.25557137312949291 -0.19125750236653694 -0.25302379391669633 -0.085181724396317479 -0.25557137312949291 0.44706573505709918 -0.42347598332807806 -0.0010566848794468732 -0.012018209935945894
decision_type=2 2 2 2 2 2 2 2 2 2 2 2 2 2 2 2 2 2 2 2 2 2
left_child=1 4 3 7 13 21 -4 8 -3 -7 -11 12 14 19 15 -12 -9 18 -18 -1 -13 -6
right_child=-2 2 6 -5 5 9 -8 16 -10 10 11 20 -14 -15 -16 -17 17 -19 -20 -21 -22 -23
leaf_value=0.090761834748854631 0.29277224900693793 -0.017303390871115598 -0.025417240585701235 0.051531303730765421 -0.054347213542936978 0.12456670379890362 0.13301980759107707 -0.2225961449133696 -0.14407895843272586 -0.056814431740024811 0.0095229325208570637 -0.074095619633093676 0.1105948305153422 0.16587788213615604 -0.03947456064079715 0.097571940843643817 -0.027742644775367975 -0.22518174636104168 -0.17981917519897686 0.019514697102277965 -0.0077843037305804184 -0.1075797664767254
leaf_weight=12.769860729575159 9.5402117297053319 18.210046008229256 14.623843409121038 9.4882747307419759 10.536042943596842 11.216478005051611 9.5198561698198301 10.395417898893358 17.925436660647392 17.48001629114151 15.866200089454646 9.8675010949373263 15.671625554561613 9.9227118492126447 11.060989126563078 14.220707431435583 6.1205970980227011 6.5114212930202475 6.0727162733674049 9.2846314981579798 10.177852883934973 11.041911900043486
leaf_count=78 67 84 83 52 51 59 49 65 89 97 75 50 84 50 53 74 53 40 57 50 52 52
internal_value=0 -0.0112473 -0.0663132 -0.0997118 0.022968 0.00525749 0.0370545 -0.12171 -0.0801919 0.0230096 0.0109357 0.0263429 0.0498985 0.0933841 0.0267816 0.0511397 -0.173265 -0.145848 -0.103482 0.0607678 -0.0404266 -0.0815875
internal_weight=0 257.984 98.8676 74.7239 159.117 127.139 24.1437 65.2356 36.1355 105.561 94.3449 76.8649 56.8195 31.9772 41.1479 30.0869 29.1002 18.7047 12.1933 22.0545 20.0454 21.578
internal_count=1464 1397 572 440 825 647 132 388 173 544 485 388 286 178 202 149 215 150 110 128 102 103
is_linear=0
shrinkage=0.2


Tree=11
num_leaves=21
num_cat=0
split_feature=4 4 7 8 7 4 4 4 7 7 1 1 8 8 8 1 2 8 7 1
split_gain=7.95098 10.7902 8.49373 10.0344 1.73016 2.03159 2.27173 1.47168 2.04717 2.59238 2.34475 2.46781 1.84186 1.34829 1.27727 1.10679 3.3489 0.914865 0.317576 0.314172
threshold=-0.098365661860307055 0.022705297275909433 -0.24600969780873896 -0.41697549852196741 0.95709852063976175 -0.06851254864863722 -0.042914455671599773 -0.012639918730621319 0.27601438995067823 -0.078259784272698155 -0.17705748740279911 -0.19273918767904949 -0.29030078779853369 -0.6482498178569851 -0.68147794257758065 0.042647369216066121 -0.28722759554245797 -0.64412998437520008 0.50247367602149784 -0.018248145756075054
decision_type=2 2 2 2 2 2 2 2 2 2 2 2 2 2 2 2 2 2 2 2
left_child=15 4 3 13 5 -2 -7 8 9 10 11 12 14 -3 -8 16 -1 -16 -10 -5
right_child=1 2 -4 19 -6 6 7 -9 18 -11 -12 -13 -14 -15 17 -17 -18 -19 -20 -21
leaf_value=-0.1215564866168309 0.12722222010594098 0.033072153240273759 0.058311679810566633 -0.23969908390238462 0.12394790058551693 -0.049528883352599515 0.015269663196966116 -0.025669540426622187 -0.043012523181799378 0.12551513112830512 -0.028865501438249147 0.11978411859772019 -0.032266106058140641 -0.069115136607928992 0.13602067730853493 -0.14115397132250451 0.021755491893521651 0.052004745215643411 0.0075203594125620339 -0.1851777113989381
leaf_weight=16.319849938154221 8.9168984517455083 10.468319699168207 16.429407268762589 11.878720264881851 9.1463903412222844 13.427904911339281 17.09716536104678 13.617686964571474 8.8073698729276675 17.38186214864254 15.764047004282473 18.213971085846438 12.618733018636702 10.194350227713583 9.2348519861698168 10.34195179119706 10.864111527800562 11.819892950356001 11.431260511279104 6.5635496973991385
leaf_count=81 43 49 74 82 59 65 108 64 51 99 92 99 59 58 49 71 77 57 65 62
internal_value=0 0.014038 -0.0623594 -0.113058 0.0393708 0.034485 0.0289505 0.0366999 0.0436406 0.0551561 0.0407256 0.0566282 0.033971 -0.017344 0.055879 -0.0854673 -0.0642816 0.0888551 -0.0144703 -0.220295
internal_weight=0 223.012 55.5343 39.1049 167.478 158.332 149.415 135.987 122.369 102.131 84.7487 68.9846 50.7706 20.6627 38.1519 37.5259 27.184 21.0547 20.2386 18.4423
internal_count=1464 1235 325 251 910 851 808 743 679 563 464 372 273 107 214 229 158 106 116 144
is_linear=0
shrinkage=0.2


Tree=12
num_leaves=23
num_cat=0
split_feature=0 5 5 9 5 4 9 9 4 0 1 5 1 1 5 5 5 0 5 0 9 9
split_gain=11.3277 5.79907 4.49216 3.35205 4.44123 3.36836 3.71042 3.67738 4.35265 3.15124 2.16625 3.39537 2.12615 5.22408 3.38268 1.55863 1.25406 1.30818 1.25206 1.22094 0.916356 0.572633
threshold=0.074700363393802968 0.027855451433192926 -0.012445976767419025 0.73252214987386421 -0.011697384812341045 0.079420774652542644 -0.42477891974819015 -0.36799963203009861 -0.031100996937109302 -0.072727988866161455 -0.19125750236653694 0.0017059759071504411 -0.18585029402239497 0.41033361746331437 0.02710463152586769 -0.0024892581744324154 -0.0014577162839529343 -0.037430753379495245 0.027416544840483517 -0.090911413207777375 -0.29692434729171496 -0.25557137312949291
decision_type=2 2 2 2 2 2 2 2 2 2 2 2 2 2 2 2 2 2 2 2 2 2
left_child=2 12 9 4 -4 6 -6 -8 -9 21 16 -12 14 18 -2 -5 19 -18 -14 -10 -20 -1
right_child=1 -3 3 15 5 -7 7 8 10 -11 11 -13 13 -15 -16 -17 17 -19 20 -21 -22 -23
leaf_value=0.1191281434291136 0.011086926301934296 0.03816947151189571 -0.11194232424268068 0.030055320140621261 -0.082368981663713536 -0.096693834244032828 0.12743214964390789 -0.068800982020956317 0.076174621639329934 0.016485831253316225 0.061854297678983428 -0.091134317921314101 -0.23647980466523766 0.024997763270564025 -0.14012946647162311 0.14839535088426473 0.14344986965543588 0.046542903088368066 -0.19458595905026987 -0.013913519434638325 -0.082682736600489803 0.19150511675695803
leaf_weight=11.678919125348331 12.790070876479149 15.065819367766379 12.758290655910967 8.4306660741567629 12.220318742096422 10.468123458325861 14.530774056911467 18.030093111097813 13.046514876186842 12.504383265972136 12.64580900967122 10.723129183053969 10.243796985596422 6.0125247575342646 11.0119244530797 9.4329765141010267 12.4762159883976 10.069114364683626 6.086609724909068 11.169217966496943 5.6389187239110461 6.9893595129251507
leaf_count=85 63 88 63 48 67 51 77 87 79 70 63 53 85 51 62 57 66 50 67 59 35 38
internal_value=0 -0.07104 0.0248703 0.0110201 0.000477414 0.011917 0.0218111 0.0342087 0.0188434 0.0941829 0.0413763 -0.00834644 -0.102813 -0.140189 -0.0588729 0.0925453 0.0662253 0.10017 -0.185398 0.0346225 -0.140771 0.146226
internal_weight=0 66.8497 187.174 156.001 138.138 125.379 114.911 102.691 88.1601 31.1727 70.13 23.3689 51.7838 27.9819 23.802 17.8636 46.7611 22.5453 21.9693 24.2157 11.7255 18.6683
internal_count=1464 451 1013 820 715 652 601 534 457 193 370 116 363 238 125 105 254 116 187 138 102 123
is_linear=0
shrinkage=0.2


Tree=13
num_leaves=23
num_cat=0
split_feature=0 6 2 7 8 0 7 2 6 7 6 6 0 8 6 2 2 2 6 0 0 2
split_gain=7.71648 5.72341 6.17581 3.07725 5.04774 6.49595 3.77259 3.43429 3.18843 3.09509 2.77564 1.89008 1.84371 1.60876 2.35919 1.4801 1.44209 1.21472 1.18787 1.02644 0.444643 0.0736779
threshold=0.074700363393802968 0.82053051533717813 -0.18192828119686069 0.09928061749412237 -0.64580348514072072 0.040098376484904434 0.69127322212299369 -0.27400458404372974 1.0000000180025095e-35 0.42073213196253767 -0.82573543835716923 -0.083815754714042609 -0.083602389697912158 -0.1497964526933673 0.61677135602417488 -0.3703871310553904 -0.011102566627118766 1.1128016787113972 -1.2223443560588223 -0.054188026792356972 -0.062388394632693571 0.18970973396896498
decision_type=2 2 2 2 2 2 2 2 2 2 2 2 2 2 2 2 2 2 2 2 2 2
left_child=3 2 11 4 8 7 9 13 10 12 18 15 -5 14 -6 -2 -9 21 20 -18 -1 -4
right_child=1 -3 17 6 5 -7 -8 16 -10 -11 -12 -13 -14 -15 -16 -17 19 -19 -20 -21 -22 -23
leaf_value=0.06233428279115092 -0.11913945307208325 0.058237262208948384 -0.23799808033889436 0.14115098622594538 0.0094475635483207473 0.10296717993429144 -0.015149952444047982 -0.15538008061965636 0.148746522187609 0.20048676317177674 -0.067403506339184446 0.029898671742194412 0.016566420879340689 0.045546080902281114 -0.10084542489490539 -0.016423948155049061 -0.016215897236810793 -0.11172585690679238 0.11375219463936626 -0.11181610929453245 0.0012824540983501582 -0.20647990745106581
leaf_weight=8.847590681165455 12.260876774787901 13.030595891177652 5.91377802193165 7.5544168725609806 18.636825792491436 13.827050819993017 15.282306805253027 11.362939804792406 11.520460441708563 9.6127169802784902 9.1442384868860263 10.70017798244953 12.805761188268663 13.663308724761011 13.289275549352167 10.347081810235979 8.9223354011774081 5.993309970945119 10.240222781896589 9.0480177849531156 10.358027860522272 5.9531943537294865
leaf_count=71 70 63 67 47 89 69 96 60 63 55 42 51 67 67 68 70 44 64 59 56 60 66
internal_value=0 -0.0600975 -0.0902327 0.0204277 0.00566681 -0.0229862 0.0657196 -0.046231 0.0564136 0.106953 0.028849 -0.0393529 0.0627921 -0.0118839 -0.036462 -0.0721292 -0.0996128 -0.18512 0.0587397 -0.0643503 0.0294076 -0.222187
internal_weight=0 64.199 51.1684 184.115 138.86 88.7498 45.2552 74.9227 50.1105 29.9729 38.5901 33.3081 20.3602 45.5894 31.9261 22.608 29.3333 17.8603 29.4458 17.9704 19.2056 11.867
internal_count=1464 451 388 1013 748 453 265 384 295 169 232 191 114 224 157 140 160 197 190 100 131 133
is_linear=0
shrinkage=0.2


Tree=14
num_leaves=24
num_cat=0
split_feature=0 8 9 8 1 9 9 0 6 9 6 9 6 8 1 8 8 6 6 6 6 8 6
split_gain=5.61083 4.81153 3.74908 2.95188 2.33767 2.39067 2.70574 2.06778 1.69227 5.75944 2.4171 2.20009 2.07003 1.64368 1.66026 1.59851 3.36501 2.69401 2.74962 2.33665 1.48219 1.14952 0.749779
threshold=0.05259502399811302 2.1146592706516851 0.34269975369730438 -0.47182913472514248 -0.17424904585037512 -0.27853711131374098 -0.42361729568734124 -0.097739110779188051 -0.31941142027202701 -0.38452265713082001 0.41630837743536325 -0.42477891974819015 -1.2353998764326317 -0.28634946654661009 0.50597880486807367 -0.18640428193913028 -0.29030078779853369 0.70770301641497579 0.96065931014225636 0.66947038647793444 0.37032795670729673 0.68288639348406643 0.71334039186633458
decision_type=2 2 2 2 2 2 2 2 2 2 2 2 2 2 2 2 2 2 2 2 2 2 2
left_child=2 4 3 8 5 6 -2 -4 9 11 -10 12 -1 -6 21 16 19 20 -19 -5 -17 -15 -9
right_child=1 -3 7 15 13 -7 -8 22 10 -11 -12 -13 -14 14 -16 17 -18 18 -20 -21 -22 -23 -24
leaf_value=-0.053768264677913402 -0.0092670275057321876 0.096179516277012406 0.0065587441857069542 -0.082301065718681801 -0.034542974168772403 0.043085799464211899 -0.14466140932263491 0.084488030398847877 0.1440738427898359 -0.12293416399842633 0.020715789553630591 0.10175866949484036 0.082426055197500694 -0.24310602478373577 -0.056312982142864482 0.0067177495275595996 -0.15971401831522206 -0.11927205117213135 0.022998662209713777 0.055546269973741264 0.10862739498384151 -0.12164038899904102 0.16332232976851835
leaf_weight=10.943869840353726 13.147481419146059 8.0542117878794652 9.1284642107784766 9.7297172099351936 7.3428438939154175 10.871166877448557 10.716175381094219 10.130565837025644 11.479897104203703 9.9403586313128454 14.228381566703318 16.81544037908316 7.5390739217400542 6.7645433172583598 5.617232631891965 14.198103547096254 9.0957187935709936 11.118475265800955 10.627686023712156 9.9477674067020398 9.5473488271236402 5.7790143750607967 9.2156179584562761
leaf_count=79 77 47 55 52 65 53 60 52 60 47 81 97 46 87 52 78 52 52 56 59 49 45 63
internal_value=0 -0.0490015 0.0186633 0.00565146 -0.068413 -0.0346529 -0.070067 0.0850195 0.0348259 0.0115408 0.0758007 0.0494102 0.00178452 -0.114393 -0.146678 -0.0222196 -0.0591147 0.0011163 -0.0497421 -0.0126136 0.0476926 -0.187145 0.122041
internal_weight=0 68.2927 173.686 145.212 60.2385 34.7348 23.8637 28.4746 70.947 45.2387 25.7083 35.2984 18.4829 25.5036 18.1608 74.2648 28.7732 45.4916 21.7462 19.6775 23.7455 12.5436 19.3462
internal_count=1464 486 978 808 439 190 137 170 410 269 141 222 125 249 184 398 163 235 108 111 127 132 115
is_linear=0
shrinkage=0.2


end of trees

feature_importances:
Column_6=65
Column_9=50
Column_8=49
Column_0=31
Column_2=31
Column_5=29
Column_1=25
Column_4=19
Column_7=18
Column_3=4

parameters:
[boosting: gbdt]
[objective: binary]
[metric: binary_logloss]
[tree_learner: serial]
[device_type: cpu]
[linear_tree: 0]
[data: ]
[valid: ]
[num_iterations: 10000]
[learning_rate: 0.2]
[num_leaves: 63]
[num_threads: 0]
[deterministic: 0]
[force_col_wise: 0]
[force_row_wise: 0]
[histogram_pool_size: -1]
[max_depth: -1]
[min_data_in_leaf: 50]
[min_sum_hessian_in_leaf: 0.001]
[bagging_fraction: 0.8]
[pos_bagging_fraction: 1]
[neg_bagging_fraction: 1]
[bagging_freq: 0]
[bagging_seed: 11149]
[feature_fraction: 0.5]
[feature_fraction_bynode: 1]
[feature_fraction_seed: 21351]
[extra_trees: 0]
[extra_seed: 16806]
[early_stopping_round: 50]
[first_metric_only: 0]
[max_delta_step: 0]
[lambda_l1: 0]
[lambda_l2: 0]
[linear_lambda: 0]
[min_gain_to_split: 0]
[drop_rate: 0.1]
[max_drop: 50]
[skip_drop: 0.5]
[xgboost_dart_mode: 0]
[uniform_drop: 0]
[drop_seed: 2965]
[top_rate: 0.2]
[other_rate: 0.1]
[min_data_per_group: 100]
[max_cat_threshold: 32]
[cat_l2: 10]
[cat_smooth: 10]
[max_cat_to_onehot: 4]
[top_k: 20]
[monotone_constraints: ]
[monotone_constraints_method: basic]
[monotone_penalty: 0]
[feature_contri: ]
[forcedsplits_filename: ]
[refit_decay_rate: 0.9]
[cegb_tradeoff: 1]
[cegb_penalty_split: 0]
[cegb_penalty_feature_lazy: ]
[cegb_penalty_feature_coupled: ]
[path_smooth: 0]
[interaction_constraints: ]
[verbosity: -1]
[saved_feature_importance_type: 0]
[max_bin: 255]
[max_bin_by_feature: ]
[min_data_in_bin: 3]
[bin_construct_sample_cnt: 200000]
[data_random_seed: 179]
[is_enable_sparse: 1]
[enable_bundle: 1]
[use_missing: 1]
[zero_as_missing: 0]
[feature_pre_filter: 1]
[pre_partition: 0]
[two_round: 0]
[header: 0]
[label_column: ]
[weight_column: ]
[group_column: ]
[ignore_column: ]
[categorical_feature: ]
[forcedbins_filename: ]
[objective_seed: 26397]
[num_class: 1]
[is_unbalance: 0]
[scale_pos_weight: 1]
[sigmoid: 1]
[boost_from_average: 1]
[reg_sqrt: 0]
[alpha: 0.9]
[fair_c: 1]
[poisson_max_delta_step: 0.7]
[tweedie_variance_power: 1.5]
[lambdarank_truncation_level: 30]
[lambdarank_norm: 1]
[label_gain: ]
[eval_at: ]
[multi_error_top_k: 1]
[auc_mu_weights: ]
[num_machines: 1]
[local_listen_port: 12400]
[time_out: 120]
[machine_list_filename: ]
[machines: ]
[gpu_platform_id: -1]
[gpu_device_id: -1]
[gpu_use_dp: 0]
[num_gpu: 1]

end of parameters

pandas_categorical:null
