tree
version=v3
num_class=1
num_tree_per_iteration=1
label_index=0
max_feature_idx=9
objective=binary sigmoid:1
feature_names=Column_0 Column_1 Column_2 Column_3 Column_4 Column_5 Column_6 Column_7 Column_8 Column_9
feature_infos=[-5.9461523200741997:8.9000788482569213] [-0.32907603672658686:32.507701955788043] [-0.66664792683360363:23.521722816805894] [-0.2159488219222388:5.8101459794246386] [-27.341941575767965:27.171256957381392] [-4.9677192320746597:24.445706336197716] [-1.2682927843421465:6.8321570065999513] [-0.29598397758150563:20.207531766523946] [-0.92135003479692401:15.542178607335664] [-0.42558784639417108:15.766073447244642]
tree_sizes=2252 2291 2620 2516 2517 2534 2525 2524 2533 2631 2346 2324 2435 2639 2411 2546

Tree=0
num_leaves=22
num_cat=0
split_feature=2 7 7 3 6 9 6 9 9 9 2 7 6 2 6 9 6 6 6 6 6
split_gain=276.475 40.3209 38.6473 37.0141 29.7164 25.2086 9.31058 6.93731 6.73829 6.58689 6.0577 3.891 2.47507 2.0986 1.99962 1.69009 1.66814 5.29301 0.595731 0.813107 0.449818
threshold=-0.28203361427906098 -0.037661462010856246 -0.20312651041775406 1.5918796184818247 -1.1811078193870572 -0.18562244818062723 0.20757888426556992 -0.42451219494931253 -0.2016527398769139 0.33531320169086926 -0.3704234889242341 0.16305576362092575 0.47417397950223666 -0.15296317988364735 -1.241747784645084 -0.11821271487226635 0.071181393679368418 -0.61699198097761998 -0.44857571059986939 -0.90220069823125193 0.99098389876986281
decision_type=2 2 2 2 2 2 2 2 2 2 2 2 2 2 2 2 2 2 2 2 2
left_child=2 6 3 4 10 7 13 -6 -3 11 14 -4 -7 -2 -1 -8 17 -9 19 -15 -13
right_child=1 8 9 -5 5 12 15 16 -10 -11 -12 20 -14 18 -16 -17 -18 -19 -20 -21 -22
leaf_value=0.26172839506172846 -0.26440677966101694 -0.12063492063492061 0.13670886075949368 0.40000000000000002 -0.19130434782608696 0.088888888888888865 -0.23797468354430379 -0.0090909090909090922 0.066666666666666666 0.33333333333333337 0.061538461538461542 0.22702702702702704 0.21176470588235297 -0.36981132075471712 0.15999999999999998 -0.14399999999999999 0.0057971014492753624 -0.16727272727272724 -0.37391304347826093 -0.30526315789473679 0.27301587301587305
leaf_weight=20.249999999999996 14.749999999999998 15.750000000000002 19.75 12.749999999999998 17.25 13.500000000000002 19.75 21.999999999999996 14.999999999999998 24 12.999999999999998 18.5 12.749999999999998 13.249999999999995 12.500000000000002 12.499999999999998 17.25 13.750000000000002 23 19.000000000000004 15.749999999999998
leaf_count=81 59 63 79 51 69 54 79 88 60 96 52 74 51 53 50 50 69 55 92 76 63
internal_value=0 -0.230075 0.13133 0.0735484 0.0442882 -0.0186528 -0.290465 -0.0811388 -0.0292683 0.246154 0.177049 0.207407 0.148571 -0.331429 0.222901 -0.20155 -0.045283 -0.0699301 -0.349321 -0.331783 0.248175
internal_weight=0 133 233 155 142.25 96.5 102.25 70.25 30.75 78 45.75 54 26.25 70 32.75 32.25 53 35.75 55.25 32.25 34.25
internal_count=1464 532 932 620 569 386 409 281 123 312 183 216 105 280 131 129 212 143 221 129 137
is_linear=0
shrinkage=0.2


Tree=1
num_leaves=21
num_cat=0
split_feature=1 7 7 6 6 6 7 6 7 6 6 6 7 1 6 6 2 6 6 7
split_gain=191.792 30.1565 21.3144 29.3791 13.4918 6.86975 4.44168 3.13701 3.02353 3.24149 2.28776 2.26312 2.16019 1.55492 1.18241 0.952809 0.899554 0.769583 1.27122 0.703362
threshold=-0.17939054777316679 -0.037661462010856246 -0.27924747195973315 -1.1811078193870572 0.083581165550841302 0.20757888426556992 0.45957281539945433 -0.58910645847656185 0.77933131147618184 0.6953032445435029 -1.2563381828805171 0.5547724966668105 0.16305576362092575 -0.14783431257654708 -1.2370978701932818 -0.89186755500502446 0.083449533089639261 -0.91041890536765113 -0.43514262440577373 0.38653882322615213
decision_type=2 2 2 2 2 2 2 2 2 2 2 2 2 2 2 2 2 2 2 2
left_child=2 5 3 10 7 13 -3 15 9 -4 -1 -6 -11 -2 -12 -5 -7 -15 -19 -14
right_child=1 6 8 4 11 16 -8 -9 -10 12 14 -13 19 17 -16 -17 -18 18 -20 -21
leaf_value=0.26136056555780718 -0.2175969199679619 0.051944110715379799 0.26388016439830692 -0.050141421006261983 0.13528144345307488 -0.12293621293472681 -0.10053130137832055 -0.12114585174431849 0.27482217856119945 0.10886712104524242 0.13122135808862542 0.036276829634812428 0.22600734388893509 -0.32449195405551118 0.20563775528853007 0.015894108611224519 -0.1906466424629506 -0.2347037858082911 -0.30508808196275433 0.16256590510680929
leaf_weight=14.2749145925045 16.685674548149109 17.694772318005565 13.580869644880293 21.614469423890114 22.595380008220673 14.353820666670801 13.45138046145439 20.609067440032959 15.673922121524809 23.234852224588394 18.233051598072048 15.619619622826574 12.743741258978845 15.828733414411543 16.066325873136524 14.673215851187704 17.316570609807968 19.05054102838039 22.255469352006916 15.483130395412443
leaf_count=58 68 71 55 87 91 58 54 83 64 94 74 63 52 65 65 59 70 78 92 63
internal_value=0 -0.186825 0.11373 0.067532 0.0029029 -0.23788 -0.0139069 -0.0588305 0.19597 0.176968 0.19408 0.0948153 0.154031 -0.271309 0.166079 -0.0234394 -0.159959 -0.286995 -0.272626 0.191208
internal_weight=0 136.637 224.403 143.686 95.1118 105.491 31.1462 56.8968 80.7165 65.0426 48.5743 38.215 51.4617 73.8204 34.2994 36.2877 31.6704 57.1347 41.306 28.2269
internal_count=1464 556 908 580 383 431 125 229 328 264 197 154 209 303 139 146 128 235 170 115
is_linear=0
shrinkage=0.2


Tree=2
num_leaves=24
num_cat=0
split_feature=0 1 6 2 4 4 0 0 0 6 1 6 6 0 0 2 6 1 4 6 0 4 1
split_gain=156.165 51.8316 34.0048 14.3445 13.9205 10.2808 8.08185 4.46468 3.36744 4.31319 1.93573 1.89389 4.49631 2.24927 5.24115 1.39233 1.19764 1.17951 0.729489 0.510699 0.306431 0.104602 0.0485426
threshold=0.05259502399811302 -0.17939054777316679 0.47417397950223666 -0.2996931505746106 -0.01276226755525931 -0.025839997477675684 -0.060962243703939378 0.13049851848131069 0.024624638907921468 0.23651168529900665 -0.18215600110070304 -0.7854350431291276 0.20757888426556992 -0.060962243703939378 -0.091303604713184772 -0.32922093405702213 0.60850484144319295 -0.19273918767904949 0.040133207629898839 -1.241747784645084 -0.10734780266166942 -0.28924342260942176 -0.014157160924379146
decision_type=2 2 2 2 2 2 2 2 2 2 2 2 2 2 2 2 2 2 2 2 2 2 2
left_child=1 4 7 -4 5 -1 16 15 9 -8 -9 17 -13 14 20 -2 -3 19 -6 -7 -14 -12 -23
right_child=2 6 3 -5 18 11 8 10 -10 -11 21 12 13 -15 -16 -17 -18 -19 -20 -21 -22 22 -24
leaf_value=0.037183642376707626 -0.14190823786271112 -0.020615862852951493 0.11822827205075509 -0.14379335323905462 -0.023142542611889173 0.23210582888445797 -0.25381103158032259 -0.23628012071703566 -0.035255377771986833 -0.083744219672638689 -0.30196249705578504 0.076923066513385277 0.1940853533430999 0.24957846265580122 0.060911371757411126 -0.23456195352299802 0.061098184923711274 0.2755366133442867 0.045953791101056629 0.18104047585181027 0.2332035873101341 -0.33250468519776233 -0.31453281946147765
leaf_weight=19.000651136040688 12.527023494243624 14.653800234198572 15.865202844142912 17.660591095685959 12.220591679215433 15.306331112980841 11.593230798840525 18.227500557899475 11.678599312901495 12.28745126724243 14.501695916056631 14.799197435379027 15.136098504066462 22.908620566129684 12.219473734498022 13.456222802400587 14.056655615568159 14.148699194192885 12.226590573787687 16.046336039900783 17.013639450073246 11.95672295987606 12.090793773531914
leaf_count=78 51 61 66 72 50 65 50 74 50 50 63 60 63 96 51 58 57 58 50 66 71 51 53
internal_value=0 0.0935877 -0.189724 -0.0197985 0.151131 0.174433 -0.059538 -0.25856 -0.123265 -0.166306 -0.289985 0.194874 0.176731 0.198686 0.172409 -0.189892 0.0193914 0.227602 0.0114141 0.205971 0.214787 -0.315378 -0.323469
internal_weight=0 235.296 116.286 33.5258 171.026 146.579 64.2697 82.76 35.5593 23.8807 56.7767 127.578 82.077 67.2778 44.3692 25.9832 28.7105 45.5014 24.4472 31.3527 32.1497 38.5492 24.0475
internal_count=1464 976 488 138 708 608 268 350 150 100 241 530 341 281 185 109 118 189 100 131 134 167 104
is_linear=0
shrinkage=0.2


Tree=3
num_leaves=23
num_cat=0
split_feature=1 4 4 6 8 5 4 6 8 8 6 8 8 8 8 1 6 6 5 1 5 8
split_gain=86.0451 24.4954 26.9955 16.469 13.7769 9.34828 8.41197 5.7919 5.73442 5.53436 4.72354 4.21029 3.966 7.37369 5.44078 1.78262 1.75756 2.67207 1.41263 0.918721 0.842363 0.613599
threshold=-0.18661955054809273 -0.09809377558333375 -0.0021179198117540891 0.19414579807147428 -0.64615213113353753 -0.012740066464056806 0.0098042934335257088 -0.31011159136842231 -0.66506617624384823 -0.26961445889140417 0.81625605771112941 0.65356686461112812 -0.22429047982522146 -0.0097569789119566694 0.65356686461112812 -0.077642747064400594 0.65955540695841475 0.9319322244241105 0.025166313070755061 -0.10946413755128227 0.013580961385024385 -0.68095402991986831
decision_type=2 2 2 2 2 2 2 2 2 2 2 2 2 2 2 2 2 2 2 2 2 2
left_child=1 -1 5 6 -4 21 9 8 -7 -2 11 15 16 -14 -15 -5 -9 -18 -11 -12 -8 -3
right_child=3 2 4 10 -6 7 20 12 -10 18 19 -13 13 14 -16 -17 17 -19 -20 -21 -22 -23
leaf_value=-0.15077604473816542 -0.056358758209528285 0.2659157566267446 0.087833464102537645 -0.097102543692779236 -0.15952736541157925 0.11283773643577716 -0.22277679047197274 0.24081859098047975 -0.062995866577115422 -0.1459757943177579 0.04785776144507943 -0.18504176025835312 -0.032300241869848104 0.21690736692917248 0.048675615626352559 0.0066014929160538713 0.08843287176093538 0.22390808252368599 -0.24622649980384248 -0.024729698707244827 -0.29332905733821363 0.2075138121499531
leaf_weight=16.229928508400917 21.161751851439476 18.43581119179726 16.35048796236515 13.732823073863981 20.051101431250572 19.138118699193004 10.539519935846331 16.64608308672905 12.115737080574034 10.678974926471712 15.028091073036196 13.257095009088514 11.652343258261679 20.25118425488472 12.396878391504286 12.819506093859674 11.724538296461107 11.570710107684134 11.873523414134977 13.014915421605108 18.922591269016266 11.803019389510153
leaf_count=67 94 82 67 57 83 81 49 70 50 50 62 56 50 88 54 53 50 51 56 53 90 51
internal_value=0 0.0846629 0.105643 -0.119679 -0.0484204 0.144125 -0.185492 0.118206 0.0446748 -0.129823 -0.0487031 -0.0929926 0.145486 0.104281 0.153028 -0.0470341 0.191188 0.155723 -0.198756 0.0141695 -0.26809 0.24312
internal_weight=0 198.366 182.136 141.029 36.4016 145.734 73.1764 115.496 31.2539 43.7143 67.8524 39.8094 84.2417 44.3004 32.6481 26.5523 39.9413 23.2952 22.5525 28.043 29.4621 30.2388
internal_count=1464 844 777 620 150 627 339 494 131 200 281 166 363 192 142 110 171 101 106 115 139 133
is_linear=0
shrinkage=0.2


Tree=4
num_leaves=23
num_cat=0
split_feature=0 1 6 3 9 9 1 0 0 0 9 0 0 6 1 6 6 0 0 6 0 1
split_gain=80.8005 23.3824 18.4153 11.3129 10.4028 10.3475 7.63423 6.72147 5.03239 8.40093 3.19248 3.16591 3.27804 3.07402 3.0454 2.59672 2.49919 2.02719 1.99522 0.908776 0.525938 0.00219995
threshold=0.073809019063331607 -0.17939054777316679 0.35235980894835833 1.5918796184818247 0.38990502878912531 0.21265163051415573 -0.18654606640298546 -0.10925527952887815 -0.059892630507373736 -0.031815284097525612 -0.08189100771539759 -0.058109941846431 0.030489684602423073 0.86075955401135673 -0.17424904585037512 0.43490803524257254 0.083581165550841302 -0.080750087840403759 0.16595619594746178 -1.1811078193870572 0.13976849951821294 -0.046941989790404502
decision_type=2 2 2 2 2 2 2 2 2 2 2 2 2 2 2 2 2 2 2 2 2 2
left_child=1 3 14 5 10 7 -4 19 13 -10 11 -3 -13 15 18 -9 -11 -7 -2 -1 -16 -22
right_child=2 4 6 -5 -6 17 -8 8 9 16 -12 12 -14 -15 20 -17 -18 -19 -20 -21 21 -23
leaf_value=0.18262442695729145 -0.10399138366239198 0.026980676794739325 0.082088195408699771 0.29089857023708837 0.11555275605916665 0.15058899761404765 -0.11490177478131543 0.0038763323747889877 0.18500389165661707 -0.017172934231111266 -0.16901155304297372 -0.15225327491297577 -0.0099385608749527083 0.069589455492663363 -0.21374663625279222 -0.11917543557754165 0.090769515311288851 0.26810223447105858 -0.21147305634761177 0.11480598156342776 -0.27038717792706385 -0.26664849614537156
leaf_weight=15.273149967193605 11.9731742143631 13.780839696526522 13.855410724878309 12.079161450266836 14.1994342058897 11.280023589730265 18.214341685175896 15.865823417901995 19.792877435684204 22.894241109490395 11.80980411171913 15.104624435305601 11.330350458621977 12.62200917303562 9.7325650155544263 12.084756672382353 13.722269237041472 12.247504040598868 16.331960797309875 16.379652038216591 10.245895549654962 16.328754842281342
leaf_count=73 50 58 59 58 60 51 78 66 87 95 50 69 51 57 50 51 60 57 70 71 54 89
internal_value=0 0.0641475 -0.15369 0.1046 -0.0361756 0.0898105 -0.0297943 0.0675054 0.0413872 0.080025 -0.077587 -0.0507392 -0.0912555 -0.0123321 -0.215185 -0.0493265 0.0232792 0.211762 -0.166008 0.14753 -0.253523 -0.26809
internal_weight=0 230.467 96.6821 164.241 66.2251 152.162 32.0698 128.635 96.982 56.4094 52.0256 40.2158 26.435 40.5726 64.6124 27.9506 36.6165 23.5275 28.3051 31.6528 36.3072 26.5747
internal_count=1464 1014 450 726 288 668 137 560 416 242 228 178 120 174 313 117 155 108 120 144 193 143
is_linear=0
shrinkage=0.2


Tree=5
num_leaves=23
num_cat=0
split_feature=1 9 3 4 4 9 9 1 8 9 8 4 8 8 8 8 1 8 4 9 9 1
split_gain=41.1965 14.9657 14.5582 13.4269 16.4811 6.30628 5.22483 5.30392 4.04019 10.1625 3.34648 2.69239 1.78226 3.23528 1.5431 1.47334 1.14742 1.10099 0.862004 0.794294 0.665582 0.481267
threshold=-0.17939054777316679 0.74412949236218306 1.5918796184818247 0.063787313726577116 -0.039923706624893328 -0.31554238737853457 -0.32288288067277632 -0.11216112815029362 -0.65661151091804115 -0.27907851087132068 0.53877938311979334 -0.052661578701093059 -0.0051083656743994635 -0.25357674322183182 0.53877938311979334 -0.60175787471486619 -0.19273918767904949 -0.47263491837082072 0.0017156766935696316 -0.42476207166819541 -0.32035256891858904 -0.048524715802439534
decision_type=2 2 2 2 2 2 2 2 2 2 2 2 2 2 2 2 2 2 2 2 2 2
left_child=2 6 3 4 5 -1 11 -8 16 20 18 -2 13 17 -14 -5 19 -11 -9 -6 -10 -13
right_child=1 -3 -4 15 8 -7 7 10 9 12 -12 21 14 -15 -16 -17 -18 -19 -20 -21 -22 -23
leaf_value=-0.15160309571722405 -0.11731925909147858 0.097159877250127161 0.27458813944366972 -0.050735700039865564 0.081810803697398113 0.037988182727089981 -0.0087380850510378315 -0.14019792863854208 -0.0079313792292957357 0.081091500385604032 -0.039881554061683547 -0.24039365229082399 0.1997620735120991 -0.0055534764282602882 0.098528090191130277 -0.15083983964919195 0.18817851536997424 0.16616035862598005 -0.21706345895525475 0.14334112189713175 -0.070366243314535448 -0.18322807318924575
leaf_weight=17.382923945784572 18.144696161150932 14.028500601649283 11.33523643016815 11.920271053910257 14.059773162007327 11.769052937626837 22.716747149825096 12.696831285953524 16.272748664021496 12.004217222332953 10.537637278437613 15.427001968026163 13.193593814969065 11.228461548686029 11.08156408369541 11.608223930001257 12.987122505903242 12.342911899089811 10.79981456696987 20.817317023873333 11.769550263881682 9.5298311710357648
leaf_count=74 98 60 61 50 69 50 98 60 69 55 50 82 65 50 52 51 60 59 52 91 52 56
internal_value=0 -0.0962713 0.0544559 0.0412141 0.0613796 -0.0750625 -0.123447 -0.0835769 0.0906786 0.0652175 -0.133529 -0.175943 0.111768 0.0832589 0.153549 -0.100124 0.137433 0.124218 -0.175528 0.118537 -0.0341357 -0.218565
internal_weight=0 113.881 199.773 188.438 164.909 29.152 99.8526 56.751 135.757 87.893 34.0343 43.1015 59.8507 35.5756 24.2752 23.5285 47.8642 24.3471 23.4966 34.8771 28.0423 24.9568
internal_count=1464 556 908 847 746 124 496 260 622 402 162 236 281 164 117 101 220 114 112 160 121 138
is_linear=0
shrinkage=0.2


Tree=6
num_leaves=23
num_cat=0
split_feature=0 7 8 7 2 0 8 2 9 8 9 0 9 0 8 2 9 9 9 8 0 8
split_gain=45.1172 14.9303 13.4052 24.1154 7.06916 6.61487 5.1943 4.74043 4.04127 4.00569 3.81166 3.30843 2.97858 2.31536 2.18633 1.48261 1.63579 1.27494 2.65481 0.778233 0.622966 0.186693
threshold=0.05259502399811302 -0.27924747195973315 -0.65068452904015572 -0.073944482756925792 -0.29603940030603326 0.038155245844476847 0.22498096868731282 -0.16673242421291262 0.35528732987873674 -0.22429047982522146 -0.26726968430947168 -0.080750087840403759 -0.18562244818062723 -0.031815284097525612 0.041377766701172602 -0.25892039765694469 -0.42348635839032589 -0.40323722723440591 -0.42534436975762374 0.19456952240239139 -0.10205321733866948 0.53877938311979334
decision_type=2 2 2 2 2 2 2 2 2 2 2 2 2 2 2 2 2 2 2 2 2 2
left_child=2 12 13 5 -3 6 7 9 11 10 -4 -5 14 17 15 16 -2 18 -1 -13 -19 -16
right_child=1 4 3 8 -6 -7 -8 -9 -10 -11 -12 19 -14 -15 21 -17 -18 20 -20 -21 -22 -23
leaf_value=0.12724883980590748 -0.078819576605353867 0.11167980590684752 -0.099055638898487675 0.14180211823526109 -0.08675511198321248 0.089361683575492734 0.050065268257415044 -0.18753459816408471 0.19832935241999144 -0.1621641334467197 0.044736298984617923 -0.0042399649100955924 -0.06556071372044163 0.054360907321178133 -0.25999752478487648 -0.21443040180559661 -0.18207288751328182 0.076579276482924841 0.25193231093107804 0.066900145267911187 0.14307305714817278 -0.22072527376858961
leaf_weight=18.343182653188705 12.785122171044348 13.369157806038858 14.16325348615646 20.063293769955635 15.514657124876974 11.070533663034437 10.855672746896742 17.562989369034767 16.118845731019974 11.769578590989115 15.383255109190941 11.944266587495806 9.7668031826615316 13.969409570097922 9.2821048796176928 11.880023933947088 11.803395971655844 11.085814267396929 10.883987784385679 12.681524932384489 11.464095786213877 10.121890544891356
leaf_count=100 60 60 62 94 70 51 51 84 84 50 70 53 51 61 59 79 52 50 56 59 51 57
internal_value=0 -0.114733 0.0519873 0.0173384 0.00509244 -0.0542571 -0.0770568 -0.100495 0.112479 -0.063495 -0.024191 0.0815136 -0.167461 0.126618 -0.185274 -0.156415 -0.128385 0.146113 0.17368 0.032395 0.110384 -0.239512
internal_weight=0 94.5232 207.36 141.613 28.8838 80.8053 69.7347 58.8791 60.8079 41.3161 29.5465 44.6891 65.6393 65.7465 55.8725 36.4685 24.5885 51.7771 29.2272 24.6258 22.5499 19.404
internal_count=1464 488 976 658 130 368 317 266 290 182 132 206 358 318 307 191 112 257 156 112 101 116
is_linear=0
shrinkage=0.2


Tree=7
num_leaves=23
num_cat=0
split_feature=3 2 6 6 8 1 6 6 6 1 6 8 8 8 8 6 2 8 8 8 1 6
split_gain=26.3108 20.5746 9.5036 6.62727 11.5955 6.48738 3.39284 3.30945 3.05406 2.27079 2.2582 2.16867 2.16385 3.61409 1.73836 1.68513 1.41371 1.10308 2.0272 0.834786 0.838607 0.710091
threshold=1.5918796184818247 -0.28203361427906098 0.38841331330985024 0.22411191342753375 -0.65068452904015572 0.12597251103608148 0.81625605771112941 -1.241747784645084 1.138595088948658 -0.019603193391852781 0.6953032445435029 -0.18640428193913028 -0.28425759058970934 0.063956745947680957 -0.67942458038135312 -1.0860273162258369 0.083449533089639261 -0.14456676280111544 -0.49561872674973501 0.35049817006598155 0.27882314582963369 -0.50107025538238237
decision_type=2 2 2 2 2 2 2 2 2 2 2 2 2 2 2 2 2 2 2 2 2 2
left_child=1 3 9 4 7 6 -4 -1 10 16 11 -5 -12 -14 15 -9 21 18 -6 20 -11 -3
right_child=-2 2 5 8 17 -7 -8 14 -10 19 12 -13 13 -15 -16 -17 -18 -19 -20 -21 -22 -23
leaf_value=0.12081015021490793 0.29404022234356336 -0.17247024914409151 -0.12653781130578343 0.043732955073576101 -0.065196589939960248 0.10528558252671438 0.0028457142987519737 0.10776837180509985 0.16222839036611272 -0.20569993178723067 0.079354012252055281 0.15751878479912232 -0.092328713206088764 0.048572517019796528 -0.04743112157605206 0.00013937383191526618 -0.035075471432902704 -0.042909552989193196 -0.17481332082211656 -0.23757006115262158 -0.11447000076503694 -0.093505030799297506
leaf_weight=17.947182223200798 11.65814148634672 9.7675591260194796 17.41928818821907 13.890152886509897 15.088554024696348 12.077848598361014 15.165044531226156 10.238511383533476 11.537576049566267 8.3488006815314346 19.157961428165436 12.943395301699637 11.933102861046793 18.68065869808197 11.765289783477785 13.479764863848684 8.0499931648373586 12.718354970216749 12.208934411406519 9.0400543436408025 7.7918599247932425 8.5359039604663867
leaf_count=99 72 65 81 67 66 52 64 51 62 55 93 60 55 93 52 58 52 58 56 60 48 45
internal_value=0 -0.0126569 -0.0874406 0.0269594 -0.0101482 -0.0199144 -0.0663215 0.0508214 0.0663 -0.145962 0.0518521 0.0986185 0.0266388 -0.00635013 0.0154219 0.0465998 -0.104924 -0.0915574 -0.114223 -0.188912 -0.161659 -0.135644
internal_weight=0 277.786 96.1964 181.589 93.4466 44.6622 32.5843 53.4307 88.1428 51.5342 76.6053 26.8335 49.7717 30.6138 35.4836 23.7183 26.3535 40.0158 27.2975 25.1807 16.1407 18.3035
internal_count=1464 1392 522 870 440 197 145 260 430 325 368 127 241 148 161 109 162 180 122 163 103 110
is_linear=0
shrinkage=0.2


Tree=8
num_leaves=23
num_cat=0
split_feature=2 5 9 7 7 5 7 9 8 9 5 5 8 5 8 9 5 8 9 5 2 9
split_gain=14.1116 10.037 10.6399 8.78613 5.88816 5.85397 6.55114 3.96555 3.91268 3.54206 2.95396 2.90286 2.85315 2.25427 2.2179 2.95536 2.11827 1.90019 0.935341 0.746105 0.644016 0.281365
threshold=-0.28203361427906098 -0.01309653882361775 -0.42476207166819541 0.086911228977437679 0.40857737543089762 -0.011860025326390725 -0.20312651041775406 0.30318367610082836 -0.61221725449936992 -0.35671426291466607 0.013001693800737851 0.00056972026104993234 -0.67390435216175393 0.020599010963880466 -0.39187298703915857 -0.2984726384352136 0.0046468728735282287 -0.56968244337572149 0.026749277667431456 -0.0073395102167085067 0.34422911836064468 -0.38999945009568771
decision_type=2 2 2 2 2 2 2 2 2 2 2 2 2 2 2 2 2 2 2 2 2 2
left_child=1 12 17 7 -5 -4 8 10 9 -7 14 -10 -1 -13 -2 -16 19 -3 -18 -8 21 -12
right_child=3 2 5 4 -6 6 16 -9 11 -11 20 13 -14 -15 15 -17 18 -19 -20 -21 -22 -23
leaf_value=0.19800603012820425 -0.0050566058793155462 -0.058082222555497325 -0.10929358919716591 0.14015740947931055 -0.051646603535401937 -0.0011431534733682045 0.11074702398203021 0.0066657886383509925 -0.11335874083456693 0.12500481809088657 -0.11922782501142691 0.06224536888016087 0.064447018708669701 -0.058690157231243101 -0.037376738186743412 -0.19081821465139226 0.026746399326726816 -0.16665610026367517 0.10809558827199102 0.1793329678227534 -0.20856800187753485 -0.1741021520643109
leaf_weight=16.143943004310135 10.308962948620321 15.702208459377291 10.24275506287813 11.775328248739244 14.030220821499823 19.135629437863827 12.694308191537859 11.35625336319208 12.55335260927677 16.650527343153954 7.9289474040269834 12.965391367673876 10.597917795181273 11.755274191498755 9.4280086010694522 10.741253793239592 13.292117469012739 10.939934626221655 9.8380089551210386 12.683232195675371 11.144957065582274 7.0705278292298352
leaf_count=104 55 76 50 51 60 89 65 55 55 77 62 59 55 55 59 57 66 53 58 70 86 47
internal_value=0 0.0317388 0.012611 -0.0634805 0.0358755 0.0359112 0.0481455 -0.101197 0.0103149 0.0575508 -0.12283 -0.0350355 0.145076 0.0047376 -0.0805212 -0.119093 0.105124 -0.102665 0.0613469 0.145025 -0.172152 -0.145095
internal_weight=0 185.195 158.453 93.7845 25.8055 131.811 121.568 67.9789 73.0602 35.7862 56.6227 37.274 26.7419 24.7207 30.4782 20.1693 48.5077 26.6421 23.1301 25.3775 26.1444 14.9995
internal_count=1464 932 773 532 111 644 594 421 335 166 366 169 159 114 171 116 259 129 124 135 195 109
is_linear=0
shrinkage=0.2


Tree=9
num_leaves=24
num_cat=0
split_feature=2 7 7 8 8 2 6 2 6 8 8 8 6 6 6 6 6 6 6 8 8 8 6
split_gain=9.66111 6.13807 3.9092 6.74044 3.86336 3.59114 2.21588 2.1633 2.1481 2.05987 1.86468 2.6461 1.79169 4.41111 1.59432 2.23156 1.44082 2.49603 1.09508 0.800484 1.76083 0.772236 0.272327
threshold=-0.28203361427906098 0.086911228977437679 -0.20312651041775406 -0.64615213113353753 0.38219742167610343 -0.168804822737008 0.71830290250038809 -0.024239010040129984 1.1179288024962033 0.70148084643429531 0.24126813591613236 -0.29421336983204216 0.054648364517404575 -0.86988073108088781 -1.0127653307518849 0.56200569692516955 0.16934625432852854 -0.61699198097761998 -1.241747784645084 -0.2800738386759079 0.078566672601630264 -0.68029154675015746 -1.2545402159591534
decision_type=2 2 2 2 2 2 2 2 2 2 2 2 2 2 2 2 2 2 2 2 2 2 2
left_child=2 5 3 12 -3 -2 -4 -7 19 10 11 -9 13 18 -5 16 17 -16 22 -8 -21 -20 -1
right_child=1 4 6 14 -6 7 8 9 -10 -11 -12 -13 -14 -15 15 -17 -18 -19 21 20 -22 -23 -24
leaf_value=0.082706098747380746 0.0037240208927370477 0.11058438154828648 0.15813655337134394 -0.11486654552841087 -0.044422350166407762 -0.18589545792743012 0.069025838068711667 -0.0041036054391438296 0.13558069249095017 -0.1794659503837838 0.016757213272185465 -0.14709526714446175 0.12173207102264778 -0.068282230890472251 0.045702305250384295 -0.10196577800032065 0.057898688161641371 -0.082894497335616366 0.070775156278909665 -0.05731741089401883 0.053547135303902441 -0.0032659583104158434 0.1322619102838011
leaf_weight=10.504203259944918 13.742268726229666 12.160893708467485 9.5027902349829656 10.186940796673296 13.651934474706648 11.960969999432562 13.618735820055003 8.1568229496479017 9.803979925811289 7.9067122042179099 8.1825390160083753 14.168218493461614 11.654361225664614 12.601363554596899 10.359363749623293 12.10203944146633 10.930405706167219 14.471138894557958 12.666025325655935 9.6993944048881584 14.004398070275782 10.149900838732725 7.6778813526034311
leaf_count=68 81 51 53 48 60 78 75 50 62 57 56 99 59 55 50 54 51 68 73 46 76 47 47
internal_value=0 -0.0537458 0.0265341 0.00655615 0.0286041 -0.0868987 0.0700338 -0.11162 0.0522684 -0.0884936 -0.0649161 -0.0948509 0.0506608 0.0352074 -0.0430217 -0.0277306 -0.00260829 -0.0292435 0.0670165 0.0303837 0.00818229 0.0378372 0.103632
internal_weight=0 89.9304 179.933 123.304 25.8128 64.1175 56.6293 50.3753 47.1265 38.4143 30.5076 22.325 65.2537 53.5994 58.0499 47.8629 35.7609 24.8305 40.998 37.3225 23.7038 22.8159 18.1821
internal_count=1464 532 932 620 111 421 312 340 259 262 205 149 349 290 271 223 169 118 235 197 122 120 115
is_linear=0
shrinkage=0.2


Tree=10
num_leaves=21
num_cat=0
split_feature=3 5 9 5 1 9 5 9 5 5 5 1 9 5 9 5 9 1 5 5
split_gain=19.0733 8.79115 11.4456 6.98622 5.83318 4.96861 4.00585 3.31673 3.26705 3.07471 2.49332 2.13698 1.80067 1.83501 2.83333 1.38962 0.958111 0.676208 0.579782 0.969647
threshold=1.5918796184818247 -0.01309653882361775 -0.42476207166819541 0.027833171910720371 -0.18661955054809273 0.74412949236218306 0.018125983969426423 -0.15790341807708605 0.0052261404578147616 0.0033747121403451099 -0.0089436358347327518 -0.171860872371177 -0.41615777180196789 -0.010425224079157925 -0.33498476171695785 0.0087463050084790831 -0.41494846621602566 -0.058319050083059633 0.0048251090533086996 -0.009489484135310448
decision_type=2 2 2 2 2 2 2 2 2 2 2 2 2 2 2 2 2 2 2 2
left_child=1 16 8 4 7 6 9 12 -3 10 -6 -10 -4 -14 -15 -16 -1 -13 19 -9
right_child=-2 2 3 -5 5 -7 -8 18 11 -11 -12 17 13 14 15 -17 -18 -19 -20 -21
leaf_value=0.13193258778878414 0.27919126001835526 -0.0055613740927493082 0.06787270121692561 0.12846503147116414 -0.021858948703503082 0.057313373430189864 -0.1736007297248256 0.039842117467414118 -0.10142631879147923 0.028181182975150484 -0.13741350973372957 -0.25013537527255425 -0.091820700851103082 -0.081648128849712023 -0.0052629190572459567 0.082300900783327913 0.054624946800740926 -0.16377988934687027 0.03563733790141848 0.12707533956838379
leaf_weight=15.052560687065126 9.4211892709135991 8.2014836370944959 10.318291470408438 15.059075154364107 13.221690312027926 12.384484842419623 14.423931330442427 9.0486557707190496 18.491586536169049 13.294730119407175 17.16644040495158 6.7617673426866496 12.144252702593795 13.063966616988173 18.082701593637484 12.100784033536909 11.171895056962965 7.8240168616175705 13.436056137084959 11.671026267111303
leaf_count=102 72 45 49 83 64 58 95 48 93 73 89 53 56 60 90 57 59 75 75 68
internal_value=0 -0.0106313 -0.0233135 -0.00210946 -0.0136519 -0.0577016 -0.0822151 0.0174411 -0.118558 -0.0520399 -0.0871364 -0.146575 -0.00883692 -0.0231263 -0.00383631 0.0298421 0.0989987 -0.203813 0.0679957 0.088979
internal_weight=0 252.919 226.695 185.416 170.357 70.4913 58.1068 99.8657 41.2789 43.6829 30.3881 33.0774 65.71 55.3917 43.2475 30.1835 26.2245 14.5858 34.1557 20.7197
internal_count=1464 1392 1231 965 882 379 321 503 266 226 153 221 312 263 207 147 161 128 191 116
is_linear=0
shrinkage=0.2


Tree=11
num_leaves=21
num_cat=0
split_feature=4 7 8 4 8 4 8 7 7 1 2 4 7 2 8 8 1 8 1 8
split_gain=10.6327 10.8617 8.9624 7.16384 2.4571 2.33181 1.81041 1.85925 4.86104 2.77199 1.16813 1.01861 0.856615 0.72354 2.23671 2.68944 0.317672 0.290833 0.181225 0.153132
threshold=-0.01276226755525931 -0.24504549215533211 -0.64870886841419384 -0.10449669740605527 0.041377766701172602 0.054271294032511137 0.65356686461112812 -0.073944482756925792 -0.25881428044626242 -0.18751317898938449 -0.28722759554245797 0.082737787231617066 0.30777231628400353 -0.2417053570839354 -0.14747214607458867 -0.64870886841419384 -0.19273918767904949 -0.68147794257758065 -0.058319050083059633 -0.020211807704100759
decision_type=2 2 2 2 2 2 2 2 2 2 2 2 2 2 2 2 2 2 2 2
left_child=3 2 -2 4 10 -3 7 8 13 12 -1 -4 -9 14 15 16 17 -5 -6 -13
right_child=1 5 11 6 18 -7 -8 9 -10 -11 -12 19 -14 -15 -16 -17 -18 -19 -20 -21
leaf_value=-0.052931678398107945 0.0033532196368248716 -0.014589833918370902 -0.13680908127805144 0.03398790231083032 -0.1315368390184046 0.11620456071887222 -0.01872444129724464 0.16095963203088609 -0.099131163841681136 0.0030657425296468361 0.049238581087569476 -0.2235603089486487 0.089883209293727395 0.096974190506160629 0.12511975530534039 -0.029044176890377249 0.087020867425051329 0.075990174852016534 -0.090384180171578621 -0.1868924460590462
leaf_weight=9.5094331055879611 15.7455598115921 11.024068884551527 12.674071982502936 19.832927253097292 8.4606641754508036 10.787477955222128 16.448652811348438 12.673147186636927 9.4913247898220998 10.766729690134524 8.4568002298474294 12.071217965334652 14.592208776623009 12.125477775931357 11.542858228087423 20.978505469858653 11.566157549619673 9.8786128014326078 8.6632330939173681 7.317239802330735
leaf_count=48 75 53 68 128 47 52 88 75 49 48 61 89 98 73 54 97 71 56 62 72
internal_value=0 -0.0668575 -0.120216 0.0248384 -0.0565076 0.050098 0.0438812 0.0515979 0.0366937 0.0889898 -0.0048396 -0.1809 0.12292 0.0516971 0.0442579 0.0292654 0.0588999 0.047953 -0.110717 -0.209722
internal_weight=0 69.6196 47.8081 184.987 35.0901 21.8115 149.897 133.448 95.4159 38.0321 17.9662 32.0625 27.2654 85.9245 73.7991 62.2562 41.2777 29.7115 17.1239 19.3885
internal_count=1464 409 304 1055 218 105 837 749 528 221 109 229 173 479 406 352 255 184 109 161
is_linear=0
shrinkage=0.2


Tree=12
num_leaves=22
num_cat=0
split_feature=0 5 0 0 9 1 9 9 5 1 9 9 9 5 9 1 1 9 1 5 5
split_gain=14.3879 12.4812 3.87778 6.22319 4.28092 4.08959 2.0801 2.04128 1.83701 2.47467 1.6128 4.26899 4.45677 3.21834 2.65522 1.32202 1.83993 0.714271 0.474663 0.39981 0.174523
threshold=0.10554087722811235 0.030691634643949691 -0.10433505882467618 -0.099468318780302503 0.35528732987873674 -0.16027732163077049 -0.23205606662160713 -0.11476724604563798 -0.012488307860116888 -0.1927304308184242 -0.31305233597134768 -0.38999945009568771 -0.42451219494931253 -0.0019189023991349069 -0.28607996390644758 -0.18654606640298546 0.32988899289471568 -0.40188183201976474 -0.14955537249174652 0.027790840818022508 -0.0018141886435138783
decision_type=2 2 2 2 2 2 2 2 2 2 2 2 2 2 2 2 2 2 2 2 2
left_child=2 15 8 -4 6 -6 10 -8 -1 -10 11 12 13 -5 -12 17 18 -2 -17 -20 -9
right_child=1 -3 3 4 5 -7 7 20 9 -11 14 -13 -14 -15 -16 16 -18 -19 19 -21 -22
leaf_value=0.14710563552877845 -0.1225147945799564 0.14418646306092633 -0.11000995921143682 0.068081673709315491 0.19223766069604847 0.019780066376108227 -0.077114448546910075 -0.0020598319747642552 0.0054211390579438903 0.13239506113278524 0.13859170630732306 -0.068312195153000452 0.11832179858505779 -0.10135805288055988 0.0068441080321109005 -0.14704418889217405 -0.057447721020712376 -0.052605737028846612 -0.24437576440666195 -0.17191464875513712 0.037538209176845069
leaf_weight=12.173491578549145 12.890504926443102 7.988080419600009 15.119109522551296 8.4569734632968903 11.003488048911096 10.997149482369421 18.23488200455904 8.7548316344618815 16.359707057476044 9.828187972307207 11.843326240777971 18.869068250060081 18.342728555202488 9.5445534214377368 12.659541934728621 8.0802672766149062 5.8645041808485976 10.697271913290022 6.3356948532164115 5.8656810410320759 9.0587513372302038
leaf_count=101 68 51 75 50 75 50 95 48 93 49 59 94 98 53 68 57 51 55 63 59 52
internal_value=0 -0.0878692 0.0260597 0.0117941 0.0251615 0.106034 0.00979209 -0.030075 0.0829136 0.0530738 0.0278204 0.00886932 0.0489401 -0.0217566 0.0705236 -0.125141 -0.156113 -0.0908104 -0.184642 -0.209541 0.018077
internal_weight=0 57.722 191.246 152.884 137.765 22.0006 115.765 36.0485 38.3614 26.1879 79.7162 55.2133 36.3443 18.0015 24.5029 49.7339 26.1461 23.5878 20.2816 12.2014 17.8136
internal_count=1464 404 1060 817 742 125 617 195 243 142 422 295 201 103 127 353 230 123 179 122 100
is_linear=0
shrinkage=0.2


Tree=13
num_leaves=24
num_cat=0
split_feature=0 6 2 2 8 8 7 8 2 8 0 0 6 0 6 6 0 0 0 6 0 6 8
split_gain=9.83745 4.64612 4.57909 3.52049 3.14203 4.45732 3.90655 3.54692 6.04155 3.53564 3.48482 2.8951 2.81209 2.3936 1.99911 3.19171 3.15774 1.81448 1.13583 1.76076 1.69982 0.0119969 0.000407244
threshold=0.10554087722811235 0.39357546233766322 -0.18192828119686069 0.97438670847616515 0.92737439594684057 -0.23733913718304453 0.16010789380869878 -0.17710705546401587 -0.20360449720176746 -0.66377441959739591 -0.0092642725365999785 -0.016929833778653758 0.85949752486325037 0.16595619594746178 0.7356914973218257 -1.0127653307518849 -0.078432592581178198 0.15420827767184911 -0.1008944697090567 -1.1518494385769056 -0.12217977232071299 -0.20988010207401667 0.032080540226058191
decision_type=2 2 2 2 2 2 2 2 2 2 2 2 2 2 2 2 2 2 2 2 2 2 2
left_child=3 2 13 4 5 6 9 -7 11 10 18 12 -9 -2 15 -11 -17 -3 20 -20 -1 22 -4
right_child=1 17 21 -5 -6 7 -8 8 -10 14 -12 -13 -14 -15 -16 16 -18 -19 19 -21 -22 -23 -24
leaf_value=0.1030745976823656 0.011928848073919878 -0.066226277535442565 -0.22023311780810173 0.14387809708680635 0.12933823021843871 -0.15949389771659753 0.13655419947981493 -0.070735872030710509 -0.11398905444610799 -0.081212174635404172 -0.054551528863200742 0.10844242575218488 0.078175079575253784 -0.12033302664958556 -0.092627045378290848 -0.015110550557154122 0.11791629698620738 0.052848716187758438 0.04803363305698051 0.17351191427909451 -0.019070687602468394 -0.23266763007053048 -0.21734016662445488
leaf_weight=10.839609399437899 9.0320605300366896 9.1910661309957522 3.8234190605580789 8.9469606876373273 9.174364507198332 7.965392291545867 12.816637147217987 12.945903562009336 16.809508010745049 12.451441206037996 8.6417263075709325 12.642841801047323 8.3409440219402295 13.890566579997538 10.848255105316637 17.371808491647243 12.115819506347188 11.553205646574495 7.6232604123652008 10.825534753501413 7.8632688075304022 3.6410616040229797 3.9647560976445675
leaf_count=96 48 50 52 48 50 41 82 69 89 64 42 68 53 94 55 87 67 61 51 57 41 39 60
internal_value=0 -0.0746472 -0.11978 0.0214393 0.0153289 0.00917989 0.0326822 -0.035418 -0.0159397 0.0191777 0.0598436 0.0326362 -0.0123873 -0.0682187 -0.0161004 0.00369456 0.0395473 9.07234e-05 0.0864527 0.121663 0.0517209 -0.223191 -0.21876
internal_weight=0 55.0961 34.3519 188.223 179.276 170.102 111.397 58.7046 50.7392 98.5807 45.7934 33.9297 21.2868 22.9226 52.7873 41.9391 29.4876 20.7443 37.1517 18.4488 18.7029 11.4292 7.78818
internal_count=1464 404 293 1060 1012 962 642 320 279 560 287 190 122 142 273 218 154 111 245 108 137 151 112
is_linear=0
shrinkage=0.2


Tree=14
num_leaves=22
num_cat=0
split_feature=0 6 9 1 6 6 0 6 6 9 6 9 9 6 9 6 8 9 1 1 6
split_gain=7.02984 6.5607 2.85002 2.55966 2.40786 2.38918 5.28475 3.76206 1.76654 1.75626 4.79392 3.10879 4.52465 2.99524 1.74436 3.56036 1.44908 3.31137 1.43705 4.9425 1.03946
threshold=0.05259502399811302 0.16934625432852854 0.33531320169086926 0.037526075433178957 -0.68551036242345198 0.72216941693169423 -0.10433505882467618 0.9805567239402766 0.81625605771112941 -0.017553988580708026 0.38117569046619032 -0.41494846621602566 -0.42451219494931253 -1.2226314696765632 -0.034238966762071381 0.77383513306283114 -0.62523337156453007 -0.28607996390644758 -0.19230538627576635 -0.16647613792808036 -0.24397947472056708
decision_type=2 2 2 2 2 2 2 2 2 2 2 2 2 2 2 2 2 2 2 2 2
left_child=2 4 5 8 18 9 -7 -8 -4 10 11 12 13 -1 15 -3 -13 -18 -2 -20 -6
right_child=1 14 3 -5 20 6 7 -9 -10 -11 -12 16 -14 -15 -16 -17 17 -19 19 -21 -22
leaf_value=-0.062673881592140754 -0.12481723282436318 -0.041256213500362432 0.06419438471738971 -0.0064028958102012 -0.23588232291070821 0.10297045447930644 -0.12323307941606142 0.012669752827690454 0.19051317313234198 -0.056101337008582247 0.1409680009311676 0.023524070759823591 0.15429801961655232 0.079120609207357681 -0.054705424245676017 0.12249449721306223 0.010959990077556594 -0.1379047591112865 0.13943022475850958 -0.13377027013804085 -0.12567785445199259
leaf_weight=12.210571322590107 10.771666944026945 10.231793843209745 9.160535987466579 8.8559947311878187 6.75373924523592 9.4198548346757871 19.545388415455818 13.971789479255674 8.5725639015436155 9.2550094574689847 14.468583807349203 16.385436248034239 12.70224490016699 11.639127083122732 10.880600735545157 11.043767370283602 13.824572019279005 10.529347315430639 4.4843171052634698 6.47102111205459 6.9428877346217615
leaf_count=95 58 64 54 41 76 54 97 79 67 54 77 78 83 70 56 54 71 56 29 89 62
internal_value=0 -0.0549732 0.0212485 0.081407 -0.114345 0.0101367 -0.0293838 -0.0665814 0.12526 0.0269352 0.0353103 0.0155317 0.0578777 0.00652465 0.0104318 0.0437439 -0.0224618 -0.0534013 -0.0729447 -0.0219419 -0.180019
internal_weight=0 67.5798 170.541 26.5891 35.4236 143.952 42.937 33.5172 17.7331 101.015 91.7599 77.2913 36.5519 23.8497 32.1562 21.2756 40.7394 24.3539 21.727 10.9553 13.6966
internal_count=1464 488 976 162 314 814 230 176 121 584 530 453 248 165 174 118 205 127 176 118 138
is_linear=0
shrinkage=0.2


Tree=15
num_leaves=23
num_cat=0
split_feature=3 0 7 4 7 4 4 0 7 1 0 0 4 1 0 0 1 7 0 1 1 1
split_gain=9.17816 5.05332 3.59332 3.36091 2.7813 2.08291 1.91291 3.6812 3.99396 2.46427 1.91603 2.28011 3.04748 1.06621 3.27402 2.94558 1.58234 0.814385 1.26062 0.796301 0.505712 0.00814922
threshold=1.0000000180025095e-35 0.05259502399811302 -0.27924747195973315 0.096413666963374736 0.18949116938981775 -0.018838925845612867 -0.01276226755525931 -0.098398705583736867 -0.23939459562689622 -0.18934121957250258 0.039795319412544168 -0.031013074200101392 -0.04375730313021705 -0.19125750236653694 -0.067879075708397199 -0.091303604713184772 -0.15152015482155168 -0.18505516944631817 -0.12098537091788136 -0.18607993197585512 -0.1914842009541928 -0.10372723034275912
decision_type=2 2 2 2 2 2 2 2 2 2 2 2 2 2 2 2 2 2 2 2 2 2
left_child=1 6 3 5 -4 20 10 -8 9 -9 11 13 -13 14 15 17 -15 18 -1 -5 -3 -21
right_child=-2 2 4 19 -6 -7 7 8 -10 -11 -12 12 -14 16 -16 -17 -18 -19 -20 21 -22 -23
leaf_value=0.077242958578490534 0.20744485609093877 -0.054517455005007258 0.090013708944947673 -0.12769967780028685 -0.049303455722933646 0.02087084435185213 -0.13172010172891568 0.02374265336293635 0.1097763288026713 -0.12623663916681047 0.10466580285463548 -0.12920707188360034 0.013736516807531841 -0.042190931389737237 0.12934417529554665 -0.067298282321696698 0.051486104098568845 0.092240338817093842 -0.023256370574426193 -0.2300806531309797 -0.12730701317437509 -0.21577003353601798
leaf_weight=9.798016048967833 8.203823044896124 6.7880305945873252 9.4596340283751505 7.7697600275278091 14.545471221208571 10.208104074001314 10.113509640097616 9.1274374723434466 10.062358789145948 8.428926542401312 10.50489344075322 9.1814198344945925 17.034161329269409 16.092256061732773 14.397162161767481 11.538579322397714 13.071137763559816 11.834288656711577 10.179298363626005 3.2591717578470707 8.7255801223218423 3.1110445186495763
leaf_count=77 78 39 53 48 75 65 48 45 49 55 57 49 93 82 94 61 63 81 50 43 95 64
internal_value=0 -0.00791688 -0.0555347 -0.0923488 0.00559692 -0.0492907 0.01093 -0.0284869 0.00931538 -0.0482634 0.0229601 0.0153729 -0.0363263 0.0309673 0.0467096 0.0192656 -0.000204548 0.0506637 0.0260342 -0.170675 -0.0954577 -0.223092
internal_weight=0 225.23 63.8668 39.8617 24.0051 25.7217 161.363 37.7322 27.6187 17.5564 123.631 113.126 26.2156 86.9107 57.7473 43.3502 29.1634 31.8116 19.9773 14.14 15.5136 6.37022
internal_count=1464 1386 482 354 128 199 904 197 149 100 707 650 142 508 363 269 145 208 127 155 134 107
is_linear=0
shrinkage=0.2


end of trees

feature_importances:
Column_6=69
Column_8=54
Column_9=46
Column_0=41
Column_1=40
Column_5=25
Column_7=25
Column_2=21
Column_4=19
Column_3=6

parameters:
[boosting: gbdt]
[objective: binary]
[metric: binary_logloss]
[tree_learner: serial]
[device_type: cpu]
[linear_tree: 0]
[data: ]
[valid: ]
[num_iterations: 10000]
[learning_rate: 0.2]
[num_leaves: 63]
[num_threads: 0]
[deterministic: 0]
[force_col_wise: 0]
[force_row_wise: 0]
[histogram_pool_size: -1]
[max_depth: -1]
[min_data_in_leaf: 50]
[min_sum_hessian_in_leaf: 0.001]
[bagging_fraction: 0.8]
[pos_bagging_fraction: 1]
[neg_bagging_fraction: 1]
[bagging_freq: 0]
[bagging_seed: 11149]
[feature_fraction: 0.5]
[feature_fraction_bynode: 1]
[feature_fraction_seed: 21351]
[extra_trees: 0]
[extra_seed: 16806]
[early_stopping_round: 50]
[first_metric_only: 0]
[max_delta_step: 0]
[lambda_l1: 0]
[lambda_l2: 0]
[linear_lambda: 0]
[min_gain_to_split: 0]
[drop_rate: 0.1]
[max_drop: 50]
[skip_drop: 0.5]
[xgboost_dart_mode: 0]
[uniform_drop: 0]
[drop_seed: 2965]
[top_rate: 0.2]
[other_rate: 0.1]
[min_data_per_group: 100]
[max_cat_threshold: 32]
[cat_l2: 10]
[cat_smooth: 10]
[max_cat_to_onehot: 4]
[top_k: 20]
[monotone_constraints: ]
[monotone_constraints_method: basic]
[monotone_penalty: 0]
[feature_contri: ]
[forcedsplits_filename: ]
[refit_decay_rate: 0.9]
[cegb_tradeoff: 1]
[cegb_penalty_split: 0]
[cegb_penalty_feature_lazy: ]
[cegb_penalty_feature_coupled: ]
[path_smooth: 0]
[interaction_constraints: ]
[verbosity: -1]
[saved_feature_importance_type: 0]
[max_bin: 255]
[max_bin_by_feature: ]
[min_data_in_bin: 3]
[bin_construct_sample_cnt: 200000]
[data_random_seed: 179]
[is_enable_sparse: 1]
[enable_bundle: 1]
[use_missing: 1]
[zero_as_missing: 0]
[feature_pre_filter: 1]
[pre_partition: 0]
[two_round: 0]
[header: 0]
[label_column: ]
[weight_column: ]
[group_column: ]
[ignore_column: ]
[categorical_feature: ]
[forcedbins_filename: ]
[objective_seed: 26397]
[num_class: 1]
[is_unbalance: 0]
[scale_pos_weight: 1]
[sigmoid: 1]
[boost_from_average: 1]
[reg_sqrt: 0]
[alpha: 0.9]
[fair_c: 1]
[poisson_max_delta_step: 0.7]
[tweedie_variance_power: 1.5]
[lambdarank_truncation_level: 30]
[lambdarank_norm: 1]
[label_gain: ]
[eval_at: ]
[multi_error_top_k: 1]
[auc_mu_weights: ]
[num_machines: 1]
[local_listen_port: 12400]
[time_out: 120]
[machine_list_filename: ]
[machines: ]
[gpu_platform_id: -1]
[gpu_device_id: -1]
[gpu_use_dp: 0]
[num_gpu: 1]

end of parameters

pandas_categorical:null
