tree
version=v3
num_class=1
num_tree_per_iteration=1
label_index=0
max_feature_idx=9
objective=binary sigmoid:1
feature_names=Column_0 Column_1 Column_2 Column_3 Column_4 Column_5 Column_6 Column_7 Column_8 Column_9
feature_infos=[-39.599748861351209:3.202605887883931] [-1.662425519084197:32.507701955788043] [-1.7885478797273402:23.521722816805894] [-0.2159488219222388:5.8101459794246386] [-5.506754672041156:11.398726200744017] [-34.352181421132713:24.445706336197716] [-1.2682927843421465:15.523717361941239] [-0.29598397758150563:20.207531766523946] [-0.92135003479692401:11.378828062449848] [-0.42558784639417108:15.766073447244642]
tree_sizes=2344 2620 2519 2415 2628 2415 2317 2417 2436 2626 2231 2431

Tree=0
num_leaves=23
num_cat=0
split_feature=2 7 9 6 6 2 9 9 6 7 9 2 7 6 9 6 9 6 6 6 9 2
split_gain=260.467 52.1696 30.8765 53.0329 18.5624 14.028 10.9101 9.23256 6.57877 4.09461 3.6388 3.37446 2.79954 2.30693 1.33867 1.31707 0.95129 0.785539 0.771988 0.731218 0.180561 0.0419957
threshold=-0.34921776192110027 1.0000000180025095e-35 -0.27079824480334674 -1.1673491534162468 0.078414593937727609 -0.16776602648432862 -0.20562669869333375 0.33550235967990105 0.35442643759360382 0.15914789842017052 -0.42348798120322584 -0.2789204717593125 0.017964322409281263 -0.57567337228246618 -0.42407168329932038 0.83955181808704793 -0.13068191688126815 -0.12514832761895198 -1.2446410647484276 -0.91248553401289667 -0.22433052905761566 0.60068350143524707
decision_type=2 2 2 2 2 2 2 2 2 2 2 2 2 2 2 2 2 2 2 2 2 2
left_child=2 5 3 10 13 11 -3 9 14 16 18 -2 -6 19 21 -9 20 -16 -1 -5 -4 -7
right_child=1 6 7 4 12 8 -8 15 -10 -11 -12 -13 -14 -15 17 -17 -18 -19 -20 -21 -22 -23
leaf_value=0.27956989247311836 -0.094117647058823528 -0.090322580645161271 0.15849056603773581 -0.12830188679245283 0.021052631578947364 -0.38431372549019599 0.14603174603174604 0.27450980392156854 -0.21176470588235297 0.25376344086021507 0.13333333333333333 -0.21463414634146344 0.14814814814814814 -0.19636363636363638 -0.29333333333333333 0.3612903225806452 0.11506849315068493 -0.3547169811320755 0.22222222222222221 -0.061538461538461521 0.192 -0.36800000000000005
leaf_weight=23.249999999999996 17 15.500000000000002 13.250000000000002 13.249999999999998 14.250000000000002 12.750000000000002 15.749999999999998 12.750000000000002 21.25 23.25 12.749999999999998 20.5 13.499999999999998 13.749999999999998 22.5 15.499999999999998 18.25 13.249999999999998 15.750000000000002 13.000000000000002 12.499999999999998 12.499999999999998
leaf_count=93 68 62 53 53 57 51 63 51 85 93 51 82 54 55 90 62 73 53 63 52 50 50
internal_value=0 -0.201325 0.141395 0.0736402 -0.0428044 -0.261378 0.0288 0.226178 -0.307599 0.185874 0.226087 -0.16 0.0828829 -0.13 -0.340984 0.322124 0.15 -0.316084 0.25641 -0.0952381 0.174757 -0.376238
internal_weight=0 151 215 119.5 67.75 119.75 31.25 95.5 82.25 67.25 51.75 37.5 27.75 40 61 28.25 44 35.75 39 26.25 25.75 25.25
internal_count=1464 604 860 478 271 479 125 382 329 269 207 150 111 160 244 113 176 143 156 105 103 101
is_linear=0
shrinkage=0.2


Tree=1
num_leaves=24
num_cat=0
split_feature=2 7 3 7 6 6 1 6 6 1 6 2 6 6 6 6 6 6 6 6 6 6 6
split_gain=169.748 34.2947 28.281 25.4501 26.4659 20.314 11.6239 4.9996 4.58818 4.58242 3.60748 3.12134 2.62304 3.76042 0.924889 1.40969 0.782389 0.73262 0.661502 0.56628 0.842503 0.539796 0.294896
threshold=-0.34973716004743999 1.0000000180025095e-35 1.0000000180025095e-35 -0.27472394870849065 -1.196901943043257 -0.19021294480644932 -0.17802325277987116 0.26121439922340811 -0.61840042043209875 -0.085810326082708901 0.81625605771112941 -0.15296317988364735 0.90511148066679903 0.70770301641497579 -1.2555425308520973 -1.2375111959223306 0.22411191342753375 0.58990518363598365 1.1179288024962033 -0.12514832761895198 -0.80713578054995994 0.83696716417232797 -0.96936612920172982
decision_type=2 2 2 2 2 2 2 2 2 2 2 2 2 2 2 2 2 2 2 2 2 2 2
left_child=2 6 3 4 14 8 -2 11 22 -9 -3 -8 13 -5 -1 -16 -7 -18 -14 20 -13 -15 -6
right_child=1 10 -4 12 5 16 7 9 -10 -11 -12 19 18 21 15 -17 17 -19 -20 -21 -22 -23 -24
leaf_value=0.21465010330117373 -0.032052137688612203 -0.053642108517935952 0.37631996326422174 0.24102365169631859 -0.097641249003858052 0.032183472300744899 -0.19697923884671009 -0.25486651568419055 -0.224071909368009 -0.096065503579841297 0.083502351924493234 -0.30897613438294341 0.20611732513839001 0.077458681885151037 0.10323019110676056 0.19697091637490055 0.11889357196826777 0.055431844500225973 0.26253966134502393 -0.32403088776669065 -0.25140139823803132 0.13630649954798935 -0.057774817052348396
leaf_weight=14.253750786185263 12.695446744561194 13.702340528368952 15.354259535670279 12.629865869879721 16.166914433240891 12.404455006122587 21.295335471630096 12.835178777575495 12.394692152738573 16.75944422185421 17.432418867945671 17.730904981493946 21.148955568671227 12.386198773980142 12.560780704021452 13.119010731577875 17.146587654948238 12.640541359782217 13.693194583058355 12.830822616815565 23.829689100384716 12.554492920637129 13.720785796642302
leaf_count=58 51 55 62 51 65 50 86 52 50 68 70 73 86 50 51 53 69 51 56 53 98 51 55
internal_value=0 -0.163563 0.114893 0.0944983 0.0396297 -0.0237949 -0.212836 -0.234636 -0.121766 -0.164937 0.0231454 -0.261889 0.188764 0.152108 0.173796 0.151119 0.0743875 0.0919628 0.228292 -0.287303 -0.275964 0.107081 -0.0793394
internal_weight=0 149.112 212.174 196.82 124.408 84.474 117.977 105.281 42.2824 29.5946 31.1348 75.6868 72.4127 37.5706 39.9335 25.6798 42.1916 29.7871 34.8422 54.3914 41.5606 24.9407 29.8877
internal_count=1464 606 858 796 502 340 481 430 170 120 125 310 294 152 162 104 170 120 142 224 171 101 120
is_linear=0
shrinkage=0.2


Tree=2
num_leaves=23
num_cat=0
split_feature=0 1 6 4 4 2 0 6 1 2 0 6 0 0 6 0 6 6 6 0 1 2
split_gain=164.852 44.2667 35.2035 20.5008 13.6017 12.4776 8.64083 3.20464 3.53216 3.19497 2.99646 2.08912 1.88531 4.78734 2.86064 2.52163 1.36132 0.96736 0.946814 1.07236 0.647864 0.570085
threshold=0.05742611026926784 -0.17939054777316679 0.46797409356650027 0.0041490588724807887 -0.040671393886569936 -0.29865435432193121 -0.095279000427087077 0.74636305098871192 -0.13586184699816045 -0.36059258088793961 0.17025247562033374 -0.080715811746174385 -0.10232062063781089 -0.060962243703939378 0.82053051533717813 -0.026021545949461721 0.086681108518709526 -1.0225217120225969 -1.161769256074084 -0.11205410072655823 -0.045239178437906702 1.2187672717794815
decision_type=2 2 2 2 2 2 2 2 2 2 2 2 2 2 2 2 2 2 2 2 2 2
left_child=1 3 9 4 -1 -4 -3 8 -8 10 -2 -10 18 14 -14 -15 -17 -11 -6 -20 -19 -22
right_child=2 6 5 -5 12 -7 7 -9 11 17 -12 -13 13 15 -16 16 -18 20 19 -21 21 -23
leaf_value=0.022204009678925607 -0.13707375669198185 0.088831504082890089 0.11375446028225683 -0.033425545063576978 0.2620496543615799 -0.14346053469781431 -0.20095631708773595 0.0050068566873860123 -0.0093827067975144549 -0.24384569257413907 -0.27120896787571924 -0.12217974417045606 0.061450674374634688 0.26758880446800726 0.18294232842758409 0.13161230207875083 0.22108748123143093 -0.33273696153891313 0.16191424386685194 0.24313645314727955 -0.25359925936051686 -0.31368794342590595
leaf_weight=20.052076652646065 12.951007902622225 15.206370979547499 15.468038469552996 21.511011347174644 21.438645720481873 14.725891545414923 12.102353230118746 12.518871754407881 12.118157953023907 13.924108669161795 13.717711254954336 14.340191796422012 16.341597214341167 23.058401018381119 14.749108791351317 13.202120944857599 14.029695123434065 18.554815351963043 12.16061206161976 13.973375111818312 12.683958381414415 12.578836947679518
leaf_count=82 53 63 64 88 90 60 51 51 52 59 56 60 67 96 62 54 59 79 50 58 55 55
internal_value=0 0.0951773 -0.197028 0.149091 0.17544 -0.0116919 -0.0435136 -0.0829127 -0.111456 -0.263324 -0.206069 -0.0705177 0.199268 0.180779 0.119085 0.21892 0.177709 -0.289768 0.230898 0.205342 -0.30436 -0.283519
internal_weight=0 236.803 114.604 170.517 149.006 30.1939 66.2859 51.0796 38.5607 84.4104 26.6687 26.4583 128.954 81.3809 31.0907 50.2902 27.2318 57.7417 47.5726 26.134 43.8176 25.2628
internal_count=1464 983 481 706 618 124 277 214 163 357 109 112 536 338 129 209 113 248 198 108 189 110
is_linear=0
shrinkage=0.2


Tree=3
num_leaves=22
num_cat=0
split_feature=1 4 4 6 8 5 5 4 4 4 5 1 6 5 6 5 6 4 8 6 1
split_gain=78.5457 33.1404 37.2041 17.979 11.9828 9.81311 9.55337 8.0603 7.77716 5.9824 4.32478 4.31486 3.59991 3.09108 2.52732 1.86573 1.76976 1.02815 0.854449 0.505745 0.226963
threshold=-0.18674239154399699 -0.09809377558333375 0.0041490588724807887 0.26751111497768892 -0.64917712787422632 0.0064292346713329474 -0.012258828778649531 -0.070796393375213054 0.02218871334966014 -0.025187470412939734 0.027790840818022508 -0.11918682479042282 -0.43514262440577373 0.028089386419154799 0.93048625602674828 0.0064292346713329474 0.42044163472585422 -0.017832946620811606 -0.67434597041932187 -1.2476376762840335 -0.048109040488282843
decision_type=2 2 2 2 2 2 2 2 2 2 2 2 2 2 2 2 2 2 2 2 2
left_child=1 -1 6 5 -4 12 18 -5 11 -8 14 -9 -2 17 15 16 -11 -7 19 -3 -19
right_child=3 2 4 7 -6 13 9 8 -10 10 -12 -13 -14 -15 -16 -17 -18 20 -20 -21 -22
leaf_value=-0.1856306570387265 -0.033265415276710592 0.23019396374424336 0.070270739980242969 -0.18129304752793876 -0.16448658723033338 -0.22075475479300619 -0.009308415036249143 -0.0027877871654929877 -0.09776460666184604 0.1619983761019933 0.057874711301700403 0.15001921151610842 -0.1705817660885513 -0.14379441969471837 0.22556843926124343 0.18931176023556989 0.073079483981408649 -0.31056623768475244 0.19844014240938437 0.28875087868554833 -0.27046678399955643
leaf_weight=17.147628620266914 18.060532525181774 11.654541239142416 14.100109502673147 11.874004095792769 22.6974006742239 13.756604239344595 12.638331159949301 16.410219043493271 18.952419713139534 16.055027574300766 21.325335070490837 13.449815675616266 13.231590628623961 11.225468322634695 17.887485906481743 19.346057280898094 20.241256430745125 11.066349029541014 14.722415089607237 11.948216170072557 11.526921480894091
leaf_count=71 79 53 58 50 94 65 52 69 79 67 92 55 59 52 80 82 87 50 63 52 55
internal_value=0 0.0802078 0.10517 -0.115345 -0.074532 -0.178316 0.150518 -0.0335094 0.00244009 0.119951 0.137173 0.0660409 -0.0913284 -0.235531 0.160172 0.139148 0.112411 -0.263861 0.236252 0.259837 -0.290108
internal_weight=0 199.764 182.616 139.554 36.7975 78.8675 145.819 60.6865 48.8125 107.493 94.8552 29.86 31.2921 47.5753 73.5298 55.6423 36.2963 36.3499 38.3252 23.6028 22.5933
internal_count=1464 851 780 613 152 360 628 253 203 460 408 124 138 222 316 236 154 170 168 105 105
is_linear=0
shrinkage=0.2


Tree=4
num_leaves=24
num_cat=0
split_feature=0 6 3 1 9 0 9 0 0 1 6 1 6 6 0 6 6 0 0 9 0 1 1
split_gain=85.4635 22.1191 20.5286 17.8844 11.2172 11.4539 7.80556 7.59276 4.92596 4.16284 3.16213 2.48426 1.97138 1.92732 1.65538 1.61355 1.44462 0.902104 0.812816 0.802479 0.56887 0.116528 0.0123634
threshold=0.072739405866765958 0.46797409356650027 1.5918796184818247 -0.1721312327883841 0.072808318070173503 -0.10437071259789503 0.39282798832968324 -0.059892630507373736 0.037263901514005472 -0.18654606640298546 0.83696716417232797 -0.17424904585037512 0.20137899832983347 0.37908277740452023 0.17934418779114172 -0.460930619063397 0.82053051533717813 -0.051941839079569126 -0.12116363978397562 -0.29692434729171496 -0.031013074200101392 0.1294241225685567 -0.11041894154337585
decision_type=2 2 2 2 2 2 2 2 2 2 2 2 2 2 2 2 2 2 2 2 2 2 2
left_child=2 11 3 4 5 18 13 10 20 -3 12 14 -7 15 -2 -5 -6 -15 -1 21 -9 22 -13
right_child=1 9 -4 6 16 7 -8 8 -10 -11 -12 19 -14 17 -16 -17 -18 -19 -20 -21 -22 -23 -24
leaf_value=0.13197575550351479 -0.12422858721236635 0.077881852475062088 0.30269938802564794 -0.06956253330526431 0.15155050338085652 -0.03091685151844574 0.10065266012296044 0.13258744960601646 -0.028137195155583446 -0.078191878492885447 0.037873305670732056 -0.27854985905887619 -0.14527720029699503 0.0026725227161927111 -0.21711412347975095 -0.1731447222242016 0.24162009966059489 -0.073973272677106711 0.1932857930464581 -0.19925028598781497 0.084494521510498286 -0.24687087993459356 -0.26866631669079927
leaf_weight=19.691563621163368 14.637336149811746 13.037371560931208 13.850396543741224 13.528551965951918 13.058006122708322 11.964270487427713 12.620470181107519 19.537255629897114 14.458951711654661 14.370743960142134 11.778567284345625 9.9593602418899554 12.15513616800308 12.099443778395655 16.134207382798195 10.831958353519441 15.671451404690741 12.476036742329596 15.424713015556334 9.9147615283727628 19.81710679829121 9.7031195461750013 10.296645998954775
leaf_count=92 62 55 65 61 57 50 54 87 61 61 53 51 50 50 70 50 74 52 68 50 84 52 55
internal_value=0 -0.156457 0.0666902 0.0514945 0.0880064 0.0620738 -0.0395872 0.0241701 0.0716922 -0.00395141 -0.0470686 -0.215624 -0.0885495 -0.0757548 -0.172931 -0.115621 0.200682 -0.0362376 0.158906 -0.248571 0.10837 -0.264893 -0.273526
internal_weight=0 98.0535 228.964 215.113 153.557 124.828 61.5565 89.7113 53.8133 27.4081 35.898 70.6454 24.1194 48.936 30.7715 24.3605 28.7295 24.5755 35.1163 39.8739 39.3544 29.9591 20.256
internal_count=1464 456 1008 943 676 545 267 385 232 116 153 340 100 213 132 111 131 102 160 208 171 158 106
is_linear=0
shrinkage=0.2


Tree=5
num_leaves=22
num_cat=0
split_feature=1 4 4 9 8 9 9 9 8 4 8 9 9 1 8 1 1 8 1 8 9
split_gain=37.1723 17.4721 23.3934 10.5028 7.52829 5.57583 4.69774 3.95562 12.9828 2.77491 2.34827 2.22439 3.0303 1.89544 1.84113 2.58491 0.964661 0.899214 0.740508 0.161973 0.0595135
threshold=-0.17424904585037512 0.0041490588724807887 -0.040671393886569936 0.39282798832968324 -0.64917712787422632 -0.31462555279163507 -0.31582236818840376 -0.29416470837075964 -0.64127108723410242 -0.017832946620811606 -0.18640428193913028 -0.14690134833273377 0.33550235967990105 -0.048109040488282843 -0.36467859959944893 -0.11270656421735219 -0.1927367994443335 0.027431926988500981 0.08129200752330655 -0.3475949459514262 -0.4251979883872799
decision_type=2 2 2 2 2 2 2 2 2 2 2 2 2 2 2 2 2 2 2 2 2
left_child=1 2 5 6 -3 -1 9 8 16 17 -6 19 -13 -11 -8 -16 20 -2 -17 -9 -4
right_child=3 4 7 -5 10 -7 14 11 -10 13 -12 12 -14 -15 15 18 -18 -19 -20 -21 -22
leaf_value=-0.13752644776326498 -0.067347015984051989 0.045385762033201119 0.11917024976876318 0.050082260613892565 -0.19540772452262578 0.022041814587409392 -0.0083688943088816286 0.18042466141476107 -0.043728698628989988 -0.26256305018834475 -0.071669992360739565 0.069159539155893499 0.18146173577659239 -0.15237686612627294 -0.027541727362540316 -0.17229576950788905 0.19206036404887278 -0.15286767902144943 -0.1008196086288594 0.2120805901516922 0.13716219889074435
leaf_weight=19.368570059537888 9.64364141225815 14.259456545114515 17.193102434277534 17.076193898916245 13.046544268727301 15.991686999797819 11.763856291770933 11.587688371539118 21.50346627831459 13.415347725152971 11.580161944031717 20.209219396114349 18.326785936951637 11.68318812549114 12.881961926817892 12.510340496897699 13.009721219539641 10.035833746194838 10.805693447589872 14.625773370265959 12.850322976708414
leaf_count=84 51 60 88 74 56 68 54 54 94 72 50 94 93 66 56 57 61 55 51 68 58
internal_value=0 0.0503175 0.0787923 -0.0940589 -0.0702607 -0.0653617 -0.1206 0.118213 0.08318 -0.167186 -0.137223 0.153141 0.122568 -0.211272 -0.077106 -0.0994446 0.146566 -0.11096 -0.139171 0.198087 0.126866
internal_weight=0 203.552 164.666 109.816 38.8862 35.3603 92.7399 129.306 64.5566 44.778 24.6267 64.7495 38.536 25.0985 47.9619 36.198 43.0531 19.6795 23.316 26.2135 30.0434
internal_count=1464 928 762 536 166 152 462 610 301 244 106 309 187 138 218 164 207 106 108 122 146
is_linear=0
shrinkage=0.2


Tree=6
num_leaves=21
num_cat=0
split_feature=0 7 8 7 9 2 2 9 9 2 0 8 0 7 0 0 2 9 2 9
split_gain=48.0965 17.0734 12.785 16.5441 6.41995 4.88571 4.83988 3.82674 7.36977 9.93429 4.01209 2.80971 2.50667 1.91587 1.87124 1.53665 1.70821 0.986988 0.0658066 0.022267
threshold=0.072739405866765958 -0.26874941785712086 -0.64612888806734958 -0.073944482756925792 0.39282798832968324 -0.18192828119686069 -0.29865435432193121 -0.36584581286869411 -0.25462848236693053 -0.35239167402163057 -0.073797602062727077 0.045465059890294764 -0.10693778426965259 0.28914161697948065 -0.067879075708397199 0.13049851848131069 -0.36207286554800772 -0.42220067119497035 1.0499628807190817 -0.3786522317515299
decision_type=2 2 2 2 2 2 2 2 2 2 2 2 2 2 2 2 2 2 2 2
left_child=2 5 12 7 11 15 -3 -4 -9 -10 -11 13 -1 -5 -14 -2 -17 -16 19 -7
right_child=1 6 3 4 -6 18 -8 8 9 10 -12 -13 14 -15 17 16 -18 -19 -20 -21
leaf_value=0.17823267609408427 -0.078359504266277052 0.11680834811157087 0.038042362133306848 0.03916424291864002 0.21033536454888263 -0.24416061024672403 -0.066724400126446107 -0.16106873392825097 0.084927416111290774 -0.015853407710111438 -0.17654295949564699 0.0050611862595741231 0.042558812796839658 0.14872444992227102 0.094247234403658189 -0.20572660534452233 -0.096427217389520745 0.17106728798209134 -0.2291485805986489 -0.25830449169961728
leaf_weight=22.469761818647385 13.727479159831999 11.19419386982918 20.139663964509964 10.840128406882288 15.119943544268606 10.182987384498121 11.811794236302374 20.533584386110306 20.878041282296181 11.596055179834368 13.394170045852659 20.560360178351402 16.366359651088715 15.532396823167799 15.141013622283937 14.404201596975325 9.4865212738513964 11.985771507024763 8.6643844693899137 7.9113911464810398
leaf_count=120 61 49 92 50 79 70 54 92 97 50 62 94 71 74 74 67 51 53 56 48
internal_value=0 -0.125306 0.0507144 0.0181863 0.0969966 -0.178154 0.0225785 -0.0383229 -0.0614845 -0.0169042 -0.101979 0.0604832 0.12399 0.103691 0.095967 -0.131685 -0.162326 0.12819 -0.243481 -0.250345
internal_weight=0 87.383 214.557 148.594 62.0528 64.377 23.006 86.5415 66.4019 45.8683 24.9902 46.9329 65.9629 26.3725 43.4931 37.6182 23.8907 27.1268 26.7588 18.0944
internal_count=1464 456 1008 690 297 353 103 393 301 209 112 218 318 124 198 179 118 127 174 118
is_linear=0
shrinkage=0.2


Tree=7
num_leaves=22
num_cat=0
split_feature=3 1 6 6 8 6 8 6 8 8 1 2 6 2 8 8 2 8 8 6 6
split_gain=28.0979 15.4946 10.435 6.20772 5.52551 7.21329 4.15726 3.78858 2.84917 3.43358 2.71184 3.51585 2.71015 2.43024 2.2314 1.68703 1.307 0.498173 0.454568 0.400874 0.306515
threshold=1.0000000180025095e-35 -0.18674239154399699 0.26121439922340811 1.0694630954919375 -0.67882490927370831 0.01124916296724948 -0.59896870677233183 -1.161769256074084 0.75726420528498173 0.23585697113600609 -0.14435832880261129 0.29623915447911636 -1.25101661411901 -0.11011283446062273 -0.23818075931247779 -0.49902352216485207 0.54874368880127777 -0.29729006147623921 -0.49205060230851622 -0.58703982983131631 -0.28219586818965708
decision_type=2 2 2 2 2 2 2 2 2 2 2 2 2 2 2 2 2 2 2 2 2
left_child=1 3 13 4 7 6 -6 12 9 14 -4 -12 -1 15 18 -3 19 -8 -7 -15 -18
right_child=-2 2 10 -5 5 8 17 -9 -10 -11 11 -13 -14 16 -16 -17 20 -19 -20 -21 -22
leaf_value=0.060002279787913386 0.28423121963162162 -0.12962001930939546 -0.071389183204467341 0.1488072249809104 -0.0036565772440901446 0.035737164099526396 -0.15731202400806693 0.014977199790117347 -0.052401021827793194 0.1567082582421897 0.088396122936451563 -0.034686355901025298 0.2054951971152825 -0.23450982210481133 -0.032993728802458558 -0.025651060489390039 -0.097172664165412148 -0.099727075866142947 0.089654564703616269 -0.17147014178361808 -0.15390838157244785
leaf_weight=9.7786855995655078 13.24069321900606 14.53904200345278 18.898332476615906 14.860578551888464 18.674069181084633 12.029070734977713 12.406152829527857 20.72163850069046 12.821638166904448 10.220480158925055 17.095408082008362 20.31436263769865 10.752205982804297 9.2821994274854678 15.384540155529981 10.940240606665609 7.5558654963970184 11.65441846847534 13.029345721006395 7.1377278789877918 7.6807361245155317
leaf_count=56 74 73 86 81 86 58 57 92 57 52 76 93 58 62 72 61 52 54 67 47 50
internal_value=0 -0.0140288 -0.0707381 0.0256017 0.0131865 -0.0109394 -0.0744637 0.0753074 0.0318216 0.0531363 -0.00963627 0.0215595 0.136198 -0.130955 0.0269622 -0.084978 -0.16796 -0.129419 0.063772 -0.207107 -0.125773
internal_weight=0 275.777 113.444 162.333 147.472 106.22 42.7346 41.2525 63.4851 50.6634 56.3081 37.4098 20.5309 57.1358 40.443 25.4793 31.6565 24.0606 25.0584 16.4199 15.2366
internal_count=1464 1390 600 790 709 503 197 206 306 249 255 169 114 345 197 134 211 111 125 109 102
is_linear=0
shrinkage=0.2


Tree=8
num_leaves=22
num_cat=0
split_feature=5 7 2 9 8 5 9 9 9 5 5 5 5 8 9 9 9 5 2 9 8
split_gain=17.9969 16.4164 11.6815 7.34118 4.54091 3.87758 5.25816 3.67097 3.55309 2.91725 2.84374 2.73715 2.14302 2.03575 1.94331 1.552 1.42776 1.22019 0.623273 0.0510754 0.0365853
threshold=-0.013147781725304635 -0.27472394870849065 -0.15296317988364735 -0.22056877582017709 -0.64612888806734958 0.0023743615813272109 0.35569048036432499 -0.41435479020244509 -0.23460025433778134 0.00043827107846183512 -0.011461221874131918 0.0050479042780342898 0.021080248649287741 -0.22892282291644725 -0.1033990587707508 -0.36584581286869411 -0.36894976163222581 0.02144563281783771 -0.3704234889242341 -0.4237061127843697 -0.68143742991321543
decision_type=2 2 2 2 2 2 2 2 2 2 2 2 2 2 2 2 2 2 2 2 2
left_child=7 2 3 4 11 10 8 20 -7 -5 -3 -2 16 -12 15 17 -6 -4 -14 -13 -1
right_child=1 5 14 9 12 6 -8 -9 -10 -11 13 19 18 -15 -16 -17 -18 -19 -20 -21 -22
leaf_value=0.17183902552417543 0.054016877073787065 -0.0013727319563990204 -0.079057988455212308 -0.0045334079284510198 -0.016040694500548128 0.03345934925780359 0.13282483417524268 0.047358353915406715 -0.089353049170560944 0.12469942115834903 0.18012715920160949 -0.063906128891811395 -0.18721656178460272 0.078627946787197936 -0.086460930700330424 -0.2403532623219613 -0.10633673659316599 -0.19138581789295822 -0.11356160848690387 -0.044290089101063239 0.18782685823352399
leaf_weight=12.589251227676867 16.969442695379257 10.261260636150835 6.7388704344630233 13.731433168053629 13.135267317295076 19.186208434402939 10.558668702840803 13.350287906825541 18.517020821571354 14.22512626647949 13.168319448828695 10.180105507373812 9.5968972891569155 19.772610917687416 11.652729853987692 11.392318837344648 15.007216408848761 9.080768018960951 8.818109489977358 11.097201324999331 10.500382274389269
leaf_count=84 79 49 49 64 62 92 58 68 87 67 70 50 48 96 62 75 68 77 52 52 55
internal_value=0 -0.019879 -0.0602459 -0.0276553 -0.0569552 0.0470395 0.00807799 0.130841 -0.026857 0.0612241 0.0905641 -0.00589412 -0.0989017 0.119203 -0.154803 -0.184069 -0.0641918 -0.143536 -0.151947 -0.0536754 0.17911
internal_weight=0 243.09 151.625 112.761 84.8042 91.4641 48.2619 36.4399 37.7032 27.9566 43.2022 38.2467 46.5575 32.9409 38.8647 27.212 28.1425 15.8196 18.415 21.2773 23.0896
internal_count=1464 1257 805 542 411 452 237 207 179 131 215 181 230 166 263 201 130 126 100 102 139
is_linear=0
shrinkage=0.2


Tree=9
num_leaves=24
num_cat=0
split_feature=2 7 8 6 8 7 6 6 6 1 6 6 6 8 2 8 8 6 2 7 8 8 8
split_gain=9.42848 9.76823 5.98944 3.76369 3.26518 3.79673 3.52702 2.69131 3.13914 2.49544 1.75377 3.08204 2.51275 1.79302 1.7526 2.51873 2.10168 1.48981 1.44988 1.314 1.31359 0.75505 0.0154048
threshold=-0.2789204717593125 0.079035742145959084 -0.4053539654280745 1.1179288024962033 -0.67882490927370831 -0.2081581812506226 0.70770301641497579 -1.161769256074084 -0.19021294480644932 -0.12709371880396311 0.58990518363598365 -0.28219586818965708 -0.81643560945356464 -0.64612888806734958 0.67339923912280419 0.35049817006598155 0.43650989189353478 -1.25101661411901 -0.075832558122202992 0.40415935614796078 -0.080327227825319647 -0.37072179680827327 -0.12665023338946596
decision_type=2 2 2 2 2 2 2 2 2 2 2 2 2 2 2 2 2 2 2 2 2 2 2
left_child=3 2 9 4 7 10 -7 17 -9 -2 11 12 13 -6 16 -16 18 -1 -4 20 -8 -13 -20
right_child=1 -3 14 -5 5 6 19 8 -10 -11 -12 21 -14 -15 15 -17 -18 -19 22 -21 -22 -23 -24
leaf_value=0.062814743859190864 -0.078012686165220183 0.059445134122091771 -0.11800280396637629 0.13537898626388864 0.037410123762349472 0.1553671665609814 -0.050918980968208773 -0.05029924181286919 0.098760685158408412 0.071341488791834481 -0.097678317614505406 0.084404362551862372 -0.1296551423270976 -0.056395754779342583 0.014518288852394284 -0.14541728775223337 -0.070506051413471535 0.16945973027471961 -0.22784014454063437 0.073642339025465561 0.042063950801333391 0.014068922264526981 -0.21525594970838124
leaf_weight=10.292540550231935 7.9898102432489422 22.800178125500679 8.1543012186884862 11.742499321699141 13.923123762011519 9.6405299901962263 12.958034776151178 12.369801044464113 10.404966801404951 10.171402953565119 11.195453718304632 10.541408695280554 10.486148297786711 19.658562764525421 7.0428038015961638 8.9362960010766965 8.4952435493469221 10.673383638262747 8.4028077200055069 11.946926563978193 11.445073135197164 14.506315983831881 7.2467078417539659
leaf_count=67 45 98 50 71 68 50 67 55 50 61 52 52 52 94 47 67 52 72 55 66 57 68 48
internal_value=0 -0.0535092 -0.092272 0.0258683 0.0183059 0.0019963 0.0478193 0.0654 0.0178008 0.00563489 -0.0242445 -0.0123496 -0.0441904 -0.0175034 -0.129103 -0.0749255 -0.155905 0.117106 -0.186383 0.0192961 -0.00730993 0.0436698 -0.222013
internal_weight=0 89.2396 66.4394 181.785 170.042 126.302 45.9906 43.7407 22.7748 18.1612 80.311 69.1156 44.0678 33.5817 48.2782 15.9791 32.2991 20.9659 23.8038 36.35 24.4031 25.0477 15.6495
internal_count=1464 523 425 941 870 626 240 244 105 106 386 334 214 162 319 114 205 139 153 190 124 120 103
is_linear=0
shrinkage=0.2


Tree=10
num_leaves=20
num_cat=0
split_feature=3 5 9 5 1 9 9 2 5 5 9 9 5 9 5 9 5 2 5
split_gain=19.8863 11.3993 10.4899 6.05946 4.83673 3.20488 2.96727 2.73928 2.20494 1.80006 2.25077 1.58774 1.91773 1.51838 2.19951 1.24669 0.695414 0.491136 0.365474
threshold=1.5918796184818247 0.012950450899050966 0.3141666732351433 -0.013702541834871353 -0.17424904585037512 -0.25462848236693053 -0.29913828346582799 -0.35239167402163057 -0.00858716347517181 0.02325027413811499 -0.40702401555175011 -0.424678378283806 -0.008186132070665748 -0.40188183201976474 0.020197979559374406 -0.41435479020244509 -0.0093446672392388155 -0.36339733077017394 -0.0039307432784069828
decision_type=2 2 2 2 2 2 2 2 2 2 2 2 2 2 2 2 2 2 2
left_child=1 3 4 15 13 6 11 16 -9 -6 -11 -5 -13 -3 -15 -1 -7 -14 -18
right_child=-2 2 -4 5 9 7 -8 8 -10 10 -12 12 17 14 -16 -17 18 -19 -20
leaf_value=0.13956976106156083 0.27296307645508672 -0.089768894632180421 0.10872576895867961 -0.076238382841230912 -0.23071077111590943 0.032164935987514402 -0.11838632485006938 0.04633188212212612 -0.054868288678685907 -0.18173605576351495 -0.052718245278641662 -0.054436996553261986 0.020130479009430227 0.050797360122760177 -0.064134785190626278 0.053012129513366736 0.11899673175341892 0.079734493929795591 0.068956815956568177
leaf_weight=17.278118096292022 10.240378201007841 25.586780205368992 12.150030270218847 10.306931212544439 8.6876943707466143 13.181220397353171 12.42902787029743 15.787455737590788 18.94727248698473 11.892630826681854 9.9203965663909894 11.078186638653273 12.095170676708216 10.387145504355436 18.564144939184189 10.826595991849898 9.8219078406691533 10.187430009245881 14.394563481211664
leaf_count=113 70 128 72 60 62 70 64 72 94 99 69 51 54 50 90 57 57 56 76
internal_value=0 -0.0113179 -0.0651052 0.0221203 -0.0899415 0.00368642 -0.0321677 0.0315698 -0.00887129 -0.153723 -0.12306 -0.00762751 0.0135701 -0.0542715 -0.0228994 0.106226 0.0691313 0.047381 0.0892524
internal_weight=0 253.523 97.1888 156.334 85.0388 128.229 56.0967 72.1324 34.7347 30.5007 21.813 43.6677 33.3608 54.5381 28.9513 28.1047 37.3977 22.2826 24.2165
internal_count=1464 1394 570 824 498 654 285 369 166 230 168 221 161 268 140 170 203 110 133
is_linear=0
shrinkage=0.2


Tree=11
num_leaves=22
num_cat=0
split_feature=4 7 4 8 8 1 4 8 2 4 1 1 8 1 1 1 7 8 7 8 8
split_gain=8.03382 14.9557 11.7621 5.16888 3.42356 2.68876 3.00019 2.54542 1.91768 1.90908 5.27236 1.84186 1.6561 1.6481 1.31919 0.973994 0.715133 1.12946 0.868423 0.406672 0.211612
threshold=0.0093284924488224088 0.10421605802879351 -0.10449669740605527 -0.65145155022435264 0.2932983601673585 0.024409278005109631 -0.28924342260942176 0.75726420528498173 -0.33412924635093216 -0.050173819266787247 -0.18190370553583482 -0.10207432697214665 -0.48740198907095905 -0.080117019466949366 -0.1927367994443335 -0.18959914892182902 -0.073944482756925792 -0.5255206176189281 0.62152292102124351 -0.66604144135524812 -0.15386398927622982
decision_type=2 2 2 2 2 2 2 2 2 2 2 2 2 2 2 2 2 2 2 2 2
left_child=2 3 5 -2 12 6 8 9 -1 -4 14 -12 -5 -14 16 -16 17 19 20 -11 -18
right_child=1 -3 7 4 -6 -7 -8 -9 -10 10 11 -13 13 -15 15 -17 18 -19 -20 -21 -22
leaf_value=-0.058434603046241589 0.0046226696303100995 0.14748692540984834 0.11802652298384725 -0.10753717815692487 -0.03993016944375434 -0.17137323004554772 -0.13540001691678147 -0.032069591909885675 0.078217308561693094 0.047588041003033238 -0.083289371684549834 0.029410910749280435 -0.25262795625267837 -0.13799239771133104 0.15041465304902879 0.063004297214322977 0.12811905607717564 -0.0015571810229785216 0.027450238785886455 0.095611013818821422 0.083045159076481037
leaf_weight=9.0384546518325823 13.810134403407572 11.619067415595053 16.389304630458355 11.139056451618666 10.972109396010636 9.7251053228974325 9.9201421439647692 15.284652493894098 7.5299199931323519 24.469704899936911 14.515383396297695 9.6612530872225744 11.67374040558934 8.7968111000955194 11.32650262117386 9.2742046415805799 9.1933691725134885 17.026625275611877 7.9441378340125075 9.9101766198873538 7.6192129105329522
leaf_count=47 65 52 79 62 76 67 51 78 57 157 75 55 71 63 69 45 59 84 54 50 48
internal_value=0 -0.05913 0.0210376 -0.101702 -0.136185 -0.0814334 -0.0484125 0.0453527 0.00367034 0.0539697 0.045289 -0.0382531 -0.169596 -0.203366 0.0661622 0.111064 0.0540172 0.0405683 0.0819435 0.0614309 0.107692
internal_weight=0 68.0109 188.828 56.3919 42.5817 36.2136 26.4885 152.615 16.5684 137.33 120.941 24.1766 31.6096 20.4706 96.7639 20.6007 76.1632 51.4065 24.7567 34.3799 16.8126
internal_count=1464 389 1075 337 272 222 155 853 104 775 696 130 196 134 566 114 452 291 161 207 107
is_linear=0
shrinkage=0.2


end of trees

feature_importances:
Column_6=57
Column_9=37
Column_8=36
Column_1=28
Column_2=25
Column_0=20
Column_5=20
Column_4=15
Column_7=15
Column_3=4

parameters:
[boosting: gbdt]
[objective: binary]
[metric: binary_logloss]
[tree_learner: serial]
[device_type: cpu]
[linear_tree: 0]
[data: ]
[valid: ]
[num_iterations: 10000]
[learning_rate: 0.2]
[num_leaves: 63]
[num_threads: 0]
[deterministic: 0]
[force_col_wise: 0]
[force_row_wise: 0]
[histogram_pool_size: -1]
[max_depth: -1]
[min_data_in_leaf: 50]
[min_sum_hessian_in_leaf: 0.001]
[bagging_fraction: 0.8]
[pos_bagging_fraction: 1]
[neg_bagging_fraction: 1]
[bagging_freq: 0]
[bagging_seed: 11149]
[feature_fraction: 0.5]
[feature_fraction_bynode: 1]
[feature_fraction_seed: 21351]
[extra_trees: 0]
[extra_seed: 16806]
[early_stopping_round: 50]
[first_metric_only: 0]
[max_delta_step: 0]
[lambda_l1: 0]
[lambda_l2: 0]
[linear_lambda: 0]
[min_gain_to_split: 0]
[drop_rate: 0.1]
[max_drop: 50]
[skip_drop: 0.5]
[xgboost_dart_mode: 0]
[uniform_drop: 0]
[drop_seed: 2965]
[top_rate: 0.2]
[other_rate: 0.1]
[min_data_per_group: 100]
[max_cat_threshold: 32]
[cat_l2: 10]
[cat_smooth: 10]
[max_cat_to_onehot: 4]
[top_k: 20]
[monotone_constraints: ]
[monotone_constraints_method: basic]
[monotone_penalty: 0]
[feature_contri: ]
[forcedsplits_filename: ]
[refit_decay_rate: 0.9]
[cegb_tradeoff: 1]
[cegb_penalty_split: 0]
[cegb_penalty_feature_lazy: ]
[cegb_penalty_feature_coupled: ]
[path_smooth: 0]
[interaction_constraints: ]
[verbosity: -1]
[saved_feature_importance_type: 0]
[max_bin: 255]
[max_bin_by_feature: ]
[min_data_in_bin: 3]
[bin_construct_sample_cnt: 200000]
[data_random_seed: 179]
[is_enable_sparse: 1]
[enable_bundle: 1]
[use_missing: 1]
[zero_as_missing: 0]
[feature_pre_filter: 1]
[pre_partition: 0]
[two_round: 0]
[header: 0]
[label_column: ]
[weight_column: ]
[group_column: ]
[ignore_column: ]
[categorical_feature: ]
[forcedbins_filename: ]
[objective_seed: 26397]
[num_class: 1]
[is_unbalance: 0]
[scale_pos_weight: 1]
[sigmoid: 1]
[boost_from_average: 1]
[reg_sqrt: 0]
[alpha: 0.9]
[fair_c: 1]
[poisson_max_delta_step: 0.7]
[tweedie_variance_power: 1.5]
[lambdarank_truncation_level: 30]
[lambdarank_norm: 1]
[label_gain: ]
[eval_at: ]
[multi_error_top_k: 1]
[auc_mu_weights: ]
[num_machines: 1]
[local_listen_port: 12400]
[time_out: 120]
[machine_list_filename: ]
[machines: ]
[gpu_platform_id: -1]
[gpu_device_id: -1]
[gpu_use_dp: 0]
[num_gpu: 1]

end of parameters

pandas_categorical:null
