tree
version=v3
num_class=1
num_tree_per_iteration=1
label_index=0
max_feature_idx=9
objective=binary sigmoid:1
feature_names=Column_0 Column_1 Column_2 Column_3 Column_4 Column_5 Column_6 Column_7 Column_8 Column_9
feature_infos=[-39.599748861351209:8.9000788482569213] [-1.662425519084197:32.507701955788043] [-1.7885478797273402:23.521722816805894] [-0.2159488219222388:5.8101459794246386] [-27.341941575767965:27.171256957381392] [-34.352181421132713:24.445706336197716] [-1.2682927843421465:15.523717361941239] [-0.29598397758150563:20.207531766523946] [-0.90089613655167222:15.542178607335664] [-0.42558784639417108:15.766073447244642]
tree_sizes=3107 3347 3344 3339 3367 3366 3365 3353 3354 3352 3351 3354 3344 3358 3366 3351 3353 3362 3357 3394 3370 3376 3344 3344

Tree=0
num_leaves=31
num_cat=0
split_feature=0 6 8 7 3 0 3 9 6 5 7 4 4 0 4 6 5 4 8 6 5 9 5 7 6 6 6 6 6 5
split_gain=236.622 51.109 43.0608 85.0656 22.9796 16.8976 16.2822 11.9002 11.4079 8.87629 9.27564 8.82352 10.8808 14.2588 8.41433 8.03571 7.75051 7.08291 7.55714 6.20092 5.75006 5.72123 9.45791 5.67385 5.88571 8.93793 5.61565 4.94397 9.32199 9.21885
threshold=0.057604379135362115 0.35017626078750813 -0.6664665709816624 -0.07596906409082177 1.5918796184818247 -0.10989704744681753 4.0023175390205763 0.32315778605484297 -0.28841199059334494 0.035593129587912671 -0.26874941785712086 1.0000000180025095e-35 -0.044205915487223017 0.040098376484904434 -0.22835449088124823 -1.1778442686625452 0.046732890824192165 0.020910847847885567 -0.17319447343050745 1.5622539612239812 0.027855451433192926 0.34269975369730438 0.0054934947274854701 -0.057904094630715844 0.83696716417232797 0.89059965151920084 0.4824293859542505 0.74636305098871192 0.27371100091342532 -0.011082469992098417
decision_type=2 2 2 2 2 2 2 2 2 2 2 2 2 2 2 2 2 2 2 2 2 2 2 2 2 2 2 2 2 2
left_child=2 6 16 4 5 8 20 11 15 10 26 12 13 -7 -12 -4 -1 21 -19 23 -2 22 -5 -16 -25 -26 -3 28 -14 -30
right_child=1 9 3 17 -6 7 -8 -9 -10 -11 14 -13 27 -15 19 -17 -18 18 -20 -21 -22 -23 -24 24 25 -27 -28 -29 29 -31
leaf_value=0.13147410358565736 -0.17620817843866171 0.022222222222222199 0.085714285714285687 0.12777777777777777 0.20000000000000001 -0.14626865671641795 0.20000000000000001 0.025806451612903226 0.12631578947368424 0.125 -0.11578947368421044 -0.12820512820512822 -0.035897435897435874 0.058823529411764712 0.11999999999999984 -0.19999999999999984 -0.12 -0.14999999999999994 0.080000000000000016 0.20000000000000001 -0.10819672131147542 0.16279069767441862 0.029629629629629631 -0.11111111111111119 0.19999999999999993 -0.039999999999999994 -0.1586206896551724 -0.13333333333333333 -0.13333333333333328 0.14074074074074078
leaf_weight=62.75 67.25 2.2500000000000018 1.7499999999999998 36 4.2499999999999991 16.749999999999996 1.2499999999999989 15.499999999999998 9.4999999999999964 3.9999999999999991 4.7500000000000027 19.5 19.500000000000014 4.2499999999999991 3.7500000000000044 2.2500000000000009 1.2499999999999989 1.9999999999999998 4.9999999999999991 1.9999999999999989 15.249999999999998 21.5 13.499999999999998 4.4999999999999964 2.25 5 7.25 2.9999999999999991 1.4999999999999998 6.7499999999999982
leaf_count=251 269 9 7 144 17 67 5 62 38 16 19 78 78 17 15 9 5 8 20 8 61 86 54 18 9 20 29 12 6 27
internal_value=0 -0.115481 0.0559838 0.0312329 -0.0277512 -0.0374065 -0.158209 -0.0536023 0.0666667 -0.0153846 -0.0330709 -0.0708772 -0.0492754 -0.104762 0.00224719 -0.075 0.126562 0.110256 0.0142857 0.0342857 -0.163636 0.119718 0.10101 0.0129032 -0.0212766 0.0344828 -0.115789 -0.0113821 0.0018018 0.0909091
internal_weight=0 119.5 246.5 182.5 104.5 100.25 83.75 86.75 13.5 35.75 31.75 71.25 51.75 21 22.25 4 64 78 7 17.5 82.5 71 49.5 15.5 11.75 7.25 9.5 30.75 27.75 8.25
internal_count=1464 478 986 730 418 401 335 347 54 143 127 285 207 84 89 16 256 312 28 70 330 284 198 62 47 29 38 123 111 33
is_linear=0
shrinkage=0.1


Tree=1
num_leaves=31
num_cat=0
split_feature=2 0 7 6 8 4 4 0 4 6 6 0 9 9 6 6 9 1 0 0 6 4 8 1 8 8 6 0 9 4
split_gain=226.703 67.3493 41.5877 27.8245 21.8158 13.9539 14.6984 13.3857 11.5994 9.59814 15.2039 6.19627 7.44796 6.02816 5.61807 5.52761 5.68843 6.50284 5.37189 7.43156 6.6962 5.75034 5.77251 6.21944 5.18228 4.96613 4.63164 4.62553 4.41322 4.24807
threshold=-0.34921776192110027 0.074700363393802968 -0.036813774874306787 0.35017626078750813 -0.6482498178569851 -0.09809377558333375 0.0019331857151482824 0.081831118037573938 -0.16432527265403291 -1.1979352573658797 0.74372142218887127 -0.066310309686767585 -0.29348622670776831 1.8274799262949777 0.93048625602674828 -1.1691057877647053 0.1600562644275699 -0.18885010053603576 0.040098376484904434 -0.10857785783771991 0.083581165550841302 -1.0000000180025095e-35 0.053761962904352312 -0.1321181972256715 0.34323323827190216 -0.6771397869750938 0.27371100091342532 0.029420071405857427 0.30587242180206559 -0.070252620821266445
decision_type=2 2 2 2 2 2 2 2 2 2 2 2 2 2 2 2 2 2 2 2 2 2 2 2 2 2 2 2 2 2
left_child=1 5 4 -3 -2 -1 14 13 -4 -8 25 12 -10 18 15 27 17 29 19 20 -6 22 23 -20 -14 -11 -18 -7 -22 -17
right_child=2 3 8 -5 7 6 9 -9 11 10 -12 -13 24 -15 -16 16 26 -19 21 -21 28 -23 -24 -25 -26 -27 -28 -29 -30 -31
leaf_value=-0.066526841129617778 0.041375392258882836 -0.10980809196852843 -0.16089071424137275 0.060209910067747036 -0.18187308119005771 0.14620333147510731 0.16570661480992957 -0.16569759074371043 -0.12924815651002716 0.033168263625558699 0.13530129958969225 -0.0033434287175393542 0.17204759407354078 0.064096837588194053 0.14670418870429111 0.1979103092163623 -0.0064826705066048616 -0.13483952203652536 0.16423885222993928 -0.13710342167313019 -0.023928215935429951 -0.18952820982824126 -0.12553819385661788 -0.04880242161748144 -0.051437361542011534 -0.11189735987968633 0.15568344502803208 0.024654300044814767 0.18969171520688116 0.070364375847730767
leaf_weight=5.2247698456048957 7.7216752469539633 26.320660531520844 3.7330808639526358 15.175778925418852 1.7326160073280323 30.372538983821869 3.7325935810804394 57.86840096116066 1.246777683496475 3.2359959483146694 4.9830206185579291 20.936429426074028 6.2223363369703311 2.2496254295110694 33.353050619363785 2.7371893078088751 1.9966428577899957 1.4963567703962315 2.7458007633686066 34.637759685516357 2.7388635128736496 1.9892125427722911 2.4962304830551147 2.7355223298072815 1.2452298700809477 8.7162898778915388 14.937417685985563 3.4906437993049613 1.4949854910373686 56.781567990779877
leaf_count=21 31 106 15 61 7 122 15 233 5 13 20 84 25 9 134 11 8 6 11 139 11 8 10 11 5 35 60 14 6 228
internal_value=0 0.0666569 -0.0933445 -0.0476303 -0.121137 0.0943815 0.0994511 -0.132474 0.00523383 0.0205501 -0.0114429 0.0261492 0.0970059 -0.0960751 0.110685 0.0999401 0.0852852 0.0710537 -0.1032 -0.119348 -0.0162686 -0.0374161 0.000513288 0.057918 0.134781 -0.0726219 0.136563 0.133674 0.0515017 0.07623
internal_weight=0 212.555 151.795 41.4964 118.411 171.058 165.833 110.689 33.3839 20.6679 16.9353 29.6508 8.71434 52.8206 145.165 111.812 77.9492 61.0151 50.571 40.6042 5.96647 9.96677 7.97755 5.48132 7.46757 11.9523 16.9341 33.8632 4.23385 59.5188
internal_count=1464 854 610 167 476 687 666 445 134 83 68 119 35 212 583 449 313 245 203 163 24 40 32 22 30 48 68 136 17 239
is_linear=0
shrinkage=0.1


Tree=2
num_leaves=31
num_cat=0
split_feature=2 0 7 6 0 3 4 4 4 6 6 5 5 1 5 6 5 5 2 0 4 1 1 6 2 5 0 7 6 7
split_gain=185.827 55.1295 35.3619 22.7997 16.0366 12.4966 14.9127 12.6469 11.9736 7.63712 11.5277 7.62027 6.96498 6.66024 6.46487 5.6639 6.05308 5.45228 5.02257 4.94658 4.72513 4.78972 4.52579 5.47756 4.42272 4.25119 4.04036 4.29434 6.39842 3.77416
threshold=-0.34921776192110027 0.074700363393802968 -0.18179624110959006 0.35017626078750813 0.081831118037573938 1.5918796184818247 -0.031100996937109302 0.0019331857151482824 -0.16432527265403291 0.74372142218887127 -1.1979352573658797 -0.0047550856098916633 0.047178481273643345 -0.15842705209375749 0.012680868677133 0.93048625602674828 -0.014083521669152112 0.02827430645567704 1.7459563700142702 0.040098376484904434 -0.017832946620811606 0.073702197595904004 0.66003868250615327 -0.31941142027202701 0.32540249447520986 0.012756619053539702 -0.10355067581386139 -0.15820746523562815 0.58607368202718513 0.54861460128262018
decision_type=2 2 2 2 2 2 2 2 2 2 2 2 2 2 2 2 2 2 2 2 2 2 2 2 2 2 2 2 2 2
left_child=1 5 4 -3 13 6 14 12 -4 10 -9 -10 15 -2 26 16 -8 18 -13 22 21 -21 -15 -24 -25 -22 -1 28 -28 -29
right_child=2 3 8 -5 -6 -7 7 9 11 -11 -12 17 -14 19 -16 -17 -18 -19 -20 20 25 -23 23 24 -26 -27 27 29 -30 -31
leaf_value=0.17897866831992415 -0.019634075329161459 -0.10002509687491989 -0.15396413489414115 0.054279821897114666 -0.1516962073385052 0.17714328904066901 0.14096019200696577 0.14816401076337526 0.079944093737064764 0.12279593839059262 -0.065806204218591943 -0.053475948569804505 -0.13503429191644029 -0.13296326146306178 -0.12268217844151103 0.14174693931352975 0.077199958775464983 0.13983948546930236 0.092336866370209214 0.12407380878424888 0.0091798890569570555 -0.11270717220018167 -0.18016670749963326 0.18926082373313366 -0.041692890368301455 -0.18745671381734844 0.014478357284759068 0.15301350871998715 -0.19469369639662226 -0.057702027740501455
leaf_weight=1.4754026383161551 15.327291384339331 26.020548403263092 4.650832086801528 15.151462733745573 55.802751407027245 13.751742288470266 18.92861844599247 3.1953410357236871 12.338549092411993 4.9432191103696814 11.876048177480698 17.424429729580886 1.2386457473039616 25.878757372498516 3.970611259341239 28.949776723980904 69.774295002222061 1.9888900667428959 2.7327943891286841 2.7320155352354054 1.9806960225105266 1.2430059611797331 1.7225897014141081 1.245101943612098 2.4820777177810669 2.4712109714746475 5.4565592110157013 2.7247308790683751 1.997830346226692 1.2354246675968168
leaf_count=6 62 106 19 61 229 56 77 13 50 20 48 70 5 105 16 118 282 8 11 11 8 5 7 5 10 10 22 11 8 5
internal_value=0 0.0605548 -0.0850701 -0.0432403 -0.113913 0.0857642 0.0776969 0.0884769 -0.00334714 0.0149353 -0.0204416 0.0169661 0.100857 -0.075636 -0.0111139 0.103341 0.090806 -0.0181217 -0.0337075 -0.0972269 -0.0292143 0.0500314 -0.115521 -0.0326967 0.0354595 -0.0999712 0.0232535 0.00312506 -0.0415813 0.0872779
internal_weight=0 210.69 150.021 41.172 110.885 169.518 155.767 138.906 39.1355 20.0146 15.0714 34.4847 118.891 55.0827 16.8606 117.653 88.7029 22.1461 20.1572 39.7555 8.42693 3.97502 31.3285 5.44977 3.72718 4.45191 12.8899 11.4145 7.45439 3.96016
internal_count=1464 854 610 167 452 687 631 563 158 81 61 139 482 223 68 477 359 89 81 161 34 16 127 22 15 18 52 46 30 16
is_linear=0
shrinkage=0.1


Tree=3
num_leaves=31
num_cat=0
split_feature=2 4 4 7 8 3 6 8 9 3 9 6 5 9 8 2 8 4 9 6 5 9 6 6 7 6 8 4 4 5
split_gain=153.197 32.0885 29.8956 29.8744 16.8909 12.6496 11.7274 9.86556 9.58764 9.14631 8.87999 8.16046 10.6653 8.25804 8.14027 8.03858 6.6427 6.5091 6.15803 5.83552 5.74567 5.59216 5.39909 8.88159 5.1647 5.97642 4.94601 4.55002 4.40754 7.442
threshold=-0.34921776192110027 -0.09809377558333375 0.0019331857151482824 0.083673586051505433 -0.6482498178569851 2.7970985787512004 0.74076907473890341 -0.44347259397604349 0.14755909168836037 1.5918796184818247 0.6032328649430323 0.93048625602674828 -0.014083521669152112 -0.25868876024254417 0.34323323827190216 -0.3616833169532529 -0.35538137312433454 -0.044205915487223017 0.46200436316892035 0.66947038647793444 0.065670484925867315 -0.29537718664709051 0.18691259781311512 -0.86293475397158781 0.28201968567803914 0.81625605771112941 -0.66565306366509003 0.087441419823255387 0.017729778407297801 0.0060393430280631663
decision_type=2 2 2 2 2 2 2 2 2 2 2 2 2 2 2 2 2 2 2 2 2 2 2 2 2 2 2 2 2 2
left_child=1 8 9 4 -2 10 7 15 -1 11 16 12 -3 17 21 22 19 -14 24 27 -18 -5 23 26 25 -16 -4 -6 -26 -30
right_child=3 2 6 14 5 -7 -8 -9 -10 -11 -12 -13 13 -15 18 -17 20 -19 -20 -21 -22 -23 -24 -25 28 -27 -28 -29 29 -31
leaf_value=-0.092856013539515003 0.043059760925816669 0.1328363616831629 0.15443695676498659 -0.086818023797631344 -0.072965039761580988 0.2074211811298815 0.095941004049968082 -0.12568398312775719 0.19645844282029973 0.16601710162372202 -0.02770675101402377 0.12158085604576119 -0.085514358665586737 0.08089250624529401 -0.058629937760709551 -0.17023314419957844 -0.14475325651065865 0.033966505935415524 0.10110453910673785 0.093166232720266848 0.074879422649921715 0.10763034727380401 0.20721845280678758 -0.09334969659626173 -0.15043408790308974 0.20081107961270314 -0.00106483668483239 -0.16368451057289438 0.18927871773616761 -0.093145786873873204
leaf_weight=16.613712593913082 7.6969611197710028 19.246690109372139 3.8469492346048346 1.7423432916402806 22.222541749477394 1.2403740286827076 7.3397591114044181 9.9815995097160357 1.2302577048540104 13.123964995145796 10.816637516021727 33.890868559479713 5.1665269434452048 44.913021728396416 2.2187804281711609 2.4222815632820121 66.278053477406502 38.812316924333572 2.9745819866657248 1.734940618276595 1.2128931879997242 9.7858055084943789 1.4827153831720341 5.3997135162353525 5.8585027754306775 1.4802620857954023 4.367776185274125 7.3594558537006369 1.2448225468397138 3.724725529551506
leaf_count=68 31 80 16 7 92 5 30 41 5 55 44 141 21 183 9 10 277 158 12 7 5 40 6 22 24 6 18 31 5 15
internal_value=0 0.0553052 0.0673469 -0.0779267 -0.100189 -0.110134 -0.0163616 -0.0463341 -0.0729091 0.0861443 -0.113727 0.0787638 0.0653448 0.0507317 0.0129953 -0.00112493 -0.123144 0.0199302 -0.0299819 -0.0850805 -0.140806 0.0782418 0.0260079 0.00627265 -0.0568232 0.0451917 0.0717565 -0.0955344 -0.0916732 -0.0224012
internal_weight=0 207.838 189.994 147.592 118.562 110.865 34.8408 27.501 17.844 155.153 109.625 142.029 108.139 88.8919 29.0298 17.5194 98.8079 43.9788 17.5017 31.3169 67.4909 11.5281 15.0972 13.6144 14.5271 3.69904 8.21473 29.582 10.8281 4.96955
internal_count=1464 854 781 610 492 461 143 113 73 638 456 583 442 362 118 72 412 179 71 130 282 47 62 56 59 15 34 123 44 20
is_linear=0
shrinkage=0.1


Tree=4
num_leaves=31
num_cat=0
split_feature=1 0 7 7 0 3 4 4 4 5 9 8 9 0 8 5 9 7 9 0 5 9 0 9 8 8 5 1 7 9
split_gain=124.276 38.6797 29.8806 15.9694 10.934 10.6127 12.6518 9.45829 9.38712 7.10633 6.94108 6.73055 6.69868 6.51352 6.48523 5.61301 5.54914 5.35142 4.87684 5.06 4.8621 7.81463 4.72671 4.69709 5.93372 5.70968 4.29868 4.01974 4.80212 3.92593
threshold=-0.17939054777316679 0.074700363393802968 -0.18179624110959006 0.35200033387661228 0.081831118037573938 1.5918796184818247 -0.031100996937109302 -0.16432527265403291 0.0019331857151482824 0.027855451433192926 -0.32393995182162327 -0.67931766227688939 0.6032328649430323 -0.10355067581386139 -0.35538137312433454 -0.013963212247800295 -1.0000000180025095e-35 -0.15820746523562815 -0.39492085813787192 0.050241874965668613 -0.0047550856098916633 0.46200436316892035 -0.096045556551292446 0.34269975369730438 -0.22591749445836648 -0.18640428193913028 0.026806085924735403 -0.18585029402239497 0.09928061749412237 0.09476029050599398
decision_type=2 2 2 2 2 2 2 2 2 2 2 2 2 2 2 2 2 2 2 2 2 2 2 2 2 2 2 2 2 2
left_child=1 5 4 9 12 6 13 -4 23 26 -11 22 14 -1 15 -2 -13 -15 -17 -20 29 -22 -10 24 27 -26 -3 28 -8 -9
right_child=2 3 7 -5 -6 -7 8 20 11 10 -12 16 -14 17 -16 18 -18 -19 19 -21 21 -23 -24 -25 25 -27 -28 -29 -30 -31
leaf_value=0.17064871897154643 0.095333542928341411 -0.046766834929173343 -0.13582020216370838 0.11614097548047511 -0.13752883210106864 0.15565460512663637 0.079666642316915462 0.11718471350050004 -0.014382858540178442 -0.040523525480290708 0.14952438408744909 -0.062500348050675003 0.0093066061848024514 -0.072658747424102776 -0.12914759510011836 -0.17477132724203118 0.10472396722725917 0.054276597119551878 -0.062071472598971493 0.13432974886031745 -0.043357361838291024 0.10151352769834997 0.16371531837933567 0.12455395739996754 -0.1155700843758611 0.046283841002686135 -0.12507777587006183 -0.02264989780024973 0.14733162268491692 -0.0048771891545946883
leaf_weight=1.6664211452007318 2.4164723157882717 13.714691251516342 4.4011883288621894 5.8478783369064322 49.824458986520767 12.819239735603331 58.953104570508003 7.2639163136482257 2.4685237258672714 6.7622920274734497 2.6847400516271573 11.076843708753586 8.6221715807914716 11.77527238428593 19.321280658245087 3.3940085470676467 2.4174727797508213 4.6260772496461842 12.059416279196734 1.4718899577856071 15.526737824082376 4.8980524986982337 3.7600005120039013 20.984731748700142 2.4029044955968883 23.447463601827621 14.33734318614006 3.2115580141544333 12.758091047406195 4.1349903792142868
leaf_count=7 10 57 19 24 218 56 245 30 10 28 11 46 35 48 82 14 10 19 50 6 63 20 16 89 10 97 60 13 54 17
internal_value=0 0.0468808 -0.0759269 -0.0375596 -0.10484 0.0681159 0.0610824 0.00158186 0.0711455 -0.0615288 0.0134859 0.00714532 -0.0703959 -0.0177175 -0.0881702 -0.0472362 -0.0325425 -0.036856 -0.0675912 -0.0407076 0.0205844 -0.00861599 0.0931304 0.0815125 0.0725497 0.0312388 -0.0867914 0.0868031 0.0917049 0.0729064
internal_weight=0 215.715 133.335 43.3469 97.1097 172.368 159.548 36.2249 141.481 37.4991 9.44703 19.7228 47.2852 18.0678 38.6631 19.3418 13.4943 16.4013 16.9253 13.5313 31.8237 20.4248 6.22852 121.758 100.773 25.8504 28.052 74.9228 71.7112 11.3989
internal_count=1464 900 564 180 415 720 664 149 590 156 39 82 197 74 162 80 56 67 70 56 130 83 26 508 419 107 117 312 299 47
is_linear=0
shrinkage=0.1


Tree=5
num_leaves=31
num_cat=0
split_feature=2 0 7 7 3 8 5 7 5 3 5 0 0 8 0 8 6 6 1 5 5 0 0 7 6 1 6 6 5 1
split_gain=106.494 33.3832 22.1019 21.0329 11.4074 9.69995 9.5442 10.6754 8.73914 8.19303 7.22561 6.59639 7.69683 6.69091 6.31032 5.45893 5.25115 7.00008 6.76383 6.10163 4.48497 4.36375 4.64328 4.1587 3.72292 7.89986 3.70229 6.98656 6.95144 3.52391
threshold=-0.28203361427906098 0.057604379135362115 -0.18179624110959006 -0.29484907593518239 2.7970985787512004 -0.65633259412378775 -0.012445976767419025 -0.14256633732224724 -0.0056551783177830476 1.0000000180025095e-35 -0.011325316787049308 0.070243641741446136 0.040098376484904434 0.30491989326125152 -0.026021545949461721 -0.47182913472514248 -0.31941142027202701 -0.69829257632549935 -0.1810010752867674 -0.01183997375616542 0.041831395880229189 -0.12417638362096887 -0.090911413207777375 -0.041922198021803657 0.81625605771112941 0.83606388966860445 0.25811445625553991 0.6095381557658156 0.027773017200044461 0.66003868250615327
decision_type=2 2 2 2 2 2 2 2 2 2 2 2 2 2 2 2 2 2 2 2 2 2 2 2 2 2 2 2 2 2
left_child=1 6 4 20 5 -2 14 9 -4 15 -9 12 29 -14 -1 16 17 18 -8 -18 -3 -12 -23 -24 25 -10 -17 -28 -29 -7
right_child=2 3 8 -5 -6 11 7 10 24 -11 21 -13 13 -15 -16 26 19 -19 -20 -21 -22 22 23 -25 -26 -27 27 28 -30 -31
leaf_value=0.12266485102737741 0.12896277238838058 -0.086878561620633926 0.07190688477300429 0.075673734424359915 0.19999348236229739 -0.11335130133344624 0.046618656492116668 -0.019644542592581478 -0.13217346716168862 0.14993866787354779 -0.094205076629563234 -0.1352343026171513 0.082034622556829806 -0.16588571688468812 -0.013887016157909635 -0.072635612022114188 -0.053185337324159532 -0.10575235219542525 -0.12940872325932581 0.098785690945472612 0.021849411541006381 0.14098451844969082 -0.064721396932970396 0.086677318350213292 -0.0068285551143582842 0.093331892953675152 0.089980056052395577 -0.082557204064919773 0.1760597578202393 -0.024337655328354968
leaf_weight=31.988009259104729 1.731790930032729 30.222217813134193 10.062897413969038 13.074860870838164 1.2409941554069508 27.10193458199501 23.574395522475246 6.0277711749076834 7.7492631971836108 5.0589425414800635 1.1741668581962574 46.982461214065552 4.647228240966796 1.4215750545263288 3.7845961004495612 8.7731437534093875 3.1109174191951778 4.4245312362909344 2.4056465625762931 17.525419145822525 4.3384265899658194 18.112706586718556 1.9376356005668629 28.507799744606025 14.424231618642805 1.9429854750633238 6.2582202255725852 7.7336903661489469 1.2007143348455427 5.3205745667219153
leaf_count=140 7 129 42 54 5 117 98 26 33 23 5 215 19 6 16 36 13 18 10 73 18 79 8 122 59 8 26 32 5 22
internal_value=0 0.0417038 -0.0746664 -0.0323592 -0.101058 -0.105342 0.0622636 0.0501605 -0.00637254 0.0267646 0.0837545 -0.110089 -0.0793975 0.023961 0.108218 0.0184569 0.0369428 0.0105178 0.0303192 0.0758761 -0.0732298 0.0962869 0.100893 0.0770419 -0.0390356 -0.0869669 -0.0209132 0.00895439 -0.0478011 -0.098744
internal_weight=0 219.234 122.626 47.6355 88.4466 87.2056 171.598 135.826 34.1794 80.0656 55.7601 85.4738 38.4913 6.0688 35.7726 75.0067 51.0409 30.4046 25.98 20.6363 34.5606 49.7323 48.5581 30.4454 24.1165 9.69225 23.9658 15.1926 8.9344 32.4225
internal_count=1464 931 533 201 391 386 730 574 142 334 240 379 164 25 156 311 212 126 108 86 147 214 209 130 100 41 99 63 37 139
is_linear=0
shrinkage=0.1


Tree=6
num_leaves=31
num_cat=0
split_feature=2 0 7 7 3 3 9 5 0 0 7 5 7 6 5 5 0 9 6 0 0 4 5 7 4 4 5 9 5 5
split_gain=88.9506 27.6779 19.1332 17.3303 9.29075 8.74609 8.58706 8.968 8.34787 7.83134 7.39415 6.21334 5.67758 8.76733 5.34575 6.03772 6.01823 4.23025 3.96091 3.90824 3.99244 3.84269 6.42082 4.25722 5.10021 4.47827 4.67898 4.22254 3.99107 3.8184
threshold=-0.28203361427906098 0.057604379135362115 0.045027403972528336 -0.29484907593518239 2.7970985787512004 1.5918796184818247 0.20133333106055165 -0.014083521669152112 0.074700363393802968 0.050241874965668613 -0.14256633732224724 0.01352303462659573 0.24394646447770649 0.77420035801016207 -0.011325316787049308 -0.012247689017413252 -0.08912872454683464 0.64861240258702579 1.0000000180025095e-35 0.040098376484904434 -0.060712667291407389 -0.044205915487223017 0.047178481273643345 -0.21668626383881737 0.0059571026143533231 0.020910847847885567 0.012756619053539702 -1.0000000180025095e-35 -0.01183997375616542 0.028158452938819734
decision_type=2 2 2 2 2 2 2 2 2 2 2 2 2 2 2 2 2 2 2 2 2 2 2 2 2 2 2 2 2 2
left_child=1 5 4 29 8 6 7 -1 17 11 21 -4 13 -11 15 -12 -16 19 -8 20 -2 27 23 24 28 -26 -27 -9 -23 -3
right_child=2 3 9 -5 -6 -7 18 10 -10 12 14 -13 -14 -15 16 -17 -18 -19 -20 -21 -22 22 -24 -25 25 26 -28 -29 -30 -31
leaf_value=0.098519786029444043 -0.053215204230819026 -0.08626245548403845 0.080783576819984215 0.06881440320550225 0.18209569233328457 0.1418685657381257 -0.049816259834704169 -0.073772874475620073 -0.12509033471049899 -0.16264505206790814 0.052416293927196211 -0.086780846240372037 -0.098294820915982475 0.18779073336202734 0.12592851892054585 -0.15855170620974252 0.038541668173860955 0.0077817353470686149 0.10696500335370802 -0.010648761974186842 -0.1252419903900544 -0.047271643472618009 -0.1894321222007547 -0.12160958318290149 -0.14313972134208386 0.03022239954578846 -0.16478552898632964 0.11094182368620245 0.056794381100183082 -0.0082842221396071947
leaf_weight=21.385025188326836 14.030310705304144 25.636979416012764 12.655355513095857 12.947053194046019 1.2272097170352925 11.385914742946623 1.7054653167724634 8.9696794897317869 45.573731422424316 1.1250241994857781 3.7026783674955368 2.6818440407514563 8.6914186030626279 1.9537193775177 14.743732541799547 2.140948921442031 16.930954992771149 6.8800093382596961 29.21957129240036 7.1338802725076667 17.045108407735828 4.1033497601747433 1.4563763588666905 1.9559056013822615 2.6028725504875174 8.9836168736219388 1.4256613552570332 1.4356526434421528 36.171316787600517 8.316798582673071
leaf_count=96 61 112 53 54 5 55 7 37 219 5 16 11 37 8 66 9 72 28 129 30 76 17 6 8 11 38 6 6 151 35
internal_value=0 0.0383107 -0.0694298 -0.0296256 -0.0912086 0.0572406 0.0511006 0.0395123 -0.094908 0.00439739 0.0274511 0.0514835 -0.0569585 0.0597357 0.0630048 -0.0248767 0.0792179 -0.0644015 0.0983188 -0.0773989 -0.0927225 0.00757286 0.0178242 0.0232882 0.0286067 -0.0258217 0.00351399 -0.0482873 0.0461917 -0.0671621
internal_weight=0 215.22 118.998 46.9008 91.8902 168.319 156.933 126.008 90.663 27.1074 104.623 15.3372 11.7702 3.07874 37.5183 5.84363 31.6747 45.0893 30.925 38.2093 31.0754 67.1044 56.6991 55.2427 53.2868 13.0122 10.4093 10.4053 40.2747 33.9538
internal_count=1464 931 533 201 419 730 675 539 414 114 443 64 50 13 163 25 138 195 136 167 137 280 237 231 223 55 44 43 168 147
is_linear=0
shrinkage=0.1


Tree=7
num_leaves=31
num_cat=0
split_feature=2 0 7 6 2 3 9 5 7 9 5 6 9 5 5 2 6 6 5 0 5 9 5 7 5 2 2 2 6 5
split_gain=75.3542 23.3991 16.2359 10.8155 10.1136 7.38811 8.13235 7.8925 6.53505 5.98379 5.09281 5.06532 4.77879 4.68216 12.2283 7.62879 4.63609 4.57976 4.09584 5.2945 5.22593 4.83345 5.69257 3.89623 3.88202 3.95282 4.19095 4.42655 3.86973 3.82294
threshold=-0.34977611490691546 0.074700363393802968 -0.18179624110959006 0.35017626078750813 -0.15244378175730769 1.5918796184818247 0.20133333106055165 -0.014083521669152112 -0.15820746523562815 1.8274799262949777 -0.0047550856098916633 -1.242161110374133 0.46200436316892035 0.012756619053539702 0.027855451433192926 -0.28722759554245797 1.1179288024962033 0.4824293859542505 -0.011325316787049308 -0.08912872454683464 -0.012247689017413252 -0.15845956882158749 0.0055269140111943076 0.67879054059473198 0.0071444073427020917 -0.33412924635093216 -0.29216187774268504 -0.24300385239978464 0.27371100091342532 0.015568294789576645
decision_type=2 2 2 2 2 2 2 2 2 2 2 2 2 2 2 2 2 2 2 2 2 2 2 2 2 2 2 2 2 2
left_child=1 5 4 -3 13 6 7 -1 11 -6 -4 -9 16 24 -15 -16 23 -5 20 -20 -10 -21 -23 -12 25 -2 -27 -28 -8 -24
right_child=2 3 10 17 9 -7 28 8 18 -11 12 -13 -14 14 15 -17 -18 -19 19 21 -22 22 29 -25 -26 26 27 -29 -30 -31
leaf_value=0.099367959170281794 -0.15041258542763791 -0.071185128713972132 0.052399251275299291 0.19177274623883886 -0.1088939568919025 0.1367476529456004 -0.034793343586542007 0.08050819317016833 0.056245082460171507 0.05790168491378276 -0.04765289536669029 -0.0032597632991728819 0.068854569808923224 -0.13787486205493335 -0.057760079367443977 0.19297268053415834 0.059900880545816486 0.017704085724213128 0.12365296754558336 0.084501416999538656 -0.13666217419666971 0.085255700333577766 -0.21128573378743126 -0.17973525350495895 0.14350082228868677 0.087609016038538295 -0.10083894114235746 0.02732635995991552 0.11201251406427895 -0.019039509646176365
leaf_weight=18.790161833167076 1.934095293283465 23.866306081414223 11.91830664873123 1.7131956219673146 60.633315473794937 10.926180332899092 1.9365641027689005 8.3789727985858899 3.8984743058681488 2.2299362421035758 14.87483687698842 52.123278945684433 4.3184296339750281 10.352532044053076 2.7302314788103104 2.1843358576297751 3.4143781512975684 12.836861982941626 13.437999442219736 10.217278420925142 2.1950156837701789 2.9358451515436164 1.7125548273324964 2.6278994530439368 1.6801231503486622 4.1031401604413995 4.9461489468812951 5.9203340709209433 24.655839070677757 2.6120913475751877
leaf_count=88 8 106 51 7 293 56 8 36 17 9 64 219 18 50 12 10 14 54 63 44 9 13 7 11 7 17 22 26 114 11
internal_value=0 0.0400561 -0.0576622 -0.029756 -0.0792474 0.0574915 0.0514313 0.0400239 0.0285885 -0.102977 -0.00147433 0.00834128 -0.0269179 -0.0351795 -0.0762119 0.053681 -0.0466905 0.0381998 0.0616884 0.0764577 -0.0132446 0.0401711 -0.0222125 -0.067484 -0.00147033 -0.0158796 0.0015023 -0.0310113 0.101322 -0.0951688
internal_weight=0 192.237 133.868 38.4164 96.7142 153.82 142.894 116.302 97.5115 62.8633 37.1539 60.5023 25.2355 33.8509 15.2671 4.91457 20.9171 14.5501 37.0093 30.9158 6.09349 17.4778 7.26049 17.5027 18.5838 16.9037 14.9696 10.8665 26.5924 4.32465
internal_count=1464 852 612 167 454 685 629 507 419 302 158 255 107 152 72 22 89 61 164 138 26 75 31 75 80 73 65 48 122 18
is_linear=0
shrinkage=0.1


Tree=8
num_leaves=31
num_cat=0
split_feature=1 0 7 7 0 3 4 4 4 0 6 8 8 5 6 5 5 0 5 4 7 6 4 8 4 6 5 0 8 7
split_gain=61.485 18.3601 17.078 9.10504 8.33631 7.48834 7.2739 6.10923 6.03382 5.13976 4.69635 5.38632 4.65946 6.20648 5.61453 6.11534 4.60677 3.93238 3.6832 3.4796 3.12442 4.19216 3.25719 3.07169 3.01122 2.98605 2.91381 2.86913 3.03803 6.86935
threshold=-0.17939054777316679 0.074700363393802968 -0.18179624110959006 0.35200033387661228 0.081831118037573938 1.5918796184818247 -0.031100996937109302 -0.16432527265403291 -0.012639918730621319 -0.10355067581386139 1.1179288024962033 -0.67931766227688939 -0.39373243233418148 -0.011929091846055657 -0.51264119860247914 -0.011127029037043533 0.041831395880229189 0.040098376484904434 -0.011929091846055657 0.032860249720862704 -0.15820746523562815 0.31783705332445672 -0.056794250111087428 -0.53156381482775239 -0.017832946620811606 -1.2519672632958228 0.047178481273643345 -0.063351046509602646 0.032080540226058191 0.36671541250226858
decision_type=2 2 2 2 2 2 2 2 2 2 2 2 2 2 2 2 2 2 2 2 2 2 2 2 2 2 2 2 2 2
left_child=1 5 4 16 12 6 9 -4 26 -1 11 19 13 24 -15 -16 25 -14 -13 -10 21 22 -11 -17 -2 -3 -8 -9 29 -29
right_child=2 3 7 -5 -6 -7 8 27 10 20 -12 18 17 14 15 23 -18 -19 -20 -21 -22 -23 -24 -25 -26 -27 -28 28 -30 -31
leaf_value=0.15792643066572745 0.1935431067694951 0.064900324931332534 -0.11634633853885286 0.092811513870329918 -0.11351617355704445 0.1320778005590546 0.062955576263988219 0.063819264976714668 -0.045758009251144593 -0.051655213551996572 0.15058228111462993 -0.19368546452035851 -0.10047096379136794 -0.10158820280299614 -0.16579226071608394 0.16171372798935213 0.044122682517025134 -0.0012524984753676039 -0.027149354679866584 0.12773309505677752 0.037548679000010077 -0.15144617762477186 0.11340336050528728 0.0076694421412231003 0.024734563971615112 -0.067580738448132754 -0.079307650848450331 -0.18469994527319586 0.014050094026414234 0.10697749698224156
leaf_weight=1.5281875580549265 1.7099952548742292 1.8101261854171777 3.8573972731828681 5.5641567707061759 40.975493907928467 10.217690348625181 108.37593135237694 9.2251013815403002 1.68791708350182 6.4099050015211096 1.9532478302717198 1.4868710190057797 19.200986385345463 8.0436461269855499 1.3773982524871824 2.1845815032720561 4.9896896779537192 5.0439153611659995 12.431473344564433 3.6687687784433365 4.3973524421453449 3.5738641917705536 1.4696632325649268 3.1768944114446618 2.7659445255994823 28.307182252407074 1.4590952545404423 2.3973673731088669 17.887138739228249 1.2174946963787077
leaf_count=7 7 8 19 24 218 56 491 40 7 27 9 6 91 36 6 9 21 22 54 17 19 15 6 14 12 127 6 10 75 5
internal_value=0 0.0339059 -0.056916 -0.0260373 -0.0811484 0.0492718 0.0435721 0.00227593 0.0516329 -0.0172181 0.00282737 -0.0121455 -0.0506615 -0.0139413 -0.045179 0.022152 -0.0448738 -0.0798295 -0.0449401 0.0730652 -0.0341039 -0.0616137 -0.0208692 0.0704362 0.0892265 -0.0596183 0.0610657 0.0171675 -0.00284779 -0.0864622
internal_weight=0 199.331 119.063 40.6712 84.4789 158.66 148.442 34.5845 131.063 17.379 21.2283 19.275 43.5034 19.2585 14.7825 6.73887 35.107 24.2449 13.9183 5.35669 15.8508 11.4534 7.87957 5.36148 4.47594 30.1173 109.835 30.7271 21.502 3.61486
internal_count=1464 900 564 180 415 720 664 149 590 74 93 84 197 84 65 29 156 113 60 24 67 48 33 23 19 135 497 130 90 15
is_linear=0
shrinkage=0.1


Tree=9
num_leaves=31
num_cat=0
split_feature=2 0 0 9 6 5 9 8 8 8 2 4 4 8 6 9 6 2 9 6 0 6 0 9 0 2 0 4 9 6
split_gain=53.5638 16.3854 13.3741 8.59158 7.81332 6.02595 8.06225 5.96642 5.75434 5.43189 5.3047 5.20235 4.57449 5.53328 4.47523 6.17302 4.27261 4.04404 6.20323 3.96917 3.7048 6.68804 5.00487 4.56431 3.14619 3.9094 3.89188 5.1767 4.99455 4.04193
threshold=-0.34977611490691546 0.074700363393802968 0.061151929570638162 -0.29348622670776831 0.59661232357269556 -0.014083521669152112 -0.013512199831841862 -0.68104160049603735 -0.0097569789119566694 2.62135811354542 -0.33335014916142275 -0.09809377558333375 0.0059571026143533231 -0.44347259397604349 0.19988033090201765 -0.41041254005605859 0.25811445625553991 -0.29216187774268504 -0.42198662399685544 -1.2370978701932818 -0.10595730550613407 0.39150883369241768 -0.097739110779188051 1.9596823791874096 0.040098376484904434 3.2677928801895701 -0.063351046509602646 0.053754710106261844 -0.24469856316769761 1.159261375401113
decision_type=2 2 2 2 2 2 2 2 2 2 2 2 2 2 2 2 2 2 2 2 2 2 2 2 2 2 2 2 2 2
left_child=1 5 7 -3 19 -1 11 -2 -5 -6 -9 -7 -13 14 15 -14 -8 18 -12 -4 21 -19 -22 24 25 26 27 28 -24 -28
right_child=2 3 4 8 9 6 16 10 -10 -11 17 12 13 -15 -16 -17 -18 20 -20 -21 22 -23 23 -25 -26 -27 29 -29 -30 -31
leaf_value=0.097696118102815199 0.12731709864144486 -0.056131243182839269 0.05494565060229252 -0.068943077612682355 -0.055902767626128239 -0.08394506096809759 -0.034599546754893351 -0.14328232752863695 0.092861271895980702 0.092895274867949032 -0.1315102877311341 0.040020941592932499 0.12252058808156936 -0.12011845198558971 0.16853567161871785 -0.078898487426076372 0.092389688429141539 -0.089507749345655224 0.10704590905412158 -0.11293550626506813 -0.13675212227727773 0.11190718640006143 -0.1561082854499149 0.12256042763232509 0.025520654769376518 0.10709223204123396 -0.087885586074169575 0.13345636471106015 0.0040469987663232917 0.099114906791942237
leaf_weight=21.935783103108406 2.6080975085496894 26.183140456676483 1.4577650874853123 3.0191036164760581 10.004357054829596 4.1713701486587516 2.8900049775838843 3.6973344683647147 8.0809284150600416 3.2504238635301581 1.3923853635787962 73.341508507728577 2.2388909608125678 4.12551325559616 1.6544651389122007 4.7492649853229514 31.833349466323853 2.5847179293632498 5.0196165293455115 41.5051289498806 4.6598065197467795 4.5519536584615707 2.6383151412010184 1.9294276684522618 7.2647131830453864 1.5849295258522023 21.583851203322421 2.1369194239377967 7.4336057752370754 1.2212564200162876
leaf_count=113 11 119 7 13 46 18 12 16 35 15 6 332 10 18 7 20 155 12 21 229 21 20 12 8 31 7 102 9 34 5
internal_value=0 0.0343312 -0.0501734 -0.0248754 -0.086532 0.0493537 0.0408705 -0.0211009 0.048852 -0.0194135 -0.0268187 0.0251206 0.0304041 -0.0248363 0.0206461 -0.0143671 0.0818204 -0.0200906 0.0552427 -0.107239 -0.0284782 0.0389599 -0.0380175 -0.0279705 -0.0345919 -0.046524 -0.0534775 -0.00791177 -0.0379053 -0.0778714
internal_weight=0 184.223 126.525 37.2832 56.2177 146.94 125.004 70.3069 11.1 13.2548 67.6988 90.281 86.1096 12.7681 8.64262 6.98816 34.7234 64.0015 6.412 42.9629 57.5895 7.13667 50.4528 45.793 43.8636 36.5989 35.0139 12.2088 10.0719 22.8051
internal_count=1464 852 612 167 297 685 572 315 48 61 304 405 387 55 37 30 167 288 27 236 261 32 229 208 200 169 162 55 46 107
is_linear=0
shrinkage=0.1


Tree=10
num_leaves=31
num_cat=0
split_feature=1 7 0 3 0 3 7 9 8 7 8 6 0 7 6 9 7 7 8 5 8 7 7 8 6 1 8 6 0 9
split_gain=43.6047 13.5107 12.5215 7.80667 7.85659 6.96256 6.87348 5.69942 5.33689 9.04009 4.74849 4.72143 4.64584 5.0639 8.45514 4.23258 4.20501 4.64394 4.75254 4.11699 5.66008 4.1376 5.59352 4.02643 3.81285 3.78722 4.15936 4.47969 3.72663 3.94567
threshold=-0.17939054777316679 -0.18179624110959006 0.074700363393802968 2.7970985787512004 0.081831118037573938 1.5918796184818247 0.35200033387661228 0.20133333106055165 -0.65633259412378775 -0.15820746523562815 -0.26961445889140417 0.75316884661037642 0.050241874965668613 0.24394646447770649 0.77420035801016207 0.78457513177481875 0.09928061749412237 0.69127322212299369 -0.28263057595656432 0.027855451433192926 -0.65435693349782587 -0.057904094630715844 -0.29484907593518239 -0.56861713695021687 0.27371100091342532 -0.18934121957250258 -0.22591749445836648 0.7717685044175856 0.12978544301693359 -0.42444316158258083
decision_type=2 2 2 2 2 2 2 2 2 2 2 2 2 2 2 2 2 2 2 2 2 2 2 2 2 2 2 2 2 2
left_child=2 3 5 4 10 7 19 8 -1 11 -2 -10 16 14 -14 -12 -3 -18 -19 21 -21 22 23 28 -9 26 27 -11 29 -4
right_child=1 12 6 -5 -6 -7 -8 24 9 25 15 -13 13 -15 -16 -17 17 18 -20 20 -22 -23 -24 -25 -26 -27 -28 -29 -30 -31
leaf_value=0.053377494622921053 -0.016738709239240698 -0.030039291254267238 0.20932440144574019 0.18173583868746057 -0.11062737978171233 0.12644775728786717 0.083827390989541728 -0.062789769214014177 -0.015318008134545189 -0.04822035627498103 -0.1155651870209542 -0.15119577373243756 -0.11485973333399256 -0.089269518523872049 0.15927045049469191 -0.0073652555714539244 0.10160799750793106 0.14898723655694088 -0.097589341972008359 -0.11494606950161507 0.066921341003510104 -0.19952179447773644 0.10601180665164361 -0.096573155145463621 0.092799897487077274 -0.082711879572963373 0.021778759491680851 0.11286087845026652 -0.052005361056780199 -0.048431213244478105
leaf_weight=48.114885330200195 23.216499745845795 7.0552603155374554 1.3658346235752108 1.1895667165517796 35.85755655169487 9.1664099842309934 5.3741431832313529 1.6977198123931909 32.003845438361168 1.9831722378730727 12.904690727591516 2.7793581485748282 1.9771326780319203 8.4820506870746595 2.6110079288482666 5.0224355906248084 9.8019184023141843 1.0894410312175753 2.7669076770544043 2.3015905916690826 6.6716886609792692 1.9250071197748209 2.1671902835369101 13.146024733781815 21.793711453676224 2.1762105673551551 18.755771815776829 13.337798118591307 5.4357837438583374 1.0507895946502728
leaf_count=225 107 30 6 5 215 56 24 7 138 9 67 12 10 38 11 21 43 5 12 10 29 8 9 63 112 9 85 67 26 5
internal_value=0 -0.0496514 0.0289246 -0.072484 -0.0764114 0.0419665 -0.0212775 0.0365376 0.027662 0.0102441 -0.0465914 -0.0261753 0.00319341 -0.0434902 0.0411416 -0.0852521 0.0326507 0.0650335 -0.02793 -0.0378596 0.0202735 -0.05865 -0.0469439 -0.06273 0.0815555 0.0451871 0.053355 0.0920103 -0.00607182 0.0972478
internal_weight=0 111.974 191.247 78.1907 77.0012 151.809 39.4381 142.642 119.151 71.0362 41.1436 34.7832 33.7837 13.0702 4.58814 17.9271 20.7135 13.6583 3.85635 34.0639 8.97328 25.0906 23.1656 20.9984 23.4914 36.253 34.0767 15.321 7.85241 2.41662
internal_count=1464 564 900 415 410 720 180 664 545 320 195 150 149 59 21 88 90 60 17 156 39 117 109 100 119 170 161 76 37 11
is_linear=0
shrinkage=0.1


Tree=11
num_leaves=31
num_cat=0
split_feature=2 4 0 4 3 7 0 3 7 5 5 9 7 2 5 2 2 9 1 7 9 5 9 0 9 1 2 2 9 0
split_gain=37.8987 11.7461 10.3782 8.75887 6.34213 6.3323 6.11311 5.97177 5.3541 4.62036 4.38577 5.17269 4.11339 4.53123 6.87697 4.13925 4.01803 3.71489 3.62716 3.43647 4.6809 3.41843 3.098 3.43248 4.4506 3.03658 3.22675 4.98189 2.92808 2.87065
threshold=-0.34977611490691546 -0.09809377558333375 0.061151929570638162 0.0019331857151482824 2.7970985787512004 0.1551591521367833 0.25938690866747066 1.5918796184818247 -0.24935834939541299 0.01382826408446979 -0.012869287694397649 -0.26996820335581412 -0.26874941785712086 -0.18192828119686069 0.027855451433192926 -0.28722759554245797 -0.34984103967270791 -0.26681336390909488 -0.16767846101561015 0.93136283354423322 -0.29692434729171496 -0.0014577162839529343 2.0173988687059876 -0.10857785783771991 0.11659106252219865 -0.15168077891539863 -0.32322188569779869 -0.30308522027616608 0.24708974420823676 0.056338670186092774
decision_type=2 2 2 2 2 2 2 2 2 2 2 2 2 2 2 2 2 2 2 2 2 2 2 2 2 2 2 2 2 2
left_child=1 6 5 7 12 22 17 10 -5 18 -3 16 13 14 21 -16 19 -1 -7 20 29 -4 23 24 -2 26 -25 -28 -20 -12
right_child=2 3 4 8 -6 9 -8 -9 -10 -11 11 -13 -14 -15 15 -17 -18 -19 28 -21 -22 -23 -24 25 -26 -27 27 -29 -30 -31
leaf_value=-0.096991896002012745 -0.04198804661894083 0.087304571666575112 0.09445952213711141 -0.031305877395032773 0.17613343212280236 -0.038946725429255501 0.13333781960666799 0.12972697095281008 0.075322150918584796 -0.054634463225021468 0.017678022652284364 0.053860224315063134 -0.035828338845652667 -0.12090560334350607 -0.028291174385465457 0.20870648720982629 0.14432507014536344 0.036617516995328843 0.14541047520823594 0.13834377801101835 -0.11636932151916153 -0.12530012790809666 0.11006778890916112 -0.10984242587701128 0.11659494245534691 -0.066797144411025744 0.17053170074950141 -0.015064308100488411 0.021632517427569484 -0.063362611611160455
leaf_weight=11.772727474570273 4.1345122009515753 18.920247033238411 0.80838981270790089 24.58682215213776 0.96586309373378654 2.2607314884662619 1.5896703600883473 8.5064200162887555 5.824798271059989 3.7920685559511176 30.418703347444534 59.97845396399498 13.694676786661146 27.069725960493091 1.5266643017530444 1.4246301203966139 2.0678931772708884 2.5278329104185095 5.6457555145025236 1.7543371468782414 3.4255506396293631 5.6903687715530342 1.4516808986663807 2.726671874523162 3.0941154956817627 29.821692779660228 1.6774362325668324 10.49605099856853 2.8891806304454803 5.1043906956911078
leaf_count=55 19 100 4 116 4 10 7 55 27 16 134 290 65 174 7 7 10 11 26 9 15 36 6 12 13 145 7 48 13 23
internal_value=0 0.0293199 -0.0436713 0.0374353 -0.0776846 -0.0180674 -0.0526948 0.0487235 -0.0108832 0.0403234 0.0430602 0.034913 -0.0825668 -0.100093 -0.0404765 0.0861108 0.00834298 -0.0733745 0.0736781 0.00143448 -0.00473223 -0.0979639 -0.0340178 -0.0380441 0.0258912 -0.0483783 -0.0115142 0.0105098 0.10351 0.00603312
internal_weight=0 176.478 119.17 160.588 51.1803 67.9899 15.8902 130.176 30.4116 14.5877 121.67 102.749 50.2145 36.5198 9.45005 2.95129 42.7709 14.3006 10.7957 40.703 38.9486 6.49876 53.4022 51.9505 7.22863 44.7219 14.9002 12.1735 8.53494 35.5231
internal_count=1464 852 612 779 297 315 73 636 143 65 581 481 293 228 54 14 191 66 49 181 172 40 250 244 32 212 67 55 39 157
is_linear=0
shrinkage=0.1


Tree=12
num_leaves=31
num_cat=0
split_feature=2 4 6 4 3 7 8 9 8 6 9 8 9 2 8 6 4 4 9 4 2 6 6 8 9 8 6 7 8 7
split_gain=31.9581 10.5442 9.20952 8.81067 5.91784 5.35737 7.33568 5.09843 5.02976 4.66824 4.64724 4.69156 4.45806 3.82019 3.74482 6.13809 3.45845 3.32995 3.25744 3.23079 3.11978 3.11227 4.34746 4.59459 3.91465 5.91691 6.01626 3.94169 3.15153 3.07144
threshold=-0.28203361427906098 -0.098365661860307055 0.34294517882351022 0.0019331857151482824 1.5918796184818247 0.35200033387661228 -0.42238974998128342 1.766022068986401 -0.50932066534736498 0.18691259781311512 -0.38144294115767036 -0.56861713695021687 0.34269975369730438 1.0837237589311617 0.21802506972834632 0.53720615318222398 -0.045674101382878904 0.022705297275909433 0.14755909168836037 -0.30251147292571945 0.32540249447520986 0.97022358071404924 0.69196650003226223 0.761912818522539 -0.14816329505173315 -0.41274816585906388 0.7934681051926632 -0.07596906409082177 0.46440157131887799 1.696087223425802
decision_type=2 2 2 2 2 2 2 2 2 2 2 2 2 2 2 2 2 2 2 2 2 2 2 2 2 2 2 2 2 2
left_child=1 18 7 4 12 6 9 -2 -4 10 -5 -12 21 17 -8 -16 -15 -10 19 -1 -19 22 -3 24 25 -24 -27 -28 -23 -18
right_child=2 3 8 5 -6 -7 14 -9 13 -11 11 -13 -14 16 15 -17 29 20 -20 -21 -22 28 23 -25 -26 26 27 -29 -30 -31
leaf_value=0.057131930507473297 -0.078129306502435547 0.034520780293607424 0.13178284067447613 0.031451913940357068 0.12668249897423031 0.12140901185625726 -0.13053110888772351 0.13683367705893795 -0.010638268241377334 0.11665926494447164 -0.12410553321409079 0.09999066436070464 0.078226024514753231 -0.054513179312564941 -0.14277287682854081 0.095895860470605512 0.15658146557508962 -0.042888648595007156 0.099237400423368233 -0.07865393352315618 -0.15454348933827575 0.093533495217545171 0.12553755864540281 -0.14267726385429988 -0.062421830749317168 -0.12748487383005555 -0.11897735122424841 0.08331583212674476 -0.021444568492956666 -0.030640319216616675
leaf_weight=1.9960963279008908 53.618674576282501 70.769491523504257 2.3009789139032355 9.7194891124963778 7.8723323196172705 2.6706660091876975 7.5406377166509646 1.1265210360288609 22.861236229538918 3.4900197088718405 4.8146581649780273 1.1591303944587696 22.225795269012451 2.0814508646726608 1.9958654940128324 2.3420049399137497 3.0432334393262854 8.5649923980236036 1.3558188378810871 14.344584956765175 3.5354387462139121 12.212687954306601 4.4524392932653472 2.5314173698425284 6.6992103457450876 3.1305927932262403 1.2012636512517954 4.8604804277420017 2.9621293097734442 1.2305813878774641
leaf_count=9 320 329 10 47 55 13 37 5 109 17 22 5 117 11 10 10 14 42 6 68 17 65 22 11 31 14 5 24 14 5
internal_value=0 0.0238059 -0.0463934 0.0313411 0.0424729 -0.0145022 -0.0261877 -0.0737059 -0.0121132 0.012053 -0.0112103 -0.0806228 0.0374141 -0.0201269 -0.0879449 -0.0139162 0.0511925 -0.0330912 -0.0497087 -0.062067 -0.0755114 0.0290785 0.0222708 -0.0156271 0.00018187 0.0309186 -0.0149115 0.0432271 0.0710897 0.102674
internal_weight=0 190.347 98.3631 172.65 138.918 33.7325 31.0618 54.7452 43.6179 19.1833 15.6933 5.97379 131.046 41.3169 11.8785 4.33787 6.35527 34.9617 17.6965 16.3407 12.1004 108.82 93.6449 22.8754 20.344 13.6448 9.19234 6.06174 15.1748 4.27381
internal_count=1464 931 533 848 687 161 148 325 208 91 74 27 632 198 57 20 30 168 83 77 59 515 436 107 96 65 43 29 79 19
is_linear=0
shrinkage=0.1


Tree=13
num_leaves=31
num_cat=0
split_feature=2 0 0 6 6 5 9 8 6 8 2 2 5 5 6 6 0 4 5 6 8 4 9 6 6 5 9 8 5 2
split_gain=26.966 8.72906 8.26836 6.2948 5.62204 4.84345 5.97448 4.49424 4.02034 3.93111 5.41736 3.629 5.53636 3.1213 2.99622 2.97888 3.19338 2.95094 3.81567 3.21244 3.17425 4.84203 4.16826 3.02199 6.30291 6.25257 4.15679 2.7671 5.33907 2.75734
threshold=-0.34921776192110027 0.061151929570638162 0.074700363393802968 0.59661232357269556 0.35017626078750813 -0.014083521669152112 0.20133333106055165 2.62135811354542 0.4824293859542505 -0.68104160049603735 -0.33335014916142275 -0.18192828119686069 0.027855451433192926 -0.0014577162839529343 1.0000000180025095e-35 -1.2650422564780424 0.038511783576665397 -0.09809377558333375 0.046732890824192165 0.93048625602674828 -0.52505575629517243 0.017729778407297801 -0.33531587025010107 -0.31941142027202701 -0.57567337228246618 -0.011929091846055657 -0.19628646229391639 -0.22591749445836648 -0.010191289093196056 -0.28722759554245797
decision_type=2 2 2 2 2 2 2 2 2 2 2 2 2 2 2 2 2 2 2 2 2 2 2 2 2 2 2 2 2 2
left_child=2 9 5 11 -4 15 17 -5 -6 -2 -11 12 13 -3 -8 -1 -17 -7 19 20 23 22 -22 24 -19 26 -25 -21 -29 -14
right_child=1 3 4 7 8 6 14 -9 -10 10 -12 -13 29 -15 -16 16 -18 18 -20 27 21 -23 -24 25 -26 -27 -28 28 -30 -31
leaf_value=-0.038938322806314443 0.11082911167345005 0.088983835017553858 -0.050648119949469661 -0.04493172111536442 0.17825963013161206 -0.067048306364661955 -0.077395436023271952 0.093164161803407197 0.011556220394677066 -0.14887476138853997 -0.012611154865646949 -0.11215371010399854 -0.023233959650279194 -0.12168093343111715 0.084606854369970896 0.11004059934306959 -0.038531393075697085 0.028788111440389452 -0.140501534172184 0.10731931077170531 -0.13741436710169758 -0.12463168017582045 0.014751313536568503 0.048130386441200254 -0.13725694077240899 0.098418143079712805 -0.1869589441496661 -0.13378571127145408 0.065320688196092422 0.16929874310255952
leaf_weight=1.8048345148563409 2.4123800992965689 0.81259673833847035 21.17873452603817 9.3370154201984388 1.6439017206430424 3.9381541311740866 1.2083094567060495 3.1522792428731909 12.058880418539045 3.0669641345739356 59.914091736078262 25.554266825318336 1.4836924821138384 5.2298643887042982 20.693400643765926 15.477321319282057 1.5958621948957432 22.597118802368637 1.4328859746456135 7.7800732702016822 1.9299595952034057 3.2294232547283164 26.775122471153736 1.6122931912541392 2.5433727875351932 12.770020730793478 1.4097886979579914 1.6988174170255659 6.4990166127681714 1.4917006790637968
leaf_count=11 11 4 106 46 7 18 5 15 54 14 288 181 7 37 118 94 8 106 6 46 8 15 123 9 11 62 6 8 33 7
internal_value=0 -0.0380834 0.025046 -0.0709254 -0.0183555 0.0362605 0.0286231 -0.0100765 0.0315554 -0.0144482 -0.0192467 -0.0929073 -0.0383679 -0.0933505 0.0756692 0.0832379 0.0961533 0.0176866 0.021383 0.0239938 0.0150896 -0.00854012 0.00452059 0.0335249 0.0119899 0.0678079 -0.0615378 0.0646014 0.0240603 0.0732915
internal_weight=0 112.455 169.877 47.0614 34.8815 134.996 116.118 12.4893 13.7028 65.3934 62.9811 34.5721 9.01785 6.04246 21.9017 18.878 17.0732 94.216 90.2779 88.845 72.8671 31.9345 28.7051 40.9326 25.1405 15.7921 3.02208 15.9779 8.19783 2.97539
internal_count=1464 610 854 297 167 687 574 61 61 313 302 236 55 41 123 113 102 451 433 427 340 146 131 194 117 77 15 87 41 14
is_linear=0
shrinkage=0.1


Tree=14
num_leaves=31
num_cat=0
split_feature=1 9 3 4 6 9 6 6 7 0 6 9 0 0 9 5 5 6 9 0 0 5 5 6 6 5 9 4 6 5
split_gain=21.9363 9.59156 8.6104 8.52163 5.67354 5.27977 5.11559 8.00746 4.86228 4.38773 4.11067 7.90581 6.0067 4.03304 4.01126 4.26773 3.88231 3.85894 5.17826 3.76908 4.15648 3.60478 3.57538 3.83929 3.39939 3.08031 3.44546 3.03441 2.91057 2.79869
threshold=-0.17939054777316679 -0.31711866748609369 1.5918796184818247 -0.031100996937109302 0.97022358071404924 0.021597503128869048 -1.1979352573658797 0.058781621807895534 -0.18179624110959006 -0.1093622408485347 -0.69829257632549935 -0.42444316158258083 -0.096045556551292446 0.22155825528226575 1.8274799262949777 0.027855451433192926 0.027773017200044461 -0.31941142027202701 -0.32821296405794959 0.22638934155342055 -0.10355067581386139 -0.011572619486494714 0.012979414278265291 0.96065931014225636 -1.2223443560588223 0.00565613524153515 -0.36799963203009861 -0.16432527265403291 -1.1521594328736924 0.012950450899050966
decision_type=2 2 2 2 2 2 2 2 2 2 2 2 2 2 2 2 2 2 2 2 2 2 2 2 2 2 2 2 2 2
left_child=2 25 3 5 6 19 16 10 9 -3 11 -8 -13 22 15 -11 24 -12 -19 20 -1 -20 29 -24 -5 26 -2 -10 -14 -9
right_child=1 8 -4 4 -6 -7 7 13 27 14 17 12 28 -15 -16 -17 -18 18 21 -21 -22 -23 23 -25 -26 -27 -28 -29 -30 -31
leaf_value=0.16314520748376804 -0.0016861738805899228 0.081985887364938836 0.12458656544950518 0.05705718546519576 0.074651649228104133 0.073162084500554211 -0.086157819949583936 0.023023466337250418 -0.091751848571990105 -0.071923554651084187 -0.12499684082695553 -0.10907395459973218 -0.023746934885975415 -0.16445109513386713 0.069759758126375832 0.064417156943603324 -0.01887980402382556 -0.13972225337860922 -0.11469514239488598 0.067171005948358439 -0.071514484964428859 0.084280975001986128 0.093394095743852851 -0.10303260215707466 0.16433017134924938 -0.096391314056712751 -0.1333323290208194 0.026764384692123985 0.11914596291434737 -0.11594570430351014
leaf_weight=0.78223462402821553 8.3093394562602025 2.758755311369895 7.6946599707007399 19.449994072318084 20.916429370641708 4.0224191695451728 6.6041365116834667 42.530333712697029 2.355714529752734 26.550985172390945 7.2006542086601257 1.8632183969020868 1.8060544282197959 1.0641836374998082 2.5891986042261115 2.5131759047508231 5.6980451941490164 2.507064089179039 1.1985777616500852 2.4581977427005759 21.544553995132446 3.7881260514259321 12.235516279935833 1.0831504166126258 3.4830736368894568 26.212481968104839 2.6133212074637404 26.045281663537025 6.7644624710082981 1.5002876818180073
leaf_count=4 46 12 59 104 121 20 33 210 14 155 33 8 8 5 11 14 26 13 5 11 102 17 59 5 19 180 15 117 31 7
internal_value=0 -0.0375105 0.0211389 0.016415 0.0266273 -0.0331068 0.0181703 0.00647452 -0.0136915 -0.0389673 -0.0339626 -0.000537418 0.0536569 0.0284414 -0.049509 -0.0601342 0.0549946 -0.0727185 -0.0224849 -0.0503535 -0.063293 0.0364561 0.0320208 0.0774195 0.0733498 -0.0777998 -0.0331834 0.0169341 0.0890343 0.0182883
internal_weight=0 99.9483 176.195 168.501 139.693 28.8074 118.777 90.1458 62.8131 34.4121 31.7323 17.0379 10.4337 58.4135 31.6534 29.0642 28.6311 14.6944 7.49377 24.785 22.3268 4.9867 57.3493 13.3187 22.9331 37.1351 10.9227 28.401 8.57052 44.0306
internal_count=1464 564 900 841 704 137 583 434 323 192 148 80 47 286 180 169 149 68 35 117 106 22 281 64 123 241 61 131 39 217
is_linear=0
shrinkage=0.1


Tree=15
num_leaves=31
num_cat=0
split_feature=2 3 0 9 5 6 3 5 5 7 8 7 0 8 9 6 7 6 8 7 8 9 2 7 7 8 8 5 0 8
split_gain=19.413 7.85776 7.18897 6.32095 8.43651 6.30865 5.42632 4.55123 4.74833 4.15233 4.87041 4.06567 4.4108 5.26058 4.5617 3.99885 3.74183 3.64235 3.53961 3.3111 3.29779 3.27931 3.40323 3.30513 4.01578 3.567 3.26759 3.16378 3.55152 3.16077
threshold=-0.28203361427906098 1.5918796184818247 0.070243641741446136 0.34269975369730438 0.011687201974856868 0.59661232357269556 2.7970985787512004 0.029354863295596154 0.046033313818553821 0.95709852063976175 -0.6664665709816624 0.076704086456939158 0.040098376484904434 -0.65633259412378775 0.43443001868741188 0.22411191342753375 0.64799778011848141 1.159261375401113 0.30491989326125152 2.4983591935904692 -0.0097569789119566694 -0.26996820335581412 -0.37055855840698876 -0.18179624110959006 0.061789788363184529 -0.48298580649527972 -0.49631601873536851 -0.011325316787049308 -0.08912872454683464 -0.088783403950429038
decision_type=2 2 2 2 2 2 2 2 2 2 2 2 2 2 2 2 2 2 2 2 2 2 2 2 2 2 2 2 2 2
left_child=1 3 11 4 9 6 -4 15 -9 10 -1 12 13 -2 -15 26 -13 -18 -14 -19 29 22 23 25 -25 27 -6 -12 -29 -5
right_child=2 -3 5 20 7 -7 -8 8 -10 -11 21 16 18 14 -16 -17 17 19 -20 -21 -22 -23 -24 24 -26 -27 -28 28 -30 -31
leaf_value=0.051636650317939015 0.16193175802055387 0.12222085937667237 -0.10393859714243758 0.043452858602312273 -0.036524763589238278 -0.0059454889547152475 0.17601618840005287 0.072453314621894291 -0.052027836791424947 0.11615918210669079 0.099015375180089571 0.068154862401425237 0.082259108002319975 -0.07527911025102535 0.01540833606854404 -0.0025356248284429451 -0.11582668007449411 0.1616586228534011 -0.098891748190509166 -0.073636105500574076 0.1054412415482367 0.02633716399093285 0.027442363895717532 0.15936197191174137 -0.032749667284566707 -0.12935203057264233 -0.11088097024033661 -0.17187188277996568 0.0043765148201114898 -0.14653830219559841
leaf_weight=31.989944845438004 1.1701801866292907 7.0902431532740584 26.439274415373806 12.608623817563055 14.887898772954939 10.699898235499857 0.71097438037395377 8.3753534853458387 4.8323376625776282 4.7763511389493933 1.5953359752893472 9.4879789501428586 5.1287233978509894 23.712075397372253 7.2403077930212012 16.56974858045578 2.7664266973733893 1.2884382009506228 1.3659028112888334 1.1161595433950422 10.246029704809187 28.989902988076214 9.3160360157489723 1.4608361870050455 4.2642462402582169 6.2118931710720053 9.8006443902850169 1.8577931523323084 2.9728211313486073 0.94099017977714794
leaf_count=170 5 59 212 72 73 54 3 39 22 27 8 44 22 131 32 77 12 6 7 5 58 145 44 7 21 29 54 8 13 5
internal_value=0 0.019056 -0.0376552 0.0147958 0.00709964 -0.0709782 -0.0966075 -0.0241819 0.026909 0.0253345 0.0204415 -0.0139808 -0.0310009 -0.0461972 -0.0540657 -0.0405372 0.0308564 -0.0375803 0.0441608 0.0524402 0.0626309 0.00283162 -0.0217872 -0.0467628 0.0162703 -0.0753174 -0.066042 -0.0230828 -0.0634064 0.0302584
internal_weight=0 178.787 91.1263 171.697 147.901 37.8501 27.1502 54.466 13.2077 93.4352 88.6588 53.2762 38.6172 32.1226 30.9524 41.2583 14.659 5.17102 6.49463 2.4046 23.7956 56.6689 27.679 18.3629 5.72508 12.6378 24.6885 6.42595 4.83061 13.5496
internal_count=1464 931 533 872 737 269 215 265 61 472 445 264 197 168 163 204 67 23 29 11 135 275 130 86 28 58 127 29 21 77
is_linear=0
shrinkage=0.1


Tree=16
num_leaves=31
num_cat=0
split_feature=2 3 3 0 6 9 5 8 8 7 9 5 0 7 7 6 2 5 5 5 9 5 5 6 6 5 8 0 7 8
split_gain=16.5367 6.78813 6.34384 6.78709 5.43181 5.34561 5.66929 4.11983 3.734 5.21696 4.35318 4.35366 4.05222 3.64314 3.74347 3.49009 3.48948 3.87789 3.28452 5.34965 3.82464 3.21924 4.93142 3.47093 4.99486 3.75483 3.17695 3.12288 3.06818 2.75379
threshold=-0.34977611490691546 1.5918796184818247 1.0000000180025095e-35 0.061151929570638162 0.59661232357269556 0.34269975369730438 0.0054934947274854701 2.62135811354542 -0.67390435216175393 -0.15820746523562815 1.0000000180025095e-35 0.00075464029757217165 -0.12915008498499911 0.1551591521367833 0.64799778011848141 1.138595088948658 -0.18192828119686069 0.027855451433192926 -0.011325316787049308 -0.012664316087650104 0.17929122869030048 0.029354863295596154 0.026806085924735403 -1.2451577219097392 -1.2387511731094778 0.072577136892360603 -0.38623654348862041 0.050241874965668613 0.24394646447770649 1.1338018775271153
decision_type=2 2 2 2 2 2 2 2 2 2 2 2 2 2 2 2 2 2 2 2 2 2 2 2 2 2 2 2 2 2
left_child=1 5 3 13 16 6 8 28 -1 10 11 12 -10 27 -15 -16 17 -5 19 -11 -20 22 -8 -23 -25 -26 -7 29 -6 -2
right_child=2 -3 -4 4 7 26 21 -9 9 18 -12 -13 -14 14 15 -17 -18 -19 20 -21 -22 23 -24 24 25 -27 -28 -29 -30 -31
leaf_value=0.058292290624620435 -0.035036715764585218 0.12012004959347683 0.15031280595833693 -0.085040355125147848 0.017952467457015623 0.0021001595720783715 -0.00040069789518745155 0.089046539897657373 0.1390460826376575 0.13215529022103442 0.14909129302518973 0.077324546932984017 -0.05590573570969181 0.0772376311176311 -0.11557602674955646 0.041266448841275852 -0.11185105138609264 0.062104832294409031 0.079306582761215827 -0.075206264473721779 -0.10739555209085955 0.20293640756314654 -0.067509275109171193 -0.18642321276703974 0.064154963152767128 -0.12744042823738722 0.08894526538994206 0.11071070425869825 -0.099624091338790771 0.11488252444752284
leaf_weight=24.902085453271866 45.926100626587868 6.5219543725252143 1.8953625410795201 5.1156297624111202 4.1761127561330778 5.947649538517001 27.681214794516563 3.1160067915916434 1.1246137022972167 1.7214533090591428 1.444714456796645 3.3123029172420493 20.52719180285931 7.820253521203993 2.5741344392299652 3.1609582304954529 20.499892793595791 2.7559045404195786 16.462263815104965 4.4870226085186031 1.1755675077438343 1.0837385058403004 18.116502061486244 1.1011637896299351 7.8462729603052122 1.17620512843132 14.437143988907335 1.6071972846984852 4.7368348240852356 1.2588063776493061
leaf_count=139 234 59 9 41 23 35 132 15 6 10 7 15 95 37 11 15 179 13 95 21 6 5 93 5 36 5 88 7 22 6
internal_value=0 0.0202132 -0.0309717 -0.0343158 -0.0662438 0.0159418 0.00858996 -0.00993118 0.0266277 0.0109375 -0.019679 -0.029446 -0.0457798 -0.0136269 0.0322346 -0.0291306 -0.0901193 -0.0335233 0.0448439 -0.0177102 0.0668628 -0.0151915 -0.0269473 0.032847 0.0146389 0.0391778 0.0636066 -0.026368 -0.0445342 -0.0310371
internal_weight=0 159.069 104.643 102.748 40.4004 152.547 132.162 12.029 75.1572 50.2551 26.4088 24.9641 21.6518 62.3475 13.5553 5.73509 28.3714 7.87153 23.8463 6.20848 17.6378 57.0051 45.7977 11.2074 10.1236 9.02248 20.3848 48.7921 8.91295 47.1849
internal_count=1464 852 612 603 293 793 670 60 394 255 123 116 101 310 63 26 233 54 132 31 101 276 225 51 46 41 123 247 45 240
is_linear=0
shrinkage=0.1


Tree=17
num_leaves=31
num_cat=0
split_feature=2 3 7 0 5 0 6 0 7 0 0 0 0 5 4 4 7 0 1 6 0 1 0 4 6 5 5 5 5 0
split_gain=14.0545 7.36792 6.75078 5.61212 6.7257 4.96471 4.78891 4.09272 3.74995 4.53311 4.35489 3.50181 3.4828 4.18355 3.4481 3.1138 3.07217 2.90258 3.17869 3.53589 2.84705 2.79922 2.74229 3.05713 4.01822 2.77984 4.81008 3.16944 3.01113 4.02254
threshold=-0.11058003307526527 1.5918796184818247 -0.18179624110959006 0.10334817017515278 0.027855451433192926 -0.10504813428905328 1.2832590941158417 0.10584393430047262 -0.15820746523562815 -0.12417638362096887 -0.11381896250089156 0.040472741103702407 0.2786042924324334 0.0048251090533086996 0.25412130192174526 0.015377962111478636 -0.12474968182964144 0.040098376484904434 0.66003868250615327 -0.31941142027202701 -0.084493734028383519 -0.15673550831017613 -0.032439225128855574 -0.038346766218448104 1.0000000180025095e-35 0.012680868677133 0.0086571869185888464 0.013101951651864365 0.019839279247566208 0.042433698630739425
decision_type=2 2 2 2 2 2 2 2 2 2 2 2 2 2 2 2 2 2 2 2 2 2 2 2 2 2 2 2 2 2
left_child=1 3 7 8 6 -4 12 15 10 -10 -1 -11 13 14 -5 17 -7 18 -2 -20 -12 -18 23 24 -22 26 -24 -27 -29 -30
right_child=2 -3 5 4 -6 16 -8 -9 9 11 20 -13 -14 -15 -16 -17 21 -19 19 -21 22 -23 25 -25 -26 27 -28 28 29 -31
leaf_value=0.05045908158592062 -0.079864678658525964 0.11910259442386895 0.14545353891390442 -0.045870860431545056 0.045364074074533939 0.13418194613244983 0.15745983404479677 -0.10746456030773786 -0.13809145578968998 0.038514546619037249 -0.033059270007824458 0.14430537317040487 0.069380909627748469 -0.086085971609860243 0.15517028109465858 -0.10210929065810453 -0.15364676803797264 0.042592300596020032 -0.1339848091259192 0.094663588812347876 0.069072146634709633 -0.013216496461365197 -0.0055135208669905792 0.047190598522084355 -0.15126991537159321 -0.15594981121365031 0.1377970059324978 0.078722440647911215 -0.0054945770775529411 -0.14877787614586838
leaf_weight=18.914225444197655 8.3618008345365578 6.3625351190567008 2.1310162097215679 2.2530947178602321 10.009071260690687 1.3171864748001159 1.0663796812295903 15.248736314475535 1.3777329623699177 45.048890970647335 22.511843964457512 3.3624809905886641 1.966623306274413 20.9473881945014 1.3729934245347974 6.105048604309558 1.5270379483699859 5.2966935262083998 0.92062100768089328 2.5488485544919959 1.4679433405399351 20.143776968121522 17.488358475267891 21.976732701063156 1.8974009454250333 2.1573674082756034 2.70419818162918 2.2913601696491233 6.3996195495128614 2.823925256729126
leaf_count=105 51 61 11 12 47 6 6 146 7 257 109 18 11 130 8 39 7 29 5 11 6 97 85 114 9 11 12 11 30 13
internal_value=0 0.0132671 -0.040888 0.00968596 -0.0248612 -0.000563243 -0.0503223 -0.0672101 0.0183251 0.0407721 0.00721917 0.0458624 -0.058671 -0.068919 0.030252 -0.0407895 -0.0140992 -0.0189328 -0.0464767 0.0339919 -0.00278893 -0.0231119 0.00872056 0.033599 -0.055158 -0.00989677 0.0136787 -0.0447153 -0.0238751 -0.0493629
internal_weight=0 194.4 63.6008 188.038 37.6156 25.119 27.6065 38.4817 150.422 49.7891 100.633 48.4114 26.5401 24.5735 3.62609 23.233 22.988 17.128 11.8313 3.46947 81.7187 21.6708 59.2069 25.3421 3.36534 33.8648 20.1926 13.6723 11.5149 9.22354
internal_count=1464 1062 402 1001 214 121 167 281 787 282 505 275 161 150 20 135 110 96 67 16 400 104 291 129 15 162 97 65 54 43
is_linear=0
shrinkage=0.1


Tree=18
num_leaves=31
num_cat=0
split_feature=2 3 3 0 6 4 6 6 2 2 1 5 5 6 6 7 7 4 6 6 6 5 0 6 0 0 6 7 1 2
split_gain=11.9679 5.6033 5.07205 5.45267 4.91728 4.75305 4.21504 4.2142 4.0221 3.2325 3.71113 3.17781 3.07307 3.35542 3.28025 2.90864 3.04385 2.88527 2.844 4.63559 4.1062 4.2048 5.56908 3.6099 4.23524 3.89328 3.78586 7.49637 4.46413 3.28189
threshold=-0.34921776192110027 1.5918796184818247 1.0000000180025095e-35 0.061151929570638162 0.59661232357269556 -0.031100996937109302 -0.73687040661161363 0.93048625602674828 -0.33335014916142275 -0.18192828119686069 0.10347423774931962 0.01574207506486261 -0.014083521669152112 -1.2650422564780424 0.91126593797165556 0.076704086456939158 0.64799778011848141 0.11299872985874686 0.058781621807895534 -0.69829257632549935 -0.31941142027202701 -0.011795414711220304 0.040098376484904434 0.69196650003226223 -0.091553181125716754 -0.065240696490201935 0.82053051533717813 0.32746826190564643 -0.1916745248900206 -0.3616833169532529
decision_type=2 2 2 2 2 2 2 2 2 2 2 2 2 2 2 2 2 2 2 2 2 2 2 2 2 2 2 2 2 2
left_child=1 5 3 8 9 6 -1 12 -2 10 -5 -6 13 -7 18 17 -17 -10 19 29 -21 -22 -23 25 -25 -20 27 28 -26 -14
right_child=2 -3 -4 4 11 7 -8 -9 15 -11 -12 -13 14 -15 -16 16 -18 -19 23 20 21 22 -24 24 26 -27 -28 -29 -30 -31
leaf_value=-0.096645171583747969 -0.12371182095919897 0.11655008936941094 0.14176137373692721 -0.050728782156962221 -0.08226618910781669 -0.088000899821666312 -0.0021375410259234797 0.061642475772511231 -0.01291450218981895 -0.10864298418433715 0.21226652941827837 0.028818091422657 0.021191452248307548 0.074995079104057796 -0.17862134084755354 0.068830480076991482 -0.027529174385849231 -0.13533172223117176 0.019209475087285443 -0.11267946223659825 -0.20046446286448225 0.10989745179879547 -0.084091228257741124 0.058263696689245748 -0.077414330416980079 0.10126346980425578 0.019839671854938238 -0.30388686170893769 0.13862251880051102 -0.13419054645464554
leaf_weight=6.3335594832897213 3.0434986203908911 5.4908189699053755 1.7447702735662449 6.9199416413903263 3.8057067394256574 1.4118501991033543 18.514661937952042 21.767311453819275 41.018357560038567 17.73419101536274 0.58164972811937321 7.9652552828192711 26.143351048231125 11.976823106408117 0.94798274338245292 8.9713669270277006 5.1657922714948645 2.0201338976621619 14.33648034930229 6.8701522052288055 0.94069296121597279 3.4553994089364988 2.5885139256715775 7.3200997337698963 5.3909713625907907 9.6915063634514826 6.7677092999219894 1.2774510383605955 1.1627999395132036 1.4338787347078348
leaf_count=35 15 59 9 50 20 9 90 142 214 179 4 40 126 80 5 43 24 12 71 33 4 16 14 41 25 49 35 6 6 8
internal_value=0 0.0173504 -0.0272284 -0.030261 -0.0604703 0.0136783 -0.0262266 0.0217082 -0.0116963 -0.0853657 -0.030337 -0.00709692 0.0131623 0.057807 0.00639497 -0.00573367 0.0336202 -0.0186605 0.00840223 -0.0105964 -0.0577875 -0.00379509 0.0268151 0.0255339 -0.00381329 0.0523053 -0.0349395 -0.0822795 -0.0390841 0.0131124
internal_weight=0 153.822 98.9707 97.2259 37.0067 148.331 24.8482 123.483 60.2191 25.2358 7.50159 11.771 101.716 13.3887 88.327 57.1757 14.1372 43.0385 87.379 41.432 13.8548 6.98461 6.04391 45.947 21.919 24.028 14.5989 7.83122 6.55377 27.5772
internal_count=1464 854 610 601 293 795 125 670 308 233 54 60 528 89 439 293 67 226 434 201 67 34 30 233 113 120 72 37 31 134
is_linear=0
shrinkage=0.1


Tree=19
num_leaves=31
num_cat=0
split_feature=2 7 5 9 0 7 8 1 1 5 0 4 5 5 5 5 9 8 4 9 0 7 2 0 0 2 1 2 5 5
split_gain=10.4266 5.23455 5.12728 5.59741 4.25229 3.9618 4.8515 4.16 4.45052 3.79672 3.77578 3.4319 3.26316 3.20119 3.43999 5.78002 3.34521 3.12556 3.05488 3.03923 3.00344 3.50964 2.97049 2.90541 2.89079 3.21102 3.92835 3.20835 3.20029 2.76689
threshold=-0.11058003307526527 -0.18179624110959006 -0.012445976767419025 -0.26996820335581412 -0.10504813428905328 0.93136283354423322 -0.59896870677233183 -0.18661955054809273 -0.18685212786735717 0.027855451433192926 0.10584393430047262 -0.044205915487223017 -0.0083309489667373806 0.024119175514544785 -0.0093446672392388155 -0.0096766321240799435 0.96902747394468036 -0.40279722814741797 -0.045266271967418927 1.9596823791874096 -0.062388394632693571 -0.24935834939541299 -0.024931541740913114 -0.026021545949461721 -0.097739110779188051 1.0000000180025095e-35 -0.056504420356423633 0.055315468778569431 -0.0056551783177830476 0.031578359638357534
decision_type=2 2 2 2 2 2 2 2 2 2 2 2 2 2 2 2 2 2 2 2 2 2 2 2 2 2 2 2 2 2
left_child=2 10 23 5 -3 6 7 8 11 13 17 -4 -9 14 15 -5 20 22 -19 -20 -15 -22 -2 -1 -6 26 -26 -27 -29 -8
right_child=1 4 3 9 24 -7 29 12 -10 -11 -12 -13 -14 16 -16 -17 -18 18 19 -21 21 -23 -24 -25 25 27 -28 28 -30 -31
leaf_value=0.069017357817835287 -0.10169127917197365 0.13968642745372362 -0.059479462514397688 0.010131019496995819 -0.20937705736200676 0.10276152252889033 -0.048152531535439948 0.092202288146350661 0.15958597932543644 0.10363256572779836 -0.10398063128575866 0.025913530342206351 -0.11625729595595671 -0.27165524490293774 0.044169428805770197 -0.17771894627475801 0.077972308681575134 -0.0088012085888786225 -0.11587529830261212 0.074586192386243297 -0.14285276789197132 0.0076003453142755853 0.064171880032715192 -0.012847827983692633 -0.14311551400893563 0.19061264957238477 0.048576745139257221 0.083951418880629819 -0.021591795238382817 0.035309725159919453
leaf_weight=21.098917461931709 1.4096339046955106 1.9737303778529192 5.6684249192476228 18.340389356017116 0.72815524041652935 2.8841713592410079 39.011301182210445 0.92290899157524098 2.1583189368247977 5.6573664322495452 13.007618539035319 27.731671169400219 4.0295849591493598 0.65488448739051808 39.35615049302578 1.7986078187823284 2.0223114788532257 6.9205495864152953 8.3077773228287644 0.93178527057170946 2.4404282122850418 4.2515790686011297 4.6141289472579983 5.4563100934028617 3.1998255252838135 0.96452645957470196 1.605431437492373 3.7392133176326885 12.401096105575549 4.4222902208566657
leaf_count=147 7 11 31 102 3 17 219 4 10 29 146 141 24 3 226 9 14 43 59 4 15 21 22 29 16 4 7 18 62 21
internal_value=0 -0.0364624 0.0114788 0.00477738 -0.00108534 -0.0124778 -0.0164372 0.00845535 0.0204145 0.0248821 -0.0612042 0.0114212 -0.0774104 0.0184126 0.0269686 -0.0066458 -0.0359184 -0.0361221 -0.059039 -0.0966678 -0.0672681 -0.0472666 0.0253579 0.0521965 -0.0133586 -0.00684419 -0.0790713 0.0134466 0.00285932 -0.0396546
internal_weight=0 59.8035 187.906 161.35 24.612 86.8287 83.9445 40.5109 35.5584 74.5217 35.1915 33.4001 4.95249 68.8644 59.4951 20.139 9.3692 22.1839 16.1601 9.23956 7.34689 6.69201 6.02376 26.5552 22.6382 21.9101 4.80526 17.1048 16.1403 43.4336
internal_count=1464 402 1062 886 121 467 450 210 182 419 281 172 28 390 337 111 53 135 106 63 39 36 29 176 110 107 23 84 80 240
is_linear=0
shrinkage=0.1


Tree=20
num_leaves=31
num_cat=0
split_feature=3 2 9 7 5 5 0 2 1 0 0 0 5 0 4 0 5 9 1 7 0 4 7 9 9 2 2 0 4 1
split_gain=9.34098 8.73681 5.04956 4.7912 3.80932 4.09495 5.09176 4.28077 3.8204 3.80422 3.7156 3.65119 3.55813 3.06524 3.16319 3.96288 2.9043 3.45711 3.05488 2.55451 2.55375 3.6263 4.84315 2.4849 2.60961 2.47963 3.51689 2.62575 2.59679 2.4162
threshold=1.5918796184818247 -0.11058003307526527 0.34269975369730438 -0.18179624110959006 0.0054934947274854701 0.027855451433192926 -0.096045556551292446 -0.28722759554245797 -0.18524111045945582 0.074700363393802968 0.044216387291682167 -0.10504813428905328 0.0052261404578147616 -0.068092998347710335 -0.038346766218448104 0.23086389009238686 0.072577136892360603 -0.32393995182162327 -0.19179307931079362 -0.12474968182964144 0.12907236755255649 0.010225717162834344 -0.24935834939541299 -0.15845956882158749 -0.30251604999697962 1.0084110306119063 0.67339923912280419 -0.044204970291077644 -0.10695726821266376 -0.13915320185751426
decision_type=2 2 2 2 2 2 2 2 2 2 2 2 2 2 2 2 2 2 2 2 2 2 2 2 2 2 2 2 2 2
left_child=1 2 4 9 12 6 -6 16 13 10 -3 -5 -1 -8 15 -15 17 18 -7 -13 23 -22 -23 24 -16 26 27 -21 -27 -29
right_child=-2 3 -4 11 5 7 8 -9 -10 -11 -12 19 -14 14 20 -17 -18 -19 -20 25 21 22 -24 -25 -26 28 -28 29 -30 -31
leaf_value=0.012773442030251107 0.11993256282763194 -0.051263682448319629 0.051020856418071962 0.1363085854303788 0.087122468402124384 0.027236191820667922 -0.11048084257158773 0.14944029274732742 -0.097242654279340868 -0.10323601569344346 0.076821290303578704 0.11948938537769133 0.19775644798722114 -0.09929621363279062 0.018104572167480511 0.079605887682141996 -0.12821058468815635 0.11663957478035823 -0.094555413742370753 -0.096383637334277503 -0.13752842496072629 -0.04964964794475904 0.15460743012833211 -0.0477650848483182 0.11975823359517948 -0.077241415285774342 -0.15496643776724753 -0.078293799234323752 0.068861134169735869 0.039802982179674484
leaf_weight=85.741877637803555 6.313606545329093 16.832525394856933 23.192285820841789 1.7349401861429239 3.4624657034873954 7.399295210838317 3.8154866248369208 2.4206771776080123 8.9993958100676519 13.425704531371592 2.6169215515255919 1.3392345905304015 1.0525863841176022 7.2513645663857407 11.276107646524903 1.4931192547082899 1.4547064602375019 2.9219056367874172 2.8537997528910628 3.503074020147328 2.8097115308046323 4.9081855192780495 1.5204473137855528 4.0429881960153677 3.2542137354612359 1.6599576100707052 2.4471741989254943 2.4151066690683409 4.5539965182542792 6.128871083259571
leaf_count=474 67 103 145 10 18 34 18 11 69 162 13 6 6 42 53 7 7 15 15 16 14 31 7 19 16 11 12 13 22 28
internal_value=0 -0.00331485 0.00747173 -0.037559 0.00102537 -0.0163517 -0.0301032 0.0262595 -0.0383244 -0.0622926 -0.0340299 -0.00336897 0.0150168 -0.0251907 -0.0162886 -0.0687487 0.00587759 0.0206828 -0.00666273 -0.0143604 0.000205737 -0.0427601 -0.00134045 0.0215769 0.0408709 -0.0230167 -0.045674 -0.0234729 0.0298322 0.00642083
internal_weight=0 236.528 179.871 56.6575 156.678 69.8839 52.8335 17.0504 49.371 32.8752 19.4494 23.7824 86.7945 40.3716 36.5561 8.74448 14.6297 13.175 10.2531 22.0474 27.8117 9.23834 6.42863 18.5733 14.5303 20.7082 14.4942 12.0471 6.21395 8.54398
internal_count=1464 1397 1001 396 856 376 294 82 276 278 116 118 480 207 189 49 71 64 49 108 140 52 38 88 69 102 69 57 33 41
is_linear=0
shrinkage=0.1


Tree=21
num_leaves=31
num_cat=0
split_feature=3 2 6 0 0 7 5 6 6 5 0 2 0 5 0 6 0 1 6 0 4 0 0 1 7 0 5 1 2 1
split_gain=8.30266 7.34244 4.33719 4.41829 3.75709 3.46763 4.33741 3.06422 5.662 4.59704 3.64579 3.29142 4.14193 3.16339 3.00552 4.32391 3.15458 3.0005 3.14106 4.62902 2.97235 2.96061 2.67644 2.65681 2.56597 2.5507 2.53224 2.46234 2.40406 2.64659
threshold=1.5918796184818247 -0.11058003307526527 0.37032795670729673 0.070243641741446136 -0.10504813428905328 0.42073213196253767 -0.012445976767419025 -0.31941142027202701 -0.45367648592349014 -0.011929091846055657 -0.10412113618536305 -0.18412706746402896 0.13873454009486616 0.031137225093400871 -0.026021545949461721 -1.2650422564780424 0.040098376484904434 -0.17161598645760709 -1.2451577219097392 -0.10125100744124525 -0.017832946620811606 0.0067799254118846609 -0.10173233337969979 -0.19273918767904949 0.57970629526578288 0.042433698630739425 0.032028405992303235 0.21016482700514996 -0.35430786355922933 -0.06695558042072737
decision_type=2 2 2 2 2 2 2 2 2 2 2 2 2 2 2 2 2 2 2 2 2 2 2 2 2 2 2 2 2 2
left_child=1 5 3 25 27 6 14 8 11 20 -11 17 -13 28 15 -1 -16 18 26 -20 -9 -21 -6 -18 -7 -3 -8 -4 -12 -30
right_child=-2 2 4 -5 22 24 7 9 -10 10 13 12 -14 -15 16 -17 23 -19 19 21 -22 -23 -24 -25 -26 -27 -28 -29 29 -31
leaf_value=-0.11951156640443478 0.1180759965385688 -0.046783053411518886 -0.0028273457415103715 -0.11055801968230752 -0.14829656786348899 0.11131655155236293 0.021736166773188941 0.090356754718315793 -0.15117577284115985 0.066804426251540636 0.010305317588474817 0.18345345166267549 -0.11087790255354041 0.095781466480892155 -0.12441656756914393 0.074532761765236308 -0.064108853448217776 -0.084703202580785841 -0.12310519287378902 0.031677123531335061 -0.10730128963564692 -0.035111723936892068 -0.014573313610213537 0.12655540843379262 0.026681035673685662 0.067478638424453077 0.1888069347351925 0.16006890422451725 -0.056193611136329584 0.0699158374473932
leaf_weight=1.2341223955154479 5.7980121821165076 10.898442327976229 1.7302301451563864 11.713083624839781 1.593994177877909 4.4643604457378414 8.2139755785465223 0.89649212360382069 3.2715106233954421 11.159358493983744 43.591661572456353 1.6865753456950181 0.66726964712142933 3.5810792893171302 1.9904925376176823 16.522856660187244 1.3566928952932356 6.4311566054821006 4.2575718313455537 10.279775395989423 5.0265498608350745 18.729549087584019 24.529097981750962 1.5842760130763056 18.127642452716827 2.3804209530353537 1.0198378860950459 2.0012697726488113 11.540599226951597 1.9445522949099601
leaf_count=8 67 69 10 153 8 29 42 5 20 62 231 9 8 17 10 110 7 47 19 49 23 105 135 8 113 11 5 10 64 10
internal_value=0 -0.00307292 -0.0350544 -0.0657896 -0.00932537 0.00680486 0.00146963 -0.00545817 -0.0236251 0.00729117 0.0142747 -0.0154886 0.100016 0.00461068 0.041866 0.0610465 -0.0271983 -0.021045 -0.0114123 -0.025735 -0.0773844 -0.0114444 -0.0227329 0.0386004 0.0434057 -0.0263001 0.0401885 0.0845368 -0.00110951 -0.0380087
internal_weight=0 232.424 54.8465 24.9919 29.8546 177.578 154.986 132.298 54.5572 77.7403 71.8173 51.2857 2.35384 60.6579 22.6884 17.757 4.93146 48.9319 42.5007 33.2669 5.92304 29.0093 26.1231 2.94097 22.592 13.2789 9.23381 3.7315 57.0768 13.4852
internal_count=1464 1397 396 233 163 1001 859 716 304 412 384 284 17 322 143 118 25 267 220 173 28 154 143 15 142 80 47 20 305 74
is_linear=0
shrinkage=0.1


Tree=22
num_leaves=31
num_cat=0
split_feature=2 5 5 9 5 6 9 0 4 4 9 0 8 5 5 8 5 5 4 7 9 8 8 6 8 6 9 6 7 4
split_gain=6.33998 3.8932 3.82208 4.28779 4.04147 3.58715 4.24871 3.77279 3.06539 3.093 3.04618 3.27238 2.95469 2.88438 3.85779 2.81014 2.80043 3.07529 2.77788 3.49649 3.47666 4.45086 2.68862 3.09357 2.67585 2.47691 2.31152 6.11914 2.27889 3.65278
threshold=-0.28203361427906098 0.07814701751050035 -0.012445976767419025 -0.42477891974819015 -0.01183997375616542 0.34294517882351022 1.8274799262949777 -0.10595730550613407 -0.031100996937109302 -0.07052450709823975 -0.32393995182162327 0.061151929570638162 -0.48298580649527972 0.00565613524153515 0.012919259567589379 -0.46322920023566166 0.027773017200044461 0.0164550197839845 0.084097218616483629 -0.2414419698316155 -0.41605500580754112 -0.64580348514072072 1.3582168658702569 0.87937848519731154 -0.65238127287186409 0.7872682192569268 -0.42375744108002472 -1.2629823939749811 -0.15820746523562815 -0.045266271967418927
decision_type=2 2 2 2 2 2 2 2 2 2 2 2 2 2 2 2 2 2 2 2 2 2 2 2 2 2 2 2 2 2
left_child=2 5 -1 12 -5 6 -2 -7 9 10 11 -6 13 -4 -15 -9 17 -16 26 20 21 -20 -14 -24 -18 -12 -10 -28 -11 -30
right_child=1 -3 3 4 8 7 -8 15 18 28 25 -13 22 14 16 -17 24 -19 19 -21 -22 -23 23 -25 -26 -27 27 -29 29 -31
leaf_value=0.049777765928343265 -0.054654414461148562 0.17319076690964955 0.064685103949535749 -0.052117004819319995 0.069208860543492332 0.090502979513500434 0.16131068571755344 0.10352478271670287 0.14369695076444725 -0.11037609830032769 0.10945525757014025 -0.090839709942953123 -0.1216496019586721 -0.20019909023845139 -0.064869984890248408 -0.022568434288001468 -0.11341112001564942 0.13187715184437876 0.14224718272029194 0.14137462895118433 -0.11967422980047629 -0.10057461552317233 0.12964370644498746 -0.09936973692508326 0.0084498745427652351 -0.042840667884956211 -0.36021070971591751 0.031453110009428763 0.14340244428126264 -0.12049600731536857
leaf_weight=22.090261645615101 35.468133576214314 0.98684423416852851 4.0024362616241005 8.7719481959938985 1.922233127057553 3.7232879400253287 0.93495362997054954 1.8712784647941578 1.8113747760653485 4.7398780398070812 3.8939419202506551 3.8087675645947456 5.5441782027482978 1.2425453364849079 1.2482688985764965 31.850647822022438 3.4270729050040232 2.1852346658706665 1.5492971539497378 1.0309714823961247 3.8131475001573567 1.4721306413412087 1.0880081206560137 1.2882469296455381 3.7997699901461615 1.4714477360248563 0.40099601447582145 76.308240260928869 1.0761131346225741 1.023241639137267
leaf_count=162 317 6 22 46 10 20 4 9 10 23 20 23 36 7 7 177 18 11 8 6 24 7 5 6 20 8 2 439 6 5
internal_value=0 -0.0241182 0.0111793 0.00495187 0.0130743 -0.0267548 -0.0491077 -0.00502406 0.018556 -0.0190641 0.013538 -0.0371579 -0.033603 -0.00875252 -0.0334465 -0.0155713 -0.0140102 0.0603487 0.0263667 -0.0302914 -0.0561866 0.0239371 -0.0835063 0.0054879 -0.0493384 0.0676884 0.0320423 0.0294057 -0.0719596 0.0147763
internal_weight=0 74.8351 159.01 136.919 113.094 73.8483 36.4031 37.4452 104.322 17.9356 11.0964 5.731 23.8258 15.9053 11.9029 33.7219 10.6603 3.4335 86.3862 7.86555 6.83458 3.02143 7.92043 2.37626 7.22684 5.36539 78.5206 76.7092 6.83923 2.09935
internal_count=1464 533 931 769 637 527 321 206 591 95 61 33 132 85 63 186 56 18 496 45 39 15 47 11 38 28 451 441 34 11
is_linear=0
shrinkage=0.1


Tree=23
num_leaves=31
num_cat=0
split_feature=3 0 6 2 9 0 9 8 8 9 6 6 6 9 6 8 1 1 4 8 9 6 4 0 0 6 0 2 2 2
split_gain=7.26358 5.62535 4.782 3.39212 3.22071 3.89096 3.55532 3.22075 4.42183 3.23588 4.2527 2.78784 3.75461 2.7267 2.69688 7.39291 2.55315 2.32677 2.51469 3.1411 2.28484 2.18787 2.01839 2.0098 1.98887 1.95196 1.94504 2.41184 4.27768 4.01974
threshold=1.5918796184818247 0.05259502399811302 0.39150883369241768 -0.11357548777055715 1.8274799262949777 -0.1034258876075954 1.4654763723322313 -0.39373243233418148 -0.37583527136958622 0.34269975369730438 -0.1644142718786161 -0.31941142027202701 -0.45367648592349014 0.17929122869030048 1.1179288024962033 0.67008440316616136 0.1283543158893703 0.52570813433040675 0.020910847847885567 0.7340211390971958 -0.29459178167123218 -0.24397947472056708 0.010225717162834344 -0.047413809880774573 0.070243641741446136 -1.2578054892186412 0.048673108944038999 -0.041987945141185139 -0.17971218339014153 -0.28203361427906098
decision_type=2 2 2 2 2 2 2 2 2 2 2 2 2 2 2 2 2 2 2 2 2 2 2 2 2 2 2 2 2 2
left_child=1 4 3 16 6 -6 7 11 -9 13 -11 12 26 14 17 -16 25 18 -10 20 -20 -13 -7 -8 -5 -3 27 28 29 -1
right_child=-2 2 -4 24 5 22 23 8 9 10 -12 21 -14 -15 15 -17 -18 -19 19 -21 -22 -23 -24 -25 -26 -27 -28 -29 -30 -31
leaf_value=0.011730809764617312 0.11654114069876187 0.099322290827338913 0.0050647254530699435 0.034331885975646563 -0.090387534301717046 0.12793539874828408 -0.18082380568398149 -0.16161965201456654 -0.011688236394697071 -0.14521545329788274 0.063326489953909312 0.15797792036357394 -0.15742784059316067 -0.11041926312810101 0.13300561586512222 -0.12867673414550115 0.16856253158223464 0.11377996181356703 0.039810370820732674 0.055581439248619448 -0.14070875035281527 0.035638803751970947 -0.048054726296206468 0.00043145975567963755 -0.10915825367899004 -0.041518488934209119 0.15515848053180495 -0.13393000999979013 0.19713709221927234 -0.12463809714901081
leaf_weight=39.227883279323571 5.2169485054910174 1.025891594588759 25.66972378641367 1.0637266486883152 1.2162735462188718 5.2053711414337149 1.6110107973217966 1.861550673842429 41.764880485832691 1.0809874832630164 10.250354826450344 1.5290179401636113 1.4050907939672459 2.8475316241383544 3.7623615935444823 1.5140706896781919 0.62672571837901969 1.3189949691295613 0.83055847138166417 1.4031331986188886 4.5000096783041945 33.25770166516304 0.74492986500263203 0.98625877499580283 10.510919611901043 24.123195309191946 0.8873993456363668 1.2044860422611297 1.1820722967386235 2.2876118272542945
leaf_count=222 67 5 141 5 9 36 8 10 229 6 65 7 7 16 23 7 4 7 5 7 27 185 4 7 156 167 4 8 5 15
internal_value=0 -0.00281555 -0.0281631 -0.0509995 0.00705233 0.0725895 0.00401654 0.00599737 -0.00952806 -0.00544095 0.043432 0.019635 0.00353401 -0.0149988 -0.010067 0.0579159 -0.0308049 -0.0172674 -0.0208314 -0.077541 -0.112582 0.0410161 0.105903 -0.111996 -0.0959713 -0.0357733 0.00858354 0.0056208 0.00955749 0.00421653
internal_weight=0 224.9 63.0202 37.3505 161.88 7.16657 154.713 152.116 71.1344 69.2729 11.3313 80.9813 46.1945 57.9415 55.094 5.27643 25.7758 49.8176 48.4986 6.7337 5.33057 34.7867 5.9503 2.59727 11.5746 25.1491 44.7895 43.9021 42.6976 41.5155
internal_count=1464 1397 478 337 919 49 870 855 402 392 71 453 261 321 305 30 176 275 268 39 32 192 40 15 161 172 254 250 242 237
is_linear=0
shrinkage=0.1


end of trees

feature_importances:
Column_6=112
Column_0=110
Column_5=108
Column_9=77
Column_7=71
Column_8=65
Column_4=61
Column_2=56
Column_1=32
Column_3=28

parameters:
[boosting: gbdt]
[objective: binary]
[metric: binary_logloss]
[tree_learner: serial]
[device_type: cpu]
[linear_tree: 0]
[data: ]
[valid: ]
[num_iterations: 10000]
[learning_rate: 0.1]
[num_leaves: 31]
[num_threads: 0]
[deterministic: 0]
[force_col_wise: 0]
[force_row_wise: 0]
[histogram_pool_size: -1]
[max_depth: -1]
[min_data_in_leaf: 5]
[min_sum_hessian_in_leaf: 0.001]
[bagging_fraction: 0.5]
[pos_bagging_fraction: 1]
[neg_bagging_fraction: 1]
[bagging_freq: 0]
[bagging_seed: 21897]
[feature_fraction: 0.8]
[feature_fraction_bynode: 1]
[feature_fraction_seed: 12646]
[extra_trees: 0]
[extra_seed: 20733]
[early_stopping_round: 50]
[first_metric_only: 0]
[max_delta_step: 0]
[lambda_l1: 0]
[lambda_l2: 0]
[linear_lambda: 0]
[min_gain_to_split: 0]
[drop_rate: 0.1]
[max_drop: 50]
[skip_drop: 0.5]
[xgboost_dart_mode: 0]
[uniform_drop: 0]
[drop_seed: 20829]
[top_rate: 0.2]
[other_rate: 0.1]
[min_data_per_group: 100]
[max_cat_threshold: 32]
[cat_l2: 10]
[cat_smooth: 10]
[max_cat_to_onehot: 4]
[top_k: 20]
[monotone_constraints: ]
[monotone_constraints_method: basic]
[monotone_penalty: 0]
[feature_contri: ]
[forcedsplits_filename: ]
[refit_decay_rate: 0.9]
[cegb_tradeoff: 1]
[cegb_penalty_split: 0]
[cegb_penalty_feature_lazy: ]
[cegb_penalty_feature_coupled: ]
[path_smooth: 0]
[interaction_constraints: ]
[verbosity: -1]
[saved_feature_importance_type: 0]
[max_bin: 255]
[max_bin_by_feature: ]
[min_data_in_bin: 3]
[bin_construct_sample_cnt: 200000]
[data_random_seed: 182]
[is_enable_sparse: 1]
[enable_bundle: 1]
[use_missing: 1]
[zero_as_missing: 0]
[feature_pre_filter: 1]
[pre_partition: 0]
[two_round: 0]
[header: 0]
[label_column: ]
[weight_column: ]
[group_column: ]
[ignore_column: ]
[categorical_feature: ]
[forcedbins_filename: ]
[objective_seed: 3944]
[num_class: 1]
[is_unbalance: 0]
[scale_pos_weight: 1]
[sigmoid: 1]
[boost_from_average: 1]
[reg_sqrt: 0]
[alpha: 0.9]
[fair_c: 1]
[poisson_max_delta_step: 0.7]
[tweedie_variance_power: 1.5]
[lambdarank_truncation_level: 30]
[lambdarank_norm: 1]
[label_gain: ]
[eval_at: ]
[multi_error_top_k: 1]
[auc_mu_weights: ]
[num_machines: 1]
[local_listen_port: 12400]
[time_out: 120]
[machine_list_filename: ]
[machines: ]
[gpu_platform_id: -1]
[gpu_device_id: -1]
[gpu_use_dp: 0]
[num_gpu: 1]

end of parameters

pandas_categorical:null
