tree
version=v3
num_class=1
num_tree_per_iteration=1
label_index=0
max_feature_idx=9
objective=binary sigmoid:1
feature_names=Column_0 Column_1 Column_2 Column_3 Column_4 Column_5 Column_6 Column_7 Column_8 Column_9
feature_infos=[-39.599748861351209:3.202605887883931] [-1.662425519084197:32.507701955788043] [-1.7885478797273402:23.521722816805894] [-0.2159488219222388:5.8101459794246386] [-5.506754672041156:11.398726200744017] [-34.352181421132713:24.445706336197716] [-1.2682927843421465:15.523717361941239] [-0.29598397758150563:20.207531766523946] [-0.92135003479692401:11.378828062449848] [-0.42558784639417108:15.766073447244642]
tree_sizes=1528 1680 1681 1676 1683 1693 1686 1679 1691 1687 1686 1689 1672

Tree=0
num_leaves=15
num_cat=0
split_feature=0 6 8 7 3 4 4 3 5 4 9 9 6 0
split_gain=244.487 60.2111 45.6481 78.2687 28.7163 19.8698 17.1102 16.2974 13.074 11.8217 12.1934 11.2663 10.2011 10.1905
threshold=0.05742611026926784 0.46797409356650027 -0.64127108723410242 -0.073944482756925792 1.5918796184818247 0.0041490588724807887 -0.053939444202867635 2.7970985787512004 -0.014032278767465227 -0.042928049985448441 -0.2539658094543239 0.39282798832968324 -1.2567205091798874 -0.10173233337969979
decision_type=2 2 2 2 2 2 2 2 2 2 2 2 2 2
left_child=2 7 8 4 5 9 -3 12 -1 13 -11 -5 -2 -4
right_child=1 6 3 11 -6 -7 -8 -9 -10 10 -12 -13 -14 -15
leaf_value=0.34529914529914535 0.23999999999999999 -0.23529411764705876 0.23999999999999969 0.16226415094339625 0.40000000000000002 -0.25617977528089891 0.097777777777777783 0.40000000000000002 0.17711442786069653 -0.10793650793650794 0.11717171717171718 0.33924050632911396 -0.33544668587896254 -0.18494623655913978
leaf_weight=29.25 1.2499999999999989 8.5000000000000018 2.5000000000000027 53 4.9999999999999991 22.25 22.5 1.2499999999999989 50.25 15.749999999999998 24.75 19.75 86.75 23.25
leaf_count=117 5 34 10 212 20 89 90 5 201 63 99 79 347 93
internal_value=0 -0.23368 0.114344 0.0547368 -0.0663102 -0.0926554 0.00645161 -0.317087 0.238994 -0.0377358 0.0296296 0.210309 -0.327273 -0.143689
internal_weight=0 120.25 245.75 166.25 93.5 88.5 31 89.25 79.5 66.25 40.5 72.75 88 25.75
internal_count=1464 481 983 665 374 354 124 357 318 265 162 291 352 103
is_linear=0
shrinkage=0.2


Tree=1
num_leaves=15
num_cat=0
split_feature=2 0 7 0 4 7 1 4 6 6 6 0 4 9
split_gain=201.882 49.7808 39.7784 34.1641 19.0655 18.6117 12.3311 11.332 10.8075 10.7992 10.4008 9.50245 8.91767 8.2986
threshold=-0.34921776192110027 0.052951561730301563 -0.29484907593518239 0.070956717205823236 0.0041490588724807887 1.0000000180025095e-35 -0.17939054777316679 -0.040671393886569936 0.82053051533717813 -1.196901943043257 1.1179288024962033 -0.096241652303996159 -0.04958926377129462 -0.16606871970310452
decision_type=2 2 2 2 2 2 2 2 2 2 2 2 2 2
left_child=1 4 -3 5 7 6 -2 11 -5 -6 -11 -1 -13 -7
right_child=3 2 -4 8 9 13 -8 -9 -10 10 -12 12 -14 -15
leaf_value=0.320577302509087 0.080716502409328608 -0.17792514891213657 0.22597143565963582 -0.30667506638244335 0.31283549720018183 -0.057477711811866589 -0.18460839845435628 0.22443117725598791 -0.035165934819455888 -0.11773376509919463 0.3699227463239157 0.046399098299402426 -0.38926139434588714 0.19399626420121807
leaf_weight=4.1875338405370739 8.1497152596712095 32.669666722416878 13.905041411519049 62.876157984137535 3.6766057312488583 10.176500275731089 49.952736243605614 125.5090045183897 6.4674971401691428 15.79902905225754 1.9672821015119542 11.886706411838531 2.2323305904865238 10.840588331222532
leaf_count=17 33 134 56 258 15 41 202 509 26 64 8 48 9 44
internal_value=0 0.125289 -0.0573404 -0.178871 0.176759 -0.0890522 -0.147393 0.20299 -0.281352 0.00083179 -0.0637351 0.0559909 -0.0224822 0.0722323
internal_weight=0 211.833 46.5747 148.463 165.258 79.1195 58.1025 143.816 69.3437 21.4429 17.7663 18.3066 14.119 21.0171
internal_count=1464 860 190 604 670 320 235 583 284 87 72 74 57 85
is_linear=0
shrinkage=0.2


Tree=2
num_leaves=15
num_cat=0
split_feature=2 0 7 0 4 7 6 1 3 4 5 5 6 6
split_gain=134.884 33.1965 26.2096 25.1645 12.8175 12.4 8.6211 8.60116 8.42111 10.1047 8.21616 7.357 7.30287 7.45423
threshold=-0.34921776192110027 0.052951561730301563 -0.29484907593518239 0.070956717205823236 0.0041490588724807887 0.079035742145959084 0.7426881078662485 -0.17939054777316679 1.0000000180025095e-35 -0.040671393886569936 0.046732890824192165 -0.00036601968279754423 -1.196901943043257 0.88338884731547018
decision_type=2 2 2 2 2 2 2 2 2 2 2 2 2 2
left_child=1 4 -3 5 8 7 -5 -2 9 -1 -11 -7 -6 -14
right_child=3 2 -4 6 12 11 -8 -9 -10 10 -12 -13 13 -15
leaf_value=0.0019789358722754813 0.072721053395823798 -0.14737239100158617 0.1837435781203216 -0.27045921200406364 0.26573618997185616 0.19169157112943105 -0.063230472375944757 -0.14571447356843789 0.32248525422347885 0.18069132041823219 -0.26582562866818765 -0.068646624338157144 -0.11991419775930844 0.1953674360205091
leaf_weight=15.593273118138312 8.3711620867252332 31.66617476940155 13.698915377259253 55.929250150918961 3.4824290722608593 9.7264708578586596 9.3763599991798383 52.009393379092216 12.878353968262671 109.04661181569099 1.6736620217561711 7.8432012051343909 13.771224066615106 3.8349298238754264
leaf_count=64 34 134 56 246 15 40 38 214 55 457 7 32 56 16
internal_value=0 0.103656 -0.0473852 -0.149126 0.146406 -0.0724012 -0.240706 -0.115431 0.168421 0.152713 0.173942 0.0754751 0.00110309 -0.0512403
internal_weight=0 205.646 45.3651 143.256 160.28 77.9502 65.3056 60.3806 139.192 126.314 110.72 17.5697 21.0886 17.6062
internal_count=1464 860 190 604 670 320 284 248 583 528 464 72 87 72
is_linear=0
shrinkage=0.2


Tree=3
num_leaves=15
num_cat=0
split_feature=2 4 4 7 3 6 5 9 9 5 8 6 2 4
split_gain=92.8267 20.5758 26.797 19.6419 12.1987 9.06534 8.9991 13.615 9.09361 8.74397 8.54082 8.34955 8.29451 8.0546
threshold=-0.31163930748042351 -0.09809377558333375 0.0093284924488224088 0.045065858539844947 2.7970985787512004 0.160326611703446 -0.012457116528655306 -0.29416470837075964 -0.29692434729171496 -0.0087208406100071616 -0.33492747487908281 -1.114753454394749 0.67339923912280419 -0.16004306379170322
decision_type=2 2 2 2 2 2 2 2 2 2 2 2 2 2
left_child=1 -1 6 4 9 11 -3 8 -8 10 -2 -4 -12 -5
right_child=3 2 5 13 -6 -7 7 -9 -10 -11 12 -13 -14 -15
leaf_value=-0.12411244475309278 0.065607831790328405 0.22667660132762324 0.014227979760234197 -0.31042743551656904 0.39285066843319721 0.077021409691219123 0.037089201238834919 0.1621612852032237 -0.52715974205134353 -0.21774146319975896 -0.28840628374752686 -0.22621889608471119 0.10948697192803769 0.056767640827027482
leaf_weight=17.896574944257736 9.7047422528266925 34.735684648156166 9.8985789716243726 2.6660752296447781 1.4769819527864445 13.945352256298063 42.373594179749489 75.909882813692093 1.1741540729999531 76.243886426091194 8.4991689622402173 13.872966036200525 2.7814754396677008 23.0355194658041
leaf_count=77 41 157 44 12 6 59 182 328 5 349 36 60 12 96
internal_value=0 0.0809862 0.100113 -0.137058 -0.17761 -0.0509957 0.137075 0.111021 0.0218757 -0.186275 -0.0719535 -0.126096 -0.190297 0.0186778
internal_weight=0 209.807 191.91 124.408 98.7063 37.7169 154.193 119.458 43.5477 97.2293 20.9854 23.7715 11.2806 25.7016
internal_count=1464 912 835 552 444 163 672 515 187 438 89 104 48 108
is_linear=0
shrinkage=0.2


Tree=4
num_leaves=15
num_cat=0
split_feature=1 0 7 3 0 3 4 7 4 8 4 8 5 9
split_gain=64.3829 17.967 17.4543 13.236 11.3031 10.9809 11.3347 9.95371 8.19744 12.164 7.72527 6.81765 6.28105 6.17053
threshold=-0.18674239154399699 0.12978544301693359 -0.18033026232085242 2.7970985787512004 0.075948245456462907 1.0000000180025095e-35 -0.040671393886569936 -0.24888098235286185 0.0041490588724807887 -0.61572695749372564 -0.16004306379170322 1.0315323863008568 0.046287300374740985 -0.27079824480334674
decision_type=2 2 2 2 2 2 2 2 2 2 2 2 2 2
left_child=1 5 3 4 11 6 -1 -3 12 -10 -4 -2 13 -8
right_child=2 7 10 -5 -6 -7 8 -9 9 -11 -12 -13 -14 -15
leaf_value=-0.054786938521604135 -0.10842113930360389 -0.16457323634628176 -0.28070102551941511 0.34505770019252308 -0.23666114351521639 0.28151476799035324 0.085943117019090895 0.13579960583518336 0.14676485082906451 -0.15144114669394004 0.037351368774599311 0.39227016734457421 -0.19344457118700006 0.18145516553015203
leaf_weight=20.56205889582634 46.493815988302231 17.576761484146122 3.3588179796934119 2.0845428258180609 44.807216838002205 12.069825351238249 53.738037690520287 5.8922227621078482 10.613436594605448 11.293479129672049 33.744073286652565 1.1138745397329319 2.3946197628974906 54.491830602288246
leaf_count=87 204 81 17 9 235 60 244 25 45 49 143 5 10 250
internal_value=0 0.0745853 -0.107682 -0.153322 -0.164563 0.0978528 0.083373 -0.0891604 0.104808 -0.00696666 0.008559 -0.0967065 0.126943 0.134032
internal_weight=0 188.632 131.602 94.4995 92.4149 165.163 153.093 23.469 132.531 21.9069 37.1029 47.6077 110.624 108.23
internal_count=1464 851 613 453 444 745 685 106 598 94 160 209 504 494
is_linear=0
shrinkage=0.2


Tree=5
num_leaves=15
num_cat=0
split_feature=1 3 0 0 6 6 0 6 5 0 7 0 0 0
split_gain=46.0653 13.4648 12.821 11.0045 11.3416 7.47612 6.20528 8.42851 6.10389 9.12239 6.86971 8.80128 6.16318 5.49116
threshold=-0.17424904585037512 1.0000000180025095e-35 0.075948245456462907 0.052951561730301563 0.28714408710752093 0.77594309428098163 -0.10437071259789503 0.097014251744936927 -0.014032278767465227 -0.018177715841313665 -0.073944482756925792 -0.12116363978397562 -0.053653220194074154 -0.10437071259789503
decision_type=2 2 2 2 2 2 2 2 2 2 2 2 2 2
left_child=1 3 6 8 -5 -4 7 -2 9 -1 12 -12 13 -10
right_child=2 -3 5 4 -6 -7 -8 -9 10 -11 11 -13 -14 -15
leaf_value=0.20422499089459883 -0.31671113640993331 0.26803418759206898 -0.21938503027596945 -0.1234115652137293 0.083678494032981915 0.020122631845855474 -0.069546462179592067 0.2371585274604831 0.053283294941010577 -0.22438081861531464 -0.45519618774035814 0.13000836199610882 0.078133464472069925 -0.098323949744773681
leaf_weight=21.378051117062572 1.3633004873991001 11.407491937279699 38.815061345696449 27.109140977263451 17.34759858250618 6.0219008177518836 55.991814970970154 5.668667733669281 15.924647659063334 2.1897995322942725 1.0534575432538975 42.528293803334236 34.121056258678436 23.895638212561611
leaf_count=109 6 64 231 132 78 25 250 24 73 10 5 202 149 106
internal_value=0 0.0571334 -0.105467 0.0441672 -0.0426023 -0.187218 -0.0473065 0.129779 0.0715077 0.164401 0.052879 0.115863 0.0157557 -0.0376943
internal_weight=0 196.955 107.861 185.548 44.4567 44.837 63.0238 7.03197 141.091 23.5679 117.523 43.5818 73.9413 39.8203
internal_count=1464 928 536 864 210 256 280 30 654 119 535 207 328 179
is_linear=0
shrinkage=0.2


Tree=6
num_leaves=15
num_cat=0
split_feature=2 9 5 6 0 3 9 0 7 7 3 6 5 6
split_gain=32.3278 13.9734 14.2577 10.8061 10.6414 9.23336 8.30654 6.28525 5.73222 5.41571 5.17316 4.90827 5.34802 5.4855
threshold=-0.34921776192110027 0.13696958109764532 -0.014032278767465227 -0.25431261794679444 0.075948245456462907 1.0000000180025095e-35 -0.27079824480334674 -0.10347936826742367 0.94070104827777967 0.34638198898969796 2.7970985787512004 -1.196901943043257 0.030459927610235072 1.085730174346802
decision_type=2 2 2 2 2 2 2 2 2 2 2 2 2 2
left_child=1 2 -1 -3 7 6 8 -2 11 10 -6 -4 13 -13
right_child=4 3 5 -5 9 -7 -8 -9 -10 -11 -12 12 -14 -15
leaf_value=0.16791295858124899 0.10859978782900336 -0.45820457941549186 0.031068618899179886 0.20364935017984101 -0.19394260611207548 0.25514080313999998 0.056080620499532385 -0.058793640802602326 0.29034904959016122 0.037139725325782878 0.34358183901257111 -0.12405131605523408 0.13892853308181768 0.23278075579478755
leaf_weight=24.514497756958008 10.483957439661024 1.0226013362407709 16.731705665588379 28.143517374992371 38.558723360300064 5.44802401959896 44.869050204753876 62.228646814823151 1.8839841336011875 4.9948042631149283 0.72972926497459312 46.90432496368885 3.6856364160776129 1.7889769822359074
leaf_count=139 46 5 77 142 253 34 213 279 9 23 3 215 18 8
internal_value=0 0.0540722 0.0287972 0.180444 -0.0817298 0.000684828 -0.0112799 -0.0346583 -0.0538522 -0.159021 -0.183959 -0.0632353 -0.0933594 -0.110941
internal_weight=0 174.992 145.826 29.1661 116.996 121.312 115.864 72.7126 70.9946 44.2833 39.2885 69.1106 52.3789 48.6933
internal_count=1464 860 713 147 604 574 540 325 327 279 256 318 241 223
is_linear=0
shrinkage=0.2


Tree=7
num_leaves=15
num_cat=0
split_feature=1 9 9 5 6 7 0 3 5 0 9 0 5 7
split_gain=22.5563 12.1092 8.38124 9.3155 6.95155 6.82921 6.00955 5.97222 5.77013 4.66427 4.7214 5.47255 13.0356 4.61623
threshold=-0.18674239154399699 0.39282798832968324 -0.013512199831841862 0.011575804362494075 0.01124916296724948 -0.27472394870849065 -0.10954050971462899 4.0023175390205763 0.061660170880806685 0.0691740285448805 -0.36299097500222738 0.040098376484904434 0.012756619053539702 -0.26275906032064861
decision_type=2 2 2 2 2 2 2 2 2 2 2 2 2 2
left_child=2 5 3 6 -4 7 -1 8 9 10 11 -2 -13 -7
right_child=1 -3 4 -5 -6 13 -8 -9 -10 -11 -12 12 -14 -15
leaf_value=0.15271540210521012 -0.085986862047572263 0.081868557633032912 -0.29564413720606381 -0.04406027856571651 0.16397017456658317 0.49211605716975315 0.033616369024309686 0.29504631635543632 0.23795700112988094 -0.21256925794715073 -0.15825915327015969 0.52778288350595459 -0.29054293633131106 -0.032661989979693662
leaf_weight=22.912099249660969 8.3322654515504819 17.916929595172405 1.380220085382464 49.169765204191208 28.4219024553895 0.68534687161445873 65.089810378849506 1.2666131108999241 1.5461715981364239 28.395535707473755 21.071862146258354 2.056874424219131 1.2529553174972532 30.940992556512356
leaf_count=134 38 86 7 238 153 3 319 6 9 215 100 10 6 140
internal_value=0 -0.0690131 0.046552 0.0256662 0.142684 -0.0973059 0.0646249 -0.134916 -0.143608 -0.153262 -0.101783 0.000436385 0.218001 -0.02129
internal_weight=0 113.466 166.974 137.172 29.8021 95.5486 88.0019 63.9223 62.6557 61.1095 32.714 11.6421 3.30983 31.6263
internal_count=1464 613 851 691 160 527 453 384 378 369 154 54 16 143
is_linear=0
shrinkage=0.2


Tree=8
num_leaves=15
num_cat=0
split_feature=1 3 6 4 4 1 0 7 8 0 5 8 8 8
split_gain=16.0535 8.92862 8.48303 7.0955 9.27937 6.25875 6.54765 5.99521 8.2104 5.54352 5.16417 4.70943 6.19598 6.08085
threshold=-0.17424904585037512 1.0000000180025095e-35 0.26121439922340811 -0.040671393886569936 1.0000000180025095e-35 -0.14435832880261129 -0.076649903920235463 0.34638198898969796 -0.56131493954811851 -0.10337240694776711 0.012756619053539702 -0.42511057168769256 0.23585697113600609 0.37607791980529121
decision_type=2 2 2 2 2 2 2 2 2 2 2 2 2 2
left_child=1 3 10 9 -5 -4 -7 8 -6 -1 -2 -8 -13 -14
right_child=2 -3 5 4 7 6 11 -9 -10 -11 -12 12 13 -15
leaf_value=0.29060759705125044 -0.062661231755531607 0.23968446787056405 -0.1402385835114954 0.073172923498345296 0.018419980317832766 0.17592324538165122 0.39527093783180134 0.23646520069952617 -0.18936155734510457 -0.083700743723213483 -0.19607001542132207 -0.18399086150332569 0.46780825229031753 -0.0012914374031081019
leaf_weight=1.675756767392161 23.635293230414391 8.1239375472068769 10.88873430341482 105.78869849443436 17.379132203757763 9.433118134737013 1.0575998723506916 2.7338720858097068 13.528414234519007 28.486858062446117 22.80452324450016 7.7841078937053743 1.1854630410671259 16.35313306748867
leaf_count=8 128 64 51 559 84 42 5 13 68 132 186 37 5 82
internal_value=0 0.0348616 -0.0676444 0.0250501 0.0440772 -0.00745644 0.0329147 -0.0474169 -0.0725272 -0.0629051 -0.128172 -0.0182225 -0.035492 0.0304158
internal_weight=0 177.717 93.142 169.593 139.43 46.7022 35.8134 33.6414 30.9075 30.1626 46.4398 26.3803 25.3227 17.5386
internal_count=1464 928 536 864 724 222 171 165 152 140 314 129 124 87
is_linear=0
shrinkage=0.2


Tree=9
num_leaves=15
num_cat=0
split_feature=2 6 9 5 6 8 4 8 8 0 0 2 0 4
split_gain=12.0938 9.33651 7.87561 9.20426 6.53749 5.78802 5.09782 4.68887 4.91496 4.36249 4.33303 5.14322 4.57341 4.11593
threshold=-0.15296317988364735 0.37908277740452023 0.13696958109764532 -0.014032278767465227 1.1799276618535677 -0.50948290194935575 0.0093284924488224088 -0.65145155022435264 0.84982004028938563 0.3574347850193213 0.072739405866765958 2.6549030911087326 0.051168873069358835 -0.038346766218448104
decision_type=2 2 2 2 2 2 2 2 2 2 2 2 2 2
left_child=2 10 3 -1 6 -3 9 -8 -9 13 11 12 -2 -5
right_child=1 5 -4 4 -6 -7 7 8 -10 -11 -12 -13 -14 -15
leaf_value=0.12860434925566988 -0.14631333841880143 0.34329327470570448 0.118857750613169 -0.065397440770069065 0.21355465627337408 -0.017834605873648515 0.019451395120653157 -0.18016166054828148 0.12573284095200629 0.41349616732308853 -0.21994913682324224 0.24603029301033363 0.21121255185273258 0.02344693676470818
leaf_weight=21.843821235001087 15.272757872939115 1.8766682744026173 30.43918115645647 29.27056896686554 4.9972286522388449 32.861843153834343 10.375320613384249 18.386271752417091 2.3721183687448493 1.0204841420054425 16.326469093561172 1.7650174200534809 1.5791237354278553 72.570343263447285
leaf_count=148 78 8 177 148 27 156 50 108 12 6 164 8 8 366
internal_value=0 -0.0717497 0.0255715 0.00791648 -0.0110506 0.0016745 -0.0194271 -0.090334 -0.145206 0.00203476 -0.144743 -0.0787902 -0.112811 -0.00208824
internal_weight=0 69.6819 191.275 160.836 138.992 34.7385 133.995 31.1337 20.7584 102.861 34.9434 18.6169 16.8519 101.841
internal_count=1464 422 1042 865 717 164 690 170 120 520 258 94 86 514
is_linear=0
shrinkage=0.2


Tree=10
num_leaves=15
num_cat=0
split_feature=3 0 8 7 6 9 5 7 9 0 0 7 8 0
split_gain=10.8761 8.88416 7.09686 9.92166 4.89539 4.83588 5.65989 7.39835 4.62169 4.10376 8.70314 4.30807 5.20468 4.78121
threshold=1.5918796184818247 0.1718568954151822 -0.64612888806734958 -0.16269070682347467 0.35442643759360382 0.39282798832968324 0.0023743615813272109 1.1903274442763541 1.7871442552486281 -0.067879075708397199 -0.081445336418171435 1.0000000180025095e-35 0.67608551415503948 -0.026021545949461721
decision_type=2 2 2 2 2 2 2 2 2 2 2 2 2 2
left_child=1 2 -1 8 -3 6 -5 9 -4 10 -8 12 -11 -13
right_child=-2 4 3 5 -6 -7 7 -9 -10 11 -12 13 -14 -15
leaf_value=0.067531700368430647 0.2270377872592588 -0.16097043644218134 -0.068210916831984464 0.068899243527851622 0.012182718805829294 0.14213800429980028 -0.019262195424428565 -0.47164672770743055 0.23922777716439747 -0.47584720274997161 -0.65342258877075077 0.30971095138926924 0.03230837074757522 0.0056107397177138189
leaf_weight=55.948720872402191 8.125785790383814 21.513042092323307 84.093207456171513 31.814230561256409 9.3782098442316038 14.68778647482395 2.8657069802284241 1.6229449659585942 2.0024600178003302 1.4820895344018965 1.2402954250574172 2.457883730530745 1.7679896652698515 13.039545834064475
leaf_count=302 70 197 465 160 50 93 14 7 10 7 6 12 9 62
internal_value=0 -0.00816922 0.0063661 -0.0154207 -0.108403 0.0399395 0.0132731 -0.0590292 -0.0610603 -0.0297271 -0.210822 0.0099356 -0.199419 0.0538409
internal_weight=0 243.914 213.023 157.074 30.8913 70.9785 56.2907 24.4765 86.0957 22.8535 4.106 18.7475 3.25008 15.4974
internal_count=1464 1394 1147 845 247 370 277 117 475 110 20 90 16 74
is_linear=0
shrinkage=0.2


Tree=11
num_leaves=15
num_cat=0
split_feature=3 2 7 9 5 9 7 0 5 5 1 2 0 9
split_gain=8.33193 6.35956 8.53155 5.50018 5.89399 4.36335 4.30674 4.22331 3.78933 4.09589 3.75389 5.82395 4.62298 3.41071
threshold=1.5918796184818247 -0.15296317988364735 0.079035742145959084 -0.27079824480334674 -0.014032278767465227 -0.41435479020244509 0.94070104827777967 0.097429643820822878 0.037375491385717392 -0.0056551783177830476 -0.10009196968430335 -0.34984103967270791 -0.10347936826742367 -0.42443180189228141
decision_type=2 2 2 2 2 2 2 2 2 2 2 2 2 2
left_child=1 3 7 4 5 13 -6 -3 9 -4 11 -5 -13 -1
right_child=-2 2 8 10 6 -7 -8 -9 -10 -11 -12 12 -14 -15
leaf_value=0.060508965103030513 0.21479608524909108 -0.067094665103438159 0.17896881860682312 0.067916860279363306 -0.0470932992969533 -0.28176151080757583 0.26313416656602884 -0.19999847437582247 0.40376837027325296 -0.032081913266784924 0.25893265521902592 0.18896932175521197 -0.1445703646635986 0.27235461659288718
leaf_weight=10.359854668378828 6.9925226643681517 29.56959742307663 5.12109956145287 61.791814140975475 79.948498301208019 1.1508041620254505 1.8309742063283909 14.136148937046526 1.1368587464094151 13.054453805088997 3.3853364437818518 2.0116416811943045 9.5692550837993604 4.3024302199482909
leaf_count=77 70 159 24 355 419 6 11 170 5 59 20 10 49 30
internal_value=0 -0.00671233 -0.0611639 0.0129689 -0.0185347 0.0932391 -0.0401476 -0.110081 0.0495398 0.0273832 0.0530236 0.0435232 -0.0866334 0.122672
internal_weight=0 237.369 63.0182 174.351 97.5926 15.8131 81.7795 43.7057 19.3124 18.1756 76.758 73.3727 11.5809 14.6623
internal_count=1464 1394 417 977 543 113 430 329 88 83 434 414 59 107
is_linear=0
shrinkage=0.2


Tree=12
num_leaves=15
num_cat=0
split_feature=3 4 4 6 2 6 4 2 8 8 8 1 7 9
split_gain=6.3975 5.04413 5.62466 4.55334 6.56208 4.13797 3.70081 3.62412 4.19079 7.06302 4.75676 4.15232 3.58065 3.4566
threshold=1.5918796184818247 -0.10449669740605527 0.02218871334966014 -1.0925371964583606 -0.28393807320997638 1.1179288024962033 -0.097441248518597798 1.5771519789538699 -0.56131493954811851 1.0315323863008568 1.2941790342228385 1.0625201633559862 -0.14708705882247838 1.7871442552486281
decision_type=2 2 2 2 2 2 2 2 2 2 2 2 2 2
left_child=1 3 5 4 -1 6 -3 8 -4 -10 -11 12 -9 -8
right_child=-2 2 7 -5 -6 -7 13 11 9 10 -12 -13 -14 -15
leaf_value=-0.084334897583706367 0.20344028222519051 0.37992842352284395 0.013505236047427947 -0.11345946362739817 0.42149255673776453 0.14260637002429069 0.0065203666910665483 -0.061139321017840545 -0.16654367733338635 0.49941893772047968 0.0023728761647895395 -0.25386696694729965 0.37910550274633725 0.1728579695865988
leaf_weight=2.7049598097801208 6.0114989764988414 1.1062168926000584 15.407102607190607 25.913198504596949 1.652669090777638 11.055244892835615 135.03258896619081 1.1224291734397414 22.69066054746509 0.9112173318862905 4.9749611057341099 0.91096645221114148 2.1631458252668372 5.1892657056450835
leaf_count=14 70 5 88 187 13 70 745 13 175 4 29 9 9 33
internal_value=0 -0.00555024 0.0059355 -0.0816506 0.107505 0.0247685 0.0155507 -0.0536286 -0.0705718 -0.115902 0.0793187 0.123952 0.228708 0.0126761
internal_weight=0 230.835 200.564 30.2708 4.35763 152.383 141.328 48.1805 43.9839 28.5768 5.88618 4.19654 3.28557 140.222
internal_count=1464 1394 1180 214 27 853 783 327 296 208 33 31 22 778
is_linear=0
shrinkage=0.2


end of trees

feature_importances:
Column_0=32
Column_6=23
Column_4=21
Column_7=20
Column_5=18
Column_9=18
Column_8=16
Column_3=14
Column_2=11
Column_1=9

parameters:
[boosting: gbdt]
[objective: binary]
[metric: binary_logloss]
[tree_learner: serial]
[device_type: cpu]
[linear_tree: 0]
[data: ]
[valid: ]
[num_iterations: 10000]
[learning_rate: 0.2]
[num_leaves: 15]
[num_threads: 0]
[deterministic: 0]
[force_col_wise: 0]
[force_row_wise: 0]
[histogram_pool_size: -1]
[max_depth: -1]
[min_data_in_leaf: 5]
[min_sum_hessian_in_leaf: 0.001]
[bagging_fraction: 0.5]
[pos_bagging_fraction: 1]
[neg_bagging_fraction: 1]
[bagging_freq: 0]
[bagging_seed: 21897]
[feature_fraction: 0.8]
[feature_fraction_bynode: 1]
[feature_fraction_seed: 12646]
[extra_trees: 0]
[extra_seed: 20733]
[early_stopping_round: 50]
[first_metric_only: 0]
[max_delta_step: 0]
[lambda_l1: 0]
[lambda_l2: 0]
[linear_lambda: 0]
[min_gain_to_split: 0]
[drop_rate: 0.1]
[max_drop: 50]
[skip_drop: 0.5]
[xgboost_dart_mode: 0]
[uniform_drop: 0]
[drop_seed: 20829]
[top_rate: 0.2]
[other_rate: 0.1]
[min_data_per_group: 100]
[max_cat_threshold: 32]
[cat_l2: 10]
[cat_smooth: 10]
[max_cat_to_onehot: 4]
[top_k: 20]
[monotone_constraints: ]
[monotone_constraints_method: basic]
[monotone_penalty: 0]
[feature_contri: ]
[forcedsplits_filename: ]
[refit_decay_rate: 0.9]
[cegb_tradeoff: 1]
[cegb_penalty_split: 0]
[cegb_penalty_feature_lazy: ]
[cegb_penalty_feature_coupled: ]
[path_smooth: 0]
[interaction_constraints: ]
[verbosity: -1]
[saved_feature_importance_type: 0]
[max_bin: 255]
[max_bin_by_feature: ]
[min_data_in_bin: 3]
[bin_construct_sample_cnt: 200000]
[data_random_seed: 182]
[is_enable_sparse: 1]
[enable_bundle: 1]
[use_missing: 1]
[zero_as_missing: 0]
[feature_pre_filter: 1]
[pre_partition: 0]
[two_round: 0]
[header: 0]
[label_column: ]
[weight_column: ]
[group_column: ]
[ignore_column: ]
[categorical_feature: ]
[forcedbins_filename: ]
[objective_seed: 3944]
[num_class: 1]
[is_unbalance: 0]
[scale_pos_weight: 1]
[sigmoid: 1]
[boost_from_average: 1]
[reg_sqrt: 0]
[alpha: 0.9]
[fair_c: 1]
[poisson_max_delta_step: 0.7]
[tweedie_variance_power: 1.5]
[lambdarank_truncation_level: 30]
[lambdarank_norm: 1]
[label_gain: ]
[eval_at: ]
[multi_error_top_k: 1]
[auc_mu_weights: ]
[num_machines: 1]
[local_listen_port: 12400]
[time_out: 120]
[machine_list_filename: ]
[machines: ]
[gpu_platform_id: -1]
[gpu_device_id: -1]
[gpu_use_dp: 0]
[num_gpu: 1]

end of parameters

pandas_categorical:null
