tree
version=v3
num_class=1
num_tree_per_iteration=1
label_index=0
max_feature_idx=9
objective=binary sigmoid:1
feature_names=Column_0 Column_1 Column_2 Column_3 Column_4 Column_5 Column_6 Column_7 Column_8 Column_9
feature_infos=[-39.599748861351209:8.9000788482569213] [-1.662425519084197:32.507701955788043] [-1.7885478797273402:23.521722816805894] [-0.2159488219222388:5.8101459794246386] [-27.341941575767965:27.171256957381392] [-34.352181421132713:24.445706336197716] [-1.2680167013547996:15.523717361941239] [-0.29598397758150563:20.207531766523946] [-0.92135003479692401:15.542178607335664] [-0.42558784639417108:15.766073447244642]
tree_sizes=2162 2436 2437 2338 2658 2130 2232 2228 2467 2540 2238 2342 2344 2345 2659 2460 2453 2557 2561 2439 2343 2553 2354 2461 2340 2563 2769 2459 2455 2670 2458 2450 2349 2458 2570 2460 2455 2361 2568 2571 2569 2464 2567 2666 2669 2769 2464 2678 2570 2452 2460 2688 2464 2370 2573 2675 2579 2467 2679 2352 2564 2675 2689 2779 2459 2473 2571 2786 2565

Tree=0
num_leaves=21
num_cat=0
split_feature=2 7 9 3 6 9 2 7 6 9 9 6 6 6 6 7 9 9 7 2
split_gain=237.65 48.8469 33.0152 30.5837 27.5468 35.4999 20.448 11.2315 4.55562 3.73149 3.20938 2.98426 6.46544 2.10191 2.03064 1.68697 1.02913 0.73986 0.428966 0.37769
threshold=-0.34977611490691546 -0.16172081822908507 0.34026558904897458 1.5918796184818247 -1.1994583905769123 -0.31305233597134768 -0.15296317988364735 -0.15240541803153271 0.19988033090201765 -0.30844950980542757 -0.18993282158135746 0.056714993162650058 -0.81953555242143283 -1.2454116589045234 0.76258588332428179 0.38526672327423034 -0.23460025433778134 -0.36449441086781792 0.11653055310983405 0.53575873564278542
decision_type=2 2 2 2 2 2 2 2 2 2 2 2 2 2 2 2 2 2 2 2
left_child=2 6 3 4 13 11 9 16 17 -2 -9 12 -6 -1 -3 -16 -7 19 -4 -8
right_child=1 14 18 -5 5 7 8 10 -10 -11 -12 -13 -14 -15 15 -17 -18 -19 -20 -21
leaf_value=0.067391304347826086 -0.045652173913043478 -0.016 0.087692307692307681 0.10000000000000001 -0.012359550561797756 0 -0.086301369863013705 0.060439560439560447 -0.05955056179775281 -0.012727272727272726 0.033333333333333326 -0.0019607843137254902 -0.053846153846153835 0.043333333333333335 0.021568627450980385 -0.0035714285714285713 0.017073170731707318 -0.093333333333333338 0.07586206896551724 -0.075438596491228083
leaf_weight=23 23 12.499999999999998 16.250000000000004 12.999999999999998 22.249999999999996 15.499999999999998 18.25 22.749999999999996 22.25 13.749999999999998 21.000000000000004 12.749999999999998 16.250000000000004 14.999999999999998 12.750000000000002 13.999999999999998 20.5 22.5 14.499999999999998 14.249999999999998
leaf_count=92 92 50 65 52 89 62 73 91 89 55 84 51 65 60 51 56 82 90 58 57
internal_value=0 -0.0474715 0.0341951 0.0260989 0.0204142 0.00954198 -0.0640351 0.0304075 -0.0786408 -0.0333333 0.0474286 -0.0229268 -0.0298701 0.0578947 0.000636943 0.00841121 0.00972222 -0.0863636 0.0821138 -0.0815385
internal_weight=0 153.25 212.75 182 169 131 114 79.75 77.25 36.75 43.75 51.25 38.5 38 39.25 26.75 36 55 30.75 32.5
internal_count=1464 613 851 728 676 524 456 319 309 147 175 205 154 152 157 107 144 220 123 130
is_linear=0
shrinkage=0.05


Tree=1
num_leaves=22
num_cat=0
split_feature=1 7 3 7 6 6 2 6 6 6 2 6 6 7 7 6 6 6 6 6 6
split_gain=215.482 48.8399 26.6031 23.8882 40.0793 11.9473 10.0193 5.59527 4.9341 4.14082 2.81982 2.03883 1.8761 1.51773 1.62722 1.1494 1.0266 1.70279 0.422187 0.958106 0.192764
threshold=-0.17979697633239747 -0.16172081822908507 1.5918796184818247 -0.2081581812506226 -1.1994583905769123 0.056714993162650058 -0.15296317988364735 -0.75030349280570918 1.1179288024962033 0.19988033090201765 -0.37001965688100502 0.78416827628905861 0.56820558286090617 0.048427574780090084 0.42073213196253767 -0.94973315707189787 -1.2565758451747202 -1.2387511731094778 -0.45684222518085132 -0.91041890536765113 -0.57877331525033437
decision_type=2 2 2 2 2 2 2 2 2 2 2 2 2 2 2 2 2 2 2 2 2
left_child=2 6 3 4 16 10 7 -2 13 18 15 -3 -7 -5 -15 -6 -1 -18 19 -8 -17
right_child=1 11 -4 8 5 12 9 -9 -10 -11 -12 -13 -14 14 -16 20 17 -19 -20 -21 -22
leaf_value=0.066730419496151966 -0.061096351313295806 -0.014681714562339375 0.095576529572240845 0.054465643750288978 -0.0024851108580835131 0.026152513871949497 -0.088493491114567197 -0.016322161226548858 0.077512975061401534 -0.056624083246256229 -0.039624900139864985 0.0099050013730265559 0.0035804103020316298 0.028500984045391715 0.048310970261689824 -0.014686412200672933 0.037844967826124426 0.063005576163333105 -0.087279137662010467 -0.070856415338686821 -0.023160985495813406
leaf_weight=13.235274523496626 14.743534684181215 12.999172091484068 14.715497151017187 19.732816874980927 16.499380901455876 23.243766501545906 13.475391134619715 13.246853187680243 12.489804223179815 22.230285987257957 12.745205879211424 23.997785419225693 15.242247134447096 22.479961767792702 19.236855715513229 12.495817333459852 14.236582964658735 12.743951708078386 23.454579859972 17.966906428337097 14.492282882332807
leaf_count=53 59 52 59 79 66 93 54 53 50 89 51 96 61 90 77 50 57 51 94 72 58
internal_value=0 -0.0481412 0.0305988 0.026021 0.0135041 -0.00425204 -0.0655306 -0.0399063 0.0488634 -0.0748299 -0.0189428 0.00126627 0.0172129 0.0430403 0.037636 -0.0128813 0.0553245 0.0497293 -0.0822023 -0.0784152 -0.0192372
internal_weight=0 142.115 223.589 208.874 134.935 94.7187 105.118 27.9904 73.9394 77.1272 56.2327 36.997 38.486 61.4496 41.7168 43.4875 40.2158 26.9805 54.8969 31.4423 26.9881
internal_count=1464 569 895 836 540 379 421 112 296 309 225 148 154 246 167 174 161 108 220 126 108
is_linear=0
shrinkage=0.05


Tree=2
num_leaves=22
num_cat=0
split_feature=0 2 6 4 4 0 1 2 0 6 0 0 6 6 6 6 0 0 6 0 2
split_gain=206.536 96.284 32.815 24.5838 15.2306 11.9399 11.7757 9.90854 5.39625 4.626 4.47227 5.67862 4.46662 2.2331 1.43479 2.96422 2.90028 0.555107 0.319288 0.053858 0.000643142
threshold=0.081724156717917371 -0.34977611490691546 0.39667540530553141 0.0041490588724807887 -0.031100996937109302 -0.1029802154423597 -0.16204614624028965 -0.18055222415880515 0.177561499130199 -1.1890487541913244 0.039795319412544168 -0.065418965356296224 -0.43514262440577373 0.26234454336457519 0.9805567239402766 0.69430449458497179 -0.090911413207777375 -0.079323936911649573 -1.2496423060699218 0.16470831388480184 0.40779981323773867
decision_type=2 2 2 2 2 2 2 2 2 2 2 2 2 2 2 2 2 2 2 2 2
left_child=1 3 7 4 -1 -3 -4 8 -2 18 11 -7 -11 -13 15 17 -17 -14 -6 -9 -21
right_child=2 5 6 -5 9 10 -8 19 -10 12 -12 13 14 -15 -16 16 -18 -19 -20 20 -22
leaf_value=0.012494494300165887 -0.034844857588214755 0.025256934295684291 0.022704332716407882 -0.0032143025952156082 0.071260322396061504 -0.013279336650452531 -0.044017703777202696 -0.088800954280533334 -0.072097042098379485 0.030866786635173782 -0.003134393754145353 -0.057370338249185554 0.059007174653560313 -0.032194353037404463 0.069752729854309581 0.059135655221183664 0.026621840779923679 0.072520324816474344 0.081234128791099869 -0.092519959611201644 -0.092996812054067721
leaf_weight=19.956661596894264 16.723430216312408 12.980103418231009 13.478605896234514 22.213058173656464 17.670921489596367 21.956268921494484 12.981976896524428 12.420030027627943 23.21825635433197 17.220145374536514 15.695144250988958 18.914295837283134 15.724223613739015 16.484339982271194 22.17167940735817 13.714543730020525 13.720427483320234 14.708949893712996 14.698724433779715 14.651549786329271 13.66656908392906
leaf_count=80 67 52 54 89 71 88 52 50 93 69 63 76 63 66 89 55 55 59 59 59 55
internal_value=0 0.0242461 -0.0583489 0.0458681 0.0531567 -0.0189322 -0.0100305 -0.0741959 -0.0564997 0.0594167 -0.0267841 -0.0332559 0.0539676 -0.0456465 0.0589376 0.0547939 0.0428753 0.0655383 0.0757893 -0.0915461 -0.0927501
internal_weight=0 257.829 107.14 171.799 149.586 86.0302 26.4606 80.6798 39.9417 129.63 73.05 57.3549 97.26 35.3986 80.0398 57.8681 27.435 30.4332 32.3696 40.7381 28.3181
internal_count=1464 1034 430 689 600 345 106 324 160 520 293 230 390 142 321 232 110 122 130 164 114
is_linear=0
shrinkage=0.05


Tree=3
num_leaves=21
num_cat=0
split_feature=1 4 4 6 5 5 5 6 1 8 4 5 6 6 5 6 6 4 8 8
split_gain=177.295 45.2665 47.4495 37.5923 13.7986 12.6231 8.78295 8.06735 6.62018 6.16228 5.29918 4.08602 3.89177 2.54177 2.55631 3.09745 4.08541 1.85519 2.23865 1.30309
threshold=-0.17979697633239747 -0.090915977871238271 0.0019331857151482824 0.38117569046619032 0.00565613524153515 -0.012385822056743117 -0.0057799436436293773 0.1559131681344329 -0.18937183796629725 -0.40409766607909153 -0.031100996937109302 0.024765281666248997 0.81549974395897207 0.9805567239402766 -0.0084089272953913382 -0.2533692660357279 0.60850484144319295 0.096413666963374736 -0.14747214607458867 -0.67457840108119971
decision_type=2 2 2 2 2 2 2 2 2 2 2 2 2 2 2 2 2 2 2 2
left_child=1 -1 5 4 9 19 -5 -4 10 -2 -7 13 -8 14 -12 -16 -17 18 -6 -3
right_child=3 2 7 6 17 8 12 -9 -10 -11 11 -13 -14 -15 15 16 -18 -19 -20 -21
leaf_value=-0.041267267850591531 -0.013895581538405305 0.080672893923524308 -0.03271029942959576 0.018548342692005837 -0.056111409523949232 0.012523695602676872 -0.043195542447968152 0.015558520608195443 0.0056045098359145942 -0.056628742832487089 0.032120077488402503 0.028151662547132968 -0.0088667106718923454 0.07006134957366987 0.03636835734128762 0.085582573498299189 0.048055334963297287 -0.089895792949147901 -0.082330864665042691 0.060913500346635799
leaf_weight=21.444657996296883 14.689521402120588 22.049348786473274 24.194501623511314 17.976303085684776 14.108111619949339 12.468966051936148 15.446714729070662 13.478965252637861 12.955238237977026 19.817783638834953 18.41589193046093 22.385608822107315 17.735016793012619 16.115303695201874 15.916894823312754 12.426522478461271 17.417928919196129 22.196719244122505 19.248032137751579 13.423523679375647
leaf_count=86 59 89 97 72 57 50 62 54 52 80 74 90 71 65 64 50 70 90 78 54
internal_value=0 0.0277904 0.035149 -0.0438269 -0.0632699 0.0468004 -0.00959868 -0.0154405 0.0394913 -0.0384375 0.0433039 0.0470418 -0.0248474 0.0523083 0.0478504 0.0541809 0.0636808 -0.0786949 -0.0712412 0.0731956
internal_weight=0 222.693 201.249 141.218 90.0602 163.575 51.158 37.6735 128.102 34.5073 115.147 102.678 33.1817 80.2925 64.1772 45.7613 29.8445 55.5529 33.3561 35.4729
internal_count=1464 895 809 569 364 658 205 151 515 139 463 413 133 323 258 184 120 225 135 143
is_linear=0
shrinkage=0.05


Tree=4
num_leaves=24
num_cat=0
split_feature=0 1 6 9 6 6 1 1 0 0 6 1 6 0 0 0 9 6 9 1 9 6 6
split_gain=174.078 73.4564 27.9802 16.7885 18.0076 11.7647 9.98954 8.07824 6.72115 5.70777 5.64737 3.74921 3.66039 4.00864 6.6894 2.1132 1.16611 1.08434 0.907112 0.584037 0.449189 0.438047 0.0329294
threshold=0.081724156717917371 -0.17979697633239747 0.39667540530553141 0.34026558904897458 -1.1994583905769123 0.38117569046619032 -0.16204614624028965 -0.17376221338903958 -0.10469159655686473 -0.076649903920235463 -0.81953555242143283 -0.018933936540288483 0.9805567239402766 -0.065418965356296224 -0.031815284097525612 -0.090911413207777375 -0.42477468949433866 0.6540653831627764 -0.32418299084570312 -0.0034054507065867335 1.1389089802308725 -0.50954125563461095 -0.47027531137494688
decision_type=2 2 2 2 2 2 2 2 2 2 2 2 2 2 2 2 2 2 2 2 2 2 2
left_child=1 3 7 4 16 11 -4 10 17 -7 -2 18 13 15 -15 -10 -1 -6 -3 -9 -5 -16 -21
right_child=2 5 6 20 8 9 -8 19 12 -11 -12 -13 -14 14 21 -17 -18 -19 -20 22 -22 -23 -24
leaf_value=0.056627635858473462 -0.030602651955942181 -0.03485686523889641 0.02092377250651203 0.083421836838017044 0.036170156435993049 0.026386155661344304 -0.04061191670467109 -0.08738972360850579 0.0099306793884046257 -0.013580305050284791 -0.073039447667451615 -0.056508039174002739 0.039868886076221771 0.052356269673839585 0.016052222195541279 -0.016743229475539117 0.074681605558680642 0.056235035028808458 -0.01608491021216709 -0.074511610480926679 0.070319220499727816 0.0037557666660561228 -0.078152027633701993
leaf_weight=23.104062810540199 17.940760090947155 12.371843636035917 13.450419381260874 13.35417525470257 14.418200030922891 14.730186223983763 12.94044680893421 22.977114826440811 17.425092622637752 22.700422912836075 13.924402222037314 15.034548625349997 14.589937999844549 12.921697199344633 12.971964955329893 12.938593223690985 14.593530789017676 12.633164554834364 13.412103131413462 12.43311655521393 12.821227595210074 16.398663952946666 12.414357379078863
leaf_count=94 72 50 54 54 58 59 52 94 70 91 56 61 59 52 52 52 59 51 54 51 52 66 51
internal_value=0 0.0222839 -0.0538718 0.0400189 0.0336497 -0.018098 -0.00924952 -0.0686493 0.0237659 0.00214782 -0.0491466 -0.0366635 0.0170145 0.0124251 0.0223764 -0.00143562 0.0636167 0.0455406 -0.0250922 -0.0816438 0.0770039 0.00918667 -0.0763304
internal_weight=0 256.419 106.081 178.17 151.995 78.2491 26.3909 79.6898 114.297 37.4306 31.8652 40.8185 87.2459 72.656 42.2923 30.3637 37.6976 27.0514 25.7839 47.8246 26.1754 29.3706 24.8475
internal_count=1464 1034 430 719 613 315 106 324 460 150 128 165 351 292 170 122 153 109 104 196 106 118 102
is_linear=0
shrinkage=0.05


Tree=5
num_leaves=19
num_cat=0
split_feature=1 4 4 9 9 1 9 8 8 9 9 8 4 9 9 8 9 8
split_gain=145.902 39.0117 41.1945 23.0276 10.762 9.07682 8.47567 12.3895 6.68617 5.73486 7.58102 4.62401 2.08776 1.95747 1.81414 1.6729 0.376897 0.277349
threshold=-0.17979697633239747 -0.090915977871238271 0.0019331857151482824 0.39585066881124903 -0.31846952247138555 -0.10879616667225736 0.34026558904897458 -0.67190335194503426 -0.63636680026847958 -0.29392077588789217 -0.12276094888287893 -0.50932066534736498 0.087985192377202009 -0.41464842816806752 -0.42407168329932038 -0.065540337762642994 -0.21766910090965516 -0.17710705546401587
decision_type=2 2 2 2 2 2 2 2 2 2 2 2 2 2 2 2 2 2
left_child=1 -1 6 4 12 -6 7 13 -4 11 16 -9 14 -3 -2 -7 -11 -8
right_child=3 2 8 -5 5 15 17 9 -10 10 -12 -13 -14 -15 -16 -17 -18 -19
leaf_value=-0.038924763801734402 -0.066691300296578798 0.064928976674387365 0.012016385219369688 0.0085147600296578748 -0.0094445860317708269 -0.038418456106144007 0.075018679777030833 0.034039157130593044 -0.031491771432237449 0.056721628009941898 0.013246814053736783 -0.0032611448696771477 -0.075096430412754822 0.042959576927254571 -0.044071395983614842 -0.059999417922671675 0.045955359130679198 0.064525433687998901
leaf_weight=21.383164033293724 18.648830756545067 34.240409016609192 14.194467857480047 20.796216145157814 23.635375797748566 17.742131859064102 12.459410041570665 13.603082627058027 23.366506144404411 18.765427336096764 20.295535609126091 21.348046243190765 23.710666224360466 14.404447346925734 16.89386248588562 18.18263353407383 14.341416075825689 12.732273623347281
leaf_count=86 77 140 57 84 95 72 51 55 94 76 82 86 98 58 69 74 58 52
internal_value=0 0.0252623 0.0321335 -0.0400227 -0.0485184 -0.033509 0.0430605 0.0381592 -0.0150498 0.0270022 0.0373077 0.0112562 -0.0636055 0.0584235 -0.0559398 -0.0493412 0.0520578 0.0697152
internal_weight=0 221.134 199.751 139.61 118.814 59.5601 162.19 136.998 37.561 88.3535 53.4024 34.9511 59.2534 48.6449 35.5427 35.9248 33.1068 25.1917
internal_count=1464 895 809 569 485 241 658 555 151 357 216 141 244 198 146 146 134 103
is_linear=0
shrinkage=0.05


Tree=6
num_leaves=20
num_cat=0
split_feature=0 2 7 9 9 7 2 7 8 8 0 8 0 2 8 0 0 9 9
split_gain=148.391 65.899 21.8437 15.4486 17.0784 13.1836 12.1622 11.6333 9.85507 6.36023 5.69982 5.27398 4.13175 3.4217 2.90648 2.78128 1.00438 0.903503 0.0537361
threshold=0.081724156717917371 -0.34977611490691546 -0.2081581812506226 0.18382693604403386 -0.41368092170421417 0.078526293984956932 -0.18055222415880515 -0.14079717057673519 -0.45788329501247088 -0.67069680902783946 0.177561499130199 -0.59989842941984339 0.023893736556934938 0.28644763499973286 -0.17710705546401587 -0.08912872454683464 -0.067362095996723811 -0.42534436975762374 -0.41213877536911198
decision_type=2 2 2 2 2 2 2 2 2 2 2 2 2 2 2 2 2 2 2
left_child=1 3 6 4 9 8 10 11 -3 17 -2 -6 13 -10 -13 -9 -5 -1 -8
right_child=2 5 -4 16 7 -7 18 15 12 -11 -12 14 -14 -15 -16 -17 -18 -19 -20
leaf_value=0.060039228175778385 -0.021864264340757639 0.0014973663416307675 -0.0036064626340316396 0.063592107711347282 0.019396683388785974 0.019510733663485776 -0.078989745987430804 0.051749975618596726 -0.063157672467904241 0.024415063738806642 -0.058707035942810952 -0.029405001241659443 -0.015449032590528614 -0.029218502405616499 0.0041500728369838844 0.025304998400954987 0.082201001524889433 0.076410970036439152 -0.082598909029086606
leaf_weight=23.475331842899319 18.614537641406059 21.308550357818604 20.303324475884438 17.496585994958881 24.584414765238762 20.697688490152359 22.459417074918747 20.587843537330627 18.777515366673473 12.343525215983389 24.07495391368866 13.167022585868837 12.253308668732641 12.285104244947432 12.656804069876669 19.228759527206421 12.382639050483702 13.146414920687677 19.069965556263924
leaf_count=97 75 86 82 72 99 83 95 84 76 50 98 53 50 50 51 78 51 54 80
internal_value=0 0.0206044 -0.0501598 0.0386827 0.03168 -0.0152184 -0.0613827 0.0187777 -0.0263413 0.0554544 -0.0426419 0.0028211 -0.040036 -0.0497349 -0.0129589 0.0389788 0.0713041 0.0659163 -0.080647
internal_weight=0 254.392 104.522 169.069 139.19 85.3222 84.2189 90.2248 64.6245 48.9653 42.6895 50.4082 43.3159 31.0626 25.8238 39.8166 29.8792 36.6217 41.5294
internal_count=1464 1034 430 689 566 345 348 365 262 201 173 203 176 126 104 162 123 151 175
is_linear=0
shrinkage=0.05


Tree=7
num_leaves=20
num_cat=0
split_feature=2 6 3 6 8 2 6 1 1 8 8 8 8 8 8 2 6 6 1
split_gain=121.653 25.6134 21.0093 14.0349 44.4479 12.8061 7.51461 5.01739 3.89688 3.8021 3.33147 6.44103 4.55825 3.11846 3.04483 1.88703 1.42606 1.40382 0.366178
threshold=-0.34977611490691546 0.38117569046619032 1.5918796184818247 0.22514758990669809 -0.61872531303195 -0.28177391521589118 -1.1763389880230644 0.089511576574278232 -0.10946413755128227 -0.67931766227688939 0.77556811990786334 -0.065540337762642994 -0.29030078779853369 -0.50553158069743209 -0.40409766607909153 0.97724714303152449 0.83649324695802896 -0.32044473459464973 0.03054416309617616
decision_type=2 2 2 2 2 2 2 2 2 2 2 2 2 2 2 2 2 2 2
left_child=2 5 3 4 6 -2 9 8 -3 -1 11 12 13 -5 -7 18 -13 -6 -16
right_child=1 7 -4 10 17 14 -8 -9 -10 -11 -12 16 -14 -15 15 -17 -18 -19 -20
leaf_value=0.058315637209505847 -0.0094077903038756669 -0.0037206576071904494 0.084044609936592046 0.023218127617045267 -0.046501427572075524 -0.043294030874388906 0.010555310251632075 0.016392770727745625 -0.036595387371962364 0.024921525198681727 0.012604893993849182 0.045607309374905501 0.0035709776745572737 0.050397885445202052 -0.067569226772232358 -0.051818848508468678 0.068918434617156465 -0.025622868763151896 -0.07791173413920767
leaf_weight=23.926149487495422 16.028232499957085 22.380906015634537 13.903588131070135 21.823635086417191 21.550526574254036 23.391483902931213 24.062354728579521 16.127045750617981 15.093515589833258 13.240505635738371 15.778129279613493 12.268704250454904 14.146239802241324 20.435291439294822 23.478005930781364 18.620434120297432 14.101504340767859 12.852645471692083 13.467232748866079
leaf_count=100 65 90 58 89 87 97 97 65 61 54 64 50 58 84 99 79 58 52 57
internal_value=0 -0.0345609 0.0246706 0.0204195 0.00677362 -0.0501555 0.032325 -0.00692626 -0.0169616 0.0464191 0.0336608 0.0376744 0.0281378 0.0363615 -0.0584272 -0.0647978 0.058073 -0.0387014 -0.0713393
internal_weight=0 148.587 208.089 194.186 95.6322 94.9854 61.229 53.6015 37.4744 37.1667 98.5535 82.7754 56.4052 42.2589 78.9572 55.5657 26.3702 34.4032 36.9452
internal_count=1464 613 851 793 390 397 251 216 151 154 403 339 231 173 332 235 108 139 156
is_linear=0
shrinkage=0.05


Tree=8
num_leaves=22
num_cat=0
split_feature=2 7 5 9 5 5 9 5 8 7 8 7 8 2 2 9 5 5 8 9 9
split_gain=110.587 30.1134 25.0653 18.6732 13.472 13.0755 12.132 8.58522 8.15099 7.87486 10.2113 7.11958 11.0303 5.49978 2.90785 2.08723 1.87347 0.554095 0.217112 0.164959 0.143916
threshold=-0.34977611490691546 -0.036813774874306787 0.0098157220871619138 0.25217062552708108 0.0077080792612578344 -0.014070153955668576 0.16661636705547553 -0.00034374016032498651 -0.40409766607909153 -0.28134968348959138 -0.49298032495602773 -0.1309407388431432 -0.6771397869750938 -0.15296317988364735 0.40779981323773867 -0.25463652349601895 -0.0097234191212723173 0.023450789840368018 -0.68133539285265099 -0.39711821973978229 -0.42359092953618066
decision_type=2 2 2 2 2 2 2 2 2 2 2 2 2 2 2 2 2 2 2 2 2
left_child=2 4 5 9 8 18 11 -3 -2 10 20 12 -7 -6 -10 -14 -13 -15 -1 -19 -4
right_child=1 7 3 -5 13 6 -8 -9 14 -11 -12 16 15 17 -16 -17 -18 19 -20 -21 -22
leaf_value=0.069129798718582144 -0.0029789303521384554 0.037477083619384968 -4.279143175534204e-05 0.056458066788578044 -0.037898800452269205 0.037309423313609757 0.061780385321978985 -0.013045095120464778 -0.056278509493163098 0.018838444462022937 -0.052980613469429672 0.024140627979075527 -0.018199719114141883 -0.063155301297690009 -0.024688099056754599 0.0075764621335342374 0.049699163721236707 -0.071660213735367323 0.060457332922351739 -0.079280486338710043 -0.0073567235050763071
leaf_weight=17.349528968334202 21.181186303496361 14.198369368910788 14.133969724178312 12.016679391264914 17.631102681159973 21.001281648874283 21.221946731209755 20.621013402938843 17.921316921710972 15.441195815801619 17.026092275977138 12.137914165854456 21.544821739196777 14.894162341952322 12.27326440811157 12.3587749004364 17.517687246203423 16.035148710012436 12.356552481651304 12.747924819588663 12.832230269908903
leaf_count=74 86 57 58 50 73 86 89 83 74 63 69 50 87 64 51 50 72 70 51 55 52
internal_value=0 -0.0330851 0.0235745 -0.000388161 -0.0456433 0.0362113 0.0279801 0.00755643 -0.0267575 -0.0118817 -0.0226644 0.0194973 0.00883477 -0.0614694 -0.0434379 -0.00880361 0.0392382 -0.0709841 0.0655224 -0.0750352 -0.00352322
internal_weight=0 147.503 206.939 71.4502 112.684 135.489 105.782 34.8194 51.3758 59.4335 43.9923 84.5605 54.9049 61.3083 30.1946 33.9036 29.6556 43.6772 29.7061 28.7831 26.9662
internal_count=1464 613 851 292 473 559 434 140 211 242 179 345 223 262 125 137 122 189 125 125 110
is_linear=0
shrinkage=0.05


Tree=9
num_leaves=23
num_cat=0
split_feature=1 7 6 6 8 2 8 7 8 6 8 7 6 6 6 7 6 8 2 1 6 8
split_gain=101.564 33.551 12.8319 24.9518 16.9835 7.42798 7.32045 4.90575 4.08062 3.99087 3.90521 2.29125 3.86577 2.13431 2.54648 2.2795 0.997971 0.899162 0.863567 0.512111 0.443881 0.359127
threshold=-0.18428232607616898 -0.2132057092647163 -1.1960752915851589 0.22514758990669809 -0.62546580222640791 -0.15296317988364735 0.33888901390483356 0.94861952380798242 -0.68095402991986831 -0.83813521022864212 -0.40409766607909153 -0.2081581812506226 0.58267198337762449 0.83955181808704793 0.99098389876986281 0.048427574780090084 -0.80093589461422343 -0.14456676280111544 0.097127017948914721 -0.030488338569802449 -1.2506136215331871 0.43919562819153346
decision_type=2 2 2 2 2 2 2 2 2 2 2 2 2 2 2 2 2 2 2 2 2 2
left_child=2 5 8 4 16 9 -3 11 20 -2 -7 12 -5 15 -15 -13 -4 -6 -12 -20 -1 -21
right_child=1 6 3 7 17 10 -8 -9 -10 -11 18 13 -14 14 -16 -17 -18 -19 19 21 -22 -23
leaf_value=0.053607379997131888 -0.04645679931422414 0.024848109587944776 0.029401280212302813 0.032874892362713334 -0.037882669346974096 -0.031792370551701206 -0.016993489871124857 0.061767319303677765 0.028948516545677844 -0.011409121505306501 -0.072644009636369564 0.058923620487684771 -0.001700228221223922 0.010822419988815515 0.039613660016665671 0.029490287700487457 0.010767691452365556 -0.021589835690125094 -0.049902848354760831 -0.057922257653493903 0.067181169640777458 -0.069182869015943407
leaf_weight=11.803738534450533 15.371360465884207 22.505310639739037 14.695171639323236 17.59596836566925 21.3985485881567 12.719034582376478 19.520636007189751 11.881123796105383 17.762336805462837 17.223905920982361 15.186663717031477 13.031803011894228 14.955835670232771 15.967348173260691 14.797022640705107 13.283000513911245 14.061322391033171 14.013762414455412 11.808490946888918 18.681591957807548 12.297942683100699 11.401959896087645
leaf_count=51 64 91 60 72 87 54 79 50 73 70 66 54 61 66 62 55 57 57 51 81 53 50
internal_value=0 -0.0322041 0.0223995 0.01615 -0.00825517 -0.0476437 0.0054131 0.0315772 0.0471324 -0.027937 -0.0568466 0.0275754 0.0169894 0.0336124 0.0246704 0.0440665 0.0202898 -0.0314351 -0.0624295 -0.0587266 0.0605334 -0.0621901
internal_weight=0 144.419 207.545 165.681 64.1688 102.393 42.0259 101.512 41.864 32.5953 69.7977 89.631 32.5518 57.0792 30.7644 26.3148 28.7565 35.4123 57.0787 41.892 24.1017 30.0836
internal_count=1464 606 858 681 261 436 170 420 177 134 302 370 133 237 128 109 117 144 248 182 104 131
is_linear=0
shrinkage=0.05


Tree=10
num_leaves=20
num_cat=0
split_feature=1 9 5 5 3 5 9 9 9 5 9 9 5 9 5 9 2 9 2
split_gain=92.4279 24.6911 21.6349 18.7704 12.9026 10.083 13.2284 5.7215 5.85003 5.39324 5.30485 3.72945 2.02398 1.84012 1.74322 1.3836 1.73599 0.772731 0.394646
threshold=-0.18428232607616898 0.39585066881124903 0.024119175514544785 -0.0017027910311510834 1.5918796184818247 -0.014070153955668576 0.16661636705547553 -0.31305233597134768 -0.41041254005605859 -0.011082469992098417 -0.29392077588789217 -0.40830897339299338 -0.0095719183684589166 -0.42275047655869452 0.0023075230139095347 -0.25361265619313561 1.0000000180025095e-35 -0.21717997780807646 0.25129087432311487
decision_type=2 2 2 2 2 2 2 2 2 2 2 2 2 2 2 2 2 2 2
left_child=2 3 4 12 5 -1 7 8 -7 -9 13 18 -2 -4 17 16 -13 -11 -5
right_child=1 -3 10 11 -6 6 -8 9 -10 14 -12 15 -14 -15 -16 -17 -18 -19 -20
leaf_value=0.054580097350346739 -0.00078973495349698823 0.017406910557160076 -0.010949155690964371 -0.070892111323776319 0.0789627884705984 0.014968571795937245 0.055364383749228079 -0.0061112825161753872 -0.023045985535172231 0.044270639391352479 0.013623190271137087 -0.049131176560894982 -0.023696747953982061 -0.03637785653348926 0.017028037760999881 -0.05324947032500859 -0.022737882348755345 0.028273903765344579 -0.060028363017826519
leaf_weight=25.431845977902412 21.20503468811512 22.34245003759861 16.513236105442051 18.91064490377903 12.424674212932585 22.62941275537014 21.760125860571861 13.163172841072081 18.308358430862427 16.993718206882477 16.472399950027466 12.777097433805467 17.685294628143311 12.499602407217024 16.574215844273567 23.079934701323509 12.158950135111807 13.583683952689173 14.983078479766844
leaf_count=109 87 92 68 83 54 93 93 54 74 70 68 54 73 51 68 97 53 56 67
internal_value=0 -0.0308794 0.0214086 -0.0398102 0.0300173 0.0259206 0.0199955 0.0123944 -0.00203245 0.0221864 -0.00903828 -0.053391 -0.0112067 -0.0219046 0.0300862 -0.0444272 -0.0362617 0.0371643 -0.0660897
internal_weight=0 143.142 206.354 120.8 160.869 148.445 123.013 101.253 40.9378 60.3148 45.4852 81.9097 38.8903 29.0128 47.1516 48.016 24.936 30.5774 33.8937
internal_count=1464 606 858 514 671 617 508 415 167 248 187 354 160 119 194 204 107 126 150
is_linear=0
shrinkage=0.05


Tree=11
num_leaves=21
num_cat=0
split_feature=1 7 4 4 4 8 1 1 8 8 8 7 8 8 8 8 8 2 7 8
split_gain=84.5459 28.7906 28.1717 31.7069 9.5044 9.57326 5.78108 5.46577 4.80468 4.20487 2.68296 3.88186 3.14037 2.5464 5.17484 1.53498 1.23425 0.779261 0.610507 0.315406
threshold=-0.17979697633239747 -0.036813774874306787 -0.090915977871238271 0.0019331857151482824 0.11367844555118013 -0.35538137312433454 -0.18937183796629725 -0.19273918767904949 -0.63636680026847958 0.046026379938729808 -0.67190335194503426 -0.1309407388431432 0.55737383607002222 -0.5255206176189281 -0.14456676280111544 -0.49298032495602773 0.25056536239124677 0.25129087432311487 0.42073213196253767 0.061319199498809381
decision_type=2 2 2 2 2 2 2 2 2 2 2 2 2 2 2 2 2 2 2 2
left_child=2 4 -1 6 5 15 7 10 -5 -3 -4 13 18 -12 -15 -2 17 -7 -13 -6
right_child=1 9 3 8 19 16 -8 -9 -10 -11 11 12 -14 14 -16 -17 -18 -19 -20 -21
leaf_value=-0.035469687008074832 -0.024356578383712926 0.032075375605672217 0.046361253952018615 0.0068888781561813849 -0.075896926981400215 -0.065906116063998862 0.0053566362775421903 0.063251978331215292 -0.030243350574964179 -0.0048009793985229147 0.035167068520101041 0.041111954369715473 0.01812429354533272 -0.014795695865834044 0.030634687412702585 -0.001624550086396763 -0.040616719462452745 -0.048530224903346533 0.054243083268643993 -0.064618565320704272
leaf_weight=21.063047662377357 15.688480317592623 12.693594157695768 34.31997075676918 14.025803059339522 14.431322619318964 12.957945853471758 14.614542424678801 19.116559475660324 22.993166074156761 19.770234435796738 14.092215046286581 20.139339461922646 12.900086998939512 12.16785492002964 12.928058236837387 14.100898697972296 19.623987197875977 12.852526068687437 15.793129310011862 10.86674329638481
leaf_count=86 65 51 148 57 65 56 60 81 94 80 58 86 54 50 53 60 86 56 68 50
internal_value=0 -0.0313198 0.019438 0.0254276 -0.0445407 -0.0356248 0.0352953 0.0383884 -0.0161746 0.00961794 0.0345033 0.0298798 0.0392861 0.0181585 0.00860758 -0.0135963 -0.0500679 -0.0572537 0.0468834 -0.0710523
internal_weight=0 132.986 214.154 193.091 100.522 75.2238 156.072 141.457 37.019 32.4638 122.341 88.0207 48.8326 39.1881 25.0959 29.7894 45.4345 25.8105 35.9325 25.2981
internal_count=1464 569 895 809 438 323 658 598 151 131 517 369 208 161 103 125 198 112 154 115
is_linear=0
shrinkage=0.05


Tree=12
num_leaves=21
num_cat=0
split_feature=0 1 4 1 9 4 9 9 9 0 0 1 9 5 9 9 0 9 9 1
split_gain=102.567 33.7285 13.455 10.5535 9.89838 9.76337 7.59348 5.09651 4.39304 4.00743 5.84656 3.87566 4.90534 5.57212 5.76898 2.74866 2.24313 2.2266 2.18351 0.6806
threshold=0.081724156717917371 -0.18937183796629725 0.0041490588724807887 -0.17376221338903958 0.39585066881124903 -0.031100996937109302 -0.29392077588789217 -0.030299597564428609 -0.30333564344685332 0.039795319412544168 -0.059357823909090911 -0.19273918767904949 0.34026558904897458 -0.012385822056743117 -0.29392077588789217 -0.40254173338674459 0.177561499130199 -0.31505417596959628 -0.12798252260999091 -0.023802567337581879
decision_type=2 2 2 2 2 2 2 2 2 2 2 2 2 2 2 2 2 2 2 2
left_child=1 2 5 6 7 -1 16 9 19 10 -3 12 13 -7 15 -15 -2 -12 -16 -5
right_child=3 4 -4 8 -6 11 -8 -9 -10 -11 17 -13 -14 14 18 -17 -18 -19 -20 -21
leaf_value=0.0047468983401460904 -0.022650932890273489 0.002211305324282562 -0.0071406616615207977 -0.074497342574845624 0.02616609080904941 0.056068650455664573 0.0068412973859875541 -0.043679627892056594 -0.038121524768758103 0.016694840462803381 -0.017116277764670854 0.065230833535698196 0.063641132441103268 0.024709163925126218 0.050125478215722608 -0.0078524531888477158 -0.049964499223042531 -0.047378013525629079 0.024747565815000257 -0.060707948091396707
leaf_weight=19.837290078401566 12.996003776788713 23.746912553906437 19.651888445019722 18.945637226104736 18.201624020934105 21.120285987854004 13.225587487220762 12.813062384724615 18.744906544685364 12.15626175701618 11.831891685724257 16.406027883291245 16.748933076858521 12.935500949621202 20.320358112454414 12.989041730761526 17.8294577896595 12.500405371189123 14.541122570633886 16.957721650600433
leaf_count=81 53 97 80 87 75 94 54 53 82 51 50 71 75 55 86 53 74 52 61 80
internal_value=0 0.0172801 0.0315119 -0.0430619 -0.00682419 0.0371428 -0.0248514 -0.0150444 -0.0577411 -0.00895326 -0.0154381 0.042728 0.0389859 0.0339442 0.0262569 0.00839473 -0.0384491 -0.0326629 0.0395401 -0.0679844
internal_weight=0 245.801 154.55 98.6993 91.2502 134.899 44.051 73.0485 54.6483 60.2355 48.0792 115.061 98.6552 81.9063 60.786 25.9245 30.8255 24.3323 34.8615 35.9034
internal_count=1464 1034 656 430 378 576 181 303 249 250 199 495 424 349 255 108 127 102 147 167
is_linear=0
shrinkage=0.05


Tree=13
num_leaves=21
num_cat=0
split_feature=0 2 6 7 0 8 2 2 0 6 6 6 8 8 0 7 8 8 2 0
split_gain=93.6832 33.8752 18.8591 10.9883 7.34969 6.7127 5.58763 4.81643 4.2673 4.12825 4.06563 5.45162 3.05404 3.20614 3.0071 1.76883 1.37154 0.585692 0.0592347 0.00632221
threshold=0.081724156717917371 -0.35239167402163057 0.39667540530553141 0.16010789380869878 -0.1096831248075044 -0.45788329501247088 -0.18055222415880515 -0.29865435432193121 0.026924307280537598 -0.81953555242143283 0.9805567239402766 -1.1994583905769123 -0.057750191699144686 -0.66978516483720896 -0.075491156290622682 -0.20382074582103407 -0.67843625266675589 -0.51585857262554347 1.1070966746164477 0.21820680059969341
decision_type=2 2 2 2 2 2 2 2 2 2 2 2 2 2 2 2 2 2 2 2
left_child=1 4 6 5 16 -3 9 -4 14 -2 11 -6 13 -13 -7 17 -1 -15 19 -8
right_child=2 3 7 -5 10 8 18 -9 -10 -11 -12 12 -14 15 -16 -17 -18 -19 -20 -21
leaf_value=0.058553682038066907 -0.027987937331015796 0.004155170660030078 0.01721420530022794 0.023388883485749436 0.047259946039423774 -0.019092424054407971 -0.071683338042910452 -0.026194296016368863 -0.0035079281341011703 -0.061624540833797696 0.044632509562634974 0.025548243397749568 0.030488197249027169 0.00014421619983867072 -0.050174192069424563 0.014783253028246887 0.039497614393700829 -0.015196170548284413 -0.066213920905547827 -0.070029101718903461
leaf_weight=20.444771438837051 22.825647696852684 22.97018526494503 12.728523790836336 21.207108110189438 15.552023425698279 12.564140990376467 10.257939636707308 12.832756444811819 11.982835426926611 15.193678781390188 20.559884011745453 19.294630944728851 22.723117217421532 12.678926438093184 20.443796977400783 14.093292355537416 17.546077221632004 12.217987135052679 10.366226837038992 13.218745931982992
leaf_count=93 96 94 52 86 68 52 49 54 51 64 90 80 96 52 87 60 75 50 50 65
internal_value=0 0.0165254 -0.0414642 -0.00803214 0.0306427 -0.017837 -0.0545844 -0.00457855 -0.0290652 -0.0414301 0.0244439 0.0201453 0.0149397 0.00887796 -0.0383432 0.000628532 0.0497526 -0.00738397 -0.0693619 -0.0707519
internal_weight=0 244.279 97.4235 89.1681 155.111 67.961 71.8622 25.5613 44.9908 38.0193 117.12 96.56 81.008 58.2848 33.0079 38.9902 37.9908 24.8969 33.8429 23.4767
internal_count=1464 1034 430 370 664 284 324 106 190 160 496 406 338 242 139 162 168 102 164 114
is_linear=0
shrinkage=0.05


Tree=14
num_leaves=24
num_cat=0
split_feature=0 1 6 0 9 8 0 9 6 6 1 9 1 9 6 9 8 0 9 0 6 0 9
split_gain=85.6519 28.1618 17.5863 8.91407 8.67227 10.6924 5.90761 5.58722 5.31263 4.82619 4.52137 4.49972 4.33922 3.38628 2.81092 2.43876 2.87454 3.22826 1.02895 0.635904 0.426429 0.388226 0.256065
threshold=0.081724156717917371 -0.18937183796629725 0.39667540530553141 -0.1029802154423597 0.18382693604403386 -0.62546580222640791 0.039795319412544168 -0.41041254005605859 0.9805567239402766 -0.96213292894337077 -0.16204614624028965 0.3586992484161981 -0.17151096536689131 -0.42477468949433866 0.3419097462065262 -0.32821296405794959 -0.065540337762642994 -0.096972554654982682 -0.33943072204716956 0.20679759316965987 -1.2485366597447152 -0.081445336418171435 -0.42275047655869452
decision_type=2 2 2 2 2 2 2 2 2 2 2 2 2 2 2 2 2 2 2 2 2 2 2
left_child=1 4 9 -3 5 7 11 13 15 12 -4 14 -2 20 18 -7 17 -17 -5 -11 -1 -6 -21
right_child=2 3 10 6 21 8 -8 -9 -10 19 -12 -13 -14 -15 -16 16 -18 -19 -20 22 -22 -23 -24
leaf_value=0.03257558011053132 -0.01874448811599598 0.027822180544577399 0.015939132630128514 -0.028975290051627245 0.050291144077621246 -0.015681704601176193 0.014010196072668067 0.019283189379925562 0.037264654180785332 -0.056257037933196641 -0.026219925880959168 0.0063467862213907131 -0.058869669444127054 0.071016673000752831 -0.015135800885298921 0.016077438540692584 0.026309052226143517 -0.019376411150703952 -0.049638064412971701 -0.064031825011148943 0.045903763260140333 0.063085101285106221 -0.074318319483389045
leaf_weight=11.111714392900465 15.318348407745363 15.865882232785223 13.20421162247658 11.755001857876772 11.757280930876734 13.043600678443907 15.54355703294277 22.008457839488983 14.466454327106474 18.60746705532074 12.268486618995665 12.277689427137373 12.028590992093084 13.529665678739546 23.007976427674294 13.276101082563395 15.288579329848291 12.434217676520349 12.360240682959562 13.912359744310381 13.048774197697641 11.962286129593847 10.705431759357451
leaf_count=52 63 65 54 50 53 53 65 91 63 85 52 51 58 60 94 56 64 51 53 68 59 54 50
internal_value=0 0.0158036 -0.0399783 -0.00622475 0.0289704 0.0238322 -0.0134325 0.0393005 0.0103532 -0.0528324 -0.00436605 -0.0206135 -0.0363936 0.0509892 -0.0276379 0.00314932 0.00914032 -0.00106902 -0.039566 -0.0632326 0.039774 0.0567434 -0.0685051
internal_weight=0 242.737 96.0449 90.8103 151.927 128.208 74.9445 59.6986 68.509 70.5722 25.4727 59.4009 27.3469 37.6902 47.1232 54.0425 40.9989 25.7103 24.1152 43.2253 24.1605 23.7196 24.6178
internal_count=1464 1034 430 378 656 549 313 262 287 324 106 248 121 171 197 224 171 107 103 203 111 107 118
is_linear=0
shrinkage=0.05


Tree=15
num_leaves=22
num_cat=0
split_feature=0 1 7 4 7 4 0 1 0 0 1 0 0 0 0 1 0 1 4 0 1
split_gain=78.3536 25.717 14.0477 12.3443 9.73064 8.6532 7.02759 6.98831 5.58857 5.1701 3.74062 3.05047 2.09888 3.33718 6.19439 0.994012 0.620604 0.398383 0.371651 0.17374 0.0133436
threshold=0.081724156717917371 -0.18937183796629725 -0.2081581812506226 0.0041490588724807887 -0.2132057092647163 -0.031100996937109302 0.039795319412544168 -0.17376221338903958 -0.049000402789013603 0.177561499130199 -0.19273918767904949 -0.075045484125387002 -0.027447696878215907 -0.067362095996723811 -0.090911413207777375 -0.14358999082872739 -0.10918397198244044 -0.0034054507065867335 0.031160960489779489 -0.13578168680370609 -0.11873930634671964
decision_type=2 2 2 2 2 2 2 2 2 2 2 2 2 2 2 2 2 2 2 2 2
left_child=1 3 7 5 6 -1 8 9 15 -2 12 -6 13 14 16 -3 19 20 -19 -7 -9
right_child=2 4 -4 -5 11 10 -8 17 -10 -11 -12 -13 -14 -15 -16 -17 -18 18 -20 -21 -22
leaf_value=0.0027658863051592507 -0.011327596729512838 -0.0031998823982971008 -0.0010202716903279689 -0.0093285647345730267 0.034283251166526432 0.041219507892748447 0.01559522916003396 -0.066031746787264187 -0.049539388340974683 -0.050546477303671622 0.061279706149100326 0.003427546578031784 0.021143566531578138 0.057683856276858597 0.0012660344438593988 -0.02236783401317077 0.049636102901388451 -0.050756355533584589 -0.063988343791169841 0.03341309396258392 -0.068612759784268063
leaf_weight=19.702921569347382 16.30748476088047 12.68911801278591 19.720406234264374 19.501833379268646 13.006621077656744 14.014400690793986 11.883490920066832 10.227836564183237 17.670346736907959 17.337120860815048 15.764300152659414 20.851191699504852 21.271807327866554 18.019213750958443 12.101342797279356 14.48396907746792 15.667152151465418 10.464737951755525 10.766366526484488 14.504018753767015 9.8113260716199857
leaf_count=81 67 52 82 80 53 66 50 50 77 74 71 85 92 81 52 61 69 52 55 64 50
internal_value=0 0.0151195 -0.0385669 0.0277857 -0.00593095 0.0333089 -0.0185914 -0.0484506 -0.0276508 -0.0315372 0.0387138 0.0152809 0.0349918 0.0389562 0.0329609 -0.0134169 0.0416414 -0.0622389 -0.0574663 0.0372493 -0.0672954
internal_weight=0 241.132 94.6353 150.547 90.5847 131.045 56.7269 74.9149 44.8434 33.6446 111.342 33.8578 95.5779 74.3061 56.2869 27.1731 44.1856 41.2703 21.2311 28.5184 20.0392
internal_count=1464 1034 430 656 378 576 240 348 190 141 495 138 424 332 251 113 199 207 107 130 100
is_linear=0
shrinkage=0.05


Tree=16
num_leaves=22
num_cat=0
split_feature=0 1 7 7 5 8 1 5 0 8 7 8 0 5 5 5 5 1 5 8 8
split_gain=71.9073 23.0137 16.0391 11.1373 7.80796 5.61162 4.96504 4.52142 4.36394 3.80022 3.38211 6.65133 3.32195 2.67252 2.32213 2.25748 2.48975 1.86273 0.848906 0.341743 0.0331727
threshold=0.05259502399811302 -0.17979697633239747 -0.29471410246306123 -0.16172081822908507 -0.014070153955668576 -0.40409766607909153 -0.16204614624028965 0.028089386419154799 0.13049851848131069 1.0000000180025095e-35 -0.11024954514215878 -0.61872531303195 -0.065418965356296224 -0.0038639047109893057 0.013101951651864365 0.0017059759071504411 -0.010815115722427708 -0.17376221338903958 0.027755193582066417 -0.68147794257758065 -0.12450024976709574
decision_type=2 2 2 2 2 2 2 2 2 2 2 2 2 2 2 2 2 2 2 2 2
left_child=1 4 7 5 19 -3 -4 8 17 -7 11 13 -13 -6 -15 16 -12 -2 -10 -1 -20
right_child=2 3 6 -5 10 9 -8 -9 18 -11 15 12 -14 14 -16 -17 -18 -19 20 -21 -22
leaf_value=0.056276675591688155 -0.021333763098591724 -0.0026457669108096988 0.022451744833819481 0.018520756031185855 0.012478033974540424 -0.058086700981599695 -0.022037339316788914 -0.021691187759282061 -0.054063658488010494 -0.019824938836097598 0.020392031134023145 -0.014510198431327552 0.014688444189561896 0.049638303741434769 0.02059264678502918 0.017368734075161329 0.049522283615195395 -0.049886360038196242 -0.067033685599612022 0.044701101914837615 -0.070953367384832919
leaf_weight=14.1848750859499 12.122856125235559 18.819516599178314 12.353965014219286 24.449654802680016 17.412303134799004 12.677746534347536 12.73696346580982 15.19610174000263 17.523495927453041 13.295380324125288 11.320176020264624 19.93461574614048 19.049899965524673 16.315424203872684 11.900269418954847 18.561672106385231 20.836526989936829 10.801785096526144 11.58098429441452 11.582341238856314 10.110054612159729
leaf_count=70 50 78 51 99 74 56 54 71 85 58 50 83 79 70 51 82 94 52 54 52 51
internal_value=0 0.0154855 -0.0348687 -0.00862124 0.0258469 -0.0234365 -0.000132347 -0.0461387 -0.0521174 -0.0385009 0.0210437 0.014924 -0.000242195 0.027882 0.037388 0.0312531 0.0392675 -0.0347874 -0.0622484 0.0510735 -0.0688606
internal_weight=0 230.34 102.426 69.2423 161.098 44.7926 25.0909 77.3353 62.1392 25.9731 135.331 84.6125 38.9845 45.628 28.2157 50.7184 32.1567 22.9246 39.2145 25.7672 21.691
internal_count=1464 996 468 291 705 192 105 363 292 114 583 357 162 195 121 226 144 102 190 122 105
is_linear=0
shrinkage=0.05


Tree=17
num_leaves=23
num_cat=0
split_feature=2 4 4 5 5 9 1 1 9 2 4 4 9 9 2 2 9 5 1 1 5 9
split_gain=50.8006 20.2953 25.9441 13.53 9.12208 7.64388 5.31095 4.85626 6.25067 4.83961 4.29965 4.21564 3.63056 2.29408 1.86357 4.99756 1.43498 0.981289 0.837708 0.673503 0.382535 0.112432
threshold=-0.28177391521589118 -0.1194640369534362 0.0019331857151482824 -0.0088099586998974001 -0.012385822056743117 0.34026558904897458 -0.18937183796629725 -0.19273092071272493 -0.29392077588789217 0.025190377450867243 0.08241152369924909 -0.22522779869605511 -0.41041254005605859 -0.12798252260999091 -0.037137397709895881 0.34877541016049601 -0.36866631639032305 -0.0019189023991349069 0.1268323980074115 0.03054416309617616 -0.0052897941492330803 -0.42453454965285531
decision_type=2 2 2 2 2 2 2 2 2 2 2 2 2 2 2 2 2 2 2 2 2 2
left_child=1 -1 4 9 21 6 7 8 16 -2 11 19 -4 20 -13 -16 -6 -7 -12 -5 -10 -3
right_child=3 2 12 10 5 17 -8 -9 13 -11 18 14 -14 -15 15 -17 -18 -19 -20 -21 -22 -23
leaf_value=-0.034813300773778519 -0.01725910135138049 0.049327845915303509 0.0015431152577123264 -0.037878233212194495 0.0086576876773856986 0.037454771573159011 -0.014181888194862054 0.050867363795334922 0.04502607563863454 0.026097939786680582 -0.061435515523321306 -0.033755407323359729 -0.029137946584572135 0.015561086526342055 0.011178713465518852 -0.032294654425335481 -0.012437765468925848 0.058178249232349738 -0.042801853258337692 -0.055317505071490469 0.032633779748933382 0.055334452495668408
leaf_weight=19.144495040178299 12.514295786619188 14.753227144479753 16.161584973335266 10.704838007688524 18.879540964961052 10.838496729731562 12.44978706538677 11.591150358319281 11.633455932140349 13.251685068011282 14.612849593162538 15.446784421801565 23.902686581015587 19.629027128219608 12.445962250232698 14.100177153944967 14.068384826183317 12.077744528651236 10.27125324308872 11.466717034578322 13.400972008705137 16.507727816700935
leaf_count=81 52 74 69 54 82 51 51 51 51 56 74 66 99 84 54 62 58 55 52 56 58 74
internal_value=0 0.0143225 0.0191245 -0.026869 0.0283509 0.0222907 0.0164099 0.0206795 0.016171 0.00503983 -0.0361018 -0.0292597 -0.0167615 0.0283584 -0.0199472 -0.0119125 -0.000349828 0.0483768 -0.0537442 -0.0468975 0.0383925 0.0524997
internal_weight=0 215.038 195.894 114.815 155.83 124.569 101.652 89.2025 77.6114 25.766 89.0486 64.1645 40.0643 44.6635 41.9929 26.5461 32.9479 22.9162 24.8841 22.1716 25.0344 31.261
internal_count=1464 938 857 526 689 541 435 384 333 108 418 292 168 193 182 116 140 106 126 110 109 148
is_linear=0
shrinkage=0.05


Tree=18
num_leaves=23
num_cat=0
split_feature=0 0 7 8 7 0 9 4 4 9 8 9 0 7 9 8 0 9 7 0 9 4
split_gain=61.7862 17.1074 11.9975 10.2893 18.4419 8.70751 7.43046 4.85986 10.1006 3.64665 3.09554 4.04128 2.41937 2.46297 1.82655 2.89902 1.79683 1.08103 0.78461 0.60666 0.0722847 0.0620427
threshold=0.081724156717917371 -0.10510161494888155 -0.29471410246306123 -0.62546580222640791 -0.16961106237505111 0.039795319412544168 0.39585066881124903 0.0041490588724807887 -0.018838925845612867 -0.41464842816806752 -0.56968244337572149 -0.26657431809878002 -0.0092642725365999785 0.16010789380869878 0.12494069016625474 -0.68095402991986831 -0.11914920159711034 -0.2427418337212964 0.6543312542653078 0.13049851848131069 -0.42359092953618066 0.25450194270950788
decision_type=2 2 2 2 2 2 2 2 2 2 2 2 2 2 2 2 2 2 2 2 2 2
left_child=1 14 10 9 5 7 12 8 -5 -3 -2 19 13 -6 15 -1 -17 -10 -15 -12 21 -21
right_child=2 3 -4 4 6 -7 -8 -9 17 -11 11 -13 -14 18 -16 16 -18 -19 -20 20 -22 -23
leaf_value=0.048304812076320119 -0.026981092132306945 0.042105461132854023 -0.0021419923439718958 -0.047850539467248071 -0.0019779282882992212 0.014529068904850935 0.048978019021383719 -0.050775419130173242 -0.0077727092000881631 0.013483869431433891 -0.048032178978255291 -0.025737678567798929 -0.01012930568738858 0.033436100125138264 0.056038330475560755 0.0087033279255666288 0.035863141076848168 0.013636287410965758 0.015571180674292043 -0.063365475704569948 -0.065749064367625787 -0.057784203886246749
leaf_weight=18.559880092740055 17.616061985492706 21.041540071368217 21.20960359275341 16.713003858923908 13.16095821559429 15.937690645456312 15.375682651996611 15.875760719180105 11.764029443264006 23.622565716505051 9.785438343882559 11.966527000069616 12.198525503277777 12.740061640739443 11.265341803431509 12.368267729878424 11.996096625924116 11.821700930595403 11.874352395534514 10.029229804873468 10.328412115573885 9.8887712210416776
leaf_count=91 77 96 90 72 56 67 71 68 50 99 48 57 51 54 50 54 52 51 52 53 52 53
internal_value=0 0.0134567 -0.035065 0.00611852 -0.000655797 -0.0180899 0.0185824 -0.0273444 -0.0181137 0.0269677 -0.0450957 -0.0512326 0.00923045 0.0154822 0.0381196 0.0334169 0.0220758 0.00295796 0.0248178 -0.0588537 -0.0623547 -0.0605945
internal_weight=0 236.315 90.824 182.126 137.462 72.1122 65.3496 56.1745 40.2987 44.6641 69.6144 51.9984 49.9739 37.7754 54.1896 42.9242 24.3644 23.5857 24.6144 40.0319 30.2464 19.918
internal_count=1464 1034 430 787 592 308 284 241 173 195 340 263 213 162 247 197 106 101 106 206 158 106
is_linear=0
shrinkage=0.05


Tree=19
num_leaves=22
num_cat=0
split_feature=0 3 6 1 7 6 7 6 1 1 0 0 6 0 0 0 0 0 6 6 7
split_gain=56.5793 20.6225 17.9582 16.7889 9.61296 5.13359 6.15601 4.46019 4.21888 3.33594 2.0766 4.90488 1.81071 2.47611 1.70317 1.50093 1.30147 1.06271 0.658959 0.301201 0.271603
threshold=0.05259502399811302 1.5918796184818247 0.39667540530553141 -0.17151096536689131 -0.16172081822908507 -1.1994583905769123 -0.1309407388431432 -0.96213292894337077 -0.18661955054809273 -0.17151096536689131 -0.1096831248075044 -0.079323936911649573 1.1038745972626651 -0.091303604713184772 -0.060962243703939378 0.020863165833332292 0.16650882943235401 -0.031815284097525612 -1.2496423060699218 -0.29047861923859036 0.21165803909734238
decision_type=2 2 2 2 2 2 2 2 2 2 2 2 2 2 2 2 2 2 2 2 2
left_child=1 3 7 5 14 18 10 9 -4 -2 -7 -12 13 -8 -5 -16 -9 -13 -1 -18 -15
right_child=2 -3 8 4 -6 6 12 16 -10 -11 11 17 -14 20 15 -17 19 -19 -20 -21 -22
leaf_value=0.030942577822390911 -0.013480832640405808 0.074526862929441079 0.022773764001861086 -0.014072793959822555 0.014552614347279816 0.023926914473575658 0.036335594202345792 -0.04490567430222854 -0.016087402139244075 -0.049491524693462872 -0.016713663529192013 0.022952083528663986 0.044869566444880056 0.016944217241373096 -0.046953890324938581 -0.021701292681353384 -0.066613228664979485 0.0051846144073404285 0.04621618237013593 -0.055411341379849301 0.0059111312033689441
leaf_weight=14.643519297242166 15.176886126399042 13.16202090680599 13.236567705869676 16.676506787538528 22.40890546143055 11.873576462268828 18.104356005787846 19.160444304347038 14.785064682364462 11.160560786724089 23.325050070881844 15.079686850309367 11.785919740796087 11.198747515678411 12.376961007714273 11.21686305105686 15.245065838098528 19.045037388801578 13.639333412051199 9.896316856145857 11.113710150122641
leaf_count=72 64 63 55 70 91 51 83 90 64 60 97 64 55 50 57 49 84 79 65 51 50
internal_value=0 0.0137933 -0.0315998 0.0100313 -0.0116968 0.0191222 0.014657 -0.0450352 0.00226943 -0.0287405 0.0048916 0.000957434 0.0276252 0.0225966 -0.0263035 -0.0349484 -0.0547224 0.013036 0.0383082 -0.0622039 0.0114487
internal_weight=0 225.65 98.6609 212.488 62.6792 149.809 121.526 70.6393 28.0216 26.3374 69.3234 57.4498 52.2027 40.4168 40.2703 23.5938 44.3018 34.1247 28.2829 25.1414 22.3125
internal_count=1464 996 468 933 267 666 529 349 119 124 291 240 238 183 176 106 225 143 137 135 100
is_linear=0
shrinkage=0.05


Tree=20
num_leaves=21
num_cat=0
split_feature=0 0 7 8 7 9 0 4 4 9 0 9 7 7 9 8 0 8 8 9
split_gain=52.038 14.7994 10.6805 8.99811 15.3587 9.21389 7.71178 4.17784 6.96265 3.16205 2.90098 2.44985 5.46717 2.74086 1.75913 2.73261 1.71335 1.28844 0.896354 0.147409
threshold=0.081724156717917371 -0.10510161494888155 -0.2081581812506226 -0.62546580222640791 -0.23856497790375294 0.39585066881124903 0.039795319412544168 0.0041490588724807887 -0.018838925845612867 -0.41464842816806752 0.17310477747784211 -0.19291885201877884 0.27616217696967588 0.34735001178697639 0.12494069016625474 -0.68095402991986831 -0.11914920159711034 -0.36580449372558527 -0.29030078779853369 -0.40077239324565278
decision_type=2 2 2 2 2 2 2 2 2 2 2 2 2 2 2 2 2 2 2 2
left_child=1 14 10 9 6 11 7 8 -5 -3 18 13 -13 -6 15 -1 -17 -12 -2 -19
right_child=2 3 -4 4 5 -7 -8 -9 -10 -11 17 12 -14 -15 -16 16 -18 19 -20 -21
leaf_value=0.04573590896860652 -0.020578710254340146 0.039507018771836107 -1.4954131044306488e-08 -0.044258279451313165 0.032016991708668951 0.048195421926862443 0.012899001148701043 -0.049444912068358722 7.1900859679572984e-05 0.012655238427009352 -0.040375064663065119 -0.030482931543080523 0.017472239158795991 0.00089957404502997811 0.053396923294079406 0.0068153166194627902 0.033511957129441071 -0.061913582097066239 -0.03821345327457925 -0.05372972231742891
leaf_weight=17.882898062467572 13.586089059710504 20.535175666213036 19.430927976965904 14.993805021047587 13.214476689696314 16.622148364782333 15.666402757167814 14.936035618185995 21.643439516425136 23.522767320275307 17.114091873168945 11.83128732442856 11.942647725343702 15.235109478235243 11.003191530704497 12.236862853169439 11.81056964397431 13.355250641703607 15.343867197632788 9.3576998412609083
leaf_count=91 61 96 82 66 57 78 66 65 93 99 84 50 52 65 50 54 52 77 76 50
internal_value=0 0.0123609 -0.032732 0.00553122 -0.000827106 0.0157732 -0.0178239 -0.0271566 -0.0180702 0.0251707 -0.0419822 0.00545358 -0.00639303 0.0153532 0.0356035 0.0309343 0.019927 -0.0507354 -0.0299318 -0.0585418
internal_weight=0 233.077 88.1879 180.143 136.085 68.8457 67.2397 51.5733 36.6372 44.0579 68.757 52.2235 23.7739 28.4496 52.9335 41.9303 24.0474 39.827 28.93 22.713
internal_count=1464 1034 430 787 592 302 290 224 159 195 348 224 102 122 247 197 106 211 137 127
is_linear=0
shrinkage=0.05


Tree=21
num_leaves=23
num_cat=0
split_feature=0 6 0 8 7 0 6 6 8 8 5 5 6 5 0 5 0 0 0 5 7 6
split_gain=47.6093 16.2597 12.7153 7.33467 11.2407 10.8802 4.37047 3.98794 3.83657 3.33929 3.02316 2.36116 4.92348 2.13173 2.59764 2.49135 2.12021 1.26682 1.22126 1.1966 0.805638 0.345789
threshold=0.05259502399811302 0.39667540530553141 -0.10510161494888155 -0.66681521697447921 -0.16961106237505111 0.039795319412544168 -0.96213292894337077 0.58267198337762449 -0.48438039046654685 -0.17710705546401587 -0.0012572005816999037 -0.014070153955668576 0.29283871953881052 0.0017059759071504411 -0.018908618192300195 -0.01086858657636185 0.17310477747784211 0.16650882943235401 0.15509962200232047 -0.011242882553900841 0.36639486285525741 -0.27807884736711747
decision_type=2 2 2 2 2 2 2 2 2 2 2 2 2 2 2 2 2 2 2 2 2 2
left_child=2 6 11 10 5 7 16 8 -5 -10 -4 -1 -13 15 -15 -6 -2 -8 -3 -14 -17 -19
right_child=1 18 3 4 13 -7 17 -9 9 -11 -12 12 19 14 -16 20 -18 21 -20 -21 -22 -23
leaf_value=0.0500522108326132 -0.010471752833191659 0.01176717273815568 0.042195658124814302 0.0044702418567519279 0.0070025420980153151 0.029013979960769376 -0.042717723507804624 -0.044319849163261621 -0.041553538019005853 -0.0088430101445853941 0.011508974480804658 0.00017809098054872988 0.027796370782131652 -0.011084825513968272 0.021233462698537112 0.025674649853166268 -0.039326607561647138 -0.064795936764145107 -0.0094147245100406063 0.049972562238544647 0.044190021458823239 -0.052339037054938732
leaf_weight=16.270504236221313 11.590052306652071 15.997148066759111 16.821445554494858 18.131080120801922 12.890250146389006 13.496309489011763 18.730795428156853 13.697098970413206 14.911055773496626 16.365530908107765 15.350005477666853 11.54021182656288 11.247570365667341 11.967382848262789 12.941077247261999 12.559174165129663 14.124551519751547 14.809531688690187 11.842317596077917 13.247610256075861 11.039136961102484 8.9303572773933393
leaf_count=85 52 68 77 77 56 57 90 58 66 74 68 51 50 53 57 56 72 87 51 61 50 48
internal_value=0 -0.0294427 0.0126821 0.00605496 0.00104288 -0.0117329 -0.0425895 -0.0204474 -0.0138294 -0.0244377 0.0275541 0.0342426 0.0271043 0.0169823 0.00570599 0.02468 -0.0263212 -0.0524395 0.00275684 0.0397898 0.034336 -0.06011
internal_weight=0 96.0248 222.475 170.17 137.998 76.6011 68.1853 63.1048 49.4077 31.2766 32.1715 52.3059 36.0354 61.397 24.9085 36.4886 25.7146 42.4707 27.8395 24.4952 23.5983 23.7399
internal_count=1464 468 996 749 604 332 349 275 217 140 145 247 162 272 110 162 124 225 119 111 106 135
is_linear=0
shrinkage=0.05


Tree=22
num_leaves=21
num_cat=0
split_feature=0 3 6 9 6 4 0 4 9 6 6 9 9 0 0 0 6 6 0 4
split_gain=43.6961 20.6448 12.1962 11.8255 10.8334 6.89014 6.96856 5.63142 5.81829 4.78049 4.72009 3.42135 2.87542 1.96978 1.89121 4.05217 1.02815 1.00894 0.641879 0.284848
threshold=0.081724156717917371 1.5918796184818247 0.39667540530553141 0.34026558904897458 -1.1994583905769123 -0.012082551862826028 -0.098220436717642592 -0.044205915487223017 -0.29471487841153998 -0.96213292894337077 0.56097238260254689 -0.42477468949433866 -0.26471789307667642 0.17310477747784211 -0.067362095996723811 -0.031815284097525612 0.71230707754371181 0.79656804816053139 0.20679759316965987 0.25450194270950788
decision_type=2 2 2 2 2 2 2 2 2 2 2 2 2 2 2 2 2 2 2 2
left_child=1 3 9 4 11 6 12 8 -8 13 -7 -1 -6 -2 -9 -16 -5 -4 -11 -20
right_child=2 -3 17 16 5 10 7 14 -10 18 -12 -13 -14 -15 15 -17 -18 -19 19 -21
leaf_value=0.015742906304573426 -0.0095676972648962421 0.072470254851534674 -0.0109410850181516 0.024130295375266536 0.0027445871361896578 -0.037344595040016935 -0.0014050368676098847 -0.008697290010940566 -0.046716291298190854 -0.046694394588549376 -0.0003981546940469272 0.050524664675430535 0.032490899527177396 -0.038009841956171402 0.034832680240902684 -0.0010058230297186751 0.041055251946214143 0.0092654080172392596 -0.065305175421288872 -0.053259064978290555
leaf_weight=16.740098521113399 10.837191969156267 13.024882435798643 12.38215020298958 15.969362914562224 12.806553706526755 21.00549840927124 14.851736053824427 17.713473871350288 13.547094300389288 16.308781459927559 14.690212264657019 12.239753752946852 22.219506204128265 13.889240100979803 12.043792262673376 22.854093432426453 20.481475055217743 12.328594848513601 11.28046862781048 8.6864772439002973
leaf_count=87 49 65 54 72 56 90 64 76 58 85 61 58 99 72 53 98 97 52 66 52
internal_value=0 0.0113282 -0.0304936 0.00766102 0.00242082 -0.00292935 0.00298023 -0.00507672 -0.0230199 -0.0424977 -0.0221397 0.0304331 0.0216148 -0.0255441 0.00460872 0.0113626 0.0336403 -0.000859735 -0.0540536 -0.0600646
internal_weight=0 230.188 85.7129 217.163 180.712 151.732 116.036 81.0102 28.3988 61.0022 35.6957 28.9799 35.0261 24.7264 52.6114 34.8979 36.4508 24.7107 36.2757 19.9669
internal_count=1464 1034 430 969 800 655 504 349 122 324 151 145 155 121 227 151 169 106 203 118
is_linear=0
shrinkage=0.05


Tree=23
num_leaves=22
num_cat=0
split_feature=2 7 9 5 5 5 7 7 2 5 8 5 5 9 8 9 9 8 9 8 9
split_gain=34.6731 15.7696 12.9629 15.8838 7.94139 6.95761 4.31025 4.25999 2.83959 2.67324 2.56451 2.24681 1.99965 1.70146 1.63057 1.5012 4.92187 1.78676 0.890864 0.482217 0.26502
threshold=-0.28177391521589118 0.078526293984956932 0.34026558904897458 -0.014070153955668576 -0.0088099586998974001 0.020398495261627434 0.42073213196253767 0.48541864766833137 -0.15296317988364735 0.028211923792753873 -0.66681521697447921 -0.0053789122391233153 0.023450789840368018 -0.41041254005605859 -0.070188951000200214 -0.27187705070474105 -0.21717997780807646 -0.46322920023566166 -0.36449441086781792 -0.68095402991986831 -0.39711821973978229
decision_type=2 2 2 2 2 2 2 2 2 2 2 2 2 2 2 2 2 2 2 2 2
left_child=2 4 3 19 -2 6 10 -3 -6 14 13 -4 18 -5 -7 17 -17 -12 -10 -1 -14
right_child=1 7 11 5 8 9 -8 -9 12 -11 15 -13 20 -15 -16 16 -18 -19 -20 -21 -22
leaf_value=0.050601084370641439 -0.0057191132912534741 0.030674654435398598 0.026641255679232281 0.030363858314412226 -0.020454459060221697 -0.03497149932476145 0.03170037770482282 -0.0096653601890771441 -0.026739683888943846 0.0014449282276955177 0.002398149310599524 0.055412177632429796 -0.054371435496259196 0.0054532044090360166 -0.010788617869394654 0.031978765770854352 -0.0085144163027237995 -0.020941734063104157 -0.045271979386472115 0.036519356994234115 -0.065724126978085981
leaf_weight=13.629520133137705 19.227798193693161 13.270948976278307 11.501965194940569 12.178096130490305 11.861031115055082 16.624405547976494 16.020599186420441 12.911964550614355 9.5281857401132566 14.623260557651518 16.319798186421394 16.549247026443481 11.211296156048776 15.681376725435255 12.003460064530374 11.60462738573551 21.237870216369629 16.480648934841156 20.30199666321278 10.975027188658713 9.4939247369766218
leaf_count=78 83 55 56 58 58 76 74 53 53 64 69 80 71 67 52 51 92 70 98 51 55
internal_value=0 -0.0229831 0.0120313 0.0070366 -0.0338138 0.00103206 0.00773741 0.0107812 -0.0424713 -0.0159476 0.00363162 0.0436151 -0.0476388 0.0163423 -0.0248318 -0.00176291 0.00579352 -0.00932902 -0.0393525 0.0443198 -0.059577
internal_weight=0 107.807 205.43 177.379 81.6242 152.774 109.523 26.1829 62.3964 43.2511 93.5024 28.0512 50.5354 27.8595 28.6279 65.6429 32.8425 32.8004 29.8302 24.6045 20.7052
internal_count=1464 526 938 802 418 673 481 108 335 192 407 136 277 125 128 282 143 139 151 129 126
is_linear=0
shrinkage=0.05


Tree=24
num_leaves=21
num_cat=0
split_feature=0 2 7 2 7 0 8 0 0 0 7 8 0 0 8 0 8 8 1 0
split_gain=37.9471 16.0312 8.57378 8.74264 5.83788 4.64568 5.95831 4.5094 3.06564 5.10517 2.3867 2.21155 2.7794 2.17997 2.03519 1.78866 1.13642 0.241406 0.0957278 0.0139791
threshold=0.081724156717917371 -0.35239167402163057 -0.29471410246306123 -0.18055222415880515 0.16010789380869878 0.039795319412544168 -0.48740198907095905 -0.1096831248075044 -0.067362095996723811 -0.031013074200101392 -0.16172081822908507 0.094255742278385832 -0.071658375669595806 0.177561499130199 -0.40409766607909153 -0.097382573046999515 -0.61872531303195 -0.5255206176189281 0.28514370086067126 0.18841807307534023
decision_type=2 2 2 2 2 2 2 2 2 2 2 2 2 2 2 2 2 2 2 2
left_child=1 7 3 13 5 6 -3 16 10 17 15 12 -8 -2 -11 -9 -1 -10 19 -5
right_child=2 4 -4 18 -6 -7 11 8 9 14 -12 -13 -14 -15 -16 -17 -18 -19 -20 -21
leaf_value=0.044333989355804397 -0.0091856553020113422 0.004523511459557014 -0.0010762023082708364 -0.063721056460794234 0.016601728027579983 0.013201963367859072 -0.024218522302061927 -0.017287134015133068 0.04627968415910666 -0.0011426698326776384 0.01928426641634547 -0.014921167382999964 -0.058738960733189009 -0.033661610142227065 0.022083613727067266 0.0087312361802838329 0.02497432018729269 0.036142036135998486 -0.055534416853342594 -0.060957858535810872
leaf_weight=20.629746571183205 16.903653919696808 16.377816706895828 20.835984408855438 8.42199750244618 20.749173611402512 12.747573003172873 12.017575070261953 12.47974841296673 12.717976778745653 16.582132935523987 20.240972459316254 12.520418778061865 11.326604858040811 19.698882326483727 21.871888652443886 14.033358380198477 11.983496204018591 10.90984834730625 7.5458462685346595 10.026120364665983
leaf_count=111 73 68 90 51 86 54 52 53 63 73 97 56 54 98 98 60 57 52 49 69
internal_value=0 0.0105711 -0.0288578 -0.0381052 -0.00648863 -0.0138606 -0.0204641 0.0209118 0.0160248 0.0233071 0.00635499 -0.0318749 -0.0409679 -0.0223582 0.012068 -0.00351564 0.0372204 0.0415988 -0.0602787 -0.0622193
internal_weight=0 227.188 83.4325 62.5965 85.7392 64.99 52.2424 141.449 108.836 62.0818 46.7541 35.8646 23.3442 36.6025 38.454 26.5131 32.6132 23.6278 25.994 18.4481
internal_count=1464 1034 430 340 370 284 230 664 496 286 210 162 106 171 171 113 168 115 169 120
is_linear=0
shrinkage=0.05


Tree=25
num_leaves=23
num_cat=0
split_feature=0 3 2 7 2 7 8 0 0 0 7 2 8 8 0 0 8 8 0 2 8 8
split_gain=34.8068 17.4871 12.6268 9.93676 5.75873 5.7395 5.89707 3.13837 3.58753 5.05122 3.50244 2.46482 2.44836 2.3408 1.5907 1.45443 1.33805 1.27478 0.470658 0.11423 0.0845357 0.00033897
threshold=0.05259502399811302 1.5918796184818247 -0.34977611490691546 -0.29471410246306123 -0.098982213119872695 -0.16172081822908507 -0.40409766607909153 -0.1096831248075044 -0.065418965356296224 -0.031013074200101392 -0.07537592581035453 -0.11058003307526527 -0.34980303723926592 -0.014767138044064831 -0.062744932364882114 0.177561499130199 -0.6561001634619098 -0.55585383239167452 0.13873454009486616 -0.36679938849769894 -0.5515528517492484 0.26690886383958562
decision_type=2 2 2 2 2 2 2 2 2 2 2 2 2 2 2 2 2 2 2 2 2 2
left_child=1 2 7 4 15 6 -4 16 10 20 17 -5 -11 -8 -7 -2 -1 -9 -6 -17 -10 -20
right_child=3 -3 5 11 18 14 13 8 9 12 -12 -13 -14 -15 -16 19 -18 -19 21 -21 -22 -23
leaf_value=0.040559832310246763 -0.016175476674227047 0.069737706688575138 -0.00049891916224535573 0.016698819015101295 -0.045780242924040454 0.023004025423296676 -0.052029238724818953 0.00086201335877857154 0.036787161075976377 -0.0052428550919108429 0.018828155406191299 -0.015078703330980596 0.021731445073091347 -0.021641314372330342 -0.0022902233941565482 -0.03796171155922947 0.019261148126506519 -0.020373438438632777 -0.060608795041649066 -0.030564550420606396 0.043086802262259083 -0.061074245257394438
leaf_weight=16.240922912955288 22.181858256459236 11.92445185780525 21.611643567681313 12.613610669970514 7.7632666677236584 12.083670884370806 12.032755807042124 15.722220450639727 9.9603558033704775 15.808078825473784 19.444483146071434 11.820878654718397 17.980873197317123 13.388603329658507 12.799385040998457 11.272365942597391 13.506710425019262 12.838204488158224 8.5130349248647672 9.7187979966402036 11.443879887461661 7.2367897257208815
leaf_count=88 98 63 91 53 46 50 58 67 50 69 94 52 81 61 52 54 64 54 60 55 54 50
internal_value=0 0.0108771 0.00745098 -0.0259517 -0.0359463 -0.00942661 -0.0197007 0.0165808 0.0124563 0.0211505 0.00246013 0.00132554 0.00911158 -0.0360249 0.00999313 -0.025103 0.0308893 -0.00868354 -0.0558561 -0.0345369 0.0401553 -0.0608227
internal_weight=0 216.786 204.862 91.1206 66.6861 71.9161 47.033 132.946 103.198 55.1932 48.0049 24.4345 33.789 25.4214 24.8831 43.173 29.7476 28.5604 23.5131 20.9912 21.4042 15.7498
internal_count=1464 996 933 468 363 312 210 621 469 254 215 105 150 119 102 207 152 121 156 109 104 110
is_linear=0
shrinkage=0.05


Tree=26
num_leaves=25
num_cat=0
split_feature=3 1 6 4 4 6 6 8 4 4 8 6 4 8 6 8 1 6 6 6 1 6 6 8
split_gain=31.8479 25.4178 16.6585 13.3816 9.75602 4.52951 5.35174 4.0501 5.24885 5.91696 3.771 3.35986 3.25435 4.21288 2.91864 1.7936 1.43946 1.06147 4.78113 0.932905 0.898105 0.412049 0.149258 0.14486
threshold=1.5918796184818247 -0.18428232607616898 0.38117569046619032 -0.090915977871238271 -0.012082551862826028 0.46797409356650027 -0.89186755500502446 -0.2812359919852972 -0.027648041219548222 0.029121813412479634 0.65589117122990681 0.93048625602674828 0.096413666963374736 -0.14747214607458867 0.58267198337762449 -0.5255206176189281 -0.018031918659096962 -0.25854386753444275 -0.91041890536765113 0.79656804816053139 0.070256281084674591 -1.2242847725927597 -1.2555321977088711 -0.25357674322183182
decision_type=2 2 2 2 2 2 2 2 2 2 2 2 2 2 2 2 2 2 2 2 2 2 2 2
left_child=1 3 12 -1 10 6 -6 -4 -9 -10 11 14 13 15 17 -3 -15 18 21 -16 -14 22 -5 -13
right_child=-2 2 7 4 5 -7 -8 8 9 -11 -12 23 20 16 19 -17 -18 -19 -20 -21 -22 -23 -24 -25
leaf_value=-0.033046563729395496 0.075523349307878643 -0.032704912314340237 0.026301615409547202 0.029882719586254537 0.00081302478817281236 0.015116331631087929 -0.047524935878611257 -0.034302421815991385 0.027186746982882894 -0.020618386716348934 -0.0063704979961092508 0.045782119006003374 -0.064703588487424094 -0.034155732376364684 -0.0053040314161408369 -0.0075048729647035368 -0.059822430952209342 0.033531864702703702 -0.0074532456372828531 0.014242967884613978 -0.041951589887841173 0.037127735415838796 0.020897376358251757 0.037294521348369046
leaf_weight=17.231364011764526 13.340723171830176 12.29897600412369 11.776249647140501 9.2518948018550855 11.657615676522253 11.878671392798422 11.253857091069223 12.198762014508246 14.220446810126306 11.880386441946028 12.098658785223959 9.9807886183261889 10.736205711960794 10.642429016530516 12.60072134435177 16.579160287976265 11.223443269729612 21.489603459835052 11.620479404926302 11.839161321520804 7.2774424701929084 12.569136902689936 9.2351424694061262 10.128826752305029
leaf_count=77 71 53 50 51 51 51 50 54 60 52 54 50 67 58 58 85 64 95 49 55 49 60 50 50
internal_value=0 -0.00347768 -0.0212786 0.00876133 0.0133911 -0.00993957 -0.02293 0.000657814 -0.00722707 0.00542716 0.0201094 0.0230563 -0.0372547 -0.0307736 0.0188688 -0.0182374 -0.0473301 0.0244693 0.0199059 0.00416492 -0.0555119 0.030143 0.0253941 0.0415071
internal_weight=0 291.669 118.834 172.836 155.605 34.7901 22.9115 50.0758 38.2996 26.1008 120.814 108.716 68.7577 50.744 88.6061 28.8781 21.8659 64.1663 42.6767 24.4399 18.0136 31.0562 18.487 20.1096
internal_count=1464 1393 592 801 724 152 101 216 166 112 572 518 376 260 418 138 122 305 210 113 116 161 101 100
is_linear=0
shrinkage=0.05


Tree=27
num_leaves=22
num_cat=0
split_feature=0 3 6 5 6 5 0 4 4 6 4 6 0 0 6 5 0 4 6 0 6
split_gain=29.708 16.5184 9.85765 8.88138 6.38469 5.00485 4.8063 4.20834 5.95165 3.59038 3.46831 3.00882 2.77338 2.15056 2.62638 2.09441 3.34064 0.743736 0.707335 0.433764 0.171079
threshold=0.081724156717917371 1.5918796184818247 0.39667540530553141 -0.014384295222531658 0.38117569046619032 0.028089386419154799 -0.10510161494888155 0.017158817225653843 -0.031100996937109302 0.68290347267203 1.0000000180025095e-35 -0.96213292894337077 0.13049851848131069 -0.08912872454683464 0.93048625602674828 -0.0038639047109893057 -0.01990692384242812 -0.017832946620811606 0.79656804816053139 -0.098220436717642592 -0.81953555242143283
decision_type=2 2 2 2 2 2 2 2 2 2 2 2 2 2 2 2 2 2 2 2 2
left_child=1 3 5 19 10 12 -6 8 -8 -10 11 -5 -2 -11 -15 -13 -17 -14 -4 -1 -19
right_child=2 -3 18 4 6 -7 7 -9 9 13 -12 15 17 14 -16 16 -18 20 -20 -21 -22
leaf_value=0.041878944613252783 -0.027385411299200524 0.067291994646058159 -0.0081405283606823947 0.01392573122273251 0.032563073938765418 -0.0076808832786040213 -0.016302098830362131 -0.019475698105402617 0.042795766191226318 0.028506560945450721 -0.025504226738412846 -0.021865693142574798 -0.063586101260480615 -0.011379159094690465 0.020114323803902077 0.019859281418127664 -0.015887832721082691 -0.042904393342328373 0.0089499109691753911 0.028043278231772537 -0.052686457791520015
leaf_weight=12.4762169867754 14.604751214385031 11.663967505097387 12.055062755942346 20.705984488129616 20.71971632540226 11.066404461860655 15.584514796733847 13.88887509703636 12.093081325292593 12.766925260424605 20.281271919608116 18.763555392622948 12.016233615577219 13.979238435626039 12.574911609292029 11.746476501226427 14.732878416776655 9.4896760880947095 12.162334620952604 10.376371711492537 8.4493794366717392
leaf_count=71 75 65 54 96 98 63 66 59 55 61 89 82 77 63 61 51 66 55 52 51 54
internal_value=0 0.00937182 -0.0261839 0.00616532 0.00258464 -0.0377759 0.0110768 0.00557294 0.0107655 0.0189702 -0.00742185 -0.00186097 -0.0452499 0.0116427 0.00353481 -0.00908596 -3.00961e-05 -0.0539598 0.000442543 0.0355968 -0.0475118
internal_weight=0 222.354 79.8438 210.69 187.837 55.6264 101.607 80.8875 66.9987 51.4142 86.2302 65.9489 44.56 39.3211 26.5542 45.2429 26.4794 29.9553 24.2174 22.8526 17.9391
internal_count=1464 1034 430 969 847 324 463 365 306 240 384 295 261 185 124 199 117 186 106 122 109
is_linear=0
shrinkage=0.05


Tree=28
num_leaves=22
num_cat=0
split_feature=3 4 4 6 5 8 6 5 8 5 4 6 8 8 6 5 5 8 8 8 6
split_gain=28.0761 20.9313 20.6652 9.92097 8.24664 5.66062 3.90255 3.2772 3.15555 3.11391 3.73817 4.80091 4.94922 4.29893 3.12664 1.83469 1.58148 1.46184 1.04742 0.32456 0.0204373
threshold=1.5918796184818247 -0.10449669740605527 -0.0038715862982319593 0.4572057441804423 -0.012343490964045254 -0.64870886841419384 0.91747440041626971 0.008033360289357196 -0.065540337762642994 -0.011127029037043533 -0.029619216727604744 -0.2533692660357279 -0.39373243233418148 -0.59572388640886542 0.69430449458497179 -0.0057799436436293773 0.0066297503735859784 -0.33027886164152565 -0.62360635693138511 -0.14747214607458867 -0.19432656912481036
decision_type=2 2 2 2 2 2 2 2 2 2 2 2 2 2 2 2 2 2 2 2 2
left_child=1 7 4 5 18 -4 9 -1 -5 -6 -11 13 -13 -12 -14 -8 -7 -9 -3 -18 -19
right_child=-2 2 3 8 6 16 15 17 -10 10 11 12 14 -15 -16 -17 19 20 -20 -21 -22
leaf_value=-0.017057293821260686 0.072993292674867691 0.045005376713187127 -0.005155606964732092 -0.01282631153015684 -0.022641180431630117 -0.030187319435960758 0.038274899564392326 -0.031009159512199319 0.020022840181085438 -0.016246899526677332 0.009959858463731661 0.045893430998628554 0.024774070434401788 -0.02666814545424296 -0.005472335752133759 0.01322936338856384 -0.046397228691008041 -0.057213951405556754 0.025877509888840806 -0.058754830013969854 -0.053746708975948666
leaf_weight=14.510981947183607 12.611921854317186 15.949125424027445 13.209347516298292 14.373585790395738 10.971977844834326 13.516357243061064 11.76411257684231 9.6472294330596942 14.878450095653532 16.48553965985775 20.081445440649986 13.354288801550863 17.491759687662125 13.327152431011198 16.70310752093792 19.321537792682648 11.657544977962969 7.920732073485854 12.982828736305235 9.7632654085755366 9.1709756776690465
leaf_count=68 71 93 58 62 49 64 59 50 64 71 93 61 80 62 75 91 68 53 58 66 48
internal_value=0 -0.00322925 0.00230117 -0.0190842 0.0121282 -0.0330375 0.0070898 -0.0361881 0.00388174 0.00261173 0.00545517 0.0098744 0.0200805 -0.00465156 0.00999966 0.0227076 -0.0435794 -0.0465702 0.036422 -0.0520296 -0.0553535
internal_weight=0 287.081 245.831 77.3986 168.433 48.1465 139.501 41.2499 29.252 108.415 97.4433 80.9578 47.5492 33.4086 34.1949 31.0857 34.9372 26.7389 28.932 21.4208 17.0917
internal_count=1464 1393 1174 382 792 256 641 219 126 491 442 371 216 155 155 150 198 151 151 134 101
is_linear=0
shrinkage=0.05


Tree=29
num_leaves=24
num_cat=0
split_feature=0 2 9 6 6 2 0 9 8 6 9 2 8 0 9 0 0 8 0 8 9 2 0
split_gain=25.0871 10.9521 10.8325 8.7809 6.76547 6.65487 4.45825 3.83134 3.98003 3.30882 2.63916 2.30113 2.01564 1.99114 2.10526 5.56723 2.05647 1.59209 1.17992 1.08726 0.431688 0.100959 0.00816983
threshold=0.081724156717917371 -0.35239167402163057 0.18382693604403386 0.39667540530553141 -1.1994583905769123 -0.18055222415880515 -0.10510161494888155 -0.27675059488330389 -0.3892218248021142 -0.81953555242143283 -0.42477468949433866 -0.29865435432193121 0.013486087275829362 -0.1096831248075044 -0.25557137312949291 -0.076649903920235463 -0.092961505167861516 -0.62360635693138511 -0.067362095996723811 -0.42511057168769256 -0.14996407035506623 1.1070966746164477 0.21776112843445769
decision_type=2 2 2 2 2 2 2 2 2 2 2 2 2 2 2 2 2 2 2 2 2 2 2
left_child=1 2 4 5 10 9 -3 19 -9 -2 -1 -5 -10 -6 15 -15 -16 -17 -4 -8 -18 22 -7
right_child=3 6 18 11 13 21 7 8 12 -11 -12 -13 -14 14 16 17 20 -19 -20 -21 -22 -23 -24
leaf_value=0.020988577602648467 -0.0087803462938680649 0.023517680975615629 0.039363498695935438 0.01565851418118101 0.021128769004315495 -0.060895701874343837 -0.0076491582172178571 0.0057648285598755943 -0.041835704423293818 -0.041878773306941924 0.054446165106388701 -0.01523919046810842 -0.016709889575822073 -0.031176041328573101 0.028756151495829926 0.021983171469353805 0.0090301253480396769 -0.0032085137562598526 0.062550046766992107 0.011997545796365444 -0.0048743487437292116 -0.052158681660566232 -0.058538392243576522
leaf_weight=14.842389166355135 19.917127683758736 11.390588983893393 13.126696065068247 12.362149626016619 15.149946339428423 6.6837183684110668 11.959827557206156 11.458683907985685 15.120470225811003 12.161495983600615 9.7763952165842039 11.757051110267637 16.907232329249382 14.544949814677237 10.572279900312422 10.948891267180441 11.022760435938833 14.682031437754633 9.4273351132869703 17.125623822212219 11.309500634670259 6.5783935934305182 8.1664440557360631
leaf_count=91 96 49 69 52 74 47 51 49 70 64 53 54 73 63 50 50 50 63 51 78 50 50 67
internal_value=0 0.00862344 0.017421 -0.02445 0.0110986 -0.0357404 -0.00556407 -0.0101286 -0.0195242 -0.0213285 0.034275 0.00059724 -0.0285719 0.00463172 0.00121179 -0.00646831 0.0105891 0.00755275 0.0490552 0.0039189 0.00198862 -0.0573151 -0.0595994
internal_weight=0 219.366 135.403 77.6264 112.849 53.5072 83.9624 72.5718 43.4864 32.0786 24.6188 24.1192 32.0277 88.2304 73.0804 40.1759 32.9045 25.6309 22.554 29.0855 22.3323 21.4286 14.8502
internal_count=1464 1034 664 430 544 324 370 321 192 160 144 106 143 400 326 176 150 113 120 129 100 164 114
is_linear=0
shrinkage=0.05


Tree=30
num_leaves=22
num_cat=0
split_feature=0 9 8 6 0 0 8 8 5 6 5 5 6 6 9 5 5 9 6 9 6
split_gain=23.5321 10.9464 13.8103 5.5334 4.49625 6.47946 4.45361 6.36721 3.69472 3.06683 3.04342 2.77733 3.70893 2.34534 2.10677 2.0265 1.81843 2.53881 1.20844 0.982468 0.0701943
threshold=0.17310477747784211 0.39585066881124903 -0.67190335194503426 0.77213372936491664 0.05259502399811302 0.039795319412544168 -0.60268759736237765 0.26690886383958562 0.027797524674764276 -0.083815754714042609 -0.014070153955668576 0.0010710095166825099 0.96294534551756727 -0.96213292894337077 -0.35340115362557206 -0.00074477156483104758 0.00075464029757217165 -0.24984692797578487 0.025715563483967845 1.2104367197928376 -1.0055321304935256
decision_type=2 2 2 2 2 2 2 2 2 2 2 2 2 2 2 2 2 2 2 2 2
left_child=1 2 10 4 5 6 -4 16 9 20 -1 12 -5 -6 -12 19 17 -8 -15 -3 -2
right_child=8 15 3 11 13 -7 7 -9 -10 -11 14 -13 -14 18 -16 -17 -18 -19 -20 -21 -22
leaf_value=0.044771497555701811 -0.053845001648904517 0.031489039959934108 0.013097109165772516 0.0034669067982260274 -0.0079337816430523084 0.027056197113921512 -0.048148094664484352 0.014261745872323343 -0.01033395480781359 -0.023697014846425675 0.0063108386457636284 -0.0060968564773097363 0.037750370660541155 -0.050503427816282059 0.031659805894440896 0.043931976736830261 -0.011869061389172177 -0.019388730743046576 -0.026217221776666251 0.0095202722001015427 -0.060050724995637766
leaf_weight=13.938715152442454 8.1441955417394656 9.9854810982942599 14.671578258275984 20.260458469390869 9.7718254029750842 12.837714791297911 14.866500660777087 12.223868682980536 10.445991076529024 10.713693447411062 19.466919705271717 21.99062180519104 12.919520258903502 9.7069292813539523 14.157937809824945 16.340449422597885 14.595722064375876 15.861001059412962 10.844384200870989 10.378796137869356 10.344808541238306
leaf_count=92 49 48 66 91 47 56 66 56 62 55 94 94 64 56 62 82 67 72 53 52 80
internal_value=0 0.00555432 0.00130315 -0.00534103 -0.0115688 -0.00567538 -0.0114938 -0.0177632 -0.0358541 -0.0449828 0.0251274 0.00768315 0.0168161 -0.0280997 0.0169842 0.0308165 -0.0264005 -0.033303 -0.0376882 0.0202925 -0.0573172
internal_weight=0 254.818 218.114 170.55 115.38 85.0564 72.2187 57.5471 39.6487 29.2027 47.5636 55.1706 33.18 30.3231 33.6249 36.7047 45.3232 30.7275 20.5513 20.3643 18.489
internal_count=1464 1218 1036 788 539 383 327 261 246 184 248 249 155 156 156 182 205 138 109 100 129
is_linear=0
shrinkage=0.05


Tree=31
num_leaves=22
num_cat=0
split_feature=2 6 9 6 9 9 8 8 9 9 8 2 8 9 7 8 8 6 8 8 6
split_gain=19.2063 11.2186 9.87378 4.74945 4.45409 2.98035 2.53878 2.21964 7.13579 2.51432 2.00974 2.00493 1.87885 1.69386 1.67525 1.87141 1.24351 1.13293 0.99881 0.77961 0.25488
threshold=-0.28177391521589118 0.39667540530553141 0.34026558904897458 -1.1994583905769123 -0.31305233597134768 -0.12798252260999091 -0.070188951000200214 -0.56968244337572149 -0.41464842816806752 -0.42453454965285531 -0.40409766607909153 0.97724714303152449 -0.68095402991986831 -0.29026224449120058 -0.2081581812506226 -0.21429596136447346 0.92926289507459814 0.6540653831627764 -0.54783396115920269 -0.0097569789119566694 -1.2506136215331871
decision_type=2 2 2 2 2 2 2 2 2 2 2 2 2 2 2 2 2 2 2 2 2
left_child=2 10 3 12 7 14 -3 8 -5 -9 -2 13 20 -12 18 -16 -8 -7 -6 -4 -1
right_child=1 6 19 4 5 17 16 9 -10 -11 11 -13 -14 -15 15 -17 -18 -19 -20 -21 -22
leaf_value=0.027348585615486212 -0.019360306100503384 0.016268464248428417 0.030163684523419689 0.028163587054030076 0.015761104251250792 0.0068002359299376668 -0.018102683472266901 -0.038690556752661143 -0.02612175113280997 -0.0086835931124188328 -0.034940489574952618 -0.023210868773605009 0.010401941572802255 -0.061197449361943074 0.037550463137132895 0.010647382148645045 0.0039029339028867137 -0.0139732138092219 -0.0040582134312925049 0.047668846745677514 0.039930456197830276
leaf_weight=8.0230486020445841 18.677371941506863 16.9806157797575 14.238039754331114 11.946403101086618 12.904574230313303 11.179139181971552 14.807939171791078 11.021474570035936 12.272585958242415 19.042300388216972 12.570637844502924 12.554274149239061 18.844894379377365 12.011097304522993 12.901699498295786 12.954623460769652 11.333149045705794 15.895980030298231 12.52858531475067 11.495809845626352 8.0778648108243924
leaf_count=51 98 73 75 59 57 50 64 53 54 86 92 81 90 68 64 60 50 72 54 61 52
internal_value=0 -0.0179395 0.00914717 0.00471936 0.000399078 0.00802463 0.00121557 -0.0106095 0.000655359 -0.0196842 -0.0327389 -0.0394676 0.0211183 -0.0477701 0.0151092 0.0240714 -0.00856242 -0.00539599 0.00599794 0.0379836 0.0336609
internal_weight=0 98.9351 193.327 167.593 132.647 78.3646 43.1217 54.2828 24.219 30.0638 55.8134 37.136 34.9458 24.5817 51.2895 25.8563 26.1411 27.0751 25.4332 25.7338 16.1009
internal_count=1464 526 938 802 609 357 187 252 113 139 339 241 193 160 235 124 114 122 111 136 103
is_linear=0
shrinkage=0.05


Tree=32
num_leaves=21
num_cat=0
split_feature=1 4 4 4 5 1 1 5 1 1 8 4 1 5 5 2 2 8 5 8
split_gain=17.9431 10.6654 8.42362 7.38607 4.51132 4.23147 4.6603 3.49317 3.40889 3.35286 2.89524 2.46767 2.80152 1.95085 2.52438 1.70828 1.60684 1.59754 1.00365 0.40944
threshold=-0.18661955054809273 -0.1194640369534362 0.12305852210675945 -0.012082551862826028 -0.0095719183684589166 -0.10879616667225736 -0.15217679689487257 -0.012385822056743117 -0.082455162490686948 0.1268323980074115 -0.63636680026847958 -0.031100996937109302 -0.19273092071272493 0.024765281666248997 0.0077080792612578344 0.011945725229205091 0.92271033976585659 -0.057750191699144686 -0.0057799436436293773 -0.68095402991986831
decision_type=2 2 2 2 2 2 2 2 2 2 2 2 2 2 2 2 2 2 2 2
left_child=1 -1 4 7 8 6 -6 19 -2 -4 -5 -9 13 14 17 -7 -17 18 -13 -3
right_child=2 3 9 10 5 15 -8 11 -10 -11 -12 12 -14 -15 -16 16 -18 -19 -20 -21
leaf_value=-0.029117644309731201 -0.0070002397505690428 0.044139794999802417 -0.059504650589363633 0.01296892397549633 -0.017160145017005669 -0.0082268313519772516 0.021182201226103141 -0.004642085765064404 0.0293149799975535 -0.018161982634624287 -0.01779431168919976 0.013729135170661894 0.039257615899292428 0.00031143158641476628 0.037160193993653216 -0.042985955531540686 -0.019282756490776432 0.029967233345429018 -0.0056477380940917303 0.030884197692120349
leaf_weight=15.566093713045118 14.722560927271845 11.405031040310861 12.923546709120275 11.986458048224447 20.351179160177708 9.5690841823816282 12.979184441268442 12.784885779023169 11.517471849918364 7.9030710980296126 21.131823554635048 19.650708183646195 14.12794917821884 17.375391289591789 14.82829265296459 16.296414166688923 12.738997489213942 10.320523798465734 10.126554727554323 11.907731421291826
leaf_count=73 65 80 86 53 95 49 62 56 50 52 98 98 67 80 73 90 72 52 52 61
internal_value=0 0.0103436 -0.0149339 0.0142901 -0.00880685 -0.0152803 -0.00222924 0.0199528 0.00893951 -0.0438164 -0.00666021 0.0158605 0.0188933 0.014914 0.0195334 -0.0265483 -0.0325864 0.013015 0.00713951 0.0373691
internal_weight=0 171.211 119.002 155.645 98.1749 71.9349 33.3304 122.527 26.24 20.8266 33.1183 99.2143 86.4294 72.3015 54.9261 38.6045 29.0354 40.0978 29.7773 23.3128
internal_count=1464 843 621 770 483 368 157 619 115 138 151 478 422 355 275 211 162 202 150 141
is_linear=0
shrinkage=0.05


Tree=33
num_leaves=22
num_cat=0
split_feature=0 1 9 5 9 5 5 8 9 9 5 1 1 1 8 5 5 8 8 5 8
split_gain=19.7098 10.035 8.6267 7.11861 5.3364 4.18182 3.51978 2.90468 3.59498 3.60327 3.01401 2.59457 3.39172 3.26041 2.25037 1.75182 1.30499 1.22758 0.36591 0.287337 0.189279
threshold=0.17310477747784211 -0.17979697633239747 0.34026558904897458 -0.014070153955668576 0.39585066881124903 -0.0088099586998974001 0.027797524674764276 -0.61872531303195 -0.29392077588789217 -0.14816039586913665 -0.0038639047109893057 -0.10879616667225736 0.1268323980074115 -0.15426735958638629 -0.68147794257758065 0.027037792958450015 -0.0053789122391233153 -0.29030078779853369 -0.68095402991986831 -0.0065820064526415012 0.23079171199119314
decision_type=2 2 2 2 2 2 2 2 2 2 2 2 2 2 2 2 2 2 2 2 2
left_child=1 2 3 18 5 -3 15 10 17 19 -5 13 -13 -7 -12 -2 -4 -9 -1 -10 -17
right_child=6 4 16 7 -6 11 -8 8 9 -11 14 12 -14 -15 -16 20 -18 -19 -20 -21 -22
leaf_value=0.041967265840428647 -0.023852493979833914 0.0036845946253264376 0.028620177728909287 -0.0043087895878461627 0.016010670374787605 -0.030608660134873369 -0.0084781608896978746 -0.0044056689088060727 0.012460663033581452 -0.0088039764509802443 0.008458458127551232 -0.048354417508017077 -0.011492560582934644 0.0085812943230115131 0.035621997770656597 -0.054966840749380186 0.054153827015681104 -0.024670290070768805 0.028419311727404119 0.023054892458011896 -0.044708324213195878
leaf_weight=10.69380257278681 8.4365008845925349 20.51317685842514 9.005821421742441 15.721626244485376 17.186152651906013 10.271083459258081 10.179429106414316 13.303610086441042 10.973677411675455 21.916360691189766 14.611486405134199 15.888962969183924 10.27621880918741 10.981331035494803 15.945462733507158 12.146397024393083 11.261451527476309 17.052479043602943 9.3340084776282293 15.356674909591673 7.1394194215536109
leaf_count=78 55 91 50 73 76 48 62 58 53 99 69 85 55 52 73 84 65 74 48 71 45
internal_value=0 0.00506701 0.0122538 0.0079805 -0.00887963 -0.0151768 -0.0336231 0.0035425 -0.00230865 0.00617316 0.0134805 -0.0233363 -0.0338771 -0.0103588 0.0226331 -0.0428562 0.0428079 -0.0157893 0.0356532 0.0186395 -0.0511692
internal_weight=0 250.293 165.176 144.909 85.1169 67.9308 37.9017 124.881 78.6028 48.2467 46.2786 47.4176 26.1652 21.2524 30.5569 27.7223 20.2673 30.3561 20.0278 26.3304 19.2858
internal_count=1464 1218 811 696 407 331 246 570 355 223 215 240 140 100 142 184 115 132 126 124 129
is_linear=0
shrinkage=0.05


Tree=34
num_leaves=23
num_cat=0
split_feature=1 9 6 5 5 4 4 5 9 9 5 9 9 6 9 9 4 5 9 9 9 6
split_gain=15.3332 9.69457 7.77002 7.01355 6.77239 5.33391 8.74053 5.36293 4.924 4.47474 3.64299 3.28767 2.35172 4.32038 4.34552 5.09947 2.07764 1.08362 0.636601 0.546091 0.310663 0.11993
threshold=-0.17376221338903958 0.34026558904897458 0.19988033090201765 0.0039116486319337824 -0.014070153955668576 -0.012082551862826028 -0.044205915487223017 0.012097145188351954 0.44597893991133347 -0.41041254005605859 -0.0059581798234098499 -0.23599860850963852 -0.42477468949433866 -0.92018977783842371 -0.29471487841153998 -0.18993282158135746 -0.017832946620811606 -0.0053789122391233153 -0.27187705070474105 -0.06224034807634677 -0.39428053992880807 -1.206332340511354
decision_type=2 2 2 2 2 2 2 2 2 2 2 2 2 2 2 2 2 2 2 2 2 2
left_child=1 4 3 18 21 6 7 -6 10 -7 -4 -12 -8 -14 -15 -16 -5 -3 -2 -17 -18 -1
right_child=2 17 8 16 5 9 12 -9 -10 -11 11 -13 13 14 15 19 20 -19 -20 -21 -22 -23
leaf_value=0.034546865535451367 0.0014849561896827196 0.02759143701587068 0.011197047677100974 -0.0279151447464175 0.0013595980804872948 0.0057351043345349626 -0.0083153220620148238 -0.042366737745237623 0.025922959241666134 -0.033682623290356838 -0.0031933548924749041 -0.037447301353619615 0.046541886504651159 -0.0070421552537821694 0.040743371545800475 0.01375833673901259 -0.062878355339138575 0.050690195371230241 -0.016176882615542617 -0.0012447565067170267 -0.049829301753469668 0.026760082397732556
leaf_weight=12.172408141195776 9.9501443132758158 8.8778369873762149 13.140205666422842 10.230508759617807 15.521977692842485 11.931123092770578 10.596272230148314 12.790476411581038 11.956259936094282 18.156425878405571 13.699419312179087 14.334928289055826 10.521701671183108 20.418297216296196 18.533136218786236 11.616066336631773 8.7215608358383196 11.860606655478476 10.470914050936697 12.692290246486669 9.5615020617842656 8.3279420211911184
leaf_count=86 51 50 56 78 67 57 54 63 51 79 67 66 50 90 92 54 68 69 50 58 64 44
internal_value=0 0.00860003 -0.0155637 -0.0299387 0.00450997 0.00065139 0.00564498 -0.0183943 -0.00232404 -0.0180516 -0.0105264 -0.0207086 0.0137112 0.0168746 0.0119402 0.0209872 -0.045958 0.0408019 -0.00757117 0.00592467 -0.0560541 0.0313836
internal_weight=0 184.017 102.065 48.9346 163.278 142.778 112.69 28.3125 53.1308 30.0875 41.1746 28.0343 84.3778 73.7815 63.2598 42.8415 28.5136 20.7384 20.4211 24.3084 18.2831 20.5004
internal_count=1464 913 551 311 794 664 528 130 240 136 189 133 398 344 294 204 210 119 101 112 132 130
is_linear=0
shrinkage=0.05


Tree=35
num_leaves=22
num_cat=0
split_feature=3 0 6 9 1 1 1 9 1 6 9 6 0 6 9 0 0 1 9 6 1
split_gain=24.9045 15.7189 8.76287 7.71023 6.23235 4.96441 4.7652 4.5405 3.48031 2.95429 3.72062 2.69112 2.68171 2.32131 4.28038 1.85872 2.48322 1.72392 1.36052 0.914846 0.442356
threshold=1.5918796184818247 0.081724156717917371 0.39667540530553141 0.34026558904897458 0.041439106160140134 -0.18937183796629725 -0.17376221338903958 -0.072715915320863675 -0.19273918767904949 0.38117569046619032 -0.39019699565701121 -0.81953555242143283 0.023893736556934938 -0.86603469693945601 -0.31305233597134768 -0.065418965356296224 -0.10469159655686473 -0.18661955054809273 0.88695103115458473 -1.2242847725927597 -0.0034054507065867335
decision_type=2 2 2 2 2 2 2 2 2 2 2 2 2 2 2 2 2 2 2 2 2
left_child=1 3 6 5 18 8 11 9 12 10 -7 -3 13 19 -15 16 -16 -4 -5 -1 -8
right_child=-2 2 17 4 -6 7 20 -9 -10 -11 -12 -13 -14 14 15 -17 -18 -19 -20 -21 -22
leaf_value=0.010847976563637882 0.071636643257380173 -0.0067639272102626271 0.015616955017772655 0.055510258867657092 -0.0055363401481638916 0.0052484386812734103 -0.05913819765258474 -0.0401737703212161 0.02923304101894705 0.0096072728360452799 -0.029375548347639904 -0.040315108986171133 -0.018733220536861404 -0.025565420180951329 0.018731108367854053 0.023294753998669412 -0.0091055210593796888 -0.011578672291013876 0.030467826606087201 0.033016869451217817 -0.045208642418056659
leaf_weight=9.5603803321719187 11.628620795905588 14.647082403302194 11.446558550000193 9.6474272906780261 10.394747287034987 13.485224500298498 11.344794660806658 11.193106979131697 14.433959819376467 20.690541684627533 18.271970272064213 10.096436232328413 12.471191242337225 11.790549904108039 13.088689237833011 14.125704988837262 20.654235824942592 11.869875580072401 12.388025924563406 9.0675305426120669 11.453744724392889
leaf_count=62 71 69 49 53 46 63 94 51 77 88 86 56 54 49 65 65 94 56 70 46 100
internal_value=0 -0.00308249 -0.0233353 0.0040479 0.0263772 -0.000241212 -0.0356491 -0.0112642 0.00642764 -0.00509446 -0.014673 -0.0204543 0.00280073 0.0062311 0.00142011 0.00806693 0.00169215 0.00177227 0.0414318 0.0216392 -0.0521401
internal_weight=0 272.122 70.8585 201.263 32.4302 168.833 47.5421 63.6408 105.192 52.4477 31.7572 24.7435 90.7583 78.2871 59.6592 47.8686 33.7429 23.3164 22.0355 18.6279 22.7985
internal_count=1464 1393 424 969 169 800 319 288 512 237 149 125 435 381 273 224 159 105 123 108 194
is_linear=0
shrinkage=0.05


Tree=36
num_leaves=22
num_cat=0
split_feature=0 1 4 6 4 4 4 1 1 6 6 4 6 1 0 0 8 8 0 4 6
split_gain=15.9351 7.52485 7.90095 5.88348 4.15218 4.04519 3.54651 3.19752 3.40297 3.02315 3.02477 2.34255 1.98818 1.71239 1.13401 2.22436 6.6129 1.73238 0.846729 0.557684 0.301118
threshold=0.17310477747784211 -0.18645359885372551 -0.1194640369534362 0.38117569046619032 -0.017832946620811606 -0.012082551862826028 0.094238576747588218 0.089511576574278232 -0.10946413755128227 0.35442643759360382 -1.0860273162258369 -0.031100996937109302 -0.57877331525033437 -0.19273918767904949 0.022645854494275017 -0.067362095996723811 -0.29030078779853369 -0.57882580075267276 -0.047413809880774573 0.25450194270950788 -0.80093589461422343
decision_type=2 2 2 2 2 2 2 2 2 2 2 2 2 2 2 2 2 2 2 2 2
left_child=1 2 -1 4 -3 11 -7 8 -5 10 -2 -4 -6 14 15 16 17 20 -17 -12 -13
right_child=9 3 5 7 12 6 -8 -9 -10 -11 19 13 -14 -15 -16 18 -18 -19 -20 -21 -22
leaf_value=-0.032815475548382468 -0.014036079817138548 0.0011758309460640779 -0.0005123041665995434 0.010324068683915747 -0.043251548699535597 -0.019289038408314793 0.017948555756940949 0.027406108332153324 -0.023118154668482022 -0.0080792015312192 -0.059671064981712943 0.022632050578644342 -0.01789384503988628 0.034783368324192765 0.0066963230937563713 0.045578543326018496 -0.018643407979498983 0.039789958087843989 0.025596436912781736 -0.042034284937149925 0.010296665794888747
leaf_weight=9.4801180958747846 7.7030291184782973 16.739213176071644 14.475128546357153 20.506668910384175 14.481577865779402 15.029138028621675 11.128733843564985 12.804650709033011 12.092616870999338 10.189455971121786 9.6405227705836349 9.8297175168991036 16.579872824251652 18.416709296405315 17.67919734120369 9.2004645019769686 11.217944785952566 13.238723345100885 12.510258696973322 8.3768297061324102 9.9604541361331922
leaf_count=41 48 89 64 89 76 66 51 56 54 47 80 69 86 98 83 53 57 72 66 71 48
internal_value=0 0.00453299 0.0113858 -0.0066549 -0.0188982 0.0143225 -0.00344649 0.00623468 -0.00208123 -0.0311284 -0.0402597 0.0183112 -0.0297162 0.0209811 0.0179419 0.0209561 0.0145243 0.0257894 0.0340644 -0.0514712 0.0164236
internal_weight=0 245.371 152.167 93.2046 47.8007 142.686 26.1579 45.4039 32.5993 35.9098 25.7204 116.529 31.0615 102.053 83.6368 65.9576 44.2468 33.0289 21.7107 18.0174 19.7902
internal_count=1464 1218 768 450 251 727 117 199 143 246 199 610 162 546 448 365 246 189 119 151 117
is_linear=0
shrinkage=0.05


Tree=37
num_leaves=21
num_cat=0
split_feature=3 4 4 5 1 4 5 5 4 1 4 1 1 5 5 5 2 5 5 1
split_gain=23.0427 13.1603 11.3427 5.80326 4.73134 3.08272 2.56206 2.25392 3.5892 2.97886 2.32567 2.0806 1.60293 1.23679 1.66202 1.58477 1.02714 0.774823 0.513015 0.44682
threshold=1.5918796184818247 -0.10449669740605527 -0.0038715862982319593 -0.012343490964045254 -0.18937183796629725 -0.031100996937109302 0.008033360289357196 0.0066297503735859784 0.053618766967775192 -0.18312176647777509 0.1918049672394618 -0.069478046175108985 -0.14783431257654708 -0.010725997632537473 0.0048251090533086996 0.012979414278265291 -0.22249760404737376 -0.0045768494301111932 -0.016489710096188482 0.014349053592776453
decision_type=2 2 2 2 2 2 2 2 2 2 2 2 2 2 2 2 2 2 2 2
left_child=1 6 3 18 5 -5 -1 8 -4 -9 -11 12 -6 -7 17 -16 -8 -15 -3 -12
right_child=-2 2 7 4 11 13 16 9 -10 10 19 -13 -14 14 15 -17 -18 -19 -20 -21
leaf_value=-0.013519381111618187 0.070316176658282797 0.023722415374285676 -0.021865807373828899 -0.013806089421086671 -0.0068043362841515437 -0.001257419606443592 -0.02983502928548051 -0.0059763640475413507 0.0089283808067397233 -0.0142504521968827 -0.057472066031732841 0.0092299120190591551 -0.029811976806259202 0.019854558718780488 -0.0052678178404613821 0.017260985386740264 -0.050793607947930898 0.036524999970920652 0.037759878652537569 -0.038827045372850665
leaf_weight=13.932966209948061 11.178296461701391 13.427332036197187 19.098040893673897 10.5200869590044 21.926186785101887 10.081300795078276 11.380024962127209 13.360113203525541 18.754557237029076 7.5590343698859241 7.1811900138854963 12.395891584455965 11.562213487923147 17.478365093469623 11.110464811325071 26.246361620724201 12.02071450650692 11.593753173947333 12.631664745509623 5.8154013231396675
leaf_count=68 71 90 84 45 98 51 60 65 90 40 54 61 53 90 55 126 91 62 61 49
internal_value=0 -0.00295283 0.00150333 0.00895184 0.00472188 0.0115716 -0.0304943 -0.0149958 -0.00660843 -0.0243568 -0.0363031 -0.00827021 -0.014748 0.015061 0.0175375 0.0105606 -0.0406012 0.0265026 0.0305268 -0.0491292
internal_weight=0 268.076 230.742 158.974 132.915 87.0303 37.3337 71.7683 37.8526 33.9157 20.5556 45.8843 33.4884 76.5102 66.4289 37.3568 23.4007 29.0721 26.059 12.9966
internal_count=1464 1393 1174 792 641 429 219 382 174 208 143 212 151 384 333 181 151 152 151 103
is_linear=0
shrinkage=0.05


Tree=38
num_leaves=23
num_cat=0
split_feature=3 9 2 6 2 8 6 9 8 9 8 9 6 6 9 9 9 6 6 6 8 8
split_gain=21.4956 10.5118 10.5251 6.83829 3.61894 3.27128 2.85559 4.82769 1.93754 5.58129 2.3053 1.69589 1.69135 3.61698 2.18852 1.17353 1.36848 1.40749 1.10435 0.302363 0.221126 0.176554
threshold=1.5918796184818247 0.41739033736737158 -0.28177391521589118 0.38117569046619032 -0.34262140571658622 -0.057750191699144686 -1.1994583905769123 -0.31305233597134768 -0.56968244337572149 -0.41464842816806752 -0.014767138044064831 -0.42477468949433866 0.77213372936491664 0.5547724966668105 -0.14816039586913665 -0.14996407035506623 -0.40629621131691268 -0.45684222518085132 0.083581165550841302 -1.2496423060699218 -0.16780982898890145 0.036729153463615397
decision_type=2 2 2 2 2 2 2 2 2 2 2 2 2 2 2 2 2 2 2 2 2 2
left_child=1 2 6 15 20 -5 11 8 9 -8 -10 19 13 18 -14 16 21 -18 -9 -1 -3 -4
right_child=-2 4 3 5 -6 -7 7 12 10 -11 -12 -13 14 -15 -16 -17 17 -19 -20 -21 -22 -23
leaf_value=-0.0020256838170506814 0.069061551197251256 0.033369533335204316 -0.046980353710894512 0.014466826768594239 0.0062519513982467641 -0.017345239832694852 0.022806714465189823 -0.0021608151938252514 -0.036295706502196788 -0.027655425388506127 -0.0069183928874183356 0.028298440666957955 0.024694419277972605 -0.025025160543602622 -0.00024883710363993904 -0.054191506843101513 -0.0084032560544707764 -0.035217919094352755 0.017388035044716033 0.011179763847511242 0.044565710191440261 -0.036229770783090059
leaf_weight=8.9271784573793429 10.821378938853739 9.0968291312456149 9.2991036102175695 13.069796010851858 16.546358294785023 21.17201916873455 10.446348488330843 14.016561001539232 15.479795068502428 11.52469080686569 11.744520232081411 12.947022370994089 19.364011511206627 11.706249743700026 16.110271580517292 6.8571211919188491 9.1143194213509577 10.567947164177893 14.908746823668478 8.4262159168720263 8.5596133023500425 6.4805033579468718
leaf_count=55 71 53 73 57 75 96 51 62 76 51 54 69 97 52 77 43 57 66 68 51 51 59
internal_value=0 -0.00282553 -0.006638 -0.0218152 0.0230528 -0.00520286 0.00082964 -0.00250123 -0.0147082 -0.0036627 -0.0236224 0.0146038 0.00538947 -0.00157523 0.0133667 -0.0352568 -0.0315954 -0.0228008 0.0079151 0.00438643 0.0387973 -0.0425652
internal_weight=0 266.365 232.162 76.5608 34.2028 34.2418 155.602 125.301 49.1954 21.971 27.2243 30.3004 76.1058 40.6316 35.4743 42.319 35.4619 19.6823 28.9253 17.3534 17.6564 15.7796
internal_count=1464 1393 1214 451 179 153 763 588 232 102 130 175 356 182 174 298 255 123 130 106 104 132
is_linear=0
shrinkage=0.05


Tree=39
num_leaves=23
num_cat=0
split_feature=3 0 9 1 1 9 9 0 0 1 9 9 9 9 2 9 9 9 9 2 0 1
split_gain=20.0647 11.9345 6.4508 6.13006 5.33687 3.37394 5.80163 4.43269 3.77633 3.16309 3.18725 2.99485 2.58764 1.25281 1.29865 1.25007 1.0249 0.998344 0.870323 0.701144 0.622761 0.288419
threshold=1.5918796184818247 0.081724156717917371 0.34026558904897458 0.059072545330439125 -0.18661955054809273 -0.39019699565701121 -0.42453454965285531 -0.045809390085926112 -0.10469159655686473 -0.11029561065317085 -0.31305233597134768 -0.30333564344685332 -0.32418299084570312 -0.27884646686048414 -0.36318957151963804 0.88695103115458473 -0.42044316482435101 -0.42413196441670414 -0.2134437154968637 0.34877541016049601 -0.11153712101488485 -0.11841952784192793
decision_type=2 2 2 2 2 2 2 2 2 2 2 2 2 2 2 2 2 2 2 2 2 2
left_child=1 2 5 15 12 6 7 -1 20 10 -10 19 17 -12 18 -4 -8 -3 -15 21 -7 -6
right_child=-2 4 3 -5 11 8 16 -9 9 -11 13 -13 -14 14 -16 -17 -18 -19 -20 -21 -22 -23
leaf_value=0.013527645532743722 0.067870457701266859 -0.0066763592037857632 0.053337859437005468 -0.007767300656783856 -0.045365434705909681 0.0061050690960345079 0.042102692454910731 -0.029222582420940654 -0.022371180688725914 -0.028445583831225574 0.012542377777594366 -0.016701759972318223 0.01291799159424646 -0.0092476035885941457 -0.016045727155365192 0.028902094023941133 0.019918275459896398 -0.028713980005620421 0.0085102594648817226 -0.05845407128358019 0.022855778602325384 -0.030232093964814695
leaf_weight=13.78502441942692 10.469669148325918 11.295485332608221 9.225273393094545 10.128687113523482 8.0430432483553869 12.225677862763407 10.011281326413156 10.825310617685316 19.709611713886261 17.313470996916294 16.463706150650978 14.278615869581698 11.444632977247236 10.646551981568335 14.250905051827433 12.096893340349196 10.847282245755194 9.4291616231203097 19.606389597058296 7.6593621596693984 10.159951016306875 5.1736324727535274
leaf_count=90 71 57 53 45 59 58 57 51 84 85 73 87 51 50 63 71 50 49 90 72 49 49
internal_value=0 -0.00270364 0.00349914 0.0242604 -0.0208812 -0.000438012 0.0111658 -0.00527683 -0.00482104 -0.00905383 -0.00489233 -0.0343478 -0.00616488 0.000758244 -0.00360117 0.0394745 0.0305659 -0.0167029 0.00226095 -0.0464172 0.0137076 -0.0394415
internal_weight=0 264.62 197.296 31.4509 67.3239 165.845 45.4689 24.6103 120.376 97.9906 80.6772 35.1547 32.1693 60.9676 44.5038 21.3222 20.8586 20.7246 30.2529 20.876 22.3856 13.2167
internal_count=1464 1393 969 169 424 800 248 141 552 445 360 267 157 276 203 124 107 106 140 180 107 108
is_linear=0
shrinkage=0.05


Tree=40
num_leaves=23
num_cat=0
split_feature=3 0 5 6 2 2 0 5 0 2 0 6 2 0 5 0 2 6 5 6 6 2
split_gain=18.7399 11.1466 6.10735 5.85318 7.32763 3.30457 3.30255 2.99114 2.25605 2.2236 2.66964 2.50975 2.33891 1.9989 3.36952 1.96802 1.3723 0.640239 2.0454 0.635269 0.505381 8.96136e-05
threshold=1.5918796184818247 0.1718568954151822 -0.014384295222531658 0.38117569046619032 -0.28177391521589118 -0.19702545513379485 -0.10510161494888155 -0.011325316787049308 0.05259502399811302 -0.28670819741611825 -0.065418965356296224 0.91747440041626971 0.1230969242658994 -0.078058227962380225 0.00565613524153515 -0.014255800787239653 -0.36964049624877698 -0.063149468261587793 0.0066297503735859784 0.11251396658427804 -0.68447704810082921 0.25129087432311487
decision_type=2 2 2 2 2 2 2 2 2 2 2 2 2 2 2 2 2 2 2 2 2 2
left_child=1 2 16 4 8 20 -5 -8 13 10 11 -9 -11 -4 -15 -12 -1 18 -6 21 -3 -7
right_child=-2 5 3 6 17 19 7 9 -10 12 15 -13 -14 14 -16 -17 -18 -19 -20 -21 -22 -23
