tree
version=v3
num_class=1
num_tree_per_iteration=1
label_index=0
max_feature_idx=9
objective=binary sigmoid:1
feature_names=Column_0 Column_1 Column_2 Column_3 Column_4 Column_5 Column_6 Column_7 Column_8 Column_9
feature_infos=[-39.599748861351209:3.202605887883931] [-1.662425519084197:32.507701955788043] [-1.7885478797273402:23.521722816805894] [-0.2159488219222388:5.8101459794246386] [-5.506754672041156:11.398726200744017] [-34.352181421132713:24.445706336197716] [-1.2682927843421465:15.523717361941239] [-0.29598397758150563:20.207531766523946] [-0.92135003479692401:11.378828062449848] [-0.42558784639417108:15.766073447244642]
tree_sizes=2392 2648 2432 2447 2441 2452 2451 2225 2560 2540 2454 2458 2138 2442 2436 2460 2355 2353 2566 2442 2449 2667 2454 2447 2450 2355 2450 2459 2456 2447 2453 2552 2465 2366 2353 2348 2767 2467 2343 2565 2779 2467 2477 2561 2668 2455 2465 2352 2581 2562 2561 2463 2552 2461 2348

Tree=0
num_leaves=23
num_cat=0
split_feature=2 7 9 6 6 2 9 9 6 7 9 2 7 6 9 6 9 6 6 6 9 2
split_gain=260.467 52.1696 30.8765 53.0329 18.5624 14.028 10.9101 9.23256 6.57877 4.09461 3.6388 3.37446 2.79954 2.30693 1.33867 1.31707 0.95129 0.785539 0.771988 0.731218 0.180561 0.0419957
threshold=-0.34921776192110027 1.0000000180025095e-35 -0.27079824480334674 -1.1673491534162468 0.078414593937727609 -0.16776602648432862 -0.20562669869333375 0.33550235967990105 0.35442643759360382 0.15914789842017052 -0.42348798120322584 -0.2789204717593125 0.017964322409281263 -0.57567337228246618 -0.42407168329932038 0.83955181808704793 -0.13068191688126815 -0.12514832761895198 -1.2446410647484276 -0.91248553401289667 -0.22433052905761566 0.60068350143524707
decision_type=2 2 2 2 2 2 2 2 2 2 2 2 2 2 2 2 2 2 2 2 2 2
left_child=2 5 3 10 13 11 -3 9 14 16 18 -2 -6 19 21 -9 20 -16 -1 -5 -4 -7
right_child=1 6 7 4 12 8 -8 15 -10 -11 -12 -13 -14 -15 17 -17 -18 -19 -20 -21 -22 -23
leaf_value=0.069892473118279591 -0.023529411764705882 -0.022580645161290318 0.039622641509433953 -0.032075471698113207 0.0052631578947368411 -0.096078431372548997 0.03650793650793651 0.068627450980392135 -0.052941176470588241 0.063440860215053768 0.033333333333333333 -0.05365853658536586 0.037037037037037035 -0.049090909090909095 -0.073333333333333334 0.090322580645161299 0.028767123287671233 -0.088679245283018876 0.055555555555555552 -0.01538461538461538 0.048000000000000001 -0.092000000000000012
leaf_weight=23.249999999999996 17 15.500000000000002 13.250000000000002 13.249999999999998 14.250000000000002 12.750000000000002 15.749999999999998 12.750000000000002 21.25 23.25 12.749999999999998 20.5 13.499999999999998 13.749999999999998 22.5 15.499999999999998 18.25 13.249999999999998 15.750000000000002 13.000000000000002 12.499999999999998 12.499999999999998
leaf_count=93 68 62 53 53 57 51 63 51 85 93 51 82 54 55 90 62 73 53 63 52 50 50
internal_value=0 -0.0503311 0.0353488 0.01841 -0.0107011 -0.0653445 0.0072 0.0565445 -0.0768997 0.0464684 0.0565217 -0.04 0.0207207 -0.0325 -0.0852459 0.080531 0.0375 -0.079021 0.0641026 -0.0238095 0.0436893 -0.0940594
internal_weight=0 151 215 119.5 67.75 119.75 31.25 95.5 82.25 67.25 51.75 37.5 27.75 40 61 28.25 44 35.75 39 26.25 25.75 25.25
internal_count=1464 604 860 478 271 479 125 382 329 269 207 150 111 160 244 113 176 143 156 105 103 101
is_linear=0
shrinkage=0.05


Tree=1
num_leaves=24
num_cat=0
split_feature=2 7 3 6 6 1 7 6 6 6 1 2 6 6 6 6 6 7 7 6 6 2 6
split_gain=235.287 47.1693 27.9919 32.9848 52.8792 14.8958 7.61405 6.76553 5.61994 5.33778 5.00368 4.42038 3.82314 1.69671 1.07055 1.23074 0.818367 0.663017 0.873599 0.61402 0.850575 0.377797 0.287043
threshold=-0.34921776192110027 1.0000000180025095e-35 1.0000000180025095e-35 0.22411191342753375 -1.196901943043257 -0.17802325277987116 -0.073944482756925792 -0.19021294480644932 -0.61840042043209875 0.26121439922340811 -0.085810326082708901 -0.15296317988364735 0.81625605771112941 1.1179288024962033 -1.2555425308520973 -1.2375111959223306 0.56820558286090617 0.40415935614796078 0.12427717700795184 -0.12514832761895198 -0.88256772610141987 0.67339923912280419 -0.96936612920172982
decision_type=2 2 2 2 2 2 2 2 2 2 2 2 2 2 2 2 2 2 2 2 2 2 2
left_child=2 5 3 4 14 -2 16 8 22 11 -11 -7 -3 17 -1 -16 -5 18 -8 20 -13 -22 -6
right_child=1 12 -4 6 7 9 13 -9 -10 10 -12 19 -14 -15 15 -17 -18 -19 -20 -21 21 -23 -24
leaf_value=0.062374480235103925 -0.0104950873402494 -0.012890184330292582 0.098349118684949374 0.040291562931526879 -0.0256952497062105 -0.055824141831439501 0.059561263726938832 0.0069326373245566179 -0.060562358086336025 -0.073857691935236086 -0.032404241902799023 -0.089192596657896181 0.022345636082300765 0.075054556209581791 0.034314246292039441 0.056083660936027541 0.026041665785503366 0.062453794724320714 0.041791849373563617 -0.091921672804699373 -0.079687211842124392 -0.067951361386158579 -0.015878357320635497
leaf_weight=14.484427407383917 12.496671989560125 13.747013598680498 15.490802049636839 17.242897778749466 16.244786098599434 21.487113893032074 13.238361254334452 13.993258520960806 12.993225604295732 12.7398748844862 16.984794542193413 14.971728399395937 17.49576435983181 13.98050546646118 12.738044321537016 13.241755381226541 24.238788604736328 18.732692509889603 14.484922692179678 13.223269686102865 15.224518254399305 12.47801326215267 13.748168528079985
leaf_count=58 50 55 62 69 65 86 53 56 52 51 68 60 70 56 51 53 97 75 58 53 61 50 55
internal_value=0 -0.0478638 0.0336051 0.0285743 0.00777474 -0.0621536 0.0484608 -0.0232646 -0.0330946 -0.0681807 -0.050171 -0.0750985 0.00684166 0.059783 0.0514825 0.04541 0.031965 0.0551872 0.0502771 -0.0825076 -0.0795905 -0.074401 -0.0211954
internal_weight=0 150.849 214.853 199.362 97.4437 119.606 101.918 56.9794 42.9862 107.109 29.7247 77.3846 31.2428 60.4365 40.4642 25.9798 41.4817 46.456 27.7233 55.8975 42.6743 27.7025 29.993
internal_count=1464 604 860 798 390 479 408 228 172 429 119 310 125 242 162 104 166 186 111 224 171 111 120
is_linear=0
shrinkage=0.05


Tree=2
num_leaves=22
num_cat=0
split_feature=0 2 6 4 2 4 0 2 6 6 2 0 6 6 0 6 6 6 6 1 2
split_gain=219.64 90.9482 52.0182 21.8603 20.0262 14.0595 10.2528 8.33447 4.57095 4.81907 4.68147 3.86476 2.65855 9.37178 1.84209 3.30924 2.30676 1.43314 0.909641 0.355209 0.616545
threshold=0.05742611026926784 -0.34921776192110027 0.46797409356650027 0.0041490588724807887 -0.29865435432193121 -0.040671393886569936 -0.10232062063781089 -0.36059258088793961 0.7934681051926632 -0.44857571059986939 0.037915631546189724 0.17025247562033374 -1.1673491534162468 -0.19021294480644932 -0.053653220194074154 0.93048625602674828 0.70770301641497579 -1.0225217120225969 -1.25101661411901 -0.022688425224180759 1.2187672717794815
decision_type=2 2 2 2 2 2 2 2 2 2 2 2 2 2 2 2 2 2 2 2 2
left_child=1 3 7 5 -4 -1 -3 11 9 -8 -11 -2 18 -14 15 16 -15 -9 -7 -19 -21
right_child=2 6 4 -5 -6 12 8 17 -10 10 -12 -13 13 14 -16 -17 -18 19 -20 20 -22
leaf_value=0.01391089375982528 -0.032489909461183103 0.023637298453457307 0.039333634916353 0.00092478700739078129 -0.041160075634330627 0.063783324036522787 -0.01353945883609298 -0.071448745145315157 -0.00058493742288962534 -0.066643973507204732 -0.027534162209268093 -0.070191607286927402 0.019089862067373339 0.060459990770077278 0.074369907742821525 0.07599931522540021 0.034702921885516595 -0.094251913843207247 0.079391682354145024 -0.077699336431610158 -0.093001064281698562
leaf_weight=18.46912494301796 13.229298368096353 12.471227139234541 15.959831386804582 21.710450947284698 14.979468956589697 18.174273401498795 19.675671041011807 14.687712848186491 13.986268997192381 13.953770503401762 16.941462442278862 13.980941623449324 14.486392557621 19.466181084513664 24.172108888626099 16.679387420415878 15.70620723068714 20.650946632027626 19.191843464970589 12.924321338534357 13.416904151439665
leaf_count=74 53 50 64 87 60 73 79 59 56 56 68 56 58 78 97 67 63 83 77 52 54
internal_value=0 0.0271234 -0.0554769 0.0477443 0.000362067 0.05469 -0.0178661 -0.0749124 -0.0258838 -0.0328806 -0.045198 -0.0518615 0.0605797 0.0559474 0.0629707 0.0576566 0.0489582 -0.0850813 0.0718 -0.0893423 -0.0854933
internal_weight=0 245.084 119.829 168.056 30.9393 146.346 77.0284 88.8901 64.5572 50.5709 30.8952 27.2102 127.876 90.5103 76.0239 51.8518 35.1724 61.6799 37.3661 46.9922 26.3412
internal_count=1464 983 481 674 124 587 309 357 259 203 124 109 513 363 305 208 141 248 150 189 106
is_linear=0
shrinkage=0.05


Tree=3
num_leaves=22
num_cat=0
split_feature=1 4 4 6 5 8 5 5 6 6 6 1 8 8 6 6 4 8 1 6 6
split_gain=189.957 49.0848 60.6905 33.6079 15.4956 11.5882 11.5166 10.2274 7.35389 6.65757 5.29128 4.57635 4.54605 3.96747 4.43797 3.58053 1.31476 1.14157 0.956456 0.301613 0.24737
threshold=-0.17939054777316679 0.0041490588724807887 -0.040671393886569936 0.37908277740452023 0.01228874908161596 -0.64917712787422632 0.012756619053539702 0.0048741240027483299 -0.049692978531399055 0.91747440041626971 0.078414593937727609 -0.037589295221878989 -0.4053539654280745 -0.67434597041932187 0.74076907473890341 0.71681885130366563 0.096005837547914766 -0.23818075931247779 -0.048109040488282843 0.34604300349701717 -1.2501899626609119
decision_type=2 2 2 2 2 2 2 2 2 2 2 2 2 2 2 2 2 2 2 2 2
left_child=1 2 4 6 -1 -3 12 13 -7 11 -9 -5 -2 20 19 -12 18 -16 -8 -15 -4
right_child=3 5 7 9 -6 8 16 10 -10 -11 15 -13 -14 14 17 -17 -18 -19 -20 -21 -22
leaf_value=0.0092203201614197722 -0.022912806176557401 0.012943031178501624 0.071506305881652882 -0.041110474921949837 -0.056939366690859174 -0.069363561333000937 -0.083173529943967095 0.018901565958212296 -0.015320929698647399 0.015658813165455889 0.070538090197961215 -0.0048188807831859954 -0.058161745670283274 0.035180332898610521 0.077300017335933807 0.037134110288414589 -0.089779015403531059 0.057642611275592059 -0.065082408691796642 0.045827692471679615 0.080313340498043312
leaf_weight=20.708991482853889 15.402168005704878 14.967885747551916 12.632082089781759 19.418424397706985 15.455650955438612 12.71494323015213 13.585138440132143 24.153147861361504 12.466831907629967 14.233245700597761 12.685768499970434 15.717544913291929 22.523255437612534 12.952487140893938 16.866329103708271 21.821568191051483 21.207438632845879 13.139313369989393 15.806340768933294 13.672104477882383 21.617881119251251
leaf_count=83 62 60 51 78 62 51 55 97 50 57 51 63 91 52 68 88 86 53 64 55 87
internal_value=0 0.0282315 0.0390697 -0.0462435 -0.0190543 -0.0218988 -0.0646774 0.0531263 -0.0426085 -0.0131897 0.0368508 -0.024876 -0.0438465 0.0636317 0.0555072 0.0494143 -0.0802907 0.0686921 -0.0734444 0.0406479 0.0770651
internal_weight=0 225.855 185.705 137.894 36.1646 40.1497 88.5243 149.541 25.1818 49.3692 58.6605 35.136 37.9254 90.8802 56.6302 34.5073 50.5989 30.0056 29.3915 26.6246 34.25
internal_count=1464 908 747 556 145 161 358 602 101 198 236 141 153 366 228 139 205 121 119 107 138
is_linear=0
shrinkage=0.05


Tree=4
num_leaves=22
num_cat=0
split_feature=0 1 6 3 1 9 0 9 6 6 0 1 6 0 0 0 6 6 6 9 1
split_gain=185.254 72.7577 44.2131 15.022 13.8656 13.2015 15.7949 11.6181 9.42116 8.49297 9.16951 6.26757 5.8454 3.06843 3.00592 2.84243 2.64938 2.14742 1.45004 1.11109 0.154829
threshold=0.05742611026926784 -0.17939054777316679 0.46797409356650027 1.0000000180025095e-35 -0.18654606640298546 0.072808318070173503 -0.10437071259789503 0.39282798832968324 -1.196901943043257 0.86075955401135673 -0.067879075708397199 -0.17424904585037512 0.37908277740452023 -0.0046292820181488724 0.17934418779114172 -0.058109941846431 -0.44857571059986939 0.82053051533717813 -1.1834688568491614 -0.28437788844836503 0.0095533558095020014
decision_type=2 2 2 2 2 2 2 2 2 2 2 2 2 2 2 2 2 2 2 2 2
left_child=1 3 11 5 -4 6 18 12 -8 10 -10 14 16 -12 -2 -14 -3 -7 -1 20 -13
right_child=2 7 4 -5 -6 17 8 -9 9 -11 13 19 15 -15 -16 -17 -18 -19 -20 -21 -22
leaf_value=0.067615132758025998 -0.038672021894233889 -0.031383052772855961 0.035483945219654811 0.090292844835194119 -0.031642847055255725 0.051845770433469822 0.051093889282152943 0.022180362232863401 -0.024242622605072529 0.041463550770118679 0.030322563783345344 -0.087089416029058772 0.0051414374604715103 -0.00065282853743577789 -0.067853594463240088 -0.027990622257472609 -0.061979060606804262 0.078117556177140737 0.04813756314702361 -0.067090723204747557 -0.080853722922133747
leaf_weight=18.229025632143021 17.922560960054398 16.58830688893795 14.658985614776613 14.792630121111868 16.188159108161926 13.859385311603548 18.315721943974495 13.909984767436979 21.427411988377571 17.286610171198845 19.664814591407776 22.22318272292614 12.710907131433489 13.472628742456434 17.384462967514992 13.191674709320067 12.338035106658937 17.72682212293148 20.082322970032692 12.235267668962477 18.031635299324989
leaf_count=74 72 67 59 60 65 56 74 56 86 70 79 91 51 54 70 53 50 72 81 50 74
internal_value=0 0.0249521 -0.0512371 0.0420851 0.000256724 0.0376299 0.0305101 -0.0186307 0.0190826 0.0109225 0.00124688 -0.0693292 -0.0289844 0.017729 -0.0530404 -0.0117321 -0.0444333 0.06659 0.0574052 -0.0802857 -0.0842962
internal_weight=0 243.596 118.644 174.857 30.8471 160.065 128.479 68.7389 90.1672 71.8515 54.5649 87.7971 54.8289 33.1374 35.307 25.9026 28.9263 31.5862 38.3113 52.4901 40.2548
internal_count=1464 983 481 706 124 646 518 277 363 289 219 357 221 133 142 104 117 128 155 215 165
is_linear=0
shrinkage=0.05


Tree=5
num_leaves=22
num_cat=0
split_feature=1 4 4 9 9 8 9 9 8 1 4 9 9 8 8 8 1 8 1 1 9
split_gain=156.615 41.8984 52.2794 23.7292 11.8758 10.2165 9.54908 4.65367 17.0963 3.10553 2.25286 1.64673 3.15881 4.94675 1.62661 1.30539 1.18545 0.979319 0.872796 0.805944 0.695018
threshold=-0.17939054777316679 0.0041490588724807887 -0.040671393886569936 -0.31582236818840376 -0.31462555279163507 -0.64917712787422632 0.39282798832968324 -0.29416470837075964 -0.64127108723410242 -0.056116852727770464 -0.044545773333439655 -0.19949737083802069 0.33550235967990105 -0.23818075931247779 -0.28239814529468649 0.036729153463615397 -0.048109040488282843 0.027431926988500981 -0.1927367994443335 -0.14435832880261129 -0.42418938281919699
decision_type=2 2 2 2 2 2 2 2 2 2 2 2 2 2 2 2 2 2 2 2 2
left_child=1 2 4 10 -1 -3 9 8 18 19 17 -9 13 -13 -7 -11 -12 -2 20 -5 -4
right_child=3 5 7 6 -6 14 -8 11 -10 15 16 12 -14 -15 -16 -17 -18 -19 -20 -21 -22
leaf_value=-0.044104465058280175 -0.044521875646211864 0.012065316424342521 0.057096053516285022 -0.031716827381057515 0.013604367223539053 -0.052789644312038531 0.0074644314846785444 0.069292887860322047 0.003768068360250751 -0.034823691909722752 -0.081881158675502275 0.061489900402674602 0.067103899572283951 0.021332710380467333 -0.027314871019374506 -0.057312401694502926 -0.063440345263016409 -0.06375255140651917 0.066494820737752591 -0.015239141093594609 0.042513602266532169
leaf_weight=19.874321684241295 13.135197415947916 14.930633813142775 23.187248334288594 13.62394616007805 16.166837483644485 12.659389257431028 18.843980386853218 21.668983623385429 22.562817811965942 12.529603973031046 19.227965742349625 16.230001136660579 22.695790305733681 14.538573935627936 12.407789468765261 13.305098533630369 15.939240038394926 13.347547873854635 14.508187070488928 16.298434421420097 12.617186665534975
leaf_count=80 54 60 95 55 65 51 76 88 91 51 79 66 93 59 50 54 66 55 59 66 51
internal_value=0 0.0257043 0.035784 -0.0422752 -0.0182182 -0.0206776 -0.0233066 0.0489339 0.0399317 -0.0337062 -0.0652286 0.0576656 0.0529531 0.0425151 -0.0401801 -0.0464056 -0.073523 -0.0542143 0.0561494 -0.0227416 0.0519573
internal_weight=0 224.048 184.05 136.251 36.0412 39.9978 74.6011 148.009 72.8754 55.7571 61.65 75.1333 53.4644 30.7686 25.0672 25.8347 35.1672 26.4827 50.3126 29.9224 35.8044
internal_count=1464 908 747 556 145 161 302 602 296 226 254 306 218 125 101 105 145 109 205 121 146
is_linear=0
shrinkage=0.05


Tree=6
num_leaves=22
num_cat=0
split_feature=0 2 7 7 2 9 8 7 9 9 2 8 0 0 0 8 0 0 0 0 8
split_gain=158.005 61.2133 40.0943 21.5339 19.9342 10.3094 12.7274 11.2199 9.90464 7.35263 6.79639 5.73478 5.7241 5.46645 3.15307 2.55471 1.39446 1.02222 0.973323 0.434307 0.00265442
threshold=0.05742611026926784 -0.34921776192110027 -0.28887240634258254 1.0000000180025095e-35 -0.29865435432193121 0.19743816072211581 -0.64127108723410242 -0.068269312445416105 -0.39770321643942624 -0.25462848236693053 -0.18192828119686069 -0.4053539654280745 -0.10693778426965259 -0.05543590885501689 0.17934418779114172 -0.22591749445836648 -0.067879075708397199 -0.048126885345151665 -0.034168433129970033 0.12926846330526023 0.35811463231739177
decision_type=2 2 2 2 2 2 2 2 2 2 2 2 2 2 2 2 2 2 2 2 2
left_child=1 5 10 8 -4 6 12 9 -3 -8 14 -10 -1 -14 -2 -9 -7 -13 -15 -12 -21
right_child=2 3 4 -5 -6 16 7 15 11 -11 19 17 13 18 -16 -17 -18 -19 -20 20 -22
leaf_value=0.068426045292437454 -0.037539109706992299 0.0086506407578551825 0.047821354022987012 0.029999505696214956 -0.036380429208014452 0.058097401895588686 -0.020643733894391982 0.056142372830570601 -0.017173534808227666 0.024744061426350435 -0.070717796737451516 -0.045180043040125413 0.017559674675981532 0.063739045277254144 -0.063603474300864257 0.028369553958841928 0.081037129081069387 -0.064455930566726022 0.043925476980036814 -0.081525069454757196 -0.082485018923145442
leaf_weight=26.150614812970161 22.489477410912514 12.799428924918173 13.596783593297006 20.442741379141808 14.551844000816343 14.316397219896318 19.392948716878891 14.605088263750075 15.558456942439078 16.527185171842575 12.184715583920477 13.301241815090178 17.792307183146477 12.458641618490221 23.97069425880909 19.120288282632828 12.330580219626425 14.242379799485208 12.335114866495131 18.24618220329285 11.89668996632099
leaf_count=108 91 52 55 82 59 59 78 60 63 67 51 54 72 51 98 78 51 58 50 77 50
internal_value=0 0.0231076 -0.0477057 -0.0139127 0.00429201 0.0402336 0.0347497 0.0196855 -0.0299711 0.00023961 -0.0641907 -0.04144 0.0500132 0.0387064 -0.0509868 0.0403968 0.0687125 -0.0551473 0.0538816 -0.0786838 -0.0819039
internal_weight=0 241.373 116.936 76.3442 28.1486 165.029 138.382 69.6455 55.9015 35.9201 88.7878 43.1021 68.7367 42.5861 46.4602 33.7254 26.647 27.5436 24.7938 42.3276 30.1429
internal_count=1464 983 481 309 114 674 564 283 227 145 367 175 281 173 189 138 110 112 101 178 127
is_linear=0
shrinkage=0.05


Tree=7
num_leaves=20
num_cat=0
split_feature=2 3 6 6 8 6 6 8 2 6 1 8 6 6 2 6 6 8 6
split_gain=133.703 25.6508 22.8502 22.621 24.0713 17.7563 12.5516 6.49118 6.16933 3.94818 4.80528 3.63083 3.64578 1.96518 1.63664 1.18398 1.10604 0.908609 0.553957
threshold=-0.31163930748042351 1.0000000180025095e-35 0.37908277740452023 0.74076907473890341 -0.67146383021203648 0.078414593937727609 -1.161769256074084 -0.61572695749372564 -0.15296317988364735 0.91747440041626971 -0.037589295221878989 0.6596433272962805 0.90511148066679903 0.58990518363598365 0.93012669576232954 -0.9517997857171433 1.1179288024962033 -0.19570150841424469 -1.25101661411901
decision_type=2 2 2 2 2 2 2 2 2 2 2 2 2 2 2 2 2 2 2
left_child=1 3 8 4 6 7 18 -6 -2 10 -4 12 -5 -7 17 -9 -14 -10 -1
right_child=2 -3 9 11 5 13 -8 15 14 -11 -12 -13 16 -15 -16 -17 -18 -19 -20
leaf_value=0.047801935291686887 -0.033501595296552937 0.085466234552512454 -0.038283173900202638 0.033331071612833323 -0.0028151709750239054 0.026201575923655848 0.0063611511278031593 -0.029104362861430783 -0.061424581079170121 0.0097530020884291409 -0.00092744492302192303 0.020127423675204092 0.052864979713795862 0.0028666245916679415 -0.052075940481759869 -0.048757239413030562 0.072287158377725202 -0.076379955440676467 0.061111941686630124
leaf_weight=15.345351472496988 23.274649679660797 15.635800555348395 19.195159405469894 20.767134353518486 16.517067909240723 23.31928925216198 23.733430340886116 12.349404245615 18.802583873271942 14.20209828019142 15.609571158885954 13.189928174018858 18.806191235780719 14.716551333665846 20.09461073577404 20.197354629635814 12.012200474739073 22.084879443049431 15.935187876224516
leaf_count=64 96 65 78 85 67 95 96 50 79 57 63 54 78 60 85 82 50 94 66
internal_value=0 0.0237158 -0.0396116 0.019049 0.00788694 -0.00846729 0.0337794 -0.0283444 -0.0554017 -0.0124639 -0.0215295 0.0435379 0.0495237 0.017173 -0.0637602 -0.0413002 0.0604352 -0.0695025 0.0545824
internal_weight=0 222.525 133.264 206.889 142.114 87.0997 55.014 49.0638 84.2567 49.0068 34.8047 64.7755 51.5855 38.0358 60.9821 32.5468 30.8184 40.8875 31.2805
internal_count=1464 912 552 847 580 354 226 199 354 198 141 267 213 155 258 132 128 173 130
is_linear=0
shrinkage=0.05


Tree=8
num_leaves=23
num_cat=0
split_feature=2 7 5 7 5 9 9 8 8 9 8 7 9 8 9 5 5 2 5 2 5 8
split_gain=121.66 32.9653 29.0143 28.137 12.6205 10.4481 9.9136 8.37748 7.88886 7.34703 6.08846 4.33353 3.67751 3.09572 2.69852 1.97732 1.67444 3.14763 1.42259 1.31402 1.03454 0.409484
threshold=-0.31163930748042351 0.045065858539844947 0.011856526345648316 -0.27472394870849065 -0.013147781725304635 -0.27079824480334674 -0.20562669869333375 -0.4053539654280745 -0.6528693772618076 -0.28437788844836503 -0.59896870677233183 -0.07598671364152651 0.024542306825091183 -0.67434597041932187 -0.36894976163222581 -0.004801872607084038 0.012979414278265291 0.45724593833335719 -0.0048976745537160421 0.34163212772894619 -0.0057799436436293773 -0.67882490927370831
decision_type=2 2 2 2 2 2 2 2 2 2 2 2 2 2 2 2 2 2 2 2 2 2
left_child=2 7 4 10 13 8 -3 9 -6 -2 21 15 -5 -1 -12 -7 17 18 -9 -18 -13 -4
right_child=1 6 3 12 5 11 -8 16 -10 -11 14 20 -14 -15 -16 -17 19 -19 -20 -21 -22 -23
leaf_value=0.070046209308987348 -0.049052234824328682 -0.016825089459034451 -0.00040428420749878441 0.022549106500413731 0.029681689041947342 0.014915030195660839 0.044150056241240215 -0.074048965040870857 -0.013047854953653654 0.0018452563120335927 -0.05778965039969472 0.063061293925260511 0.059072707520133806 0.041804732737186004 -0.024919746141103271 0.041091335236200274 -0.056755890088286624 -0.030803567430098811 -0.049693123944044341 -0.074906071046429809 0.044192998657852992 -0.01309147052885249
leaf_weight=25.722932919859886 16.953235194087032 14.32477028667927 12.480812624096872 15.904808044433596 21.269988104701042 15.906040623784067 12.467948436737059 12.125594720244408 21.948022693395615 12.18712969124317 12.690444782376291 15.241034388542177 12.162291094660757 15.581124529242514 12.292258784174917 13.202657669782637 18.893130570650101 12.190012738108633 11.858739078044891 21.118383646011353 13.881431519985197 12.967897012829779
leaf_count=109 71 58 51 65 87 65 50 50 89 50 52 64 51 64 50 54 81 51 50 91 58 53
internal_value=0 -0.0379698 0.0226667 -0.00175051 0.0360934 0.0266073 0.0115496 -0.0505665 0.00798173 -0.0277658 -0.0240824 0.0404308 0.0383758 0.0593927 -0.0416166 0.0267877 -0.0592875 -0.0514918 -0.0620065 -0.0663357 0.0540676 -0.00686929
internal_weight=0 132.119 221.252 78.4985 142.753 101.449 26.7927 105.326 43.218 29.1404 50.4314 58.2312 28.0671 41.3041 24.9827 29.1087 76.1859 36.1743 23.9843 40.0115 29.1225 25.4487
internal_count=1464 552 912 322 590 417 108 444 176 121 206 241 116 173 102 119 323 151 100 172 122 104
is_linear=0
shrinkage=0.05


Tree=9
num_leaves=23
num_cat=0
split_feature=2 7 6 8 6 1 8 8 8 6 8 8 7 6 8 6 6 8 6 6 2 2
split_gain=111.054 30.1025 14.7496 37.1975 10.9197 9.47636 6.32636 5.38982 4.71786 3.64495 3.8885 4.18861 4.03046 3.56153 3.37563 2.87561 2.38294 1.46396 1.20954 0.856252 0.728594 0.244377
threshold=-0.34921776192110027 1.0000000180025095e-35 0.22411191342753375 -0.61572695749372564 -1.1673491534162468 -0.17802325277987116 0.32694800486618941 -0.4053539654280745 -0.67882490927370831 1.1179288024962033 0.75726420528498173 0.23585697113600609 0.16305576362092575 -0.69415931903500838 -0.62789354048972212 0.20137899832983347 0.70770301641497579 0.2932983601673585 -0.32767793485300895 -1.25101661411901 0.72533905175677338 -0.032462814572838623
decision_type=2 2 2 2 2 2 2 2 2 2 2 2 2 2 2 2 2 2 2 2 2 2
left_child=2 5 3 4 8 -2 -3 13 19 10 11 12 14 -7 -4 20 -16 -17 -5 -1 21 -9
right_child=1 6 9 18 -6 7 -8 15 -10 -11 -12 -13 -14 -15 16 17 -18 -19 -20 -21 -22 -23
leaf_value=0.048302149555044693 -0.0043939975720482553 0.034488148611036856 0.045772038971663334 -0.038579020376102821 0.0046944607468453695 -0.048099211749522364 -0.010879790133099006 -0.065002818885350436 0.02052260357530902 0.059157879673000117 0.0083768740226800361 0.062413606902180632 0.052496608715014138 -0.012726845100694212 0.028917924239530959 -0.057174089108049567 0.0011948161686229648 -0.033043684989504253 -0.019312581783603826 0.064733929780484603 -0.057758642009462506 -0.07446699491412391
leaf_weight=15.650950506329535 12.316827803850172 14.166862756013872 12.358422964811316 22.500179871916771 24.417116120457649 16.300673291087154 16.792370557785034 11.460299521684648 12.660838678479193 15.527325272560118 13.671570420265196 13.649545133113859 16.84020359814167 12.629910081624983 15.295665219426164 12.1015020608902 15.714762955904005 13.078336685895918 12.769466400146483 16.067150220274929 17.950580894947052 16.848458483815193
leaf_count=67 50 57 51 92 99 69 68 50 52 66 56 57 71 52 63 50 65 55 52 69 79 74
internal_value=0 -0.0337878 0.0234242 0.0101463 0.0315501 -0.0457851 0.00988046 -0.0508644 0.046326 0.0368321 0.0328717 0.0374057 0.0317364 -0.0326571 0.0236752 -0.0582377 0.014869 -0.0446408 -0.0316036 0.0566258 -0.0656388 -0.0706356
internal_weight=0 143.646 207.123 104.066 68.7961 112.687 30.9592 100.37 44.3789 103.057 87.5302 73.8586 60.2091 28.9306 43.3689 71.4392 31.0104 25.1798 35.2696 31.7181 46.2593 28.3088
internal_count=1464 604 860 431 287 479 125 429 188 429 363 307 250 121 179 308 128 105 144 136 203 124
is_linear=0
shrinkage=0.05


Tree=10
num_leaves=22
num_cat=0
split_feature=2 5 9 5 3 5 9 9 9 2 5 5 1 9 9 5 5 1 1 9 9
split_gain=101.192 27.0606 24.698 16.0354 12.8086 11.0016 10.3049 8.76488 7.4111 3.84083 3.75397 3.75324 3.44265 3.13199 1.5298 1.024 1.23363 0.444593 0.448734 0.163694 0.131701
threshold=-0.2789204717593125 0.011856526345648316 -0.33531205937486419 -0.00036601968279754423 1.0000000180025095e-35 -0.013702541834871353 -0.25842325711180469 0.3141666732351433 -0.3111114699768896 0.29623915447911636 -0.008186132070665748 0.024609325008941085 0.12022801046589721 -0.42134357070987033 -0.24441694131107569 -0.0093446672392388155 -0.0018587476884589971 -0.059516351754007123 -0.14661374092631563 -0.3867726416319347 -0.42443180189228141
decision_type=2 2 2 2 2 2 2 2 2 2 2 2 2 2 2 2 2 2 2 2 2
left_child=1 4 13 12 5 20 10 11 17 -10 -7 -4 14 -3 -2 -8 -17 18 -5 -12 -1
right_child=3 2 7 8 -6 6 15 -9 9 -11 19 -13 -14 -15 -16 16 -18 -19 -20 -21 -22
leaf_value=0.050404405016512346 -0.032793695738536251 -0.020708149568478811 0.029026543701884306 -0.061452239781302889 0.080307159154356059 -0.016846721874043204 0.025723134129900762 0.061303670066431573 -0.016742311872500307 -0.050026557631489457 0.0093485572297169767 -0.0075020795870280408 0.010564070115676845 -0.05009001441732458 -0.010625679877185348 0.048192644400529866 0.028878642043451981 -0.058407019472779258 -0.075482855171863483 0.017120189173715206 0.056777809264299865
leaf_weight=17.277472048997879 14.510362625122069 28.167999804019928 13.373947426676752 11.467322975397112 12.950774759054182 16.711215168237686 21.250320181250572 11.694963857531546 18.064165607094765 16.661977097392082 13.382862061262133 14.82918770611286 12.033370062708853 13.377286836504934 16.785053461790088 18.90627808868885 14.69255682826042 21.541629269719124 11.328331768512724 13.723815724253653 15.26905409991741
leaf_count=75 61 116 55 50 56 68 89 50 76 70 55 61 50 55 69 80 61 96 51 56 64
internal_value=0 0.0198529 -0.00318604 -0.036612 0.0328684 0.0281862 0.0198709 0.0249108 -0.0500098 -0.0327125 0.00179232 0.00981982 -0.0121647 -0.0301689 -0.0209041 0.0343136 0.0397468 -0.0635576 -0.0684248 0.0132832 0.0533945
internal_weight=0 225.608 81.4434 122.392 144.164 131.214 98.667 39.8981 79.0634 34.7261 43.8179 28.2031 43.3288 41.5453 31.2954 54.8492 33.5988 44.3373 22.7957 27.1067 32.5465
internal_count=1464 941 337 523 604 548 409 166 343 146 179 116 180 171 130 230 141 197 101 111 139
is_linear=0
shrinkage=0.05


Tree=11
num_leaves=22
num_cat=0
split_feature=2 4 4 7 4 8 8 8 4 8 7 8 2 4 1 8 1 1 8 7 8
split_gain=92.6684 28.4704 34.7828 27.5192 8.64556 11.4089 7.60436 5.47566 5.29651 3.16793 2.40547 4.08575 1.16794 1.15761 2.33481 0.709312 0.687748 0.48838 0.458911 0.381927 0.139326
threshold=-0.34921776192110027 0.0041490588724807887 -0.09809377558333375 1.0000000180025095e-35 0.11503787693604671 -0.4053539654280745 -0.61572695749372564 0.32694800486618941 -0.040671393886569936 0.72937252585963852 -0.073944482756925792 -0.50948290194935575 -0.21944614005512808 -0.10449669740605527 -0.080117019466949366 -0.014767138044064831 -0.02912422788946149 -0.1927367994443335 -0.67146383021203648 0.64865338985514631 -0.29030078779853369
decision_type=2 2 2 2 2 2 2 2 2 2 2 2 2 2 2 2 2 2 2 2 2
left_child=1 2 -1 4 5 12 -3 -5 -4 10 11 17 -2 16 -15 -6 -7 18 -10 20 -12
right_child=3 6 8 7 15 13 -8 -9 9 -11 19 -13 -14 14 -16 -17 -18 -19 -20 -21 -22
leaf_value=-0.037857835606443957 0.00038520863199921772 0.0081620018718027501 0.0099356570121587988 0.033448895006070553 -0.076285119660410086 -0.047939566422482205 -0.03748571268592607 -0.0088232559572513618 0.045847394507979033 0.016479355248541671 0.052809687040333841 0.019630526252961189 -0.019744266984696897 -0.056708119383878278 -0.029023176450587104 -0.059902377665332407 -0.064776129938023091 0.053241893808241625 0.035163946219576303 0.046428826388952162 0.060065112693033378
leaf_weight=16.823971092700958 14.631885141134264 15.920591220259665 15.16645674407482 14.143050953745844 12.727016240358354 11.888928487896921 21.370029449462891 16.713905617594719 34.026178315281861 11.915517941117285 11.539190903306007 21.078172639012337 14.198713406920431 14.245512142777445 16.363439992070198 13.73970517516136 12.382879495620726 14.191883787512777 14.266310319304472 12.593229115009306 15.511089622974396
leaf_count=69 60 65 62 57 57 53 88 68 147 50 50 87 60 61 70 63 55 61 59 55 67
internal_value=0 0.0215056 0.0303205 -0.0311827 -0.0428711 -0.0349956 -0.0179972 0.0105519 0.0379527 0.0410975 0.0434783 0.0386662 -0.00952831 -0.0483743 -0.0419078 -0.0677803 -0.0565292 0.0450877 0.0426913 0.0536215 0.0569701
internal_weight=0 204.403 167.112 141.035 110.178 83.7114 37.2906 30.857 150.288 135.122 123.206 83.5625 28.8306 54.8808 30.609 26.4667 24.2718 62.4844 48.2925 39.6435 27.0503
internal_count=1464 860 707 604 479 359 153 125 638 576 526 354 120 239 131 120 108 267 206 172 117
is_linear=0
shrinkage=0.05


Tree=12
num_leaves=19
num_cat=0
split_feature=0 1 4 9 1 4 9 5 9 0 1 5 0 5 9 9 0 1
split_gain=107.851 33.7189 16.2165 14.3493 13.0625 11.6259 8.41788 4.51552 5.86855 4.1955 4.18031 3.95076 3.79397 2.25102 1.84169 1.68179 1.11987 0.629193
threshold=0.072739405866765958 -0.17939054777316679 0.0041490588724807887 -0.3111114699768896 -0.18674239154399699 -0.040671393886569936 0.39282798832968324 -0.012775713700012899 -0.29416470837075964 -0.053653220194074154 -0.17424904585037512 -0.0087208406100071616 -0.060962243703939378 -0.0060027388683549674 -0.21331739136460881 -0.42348798120322584 -0.098755243315925417 -0.059516351754007123
decision_type=2 2 2 2 2 2 2 2 2 2 2 2 2 2 2 2 2 2
left_child=1 2 5 10 -5 -1 11 16 9 -9 15 -3 13 -10 -13 -2 -7 -12
right_child=3 6 -4 4 -6 7 -8 8 12 -11 17 14 -14 -15 -16 -17 -18 -19
leaf_value=0.0024725119433910443 -0.032332230647213599 -0.0024753838050994049 -0.0091742582201841671 0.023116199735371164 -0.039626515515469918 0.065462046223387166 0.023524521818048663 0.0018480888226738085 0.047964801508460407 0.036090200002255594 -0.073650343810790747 -0.03914855944157429 0.063203563992897643 0.022493392824004865 -0.015158812068220388 -0.056072885652258597 0.046030712650878602 -0.060736813372252056
leaf_weight=21.331262677907944 18.135807663202289 20.57648016512394 22.281487196683884 13.06791904568672 22.714688241481781 20.741514727473259 14.106425151228903 15.888831526041029 19.553902924060822 20.470304146409035 18.072109788656235 21.450708702206608 21.837205231189728 15.58893510699272 12.758815884590151 12.672249510884283 11.540361255407332 19.731331199407578
leaf_count=87 75 86 91 54 98 94 58 66 85 85 84 91 95 67 53 53 50 92
internal_value=0 0.0185697 0.0305742 -0.0423817 -0.0167127 0.0366011 -0.0109194 0.0423963 0.0368214 0.0211265 -0.0557687 -0.019788 0.0468363 0.036666 -0.0302013 -0.0420975 0.0585156 -0.0669102
internal_weight=0 238.126 169.234 104.394 35.7826 146.952 68.8924 125.621 93.3392 36.3591 68.6115 54.786 56.98 35.1428 34.2095 30.8081 32.2819 37.8034
internal_count=1464 1008 720 456 152 629 288 542 398 151 304 230 247 152 144 128 144 176
is_linear=0
shrinkage=0.05


Tree=13
num_leaves=22
num_cat=0
split_feature=0 2 6 7 2 6 6 8 2 8 6 0 0 6 7 6 6 6 0 2 0
split_gain=98.539 31.5687 28.1676 12.9001 7.28085 6.83848 10.247 5.82036 4.62734 4.35588 3.78401 3.6452 8.14135 2.67303 2.21432 1.33818 1.25291 1.23106 0.377105 0.0402986 0.00743759
threshold=0.072739405866765958 -0.34921776192110027 0.46797409356650027 1.0000000180025095e-35 -0.29865435432193121 -1.196901943043257 0.01124916296724948 -0.46322920023566166 -0.18192828119686069 -0.6528693772618076 0.93048625602674828 -0.053653220194074154 -0.08912872454683464 -0.99726561591254403 0.54000489409237595 0.6540653831627764 -1.25101661411901 -0.080715811746174385 -0.051941839079569126 1.0499628807190817 0.21571103647437356
decision_type=2 2 2 2 2 2 2 2 2 2 2 2 2 2 2 2 2 2 2 2 2
left_child=1 5 8 7 -4 16 9 -3 13 -7 11 12 15 -2 -12 -8 -1 -9 -19 20 -10
right_child=2 3 4 -5 -6 6 10 17 19 -11 14 -13 -14 -15 -16 -17 -18 18 -20 -21 -22
leaf_value=0.040131550191319108 -0.030827241269752528 0.0010639863107949779 0.026587768150157218 0.02454783506571941 -0.024553881392937512 0.017571602049178153 0.024478202691305496 -0.020516155829972991 -0.071925246576425433 -0.018076889735136475 0.065073444167007832 0.045283589715332931 -0.011615760353727746 -0.056996818028427244 0.036910456009537879 0.046401494973166382 0.059045007464586942 -0.033508434154838389 -0.046158411312381117 -0.067441086767249733 -0.070134646749296495
leaf_weight=16.870566099882126 18.16306908428669 19.167659267783165 14.52984966337681 21.276802569627762 13.357108816504477 19.516840323805809 15.190832674503328 12.830871835350989 10.719059556722643 15.276292458176611 12.169216096401216 18.685681596398354 14.507886275649069 21.085584342479706 16.365986987948418 12.847188472747801 18.205066308379173 11.915426596999167 11.653310239315035 12.524111807346342 12.635344341397284
leaf_count=76 77 79 60 86 56 81 64 56 51 62 54 80 61 90 73 55 81 50 50 60 62
internal_value=0 0.0177716 -0.0408213 -0.00855905 0.00209228 0.0304464 0.0249548 -0.0212357 -0.0567506 0.00191976 0.0338831 0.0268751 0.0187904 -0.0448863 0.0489209 0.0345236 0.0499481 -0.0329785 -0.0397631 -0.0697294 -0.0709565
internal_weight=0 236.48 103.014 76.8441 27.887 159.636 124.56 55.5673 75.1272 34.7931 89.7668 61.2316 42.5459 39.2487 28.5352 28.038 35.0756 36.3996 23.5687 35.8785 23.3544
internal_count=1464 1008 456 321 116 687 530 235 340 143 387 260 180 167 127 119 157 156 100 173 113
is_linear=0
shrinkage=0.05


Tree=14
num_leaves=22
num_cat=0
split_feature=0 1 6 9 9 6 1 0 6 0 1 8 0 0 8 6 6 8 0 9 1
split_gain=90.1744 27.7297 27.5265 8.4243 6.61314 10.8065 6.24316 4.58279 4.47761 7.72862 3.48784 3.33191 2.15324 2.12465 2.04916 2.14347 1.88063 1.84862 3.63356 0.93434 0.16585
threshold=0.05742611026926784 -0.18674239154399699 0.46797409356650027 0.39282798832968324 0.072808318070173503 -1.161769256074084 -0.18654606640298546 -0.10437071259789503 0.93048625602674828 -0.067879075708397199 -0.17424904585037512 0.23585697113600609 -0.031013074200101392 0.17934418779114172 -0.68040311346785887 -1.25101661411901 0.82053051533717813 -0.47113184273950887 -0.066310309686767585 -0.28437788844836503 0.0095533558095020014
decision_type=2 2 2 2 2 2 2 2 2 2 2 2 2 2 2 2 2 2 2 2 2
left_child=1 4 10 11 5 14 -4 -7 9 -9 13 17 -11 -2 15 -1 -6 -3 -19 20 -12
right_child=2 3 6 -5 16 7 -8 8 -10 12 19 -13 -14 -15 -16 -17 -18 18 -20 -21 -22
leaf_value=0.039204581180012715 -0.029161836371647459 -0.008596163513304729 0.027105045934158547 0.026506814784468709 0.037498879967133553 0.036569182093665928 -0.018810618777382344 -0.019512766839148335 0.035354311512873292 0.035185240839742699 -0.070045885666559712 0.0068292945520097778 0.0083933622530995306 -0.054285032829188576 0.030063066422994552 0.0671004583512054 0.064083161430094404 -0.011524962536513786 -0.046298262850583249 -0.049899514868544791 -0.062947090450285612
leaf_weight=13.010973200201986 17.342442333698273 16.610365867614743 14.192971289157869 14.677302226424215 11.964150458574297 19.253440320491791 15.475467294454573 22.867292955517769 12.951035916805266 12.113918244838716 18.373629629611969 12.780343815684317 19.687196850776672 16.348620980978012 13.267322182655333 14.628278836607935 14.985078930854796 14.631670087575911 15.43976210057736 10.729934215545653 14.900380864739416
leaf_count=60 72 69 59 61 52 83 65 94 57 51 91 54 81 70 56 68 69 61 67 50 74
internal_value=0 0.0177253 -0.0378153 -0.00741737 0.0297726 0.0250254 0.0031548 0.0150476 0.00891968 0.00265727 -0.05346 -0.015791 0.0185991 -0.0413529 0.0462153 0.0539687 0.052281 -0.0219839 -0.0293788 -0.0627296 -0.066867
internal_weight=0 228.868 107.363 74.1394 154.729 127.779 29.6684 86.8729 67.6194 54.6684 77.695 59.4621 31.8011 33.6911 40.9066 27.6393 26.9492 46.6818 30.0714 44.0039 33.274
internal_count=1464 983 481 312 671 550 124 366 283 226 357 251 132 142 184 128 121 197 128 215 165
is_linear=0
shrinkage=0.05


Tree=15
num_leaves=22
num_cat=0
split_feature=0 1 7 4 7 4 1 1 0 4 1 0 0 0 0 0 7 7 4 1 0
split_gain=82.7135 26.0405 23.7771 14.6198 13.9044 12.1439 6.44181 3.83946 3.7971 3.64609 3.37041 1.12984 4.91865 1.72368 1.08512 0.759423 0.882242 0.572933 0.351688 0.338597 0.100399
threshold=0.072739405866765958 -0.17443281744993083 -0.29484907593518239 0.0041490588724807887 0.079035742145959084 -0.040671393886569936 -0.17939054777316679 -0.17424904585037512 0.17934418779114172 -0.017832946620811606 -0.085810326082708901 -0.060962243703939378 -0.079858743509932398 -0.026021545949461721 -0.1008944697090567 -0.12116363978397562 -0.073944482756925792 -0.28887240634258254 0.0098042934335257088 -0.0034054507065867335 0.21820680059969341
decision_type=2 2 2 2 2 2 2 2 2 2 2 2 2 2 2 2 2 2 2 2 2
left_child=1 3 7 5 9 -1 -4 8 -2 -3 -11 12 14 -13 15 -7 -17 -15 19 -9 -20
right_child=2 4 6 -5 -6 11 -8 18 -10 10 -12 13 -14 17 -16 16 -18 -19 20 -21 -22
leaf_value=-0.0016791869604069684 -0.022793273578771228 -0.0054782052156479308 0.030126363616928272 -0.010645326595949391 0.030475473686790835 0.03765486685926709 -0.020612968640008944 -0.064244772727403143 -0.05649473521553941 -0.049776511183046344 -0.017172090246999526 0.05503828282696839 0.0054588471330545849 0.029560916242705116 0.029070048591518061 0.041767470929418272 0.061008482831789106 0.044072114177709364 -0.07032031976222837 -0.051334191909670403 -0.063429037951713382
leaf_weight=21.895018890500069 16.801249906420708 18.242431238293648 12.203135669231417 22.564358398318291 15.839805886149405 22.008529067039486 12.834562435746191 9.9183892309665698 16.630996555089951 15.911542683839798 15.794012397527695 21.937766700983047 11.950728818774222 14.801586896181108 15.500519961118696 13.110814183950422 10.919449478387838 12.585735127329825 10.480960845947267 10.407161071896551 10.661757305264471
leaf_count=90 70 79 51 93 64 103 55 50 72 68 67 98 52 62 68 57 50 57 52 51 55
internal_value=0 0.0163071 -0.0380653 0.0267885 -0.0103431 0.0326254 0.0041169 -0.052166 -0.0395582 -0.0232877 -0.0335347 0.0387411 0.0348122 0.0445949 0.0405125 0.044365 0.0505107 0.0362295 -0.0623305 -0.0576343 -0.0668452
internal_weight=0 233.062 99.9382 167.275 65.7878 144.71 25.0377 74.9005 33.4322 49.948 31.7056 122.815 73.49 49.3251 61.5393 46.0388 24.0303 27.3873 41.4683 20.3256 21.1427
internal_count=1464 1008 456 730 278 637 106 350 142 214 135 547 330 217 278 210 107 119 208 101 107
is_linear=0
shrinkage=0.05


Tree=16
num_leaves=21
num_cat=0
split_feature=0 1 7 7 5 1 7 8 8 1 0 1 0 0 5 0 5 1 8 8
split_gain=75.7265 23.737 22.1025 12.6031 9.30685 5.86249 5.39024 5.7636 4.8588 3.85981 3.56062 3.38592 2.82159 1.96053 1.95541 1.06893 0.946589 0.312812 0.323691 0.0738561
threshold=0.072739405866765958 -0.17443281744993083 -0.29484907593518239 0.045065858539844947 -0.014032278767465227 -0.17636208244293414 -0.073944482756925792 -0.63429816737776656 -0.4053539654280745 -0.17424904585037512 0.17934418779114172 -0.080117019466949366 -0.051941839079569126 -0.098755243315925417 0.0044574969325114769 -0.053653220194074154 -0.0093446672392388155 -0.0034054507065867335 0.17153893735277428 -0.028351431862185427
decision_type=2 2 2 2 2 2 2 2 2 2 2 2 2 2 2 2 2 2 2 2
left_child=1 4 9 8 13 -4 7 15 -3 10 -2 -10 -9 -1 16 -6 -8 19 -19 -11
right_child=2 3 5 -5 6 -7 14 12 11 17 -12 -13 -14 -15 -16 -17 -18 18 -20 -21
leaf_value=0.060771065791532811 -0.021716297664661696 -0.0022940225650165363 0.027864556898197019 0.027444826920094534 0.018593293507289509 -0.020644815134187963 0.030957478192479168 -0.011879313556928287 -0.054596224636271645 -0.06862259218478077 -0.054497211126061665 -0.02083245797339011 0.01310828509041902 0.034433357502736288 0.020632840947501993 0.034324450375034544 0.049179572994011406 -0.050659820531744205 -0.063057278406298059 -0.062427082372509615
leaf_weight=18.737656086683277 16.753973692655563 18.183661371469498 12.623521819710733 16.821185603737831 23.437224149703979 12.294120162725447 12.123758003115656 23.099211126565933 12.756654039025308 9.7512183636426943 16.384847819805145 17.767009243369102 22.112527385354042 11.343041628599165 17.689713582396507 20.025212585926056 17.292225614190102 10.720803439617159 10.346195816993712 9.4934464246034604
leaf_count=91 70 76 53 68 99 53 55 97 57 50 72 77 92 51 80 86 79 54 54 50
internal_value=0 0.0156099 -0.0367613 -0.0098683 0.0256758 0.00393051 0.0201011 0.0128401 -0.0227545 -0.0505658 -0.0379242 -0.0349432 0.000341826 0.0508395 0.0337695 0.0258414 0.0416694 -0.060958 -0.0567483 -0.0655663
internal_weight=0 231.389 98.3681 65.5285 165.861 24.9176 135.78 88.6742 48.7073 73.4505 33.1388 30.5237 45.2117 30.0807 47.1057 43.4624 29.416 40.3117 21.067 19.2447
internal_count=1464 1008 456 278 730 106 588 374 210 350 142 134 189 142 214 185 134 208 108 100
is_linear=0
shrinkage=0.05


Tree=17
num_leaves=21
num_cat=0
split_feature=1 4 4 9 5 5 9 5 2 4 5 5 5 4 9 9 5 1 1 9
split_gain=54.9412 20.7928 25.8505 15.5755 10.2634 6.83446 10.0153 4.25173 3.81744 4.84156 3.08565 1.55546 1.74474 1.27072 1.09796 1.41 0.869247 0.713693 0.595962 0.31567
threshold=-0.18674239154399699 -0.09809377558333375 1.0000000180025095e-35 0.39282798832968324 0.012919259567589379 -0.012258828778649531 -0.29416470837075964 0.028089386419154799 0.54874368880127777 -0.0026480980518520498 0.0077080792612578344 0.0064292346713329474 0.024876679278611796 -0.057487560117369378 -0.3243033889757953 -0.4237061127843697 -0.0060027388683549674 -0.045239178437906702 -0.15020797293708651 -0.41435479020244509
decision_type=2 2 2 2 2 2 2 2 2 2 2 2 2 2 2 2 2 2 2 2
left_child=1 -1 5 4 8 19 14 17 9 13 -4 16 -13 -2 15 -7 -8 18 -6 -3
right_child=3 2 10 -5 7 6 11 -9 -10 -11 -12 12 -14 -15 -16 -17 -18 -19 -20 -21
leaf_value=-0.036208283843098869 -0.026242077725016438 0.0544544958763237 -0.00097520113688164911 0.015741355920881408 -0.057306531527817818 -0.00072072395825192089 0.039250561508982457 -0.021752226180661197 0.005626902800431953 -0.049157488636291095 -0.029941165678993811 0.061460507238570931 0.034412127240266439 -0.0052923973153442411 -0.0061605587793888235 0.021153006173391688 0.024142742565387367 -0.061740726023744467 -0.041183696357634941 0.044424348884497991
leaf_weight=16.716329872608185 11.740678116679186 23.282362520694733 18.82245346903801 20.281288132071495 10.840001627802847 12.885707959532736 20.017445921897888 12.63396944105625 13.963134899735449 13.62254625558853 17.973702624440193 12.287953287363054 11.580833598971365 18.874862134456642 11.891072437167166 17.203497514128689 18.15696220099926 19.743643254041672 12.162407740950586 11.830259650945662
leaf_count=71 52 114 78 86 51 56 91 62 61 61 77 55 52 81 50 72 82 99 60 53
internal_value=0 0.0170817 0.0221451 -0.0246202 -0.0318272 0.0320014 0.0255631 -0.0472354 -0.0171659 -0.0243601 -0.0151241 0.0383249 0.048337 -0.0133263 0.00670227 0.0117856 0.0320648 -0.0547672 -0.0487817 0.0510751
internal_weight=0 192.649 175.932 133.863 113.581 139.136 104.023 55.38 58.2012 44.2381 36.7962 62.0432 23.8688 30.6155 41.9803 30.0892 38.1744 42.7461 23.0024 35.1126
internal_count=1464 851 780 613 527 625 458 272 255 194 155 280 107 133 178 128 173 210 111 167
is_linear=0
shrinkage=0.05


Tree=18
num_leaves=23
num_cat=0
split_feature=0 7 8 7 4 9 0 4 4 0 4 9 0 8 0 8 8 9 9 0 7 8
split_gain=65.0507 22.9445 15.0459 23.0049 12.9797 7.55131 3.89231 3.52723 6.16496 3.08209 4.42377 5.49415 3.36964 2.79429 2.51201 1.73046 1.42903 1.13058 0.912377 0.819043 0.757787 0.474951
threshold=0.05742611026926784 -0.28887240634258254 -0.64127108723410242 -0.073944482756925792 0.0041490588724807887 0.39282798832968324 -0.10693778426965259 0.096005837547914766 -0.045633318441332914 -0.10173233337969979 -0.017832946620811606 -0.3124623067283287 -0.013899263055051113 0.027431926988500981 -0.072014913401784342 1.2347032772289472 0.045465059890294764 -0.4251979883872799 -0.41435479020244509 -0.031013074200101392 0.30247825121746341 -0.29421336983204216
decision_type=2 2 2 2 2 2 2 2 2 2 2 2 2 2 2 2 2 2 2 2 2 2
left_child=2 7 6 4 9 13 17 8 16 -4 12 -12 -11 20 -8 -3 -2 -1 21 -16 -5 -9
right_child=1 15 3 5 -6 -7 14 18 -10 10 11 -13 -14 -15 19 -17 -18 -19 -20 -21 -22 -23
leaf_value=0.040788445773321962 -0.043404971838315619 0.020893716326984637 0.021192648303253573 0.01980913124020468 -0.044738319569511763 0.057759084006922361 0.0097232783627500905 -0.046412396873662283 -0.013784169356658438 -0.040149681384189471 -0.017050505109091701 0.026993879078736061 -0.0021481809236086669 0.0054383535849540331 0.041843956104511158 -0.0047814582099570228 -0.066905437658601338 0.062302868009587287 -0.071637783742118016 0.025002429099406139 0.036886317985529438 -0.0616425936806035
leaf_weight=13.953596606850626 16.281254053115848 11.916246578097345 14.016148239374159 11.291381224989893 21.002320766448975 16.730090871453285 16.117771059274673 10.515432432293895 16.271434605121613 11.822516560554506 12.506529524922369 16.319581404328353 11.515151798725123 21.648814454674721 16.145289286971096 14.607109427452086 10.733479350805281 10.858001351356505 11.076669678092001 13.057612672448156 15.296408608555792 9.9744864106178284
leaf_count=71 78 51 60 50 90 79 68 50 74 50 53 71 50 93 73 63 55 50 55 56 69 55
internal_value=0 -0.0332068 0.0151235 0.00629159 -0.0104917 0.028814 0.0342838 -0.0473665 -0.0380977 0.000376527 -0.00521666 0.00788473 -0.0213992 0.0187748 0.0255683 0.00675372 -0.0527422 0.0502035 -0.0600764 0.0343135 0.0296339 -0.0538265
internal_weight=0 101.376 222.281 152.149 87.1822 64.9667 70.1323 74.8528 43.2862 66.1799 52.1638 28.8261 23.3377 48.2366 45.3207 26.5234 27.0147 24.8116 31.5666 29.2029 26.5878 20.4899
internal_count=1464 481 983 665 374 291 318 367 207 284 224 124 100 212 197 114 133 121 160 129 119 105
is_linear=0
shrinkage=0.05


Tree=19
num_leaves=22
num_cat=0
split_feature=0 6 3 1 7 1 0 0 6 1 7 6 0 6 6 6 0 6 6 1 6
split_gain=59.5045 21.904 20.4362 15.725 14.1335 5.97791 4.56642 5.99012 7.91052 3.28358 2.8357 2.62743 2.3836 3.31288 1.97528 1.48109 1.20455 0.808312 2.61564 0.612214 0.407742
threshold=0.05742611026926784 0.35442643759360382 1.5918796184818247 -0.1721312327883841 1.0000000180025095e-35 -0.18654606640298546 -0.10387155977283108 -0.067879075708397199 0.93048625602674828 -0.17424904585037512 -0.024519686500776097 -0.99726561591254403 -0.081445336418171435 -0.2925452478838359 -1.196901943043257 -0.26061049617968818 -0.0907331443416831 0.6373444633575871 -1.1834688568491614 -0.022688425224180759 -0.55914034312050254
decision_type=2 2 2 2 2 2 2 2 2 2 2 2 2 2 2 2 2 2 2 2 2
left_child=2 9 3 6 12 -3 17 8 16 11 14 -2 -5 -14 -9 -16 -8 18 -1 -11 -21
right_child=1 5 -4 4 -6 -7 7 10 -10 19 -12 -13 13 -15 15 -17 -18 -19 -20 20 -22
leaf_value=0.042819589995198123 -0.019055417778582068 0.02580952399262583 0.07423693166561561 -0.0090288240938707787 0.027079650651710398 -0.017824135876832545 -0.0047727380131801006 0.03117740480319733 0.034097439340479506 -0.065290496319725014 0.039601127761681378 -0.048478238059997292 -0.015825275634405594 -0.049757684398281252 -0.0013351646407093372 0.020361775379741886 -0.025084777804800003 0.043653700085217129 0.011915317693983952 -0.044357433412657229 -0.058336095337863353
leaf_weight=14.953699097037314 13.251589879393579 14.6487133204937 13.437744647264479 13.261264964938162 17.258421286940575 16.911853224039078 14.507965579628943 15.641877844929693 11.415589541196821 16.045715689659119 18.855358153581619 17.751898750662804 12.99754945933819 16.107075065374374 15.842659607529638 15.620811879634859 14.68878957629204 13.360053688287733 12.628999054431917 9.1120902597904223 12.202800929546354
leaf_count=76 57 62 64 56 70 74 61 71 54 91 89 80 58 72 65 67 62 63 55 50 67
internal_value=0 -0.0320256 0.0144841 0.0106078 -0.0110613 0.00242826 0.0193662 0.0139136 -0.00119337 -0.0479313 0.0232151 -0.0359023 -0.0265986 -0.0346041 0.016656 0.00943681 -0.0149917 0.0335592 0.0286698 -0.0579136 -0.0523602
internal_weight=0 99.9247 220.578 207.14 59.6243 31.5606 147.516 106.573 40.6123 68.3641 65.9607 31.0035 42.3659 29.1046 47.1053 31.4635 29.1968 40.9428 27.5827 37.3606 21.3149
internal_count=1464 481 983 919 256 136 663 469 177 345 292 137 186 130 203 132 123 194 131 208 117
is_linear=0
shrinkage=0.05


Tree=20
num_leaves=22
num_cat=0
split_feature=0 7 8 7 4 9 0 4 4 8 0 4 9 9 0 8 8 0 9 7 8
split_gain=54.7063 18.0786 13.189 18.8085 12.2369 7.509 3.57838 3.23013 5.6302 2.80729 2.69523 4.48708 4.8232 4.6436 1.99151 1.16602 1.05195 1.00624 0.931956 0.695439 0.496439
threshold=0.072739405866765958 -0.26874941785712086 -0.64612888806734958 -0.073944482756925792 0.0041490588724807887 0.39282798832968324 -0.10693778426965259 0.054135350894024478 -0.045633318441332914 0.027431926988500981 -0.10173233337969979 -0.017832946620811606 -0.3124623067283287 -0.28880590666741351 -0.067879075708397199 1.4894207902002412 0.045465059890294764 -0.031013074200101392 -0.41435479020244509 0.30247825121746341 -0.254410458060148
decision_type=2 2 2 2 2 2 2 2 2 2 2 2 2 2 2 2 2 2 2 2 2
left_child=2 7 6 4 10 9 -1 8 16 19 -4 13 -13 -12 -8 -3 -2 -16 20 -5 -9
right_child=1 15 3 5 -6 -7 14 18 -10 -11 11 12 -14 -15 17 -17 -18 -19 -20 -21 -22
leaf_value=0.047318078022432715 -0.042105855760476429 0.0161612707004757 0.020375162956007872 0.017750083760265069 -0.042060136303561833 0.055301673739418737 0.0096651312130691582 -0.043371458166227207 -0.010909495674049328 0.0032217367831031958 0.00043982196424822447 -0.014545519193698848 0.026038177568996037 -0.043000381454384312 0.040250550849247009 -0.0059814423585656676 -0.063427261503494259 0.021318270469922802 -0.069301119909681089 0.034247446702696201 -0.059420285929360599
leaf_weight=23.672171339392662 14.868275061249735 12.052521854639055 14.119129821658133 11.135896414518358 21.836614266037941 16.179148778319359 16.783989295363426 10.143892526626589 14.343843579292296 22.866978004574776 13.134449973702433 12.689432978630064 17.304911747574813 11.572066977620119 15.043863385915758 11.73354299366474 9.4694316536188108 13.156031325459479 10.860212758183478 14.98308292031288 9.1786501109600085
leaf_count=120 74 52 61 50 95 79 71 50 66 99 57 54 76 50 70 51 52 57 57 69 54
internal_value=0 -0.0323423 0.013324 0.00527922 -0.00944867 0.0257684 0.0315825 -0.0453228 -0.0357572 0.0160141 0.000898969 -0.00412813 0.0088688 -0.0199068 0.0233018 0.00523838 -0.0504017 0.0314181 -0.0575818 0.0272138 -0.050995
internal_weight=0 92.6504 224.478 155.822 90.6566 65.1651 68.6561 68.8643 38.6816 48.986 68.82 54.7009 29.9943 24.7065 44.9839 23.7861 24.3377 28.1999 30.1828 26.119 19.3225
internal_count=1464 456 1008 690 393 297 318 353 192 218 298 237 130 107 198 103 126 127 161 119 104
is_linear=0
shrinkage=0.05


Tree=21
num_leaves=24
num_cat=0
split_feature=0 6 0 7 8 5 0 5 6 6 0 0 6 6 0 5 5 0 0 7 6 6 6
split_gain=50.0846 19.0428 12.3547 8.89637 14.5854 5.70317 4.84714 4.48554 4.45526 3.55898 2.92169 2.40129 3.5684 2.22622 1.92861 1.8896 1.78789 1.71366 1.34819 0.959127 0.830538 0.556149 0.312325
threshold=0.072739405866765958 0.35442643759360382 -0.10437071259789503 -0.024519686500776097 -0.62500094090265224 -0.012526183048320238 0.040098376484904434 0.0085903483511711697 -0.99726561591254403 0.7934681051926632 -0.11920268225693863 -0.0907331443416831 0.5423727247953376 -0.87194735972613324 0.17310477747784211 -0.00036601968279754423 -0.0088166425566391666 -0.018908618192300195 -0.048126885345151665 0.46693748527554352 -0.13812664804640409 -1.2446410647484276 -0.68107143318998575
decision_type=2 2 2 2 2 2 2 2 2 2 2 2 2 2 2 2 2 2 2 2 2 2 2
left_child=2 8 5 4 13 21 7 11 14 -3 -7 -6 18 16 -2 19 -4 -17 -13 -5 22 -1 -10
right_child=1 9 3 15 6 10 -8 -9 20 -11 -12 12 -14 -15 -16 17 -18 -19 -20 -21 -22 -23 -24
leaf_value=0.044599538112158776 -0.013207566587297173 -0.015232937456994916 0.047300238965065085 0.041331055517051178 -0.0090012475896182331 0.00045849386712542645 0.012888974082747185 0.0029391798865530702 -0.05550818680456146 0.019539635681157096 0.032942443488049276 -0.011314659041912131 -0.057366316885760243 0.0087574438137326717 -0.043039792326682556 0.00054671611106862385 0.020284258385299871 0.026476230702487676 -0.035507093897723836 0.022272567679452626 -0.045679727342246845 0.060781351801075127 -0.066094485518302881
leaf_weight=9.2727085947990435 10.404189154505731 14.95763371884823 10.480907663702967 14.896610572934152 12.323874056339262 11.549032151699068 13.427209526300429 15.675337195396422 12.320346489548681 14.484142377972601 17.277671784162521 11.598017141222948 11.564439252018927 18.729861080646515 11.303749755024908 12.406209826469423 14.732188567519186 13.100639283657072 11.438324809074407 11.85501156747341 11.738049522042273 12.424151062965391 16.035104826092724
leaf_count=51 48 66 50 67 53 52 59 68 68 62 79 51 50 79 59 56 65 60 51 55 62 62 91
internal_value=0 -0.0312205 0.0127612 0.00638341 -0.00111667 0.0345023 -0.0143708 -0.0202178 -0.0469864 0.00187374 0.0199282 -0.0279535 -0.0347038 0.0218148 -0.0287418 0.0236014 0.0315146 0.0138644 -0.023327 0.0328853 -0.0568647 0.0538656 -0.0614948
internal_weight=0 91.2432 222.752 172.229 119.97 50.5236 76.0272 62.6 61.8014 29.4418 28.8267 46.9247 34.6008 43.943 21.7079 52.2585 25.2131 25.5068 23.0363 26.7516 40.0935 21.6969 28.3555
internal_count=1464 456 1008 764 526 244 332 273 328 128 131 205 152 194 107 238 115 116 102 122 221 113 159
is_linear=0
shrinkage=0.05


Tree=22
num_leaves=22
num_cat=0
split_feature=0 3 6 0 9 4 4 6 9 9 0 4 6 0 6 4 6 6 0 9 9
split_gain=45.8849 18.9057 18.4443 10.2671 8.26299 6.73679 8.15614 5.46341 5.12414 5.07001 4.65812 4.19879 4.02637 3.77888 3.03504 1.70912 1.5442 1.21474 1.08122 0.858826 0.49892
threshold=0.05742611026926784 1.5918796184818247 0.35442643759360382 -0.10437071259789503 0.39282798832968324 -0.038346766218448104 -0.012082551862826028 0.81625605771112941 -0.29805063414582172 -0.29491379151182412 -0.053653220194074154 0.054135350894024478 0.82053051533717813 -0.0056632414414956563 -0.99726561591254403 0.0093284924488224088 -0.15614775729763417 -0.13812664804640409 -0.076649903920235463 -0.12356650226609027 -0.42429043483145978
decision_type=2 2 2 2 2 2 2 2 2 2 2 2 2 2 2 2 2 2 2 2 2
left_child=1 3 14 16 5 8 9 -6 -5 10 -7 -8 -4 -12 15 -2 -1 20 -11 -18 -16
right_child=2 -3 12 4 7 6 11 -9 -10 18 13 -13 -14 -15 17 -17 19 -19 -20 -21 -22
leaf_value=0.018880954386503536 -0.016852279966960117 0.071659863361572915 -0.013986776479556066 -0.0020156009779380393 0.007218580168694734 -0.025672791167260508 -0.032265809292897123 0.055635511558237274 -0.043088200197606896 0.03922547923728105 0.029180390543688806 0.0038092211205377462 0.02201537874474617 -0.0088838653953512408 -0.064777252011250855 -0.044828480246246263 0.029251293056923505 -0.039598488879784656 0.020753742747374859 0.047159394979465225 -0.051595238759762102
leaf_weight=18.636104136705399 12.360016867518427 12.812576800584791 16.82071261107922 15.221290722489359 12.151250571012499 11.247194409370421 18.310656577348709 11.194070294499396 15.153892159461973 13.156564950942991 15.075169399380682 14.416232362389563 14.426644742488859 11.489941701292993 13.668732136487959 9.7782051861286146 14.348607435822489 13.331701532006262 19.911675930023193 12.551205798983572 15.116318479180338
leaf_count=96 59 64 74 65 54 48 79 56 65 61 69 62 62 50 82 51 66 70 90 58 83
internal_value=0 0.0127552 -0.0288743 0.00903491 0.00298337 -0.00179975 0.00427091 0.0304345 -0.0225063 0.0138034 0.00129792 -0.0163747 0.00263512 0.0127168 -0.0441974 -0.0292091 0.0299432 -0.0520759 0.0281029 0.037607 -0.0578548
internal_weight=0 215.676 95.5023 202.864 157.328 133.983 103.607 23.3453 30.3752 70.8805 37.8123 32.7269 31.2474 26.5651 64.255 22.1382 45.5359 42.1168 33.0682 26.8998 28.7851
internal_count=1464 983 481 919 699 589 459 110 130 318 167 141 136 119 345 110 220 235 151 124 165
is_linear=0
shrinkage=0.05


Tree=23
num_leaves=22
num_cat=0
split_feature=2 7 5 9 8 7 5 2 2 9 5 5 8 8 9 5 8 5 7 9 9
split_gain=37.1576 14.9444 13.7749 16.9921 6.66477 5.77303 4.89319 4.54122 3.24893 2.78729 4.79886 2.18412 2.01469 1.8862 1.68498 2.37684 1.23372 1.21484 2.1953 1.21161 1.03357
threshold=-0.2789204717593125 0.079035742145959084 -0.013147781725304635 -0.27079824480334674 -0.64612888806734958 -0.24888098235286185 -0.0087208406100071616 -0.35303533814969706 -0.08336383095412854 0.33550235967990105 0.015586118407554693 0.0017059759071504411 -0.67434597041932187 -0.68143742991321543 -0.36584581286869411 0.017858629699755709 -0.41036068923500013 0.00018874042676917497 -0.14079717057673519 -0.42407168329932038 -0.23289055712922499
decision_type=2 2 2 2 2 2 2 2 2 2 2 2 2 2 2 2 2 2 2 2 2
left_child=2 6 12 4 11 14 -2 9 16 10 17 -4 -1 -13 15 -6 -8 18 -5 -10 -21
right_child=1 -3 3 7 5 -7 8 -9 19 -11 -12 13 -14 -15 -16 -17 -18 -19 -20 20 -22
leaf_value=0.051857905231027984 -0.011925486300264479 0.010908370178809766 0.021837918046408632 0.0084128160235964512 -0.0079444227195141475 0.00578458159981797 -0.03704929706903206 -0.0058375867015812016 -0.060496166424737187 0.044029326846865939 -0.0058975875204699962 -0.016171281668698637 0.027016927880043857 0.011658015788875889 -0.047397436669746489 -0.040479827989414435 -0.012490151232680186 0.041794917924818181 0.038369436088330253 -0.03212106774532951 -0.051559104120692235
leaf_weight=19.863879695534706 18.823311701416969 23.581289887428284 14.816670790314673 12.16087386012077 11.316078335046766 14.196224495768545 10.114975184202196 11.667916327714918 14.705204129219053 19.297011524438858 12.01971399784088 12.400016546249388 13.855729192495344 11.962575227022173 11.835049316287042 11.13898593187332 10.34215174615383 14.369262754917143 12.302820563316349 12.53546120226383 15.04851780831814
leaf_count=110 84 98 65 53 49 61 52 51 92 97 53 55 64 53 51 53 55 65 61 69 73
internal_value=0 -0.0241493 0.0124647 0.00665801 -0.00863662 -0.0210293 -0.0342843 0.0230459 -0.0409917 0.02785 0.0217104 0.0067 0.0416505 -0.00250648 -0.0321304 -0.0240838 -0.0246334 0.0302558 0.023478 -0.0489049 -0.0427255
internal_weight=0 105.151 203.203 169.483 87.6656 48.4863 81.5696 81.8176 62.7463 70.1497 50.8527 39.1793 33.7196 24.3626 34.2901 22.4551 20.4571 38.833 24.4637 42.2892 27.584
internal_count=1464 523 941 767 387 214 425 380 341 329 232 173 174 108 153 102 107 179 114 234 142
is_linear=0
shrinkage=0.05


Tree=24
num_leaves=22
num_cat=0
split_feature=0 7 2 0 2 2 7 0 0 8 7 8 0 2 8 0 0 0 0 1 0
split_gain=39.8085 14.4768 13.8536 8.35774 6.71714 6.36536 5.32968 5.06153 2.3684 5.17219 3.30333 4.69254 1.88086 1.87604 1.46789 1.60747 1.06519 0.872228 1.2949 0.0734313 0.00588542
threshold=0.072739405866765958 -0.29484907593518239 -0.35239167402163057 -0.10347936826742367 -0.18192828119686069 -0.29865435432193121 0.094633693523342347 0.027726517177961821 -0.10993270122003639 -0.67882490927370831 -0.16961106237505111 -0.5575960489580728 0.17934418779114172 -0.1714889216284749 -0.68143742991321543 -0.059892630507373736 -0.047413809880774573 -0.060962243703939378 -0.09412025279747431 0.29842418422196698 0.1655996582152732
decision_type=2 2 2 2 2 2 2 2 2 2 2 2 2 2 2 2 2 2 2 2 2
left_child=2 4 8 -4 12 -3 7 13 9 -1 11 14 -2 -5 15 -10 -13 18 -12 20 -6
right_child=1 5 3 6 19 -7 -8 -9 10 -11 17 16 -14 -15 -16 -17 -18 -19 -20 -21 -22
leaf_value=0.051467414193609097 -0.015637705506771685 0.031039858333051163 0.03182761932849508 -0.017178168425334643 -0.06311827542528213 -0.020289140299690377 0.012563337584103947 0.0050694088368387451 -0.00048198290693981372 0.009765338603739784 0.034851128974173688 -0.015827484671403852 -0.038278978281292994 -0.0401373582359991 0.030918166762119993 0.026024710443735152 0.0045992213754360326 0.036424741390408223 0.0097944128620369251 -0.056263971399309304 -0.06132238434492672
leaf_weight=17.072586938738826 17.77169306576252 11.608644813299181 12.747442334890364 15.615953445434565 7.8509212136268678 12.591291904449461 16.219585105776787 14.067261442542074 11.840196251869203 13.171768963336943 9.8183707147836703 13.455931007862093 18.9571543186903 20.680954322218899 19.774611577391624 11.064725786447523 12.140522748231886 19.542011216282845 10.858745977282522 7.6589243561029425 10.889975383877752
leaf_count=97 80 50 55 66 49 56 67 64 51 63 50 58 98 95 89 53 51 97 52 49 74
internal_value=0 -0.0285469 0.0114029 -0.00526308 -0.0411513 0.00433324 -0.0123641 -0.0203919 0.0209325 0.0333057 0.0174833 0.0107872 -0.0273237 -0.0302597 0.0209385 0.0123227 -0.006139 0.0288507 0.0216924 -0.0603889 -0.0620747
internal_weight=0 87.3286 218.071 79.3312 63.1287 24.1999 66.5838 50.3642 138.739 30.2444 108.495 68.276 36.7288 36.2969 42.6795 22.9049 25.5965 40.2191 20.6771 26.3998 18.7409
internal_count=1464 456 1008 347 350 106 292 225 661 160 501 302 178 161 193 104 109 199 102 172 123
is_linear=0
shrinkage=0.05


Tree=25
num_leaves=21
num_cat=0
split_feature=0 3 7 2 7 2 2 8 7 8 0 0 0 0 0 8 0 0 2 0
split_gain=36.5 18.4481 13.4816 10.5145 8.91242 6.66145 5.78517 3.14376 2.21958 6.43403 2.15888 2.91269 1.77367 1.44857 0.847107 1.13338 0.605544 0.492373 0.0723262 0.00568247
threshold=0.072739405866765958 1.5918796184818247 -0.29484907593518239 -0.35239167402163057 1.0000000180025095e-35 -0.18192828119686069 -0.29865435432193121 -0.46322920023566166 -0.16269070682347467 -0.62500094090265224 -0.10693778426965259 -0.05543590885501689 0.17934418779114172 -0.072727988866161455 -0.060962243703939378 -0.28239814529468649 0.0057103122153190156 -0.085402905245464303 1.0993057027213522 0.21571103647437356
decision_type=2 2 2 2 2 2 2 2 2 2 2 2 2 2 2 2 2 2 2 2
left_child=1 3 5 8 7 12 -4 -5 9 10 -1 -12 -2 -9 15 -10 -15 -11 19 -7
right_child=2 -3 6 4 -6 18 -8 13 14 17 11 -13 -14 16 -16 -17 -18 -19 -20 -21
leaf_value=0.036263196808742439 -0.014913846941658433 0.07013079438982274 0.029706266543705243 -0.0020468931256994879 0.01885814463459088 -0.062391393263420185 -0.019384183929854571 -0.012652848492646404 0.029974501381068726 0.0015031891217631309 -0.0018377559137022039 0.027177578045830736 -0.037014353298167213 -0.041575631791292977 0.033507753895315941 0.0086479598091574218 -0.025436001906924788 -0.011554475573854674 -0.055750266099242211 -0.060573617894071986
leaf_weight=17.639821365475655 17.704306811094284 12.399254888296126 11.525451675057413 19.087291181087494 22.903387427330017 8.3203656971454674 12.521970018744467 11.396467581391333 12.498409360647203 11.471096426248552 15.036826282739638 20.36103293299675 18.632960081100464 13.022173449397089 18.31708075106144 12.420991629362105 10.495769828557966 19.478281706571579 8.215681463479994 8.8960347250103933
leaf_count=97 80 65 50 81 96 54 56 50 64 50 64 95 98 61 92 61 50 82 55 63
internal_value=0 0.0109143 -0.027618 0.00731732 -0.00727816 -0.0399832 0.00414389 -0.0183632 0.0161401 0.0114016 0.0219732 0.014852 -0.0262465 -0.0272831 0.0253447 0.0193444 -0.0343727 -0.00671477 -0.0596102 -0.0614521
internal_weight=0 216.528 85.8168 204.129 76.9051 61.7693 24.0474 54.0017 127.224 83.9871 53.0377 35.3979 36.3373 34.9144 43.2365 24.9194 23.5179 30.9494 25.4321 17.2164
internal_count=1464 1008 456 943 338 350 106 242 605 388 256 159 178 161 217 125 111 132 172 117
is_linear=0
shrinkage=0.05


Tree=26
num_leaves=22
num_cat=0
split_feature=3 1 6 4 4 4 8 4 1 1 6 8 6 4 1 6 6 4 8 4 8
split_gain=30.2349 25.4896 13.2905 12.1124 15.3979 5.42441 4.85344 3.96783 3.82131 2.65625 2.42503 2.76157 2.44815 2.18827 2.03478 2.01336 2.53274 1.96997 1.50515 0.491975 0.169314
threshold=1.0000000180025095e-35 -0.18674239154399699 0.26751111497768892 -0.040671393886569936 1.0000000180025095e-35 -0.068648491787123886 -0.64917712787422632 0.02218871334966014 -0.11918682479042282 -0.1927367994443335 -0.15614775729763417 0.63175164787093718 -1.196901943043257 0.21427636803130615 -0.16431092759249516 0.82053051533717813 0.58163866905500172 -0.09809377558333375 -0.4053539654280745 -0.19431432900418938 -0.14456676280111544
decision_type=2 2 2 2 2 2 2 2 2 2 2 2 2 2 2 2 2 2 2 2 2
left_child=1 3 13 17 9 -4 -6 8 -7 10 12 15 -5 14 -3 16 -12 -1 -16 -20 -17
right_child=-2 2 5 4 6 7 -8 -9 -10 -11 11 -13 -14 -15 18 20 -18 -19 19 -21 -22
leaf_value=-0.033472003598507452 0.07192356715411645 -0.013190179199388422 -0.03432192122965657 0.022723299597139562 0.0096428190188968584 -0.00079569919053907711 -0.029268992137291602 -0.014367029093982076 0.036853441537744558 0.042843548132329289 0.037324439450895523 0.0042911297697389777 -0.0048756657137353386 -0.054471581680190562 -0.024208528252580682 0.039398990242371396 0.0044380247212888451 -0.0064238496686755703 -0.053589276109551526 -0.039062500186517725 0.048135070923634643
leaf_weight=15.118297159671785 13.922746032476423 10.996326148509977 11.445287033915518 17.546810105443001 13.012174442410467 14.940864756703375 20.860752448439598 17.428738504648209 12.278438180685045 16.505102306604385 12.834737151861193 10.656634688377379 14.822902381420134 14.114708900451658 13.33555999398231 12.688757553696631 10.76518891751766 12.134983241558073 10.059794984757895 13.85616149008275 9.8529561609029788
leaf_count=69 74 51 53 94 57 66 94 79 52 80 59 50 64 98 64 69 51 51 65 72 52
internal_value=0 -0.00353524 -0.0212711 0.00906027 0.0150147 -0.003612 -0.0143211 0.00426032 0.0161876 0.0244181 0.0210076 0.0272324 0.010085 -0.037155 -0.0320891 0.0325308 0.0223232 -0.0214284 -0.0376679 -0.0451729 0.0432175
internal_weight=0 285.255 118.456 166.799 139.546 56.0933 33.8729 44.648 27.2193 105.673 89.168 56.7983 32.3697 62.3626 48.2478 46.1416 23.5999 27.2533 37.2515 23.916 22.5417
internal_count=1464 1390 600 790 670 250 151 197 118 519 439 281 158 350 252 231 110 120 201 137 121
is_linear=0
shrinkage=0.05


Tree=27
num_leaves=22
num_cat=0
split_feature=0 3 6 5 6 6 4 4 4 0 0 0 6 0 5 4 0 5 6 6 6
split_gain=31.0137 16.09 14.4892 8.43616 8.04279 4.39996 4.1238 5.85876 3.91913 3.73792 2.68245 3.98093 2.51773 1.63179 1.58313 1.34885 2.38077 0.938217 0.861357 0.441678 0.368887
threshold=0.072739405866765958 1.5918796184818247 0.35442643759360382 -0.014032278767465227 0.21067882723343814 -0.99726561591254403 0.02218871334966014 -0.02912982142905278 0.0093284924488224088 -0.061675319168316478 -0.067879075708397199 -0.08912872454683464 0.7934681051926632 0.17310477747784211 -0.010948792857263063 -0.044695310785774975 -0.014968876251616746 0.0014096582582654069 -0.13812664804640409 -0.80713578054995994 -0.68107143318998575
decision_type=2 2 2 2 2 2 2 2 2 2 2 2 2 2 2 2 2 2 2 2 2
left_child=1 3 5 9 8 13 7 -6 15 -1 11 14 -4 -2 -9 -5 19 -12 20 -17 -7
right_child=2 -3 12 4 6 18 -8 10 -10 -11 17 -13 -14 -15 -16 16 -18 -19 -20 -21 -22
leaf_value=0.048438274530863523 -0.0079830926716199721 0.067153621420842899 -0.011771237244745094 -0.016136257360184224 -0.0075150463469526411 -0.050034497271667783 -0.013073749636771013 0.0097055951276549465 -0.031750777382705125 0.0092649843627914431 0.022827455269210841 -0.011227793250863292 0.017887143172343429 -0.036531564106827924 0.032481420902764534 -0.0014445321362376996 0.018207940956163456 0.042117294235190401 -0.039851470129825137 -0.014945716313388048 -0.062504247596511117
leaf_weight=15.94503201544285 9.929272189736368 11.675462707877157 14.466692492365839 15.598389580845831 21.227995306253433 10.564117431640623 14.663621619343756 12.477128475904456 16.353621512651443 9.8523597121238691 10.096776068210604 10.992441445589064 14.159521773457525 10.093718387186525 19.638671636581428 12.447174176573752 13.460285142064093 16.778836727142334 10.459459535777567 11.800561308860781 13.522737711668016
leaf_count=91 48 65 66 69 92 68 64 60 72 49 49 50 62 59 97 57 59 83 62 51 91
internal_value=0 0.0100887 -0.0259106 0.00677943 0.00285578 -0.0410236 0.0115371 0.0154936 -0.0103388 0.0334775 0.0224728 0.0147436 0.00289883 -0.0223746 0.0236329 -0.00376997 0.00134549 0.0348704 -0.0518326 -0.00801511 -0.0570352
internal_weight=0 213.008 83.1955 201.333 175.536 54.5693 105.875 91.2118 69.66 25.7974 69.9839 43.1082 28.6262 20.023 32.1158 53.3064 37.708 26.8756 34.5463 24.2477 24.0869
internal_count=1464 1008 456 943 803 328 495 431 308 140 339 207 128 107 157 236 167 132 221 108 159
is_linear=0
shrinkage=0.05


Tree=28
num_leaves=22
num_cat=0
split_feature=3 4 4 6 5 8 6 8 4 5 6 6 5 5 5 8 8 6 8 6 6
split_gain=26.5491 18.5014 22.9217 12.667 7.66488 7.23587 6.13557 3.75368 2.68099 2.94485 6.81522 3.72025 2.27649 1.80558 1.10327 1.05871 0.859142 0.581783 0.56932 0.529451 0.103213
threshold=1.5918796184818247 -0.10449669740605527 0.0093284924488224088 0.6312377565408932 -0.012457116528655306 -0.65145155022435264 0.26751111497768892 -0.62789354048972212 -0.02912982142905278 -0.01086858657636185 0.70770301641497579 0.91747440041626971 -0.0018141886435138783 0.0053910089241117004 0.0074763722275432215 -0.67434597041932187 -0.066315105860800375 -0.21194673071926215 -0.0097569789119566694 -1.1554660387060853 -0.92122309216104636
decision_type=2 2 2 2 2 2 2 2 2 2 2 2 2 2 2 2 2 2 2 2 2
left_child=1 12 4 5 15 -4 7 19 -8 -10 -11 -12 -1 -13 -7 -3 -9 20 -14 -6 -16
right_child=-2 2 3 -5 6 14 8 16 9 10 11 13 18 -15 17 -17 -18 -19 -20 -21 -22
leaf_value=-0.013122259197815792 0.071568926164511909 0.046169312484099709 -0.0014898675072051713 0.011418347341377305 0.0017441803573533966 -0.034546638818389458 -0.0026420237779087759 -0.011277208095535056 -0.0032122682537559311 0.05110215607566454 -0.0037676445953681637 0.042992311510035554 -0.049114740580283818 0.014384293128090182 -0.0529150248154589 0.026666462092578287 -0.029209143233613861 -0.040112597069194428 -0.035346297047886797 0.016333303979788643 -0.061056379919086426
leaf_weight=9.4158512949943525 12.402888983488081 13.91763772070408 13.156254500150679 21.821016222238541 13.182903423905374 17.280173674225807 15.539462774991987 18.116371020674709 11.08669665455818 17.344435542821884 17.434117630124092 9.8949033617973345 13.106726661324503 12.461564674973486 8.1986711397767049 13.916796013712881 10.580792084336279 7.876310363411906 17.576615832746029 11.772103324532507 7.41276691854
leaf_count=44 70 85 58 94 61 83 67 82 54 80 82 54 72 63 51 66 51 45 98 50 54
internal_value=0 -0.00318084 0.00205172 -0.0207245 0.0124917 -0.0337315 0.00764519 -0.00555592 0.016101 0.0203703 0.0249463 0.0135452 -0.0346281 0.0270461 -0.0441362 0.0364182 -0.0178888 -0.0511913 -0.0412276 0.00862635 -0.0567808
internal_weight=0 281.092 240.993 75.7452 165.248 53.9242 137.413 53.6522 83.7612 68.2217 57.135 39.7906 40.0992 22.3565 40.7679 27.8344 28.6972 23.4877 30.6833 24.955 15.6114
internal_count=1464 1394 1180 385 795 291 644 244 400 333 279 199 214 117 233 151 133 150 170 111 105
is_linear=0
shrinkage=0.05


Tree=29
num_leaves=22
num_cat=0
split_feature=0 6 2 9 6 0 2 9 9 2 9 6 8 9 6 6 9 2 6 9 0
split_gain=26.3081 12.9301 9.31471 7.40932 7.23468 7.02489 6.11326 4.81348 4.52072 4.08918 3.02252 2.66067 2.61046 2.20457 1.64645 1.6181 1.44764 1.3836 1.33376 0.00992146 0.00130699
threshold=0.072739405866765958 0.35442643759360382 -0.35239167402163057 0.072808318070173503 -1.161769256074084 -0.10347936826742367 -0.18192828119686069 -0.36299097500222738 -0.27079824480334674 -0.29865435432193121 -0.21331739136460881 -0.99726561591254403 -0.6528693772618076 -0.14690134833273377 0.59454569492745002 0.82053051533717813 -0.42443180189228141 0.037915631546189724 -1.25101661411901 -0.34586800144255941 0.21820680059969341
decision_type=2 2 2 2 2 2 2 2 2 2 2 2 2 2 2 2 2 2 2 2 2
left_child=2 6 3 4 16 -4 11 -7 12 -3 -9 -2 -6 14 -10 -5 18 -12 -1 20 -8
right_child=1 9 5 15 8 7 19 10 13 -11 17 -13 -14 -15 -16 -17 -18 -19 -20 -21 -22
leaf_value=0.0089838591871319769 -0.010090016006103363 0.021457799436951894 0.029844822720137078 0.028462339256639865 0.0061489645215186883 0.013303601109275372 -0.059267701308617353 -0.034184574794920312 0.010930390976496708 -0.016441420130928409 -0.018637101307550429 -0.039528999979205517 -0.020115389485415899 8.8952127353887755e-05 0.037387229922878351 0.054272105766559553 0.04528919221161902 0.0027520336580837369 0.035326909320339391 -0.06105757160808109 -0.058321208825146069
leaf_weight=8.8183760493993777 15.431474357843401 14.474794149398805 12.528278216719626 11.364967480301859 16.780230462551117 15.479105219244955 6.6727928072214153 19.171892672777172 11.026657760143282 14.002279177308081 16.511044085025794 15.269857957959173 21.689040958881378 14.158268988132475 12.600063189864157 13.040615320205687 12.264367111027239 13.947714269161223 10.557336144149305 6.818038009107112 8.0444903001189214
leaf_count=52 77 63 55 56 74 69 52 88 50 65 73 84 94 67 66 75 64 62 63 48 67
internal_value=0 -0.0242817 0.00930617 0.0173742 0.0117466 -0.00444221 -0.0390577 -0.0110396 0.00340655 0.00282262 -0.018632 -0.024732 -0.00865892 0.0156905 0.0250397 0.0422533 0.0318465 -0.00884256 0.0233375 -0.0594808 -0.0587503
internal_weight=0 80.7137 209.938 132.3 107.894 77.638 52.2367 65.1098 76.2543 28.4771 49.6307 30.7013 38.4693 37.785 23.6267 24.4056 31.6401 30.4588 19.3757 21.5353 14.7173
internal_count=1464 456 1008 661 530 347 328 292 351 128 223 161 168 183 116 131 179 135 115 167 119
is_linear=0
shrinkage=0.05


Tree=30
num_leaves=22
num_cat=0
split_feature=0 6 8 9 5 5 6 6 6 0 6 0 0 5 5 8 6 6 6 8 8
split_gain=24.1303 12.2077 8.03833 9.02193 6.3521 5.14382 3.4195 2.61396 2.7044 5.55267 2.91667 3.84512 3.22365 6.32029 2.58537 1.66382 1.82763 0.768789 1.96985 0.619709 0.837127
threshold=0.075948245456462907 0.77594309428098163 -0.67608920038340592 0.35569048036432499 0.0017059759071504411 0.028089386419154799 0.82053051533717813 0.9805567239402766 0.70770301641497579 -0.08912872454683464 0.36670928994947188 -0.07743428693105027 -0.048126885345151665 0.012756619053539702 -0.0054234712840684346 -0.56596355278567578 0.35442643759360382 -1.25101661411901 -1.161769256074084 -0.29729006147623921 0.2738084285790327
decision_type=2 2 2 2 2 2 2 2 2 2 2 2 2 2 2 2 2 2 2 2 2
left_child=2 5 4 7 17 15 -5 8 10 -10 11 -4 -13 -14 -12 -2 19 -1 -19 -17 -21
right_child=1 -3 3 6 -6 -7 -8 -9 9 -11 14 12 13 -15 -16 16 -18 18 -20 20 -22
leaf_value=0.025909330874531223 -0.023637443194375794 0.017037928209465078 -0.027036211146866537 0.014277287943873389 -0.0011934843135772732 -0.0037621914176480271 0.049181025865416388 0.015525478275894046 0.0076119886741117908 -0.036959892368084231 -0.00036000896573467451 0.023944550435787266 0.010476558788841232 -0.033081029088522729 0.032529359856285946 -0.06254066061416004 -0.026844116154826677 0.062567623429031327 0.033028992376805427 -0.037610184801942032 -0.057804779716828431
leaf_weight=8.0243019163608498 11.883296266198156 14.93615387380123 16.029004335403442 16.568728342652324 13.772837385535238 12.041999347507952 12.172269672155378 18.729606106877327 12.179939419031145 16.390448391437531 13.172112181782724 11.795990034937857 21.677889242768288 13.523639358580111 10.936063185334204 8.6634825021028465 10.309184044599531 8.8591967821121198 15.552173525094991 11.50068001449109 9.2664840891957265
leaf_count=51 60 66 72 77 64 72 69 92 58 73 60 55 98 61 52 57 48 59 71 81 68
internal_value=0 -0.0236442 0.0088458 0.00363248 0.0272555 -0.0331884 0.0290596 -0.00180362 -0.00460874 -0.0179583 -0.000231584 -0.00588927 0.00132312 -0.00625729 0.0145594 -0.0400526 -0.0449612 0.0393356 0.0437489 -0.0513074 -0.0466212
internal_weight=0 78.6013 209.384 163.176 46.2085 63.6651 28.741 134.435 115.705 28.5704 87.1347 63.0265 46.9975 35.2015 24.1082 51.6231 39.7398 32.4357 24.4114 29.4306 20.7672
internal_count=1464 452 1012 767 245 386 146 621 529 131 398 286 214 159 112 314 254 181 130 206 149
is_linear=0
shrinkage=0.05


Tree=31
num_leaves=23
num_cat=0
split_feature=2 7 9 8 7 7 9 9 8 9 9 9 6 6 6 9 9 2 8 9 8 8
split_gain=20.1947 10.4596 6.94191 5.20974 5.44191 4.97935 4.50678 4.38875 3.9988 3.58276 3.5395 4.42031 3.42045 4.41235 1.97999 1.57775 1.57084 1.50039 1.22288 0.966735 0.761909 0.693625
threshold=-0.2789204717593125 0.079035742145959084 0.33550235967990105 -0.67882490927370831 0.34638198898969796 0.70325611482337247 -0.4251979883872799 -0.41924447134074311 -0.35305706650555596 -0.2670908284472765 -0.27079824480334674 -0.12669716362398589 -1.161769256074084 -0.19021294480644932 0.82053051533717813 -0.4251979883872799 0.072808318070173503 1.522615175688202 0.43650989189353478 -0.31995886356875541 -0.44974822184674573 -0.19570150841424469
decision_type=2 2 2 2 2 2 2 2 2 2 2 2 2 2 2 2 2 2 2 2 2 2
left_child=2 8 3 12 6 -6 -5 -8 9 -2 20 21 15 -14 -4 -1 17 18 19 -10 -9 -12
right_child=1 -3 14 4 5 -7 7 10 16 -11 11 -13 13 -15 -16 -17 -18 -19 -20 -21 -22 -23
leaf_value=0.023964154466111436 -0.02881209308908024 0.010501898855902608 0.019900424021921836 -0.026496020697080555 0.048559220178963636 0.00079179658616644751 0.029327431539129679 -0.0072489835426646637 -0.043061984856164998 0.0095485197162182255 0.011387636047162059 -0.015360025826570159 -0.013829535948532076 0.029735841800983959 0.049228700616439122 0.051337625074264905 -0.019294059119930165 -0.022261207206155723 -0.032395921404699206 -0.065441622922724138 -0.023113080074901583 0.028792380725093693
leaf_weight=14.276617959141733 13.633707948029043 23.191595777869225 11.077066496014597 18.94783878326416 10.178749516606333 11.757629573345183 11.416182205080984 12.872028440237047 10.00177840143442 10.995847672224043 11.704998120665548 14.524278402328489 12.294409722089769 11.023007199168203 11.977232769131659 8.3385860174894315 10.425738289952276 8.1624104753136617 10.106910370290278 9.3239427655935341 18.369525015354156 11.203549444675447
leaf_count=91 80 98 54 92 51 59 53 58 72 52 56 67 55 51 71 48 51 55 63 52 84 51
internal_value=0 -0.0187331 0.00941907 0.00586673 0.000423536 0.0229565 -0.00456737 0.000620519 -0.0280656 -0.011686 -0.00415162 0.00621849 0.0202027 0.00676543 0.0351371 0.0340572 -0.0364666 -0.0412288 -0.046489 -0.0538593 -0.0165768 0.0198995
internal_weight=0 95.8419 189.962 166.907 120.975 21.9364 99.0384 80.0906 72.6503 24.6296 68.6744 37.4328 45.9326 23.3174 23.0543 22.6152 48.0208 37.595 29.4326 19.3257 31.2416 22.9085
internal_count=1464 523 941 816 571 110 461 369 425 132 316 174 245 106 125 139 293 242 187 124 142 107
is_linear=0
shrinkage=0.05


Tree=32
num_leaves=22
num_cat=0
split_feature=1 4 4 5 8 5 5 8 4 2 2 4 8 8 8 5 5 8 5 8 5
split_gain=18.8317 8.44666 10.8883 5.66556 4.23686 4.10754 3.83241 4.43912 3.46807 2.94884 2.8105 3.69731 1.41794 1.23833 2.61969 0.736363 0.587193 0.563053 0.285413 0.255468 0.151427
threshold=-0.18674239154399699 -0.09809377558333375 1.0000000180025095e-35 0.012919259567589379 -0.61572695749372564 -0.012258828778649531 0.028089386419154799 0.92737439594684057 -0.025187470412939734 -0.37021417147931923 0.54874368880127777 0.0098042934335257088 -0.40279722814741797 -0.38513249784470061 0.61780580815826591 0.0085903483511711697 0.0057831285196287361 0.13435003145231661 0.027670531396670688 -0.67434597041932187 -0.0066844922560152726
decision_type=2 2 2 2 2 2 2 2 2 2 2 2 2 2 2 2 2 2 2 2 2
left_child=1 -1 5 10 -4 19 7 17 -7 13 11 12 -2 16 15 -15 -10 18 -5 -3 -14
right_child=3 2 4 6 -6 8 -8 -9 9 -11 -12 -13 20 14 -16 -17 -18 -19 -20 -21 -22
leaf_value=-0.025406182060355328 0.0087010567774125167 0.042371802994398647 0.0089119633944035673 -0.05761018240592386 -0.027006178585524454 -0.0091812904118230253 -0.003102997706760981 -0.0078328614903495474 0.0021700226491264047 0.044345736377053274 0.013667905093043789 -0.032514511026148656 -0.015612962460935458 0.023710639145011432 0.00075267450195956218 0.04049508654463347 0.015482294296718463 -0.037001500505353044 -0.044851311370382015 0.032680532506424005 -0.0071470011215505405
leaf_weight=14.862315014004706 15.270408347249026 15.177620299160482 14.638714343309401 9.7737169265747124 18.696187272667885 11.8921070843935 11.40754736214876 10.11263385415077 16.143389374017708 10.580856010317801 14.180151060223578 14.844930335879324 10.356640920042986 16.516917765140544 10.290717944502829 10.812221258878706 17.013629943132401 9.9001601263880712 7.9472275972366324 12.319816917181013 10.779497794806966
leaf_count=71 68 104 67 58 88 52 68 53 81 50 67 75 48 88 50 56 81 68 56 63 52
internal_value=0 0.0105914 0.0140636 -0.0156684 -0.0112331 0.0210473 -0.0284982 -0.0361756 0.0160396 0.0197261 -0.00603275 -0.0114835 -0.002908 0.0160456 0.0222546 0.0303511 0.00900086 -0.0465524 -0.0518883 0.0380298 -0.0112953
internal_weight=0 168.944 154.082 114.573 33.3349 120.747 49.1413 37.7337 93.2498 81.3577 65.4316 51.2515 36.4065 70.7769 37.6199 27.3291 33.157 27.6211 17.7209 27.4974 21.1361
internal_count=1464 851 780 613 155 625 303 235 458 406 310 243 168 356 194 144 162 182 114 167 100
is_linear=0
shrinkage=0.05


Tree=33
num_leaves=21
num_cat=0
split_feature=0 5 9 9 1 1 5 1 5 8 1 9 0 8 8 9 0 0 1 5
split_gain=20.0174 6.78604 6.77635 5.09707 5.7806 4.52451 4.31289 3.96149 2.94329 2.80339 2.75774 2.60268 3.60152 5.10925 2.17109 1.84493 1.62271 1.36571 0.964736 0.114724
threshold=0.075948245456462907 -0.013147781725304635 -0.3111114699768896 0.39282798832968324 -0.17443281744993083 -0.18674239154399699 -0.00072249204235848828 -0.17424904585037512 0.012756619053539702 -0.67434597041932187 -0.13268972016424316 -0.27079824480334674 -0.072727988866161455 -0.65707637224179682 -0.22591749445836648 -0.42348798120322584 0.007849538608450295 -0.10232062063781089 -0.059516351754007123 0.0050479042780342898
decision_type=2 2 2 2 2 2 2 2 2 2 2 2 2 2 2 2 2 2 2 2
left_child=1 9 7 4 11 -4 -5 15 10 -1 -6 12 13 -3 17 -2 -14 -13 -9 -16
right_child=2 3 5 6 8 -7 -8 18 -10 -11 -12 14 16 -15 19 -17 -18 -19 -20 -21
leaf_value=0.04380601315773322 -0.0090305220193913054 0.0089905117894337524 0.020868680634059365 0.0068867712296477399 -0.026304088743652004 -0.019403408334183969 0.048633184628869883 -0.060186785150591463 -0.038004296842575211 0.014854050523443055 0.0038042320759157783 0.036729495688038273 0.019127338773728023 -0.037991324586054982 0.0074198418347939683 -0.036590519866100242 -0.0027906047722210457 0.013579043905580049 -0.039181011908894087 -8.0310552817652273e-05
leaf_weight=15.993728809058664 15.092277720570566 11.135248661041262 11.846704229712488 14.394528403878214 12.176441684365271 16.957469843327999 10.850428655743597 10.424324937164785 10.455813847482203 17.520532175898552 20.259126469492912 13.136093243956568 20.318255081772804 12.047787770628927 10.06005744636059 10.160540193319319 14.450542956590651 12.369320526719092 11.491747841238974 10.338228672742842
leaf_count=110 75 51 54 72 56 95 59 83 50 86 92 67 94 53 50 53 62 60 92 50
internal_value=0 0.00808773 -0.0219491 0.00407697 0.000506875 -0.00284013 0.0248296 -0.0336182 -0.0149351 0.0286706 -0.00749855 0.00688425 -0.00016033 -0.0154251 0.0157778 -0.0201194 0.0100178 0.0255023 -0.0491724 0.00361863
internal_weight=0 205.506 75.9731 171.992 146.747 28.8042 25.245 47.1689 42.8914 33.5143 32.4356 103.856 57.9518 23.183 45.9037 25.2528 34.7688 25.5054 21.9161 20.3983
internal_count=1464 1012 452 816 685 149 131 303 198 196 148 487 260 104 227 128 156 127 175 100
is_linear=0
shrinkage=0.05


Tree=34
num_leaves=21
num_cat=0
split_feature=1 9 9 5 4 4 6 5 6 5 9 9 1 4 9 5 9 1 6 1
split_gain=15.6901 8.50434 7.68459 8.61401 7.12008 8.64377 5.37294 3.64985 3.28961 2.98071 2.51772 3.51861 2.3091 1.58804 1.31403 1.24434 1.47319 1.24092 0.739226 0.309968
threshold=-0.18674239154399699 0.39282798832968324 -0.013512199831841862 -0.014032278767465227 -0.09809377558333375 0.0093284924488224088 0.37908277740452023 -0.00132403914911758 0.82053051533717813 0.028089386419154799 -0.29416470837075964 -0.19949737083802069 -0.14435832880261129 -0.15100284508234055 -0.38143232905533597 0.00081479500824808157 -0.42220067119497035 -0.056116852727770464 -1.2044451375984031 -0.059516351754007123
decision_type=2 2 2 2 2 2 2 2 2 2 2 2 2 2 2 2 2 2 2 2
left_child=2 6 3 18 -5 10 7 -2 -4 13 15 -12 -8 -9 -7 -6 -17 -14 -1 -15
right_child=1 -3 8 4 5 14 12 9 -10 -11 11 -13 17 19 -16 16 -18 -19 -20 -21
leaf_value=0.040835848765470445 -0.012316724231751168 0.016398363927648249 0.016844305943784003 -0.035322654253298842 0.01459877416366581 -0.010493171018314956 -0.022319020121540044 -0.028725665665452906 0.050434971265954323 -0.0112131186066748 0.036608015301231756 0.0048027275818240782 0.014989152845024976 -0.059560886857949136 -0.03324143438757244 -0.01653384902657928 0.0076331916347284565 -0.0074831859265460758 0.021657644174039842 -0.047239999357300562
leaf_weight=13.638415560126306 18.240051098167896 18.676169261336327 15.125731393694879 13.113446369767187 16.513369277119637 13.144237384200098 14.334053933620451 8.6088520064950007 14.067257992923258 7.3604420125484458 18.987342491745949 16.043511271476746 11.42542265355587 11.857896871864797 12.277946397662161 11.26599560678005 14.323199555277826 13.287321746349335 7.9555378630757323 8.9634260535240156
leaf_count=96 89 86 74 64 77 65 65 66 86 50 96 80 52 78 54 53 63 59 43 68
internal_value=0 -0.014421 0.00973539 0.00478096 -0.000630982 0.00380493 -0.0205393 -0.0306045 0.0330307 -0.0396712 0.0121384 0.0220418 -0.00635381 -0.0467885 -0.0214797 0.00389849 -0.00300668 0.00290643 0.0337703 -0.0542568
internal_weight=0 112.754 166.456 137.263 115.669 102.556 94.0775 55.0307 29.193 36.7906 77.1334 35.0309 39.0468 29.4302 25.4222 42.1026 25.5892 24.7127 21.594 20.8213
internal_count=1464 613 851 691 552 488 527 351 160 262 369 176 176 212 119 193 116 111 139 146
is_linear=0
shrinkage=0.05


Tree=35
num_leaves=21
num_cat=0
split_feature=3 0 6 9 0 6 1 0 6 1 6 0 6 1 0 0 0 9 6 6
split_gain=23.339 15.8031 11.8548 5.44357 4.97142 4.11867 4.09994 4.26132 6.3159 3.60986 2.77226 2.62846 2.10405 1.80415 2.29942 1.6394 1.02724 0.96353 0.529118 0.290097
threshold=1.5918796184818247 0.05742611026926784 0.46797409356650027 0.39282798832968324 -0.10954050971462899 0.82053051533717813 -0.18190370553583482 -0.053653220194074154 0.90511148066679903 -0.18685212786735717 0.35860067923007283 0.037263901514005472 0.82053051533717813 -0.14435832880261129 -0.012116574394108374 -0.12116363978397562 -0.031013074200101392 -0.42348798120322584 -0.85260161074536034 -0.13812664804640409
decision_type=2 2 2 2 2 2 2 2 2 2 2 2 2 2 2 2 2 2 2 2
left_child=1 3 9 4 15 -5 7 8 10 17 -6 16 -4 -8 -15 -1 -9 -3 -11 -20
right_child=-2 2 12 5 6 -7 13 11 -10 18 -12 -13 -14 14 -16 -17 -18 -19 19 -21
leaf_value=0.010338242377197363 0.070245687836303153 -0.0094493492092853661 -0.0088945507381916564 0.010303102007774947 -0.0040796326536366384 0.051287204702783945 -0.028922534673336976 0.03113873546671507 0.025744386817027773 -0.038312169367732254 -0.033258499553123204 -0.0057419958034095435 0.019035773744824645 0.0037214435441401193 -0.025082524806672887 0.035030905163860059 0.013623409766697542 -0.030308657733848034 -0.057812715555596306 -0.045365721128131802
leaf_weight=15.795853145420553 11.334398277103899 10.383950665593149 13.47060412168503 15.779978871345522 16.411999210715294 10.024186186492441 15.183212995529173 15.043912976980204 10.688366934657095 10.642979584634306 16.151043176651001 12.111924007534979 13.500821590423582 17.553044766187668 11.447323650121691 11.701227270066736 18.87219670414925 11.858258888125418 10.466575562953951 8.4688833355903608
leaf_count=98 70 54 62 75 72 63 70 77 59 81 72 54 61 80 55 58 86 61 96 60
internal_value=0 -0.00301776 -0.0217966 0.00490466 0.00148683 0.0262243 -0.00250171 0.00366329 -0.00760551 -0.0357885 -0.0185521 0.0142523 0.00508626 -0.014959 -0.00764836 0.0208461 0.0213926 -0.0205703 -0.0472322 -0.0522458
internal_weight=0 265.556 78.7921 186.764 160.96 25.8042 133.463 89.2794 43.2514 51.8206 32.563 46.028 26.9714 44.1836 29.0004 27.4971 33.9161 22.2422 29.5784 18.9355
internal_count=1464 1394 475 919 781 138 625 420 203 352 144 217 123 205 135 156 163 115 237 156
is_linear=0
shrinkage=0.05


Tree=36
num_leaves=25
num_cat=0
split_feature=0 6 1 4 1 4 4 8 4 6 0 0 8 0 6 6 6 0 0 6 4 6 1 0
split_gain=15.6545 9.33848 6.60255 5.87372 5.43832 5.02556 4.19091 5.84438 3.17545 6.98966 1.84948 3.59681 2.59087 2.59454 1.56786 2.1924 1.54061 2.36011 1.09386 0.894083 0.562981 0.252994 0.184799 0.13065
threshold=0.075948245456462907 0.77594309428098163 -0.17424904585037512 0.0093284924488224088 -0.17443281744993083 -0.025187470412939734 -0.017832946620811606 -0.14456676280111544 0.054135350894024478 0.46797409356650027 -0.060962243703939378 -0.079858743509932398 -0.67882490927370831 -0.11324850212938987 0.078414593937727609 0.83696716417232797 -0.19954695884778925 0.18290956511302717 -0.10232062063781089 -1.1916926521494176 0.0098042934335257088 -1.2204615095990556 -0.0015674897638791793 0.21820680059969341
decision_type=2 2 2 2 2 2 2 2 2 2 2 2 2 2 2 2 2 2 2 2 2 2 2 2
left_child=3 2 16 4 5 -1 7 -6 9 -5 11 12 21 -14 19 -16 17 -2 -15 -12 22 -7 -4 -22
right_child=1 -3 20 8 6 10 -8 -9 -10 -11 14 -13 13 18 15 -17 -18 -19 -20 -21 23 -23 -24 -25
leaf_value=-0.0052210452591229129 -0.004241614255223034 0.015861465916732459 -0.034070435322514213 -0.051417196770685361 0.034371734896896537 0.031795136215481842 -0.022372333282409364 -0.016744574235997952 0.0062454896281272584 0.0033737036666548221 0.031713628806191663 -0.010702844399264685 -0.0085974214856597685 0.035503257043981058 0.056455102790745795 0.022635549784421033 0.0026867620720945578 -0.038892742263587327 0.012835611274794557 0.011192852626048959 -0.059361019995190445 0.044200243667779658 -0.04498161675912471 -0.049071665898640024
leaf_weight=21.232575282454491 10.198726594448095 14.622278228402136 7.0990059301257125 10.749136731028559 11.74956823885441 8.5843627005815524 17.95568859577179 10.670027792453764 17.839933387935162 12.69545443356037 9.6961995959281939 10.444793887436388 9.4822845757007581 9.4767795056104678 9.9435572326183337 9.2498425021767599 10.627259641885756 9.4833830296993238 12.139916114509111 11.728558793663977 6.2896911725401861 7.8855912163853601 8.5595057830214518 6.0552784726023674
leaf_count=94 49 66 56 50 54 64 80 50 83 56 55 52 49 54 53 56 50 56 63 52 54 47 63 58
internal_value=0 -0.019867 -0.0288261 0.00716614 0.011499 0.016845 -0.00437205 0.0100442 -0.00965109 -0.0217474 0.0215952 0.0158661 0.0216999 0.013208 0.0297778 0.0401565 -0.0126542 -0.0209375 0.0227731 0.0204799 -0.0463297 0.0377345 -0.0400349 -0.054314
internal_weight=0 72.9351 58.3129 201.524 160.24 119.864 40.3753 22.4196 41.2845 23.4446 98.6319 58.0137 47.5689 31.099 40.6182 19.1934 30.3094 19.6821 21.6167 21.4248 28.0035 16.47 15.6585 12.345
internal_count=1464 452 386 1012 823 639 184 104 189 106 545 329 277 166 216 109 155 105 117 107 231 111 119 112
is_linear=0
shrinkage=0.05


Tree=37
num_leaves=22
num_cat=0
split_feature=3 4 4 5 1 1 2 1 4 1 1 4 5 5 1 4 5 5 1 4 5
split_gain=21.5791 11.5515 12.8064 5.12663 3.50487 3.45242 3.19873 3.15966 2.59095 2.40541 2.18146 2.15998 1.49244 2.18966 1.41239 1.89303 1.08286 1.75138 1.06881 0.58005 0.227319
threshold=1.5918796184818247 -0.10449669740605527 0.0093284924488224088 -0.012457116528655306 -0.18674239154399699 0.024409278005109631 0.896740433448872 -0.19271395812256267 -0.025187470412939734 -0.19273073700236215 -0.070293536475436721 -0.28924342260942176 0.027790840818022508 0.0077080792612578344 -0.14435832880261129 0.061748166649277257 -0.0019924248232943511 -0.0089436358347327518 -0.16659248782450017 0.18382510501029503 -0.016489710096188482
decision_type=2 2 2 2 2 2 2 2 2 2 2 2 2 2 2 2 2 2 2 2 2
left_child=1 5 3 20 8 11 7 19 -5 12 18 -1 13 16 -9 -16 17 -10 -6 -4 -3
right_child=-2 2 6 4 10 -7 -8 14 9 -11 -12 -13 -14 -15 15 -17 -18 -19 -20 -21 -22
leaf_value=-0.0082560514816984558 0.069014149453329232 0.02648104222516702 -0.015250681372510034 -0.011203486380307515 -0.0039340935674668735 -0.053905475071853261 0.011042128233791061 -0.042824625511154145 0.001066524449765854 0.036569539773020465 0.0097769909897467751 -0.037747069536550916 -0.0024453913068613283 0.030779217653281454 -0.0064638078630594002 -0.037388202533773583 -0.0044791587996599351 0.027743596760042118 -0.023765804437409277 -0.00048180438661024827 0.036374280371484817
leaf_weight=16.295582972466946 10.868424370884894 15.428770132362844 13.060200661420824 11.539569884538649 12.360569782555102 10.078265249729155 9.1785693392157537 14.130092330276964 12.577083230018607 10.397745475172995 13.398938588798044 10.03065960109234 16.295492574572563 15.289801172912119 9.7681444957852381 10.030271559953688 11.478843778371816 12.044089101254942 15.085598587989809 13.541685812175272 9.3098335266113263
leaf_count=99 70 103 57 50 57 65 56 79 66 51 65 50 81 77 47 79 59 66 72 67 48
internal_value=0 -0.0028897 0.00133963 0.00933546 0.00537844 -0.0290195 -0.016463 -0.0206338 0.0109109 0.0141791 -0.00676085 -0.0194925 0.0107395 0.0149203 -0.030749 -0.0221307 0.00820345 0.0141163 -0.0148345 -0.00773259 0.0302041
internal_weight=0 261.32 224.915 155.206 130.468 36.4045 69.709 60.5304 89.6226 78.0831 40.8451 26.3262 67.6853 51.3898 33.9285 19.7984 36.1 24.6212 27.4462 26.6019 24.7386
internal_count=1464 1394 1180 795 644 214 385 329 450 400 194 149 349 268 205 126 191 132 129 124 151
is_linear=0
shrinkage=0.05


Tree=38
num_leaves=21
num_cat=0
split_feature=3 2 6 9 9 8 9 9 6 6 6 9 2 8 6 2 9 9 8 6
split_gain=20.1355 9.92587 8.99722 6.2453 3.47586 3.03806 4.6193 2.33697 3.12441 2.12441 6.91389 2.39299 2.10033 2.04898 2.01566 1.20958 1.18502 1.08425 0.930562 0.836585
threshold=1.5918796184818247 -0.2789204717593125 0.37908277740452023 0.33550235967990105 -0.16606871970310452 -0.61572695749372564 -0.31302908780901734 -0.14690134833273377 0.74076907473890341 -0.15614775729763417 -0.87194735972613324 -0.4251979883872799 -0.098426376617979636 -0.014767138044064831 0.82053051533717813 1.6497454970683181 -0.013512199831841862 -0.27593182195680666 0.008837474038272156 -1.25101661411901
decision_type=2 2 2 2 2 2 2 2 2 2 2 2 2 2 2 2 2 2 2 2
left_child=1 3 12 5 17 9 13 8 -8 10 11 19 -3 -7 -5 18 -9 -4 -14 -1
right_child=-2 2 4 14 -6 6 7 16 -10 -11 -12 -13 15 -15 -16 -17 -18 -19 -20 -21
leaf_value=-0.0095851884183680014 0.067802524486087562 -0.016480534906562701 -0.0019988886459311908 0.01402957596449165 0.016538581338616166 -0.03167359344089659 -0.0040291890723294175 -0.020962355677417374 0.026116770440599287 0.026530405393135687 -0.030300904720466676 0.026849252857947009 -0.035397517779225916 -0.0050732768098595499 0.045161539708333323 -0.020515056600627662 0.001769801023374468 -0.023705001314727664 -0.055126762901534121 0.0112482345317532
leaf_weight=8.6987230926752073 10.518413722515104 15.324755623936651 11.847395442426206 10.194782540202143 18.558160051703453 18.294577121734623 16.967661947011948 11.236047044396402 17.418601542711258 13.605308115482329 11.225566387176512 19.117574453353885 13.131718195974832 11.98009432852268 10.610653467476366 6.8118481338024131 11.705621540546415 11.184192955493925 10.969268232583998 10.803098328411577
leaf_count=53 70 98 56 52 81 91 78 54 90 65 50 97 88 56 70 52 58 51 89 65
internal_value=0 -0.00276392 -0.0164381 0.00422419 0.000435749 0.000686779 -0.005348 0.00299565 0.0112415 0.0090187 0.00423884 0.0142786 -0.0316158 -0.0211475 0.0299067 -0.0391189 -0.00936363 -0.0125394 -0.044377 0.00195555
internal_weight=0 259.686 87.8273 171.858 41.5897 151.053 87.6026 57.3279 34.3863 63.4503 49.845 38.6194 46.2376 30.2747 20.8054 30.9128 22.9417 23.0316 24.101 19.5018
internal_count=1464 1394 515 879 188 757 427 280 168 330 265 215 327 147 122 229 112 107 177 118
is_linear=0
shrinkage=0.05


Tree=39
num_leaves=23
num_cat=0
split_feature=3 0 1 9 9 0 2 9 2 9 9 0 0 2 0 1 9 9 2 0 0 9
split_gain=18.7991 12.1485 5.54608 5.03023 4.84114 4.22296 3.47221 3.89732 2.47803 1.79988 1.54024 2.1757 3.83502 1.32638 1.32606 1.16759 1.1525 1.10458 1.09693 0.892538 0.573595 0.39398
threshold=1.5918796184818247 0.075948245456462907 -0.18685212786735717 -0.30431560363217464 0.39282798832968324 -0.10437071259789503 -0.36621766259619848 -0.36299097500222738 0.037915631546189724 -0.3111114699768896 -0.11536920022839349 0.020863165833332292 -0.053653220194074154 -0.34275125524817113 -0.0706778969060773 -0.1927367994443335 -0.42378940502399737 -0.25842325711180469 -0.011686889519250928 -0.085402905245464303 -0.043171010867730855 -0.4241216258221619
decision_type=2 2 2 2 2 2 2 2 2 2 2 2 2 2 2 2 2 2 2 2 2 2
left_child=1 4 3 21 5 15 10 -8 14 16 11 12 19 -6 -9 17 18 -1 -4 -7 -14 -3
right_child=-2 2 9 -5 13 6 7 8 -10 -11 -12 -13 20 -15 -16 -17 -18 -19 -20 -21 -22 -23
leaf_value=-0.00069753417512552496 0.066647618648390111 -0.013626837693062381 -0.020434957273026626 0.021871972154138414 0.034901158668262197 0.0014620404038904588 0.0086238730971146295 -0.041864403067195348 -0.0056214839448605926 -0.020492090397299347 0.019826360470815391 -0.01719267109232064 0.012008785348144077 0.012071142406004719 -0.01878651406962599 0.029907246730850347 -0.060381393110651743 0.021238739439461612 -0.047192242912845059 -0.017872605030412197 0.028241239117449569 -0.027500021913541801
leaf_weight=11.697377838194368 10.174399264156817 11.577805861830713 6.8822660297155371 11.157815501093863 13.546983011066915 12.059833362698557 15.774190470576285 12.693869203329085 16.626507945358753 15.482697479426859 12.623083859682081 13.328818842768667 9.9936338216066307 11.995418667793272 12.213738948106768 10.947793669998644 6.5173902288079288 11.265400245785715 8.6374996379017812 11.818204239010802 11.949652403593076 9.1714709252119082
leaf_count=75 70 59 54 52 88 56 74 58 78 93 64 59 54 53 60 57 55 60 84 54 57 50
internal_value=0 -0.0026445 -0.0205252 -0.00520076 0.00394 0.000768271 -0.00335679 -0.0125341 -0.0205696 -0.0335573 0.00397092 0.000587256 0.0057592 0.0241796 -0.0305479 0.0164704 -0.0427365 0.0100643 -0.0353267 -0.00810746 0.0208485 -0.019759
internal_weight=0 257.961 69.4269 31.9071 188.535 162.992 129.082 57.3083 41.5341 37.5199 71.7732 59.1501 45.8213 25.5424 24.9076 33.9106 22.0372 22.9628 15.5198 23.878 21.9433 20.7493
internal_count=1464 1394 447 161 947 806 614 270 196 286 344 280 221 141 118 192 193 135 138 110 111 109
is_linear=0
shrinkage=0.05


Tree=40
num_leaves=25
num_cat=0
split_feature=3 0 6 2 5 6 0 0 0 0 2 6 5 6 2 2 2 5 6 0 6 5 2 2
split_gain=17.5603 11.1261 8.91813 5.79778 4.63113 4.68739 3.34404 3.23031 2.7684 3.77439 4.14309 2.43017 1.837 1.75963 1.58625 1.54441 1.57563 1.49313 1.35112 1.20845 0.326513 0.194408 0.131559 0.130499
threshold=1.5918796184818247 0.075948245456462907 0.46797409356650027 -0.36059258088793961 -0.014032278767465227 0.078414593937727609 -0.09412025279747431 -0.061675319168316478 0.0057103122153190156 -0.10437071259789503 -0.35376249552657263 0.82053051533717813 0.028089386419154799 0.58163866905500172 -0.29865435432193121 -0.36905877034727658 -0.17347940587406524 -0.0056551783177830476 -1.114753454394749 0.17025247562033374 1.0351357323732437 -0.010948792857263063 -0.20340044905084426 0.068040722873891943
decision_type=2 2 2 2 2 2 2 2 2 2 2 2 2 2 2 2 2 2 2 2 2 2 2 2
left_child=1 4 3 19 7 6 -6 -1 9 21 11 13 22 -11 -4 18 -17 -12 -8 -3 -13 -7 -5 -24
right_child=-2 2 14 12 5 8 15 -9 -10 10 17 20 -14 -15 -16 16 -18 -19 -20 -21 -22 -23 23 -25
