tree
version=v3
num_class=1
num_tree_per_iteration=1
label_index=0
max_feature_idx=9
objective=binary sigmoid:1
feature_names=Column_0 Column_1 Column_2 Column_3 Column_4 Column_5 Column_6 Column_7 Column_8 Column_9
feature_infos=[-39.599748861351209:8.9000788482569213] [-1.662425519084197:10.519856644408529] [-1.7885478797273402:6.2257652096941207] [-0.2159488219222388:5.8101459794246386] [-27.341941575767965:27.171256957381392] [-34.352181421132713:4.4685497159529746] [-1.2682927843421465:15.523717361941239] [-0.29598397758150563:16.826258168473977] [-0.92135003479692401:15.542178607335664] [-0.42558784639417108:15.729605741628339]
tree_sizes=2301 2535 2328 2330 2647 2646 2235 2434 2349 2440 2347 2447 2345 2553 2445 2558 2457 2466 2443 2548 2554 2667 2555 2762 2456 2345 2561 2763 2545 2456 2462 2442 2449 2362 2343 2558 2458 2571 2676 2568 2566 2465 2251 2557 2469 2659 2771 2357 2473 2557 2459 2366 2687 2678 2562 2573 2686 2661 2457 2561 2679 2662 2559 2667 2466 2574 2470 2676 2575 2582 2581 2577 2680 2592 2564 2673 2794 2479 2592 2251 2679

Tree=0
num_leaves=22
num_cat=0
split_feature=2 7 7 6 9 2 9 6 9 7 6 2 9 6 9 9 6 6 9 6 6
split_gain=258.122 37.2422 29.501 31.2296 25.6578 24.118 9.18344 8.29697 6.38153 4.00476 3.95953 3.91668 3.84655 3.06328 1.93939 1.50553 1.28328 1.17137 0.960214 0.368729 0.274837
threshold=-0.34977611490691546 -0.039748718320516775 -0.27630413627891387 -1.1674524848485091 -0.23471071501809312 -0.15296317988364735 0.33550235967990105 0.19988033090201765 -0.35773165719980254 0.41796494300942677 1.0102144817694365 -0.27761873020517364 -0.42368652962645381 0.39254214801504045 -0.11536920022839349 -0.18935759822681872 -0.81643560945356464 0.10424745200329612 -0.22652592140342276 -1.2567205091798874 -0.75030349280570918
decision_type=2 2 2 2 2 2 2 2 2 2 2 2 2 2 2 2 2 2 2 2 2
left_child=2 5 3 12 8 11 10 18 16 -3 15 -2 19 -6 -9 -4 -5 -10 20 -1 -7
right_child=1 9 6 4 13 7 -8 14 17 -11 -12 -13 -14 -15 -16 -17 -18 -19 -20 -21 -22
leaf_value=0.069230769230769248 -0.013157894736842105 0.01388888888888889 0.049425287356321845 -0.020634920634920631 0.023999999999999994 -0.087500000000000022 0.087234042553191504 -0.066666666666666652 -0.007407407407407406 -0.020634920634920634 0.07192982456140351 -0.04457831325301205 0.030769230769230771 0.056923076923076923 -0.040000000000000008 0.02903225806451612 -0.040983606557377053 0.013725490196078433 -0.076000000000000012 0.058695652173913038 -0.095555555555555546
leaf_weight=12.999999999999995 19 18 21.749999999999996 15.750000000000002 12.500000000000002 19.999999999999996 23.5 15.000000000000002 13.500000000000002 15.749999999999998 14.249999999999998 20.75 12.999999999999998 16.25 12.499999999999998 15.500000000000002 15.249999999999998 12.749999999999998 12.499999999999998 23.000000000000004 22.500000000000004
leaf_count=52 76 72 87 63 50 80 94 60 54 63 57 83 52 65 50 62 61 51 50 92 90
internal_value=0 -0.0487179 0.0361905 0.0222222 0.00406977 -0.0615542 0.0613333 -0.0769697 -0.0152838 -0.00222222 0.0495146 -0.0295597 0.0540816 0.0426087 -0.0545455 0.0409396 -0.0306452 0.00285714 -0.0881818 0.0625 -0.0917647
internal_weight=0 156 210 135 86 122.25 75 82.5 57.25 33.75 51.5 39.75 49 28.75 27.5 37.25 31 26.25 55 36 42.5
internal_count=1464 624 840 540 344 489 300 330 229 135 206 159 196 115 110 149 124 105 220 144 170
is_linear=0
shrinkage=0.05


Tree=1
num_leaves=23
num_cat=0
split_feature=1 7 3 7 6 6 2 6 6 6 6 6 6 6 7 6 6 7 6 1 6 1
split_gain=238.649 44.1602 25.9318 31.4032 30.103 17.2205 9.50156 7.31647 6.89849 6.72079 5.72937 2.79517 4.26053 2.39308 1.47096 2.20077 1.13544 1.06358 1.04867 0.6075 0.506634 0.163665
threshold=-0.17939054777316679 -0.17404518624287685 1.5918796184818247 -0.20215815265534512 -1.1963852858819457 0.083581165550841302 -0.15296317988364735 0.74372142218887127 1.1179288024962033 -0.67280491860900382 0.19988033090201765 -0.58195881457748722 -0.89393418365027 0.64157089976712067 0.021542838265001439 0.83452647574229311 -1.2516056032829048 0.40415935614796078 0.38737557640192671 0.35357501491356108 -0.45477559653560584 -0.057906742792220356
decision_type=2 2 2 2 2 2 2 2 2 2 2 2 2 2 2 2 2 2 2 2 2 2
left_child=2 6 3 4 16 11 9 -3 14 -2 19 12 -6 18 -5 -16 -1 -17 -7 20 21 -8
right_child=1 7 -4 8 5 13 10 -9 -10 -11 -12 -13 -14 -15 15 17 -18 -19 -20 -21 -22 -23
leaf_value=0.057216048691576593 -0.063596380220058521 -0.033909661163466338 0.098368962090671697 0.061182171635932051 -0.026174148682523685 0.019624174928274327 -0.07969398224859045 0.012503517904597207 0.088519426486905417 -0.014486381221185214 -0.055236500032118822 -0.035296097706652388 0.010906189894821412 0.0044082379704656746 0.025439312368150793 0.041156333861536422 0.041040426741238228 0.059997447695351529 0.038955892326901748 -0.076231259021425579 -0.095635819948399509 -0.087793021924874148
leaf_weight=19.981856048107147 15.744588792324068 12.995646536350248 13.991287752985953 15.23580054938793 19.747041225433346 12.498129338026049 12.475027114152907 24.496089339256287 12.730469495058058 12.495590314269064 23.731622323393822 20.246376603841782 12.747460201382639 12.7433885037899 12.490321993827818 15.232769891619684 23.735597401857376 14.736610308289526 15.990658372640608 15.222343504428862 13.970600724220278 12.475980982184408
leaf_count=80 63 52 56 61 79 50 50 98 51 50 95 81 51 51 50 61 95 59 64 61 56 50
internal_value=0 -0.050231 0.0324775 0.0280478 0.0141573 -0.00178862 -0.0667117 -0.00358454 0.0552052 -0.0418664 -0.0757214 -0.0207136 -0.0116277 0.0224187 0.0478545 0.0430721 0.0484338 0.0504209 0.030475 -0.0847001 -0.0880123 -0.0837437
internal_weight=0 143.607 222.108 208.116 137.691 93.9731 106.116 37.4917 70.426 28.2402 77.8756 52.7409 32.4945 41.2322 57.6955 42.4597 43.7175 29.9694 28.4888 54.144 38.9216 24.951
internal_count=1464 575 889 833 551 376 425 150 282 113 312 211 130 165 231 170 175 120 114 217 156 100
is_linear=0
shrinkage=0.05


Tree=2
num_leaves=21
num_cat=0
split_feature=0 1 6 4 6 1 4 0 2 6 6 6 6 6 6 2 6 0 4 6
split_gain=241.585 103.805 34.5676 14.6848 11.7997 8.53393 8.39487 7.07683 6.49949 3.26738 2.32129 3.85963 3.48884 3.4576 4.82887 1.72414 1.65022 0.973263 0.59846 0.185337
threshold=0.067747877616126301 -0.17939054777316679 0.56401497662550959 0.0057531879066233379 0.19988033090201765 -0.18626364233862325 -0.044912819807353628 0.18290956511302717 -0.24901893717615883 0.74372142218887127 1.0102144817694365 -1.184812165468571 -0.31011159136842231 0.69299981435488489 0.82053051533717813 -0.11141132977647196 -1.2493137637810439 -0.08912872454683464 -0.044545773333439655 -0.31011159136842231
decision_type=2 2 2 2 2 2 2 2 2 2 2 2 2 2 2 2 2 2 2 2
left_child=1 3 5 6 15 7 -1 -2 -4 -6 11 16 -13 17 -15 -3 -8 -14 -7 -20
right_child=2 4 8 -5 9 18 10 -9 -10 -11 -12 12 13 14 -16 -17 -18 -19 19 -21
leaf_value=0.020855581498678003 -0.029277703957440233 -0.032484397192415353 0.015799810451179903 0.0093959897678297273 -0.017738978492934748 -0.080529780359086034 0.059047488904818535 -0.078491294176886828 -0.03385085588175752 0.010463588599235088 0.073328405046427195 0.028291903739192964 0.05789861240114557 0.019218473517908577 0.057862696017073882 -0.055336073136148106 0.080244738221891321 0.076018154143716099 -0.093622185683392922 -0.086023144105785779
leaf_weight=17.473864361643791 14.732318073511125 15.716592639684675 12.466740459203722 21.469798490405083 21.706389904022217 22.869379207491875 21.173397928476334 14.488934233784674 13.985533177852629 19.491847455501556 20.13754940032959 16.491560429334641 15.471012368798258 12.976454347372053 21.440235182642937 17.384358376264572 16.211788430809975 14.225172489881514 22.622260704636574 12.434116169810293
leaf_count=70 59 63 50 86 87 92 85 58 56 78 81 66 62 52 86 70 65 57 91 50
internal_value=0 0.0273462 -0.0605133 0.0481595 -0.0222562 -0.075709 0.053508 -0.0536795 -0.0104509 -0.00439569 0.0576388 0.054961 0.0488022 0.054078 0.0432923 -0.0444859 0.0682395 0.0665783 -0.0868221 -0.0909269
internal_weight=0 251.37 113.599 177.071 74.2992 87.147 155.601 29.2213 26.4523 41.1982 138.127 117.99 80.6044 64.1129 34.4167 33.101 37.3852 29.6962 57.9258 35.0564
internal_count=1464 1008 456 710 298 350 624 117 106 165 554 473 323 257 138 133 150 119 233 141
is_linear=0
shrinkage=0.05


Tree=3
num_leaves=21
num_cat=0
split_feature=1 4 4 6 5 5 6 8 6 6 8 8 5 4 5 8 4 8 5 6
split_gain=196.758 37.8088 43.236 35.951 12.4282 9.15803 10.9778 16.0568 7.50824 5.34502 5.29527 5.79973 4.28782 3.58792 3.14357 2.78887 2.45572 3.96395 1.30477 0.503965
threshold=-0.18661955054809273 0.066370233357823591 -0.1194640369534362 0.3419097462065262 0.0067188684634762142 -0.014041190576454249 0.21067882723343814 -0.59478495485853033 0.74372142218887127 1.1038745972626651 -0.29146294110792298 0.063956745947680957 -0.0027722081098339149 0.0097363218642823792 0.0074763722275432215 -0.50460185804992064 0.093558861055154943 -0.14747214607458867 0.004869668098253818 -1.2493137637810439
decision_type=2 2 2 2 2 2 2 2 2 2 2 2 2 2 2 2 2 2 2 2
left_child=1 2 -1 4 13 19 7 18 14 10 15 -12 -10 -2 -5 -8 17 -6 -7 -4
right_child=3 -3 5 8 16 6 9 -9 12 -11 11 -13 -14 -15 -16 -17 -18 -19 -20 -21
leaf_value=-0.039566590985393307 -0.028010008021450712 -0.031352580438156086 0.0646930788412972 -0.016654478324369393 -0.048982493314480152 0.052445460863487371 0.048585410882701893 -0.019018710195415737 0.025998439244884132 0.07976492189046841 0.012554762257533939 0.050460752531720866 -0.010821417620033644 -0.059870077294850166 -0.050303976089603825 0.076484256728192035 -0.089816791686631856 -0.082835336058253356 0.032575521870689947 0.077950159594404822
leaf_weight=15.963519185781477 24.325480073690414 21.201262667775154 12.894704803824427 15.701447755098345 15.100478321313856 15.711018517613409 21.902830839157104 15.983625337481497 12.983458772301672 14.079282805323599 17.902503028512001 23.126462161540985 20.222858339548111 13.878192871809004 12.43961977958679 15.156143546104429 21.443971216678619 20.234467819333076 17.425359085202217 16.143971428275108
leaf_count=64 98 85 52 63 61 63 88 64 52 57 72 93 81 56 50 61 87 82 70 65
internal_value=0 0.0319149 0.0391153 -0.042363 -0.061633 0.0464896 0.0412335 0.0221422 -0.0125279 0.0514081 0.0462953 0.0339209 0.00357491 -0.0395838 -0.0315291 0.0599953 -0.0764688 -0.0683682 0.0419965 0.0720633
internal_weight=0 207.491 186.289 156.33 94.9826 170.326 141.287 49.12 61.3474 92.1672 78.0879 41.029 33.2063 38.2037 28.1411 37.059 56.7789 35.3349 33.1364 29.0387
internal_count=1464 834 749 630 384 685 568 197 246 371 314 165 133 154 113 149 230 143 133 117
is_linear=0
shrinkage=0.05


Tree=4
num_leaves=24
num_cat=0
split_feature=0 1 6 9 9 9 0 1 6 0 6 1 6 0 0 6 6 1 6 9 1 0 0
split_gain=203.851 85.4605 29.3578 16.3705 11.496 8.75283 8.56579 7.05211 6.82644 6.19896 6.11188 4.72717 4.3432 1.77057 5.8187 2.19896 1.58648 1.52419 1.01314 0.528561 0.184952 0.101984 0.0264311
threshold=0.067747877616126301 -0.17939054777316679 0.56401497662550959 0.67833429378457277 0.23935271931697619 -0.41579488166338008 0.01141491593033577 -0.18626364233862325 0.99098389876986281 0.18290956511302717 0.5547724966668105 -0.17571511578205237 -0.3266356472288085 -0.053653220194074154 -0.090911413207777375 0.53410621021435567 0.83452647574229311 -0.13553104587160261 -1.2567205091798874 -0.30843762133339664 0.11893750640423868 -0.12070014073213051 0.21747589824870686
decision_type=2 2 2 2 2 2 2 2 2 2 2 2 2 2 2 2 2 2 2 2 2 2 2
left_child=1 4 7 10 5 6 18 9 12 -2 17 -4 -7 14 15 -14 -6 -3 -1 20 22 -20 -9
right_child=2 3 11 -5 16 8 -8 19 -10 -11 -12 -13 13 -15 -16 -17 -18 -19 21 -21 -22 -23 -24
leaf_value=0.053853142347647293 -0.027212057800127948 -0.054324971221383536 0.012231691127356024 0.031157898686665603 0.059449349188730197 -0.0012530691676601018 0.019026003537432418 -0.08380118970234253 0.058380133467266428 -0.073332618495166049 -0.0090809387140647468 -0.030122584788817949 0.020195173196336472 0.041044554282898181 -0.0057297139102358424 0.047686197666136812 0.083134078534324585 -0.034345141300040696 0.07377012342766065 -0.072640475556653525 -0.078235206390167761 0.067777123622387345 -0.086884114691296949
leaf_weight=12.574457913637156 14.7158200442791 15.866512656211851 12.683179751038553 12.938876196742056 12.382769584655763 14.982932686805723 12.949173241853712 12.235103055834772 16.462334424257278 14.429674118757246 21.216579273343086 13.70819967985153 13.434472069144247 19.876441538333893 12.444626823067667 15.862969487905501 16.480070471763611 23.959855973720551 14.80486613512039 16.174309700727463 12.418673887848852 13.638005599379545 16.101819112896919
leaf_count=51 59 64 51 52 50 60 52 50 67 58 85 55 54 80 50 64 67 97 60 66 51 55 66
internal_value=0 0.0251584 -0.0559027 -0.0199288 0.0441224 0.0384589 0.0544791 -0.070048 0.0291689 -0.0500459 -0.0307573 -0.00976795 0.0228912 0.028762 0.0229134 0.0350801 0.0729728 -0.0423049 0.0656716 -0.0802881 -0.0833232 0.0708966 -0.085553
internal_weight=0 249.875 112.467 73.9818 175.893 147.03 53.9665 86.0754 93.0638 29.1455 61.0429 26.3914 76.6014 61.6185 41.7421 29.2974 28.8628 39.8264 41.0173 56.9299 40.7556 28.4429 28.3369
internal_count=1464 1008 456 298 710 593 218 350 375 117 246 106 308 248 168 118 117 161 166 233 167 115 116
is_linear=0
shrinkage=0.05


Tree=5
num_leaves=24
num_cat=0
split_feature=1 4 4 9 3 9 9 1 8 9 8 1 1 4 8 9 9 1 8 9 9 9 8
split_gain=162.544 31.8382 36.4247 30.8049 10.818 9.36413 8.56568 8.05289 8.04812 6.30633 6.19637 4.60795 3.08264 3.02435 2.86992 2.42283 1.2096 1.18219 0.898631 0.80526 0.387496 0.277338 0.000496629
threshold=-0.18661955054809273 0.066370233357823591 -0.1194640369534362 0.35414428611389931 1.5918796184818247 0.33550235967990105 -0.31714541654816325 0.21584392668618876 -0.64459721649170698 -0.27152057888234171 -0.41372146925567743 -0.11216112815029362 -0.19273918767904949 0.087985192377202009 -0.46240310447444183 -0.11363083940322273 -0.31295890570955875 -0.052877794085017971 0.3155491008331629 -0.42403051125967955 -0.21766910090965516 -0.42413196441670414 -0.17710705546401587
decision_type=2 2 2 2 2 2 2 2 2 2 2 2 2 2 2 2 2 2 2 2 2 2 2
left_child=1 2 -1 6 5 8 13 -5 12 16 -8 -12 19 14 -2 20 -10 -15 -13 -4 -11 -16 -7
right_child=3 -3 4 7 -6 22 10 -9 9 15 11 18 -14 17 21 -17 -18 -19 -20 -21 -22 -23 -24
leaf_value=-0.036591604936499135 -0.0338701548022904 -0.029028850387164146 0.048555819456214788 0.039603193831566443 0.08786173548337374 0.067521923695301397 -0.006222801644953398 -0.015585119182303028 -0.0047809215427584532 0.049215759597085219 -0.025468544184638238 -0.064014663165567434 0.068255912072272454 -0.085655724593598048 -0.06740549946739284 0.019790368992959662 0.015804065595927921 -0.063938918198850392 -0.046320207613076335 0.034835075510950129 0.037573643442086413 -0.057211667514345803 0.067073291189856041
leaf_weight=15.900654122233389 13.052329823374746 21.136789336800575 20.102670878171917 12.440137922763826 12.228521585464476 12.468343034386637 13.831024616956709 14.10390345752239 15.663490921258928 14.310042843222616 19.857761099934578 17.177443534135822 14.024781554937361 13.079193770885469 13.794999420642851 17.526496261358265 13.108933642506598 12.031106248497961 12.323018133640288 22.846750676631931 14.279297545552252 12.922655776143076 12.208986580371855
leaf_count=64 53 85 82 50 50 51 56 57 63 58 80 70 57 54 57 71 53 50 50 92 58 53 50
internal_value=0 0.0291002 0.0357535 -0.0387431 0.0425696 0.0390315 -0.0489036 0.0102795 0.0337412 0.0229669 -0.0358009 -0.0440891 0.0479032 -0.0616649 -0.053087 0.0344277 0.00459775 -0.0752505 -0.0566233 0.0412571 0.043401 -0.062475 0.0673
internal_weight=0 205.806 184.669 154.614 168.768 156.54 128.07 26.544 131.862 74.8883 63.1892 49.3582 56.9742 64.8803 39.77 46.1158 28.7724 25.1103 29.5005 42.9494 28.5893 26.7177 24.6773
internal_count=1464 834 749 630 685 635 523 107 534 303 256 200 231 267 163 187 116 104 120 174 116 110 101
is_linear=0
shrinkage=0.05


Tree=6
num_leaves=20
num_cat=0
split_feature=0 2 7 7 9 8 8 7 2 0 0 9 7 9 8 0 0 0 2
split_gain=173.92 69.6955 25.0388 11.9382 10.7993 10.7379 8.28168 6.79942 6.78403 6.41936 4.94868 3.74297 3.88898 5.43548 3.224 1.62084 0.447223 0.307494 0.0683507
threshold=0.067747877616126301 -0.34977611490691546 -0.18344649384271036 0.048389120212773466 0.17383542289001494 -0.45230495912740215 -0.68044959960023454 0.40415935614796078 -0.20308509907542774 -0.12070014073213051 0.17636709772736733 -0.41368092170421417 -0.14387520418022412 -0.25485040658945857 -0.037648658337299773 -0.05472283339063979 -0.090911413207777375 0.12926846330526023 0.069339218189741189
decision_type=2 2 2 2 2 2 2 2 2 2 2 2 2 2 2 2 2 2 2
left_child=1 4 8 5 6 -3 9 11 10 -1 -2 -8 13 -13 -7 -11 -6 -10 -19
right_child=2 3 -4 -5 16 14 7 -9 17 15 -12 12 -14 -15 -16 -17 -18 18 -20
leaf_value=0.074787377643181094 -0.032272251818869162 0.0020454629430724852 -0.0056545636558836135 0.020409413759769832 0.075145851586292126 -0.052716256782262251 0.041325094581779784 0.054495968423626195 -0.071066693690322411 0.025750077577814598 -0.066452582372892047 -0.016458747398583121 0.030927379537362683 0.024066415783605397 -0.023961006203280191 0.048907136717237849 0.063141747638817289 -0.077209217183742393 -0.081965421022112045
leaf_weight=19.123198360204697 20.569487228989601 23.727232292294502 23.011744767427444 19.194663837552071 13.825899958610536 22.835555717349052 14.795485183596609 17.051438137888908 12.651076450943945 14.542487055063249 21.825904920697212 17.660094186663624 18.918676689267159 15.568537861108782 17.007551193237305 15.729479894042013 17.681893512606621 11.831470429897307 20.89238940179348
leaf_count=79 83 96 93 77 57 93 60 70 53 59 89 71 77 63 69 64 73 50 88
internal_value=0 0.0232902 -0.0520784 -0.014149 0.0420816 -0.0245836 0.0358627 0.0263087 -0.0642499 0.0521089 -0.0498689 0.019129 0.0128314 0.00252842 -0.0404417 0.0377826 0.0684093 -0.0776865 -0.0802458
internal_weight=0 247.662 110.782 82.765 164.897 63.5703 133.389 83.9942 87.7703 49.3952 42.3954 66.9428 52.1473 33.2286 39.8431 30.272 31.5078 45.3749 32.7239
internal_count=1464 1008 456 335 673 258 543 341 363 202 172 271 211 134 162 123 130 191 138
is_linear=0
shrinkage=0.05


Tree=7
num_leaves=22
num_cat=0
split_feature=1 6 3 6 8 6 6 6 8 8 1 8 8 8 8 6 8 2 6 2 8
split_gain=135.855 26.8798 20.5917 18.2934 40.9884 9.17781 6.42156 6.41079 5.31961 4.19298 3.8909 3.82517 3.54983 6.14363 2.98857 2.3469 2.34079 1.46197 0.589055 0.553961 0.52054
threshold=-0.17939054777316679 0.74372142218887127 1.5918796184818247 0.38737557640192671 -0.64650077712635412 -1.184812165468571 1.138595088948658 0.19988033090201765 -0.41566050345794053 -0.53342326012277541 -0.10497358268056568 -0.29146294110792298 0.063956745947680957 0.72472391262208136 -0.47578045597706603 -0.26361244685039914 0.045465059890294764 0.98933910278237291 -0.93940001384567051 -0.016880870782647859 -0.68099315497318214
decision_type=2 2 2 2 2 2 2 2 2 2 2 2 2 2 2 2 2 2 2 2 2
left_child=2 7 3 4 5 20 11 8 9 -2 -9 14 -13 -14 -5 18 -3 19 -6 -10 -1
right_child=1 16 -4 6 15 -7 -8 10 17 -11 -12 12 13 -15 -16 -17 -18 -19 -20 -21 -22
leaf_value=0.054003522224051026 -0.058924759810705052 0.019715789379696799 0.08466800610857983 0.031179598957760263 -0.029961590819463736 0.0099759794235656368 0.069020159072889067 -0.053314887486361387 -0.064851314963509835 -0.019690750512591972 -0.018065472830555127 0.0042993937505260357 0.055777318517747455 0.0074416505431824116 0.060000384056627415 -0.013405064588290725 -0.0087010088376832453 -0.054965230690443616 -0.043977489493769312 -0.078272564082669402 0.041837658695267274
leaf_weight=23.069388538599011 14.324705302715303 12.970587074756624 13.429404258728026 21.023916199803352 16.334240227937702 24.510438546538353 13.358174860477446 12.720222279429434 11.80311633646488 12.980841517448424 20.357848733663559 17.646305903792381 14.112916544079782 12.30659733712673 15.720735073089598 17.559019222855568 16.422410070896149 15.288314267992972 13.855048909783362 22.053858503699303 14.20717738568783
leaf_count=96 59 52 56 86 66 99 56 52 50 54 83 72 58 50 65 71 66 65 56 94 58
internal_value=0 -0.0386173 0.0246994 0.0207459 0.00685303 0.0337407 0.0369059 -0.0500107 -0.0579676 -0.0402732 -0.0316207 0.0315974 0.0216637 0.0332619 0.0435102 -0.02794 0.0038388 -0.0677987 -0.036394 -0.0735937 0.0493668
internal_weight=0 138.922 217.133 203.704 109.535 61.787 94.1686 109.529 76.4508 27.3055 33.0781 80.8105 44.0658 26.4195 36.7447 47.7483 29.393 49.1453 30.1893 33.857 37.2766
internal_count=1464 575 889 833 446 253 387 457 322 113 135 331 180 108 151 193 118 209 122 144 154
is_linear=0
shrinkage=0.05


Tree=8
num_leaves=21
num_cat=0
split_feature=2 5 7 8 7 9 5 7 8 9 5 9 8 2 8 8 5 5 2 2
split_gain=121.943 24.7164 21.2944 16.6887 15.0871 9.8213 12.4041 9.27194 9.11204 8.67092 8.37526 6.32828 6.29544 5.73075 5.20787 3.86154 1.89401 1.73141 1.02708 0.333478
threshold=-0.34977611490691546 0.019839279247566208 -0.062762573275136749 -0.62918469281645362 -0.20215815265534512 0.037230205664673964 -0.014041190576454249 -0.13142917030699125 -0.68044959960023454 0.30587242180206559 -0.00032146063785242721 -0.25485040658945857 -0.52528818695705015 -0.15296317988364735 -0.62360635693138511 -0.16780982898890145 0.009457021775353713 -0.004801872607084038 0.23970180362916046 0.34163212772894619
decision_type=2 2 2 2 2 2 2 2 2 2 2 2 2 2 2 2 2 2 2 2
left_child=1 5 3 -2 14 6 -1 8 -8 13 -4 12 -10 -5 -3 -9 18 -7 -15 -18
right_child=2 4 10 9 -6 17 7 15 11 -11 -12 -13 -14 16 -16 -17 19 -19 -20 -21
leaf_value=0.056764789962593688 0.010754587615820571 -0.0039910855303647548 0.030679014454637884 -0.035943632378545198 0.034546671325697213 0.049860971656613316 0.035146451731570896 0.059281423100406107 0.0035310265521086058 -0.014674381302189399 -0.019787795162503081 0.022511938904054968 -0.043492997962096783 -0.063751194649764392 -0.044389308497471927 0.022316573789353256 -0.066790034897637129 0.073282884143193422 -0.043508173161538509 -0.07591120264254228
leaf_weight=29.050696760416031 12.219459787011145 14.714544370770449 13.690783530473707 24.053360670804977 15.212283238768576 20.786853089928627 21.996876806020737 16.102728605270389 15.539373204112051 14.15174090862274 20.577287346124649 14.51402112841606 13.132582753896715 12.642321527004244 17.424646526575092 12.588393315672873 20.548662170767784 12.717722505331038 12.42383688688278 19.559267640113831
leaf_count=122 50 60 55 99 63 87 90 67 63 58 83 59 53 53 71 52 89 53 52 85
internal_value=0 0.0251737 -0.0342417 -0.0445034 -0.00647628 0.0347542 0.0282134 0.0193778 0.00895244 -0.0510349 0.00037471 -0.00438954 -0.0180073 -0.0568018 -0.0258935 0.0430629 -0.0644998 0.0587515 -0.0537179 -0.0712381
internal_weight=0 203.781 149.867 115.599 47.3515 156.429 122.925 93.874 65.1829 103.379 34.2681 43.186 28.672 89.2274 32.1392 28.6911 65.1741 33.5046 25.0662 40.1079
internal_count=1464 840 624 486 194 646 506 384 265 436 138 175 116 378 131 119 279 140 105 174
is_linear=0
shrinkage=0.05


Tree=9
num_leaves=22
num_cat=0
split_feature=1 7 7 8 2 6 6 6 6 8 6 6 8 8 6 6 6 8 2 1 6
split_gain=113.912 27.09 13.1531 31.4126 10.1635 8.64212 6.27933 7.30716 5.22859 5.14109 4.61036 3.57707 2.68798 2.44023 2.35878 1.32535 0.842911 0.789858 0.460339 0.200738 0.029082
threshold=-0.18661955054809273 -0.21903845144364589 -0.24122039624018049 -0.64650077712635412 -0.15296317988364735 0.23237842800851569 -1.184812165468571 -0.12928158490944294 1.1038745972626651 -0.14747214607458867 -0.2863453619480994 0.19988033090201765 -0.27774953205712927 0.063956745947680957 0.74372142218887127 -0.61840042043209875 -1.2386478416772155 -0.36728099323501806 0.98933910278237291 -0.057906742792220356 -1.2557491937166219
decision_type=2 2 2 2 2 2 2 2 2 2 2 2 2 2 2 2 2 2 2 2 2
left_child=2 4 3 6 10 15 16 -8 12 -3 -2 17 -4 -14 -11 -5 20 -6 19 -19 -1
right_child=1 9 8 5 11 -7 7 -9 -10 14 -12 -13 13 -15 -16 -17 -18 18 -20 -21 -22
leaf_value=0.04472176777191636 -0.037784016626006431 0.027674470278225366 0.050099756683754208 -0.0176313071050796 -0.053554130473320784 0.013823845799460558 0.0018761964738020628 0.048098344259579318 0.071005144911214776 -0.026743420690614656 -0.00010209089386767709 -0.040478769335681175 0.0094348875778433195 0.037500056360431966 0.0012586248828632314 -0.036468716058251596 0.062110843171560161 -0.067729266129109275 -0.060606299282240109 -0.076660161048549808 0.048000467342340362
leaf_weight=14.669238895177839 23.82497039437294 12.348046988248823 20.371950715780258 22.40771059691906 11.586597457528113 21.990941569209099 19.694591701030731 15.110820636153219 13.147902265191076 12.963166207075121 12.311982110142706 21.390724539756775 12.364636868238447 20.731517866253853 17.91219487786293 16.008141174912453 12.064241215586661 12.117180451750754 12.421995267271994 13.087641641497614 12.549256756901743
leaf_count=62 99 50 86 91 50 90 80 62 57 53 50 89 51 86 72 65 51 54 55 58 53
internal_value=0 -0.0329884 0.0245879 0.0155887 -0.0465114 -0.0111722 0.0374079 0.0219436 0.0427568 0.000406978 -0.0249457 -0.0575493 0.0358105 0.027015 -0.0104982 -0.025481 0.0511096 -0.0649691 -0.0684841 -0.0723666 0.0462334
internal_weight=0 149.964 201.111 134.495 106.741 60.4068 74.0881 34.8054 66.616 43.2234 36.137 70.6041 53.4681 33.0962 30.8754 38.4159 39.2827 49.2134 37.6268 25.2048 27.2185
internal_count=1464 630 834 554 455 246 308 142 280 175 149 306 223 137 125 156 166 217 167 112 115
is_linear=0
shrinkage=0.05


Tree=10
num_leaves=21
num_cat=0
split_feature=1 9 5 9 5 9 9 5 9 5 9 1 9 9 5 9 9 5 9 1
split_gain=103.726 24.1669 21.3771 16.9502 12.9902 5.31482 7.23792 4.85731 4.00477 3.23138 3.18212 3.07139 3.57071 1.91886 1.78807 1.45592 1.04331 0.869733 0.670012 0.0922238
threshold=-0.18661955054809273 0.67833429378457277 0.011642642929911752 -0.01457486877350095 0.013478475581650612 0.037230205664673964 -0.41579488166338008 -0.0087653996549522818 -0.42534436975762374 0.024609325008941085 -0.27152057888234171 -0.02912422788946149 -0.32526190615021427 -0.4200950988080962 0.027728458155099344 -0.21970596813914817 -0.14790422847103493 -0.0058467822110470549 0.55750002816702804 -0.023802567337581879
decision_type=2 2 2 2 2 2 2 2 2 2 2 2 2 2 2 2 2 2 2 2
left_child=2 4 5 8 11 6 7 -1 -4 -10 17 12 -2 19 -15 -12 -14 -8 -7 -6
right_child=1 -3 3 -5 13 18 10 -9 9 -11 15 -13 16 14 -16 -17 -18 -19 -20 -21
leaf_value=0.058157692955871726 -0.035481581903216042 0.023260714720520343 -0.033465156334273327 0.048735706883972663 -0.070048917509818454 0.063304620148449828 -0.00032859045544666424 0.021980008264993033 0.014990693365558179 -0.015785082959547867 0.041878081329648209 -0.04021332880578285 -0.014779552828511422 -0.062424125874914277 -0.039582033637082938 0.021544964170003424 0.0039185416934945563 0.017150960994643326 0.04715007985164521 -0.063907213506337809
leaf_weight=28.383594036102295 17.824884817004204 17.65914286673069 16.324659451842308 14.171006023883818 12.038384273648264 13.219231992959978 16.169122889637951 13.7835406512022 14.15075099468231 21.470260053873062 14.485401019454001 21.680094808340073 19.018302351236347 14.307506307959555 21.355153769254684 22.445326387882233 12.275702282786368 12.710900902748106 12.476241677999495 12.416707679629324
leaf_count=122 76 72 67 60 53 56 66 57 58 88 60 92 78 61 92 94 50 52 54 56
internal_value=0 -0.0316451 0.0235208 0.000265386 -0.0390513 0.0350233 0.0301597 0.046332 -0.0129575 -0.00355914 0.0197976 -0.024538 -0.0176192 -0.0561433 -0.0487461 0.0295203 -0.00744485 0.00736465 0.0554609 -0.0669306
internal_weight=0 148.576 199.79 66.1167 130.917 133.673 107.978 42.1671 51.9457 35.621 65.8108 70.799 49.1189 60.1178 35.6627 36.9307 31.294 28.88 25.6955 24.4551
internal_count=1464 630 834 273 558 561 451 179 213 146 272 296 204 262 153 154 128 118 110 109
is_linear=0
shrinkage=0.05


Tree=11
num_leaves=22
num_cat=0
split_feature=1 4 4 7 4 8 8 4 7 8 7 8 8 1 8 7 4 8 8 8 8
split_gain=94.3962 29.4128 26.2421 25.2495 8.41898 8.28504 8.09252 3.03602 3.02094 2.61403 3.78535 2.17916 1.95513 1.75893 1.3994 1.39615 1.13449 0.671353 0.263493 0.234461 0.078351
threshold=-0.17939054777316679 0.0019331857151482824 -0.044912819807353628 -0.17404518624287685 0.096413666963374736 -0.64650077712635412 -0.41372146925567743 -0.1194640369534362 0.41796494300942677 -0.64459721649170698 -0.075664399227466067 0.24824105577246816 -0.53342326012277541 -0.19273918767904949 -0.20768021073332552 0.40415935614796078 -0.090508148455778301 -0.17319447343050745 0.078566672601630264 -0.68147794257758065 -0.48501353623811538
decision_type=2 2 2 2 2 2 2 2 2 2 2 2 2 2 2 2 2 2 2 2 2
left_child=1 2 7 4 6 -3 12 -1 -5 13 17 16 -2 19 -12 -16 -8 20 -6 -4 -11
right_child=3 5 9 8 18 -7 11 -9 -10 10 14 -13 -14 -15 15 -17 -18 -19 -20 -21 -22
leaf_value=-0.026521637904170114 -0.027790650028383018 0.0088411168281284213 0.038486409077653272 0.013991294651334474 -0.075179397164790496 -0.039471887035431273 -0.070673180636632166 0.0049317971502529879 -0.015155751920812116 0.0191154118930368 0.052089328065877794 -0.035974808113393354 0.00028102864380610918 0.060658753036877011 0.023108034313550865 0.045051670952133881 -0.050277360381904536 0.030069085793502839 -0.064997325101206663 0.046843329744022069 0.013517882772277279
leaf_weight=17.119856566190723 13.00166215002537 14.928127661347387 27.155768290162086 22.118811994791031 14.547916293144228 21.879701554775238 11.250738158822061 13.901949048042296 14.863700106739996 12.732420355081556 20.519533738493919 17.675359979271889 11.86133489012718 16.174658507108688 13.315190806984903 15.90963366627693 17.304940834641457 13.911161825060843 11.280772939324377 12.147427111864088 12.282118335366251
leaf_count=70 54 61 117 90 66 90 51 57 60 52 89 78 50 69 56 69 74 57 52 51 51
internal_value=0 0.0207529 0.0292905 -0.0328722 -0.0462838 -0.0198776 -0.0374016 -0.0124263 0.00227676 0.0382683 0.0329424 -0.0497726 -0.0143986 0.0467806 0.042081 0.0350539 -0.0583132 0.0212638 -0.0707323 0.0410693 0.016367
internal_weight=0 211.978 175.17 133.905 96.9227 36.8078 71.094 31.0218 36.9825 144.148 88.6701 46.231 24.863 55.4779 49.7444 29.2248 28.5557 38.9257 25.8287 39.3032 25.0145
internal_count=1464 889 738 575 425 151 307 127 150 611 374 203 104 237 214 125 125 160 118 168 103
is_linear=0
shrinkage=0.05


Tree=12
num_leaves=21
num_cat=0
split_feature=0 1 9 4 1 0 9 5 4 4 4 9 9 5 9 9 0 1 5 0
split_gain=122.096 39.6041 10.4025 10.0709 7.65033 6.46741 6.00685 5.76837 5.73122 4.91332 4.33767 3.79789 3.48412 2.49915 1.31943 1.24473 3.20544 0.59328 0.345332 0.194661
threshold=0.080868466160664856 -0.17939054777316679 0.67833429378457277 0.0057531879066233379 -0.18661955054809273 0.17310477747784211 0.33550235967990105 -0.013747100879816471 -0.050173819266787247 0.054135350894024478 -0.031400071841779946 -0.23183808091128566 -0.30918597512034879 -0.010725997632537473 -0.42368652962645381 -0.30843762133339664 -0.090911413207777375 -0.058319050083059633 0.027790840818022508 -0.11381896250089156
decision_type=2 2 2 2 2 2 2 2 2 2 2 2 2 2 2 2 2 2 2 2
left_child=1 3 8 6 5 -2 7 19 -3 11 -9 -10 17 -12 -15 -16 -17 -6 -14 -1
right_child=4 2 -4 -5 12 -7 -8 10 9 -11 13 -13 18 14 15 16 -18 -19 -20 -21
leaf_value=0.056591988948021324 -0.0088183422110471744 0.0050310121125480521 0.0291807974749142 0.00043368036900473078 -0.072197474747550713 -0.050275140432392909 0.061152125443319806 0.005475845249906657 -0.061611078217146321 -0.002261444196788291 0.012630358624197049 -0.026180145129868101 -0.048306509695930679 0.021476899464608606 0.051284571550457507 0.051928602730823926 0.022102289496490617 -0.059818465978488999 -0.036379202724712484 0.048117586216059084
leaf_weight=16.181214570999149 19.874855950474739 16.585169583559036 13.046368971467016 21.268224969506264 20.015101104974747 17.862848579883575 22.289433717727661 18.544194370508194 12.218601837754244 12.077158406376837 13.332146242260931 19.851775601506237 11.60583606362343 12.09331603348255 16.29300582408905 15.588920503854746 21.33816230297089 18.742436572909355 12.719743981957434 11.658993512392042
leaf_count=73 81 70 53 87 92 74 99 76 52 51 56 82 50 51 67 67 90 88 55 50
internal_value=0 0.0192258 -0.0113269 0.0325965 -0.0462491 -0.0284416 0.0372398 0.0329769 -0.0200287 -0.029443 0.027229 -0.0396791 -0.056902 0.0323582 0.0363852 0.0397728 0.0346936 -0.0662112 -0.0420698 0.0530431
internal_weight=0 242.367 73.7791 168.588 100.821 37.7377 147.319 125.03 60.7327 44.1475 97.1897 32.0704 63.0831 78.6456 65.3134 53.2201 36.9271 38.7575 24.3256 27.8402
internal_count=1464 1024 308 716 440 155 629 530 255 185 407 134 285 331 275 224 157 180 105 123
is_linear=0
shrinkage=0.05


Tree=13
num_leaves=23
num_cat=0
split_feature=0 2 6 7 8 2 6 6 6 0 2 6 0 0 0 6 6 2 0 6 6 0
split_gain=111.521 36.0742 21.0237 7.25718 8.47113 4.93488 4.72711 5.79636 6.62857 3.57953 3.04627 2.24019 4.30253 1.93018 1.7531 1.571 1.4953 1.08232 0.875041 0.572472 0.518726 0.00273334
threshold=0.080868466160664856 -0.34977611490691546 0.77316704368753941 0.048389120212773466 -0.45230495912740215 -0.20308509907542774 0.96294534551756727 -1.1674524848485091 0.083581165550841302 0.13049851848131069 -0.081026539385599908 0.69299981435488489 -0.092622794322282404 -0.030923939767054254 -0.047235541014680298 0.19988033090201765 -1.2506386277397945 -0.36973658490214989 -0.10053793197686815 1.1179288024962033 0.025715563483967845 0.1747091972726906
decision_type=2 2 2 2 2 2 2 2 2 2 2 2 2 2 2 2 2 2 2 2 2 2
left_child=1 6 5 4 -3 9 7 14 13 -2 -6 18 -13 -9 16 -12 -1 -11 -10 -8 21 -7
right_child=2 3 -4 -5 10 20 19 8 11 17 15 12 -14 -15 -16 -17 -18 -19 -20 -21 -22 -23
leaf_value=0.042006471254977008 -0.021944243058107871 0.0069455411116387455 0.0068195681016974628 0.017985605532553513 -0.010070405158960417 -0.071075226027095414 0.045540128080491932 0.013694470391366217 0.03062177924273872 -0.062375450288700264 -0.052859483495793586 0.043080816152090751 0.0079744301368172218 -0.011708519049332095 0.029211079544095034 -0.028763352299278691 0.066117040794537743 -0.041897675481262768 0.048119568492464425 0.061068835169455653 -0.058603809528925688 -0.070063447884660346
leaf_weight=14.729927837848662 14.099225789308546 23.611063495278358 16.604859411716461 19.829360470175743 12.066882506012915 10.380351632833483 12.48632235825062 17.888699397444729 11.733585432171823 14.417863994836805 12.946812748908998 15.073622211813925 20.730161145329475 12.848580136895178 11.648807927966116 14.165043056011198 11.413315683603289 11.679532796144487 18.270651146769524 11.311810001730917 13.630813792347906 18.701132208108902
leaf_count=66 58 98 68 80 50 50 55 73 50 60 58 65 88 52 49 59 52 51 77 52 61 92
internal_value=0 0.0183926 -0.0445335 -0.00838401 -0.0167117 -0.0548184 0.0323822 0.0287437 0.0222456 -0.0422439 -0.0309687 0.0311995 0.0227544 0.00307569 0.045344 -0.0402701 0.0525324 -0.0532109 0.0412768 0.0529213 -0.0666522 -0.0704246
internal_weight=0 240.755 99.5138 82.6192 62.7898 82.9089 158.135 134.337 96.5453 40.1966 39.1787 65.808 35.8038 30.7373 37.7921 27.1119 26.1432 26.0974 30.0042 23.7981 42.7123 29.0815
internal_count=1464 1024 440 345 265 372 679 572 405 169 167 280 153 125 167 117 118 111 127 107 203 142
is_linear=0
shrinkage=0.05


Tree=14
num_leaves=22
num_cat=0
split_feature=0 1 6 9 9 8 6 8 8 1 0 0 1 8 0 0 9 9 6 8 0
split_gain=102.016 33.0663 19.5412 9.38931 8.59077 8.22382 5.47182 5.39862 5.85946 5.2665 5.75102 2.57942 2.06739 1.99273 4.62767 6.53374 1.24892 0.65849 0.480314 0.255412 0.306046
threshold=0.080868466160664856 -0.17939054777316679 0.77316704368753941 0.67833429378457277 0.33550235967990105 -0.64459721649170698 0.96294534551756727 0.19456952240239139 -0.36258672364254818 -0.18626364233862325 0.18290956511302717 -0.12084275582500593 -0.19273918767904949 -0.49809379951734062 -0.018890791305690772 -0.090911413207777375 -0.36053575025390416 -0.25590910055120547 0.83955181808704793 -0.33202056221185444 0.17636709772736733
decision_type=2 2 2 2 2 2 2 2 2 2 2 2 2 2 2 2 2 2 2 2 2
left_child=1 4 9 7 5 11 13 8 -3 10 -2 -1 16 -7 15 -15 -13 19 -6 -11 -21
right_child=2 3 -4 -5 18 6 -8 -9 -10 17 -12 12 -14 14 -16 -17 -18 -19 -20 20 -22
leaf_value=0.052752550937906019 -0.014453101357426598 -0.0092363722287076063 0.0064782882804289765 0.028135368905255503 0.050528727898403583 -0.0075884317936886526 0.041589538681052605 0.0077463927651345039 -0.0450778546422195 -0.072078999038061198 -0.058536412551920762 0.01696785471232946 0.049447532870101674 0.028939738224329534 0.03484086523200855 -0.019236165315592246 0.03623643509760139 -0.052680780075671355 0.064785337041303417 -0.056265692310739794 -0.067188212711554215
leaf_weight=20.688762336969376 14.993488609790804 22.795820698142048 16.605609849095345 13.019616052508352 11.471282064914705 16.255536258220673 14.48870839178562 14.623485103249548 22.816866993904117 11.536819413304327 14.605106830596922 19.507283911108967 11.919889077544211 12.145746991038321 15.571140140295027 16.735025271773342 14.78231915831566 12.575658813118933 12.181644871830938 10.062874093651773 17.683146804571152
leaf_count=95 61 96 68 53 51 67 65 61 98 55 62 83 51 52 64 69 62 57 57 49 88
internal_value=0 0.0176068 -0.0429563 -0.0103677 0.0299708 0.0253266 0.0139809 -0.0186899 -0.0271654 -0.0530339 -0.0362055 0.0380795 0.0315101 0.00739176 0.0128698 0.00102411 0.0252746 -0.0626387 0.0578711 -0.0658266 -0.0632269
internal_weight=0 239.003 98.0627 73.2558 165.747 142.094 75.1962 60.2362 45.6127 81.4571 29.5986 66.8983 46.2095 60.7074 44.4519 28.8808 34.2896 51.8585 23.6529 39.2828 27.746
internal_count=1464 1024 440 308 716 608 317 255 194 372 123 291 196 252 185 121 145 249 108 192 137
is_linear=0
shrinkage=0.05


Tree=15
num_leaves=23
num_cat=0
split_feature=0 1 7 7 3 4 4 4 1 0 7 1 0 0 0 1 1 4 0 0 4 0
split_gain=93.4493 29.2249 16.7955 11.9088 10.5899 8.14264 6.74325 4.37151 4.35477 4.85777 1.70314 2.21043 2.4542 4.54152 5.9616 1.96204 1.64127 1.81193 1.52861 1.46054 1.19705 0.138616
threshold=0.073987287929425882 -0.17939054777316679 -0.18344649384271036 0.048389120212773466 1.5918796184818247 0.0057531879066233379 -0.043594171364033055 -0.017832946620811606 -0.18626364233862325 0.18290956511302717 0.67148297510948562 -0.19273918767904949 -0.026556352547744546 -0.060962243703939378 -0.090911413207777375 -0.19088346806794101 -0.13463796856139917 0.010633546578294316 -0.10772216728046739 -0.12925704630465565 -0.044763282355018301 0.21820680059969341
decision_type=2 2 2 2 2 2 2 2 2 2 2 2 2 2 2 2 2 2 2 2 2 2
left_child=1 4 8 7 5 6 -1 -3 9 -2 11 12 13 14 18 -13 -9 -18 19 -8 -10 -22
right_child=2 3 -4 -5 -6 -7 10 16 20 -11 -12 15 -14 -15 -16 -17 17 -19 -20 -21 21 -23
leaf_value=0.00069504470187781034 -0.016984134392765565 -0.00031574368445615685 -0.0023749337371913332 0.025262418540140344 0.0750150796947084 -0.0039452549953975817 0.040937974232063128 -0.04591569512239576 -0.051577860403218184 -0.057311787905714784 0.051183069579248702 0.059895709989692916 0.010211817795691214 0.057783238811954934 -0.0041217021805862175 0.031068339998393719 -0.009922589230466336 -0.037219434462022895 0.050957412410563813 0.016337817721439638 -0.071032115287717038 -0.063965908342706088
leaf_weight=17.233939051628113 14.97126278281212 16.843335300683975 21.942300379276276 18.361039042472839 11.506216928362845 20.621809557080269 12.080893889069548 12.366715133190153 18.268645092844963 14.898646742105482 13.138467207551001 11.770367339253427 15.558523967862127 13.738506317138677 12.751651912927626 11.839981302618979 12.183452114462854 12.133966162800787 11.26631158590317 12.053625032305716 16.142847746610645 12.174519687891005
leaf_count=71 61 72 91 74 53 85 56 53 90 64 61 53 66 60 55 50 52 52 50 53 79 63
internal_value=0 0.0170867 -0.0409349 -0.00948428 0.0287652 0.0252654 0.0298486 -0.0214031 -0.0520014 -0.0370989 0.0342482 0.0320466 0.0279637 0.0324263 0.0251917 0.0454395 -0.0310853 -0.0235432 0.0357506 0.0286518 -0.0615565 -0.0679941
internal_weight=0 235.449 98.3982 71.8885 163.56 152.054 131.432 53.5275 76.4559 29.8699 114.198 101.06 77.4495 61.891 48.1525 23.6103 36.6841 24.3174 35.4008 24.1345 46.586 28.3174
internal_count=1464 1016 448 303 713 660 575 229 357 125 504 443 340 274 214 103 157 104 159 109 232 142
is_linear=0
shrinkage=0.05


Tree=16
num_leaves=22
num_cat=0
split_feature=0 1 7 7 8 1 8 1 0 5 7 8 0 8 8 8 5 5 1 8 5
split_gain=85.6307 27.391 17.8011 10.8994 4.23475 4.17405 4.01743 3.85613 3.55789 3.41902 2.91781 1.86421 3.27173 1.73927 4.08517 1.06117 0.975558 0.723311 0.426432 0.165584 0.14905
threshold=0.064539038026429366 -0.17939054777316679 -0.29484907593518239 0.048389120212773466 -0.43871894997099697 -0.11512517237998222 0.036729153463615397 -0.18626364233862325 0.18290956511302717 -0.014041190576454249 0.41796494300942677 -0.29421336983204216 -0.058823017310808093 -0.50460185804992064 -0.62918469281645362 -0.68147794257758065 -0.0038639047109893057 0.010740322269773112 -0.0034054507065867335 -0.25069537700865041 0.0010710095166825099
decision_type=2 2 2 2 2 2 2 2 2 2 2 2 2 2 2 2 2 2 2 2 2
left_child=1 9 7 4 -3 -4 -6 8 -2 15 11 13 -13 14 16 -1 -11 -18 19 -9 -12
right_child=2 3 5 -5 6 -7 -8 18 -10 10 20 12 -14 -15 -16 -17 17 -19 -20 -21 -22
leaf_value=0.052604229073028988 -0.021155804705814577 -0.0013870271256015742 0.016231765841305198 0.024474243407589542 -0.045049714373586604 -0.024322675647985906 -0.010047439467802146 -0.060047284451471075 -0.055277119729713664 0.020086386303817871 0.045876795003525546 -0.0063350572835453511 0.025278472049081891 0.039963119126665766 -0.00059122142825746677 0.032434981134814911 0.042386700474384489 0.02641918437844237 -0.055030363660373297 -0.068391300000071181 0.037550357941916794
leaf_weight=15.946153834462168 15.929913863539698 18.407003611326218 13.596146240830423 17.864152491092682 20.61063377559185 11.896520867943762 13.61178235709667 10.004711881279947 14.680270314216612 17.78273269534111 10.741822347044947 14.341390237212179 19.062294736504555 17.001983925700188 15.20503284037113 11.033958718180655 15.345914632081987 13.186883494257925 18.940783202648163 14.655531942844389 10.757026717066763
leaf_count=77 65 77 56 72 91 51 58 50 64 76 50 61 81 75 64 50 66 56 98 76 50
internal_value=0 0.0167059 -0.0387402 -0.00927157 -0.020726 -0.00269355 -0.0311277 -0.0511227 -0.03752 0.0281223 0.0248398 0.0215992 0.0117057 0.0258079 0.0218959 0.0443557 0.0292783 0.0350071 -0.0606725 -0.0650061 0.0417106
internal_weight=0 230.899 99.7039 70.4936 52.6294 25.4927 34.2224 74.2112 30.6102 160.405 133.425 111.926 33.4037 78.5225 61.5206 26.9801 46.3155 28.5328 43.601 24.6602 21.4988
internal_count=1464 1004 460 298 226 107 149 353 129 706 579 479 142 337 262 127 198 122 224 126 100
is_linear=0
shrinkage=0.05


Tree=17
num_leaves=22
num_cat=0
split_feature=1 9 4 4 5 9 5 5 4 5 5 5 5 5 5 2 9 9 1 9 1
split_gain=56.556 18.221 15.4638 17.8671 10.9089 4.2567 5.03867 3.55244 3.40366 3.18162 2.29802 1.73626 2.93102 1.76875 1.36921 1.67434 0.924581 1.85525 0.568976 0.470459 0.424873
threshold=-0.18661955054809273 0.38031145123879145 0.0019331857151482824 -0.1194640369534362 0.013478475581650612 0.72472719603223201 -0.013747100879816471 0.0078395284438459324 -0.031400071841779946 0.024876679278611796 0.0077080792612578344 -0.0088166425566391666 0.0035328967499002792 -0.0021327858148714731 0.028211923792753873 -0.085960821585827019 -0.27152057888234171 -0.19547556639183225 -0.13832785243438464 -0.42534436975762374 -0.046941989790404502
decision_type=2 2 2 2 2 2 2 2 2 2 2 2 2 2 2 2 2 2 2 2 2
left_child=2 4 3 -1 11 6 19 -4 -8 10 16 18 13 -13 15 -6 -10 -18 -2 -5 -17
right_child=1 -3 7 5 14 -7 8 -9 9 -11 -12 12 -14 -15 -16 20 17 -19 -20 -21 -22
leaf_value=-0.027412430376434895 -0.015750973361464592 0.015387529688904208 0.00099256394400849238 0.040810372875918988 -0.070268310404566714 0.057007119470556838 -0.00098173586777750509 -0.032085691807379572 0.017549185998869312 0.0079228889366398415 0.046956765664555908 -0.023016794374171413 -0.0092885326077821427 -0.050675411747482572 -0.034682937053523759 -0.040377890859896681 0.046100336905987728 0.02126435685572169 -0.00023660051654307218 0.054482843827176566 -0.052929363705128255
leaf_weight=15.081618219614027 11.9812398403883 23.874452337622643 18.751359015703201 13.869391590356829 11.63533294200897 13.085467115044592 13.785974144935606 14.311742991209028 21.155209571123116 19.576562941074371 16.625398889183998 11.648719236254694 16.777393594384193 11.473529085516928 11.415676981210707 11.614002645015715 12.42143408954143 19.053220748901381 11.661861985921858 11.515619665384291 16.073577478528026
leaf_count=64 51 100 78 69 56 63 58 61 92 83 72 50 77 51 56 57 55 86 51 53 81
internal_value=0 -0.0243401 0.0177382 0.0243148 -0.0326396 0.0298442 0.0270674 -0.0133257 0.0221335 0.0257208 0.0307517 -0.0188354 -0.0251977 -0.0367413 -0.0499272 -0.0543527 0.0256327 0.0310658 -0.00809857 0.0470127 -0.0476644
internal_weight=0 138.156 189.233 156.17 114.281 141.088 128.003 33.0631 102.618 88.8318 69.2553 63.5427 39.8996 23.1222 50.7386 39.3229 52.6299 31.4747 23.6431 25.385 27.6876
internal_count=1464 630 834 695 530 631 568 139 446 388 305 280 178 101 250 194 233 141 102 122 138
is_linear=0
shrinkage=0.05


Tree=18
num_leaves=22
num_cat=0
split_feature=0 7 4 9 8 7 8 0 0 4 7 8 4 4 0 0 8 8 9 0 9
split_gain=73.9221 15.2931 15.2511 9.3953 11.7146 7.70764 10.5489 4.3522 6.2701 10.4044 3.2537 2.66422 2.47002 2.2495 1.91559 1.38437 1.74891 1.33417 0.298594 0.292857 0.16003
threshold=0.080868466160664856 -0.18344649384271036 0.0019331857151482824 0.35414428611389931 -0.64650077712635412 -0.24122039624018049 -0.62546580222640791 -0.10412113618536305 0.039920107618810159 -0.031400071841779946 -0.21903845144364589 -0.6012317934790784 0.014168068178947392 -0.045633318441332914 -0.09412025279747431 -0.026556352547744546 -0.29146294110792298 -0.68147794257758065 -0.42347598332807806 0.21820680059969341 -0.42534436975762374
decision_type=2 2 2 2 2 2 2 2 2 2 2 2 2 2 2 2 2 2 2 2 2
left_child=2 11 3 4 14 6 -4 -6 9 -9 -5 -2 13 19 20 16 -11 -16 -14 -13 -1
right_child=1 -3 5 10 7 -7 -8 8 -10 15 -12 12 18 -15 17 -17 -18 -19 -20 -21 -22
leaf_value=0.039792109937745755 -0.02800938704231893 -0.00037968287471218496 0.013381009853854618 0.02623103881808574 0.027321006775008372 0.020218807631077071 -0.04559315382548889 -0.035916575258554712 0.031637280141332248 0.0280279189645832 0.059356368702819712 -0.059496807513031713 -0.060055676791983287 -0.02586601803724823 0.015972411998359227 -0.0061618679736229077 0.0039351240246620275 0.037672119664243088 -0.070987509235620347 -0.048143252585433192 0.047369073391164397
leaf_weight=13.220537915825846 12.591581597924231 21.04359033703804 12.00409679114818 12.120675936341287 19.055313050746918 14.244710907340048 20.586997881531719 19.867117390036583 13.53184826672077 12.195675745606421 19.086314678192139 10.675664871931074 13.154230713844301 10.926094472408296 16.277347385883335 13.092494428157808 19.699042156338692 12.54079696536064 11.894958496093748 12.137055829167364 14.73647493124008
leaf_count=66 55 88 50 52 84 59 89 84 58 54 91 52 71 51 72 57 86 55 60 63 67
internal_value=0 -0.0378385 0.0150316 0.0214709 0.0164079 -0.0104618 -0.0238715 0.00588893 0.000678888 -0.00578058 0.0464906 -0.0488818 -0.0533524 -0.0445214 0.0344614 0.00752799 0.0131476 0.0254155 -0.0652468 -0.0534564 0.043786
internal_weight=0 92.4232 232.259 185.424 154.217 46.8358 32.5911 97.4415 78.3862 64.8543 31.207 71.3796 58.788 33.7388 56.7752 44.9872 31.8947 28.8181 25.0492 22.8127 27.957
internal_count=1464 440 1024 826 683 198 139 423 339 281 143 352 297 166 260 197 140 127 131 115 133
is_linear=0
shrinkage=0.05


Tree=19
num_leaves=23
num_cat=0
split_feature=0 1 6 3 0 0 6 7 1 1 6 6 1 0 6 6 6 0 6 7 0 1
split_gain=67.846 21.69 16.3295 5.97578 5.51756 6.14792 4.74645 4.70534 4.15713 4.01636 3.20987 4.11314 2.90578 3.0041 1.57246 1.56204 4.64106 1.32099 0.722296 0.490343 0.408455 0.31546
threshold=0.064539038026429366 -0.18941482619118499 0.40390860556389058 1.0000000180025095e-35 -0.10285542723609371 0.03779870811228829 1.1038745972626651 -0.21903845144364589 -0.16021743205250807 -0.18661955054809273 -1.1963852858819457 -0.31011159136842231 -0.18626364233862325 0.18290956511302717 -1.2493137637810439 0.82053051533717813 0.69299981435488489 -0.055970715453299714 -0.044549810454378481 0.27522183355770741 0.12926846330526023 -0.0034054507065867335
decision_type=2 2 2 2 2 2 2 2 2 2 2 2 2 2 2 2 2 2 2 2 2 2
left_child=1 3 12 6 -3 7 10 8 -6 -4 14 -12 13 -2 -1 16 17 -13 -10 -17 -14 -22
right_child=2 4 9 -5 5 -7 -8 -9 18 -11 11 15 20 -15 -16 19 -18 -19 -20 -21 21 -23
leaf_value=0.025346151572593418 -0.020712879012460647 0.020939274932241125 0.017877923685172586 0.062415515360057489 -0.0069058010254107009 0.021411634372158959 0.055641042600460447 0.0011030552766888131 -0.032837725140841413 -0.019726732986412782 -0.0035213490999630188 0.019494196398026638 -0.049324978832375049 -0.054461277826737722 0.049603548253284453 0.039125742473662503 -0.0072395327818548212 0.040602398114879833 -0.05061976082690909 0.02533007394960686 -0.065737628019801486 -0.055292402090292563
leaf_weight=14.857407227158548 14.289374694228174 16.63582968711853 12.045087173581125 10.98086081445217 13.62219016253948 11.991769418120382 10.857231080532072 20.649038940668106 11.325866892933844 17.296974033117294 19.82872998714447 20.235162019729611 10.729547083377836 12.24423575401306 12.139531075954435 12.571574762463571 14.072062894701956 11.696398824453359 11.518719762563707 13.208207622170447 15.123172894120216 13.847078204154968
leaf_count=71 59 71 50 54 57 52 55 85 51 76 82 88 57 56 58 58 61 50 50 61 85 77
internal_value=0 0.014904 -0.0353408 0.0270019 -0.0049121 -0.0111351 0.0239982 -0.0179685 -0.0287676 -0.0042898 0.0211017 0.0166365 -0.0490968 -0.0362865 0.0362538 0.0222047 0.0166834 0.027226 -0.0418038 0.0320576 -0.0576586 -0.0607451
internal_weight=0 226.191 95.5755 140.447 85.7434 69.1076 129.466 57.1158 36.4668 29.3421 118.609 91.6121 66.2334 26.5336 26.9969 71.7834 46.0036 31.9316 22.8446 25.7798 39.6998 28.9703
internal_count=1464 1004 460 638 366 295 584 243 158 126 529 400 334 115 129 318 199 138 101 119 219 162
is_linear=0
shrinkage=0.05


Tree=20
num_leaves=23
num_cat=0
split_feature=0 7 8 7 4 9 9 9 9 8 8 7 0 0 9 9 8 9 9 0 8 9
split_gain=62.139 15.0771 11.3499 18.271 12.2444 7.23731 3.72671 3.68706 3.5989 3.54259 3.65392 2.31209 2.30288 1.9477 1.7269 3.37058 1.65859 1.42574 1.41304 1.00297 0.627106 0.802412
threshold=0.064539038026429366 -0.29484907593518239 -0.64459721649170698 -0.16065103208718362 0.0057531879066233379 0.67833429378457277 0.28488480137356265 -0.36584581286869411 -0.25485040658945857 -0.28634946654661009 0.40396959923063447 0.36482941630415033 0.13281601374053625 -0.12257196382612039 -0.42477468949433866 -0.41213465451837733 1.3053063778920602 -0.2841524268583922 -0.41443514679177057 0.21968643218827585 0.21105214987201051 -0.42224200733928635
decision_type=2 2 2 2 2 2 2 2 2 2 2 2 2 2 2 2 2 2 2 2 2 2
left_child=2 12 13 4 6 9 7 -4 -9 -5 11 -11 18 -1 -15 -16 -3 -17 -2 20 21 -14
right_child=1 16 3 5 -6 -7 -8 8 -10 10 -12 -13 19 14 15 17 -18 -19 -20 -21 -22 -23
leaf_value=0.045113028676752091 -0.020547911910222785 0.012256807995254151 0.016180149919838654 0.035827906123631764 -0.041730015092392658 0.056402809540914201 0.02639114503233805 -0.032507755844176055 0.00068535226713852286 -0.016485555268100673 0.028497916061249497 0.013814897110841912 -0.061092605153314078 0.0091209960255513572 0.053460933331912742 0.0090709416606602252 -0.013467511355283499 0.031949940494461287 -0.044268318891432637 -0.039291126857183584 -0.068441092199000755 -0.042578173476103175
leaf_weight=18.299964725971222 10.730989858508112 12.204701930284502 15.287840515375136 17.620040655136108 21.526463866233826 14.695597037672995 12.560662239789961 14.236485779285426 19.151330381631855 13.753785148262979 15.026675343513487 11.610322654247282 13.659513905644415 11.578050047159193 11.785771116614336 12.543308302760122 12.877401754260061 14.895780071616178 15.131446316838263 9.8550485372543317 9.3376677185296995 10.238791733980181
leaf_count=93 50 52 66 81 94 72 54 60 83 58 66 52 73 53 53 53 55 66 74 53 51 52
internal_value=0 -0.0341458 0.0142666 0.00677258 -0.00929307 0.0250603 0.00210952 -0.00415631 -0.0134681 0.0171205 0.00895961 -0.00261564 -0.0462208 0.0311267 0.0260887 0.031097 -0.000950314 0.0214912 -0.0344261 -0.0532997 -0.0574535 -0.0531604
internal_weight=0 94.0356 224.572 155.469 82.7628 72.7064 61.2363 48.6757 33.3878 58.0108 40.3908 25.3641 68.9535 69.1029 50.8029 39.2249 25.0821 27.4391 25.8624 43.091 33.236 23.8983
internal_count=1464 460 1004 686 357 329 263 209 143 257 176 110 353 318 225 172 107 119 124 229 176 125
is_linear=0
shrinkage=0.05


Tree=21
num_leaves=24
num_cat=0
split_feature=0 6 8 7 0 5 5 6 0 6 0 5 6 5 8 8 0 0 6 6 5 0 8
split_gain=56.8912 14.9632 10.8728 16.767 5.47858 4.13885 3.16043 5.17818 2.90178 4.85465 2.74951 2.82455 2.53785 2.76289 2.12527 2.8607 1.33018 1.24854 0.752023 0.531716 0.393678 0.16465 0.0855892
threshold=0.080868466160664856 0.77316704368753941 -0.64459721649170698 -0.16065103208718362 0.039920107618810159 0.0013049445026443801 -0.013147781725304635 0.054648364517404575 -0.10285542723609371 0.56401497662550959 0.13049851848131069 0.028211923792753873 0.18122657909001899 -0.00074477156483104758 -0.28634946654661009 0.12970141821475942 0.12869800293375852 -0.019247329037879322 -1.2000783791704859 -1.2506386277397945 0.027755193582066417 0.20975685634682481 -0.0097569789119566694
decision_type=2 2 2 2 2 2 2 2 2 2 2 2 2 2 2 2 2 2 2 2 2 2 2
left_child=2 10 6 4 8 14 19 18 -4 12 16 20 13 -10 -5 -16 -2 -7 -8 -1 21 -12 -22
right_child=1 -3 3 5 -6 17 7 -9 9 -11 11 -13 -14 -15 15 -17 -18 -19 -20 -21 22 -23 -24
leaf_value=0.037102751900530084 -0.040437959084567633 0.0090358766820596518 0.0028796458064368289 0.04624628997018923 0.017979918314957832 -0.0030841493750199764 0.018803271224067646 0.044658113154252471 -0.035952067226745592 -0.049099168246203202 -0.056326429595520089 -0.025830992270747956 0.0074588715601872236 -0.0054438679778992458 0.010799749817249358 0.043306356283860474 -0.01662309213630616 0.018173584480949034 0.0030169041864268084 0.052914971186883292 -0.065038774243478717 -0.046998893506647266 -0.058472519325352051
leaf_weight=9.7657374590635317 13.504428416490557 16.351819947361946 17.058102533221245 17.771490126848221 15.305948257446287 12.955328673124315 13.870887458324434 17.022849768400192 14.539992228150364 11.801699832081793 9.3289186060428637 9.1194928139448148 11.301303774118422 15.157392442226413 16.498116493225101 11.475990474224089 10.362867623567579 14.795970454812048 16.53967721760273 11.669822484254835 9.6812648326158524 9.5995971411466581 10.182429507374763
leaf_count=51 66 68 73 85 66 59 63 76 64 50 48 49 50 66 73 52 49 66 70 60 50 53 57
internal_value=0 -0.0341294 0.0131879 0.00598677 -0.0091129 0.0234835 0.0297778 0.0225774 -0.0150489 -0.0208411 -0.0439628 -0.0508696 -0.0127068 -0.0203808 0.032725 0.0241351 -0.0300979 0.00824969 0.0102174 0.0457111 -0.0567559 -0.051596 -0.0616728
internal_weight=0 88.1308 227.53 158.661 85.1644 73.4969 68.869 47.4334 69.8585 52.8004 71.779 47.9117 40.9987 29.6974 45.7456 27.9741 23.8673 27.7513 30.4106 21.4356 38.7922 18.9285 19.8637
internal_count=1464 440 1024 704 369 335 320 209 303 230 372 257 180 130 210 125 115 125 133 111 208 101 107
is_linear=0
shrinkage=0.05


Tree=22
num_leaves=23
num_cat=0
split_feature=0 3 6 9 9 6 4 9 0 4 0 6 6 0 6 6 6 6 9 6 6 9
split_gain=52.2254 18.1434 14.2213 9.6941 7.33382 7.92089 7.3384 4.98809 4.45583 5.8191 4.08679 3.73265 2.74856 2.49383 2.22947 2.03411 1.74436 1.23491 1.06291 0.961042 0.152718 0.0347644
threshold=0.064539038026429366 1.5918796184818247 0.40390860556389058 0.33550235967990105 -0.41579488166338008 0.99098389876986281 -0.01144361911193874 -0.42457763624704098 -0.098398705583736867 -0.044205915487223017 -0.048126885345151665 0.1559131681344329 0.65190404299334803 0.13049851848131069 0.83452647574229311 -0.19024712994418461 0.82053051533717813 0.58990518363598365 -0.40274635368295769 -1.0836506932838048 -0.67280491860900382 -0.36584581286869411
decision_type=2 2 2 2 2 2 2 2 2 2 2 2 2 2 2 2 2 2 2 2 2 2
left_child=1 3 13 4 7 6 8 10 17 -10 -1 -8 15 18 -4 -11 -5 -6 -2 -15 -21 -22
right_child=2 -3 14 16 5 -7 11 -9 9 12 -12 -13 -14 19 -16 -17 -18 -19 -20 20 21 -23
leaf_value=0.024120591399183933 -0.020579265361845317 0.072231862712948 -0.016903503461337496 0.022928184318283119 0.0076992208131107451 0.029106715040981574 -0.050129824397552508 0.044124588294263981 -0.030100207198712266 0.0003402151404637358 -0.013780986259734108 -0.012745013026638861 -0.012501419384920108 -0.038788145634111822 0.010835039414365887 0.029903218086076284 0.044829557140006797 0.030036388722726973 -0.042773126463334893 -0.052239723343195543 -0.061465270567837488 -0.05725650834759563
leaf_weight=18.683160141110424 10.907147988677027 12.249492928385733 14.354680702090265 19.766120418906212 12.763185530900957 18.05395120382309 11.925707444548609 16.148718431591988 18.289447963237762 11.781322747468947 11.483945444226263 15.169784337282179 15.006827652454374 9.6456304490566236 14.623595565557478 11.496472716331484 16.834511578083038 12.009877070784567 10.67430731654167 11.379749566316603 10.578083589673044 9.1508923619985598
leaf_count=94 51 61 65 88 55 85 52 74 78 50 50 65 65 51 61 50 83 54 54 67 61 50
internal_value=0 0.0130857 -0.0318459 0.00962602 0.00467518 -0.00155747 -0.00666256 0.0216976 0.000844121 -0.00689951 0.0096923 -0.0291994 0.00418401 -0.0452995 -0.00290553 0.0149408 0.0330018 0.0185282 -0.0315565 -0.0525771 -0.0568525 -0.0595131
internal_weight=0 221.663 91.3141 209.413 172.812 126.497 108.443 46.3158 81.3471 56.5741 30.1671 27.0955 38.2846 62.3358 28.9783 23.2778 36.6006 24.7731 21.5815 40.7544 31.1087 19.729
internal_count=1464 1004 460 943 772 554 469 218 352 243 144 117 165 334 126 100 171 109 105 229 178 111
is_linear=0
shrinkage=0.05


Tree=23
num_leaves=25
num_cat=0
split_feature=2 7 9 5 9 7 8 9 9 5 9 9 9 8 5 5 9 9 8 9 5 2 5 8
split_gain=38.6669 13.0364 12.2614 12.7697 7.05373 5.68615 5.21413 4.84924 5.68069 4.1496 4.26194 3.0394 2.4298 2.21435 1.9835 1.74041 1.38755 1.30906 1.29701 1.23185 1.0234 0.719051 0.449495 0.134148
threshold=-0.27761873020517364 0.048389120212773466 0.33550235967990105 0.011642642929911752 0.38031145123879145 0.41796494300942677 -0.39187298703915857 -0.41579488166338008 -0.42457763624704098 -0.011868937135379749 -0.25590910055120547 -0.3351495228109323 -0.42169874792872036 -0.6012317934790784 -0.016489710096188482 -0.002571692407580884 -0.17368943084730193 -0.35342122909751389 -0.46240310447444183 -0.18935759822681872 -0.0019189023991349069 0.34163212772894619 0.02325027413811499 0.55272522283246495
decision_type=2 2 2 2 2 2 2 2 2 2 2 2 2 2 2 2 2 2 2 2 2 2 2 2
left_child=2 4 3 7 6 -3 17 8 14 -9 18 12 13 -5 -1 -4 -13 -2 -11 -12 -8 22 -22 -23
right_child=1 5 15 11 -6 -7 20 9 -10 10 19 16 -14 -15 -16 -17 -18 -19 -20 -21 21 23 -24 -25
leaf_value=0.030832423754602236 -0.031873107136805814 0.029495824350503609 0.031078466769861882 0.0029971549659006183 0.0029067187892251661 -0.016142621197132116 -0.037248642899101882 -0.013083066187893217 0.059635817149203275 0.01142050608879009 0.039721395774077982 0.016074792027973656 -0.037985998106337383 -0.027004806531157777 0.0023740240891132135 0.056170197317898865 -0.00837896861320994 -0.0068128173047401989 -0.010883281714670682 0.020323144065170162 -0.053678600913875253 -0.064761762839765688 -0.037985787330635311 -0.055954083608102972
leaf_weight=14.367631703615187 9.9593525379896182 13.241965338587763 13.500961840152742 13.595331788063048 11.235655903816221 14.083600506186484 14.370376735925673 14.824630811810492 12.815894633531569 14.402846902608873 13.685887992382048 11.372483789920809 11.98877441883087 11.23063461482525 10.669825837016107 14.158036112785338 11.840747833251951 10.930114939808844 11.906669199466704 20.358498021960258 9.5053621232509631 8.6656142026186007 8.7762678414583188 8.6271197348833066
leaf_count=78 52 55 68 62 49 58 68 65 61 62 62 50 53 52 48 69 52 50 52 93 52 52 52 49
internal_value=0 -0.023939 0.0130104 0.00806997 -0.0338986 0.00597376 -0.0397366 0.0179678 0.0325627 0.010619 0.0164409 -0.0105674 -0.0195014 -0.010575 0.0187047 0.0439224 0.00360127 -0.0187607 0.00132667 0.0281213 -0.0485098 -0.0530587 -0.0461451 -0.0603677
internal_weight=0 109.395 200.719 173.06 82.0699 27.3256 70.8342 113.032 37.8534 75.1785 60.3539 60.028 36.8147 24.826 25.0375 27.659 23.2132 20.8895 26.3095 34.0444 49.9447 35.5744 18.2816 17.2927
internal_count=1464 537 927 790 424 113 375 521 187 334 269 269 167 114 126 137 102 102 114 155 273 205 104 101
is_linear=0
shrinkage=0.05


Tree=24
num_leaves=22
num_cat=0
split_feature=0 1 7 2 0 0 2 7 0 7 8 1 0 0 0 0 8 8 0 2 0
split_gain=45.4838 16.5652 12.4674 5.50163 4.33343 5.0956 4.57515 5.97094 2.93228 3.3497 4.54838 2.90247 1.93281 1.48868 2.14689 1.48665 2.69538 2.55098 0.80193 0.334773 0.00591862
threshold=0.064539038026429366 -0.18941482619118499 -0.29484907593518239 -0.20308509907542774 -0.10510161494888155 0.03779870811228829 -0.21159803436613531 -0.16065103208718362 0.023893736556934938 0.41796494300942677 -0.67871566686262563 -0.11512517237998222 0.17636709772736733 -0.12257196382612039 -0.060962243703939378 -0.067879075708397199 -0.29421336983204216 -0.57712022455581302 -0.05472283339063979 1.0499628807190817 0.1718568954151822
decision_type=2 2 2 2 2 2 2 2 2 2 2 2 2 2 2 2 2 2 2 2 2
left_child=1 8 3 12 -3 6 -6 18 9 10 13 -4 -2 -1 -15 16 17 -12 -8 20 -5
right_child=2 4 11 19 5 -7 7 -9 -10 -11 15 -13 -14 14 -16 -17 -18 -19 -20 -21 -22
leaf_value=0.050108070581671799 -0.017959280461160809 0.022266211795990414 0.015739498279112484 -0.062986924519792029 0.0021602627304977166 0.020053673957872584 -0.033517676286718659 -0.0024897943309141204 0.0048007487291375356 0.047305598177076698 0.00065522846278589738 -0.018615832955655571 -0.041063485232379932 0.016341546195958023 0.045905907109727979 0.024787735634513943 -0.010196076822259217 0.031566355367145631 -0.05250015354758978 -0.04978785458075264 -0.061246819900786655
leaf_weight=12.909448862075804 18.941698953509331 12.297226116061209 13.376623287796976 8.4986355304718071 22.316142722964287 11.886604592204092 11.166986033320422 15.415098428726198 18.787015914916992 16.037861898541451 12.193273365497587 11.376235425472258 17.337537929415703 14.121056497097014 10.865564465522768 21.885024905204773 12.930171608924864 14.746665909886362 11.088462412357332 7.8254700452089301 11.497691214084623
leaf_count=73 83 54 56 53 95 52 50 63 84 83 55 51 89 65 52 98 57 71 52 50 78
internal_value=0 0.0122343 -0.0301897 -0.0418282 -0.00516127 -0.00985399 -0.0157803 -0.0264084 0.0231225 0.0260978 0.0226846 -4.99643e-05 -0.0290006 0.0363209 0.0291978 0.0143167 0.0085691 0.0175757 -0.0429754 -0.0585553 -0.0619864
internal_weight=0 218.647 88.8539 64.101 84.1705 71.8733 59.9867 37.6705 134.476 115.689 99.6512 24.7529 36.2792 37.8961 24.9866 61.7551 39.8701 26.9399 22.2554 27.8218 19.9963
internal_count=1464 1004 460 353 366 312 260 165 638 554 471 107 172 190 117 281 183 126 102 181 131
is_linear=0
shrinkage=0.05


Tree=25
num_leaves=21
num_cat=0
split_feature=0 3 2 7 0 2 8 7 7 0 0 7 8 8 0 2 7 8 8 0
split_gain=41.6938 17.4443 14.1541 10.8178 5.3304 4.9894 3.90717 5.27979 3.23454 2.6383 1.87475 1.13651 1.2962 0.920355 0.9078 0.88439 0.784273 0.510512 0.246933 0.00782207
threshold=0.080868466160664856 1.5918796184818247 -0.35264578955494225 -0.18344649384271036 -0.10344371449420482 -0.20308509907542774 -0.46240310447444183 0.035402963444472045 0.41796494300942677 -0.12925704630465565 0.17636709772736733 -0.27630413627891387 -0.62546580222640791 -0.68147794257758065 -0.05472283339063979 -0.079743483179056135 0.142412135012113 0.56952113894261591 -0.41906737447886816 0.1718568954151822
decision_type=2 2 2 2 2 2 2 2 2 2 2 2 2 2 2 2 2 2 2 2
left_child=1 2 8 5 -4 10 -6 15 9 -1 -2 12 13 14 -11 -8 -13 19 -14 -7
right_child=3 -3 4 -5 6 17 7 -9 -10 11 -12 16 18 -15 -16 -17 -18 -19 -20 -21
leaf_value=0.035583573722103315 -0.016435657472520109 0.070162139861187786 0.019578988868799579 0.0010991677429653905 0.004807221876269396 -0.062369398589173675 -0.022019017550644129 0.0017308199308010783 0.038230722997293048 -0.0013665694106299202 -0.039756491150507001 0.027408008429697678 -0.0050284469092607038 0.023938251300335056 0.018471291811000667 -0.039249520533533352 0.010386868174638214 -0.046734998306151881 0.0045084111293678631 -0.060291851825657529
leaf_weight=13.904670566320418 17.456341311335564 11.908236309885977 14.401099190115927 20.649570852518082 19.88348700106144 7.7334857657551828 11.548851445317267 16.308916166424751 17.811200216412544 11.901547759771342 17.02030348777771 17.065471291542057 11.831112906336786 15.694841101765634 11.187992542982103 20.968114942312241 11.214948698878286 9.1483650952577573 15.921667993068693 10.939577318727968
leaf_count=76 77 62 63 88 85 50 50 67 93 53 89 81 50 71 52 99 55 58 67 78
internal_value=0 0.0112945 0.00795067 -0.030264 -0.00807975 -0.0406597 -0.0138769 -0.0214856 0.0184799 0.0152442 -0.0279486 0.0122615 0.00869272 0.0145961 0.00824583 -0.0331299 0.0206581 -0.0564115 0.000442813 -0.0611523
internal_weight=0 221.552 209.644 82.9476 83.1105 62.2981 68.7094 48.8259 126.533 108.722 34.4766 94.8176 66.5372 38.7844 23.0895 32.517 28.2804 27.8214 27.7528 18.6731
internal_count=1464 1024 962 440 364 352 301 216 598 505 166 429 293 176 105 149 136 186 117 128
is_linear=0
shrinkage=0.05


Tree=26
num_leaves=23
num_cat=0
split_feature=3 1 6 6 4 4 8 8 4 6 1 8 8 8 8 6 6 8 6 6 6 8
split_gain=32.2816 29.4289 12.2792 8.09311 9.39786 9.23841 6.30529 3.17929 4.21632 4.49023 2.97731 2.59137 2.59553 1.71382 3.49049 2.51851 2.17334 1.31326 0.456205 0.95357 1.05505 0.252391
threshold=1.5918796184818247 -0.18661955054809273 0.19988033090201765 1.1038745972626651 -0.01144361911193874 -0.044205915487223017 -0.64650077712635412 -0.16071045755527763 -0.056794250111087428 0.81625605771112941 -0.19273918767904949 -0.41566050345794053 -0.52923950820897392 0.12970141821475942 -0.29146294110792298 -0.2863453619480994 -1.204031811869354 -0.40479495806472515 -0.16999718339865805 -0.45477559653560584 -0.83193532429290573 -0.56061866328447729
decision_type=2 2 2 2 2 2 2 2 2 2 2 2 2 2 2 2 2 2 2 2 2 2
left_child=1 3 11 4 5 17 -6 -4 -9 -10 13 12 -3 14 15 16 -7 -1 19 20 -13 -17
right_child=-2 2 7 -5 6 10 -8 8 9 -11 -12 18 -14 -15 -16 21 -18 -19 -20 -21 -22 -23
leaf_value=-0.026849946258929704 0.077633318056115286 -0.038665658162757292 0.0094576490093742898 0.049853465703467513 0.0098522223716344115 0.020441489926506032 -0.036775900600442279 -0.039224431264013065 -0.021753592543053406 0.017890058753597532 0.038390854926551775 -0.056507772674760218 -0.006022481431477403 0.030357837257442705 -0.0086984201602389021 0.026118050538183359 -0.0077992524088420379 -0.0035627594945323465 -0.037868557827182493 -0.064900147548439022 -0.031791220162249459 0.036967813064917678
leaf_weight=11.244218915700914 12.812422767281531 15.477634042501451 21.012254282832146 11.980709075927733 12.191116139292719 16.654903292655941 17.888949394226074 12.112215071916578 16.025379449129108 12.886204347014425 18.092757597565651 8.4135806262493151 10.039362758398054 16.484563395380974 15.158326983451841 10.555979907512667 11.528189688920973 13.116370320320128 10.29710331559181 7.7839975282549885 8.8686534464359266 10.889612510800367
leaf_count=50 68 74 91 65 53 87 80 56 74 53 88 56 51 76 67 50 50 58 57 48 56 56
internal_value=0 -0.00347417 -0.0220138 0.0102714 0.00718816 0.0132823 -0.017878 -0.00635828 -0.0144592 -0.00408399 0.0200473 -0.0379665 -0.0258226 0.0159636 0.0123011 0.0187151 0.00888972 -0.0143115 -0.0467291 -0.050369 -0.0438241 0.0316273
internal_weight=0 288.702 122.916 165.786 153.805 123.725 30.0801 62.0361 41.0238 28.9116 99.3643 60.8803 25.517 81.2716 64.787 49.6287 28.1831 24.3606 35.3633 25.0662 17.2822 21.4456
internal_count=1464 1396 616 780 715 582 133 274 183 127 474 342 125 386 310 243 137 108 217 160 112 106
is_linear=0
shrinkage=0.05


Tree=27
num_leaves=25
num_cat=0
split_feature=0 3 6 5 6 4 0 4 0 5 5 0 0 0 6 6 6 0 5 6 5 6 5 6
split_gain=36.4131 14.4371 11.7079 5.695 6.59338 4.17366 3.92162 5.3647 3.60845 2.8632 3.343 2.37271 2.25309 3.71623 1.84218 1.83904 1.62141 1.35041 1.31369 1.00288 0.894896 0.678267 0.213866 0.222635
threshold=0.064539038026429366 1.5918796184818247 0.40390860556389058 -0.014041190576454249 0.19988033090201765 0.0057531879066233379 -0.10510161494888155 -0.043594171364033055 -0.09912960793472339 -0.004331774682913043 0.0058811584185079974 0.13049851848131069 -0.084493734028383519 -0.067879075708397199 0.68972024725837222 -1.1174400716335684 0.83452647574229311 -0.062994508777414096 0.0098157220871619138 -1.0836506932838048 -0.011024543233669764 -0.83193532429290573 0.022671006553828452 -0.64252889575456062
decision_type=2 2 2 2 2 2 2 2 2 2 2 2 2 2 2 2 2 2 2 2 2 2 2 2
left_child=1 3 11 17 5 9 20 -8 -9 -5 -11 21 -10 -14 -15 -12 -4 -1 -16 -13 -6 -2 -21 -24
right_child=2 -3 16 4 6 -7 7 8 12 10 15 19 13 14 18 -17 -18 -19 -20 22 -22 -23 23 -25
leaf_value=0.039648365995672098 -0.017817210886068562 0.066848048303851035 -0.013663047829415588 -0.017149433171772109 0.021352140132381073 -0.028402542877573402 -0.017574349762138671 -0.012784767030274919 0.038754235043633761 0.029866682293415325 -0.017848156709713767 -0.033845019506566286 -0.010187253797094202 0.037857921504024609 0.0018379701295929852 0.0095554009179526327 0.010291048333502683 0.01590521959587236 0.02622392268624173 -0.046272027009798794 0.04150637888733031 -0.036093653177111683 -0.049715892328347902 -0.060529407959028218
leaf_weight=15.164416521787645 9.9637907221913355 10.970570772886274 13.83139753341675 16.88438968360424 11.012264624238016 17.283408597111702 16.77251760661602 10.62866088747978 11.4701562076807 11.637466117739676 11.014986619353293 8.8747126981616002 11.82128317654132 12.259637698531156 11.360932484269144 13.783509388566019 14.439131751656531 9.8972502648830396 10.746996060013769 7.9704869166016605 11.019028678536413 10.349208161234854 8.203765921294691 11.338850408792494
leaf_count=84 49 61 65 74 52 77 72 50 56 53 50 51 54 55 53 60 61 48 52 51 53 56 56 71
internal_value=0 0.0109814 -0.0277131 0.00795861 0.00481161 -0.00705017 0.0126319 0.00776243 0.0139855 -0.000128946 0.00775833 -0.0408184 0.0189203 0.0139949 0.0223127 -0.0026167 -0.00142853 0.0302718 0.0136923 -0.0484604 0.0314324 -0.0271288 -0.0531747 -0.05599
internal_weight=0 213.727 84.9713 202.757 177.695 70.6038 107.091 85.0602 68.2877 53.3204 36.436 56.7008 57.659 46.1888 34.3676 24.7985 28.2705 25.0617 22.1079 36.3878 22.0313 20.313 27.5131 19.5426
internal_count=1464 1004 460 943 811 314 497 392 320 237 163 334 270 214 160 110 126 132 105 229 105 105 178 127
is_linear=0
shrinkage=0.05


Tree=28
num_leaves=23
num_cat=0
split_feature=3 6 8 4 4 4 5 4 6 6 8 8 5 5 8 6 6 6 8 6 6 8
split_gain=28.6191 16.0139 25.024 6.41783 6.0077 5.39094 5.33148 4.88138 4.39274 4.80404 2.95941 2.43926 1.8655 1.7405 1.69974 1.6954 1.67485 1.66697 1.50368 1.1472 1.07351 0.124025
threshold=1.5918796184818247 0.38737557640192671 -0.64650077712635412 1.0000000180025095e-35 -0.10531235623697521 0.022297467860449463 0.004869668098253818 -0.090508148455778301 0.58502323225315045 0.82053051533717813 -0.29146294110792298 0.045465059890294764 0.0062064394466073564 0.013068532368155529 -0.68087494771147095 1.159261375401113 -0.31011159136842231 -1.184812165468571 -0.20768021073332552 -0.91460047010272472 -1.2506386277397945 -0.16071045755527763
decision_type=2 2 2 2 2 2 2 2 2 2 2 2 2 2 2 2 2 2 2 2 2 2
left_child=1 2 6 7 -3 8 17 13 -6 10 -10 -7 -5 -4 -8 18 19 20 -11 -9 -1 -14
right_child=-2 4 3 12 5 11 14 16 9 15 -12 -13 21 -15 -16 -17 -18 -19 -20 -21 -22 -23
leaf_value=0.023268506502654693 0.075215711753960302 -0.02371374446344103 -0.021795200731840825 -0.032519708042490054 0.045398958657136432 -0.024827005523880692 -0.020518281706867043 -0.0074954060418453376 0.018989975819225152 0.029767624601724024 -0.01398855451937372 0.0080403597650568412 -0.05199941928694897 -0.049781846420419357 0.0075158403549825063 0.042447440195531677 0.00021851237257674552 0.012558833254500874 0.01019846179954708 -0.029804617786906913 0.046670331144155697 -0.05987341182968188
leaf_weight=9.7536097615957242 12.121129296720026 11.943658798933027 9.4462960213422793 14.868943974375723 13.393218547105787 11.250107139348986 10.593753144145014 10.989151008427141 10.844277605414392 18.320245236158364 18.252959340810776 11.330392777919768 10.087605372071266 13.487168736755846 11.043206274509428 9.8743439316749555 21.404016211628914 14.262396439909933 21.1477988511324 12.115865901112558 9.8490997999906558 9.9179908633232117
leaf_count=54 68 54 49 73 62 50 49 50 51 91 79 50 61 86 51 54 95 62 97 56 55 67
internal_value=0 -0.00323487 -0.0138554 -0.0285193 0.0100301 0.0135526 0.0131773 -0.0195144 0.0189344 0.0144157 -0.00169775 -0.00833489 -0.0459334 -0.0382541 -0.00621005 0.0239179 -0.00985867 0.0255641 0.0192821 -0.019194 0.0350264 -0.055903
internal_weight=0 284.176 157.819 102.317 126.357 114.413 55.5021 67.4425 91.8328 78.4396 29.0972 22.5805 34.8745 22.9335 21.637 49.3424 44.509 33.8651 39.468 23.105 19.6027 20.0056
internal_count=1464 1396 808 537 588 534 271 336 434 372 130 100 201 135 100 242 201 171 188 106 109 128
is_linear=0
shrinkage=0.05


Tree=29
num_leaves=22
num_cat=0
split_feature=0 2 6 9 2 8 0 0 8 6 0 6 0 6 6 9 0 0 6 6 0
split_gain=31.3095 11.9373 9.90693 8.87115 5.98166 5.15679 4.7325 6.28042 4.98462 4.47833 2.37643 2.22898 2.07283 1.86168 2.24631 1.7179 1.50651 1.07814 0.937215 0.733004 0.00274903
threshold=0.080868466160664856 -0.35264578955494225 0.77316704368753941 0.037230205664673964 -0.20308509907542774 -0.62918469281645362 0.039920107618810159 -0.10344371449420482 0.19456952240239139 -1.1674524848485091 -0.062994508777414096 0.94526847666640434 0.13049851848131069 0.69299981435488489 -0.3266356472288085 -0.42372356258150717 -0.091553181125716754 -0.062031856900505021 0.82053051533717813 0.025715563483967845 0.17310477747784211
decision_type=2 2 2 2 2 2 2 2 2 2 2 2 2 2 2 2 2 2 2 2 2
left_child=1 3 4 9 12 -3 7 -7 10 17 -9 13 -2 14 -11 -14 -16 -1 -5 20 -6
right_child=2 5 -4 18 19 6 -8 8 -10 11 -12 -13 15 -15 16 -17 -18 -19 -20 -21 -22
leaf_value=0.038605462944893448 -0.0062704115420872848 0.026376879333009768 0.0078177836716812749 0.034758210306223794 -0.059947587064594521 0.018528035711969117 0.020393857501056038 -0.020467959296204829 0.0037027934444563409 -0.0062018818567383151 -0.045813571743098337 0.025473549840423916 -0.04682961539715088 -0.013159361115424437 0.0027781997803849974 -0.017967562358432849 0.027372471307686497 0.019708505459186412 0.05270577836519879 -0.042468259431954619 -0.058662136201103957
leaf_weight=13.963099785149099 13.013585805892943 11.416658565402029 16.124867677688599 14.753363706171514 6.4938784986734452 11.307160437107084 11.035724490880964 20.236098378896706 13.201021149754522 18.865862786769863 17.03226466476918 11.671006068587301 9.8647577390074712 15.766582578420637 11.083209633827208 10.800230890512468 14.209046125411993 16.428811311721802 14.347918860614298 10.413791060447691 11.568627424538134
leaf_count=87 58 51 68 73 48 49 49 89 57 80 80 62 55 72 50 56 63 80 82 61 94
internal_value=0 0.00982029 -0.0271046 0.0192572 -0.0361646 -0.00486678 -0.00976565 -0.0151533 -0.0226993 0.0123092 -0.0320513 0.00548284 -0.0219017 0.00158943 0.00685546 -0.0317453 0.0165951 0.0283904 0.043607 -0.0530332 -0.0591243
internal_weight=0 215.318 78.2797 131.089 62.1549 84.2289 72.8123 61.7765 50.4694 101.988 37.2684 71.5957 33.6786 59.9247 44.1581 20.665 25.2923 30.3919 29.1013 28.4763 18.0625
internal_count=1464 1024 440 649 372 375 324 275 226 494 169 327 169 265 193 111 113 167 155 203 142
is_linear=0
shrinkage=0.05


Tree=30
num_leaves=22
num_cat=0
split_feature=0 6 9 8 6 9 0 9 0 0 5 5 6 5 6 0 9 0 6 9 5
split_gain=28.697 9.22756 7.82714 10.7141 5.22103 2.85476 3.04492 2.95308 2.45298 2.36837 3.10941 2.00578 3.25824 1.76928 2.15997 1.3926 1.16701 1.01963 0.663212 0.661573 0.155017
threshold=0.080868466160664856 0.77316704368753941 0.33550235967990105 -0.64650077712635412 0.99098389876986281 -0.36584581286869411 -0.10412113618536305 -0.080680480461317192 -0.076614250147016602 0.13049851848131069 0.028211923792753873 -0.014041190576454249 1.0000000180025095e-35 -0.00074477156483104758 0.82053051533717813 0.12869800293375852 -0.41942648165947405 -0.031815284097525612 -1.2506386277397945 -0.42372356258150717 0.027755193582066417
decision_type=2 2 2 2 2 2 2 2 2 2 2 2 2 2 2 2 2 2 2 2 2
left_child=2 9 3 11 5 -5 -7 8 -8 15 19 18 16 14 -4 -2 -13 -10 -1 20 -11
right_child=1 -3 13 4 -6 6 7 -9 17 10 -12 12 -14 -15 -16 -17 -18 -19 -20 -21 -22
leaf_value=0.026774772567576752 -0.033051377557145885 0.0074261491308623435 0.0072790901859119857 0.0089717696852759012 0.023106640131854022 0.0083581915725782826 -0.026327085936953199 -0.03650331174004752 0.0075412902818750962 -0.051648647264511342 -0.013754971636099692 0.015104662243369628 0.035662040446635096 0.04443361094517586 0.038528498460450047 -0.0074537943511355925 -0.0052643292511868889 -0.010156043333952742 0.046716938503109123 -0.041912665073526728 -0.061427960553862765
leaf_weight=8.2161087617278117 12.087542265653612 16.126442596316338 11.921304501593115 20.055997744202614 15.651951044797896 14.870361134409903 17.448429331183426 14.635454490780829 13.286994859576216 8.3928558230400103 7.6248925104737273 17.325979426503181 14.769480302929876 14.063294202089308 10.313816942274569 9.4808512032031995 11.835516870021822 21.006024852395072 8.4641866683959943 15.441612787544729 7.835481993854045
leaf_count=51 66 68 56 90 79 68 78 66 59 57 49 82 70 71 55 49 51 95 53 94 57
internal_value=0 -0.0262022 0.00939702 0.00507223 -0.00376943 -0.00792194 -0.0120922 -0.0166737 -0.0110647 -0.0351124 -0.0424197 0.022133 0.0165284 0.0305533 0.0217742 -0.0217994 0.00683768 -0.00329913 0.0368942 -0.0493211 -0.0563704
internal_weight=0 76.9897 213.865 177.566 116.955 101.303 81.2473 66.3769 51.7414 60.8632 39.2948 60.6113 43.931 36.2984 22.2351 21.5684 29.1615 34.293 16.6803 31.67 16.2283
internal_count=1464 440 1024 842 535 456 366 298 232 372 257 307 203 182 111 115 133 154 104 208 114
is_linear=0
shrinkage=0.05


Tree=31
num_leaves=22
num_cat=0
split_feature=2 9 8 7 7 2 8 6 6 8 9 7 6 8 9 7 9 2 9 9 6
split_gain=21.8945 9.99522 6.69677 6.99636 6.70163 5.38022 4.96999 4.0393 6.04656 3.91285 2.70094 1.78688 2.51538 4.12021 1.78198 1.36591 1.22962 1.21564 0.917057 0.368952 1.05833
threshold=-0.34977611490691546 0.33550235967990105 -0.64459721649170698 0.048389120212773466 0.48541864766833137 -0.15296317988364735 -0.49809379951734062 -1.2000783791704859 0.19988033090201765 -0.67639136024384705 0.32315778605484297 0.40415935614796078 0.58502323225315045 -0.29146294110792298 -0.3380375645233627 -0.27630413627891387 1.2473491308452793 0.096115056400432691 -0.39361719236364751 -0.42477468949433866 -1.2493137637810439
decision_type=2 2 2 2 2 2 2 2 2 2 2 2 2 2 2 2 2 2 2 2 2
left_child=1 7 -2 5 -5 6 -4 19 9 -9 15 12 -10 -14 -11 17 -3 -7 -19 20 -1
right_child=2 16 3 4 -6 10 -8 8 11 14 -12 -13 13 -15 -16 -17 -18 18 -20 -21 -22
leaf_value=0.0082508473565644554 0.024320091517490039 0.032762433860483317 -0.035887827559200398 0.022725064980395233 -0.026160046942266531 -0.056991328281128628 0.0084522234358911322 0.0082869158248533911 0.023268975872948763 -0.031764420632711877 -0.011974902946428877 0.026271860869339317 0.019002286928420851 -0.016025418498957677 -0.0074254109456137231 -0.0229796763048737 0.05656240482033225 -0.026813826596311225 -0.046994494502216072 0.029431971256923425 0.031536261983516826
leaf_weight=11.256283991038801 9.289552688598631 12.97907890379429 10.374909050762655 16.088908091187481 12.425051078200338 14.137688420712946 16.169012360274792 16.763202697038651 16.746333077549934 18.181144982576374 9.4458447396755201 16.684489950537682 15.150420263409613 18.828971698880196 12.825358197093008 8.2660112455487234 9.3268347904086095 9.8390958309173531 13.157514102756982 12.0581888705492 8.6139286085963267
leaf_count=63 43 70 50 68 52 96 78 79 79 87 44 86 73 81 55 39 55 73 81 62 50
internal_value=0 0.0115251 -0.0164447 -0.0198904 0.00142322 -0.0273573 -0.00887845 0.00679596 0.00243377 -0.0111751 -0.0363005 0.0120776 0.00740887 -0.000407586 -0.021697 -0.0413616 0.042714 -0.0454534 -0.0383602 0.0225323 0.0183453
internal_weight=0 169.414 119.194 109.904 28.514 81.3901 26.5439 147.108 115.18 47.7697 54.8462 67.4102 50.7257 33.9794 31.0065 45.4003 22.3059 37.1343 22.9966 31.9284 19.8702
internal_count=1464 840 624 581 120 461 128 715 540 221 333 319 233 154 142 289 125 250 154 175 113
is_linear=0
shrinkage=0.05


Tree=32
num_leaves=22
num_cat=0
split_feature=1 5 4 4 5 8 1 1 5 4 2 8 2 8 8 8 8 5 8 5 2
split_gain=20.6231 7.33293 6.45335 7.78911 7.56574 3.81881 2.73315 2.63317 2.54995 3.73056 3.39499 2.43969 2.87241 2.27623 2.96649 1.51862 1.53696 1.77268 1.31041 1.72337 0.808558
threshold=-0.18661955054809273 0.012919259567589379 -0.01144361911193874 -0.043594171364033055 0.012658589154660442 -0.64650077712635412 0.26334028140268601 -0.19273918767904949 0.0031764243903393348 -0.044912819807353628 -0.20827908033882467 0.56952113894261591 0.40779981323773867 -0.16071045755527763 -0.47810476259584461 0.12970141821475942 -0.29146294110792298 0.014596907609773072 -0.61477399178002634 -0.012439292910677259 -0.36082631004479243
decision_type=2 2 2 2 2 2 2 2 2 2 2 2 2 2 2 2 2 2 2 2 2
left_child=2 6 3 4 -1 -4 8 15 9 -2 -11 13 -13 14 -3 16 17 18 19 -5 -9
right_child=1 11 5 7 -6 -7 -8 20 -10 10 -12 12 -14 -15 -16 -17 -18 -19 -20 -21 -22
leaf_value=0.014523591643626941 0.0059901969011741775 -0.049838599783440962 0.012276339791186176 0.030742906296098826 -0.038943905079408592 -0.02318133820988505 0.015103218161238977 0.049673986927535302 0.011903670759152801 -0.0064925074559336248 -0.040451152008008098 0.0037892488117582837 -0.033982374096378512 -0.054608641132841834 -0.0088972473314282655 0.030917177556338646 0.0023489351904537013 0.0010209395977615226 0.035036538938251816 0.0045531275206747652 0.029155221072884731
leaf_weight=15.791362300515177 13.864493124186987 8.0322136580944079 12.642594292759897 11.844734564423559 11.387282148003576 19.014175057411194 13.412023857235907 9.0745529830455798 10.594582483172415 13.218362987041472 16.606491737067707 9.3017048165202159 10.968663886189459 13.287182033061979 9.8503876551985758 19.124653019011021 17.835180297493935 10.518963769078253 16.323739089071754 13.373518899083136 10.19540126621723
leaf_count=71 64 46 57 75 55 90 63 51 54 59 79 47 64 92 62 97 86 49 88 66 49
internal_value=0 -0.015922 0.0113041 0.0160536 -0.00787817 -0.0090208 -0.00510875 0.02206 -0.0101026 -0.015439 -0.0254007 -0.0301524 -0.0166497 -0.0389336 -0.0272866 0.0184325 0.0150165 0.0193561 0.0239989 0.0168542 0.0388179
internal_weight=0 119.136 167.126 135.469 27.1786 31.6568 67.696 108.291 54.2839 43.6893 29.8249 51.4402 20.2704 31.1698 17.8826 89.0208 69.8961 52.061 41.542 25.2183 19.27
internal_count=1464 630 834 687 126 147 319 561 256 202 138 311 111 200 108 461 364 278 229 141 100
is_linear=0
shrinkage=0.05


Tree=33
num_leaves=21
num_cat=0
split_feature=0 1 9 9 9 9 1 1 1 0 5 0 8 8 5 0 8 8 1 5
split_gain=23.9504 8.46873 6.09848 5.77224 5.10936 4.70302 3.78162 3.45735 2.87193 2.5915 3.05952 3.75311 2.46497 3.38511 1.97096 1.53212 1.35621 1.31319 0.867461 0.747321
threshold=0.064539038026429366 -0.18941482619118499 0.67833429378457277 -0.30918597512034879 0.037230205664673964 -0.39000853055438617 -0.18626364233862325 -0.18668078733568208 -0.19273918767904949 0.023893736556934938 -0.014041190576454249 -0.051513993800942869 -0.29421336983204216 -0.58339585242651526 -0.0018141886435138783 -0.082889314233535058 -0.50460185804992064 0.92737439594684057 -0.058319050083059633 -0.002571692407580884
decision_type=2 2 2 2 2 2 2 2 2 2 2 2 2 2 2 2 2 2 2 2
left_child=1 4 5 6 8 -3 16 -5 9 10 -1 12 13 -12 15 -7 -2 -9 -8 -6
right_child=3 2 -4 7 19 14 18 17 -10 -11 11 -13 -14 -15 -16 -17 -18 -19 -20 -21
leaf_value=0.035029609970768039 -0.0073467193662800981 0.015489144009603863 0.02747911402490151 0.014590490644173372 0.029976736405791668 -0.019269057542267994 -0.057772313092574579 -0.032842638886994006 0.032038346902754623 -0.012598101826124884 -0.0070314413790099443 0.024587303275754081 -0.02171400397007156 0.029157382756294006 -0.028201476474598575 0.0027091301411573893 -0.031710930772459636 -0.0074163678330404674 -0.038589687971072345 0.047488582570776254
leaf_weight=12.098033726215361 10.771279230713846 14.589346438646315 13.195871159434317 11.633904591202738 14.478292882442476 16.366926297545433 12.54363599419594 9.7360006272792834 15.234186202287672 12.463315293192862 17.664160802960392 20.821349829435356 11.036794632673262 10.189500302076338 21.592536538839344 15.381885692477224 12.159345179796217 10.614409588277338 11.11647494137287 10.518361590802668
leaf_count=78 52 68 57 51 81 73 94 62 81 55 81 97 50 53 98 70 61 51 89 62
internal_value=0 0.00894562 -0.00362468 -0.0235075 0.0171364 -0.00966674 -0.034736 -0.00715138 0.0120598 0.00844822 0.012101 0.00745552 -0.00171657 0.00620725 -0.0165471 -0.00862091 -0.0202662 -0.0195808 -0.0487595 0.0373456
internal_weight=0 205.631 81.1266 78.5751 124.504 67.9307 46.5907 31.9843 99.5073 84.2732 71.8098 59.7118 38.8905 27.8537 53.3413 31.7488 22.9306 20.3504 23.6601 24.9967
internal_count=1464 1004 366 460 638 309 296 164 495 414 359 281 184 134 241 143 113 113 183 143
is_linear=0
shrinkage=0.05


Tree=34
num_leaves=21
num_cat=0
split_feature=1 9 9 4 4 5 9 5 1 6 9 9 6 6 9 4 6 1 6 4
split_gain=17.0549 8.6049 7.68916 6.85803 10.228 6.28716 4.64627 3.91213 3.31389 2.73469 2.32572 2.11255 1.95993 1.94221 1.81578 1.6486 1.6474 1.20147 0.99702 0.343888
threshold=-0.18661955054809273 0.40970653709245791 0.037230205664673964 -0.044205915487223017 0.0057531879066233379 0.013478475581650612 -0.41213465451837733 0.012311028604088522 -0.19273918767904949 0.74372142218887127 -0.38472135142487046 -0.27152057888234171 0.70666970209235302 -0.58195881457748722 -0.42438143999082528 0.079692660929515949 0.69299981435488489 -0.13268972016424316 0.82053051533717813 -0.068213473743966593
decision_type=2 2 2 2 2 2 2 2 2 2 2 2 2 2 2 2 2 2 2 2
left_child=2 5 3 7 8 9 -6 -1 11 10 -2 13 15 14 -5 19 -13 -12 -4 -7
right_child=1 -3 18 4 6 12 -8 -9 -10 -11 17 16 -14 -15 -16 -17 -18 -19 -20 -21
leaf_value=0.00021237013660976639 0.00091074110338048284 0.013604861690421867 0.024898820383195894 0.0040238912403923683 0.0046246639390270013 -0.028317416075156907 -0.038155356853093493 -0.041094105839665593 0.037611510748679022 0.0082101900930905709 -0.035152696331019008 0.03974722412383374 -0.015968802528022196 -0.00813353836846239 0.030355592085211172 -0.059660944792200299 0.014446581586262967 -0.015183939330958655 0.04337712820450082 -0.041681504738051239
leaf_weight=11.967399239540102 12.771853573620314 21.972040094435215 15.558539822697641 16.577944159507751 12.276977553963663 10.257214620709421 13.139971598982809 11.001781702041624 18.086466141045094 14.372494041919706 14.16540516912937 10.689749151468279 8.622061535716055 14.643960654735563 10.820193342864515 9.9229123070836049 16.160601601004601 16.087566494941719 13.752513624727724 9.0704365223646182
leaf_count=52 73 98 79 97 59 76 58 54 97 60 66 50 38 67 51 83 85 83 85 53
internal_value=0 -0.0146013 0.0103503 0.00532277 0.0104104 -0.0211065 -0.0174916 -0.0195726 0.0185639 -0.0106728 -0.0169807 0.0135633 -0.0369191 0.00656613 0.0144229 -0.0430945 0.0245194 -0.0245339 0.0335687 -0.0345892
internal_weight=0 117.242 164.676 135.365 112.396 95.2699 25.4169 22.9692 86.9789 57.3973 43.0248 68.8924 37.8726 42.0421 27.3981 29.2506 26.8504 30.253 29.3111 19.3277
internal_count=1464 630 834 670 564 532 117 106 447 282 222 350 250 215 148 212 135 149 164 129
is_linear=0
shrinkage=0.05


Tree=35
num_leaves=23
num_cat=0
split_feature=3 0 6 1 9 9 9 1 6 9 0 0 0 1 0 9 6 6 6 0 1 6
split_gain=25.7152 20.8517 11.5142 6.2046 5.62067 5.07009 4.3548 3.75596 2.43185 3.32848 2.37535 3.14992 4.20418 2.30237 2.15883 1.81704 1.62383 4.1226 1.16248 0.12553 0.357585 0.113606
threshold=1.5918796184818247 0.064539038026429366 0.40390860556389058 -0.18941482619118499 0.67833429378457277 0.037230205664673964 -0.080680480461317192 -0.18626364233862325 0.37600911885307658 -0.39000853055438617 0.023893736556934938 -0.051513993800942869 -0.081445336418171435 -0.18661955054809273 -0.030923939767054254 -0.42347598332807806 -0.77898419924379858 0.74076907473890341 0.82053051533717813 0.21820680059969341 -0.0034054507065867335 -0.61840042043209875
decision_type=2 2 2 2 2 2 2 2 2 2 2 2 2 2 2 2 2 2 2 2 2 2
left_child=1 3 7 5 6 10 8 15 9 -5 11 12 16 -4 -13 -3 -1 -18 -7 21 -21 -9
right_child=-2 2 13 4 -6 18 -8 19 -10 -11 -12 14 -14 -15 -16 -17 17 -19 -20 20 -22 -23
leaf_value=0.026513729121532714 0.074394139528559222 -0.01013121425534866 0.01745872566358752 0.0076792304912302965 0.024795991010107356 0.023047710600938194 -0.032304439327943843 -0.052016220537375951 0.012374445528319733 -0.025402247573448444 -0.010730834610134694 0.040376144739297154 -0.02346845098111329 -0.011948442638967383 0.011187190262397728 -0.038772554179712718 -0.012904863688974755 0.024980732819285159 0.045555763580819468 -0.057979566319777055 -0.040804877222781449 -0.061193264706537201
leaf_weight=12.502447374165049 11.145136848092077 10.51896443963051 11.500809952616693 13.115473449230192 12.947596222162245 11.822035104036333 17.866402298212051 6.7205455526709557 16.205853909254074 18.092456340789798 14.676902607083319 12.572470337152483 10.88037797808647 15.799945175647734 12.767549917101858 11.693391397595404 15.247594982385644 13.572346374392508 11.144189625978468 6.2203330919146538 5.9103548899292928 6.7691147401928919
leaf_count=78 68 55 50 62 56 62 81 54 70 87 64 64 48 76 59 57 68 72 72 56 54 51
internal_value=0 -0.00311485 -0.025469 0.00556883 -0.00529798 0.012949 -0.0112668 -0.0402565 -0.00333941 -0.0114994 0.00771403 0.0112052 0.00418407 0.000439722 0.0256693 -0.0252091 0.0114651 0.00493683 0.0339696 -0.0533024 -0.0496117 -0.0566213
internal_weight=0 268.547 75.1335 193.414 78.2278 115.186 65.2802 47.8327 47.4138 31.2079 92.2197 77.5428 52.2028 27.3008 25.34 22.2124 41.3224 28.8199 22.9662 25.6203 12.1307 13.4897
internal_count=1464 1396 453 943 356 587 300 327 219 149 453 389 266 126 123 112 218 140 134 215 110 105
is_linear=0
shrinkage=0.05


Tree=36
num_leaves=22
num_cat=0
split_feature=0 6 1 4 1 0 4 4 4 1 1 4 1 6 6 6 8 1 6 6 6
split_gain=19.0202 7.36197 6.56618 5.08777 5.06505 3.18826 2.81543 2.36937 2.4581 2.45623 4.27959 2.28165 3.96919 2.65194 3.40218 1.93093 1.44363 1.20543 1.01508 0.975308 0.602823
threshold=0.080868466160664856 0.77316704368753941 -0.18941482619118499 -0.050173819266787247 -0.17705748740279911 0.17636709772736733 -0.01144361911193874 0.054135350894024478 0.0098994536304663708 -0.06695558042072737 -0.17602283063968902 -0.032786691854343845 -0.19273918767904949 0.82053051533717813 0.64157089976712067 0.19988033090201765 -0.16780982898890145 -0.070121950996611282 -1.1674524848485091 -0.083815754714042609 -1.255025873690786
decision_type=2 2 2 2 2 2 2 2 2 2 2 2 2 2 2 2 2 2 2 2 2
left_child=2 4 6 -4 5 -2 11 8 9 10 -5 -1 13 14 15 18 -15 -6 20 -19 -13
right_child=1 -3 3 7 17 -7 -8 -9 -10 -11 -12 12 -14 16 -16 -17 -18 19 -20 -21 -22
leaf_value=0.0016483622847087679 -0.00021572316829039409 0.0077305683347678351 0.019632757540789591 0.0058634363937300768 -0.059173712323133509 -0.034672182350554602 -0.0028263588386493372 0.0084961016735165176 -0.035653926705337978 0.010779157321753989 -0.033853531801330265 0.0097794206996346267 0.049088284001738487 0.044971100625013527 -0.015186304047760153 0.034727530771175616 0.019530588659279514 -0.047766869223668892 0.0016872570129417967 -0.023959761523007741 0.028861456415744752
leaf_weight=17.36888362467289 15.127105519175531 15.869059756398199 18.790999233722687 11.77322487533092 10.501960515975954 12.070616103708742 18.792092256247997 13.649129919707773 11.191082060337065 11.133393540978433 16.000043869018558 8.0918625146150571 11.336666040122507 10.801796615123751 9.8700983673334104 11.669776625931261 11.526862837374209 10.25930141657591 15.333402469754224 7.4085848778486243 8.4723127037286741
leaf_count=79 68 68 85 55 90 70 85 64 52 50 71 48 67 68 48 62 68 96 67 48 55
internal_value=0 -0.0222934 0.00768249 -0.00323173 -0.0308986 -0.0155078 0.0149907 -0.00997162 -0.0150031 -0.00906317 -0.0170173 0.0181956 0.0214952 0.0173665 0.0113198 0.0173247 0.0318378 -0.0457582 0.0109578 -0.037784 0.0195396
internal_weight=0 71.2366 205.802 82.5379 55.3676 27.1977 123.264 63.7469 50.0977 38.9067 27.7733 104.472 87.1028 75.7661 53.4375 43.5674 22.3287 28.1698 31.8976 17.6679 16.5642
internal_count=1464 440 1024 377 372 138 647 292 228 176 126 562 483 416 280 232 136 234 170 144 103
is_linear=0
shrinkage=0.05


Tree=37
num_leaves=23
num_cat=0
split_feature=3 2 5 4 1 4 1 2 5 4 2 1 1 1 1 5 5 5 5 5 5 5
split_gain=23.8171 12.8355 8.22744 3.44036 3.49888 4.56375 2.1418 2.43873 1.7737 1.74432 1.74995 1.0978 2.13499 1.25662 1.08245 0.666052 3.46163 2.04127 0.489882 0.591357 0.42256 1.21093
threshold=1.5918796184818247 -0.36038482163740376 0.012919259567589379 0.066370233357823591 -0.19273918767904949 -0.1194640369534362 0.26334028140268601 -0.29086338242683579 0.027728458155099344 0.0098994536304663708 0.086479356358951029 -0.16270597262656519 -0.049527651909578342 -0.13553104587160261 -0.12781937473689722 0.024609325008941085 0.0077080792612578344 0.0010710095166825099 -0.0045768494301111932 -0.013747100879816471 -0.010725997632537473 -0.008676281565062045
decision_type=2 2 2 2 2 2 2 2 2 2 2 2 2 2 2 2 2 2 2 2 2 2
left_child=1 3 6 4 5 -1 7 -3 14 10 -10 -9 13 -13 -4 16 17 18 19 -7 -21 -22
right_child=-2 2 8 -5 -6 15 -8 11 9 -11 -12 12 -14 -15 -16 -17 -18 -19 -20 20 21 -23
leaf_value=-0.025164532506486627 0.073129612785791123 0.0070884174347684865 -0.029644242548862443 -0.014707201491412483 0.035704481678923365 0.018402087826648827 0.014041456358239335 -0.029986704769745118 0.0016360536630743439 -0.038502229062967637 -0.029757507517437082 -0.013906749760835875 -0.027661555823789031 0.010483870709593798 -0.052018652727006565 0.0024204775211549628 0.035029814628343217 -0.013457659264303513 0.021814879784698392 -0.00050928717837045922 0.023221557306957675 -0.0006048724835484437
leaf_weight=9.8301403075456601 10.692958928644655 18.343303442001343 10.47450150549412 15.70368219912052 12.074716202914713 13.212023943662627 13.293578162789343 9.2363127544522268 9.7110407799482399 10.352458089590071 8.1765912845730764 9.995579011738295 11.657656900584699 11.195526368916036 11.170209877192972 20.467393770813942 14.125554785132406 9.6603455692529661 9.3873389288783198 14.642222397029384 9.9963987991213639 11.430114582181007
leaf_count=48 68 85 56 76 68 81 63 42 55 80 56 50 60 55 75 98 69 48 48 74 52 57
internal_value=0 -0.00298767 -0.0147401 0.00734945 0.0101243 0.00738485 -0.0041288 -0.00812605 -0.0304218 -0.0221678 -0.0127142 -0.0147575 -0.0104754 -0.00102088 -0.041191 0.0104937 0.0124977 0.0078396 0.0113464 0.00935233 0.00603739 0.0105112
internal_weight=0 264.137 123.607 140.53 124.826 112.752 73.722 60.4284 49.8848 28.2401 17.8876 42.0851 32.8488 21.1911 21.6447 102.921 82.454 68.3284 58.6681 49.2808 36.0687 21.4265
internal_count=1464 1396 677 719 643 575 355 292 322 191 111 207 165 105 131 527 429 360 312 264 183 109
is_linear=0
shrinkage=0.05


Tree=38
num_leaves=24
num_cat=0
split_feature=3 2 6 9 8 6 6 2 8 2 8 8 6 6 6 6 9 6 9 8 9 8 8
split_gain=22.2167 11.6708 8.03622 7.74206 5.10426 4.45859 5.35514 4.05528 3.84387 3.28124 3.04549 1.90885 1.80124 4.10694 1.53661 1.97098 1.33268 1.00376 0.846046 0.616119 0.582046 0.377261 0.166992
threshold=1.5918796184818247 -0.36038482163740376 0.19988033090201765 -0.01457486877350095 -0.22033915857329786 -1.2000783791704859 -1.0313649885590943 -0.11141132977647196 0.012793041798388324 -0.32464843862169696 0.19456952240239139 -0.50460185804992064 -0.64252889575456062 -0.19024712994418461 0.96294534551756727 0.71183627370546676 -0.20947508096546383 -1.2493137637810439 -0.25485040658945857 -0.42882946227773827 -0.39361719236364751 -0.28634946654661009 0.053761962904352312
decision_type=2 2 2 2 2 2 2 2 2 2 2 2 2 2 2 2 2 2 2 2 2 2 2
left_child=1 3 7 5 -4 17 -7 9 19 -3 -6 -11 -8 -14 15 21 20 -1 -12 -5 22 -15 -9
right_child=-2 2 4 8 10 6 12 16 -10 11 18 -13 13 14 -16 -17 -18 -19 -20 -21 -22 -23 -24
leaf_value=0.0097065379571683492 0.071821350852635205 -0.038012683947406346 0.018812231051045888 0.02344772311963093 -0.029226397042823107 -0.040767416372002943 0.016237240887139615 -0.036729843613721204 0.051128223783360932 -0.016363489347027204 0.0096515449001759526 0.014558058044689718 -0.033720692612002653 0.00030511204490384276 0.018216264792266346 -0.015986716688482269 -0.025493199602452533 0.029230777438839256 -0.0082521260715389243 0.0055288673708460551 -0.060703786109930283 0.01338318597319706 -0.048782498127562163
leaf_weight=14.632556617259981 10.352022379636763 10.493281684815885 20.290323719382286 10.291965372860433 15.627554155886171 9.311982795596121 13.170529246330259 6.1212728321552294 12.014346823096274 12.157264336943628 10.339845031499864 8.4670680910348874 9.8330581039190204 11.125421702861777 10.917219713330267 16.687336385250092 8.6464318111538869 11.966464325785635 18.236638747155666 8.9852448925375956 6.950918689370158 10.933657929301278 5.4172194749116898
leaf_count=84 68 52 93 58 71 45 61 52 67 65 55 50 46 52 60 77 50 68 81 51 55 50 53
internal_value=0 -0.00285657 -0.0141082 0.00701768 -0.00194942 0.000702604 -0.00506876 -0.0275695 0.0289303 -0.0152502 -0.0114793 -0.00366903 -0.000494137 -0.00419789 0.00164742 -0.00302103 -0.0416966 0.0184902 -0.00177403 0.0150956 -0.0492739 0.0067873 -0.0423885
internal_weight=0 262.618 122.748 139.87 64.4944 108.578 81.9792 58.2535 31.2916 31.1176 44.204 20.6243 72.6672 59.4967 49.6636 38.7464 27.1358 26.599 28.5765 19.2772 18.4894 22.0591 11.5385
internal_count=1464 1396 677 719 300 543 391 377 176 167 207 115 346 285 239 179 210 152 136 109 160 102 105
is_linear=0
shrinkage=0.05


Tree=39
num_leaves=23
num_cat=0
split_feature=3 0 9 1 1 1 9 0 0 0 9 0 9 0 9 9 9 0 0 1 0 0
split_gain=20.736 16.4883 5.64128 5.56523 4.99372 4.23649 5.71413 2.8801 2.97433 4.38441 2.61538 2.06153 1.85448 1.57849 1.13553 1.7592 1.12161 3.29262 0.849254 0.832045 0.733047 0.157397
threshold=1.5918796184818247 0.080868466160664856 0.33550235967990105 0.03054416309617616 -0.18661955054809273 -0.18941482619118499 -0.080680480461317192 0.023893736556934938 -0.051513993800942869 -0.082889314233535058 -0.30918597512034879 0.026211231816160491 -0.32454642799987515 -0.030923939767054254 -0.22296517815934125 -0.38143232905533597 -0.23471071501809312 -0.10984356678698924 0.18290956511302717 -0.058319050083059633 -0.081445336418171435 0.16080422571733724
decision_type=2 2 2 2 2 2 2 2 2 2 2 2 2 2 2 2 2 2 2 2 2 2
left_child=1 2 5 20 12 7 11 8 9 16 19 14 18 -10 15 -7 17 -1 -3 -6 -4 -12
right_child=-2 4 3 -5 10 6 -8 -9 13 -11 21 -13 -14 -15 -16 -17 -18 -19 -20 -21 -22 -23
leaf_value=0.023093092811660915 0.070576768524698727 -0.0086696313605160863 0.028242250829255723 -0.0049708950879126489 -0.059008227781252136 0.0020657172044352937 -0.039365277188564356 -0.011727946696087406 0.03815463379184611 -0.021294004802023321 -0.027106846504657472 0.016123918263906876 0.0068676961827424084 0.01332247295620545 0.0049280432603409363 -0.025123560755098473 0.022296271919104348 -0.011248133943652986 -0.029408150566732967 -0.038295832388573169 0.046888975530762544 -0.017495619135137662
leaf_weight=13.963540762662886 10.01638390868902 10.406990155577665 9.4578863829374296 11.129652291536329 10.12190004438162 10.187452122569079 12.682860389351843 16.685369461774826 12.258287146687509 12.639369174838064 8.4283220693469065 12.182033240795134 11.316134199500082 13.390053257346151 12.066541448235514 14.300131052732469 16.738603591918949 13.956081211566923 9.3912530243396741 9.3071122616529447 11.905192449688913 8.6124421134591085
leaf_count=89 68 47 56 48 91 49 59 74 65 57 50 58 50 63 54 68 88 64 56 87 70 53
